0.99466616 0.08006939 -0.74424803 -0.98490876 -0.36642393 -0.90742534 -0.2223542 -0.07945489 -0.2351408 0.26154652 -0.64146185 0.61212015 -0.63993055 0.9599398 -0.3149423 -0.84266526 -0.6491421 0.24854474 0.83323103 0.31602004 -0.64617467 0.7161099 0.19396453 -0.564145 0.027530245 0.65052396 0.5107581 0.22786595 -0.012649167 -0.9425063 -0.7111529 0.29770714 0.5273359 0.6939302 -0.89823383 0.8704576 -0.5598792 0.94467705 0.4387246 -0.5352006 0.40807202 0.2827037 0.86958474 0.24943621 -0.41027653 0.4527003 0.5488151 -0.550205 0.18970577 -0.5572774 -0.91987604 -0.47916663 -0.06686053 -0.17081992 0.36880675 0.7761843 -0.11676234 -0.66802615 -0.30180547 0.38241434 -0.9820444 0.46032724 -0.6891536 -0.7109381 0.9313256 -0.98525053 -0.25588977 0.6614868 -0.5946972 -0.95128155 -0.07088212 -0.36714646 0.05387682 0.40970984 0.2665019 -0.61138934 0.2849342 -0.023067473 -0.30156994 0.44041383 -0.36879474 -0.1667762 0.93181264 -0.1708473 -0.683312 -0.6611296 0.8167084 0.4618679 -0.84538585 0.72371525 -0.31860816 0.58381385 0.47188205 -0.047053218 0.17468096 0.10368102 -0.8482225 0.18107218 -0.31337154 0.88286394 -0.8204926 -0.1278176 0.7284609 0.7648465 0.42280394 -0.86619765 -0.3206748 -0.7312454 -0.69946766 0.67008364 0.8925325 0.1556058 0.91129255 -0.24349219 -0.8801662 -0.88652104 0.26081187 -0.6430753 -0.41460314 0.4889885 -0.48956504 -0.5017478 -0.8380155 0.6245941 0.6953915 0.47952062 -0.1410818 -0.88317513 -0.025593681 -0.5688733 0.190768 0.10404428 -0.15408857 -0.71035045 0.24392208 0.51826435 0.8672139 -0.5306672 -0.5343489 0.5588262 0.03598568 0.60393494 0.60743123 -0.8301013 0.72100747 0.4294306 0.9911225 0.005593688 0.12384122 -0.542791 0.07222944 0.53892434 0.28738743 0.9384218 -0.15196279 0.65613097 0.14988783 -0.20746246 0.90975213 -0.5100052 0.48387071 0.46206528 0.6110394 0.33421186 0.8447667 0.1597209 -0.842103 -0.06287997 -0.08743334 0.8822548 -0.88680243 0.7748555 0.71379346 -0.21684937 -0.55002195 -0.65106744 0.43332613 -0.072641864 -0.9296871 -0.6084094 -0.5294206 0.015018506 0.70261174 -0.20531797 0.71243984 -0.88119763 0.27161372 0.27657127 -0.7515495 0.016718667 -0.4443465 0.12414574 0.29825884 -0.01900582 -0.30962062 0.45994812 0.6058285 0.9654527 -0.9974798 0.4679338 0.85841495 0.67786324 0.7671775 -0.5038553 0.5948393 0.19295576 0.74693376 -0.8863213 0.3465249 0.7153094 -0.28427324 -0.5125441 0.6100588 -0.93569267 -0.113638766 -0.9646441 -0.3544381 0.6692208 -0.8317352 0.1061273 -0.6453961 0.5786646 -0.050426666 -0.83288157 -0.72402185 -0.47371444 0.3389397 -0.33049455 0.76384276 0.97649264 -0.32850337 -0.25703928 0.8385548 -0.7692274 -0.8764049 0.39615634 0.88325423 0.6986449 -0.66808677 0.6835765 0.010288525 -0.5137646 -0.13045129 0.0821662 -0.39176047 0.9864349 -0.27925673 0.19768058 0.21993077 0.86495674 -0.68528545 -0.112265214 -0.3654525 -0.42257804 0.969246 -0.10272035 -0.16604735 0.7348828 -0.90816957 0.07801422 -0.64387786 -0.41631976 0.3128015 0.8016894 0.27713948 0.9084648 0.019544836 -0.065335065 -0.5878951 0.75909203 0.75268304 0.16848639 0.20957296 0.9501194 -0.9530734 0.9819711 -0.37870768 -0.94695795 -0.94804144 0.36695254 0.06276128 0.4933019 0.6342151 0.15174527 0.338507 -0.91085595 0.69578564 0.59417987 0.33530724 0.46708778 0.874018 0.06578041 -0.7511299 -0.48737288 0.5583199 0.6700651 0.93658036 0.41535413 -0.41574004 -0.386993 -0.091135345 -0.2941185 -0.6032964 -0.7225615 0.34286702 -0.98083144 0.5900036 -0.5535882 -0.865375 -0.23692173 0.981984 -0.11964136 0.842168 0.47114423 -0.8633232 0.37715548 -0.4719563 -0.9899211 0.90406746 -0.7784773 -0.9419469 0.9563149 -0.12987876 0.5190432 -0.507556 0.43213183 0.8026714 -0.23130324 -0.35857838 0.5724228 0.03866021 0.24029934 -0.53064877 -0.08348272 0.747232 0.76300436 0.2173101 0.56936336 0.9251269 -0.12792006 0.75548124 -0.33011976 -0.9339416 0.39109454 -0.55986047 -0.84262 0.15670438 0.3370594 -0.8565316 0.57500196 0.049092676 0.9084116 -0.577921 0.9490732 0.028868498 0.78834623 -0.37654728 0.1929704 0.7000213 0.1252668 0.40057743 -0.6419214 0.18358755 0.56150335 -0.10396528 -0.08792697 0.23655392 0.56318307 0.59016824 -0.77932304 -0.4075672 -0.9487749 -0.4773665 0.31141403 -0.87288874 -0.728324 -0.6005986 0.55674726 -0.7092908 0.4493637 0.4041157 0.49496725 0.6385717 0.26478922
0.94024515 -0.20037921 -0.84947807 -0.9568837 -0.66404754 -0.90812737 0.33572727 -0.22710659 -0.17652479 0.40579325 -0.5226184 0.4333568 -0.38857022 0.7352294 -0.15130827 -0.813734 -0.50899774 0.2962829 0.61264664 0.15190817 -0.76698714 0.6387069 0.6093715 -0.34771997 0.07665435 0.68268347 0.47234526 -0.08854245 -0.5588293 -0.94409347 -0.3529959 0.20310892 0.33413702 0.24415523 -0.88585097 0.8032738 -0.28447124 0.35889214 0.54229563 0.40400115 0.5988546 -0.19374259 0.8799261 0.3058802 -0.5053025 0.33183068 0.23840466 -0.67474335 0.5556897 -0.24326983 -0.28257853 -0.76028067 -0.54533046 -0.26179093 0.69374305 0.22886658 0.31840995 -0.5484673 -0.2539189 0.44338673 -0.95102805 0.3926192 -0.6570923 -0.7394483 0.95867056 -0.6648302 -0.2699068 0.22230788 -0.42436892 -0.87409353 0.038540825 0.073045656 0.030361794 0.6425317 0.09312111 -0.39646 -0.014226241 -0.24528182 -0.82654864 0.51102334 -0.30122837 -0.4712551 0.9489663 0.106428035 -0.86265033 -0.32251316 0.88947713 0.017088976 -0.8014017 0.20791529 -0.2004565 0.7242306 0.062409867 -0.14744514 0.5141238 0.07132054 -0.9627558 0.28787357 -0.3203974 0.9054556 -0.46003434 -0.102810495 0.56971425 0.5910097 0.5794738 -0.6293292 -0.20215215 -0.7585962 -0.57007796 0.7513072 0.51713747 -0.48861113 0.95505327 -0.71368414 -0.92006034 -0.53906065 0.08729061 -0.710827 -0.13135603 0.024202896 -0.3282283 -0.5221323 -0.8975669 0.56693894 0.39026037 0.1772185 -0.277205 -0.5704883 0.35335973 -0.5166752 0.3275622 0.44329846 -0.41471717 -0.6530101 -0.040229358 0.505171 0.8120928 0.081041165 0.00844221 0.12836798 0.0409997 0.9198169 0.50298494 -0.89442 0.5492592 0.17094435 0.93007106 -0.22417352 0.25870174 -0.71192163 0.39589927 0.73703194 0.2771289 0.55101335 -0.10331882 0.640409 0.56373113 -0.27400565 0.95233625 -0.3013068 0.14768006 0.24212794 0.40850887 -0.04371691 0.75635237 -0.2815743 -0.83256274 0.2343207 -0.28871533 0.952757 -0.84237087 0.7193802 0.73294055 -0.61373127 -0.13707414 -0.41681182 0.55728453 0.35910213 -0.90025413 -0.3879395 -0.69485545 -0.6109976 0.13613252 -0.31399262 0.64906645 -0.671256 0.18839848 0.13794535 -0.43273416 0.48993212 -0.32681358 -0.09137972 -0.30685195 0.04629173 0.24433039 0.10594172 0.054299798 0.8202607 -0.9971547 0.24126047 0.752942 0.3022572 0.58710647 0.3883272 0.21928595 -0.50543875 0.80570495 -0.24834871 0.36244857 0.58404547 -0.25804535 -0.7182361 0.6048076 -0.82590985 -0.36600503 -0.5873901 -0.19920522 -0.10114457 -0.81584567 0.033331707 -0.68049014 0.5017258 0.27231804 -0.8816353 -0.31625855 -0.5155352 0.29357255 -0.07970891 0.21404107 0.68023896 -0.097862 -0.20162086 0.40761727 -0.4555221 -0.75036174 -0.10656004 0.48845395 0.34301862 -0.32637444 0.5037643 -0.4648658 -0.12166546 -0.16585836 0.51136684 -0.25664297 0.8590128 -0.28427953 -0.26734182 -0.13207112 0.891931 -0.82157296 0.15987858 -0.4914788 -0.4077834 0.9474362 -0.5424947 -0.16400872 0.51260346 -0.8985133 0.16141956 -0.37748107 -0.40940407 -0.01020285 0.8064421 0.4184693 0.7868685 -0.28108057 0.014374054 -0.27755484 0.45100573 0.49072513 -0.33417416 -0.17129652 0.9355946 -0.81690764 0.8786789 -0.26955613 -0.7771848 -0.7607637 0.8299424 -0.18179594 0.5596138 0.6806174 -0.3868679 0.2641244 -0.9403051 0.3610871 0.8411421 0.3517925 0.4259091 0.6375996 0.266918 -0.56564784 0.15846537 0.59040487 0.57798177 0.58799416 0.85470366 -0.352055 -0.04875719 -0.46100536 -0.43139285 -0.7315011 -0.8327585 0.78281015 -0.8956831 0.41624305 -0.6549933 -0.38109165 -0.22038619 0.8642486 -0.31202698 0.8070452 0.16822992 -0.8049069 0.07406326 -0.47418848 -0.90578413 0.06784365 -0.70720834 -0.89963424 0.94932115 0.60999537 0.6390717 0.3348576 0.5126648 0.30853376 -0.43326586 -0.028950682 0.6699295 0.43332505 -0.37934893 -0.13237533 0.009477666 0.895571 0.5557961 -0.2950823 0.24720885 0.23262446 -0.101239465 0.4568339 -0.38476238 -0.6549473 0.1990905 -0.3399171 -0.48362496 0.28575075 -0.41384768 -0.9006998 0.78840214 -0.028226675 0.38018543 -0.58338726 0.7639786 -0.5355312 0.53506017 -0.056802254 -0.36392164 0.49694923 -0.40159392 0.48171306 -0.837373 0.110504664 0.34544545 -0.10446851 0.22058298 -0.15886617 0.20934184 0.6076703 -0.58417934 -0.3216434 -0.5951931 -0.6209373 0.45548305 -0.7493511 -0.8764862 -0.009527907 0.057112463 -0.8812563 0.5543723 0.18402629 0.10018239 0.575217 0.4185611
0.5207012 -0.59186375 -0.12766947 -0.9712999 -0.8276639 -0.9454278 0.51920485 -0.1511998 0.5230546 0.25186753 -0.59095174 0.53664166 -0.13885821 0.41394073 -0.17429256 -0.40743676 0.031439137 0.25566375 0.6209345 -0.059248798 -0.842605 0.6870295 0.22639315 -0.07169224 0.06434932 0.82839614 0.8616455 0.35861805 -0.6752009 -0.8918312 -0.33459267 0.35058513 0.35525095 -0.29783937 -0.92601764 0.52357006 -0.041753035 0.24811119 0.65485775 0.07895639 0.6260045 0.22507152 0.91966194 0.24350809 -0.63881856 0.064045355 0.34078383 -0.28920412 0.65141445 -0.62800634 -0.44919652 -0.2870087 -0.6348522 -0.48825085 0.7574291 0.27735144 -0.09122299 -0.60783154 -0.6315392 0.19433275 -0.70742315 0.23060009 -0.3265996 0.013097461 0.89783233 -0.6532691 -0.6517024 0.4119276 -0.77740014 -0.86734784 -0.050090753 -0.0056540184 0.19941004 0.2984008 0.24014276 -0.67583567 -0.18770763 0.15100078 -0.6138978 0.8318881 -0.56407446 -0.68801624 0.80480015 0.35117188 -0.6744302 0.16876733 0.93396914 0.21911357 -0.55984455 0.2661893 0.34885842 0.40067536 -0.25820675 0.2912871 0.18207152 0.24943195 -0.51171035 -0.17412546 -0.056858696 0.7131534 -0.6417871 0.23678817 0.72917074 0.6382112 0.29579404 -0.47886255 -0.33703178 -0.8345096 -0.19993822 0.4595245 0.49399024 -0.5578403 0.90218157 -0.7242776 -0.91447085 -0.6398526 -0.20344876 -0.6039135 -0.017025419 0.2857968 -0.4253828 -0.40409443 -0.8513061 -0.10592661 -0.1621838 -0.047460854 0.482723 -0.83131313 0.34496984 -0.76000476 0.5166504 0.43089095 0.0071409554 -0.6798399 0.025406659 0.27153683 0.6115791 -0.045036457 -0.04864036 0.06810004 0.3345579 0.7059046 0.26712778 -0.6211853 0.53966403 -0.0081763975 0.9680098 0.35991544 0.57033783 -0.18066585 -0.09516565 0.6780035 -0.11461599 0.4243138 -0.30012175 0.44222668 0.62329257 -0.04727859 0.5408506 -0.51497334 0.7582297 0.3019048 0.18339913 -0.07310634 0.69844234 0.12582143 -0.7169085 0.46999073 0.07136152 0.8899139 -0.64086634 0.51248693 0.8180486 -0.5588978 0.11138386 -0.56588584 0.7527021 0.27985275 -0.65984803 -0.36901632 -0.27505517 0.22579247 -0.25938508 0.11950778 0.7873142 -0.8151062 0.56634194 0.23789297 -0.35371435 0.39885247 0.22075595 -0.68105805 0.2114367 -0.058347758 0.72087187 -0.27311072 0.71791273 0.5416755 -0.9965436 0.37240016 0.67268276 0.11094143 -0.012590512 0.63383746 0.5481156 -0.23209433 0.7398533 -0.31047797 0.53308105 0.21593499 -0.030417178 -0.46238822 0.46477607 -0.42805794 -0.7058431 -0.28558376 -0.29418164 0.44202712 -0.8691778 -0.49508673 -0.7529993 0.4180566 -0.11942122 -0.9279363 -0.30855513 -0.46112144 0.6766745 0.05075132 -0.25960755 0.3853496 0.024282213 -0.4087048 0.35535625 -0.4774229 -0.74740636 0.26621038 0.5681557 0.4932917 -0.6845472 0.53428745 -0.24320364 -0.26033542 -0.17167374 0.08897243 -0.42818815 0.927192 -0.18484792 0.023628969 -0.17083415 0.9386786 -0.37865064 0.04260361 -0.7719912 -0.8146215 0.9495208 -0.16110355 -0.47654983 0.5017832 -0.88253206 -0.20974909 -0.106256545 0.20699494 -0.04948496 0.7685421 0.13019769 0.6225514 -0.08053865 0.24201173 -0.22468987 0.39713663 0.20562509 -0.24322857 0.3691402 0.62931985 -0.8229203 0.803693 -0.56502396 -0.7451806 -0.66784924 0.46989155 -0.682379 0.84543306 0.3559237 -0.13115263 0.6054308 -0.90415764 0.2497054 0.18980965 0.24985857 0.21962558 0.5561572 -0.021675784 -0.28740105 0.7225502 0.43657884 0.053134624 0.83850425 0.8997005 -0.17513125 -0.07021857 -0.54368263 0.27207062 0.35532644 -0.8136566 0.25745636 -0.9577834 0.72457093 -0.49050936 -0.40373278 -0.6214456 0.8934185 -0.21976192 0.87334967 0.31409368 -0.8291719 -0.123160064 -0.71369135 -0.9763423 -0.10479732 -0.7734017 -0.9482401 0.8769784 -0.12663187 0.5532147 -0.039336257 0.15503865 0.070320554 -0.867685 -0.3050581 0.5433595 0.49404517 -0.6314226 0.2084377 0.010830616 0.62743586 0.33663502 -0.4075415 0.07533994 -0.09394059 -0.67715275 0.15817982 -0.40347895 -0.36532712 0.4489477 0.1187857 -0.07101494 0.37608847 0.31963646 -0.9053824 0.78326476 0.2530195 0.38569134 -0.460479 0.4679839 -0.5857476 0.71427584 -0.45320597 -0.14912003 0.5489496 -0.80108505 0.61389375 -0.38059166 0.505196 0.19360118 0.06431998 0.1826216 -0.34918892 0.5244247 0.59423864 -0.81164 -0.37930486 -0.48766568 -0.5707225 0.6082673 -0.4993417 -0.8108252 0.052683424 -0.00677652 -0.92252666 0.3059224 -0.20992619 0.114345 0.5618654 0.07778044
0.09643641 -0.6787603 -0.3682087 -0.95519024 -0.93657434 -0.891924 0.2956247 0.13278751 0.6566329 0.7975569 -0.8289094 0.32407337 -0.24990587 0.6265538 -0.7682519 -0.1506724 0.5841063 0.42784435 0.28576687 0.022037687 -0.8568459 0.38107094 0.22891848 0.27678123 0.15374072 0.48949283 0.80307287 0.33571652 -0.44472724 -0.73966974 -0.6547241 0.59203315 0.3474975 -0.2216504 -0.9558817 0.6231438 -0.13123561 -0.010739138 0.45701274 -0.20551711 0.76062185 0.12685843 0.82379556 -0.106282644 -0.12161779 0.21104866 0.13136978 -0.5888112 0.6360082 -0.44156313 -0.45241264 -0.1328744 -0.6383834 -0.23265538 0.64289886 0.79644835 0.57048976 -0.8019605 -0.6805556 -0.16483234 -0.9024437 0.68376166 -0.1552706 0.16096698 0.9815342 -0.86895764 -0.85866976 0.71976316 -0.6457641 -0.9217179 0.22260502 -0.541789 0.48646387 -0.23948476 0.014973561 -0.66545796 0.15594625 0.18484782 -0.34936187 0.99783987 -0.65207267 -0.43751165 0.69129604 0.42163575 -0.041694645 0.1818492 0.84013623 0.19294086 -0.76790524 0.75613713 0.40767226 0.67012227 0.114221014 0.0155147035 -0.51189715 -0.18254566 -0.6388834 0.047040626 -0.34428167 0.7079117 -0.32509246 0.41493094 0.85648423 0.7413885 0.092051454 -0.5724136 -0.69985086 -0.879029 0.14889087 0.26761237 0.50986385 -0.49322188 0.95732564 -0.30630884 -0.83333665 -0.8455852 -0.32797685 -0.5740066 0.10441433 -0.02139541 -0.8069019 -0.75509185 -0.72197026 -0.23644401 -0.26713815 0.1614898 0.5185408 -0.9112472 0.080340385 -0.55288947 0.58247095 0.64226586 0.033270396 -0.51266706 -0.17636906 0.061853033 0.8715456 0.21758702 -0.34058285 0.06294926 0.7380138 0.65385246 0.21452881 -0.5083631 0.17965655 0.2269119 0.9833698 -0.028458497 0.41746664 -0.44493696 -0.073497295 0.6179439 -0.07878715 0.62452507 -0.63302153 0.6638936 -0.14402033 -0.18715684 0.9561466 -0.28839207 0.86427164 0.38765633 0.4587216 -0.16938773 0.84607387 0.17135516 -0.8164569 0.16368581 0.058154397 0.9199646 -0.59529513 0.32786733 0.5617361 -0.47104892 -0.42987674 -0.64590275 0.63141465 -0.012682807 -0.8865935 -0.6278669 0.1141392 0.49251086 0.28837413 -0.47221228 0.72035265 -0.9752922 0.4201703 -0.092537954 -0.8478724 0.14117867 0.22088516 -0.53214943 0.37723306 -0.11601801 0.77639216 0.18317004 0.78799397 0.48979354 -0.99838436 0.22948939 0.3706455 0.3625757 0.5577494 0.6473778 0.9057423 0.0459686 0.6173598 -0.40401185 0.5192133 -0.09730854 0.3896187 -0.23652084 0.38650164 -0.56817806 -0.73550117 -0.93935925 -0.08726982 0.6138346 -0.79151815 -0.51992655 -0.8869679 0.6505256 -0.0022480097 -0.7317207 -0.36337146 -0.5644597 0.5737837 -0.5117629 -0.30830526 0.48273513 -0.44889387 -0.499845 0.3941013 -0.4499441 -0.8708236 0.5368154 0.6482429 0.26807842 -0.8832349 0.16305763 -0.5488119 -0.017540965 -0.6326583 0.29885262 -0.2794818 0.9597519 -0.17729785 0.09442956 -0.08901948 0.9335557 -0.44412544 -0.10314938 -0.842489 -0.93501043 0.96148264 -0.05280682 -0.43649793 0.61104316 -0.9767686 -0.41714418 0.052472252 0.36695358 0.111394465 0.81672186 0.4268861 0.7653275 -0.21471776 0.20212324 -0.26451302 0.5726169 0.6168607 -0.3415166 0.24822313 0.8882751 -0.7882028 0.92089564 -0.15359052 -0.8881059 -0.8835904 0.8928358 -0.526674 0.84320766 0.21759163 -0.05591579 0.7290723 -0.86847275 0.05131161 0.25415793 0.6340683 0.12984608 0.51242197 0.52485377 -0.24835661 0.31638318 0.21829571 -0.18994156 0.7456406 0.7839528 -0.40277228 -0.7045683 -0.5330488 0.351753 0.4640648 -0.5947803 0.7403006 -0.9967705 0.8156169 -0.20045783 -0.1960275 -0.75327367 0.895124 -0.33899304 0.9001885 0.31259087 -0.63467354 -0.03898017 -0.4472223 -0.997408 -0.41670588 -0.59848005 -0.95377815 0.93564665 -0.18027818 0.6291804 -0.13291939 0.54416496 0.53062093 -0.8713927 -0.44309083 0.4276322 0.7817254 -0.55693316 0.32168823 -0.4583195 0.46403855 0.82425624 0.020021332 0.48796347 0.2913087 -0.59813637 0.5552964 -0.48510227 -0.84776855 0.39113194 -0.2204939 -0.5343269 0.25960234 0.59720045 -0.9039106 0.5845016 0.6122721 0.7071848 0.35822123 0.16037844 -0.46708116 0.8871909 -0.7451477 -0.23890309 0.3750503 -0.7238821 0.3725994 -0.45659247 0.3299615 0.30934638 0.5863045 -0.41463676 -0.15500742 0.91236115 0.747878 -0.81001204 -0.45956516 -0.70698696 -0.69260913 0.35021257 -0.56809723 -0.84844893 -0.07586532 0.26994675 -0.82941943 0.13514379 -0.46543843 0.23724547 0.8442271 0.17775412
0.11218333 -0.67714024 0.03464982 -0.97771114 -0.7658234 -0.8819755 0.49509576 -0.4318609 0.62540096 0.60454595 -0.82723504 0.7358277 0.025038166 0.7190179 -0.38749465 0.10111827 0.54909885 -0.029689662 -0.15552673 -0.23453452 -0.9654178 0.8627073 -0.23372121 0.54911816 -0.12270441 0.83465105 0.6512306 0.6678291 -0.58966535 -0.9866885 -0.73954564 0.3765915 -0.22441311 -0.13729237 -0.9021697 0.5972426 -0.3571625 -0.47738025 0.6602797 -0.02807584 0.8319498 -0.05606762 0.92808634 0.07948281 -0.82371247 -0.14863047 0.22217673 -0.6970147 0.5829419 -0.6462215 -0.7094955 -0.64048994 -0.4611184 0.07425407 -0.05054292 0.23090442 0.4661808 -0.8092788 -0.6005309 0.03165133 -0.6378913 -0.13787217 -0.16813052 0.48900038 0.89655405 -0.53950685 -0.79335034 0.85902715 -0.58842146 -0.89604634 -0.54767185 -0.34013045 0.4364614 0.20467097 0.3013244 -0.28995633 0.39662132 0.48796538 -0.3198219 0.82829195 -0.6740514 -0.61386067 0.9036072 -0.27082407 -0.7284542 -0.014480658 0.9012956 0.5219742 -0.93792653 0.86114526 0.31396216 0.68284446 0.07337292 0.7376568 -0.64528066 0.04645472 -0.22219804 0.1546283 -0.55279964 0.75580895 -0.506109 0.36926454 0.741659 0.9004356 0.1043646 -0.458378 -0.52907753 -0.94123524 0.2000847 0.2553524 0.88288224 -0.47554845 0.81071585 -0.8576795 -0.82950807 -0.8873084 -0.3110239 -0.76682067 -0.17326309 0.12086584 -0.30254292 -0.6493547 -0.7272392 -0.079663195 -0.11167554 0.20841448 0.5649201 -0.46622658 0.48347935 -0.79631317 0.52472955 0.14747488 -0.024731794 -0.13596037 0.11353526 -0.17711653 0.8938409 0.116283044 -0.73486555 -0.45106 0.7107588 0.26115626 0.15073843 0.050463606 0.81496286 0.33084366 0.97129524 0.15209398 0.45881537 -0.5048285 0.09504667 0.5480959 0.0943427 0.7009906 -0.7892397 0.5371113 0.59727824 -0.22952157 0.9149453 -0.63488877 0.8656704 0.20767559 0.5970325 -0.30222595 0.42393458 0.6059708 -0.89173996 0.55730355 0.22210024 0.9272542 -0.43453765 -0.08531287 0.657715 -0.4456325 -0.57913595 -0.74027854 0.7793601 0.06421223 -0.76768047 -0.075783946 0.05590312 0.497333 0.07388696 -0.6746665 0.8463218 -0.9445491 0.58241105 -0.052567944 -0.6840522 0.1901421 0.3701709 0.069294386 0.057328556 0.40582 0.47759295 -0.20554484 0.8930725 -0.059903212 -0.9944988 0.14672421 0.32887152 0.12525079 0.51287574 0.6980012 0.743887 0.34956598 0.40612414 0.35665333 0.6221113 0.63953555 0.49362668 0.17266123 -0.09906459 -0.03222063 -0.49328008 -0.9514766 -0.4928501 0.7152001 -0.89203006 -0.33108556 -0.6487694 0.8066248 0.39829668 -0.94745684 0.10642863 -0.6264074 0.7646893 -0.22395203 0.025278345 0.3444595 -0.50125027 0.08489389 0.05291745 -0.61856014 -0.75285214 0.6233061 0.5762067 0.5906553 -0.8598557 0.5904196 -0.85820884 -0.5541767 -0.34170422 -0.4332255 -0.4080815 0.82384884 -0.26038444 0.2707753 0.53683674 0.59164935 -0.071797386 0.3608403 -0.6516207 -0.742974 0.710573 -0.031098299 -0.61400664 0.7861932 -0.87081903 0.26737562 -0.2515035 0.19126795 -0.35327047 0.3621679 0.6393961 0.70161194 0.096052185 0.5184221 0.13046862 0.62579894 0.46616733 -0.030022874 -0.23635326 0.8503996 -0.96152157 0.94801044 -0.6514304 -0.81138176 -0.9558185 0.7936327 -0.5783355 0.70830065 -0.34986478 0.37647277 0.84485346 -0.9420691 -0.4867971 -0.10419425 0.112235926 0.56736296 0.36886412 0.114986695 -0.11247459 0.7050001 0.54126495 -0.05391465 0.38330027 0.79334474 -0.33098423 -0.31272563 -0.57613707 0.28357828 0.47802332 -0.8403911 0.69632316 -0.98968196 0.51092976 -0.66907185 -0.14360654 -0.8230292 0.9686938 -0.5058758 0.67930275 0.63359916 -0.712939 -0.25811177 -0.544412 -0.84076506 -0.08258709 -0.53655577 -0.9876482 0.99077463 -0.044568647 0.7764563 0.08694593 0.4516286 0.4421459 -0.7185235 -0.75390655 0.54294896 0.67543256 0.09661042 0.17949033 -0.002566207 0.94837993 0.6548666 0.12583181 0.4870128 0.025509229 -0.67352295 0.27595007 0.17622025 -0.8030351 0.13421549 -0.07642267 -0.2451483 -0.060204722 0.29544404 -0.9772791 0.8423064 0.6563129 0.76963025 0.36486706 0.31330863 -0.5350214 0.41198692 -0.7379793 0.095632896 -0.024780843 -0.75268376 0.6280785 -0.14830625 0.35129726 0.18923412 0.07529068 0.3600226 -0.62492394 0.7440955 0.5982112 -0.7040161 -0.6574542 -0.66342235 -0.65167004 0.45081192 -0.41373768 -0.6831467 -0.34191975 0.5494741 -0.8331473 0.28531605 -0.47467193 0.6033402 0.66970116 0.33156002
0.5747547 -0.33806467 -0.059447065 -0.9254912 -0.8956991 -0.89584094 0.47954807 0.018249713 0.41351044 -0.17662728 -0.32849994 0.62647426 -0.07882388 0.3882197 0.23181054 -0.40515077 -0.04090335 0.21807471 0.6381188 -0.2580643 -0.8910535 0.64310193 0.14898646 -0.008105081 0.11194232 0.6574855 0.80081576 0.26407367 -0.20353149 -0.8697085 -0.21497916 0.07593241 0.30500388 0.10116935 -0.70794094 0.33892348 0.09757638 0.344802 0.6755082 0.20624906 0.53097343 0.33952308 0.84626824 0.6021693 -0.8349944 0.3636516 0.44886482 0.18407832 0.21379812 -0.26282737 -0.19120273 0.57297176 -0.21093428 -0.8088617 0.5523846 0.04451996 -0.09410506 -0.30462986 -0.21767065 0.14713119 -0.6467106 -0.041345607 -0.28448188 -0.36273512 0.80616933 -0.3141937 -0.8404252 0.5271079 -0.6223098 -0.8838295 -0.049602553 0.23293054 0.2200092 0.6055366 0.47875652 -0.7487114 -0.44436437 -0.20863175 -0.35507798 0.9411577 -0.44117066 -0.9392619 0.72866493 0.34060305 -0.52313364 0.30873877 0.89142334 0.032852333 -0.068920195 0.1484608 0.025431685 0.32814056 -0.5034126 0.46518695 0.19570744 0.2927684 -0.64975464 -0.5112955 -0.11040421 0.734982 -0.6688425 0.32202902 0.6247326 0.6969889 0.09449668 -0.3990851 -0.4669008 -0.5630703 -0.25853243 0.46092463 0.5011278 -0.7053834 0.862692 -0.906716 -0.8504031 -0.30185294 -0.07059925 -0.39154726 -0.026154464 0.41743594 -0.0131877335 -0.04731372 -0.75309277 -0.44666559 -0.17006133 -0.3579232 0.08710989 -0.67463267 0.040695455 -0.83674115 0.70136994 0.39201814 0.292942 -0.8853486 0.0312629 0.29825494 0.3685108 -0.4461683 -0.1727269 0.07905006 0.18458068 0.8158124 0.50810564 -0.46458694 0.70252156 -0.15869313 0.9545934 0.27859703 0.40481347 0.20047015 -0.22723584 0.7535065 -0.18966973 0.20892867 -0.65083385 0.010074588 0.72519916 0.4870071 0.39176175 -0.45872957 0.83753866 0.3411461 -0.3331248 0.046335157 0.51824456 0.6463065 -0.5345073 0.58768404 0.11947133 0.86223567 -0.55442023 0.62324613 0.37706155 -0.6045235 0.1617074 -0.60144097 0.8956175 0.36787066 -0.362335 -0.24123724 -0.18441649 -0.11933691 -0.18594076 0.3688828 0.7463412 -0.6253921 0.63600326 0.33071527 -0.30496675 0.572163 0.46434578 -0.3346028 0.20373932 -0.42934492 0.7640515 -0.385948 0.85402364 0.45330507 -0.9907205 0.0704275 0.738395 0.08890497 -0.2157607 0.7862809 0.77289504 -0.27045998 0.5655982 -0.27006048 0.580457 0.09693716 0.1916199 -0.17172946 0.7915401 -0.0929648 -0.46251395 -0.04568999 -0.4714492 0.66756773 -0.28319463 -0.36142147 -0.57920057 0.44128713 -0.67498976 -0.9225195 -0.23892811 -0.43159342 0.6125108 0.35409018 -0.1507998 0.33588552 0.12473097 -0.30334222 0.53133845 -0.40549383 -0.31302664 -0.13948184 0.39718094 -0.054050222 -0.43945473 0.44648173 0.10730101 0.14963861 0.25897223 0.15649076 -0.42971972 0.9481459 -0.13619082 -0.12225935 0.3342557 0.9773207 -0.22264914 -0.19604883 -0.8593662 -0.801813 0.90046465 -0.5640951 -0.7993269 0.69204205 -0.8102721 -0.19289626 0.22170568 0.28568923 0.53564936 0.68700075 0.020583704 0.52096075 -0.5408146 0.19024222 -0.21355994 0.12651981 0.17926292 -0.22972432 0.30090234 0.50815475 -0.8587397 0.7656825 -0.60804605 -0.6152119 -0.5101884 0.19025414 -0.6363424 0.81606615 0.2932992 0.15945709 0.6650025 -0.90404195 0.17970061 0.2729985 0.2665799 -0.2777741 0.87671274 -0.17262864 -0.5559793 0.6931636 0.46881565 0.22198865 0.8516345 0.5799478 0.13263753 0.27994913 -0.14583877 0.12138829 0.23779464 -0.6654783 -0.38354895 -0.97004175 0.85553384 -0.63013583 -0.27166575 -0.63831544 0.7288944 -0.3863974 0.86969924 0.40512636 -0.6440664 0.12220113 -0.28432676 -0.9615711 0.15927954 -0.6545949 -0.83669317 0.8367552 -0.3132856 0.54215074 -0.5403357 -0.06499168 -0.09834275 -0.60257524 0.06663729 0.4751061 0.05003488 -0.32727888 0.019425794 0.19730774 0.77290654 0.09380139 -0.6264594 -0.5871569 0.103973396 -0.98185503 0.19873361 -0.6018689 -0.41660798 0.39631736 -0.020501152 -0.4031911 -0.07964317 0.3669539 -0.8198402 0.7091366 0.17789619 0.410785 -0.63225496 0.11095357 -0.74956995 0.70663834 -0.07580713 -0.16652766 0.926623 -0.61946523 0.40871587 -0.23931745 0.65540725 0.43972936 -0.40478048 0.17653443 -0.583835 0.54337394 0.7101162 -0.36037275 -0.31322628 -0.356462 -0.4886375 0.32512838 -0.44031575 -0.8580913 -0.012183145 -0.029965684 -0.86182946 0.23405561 -0.5593126 -0.18989167 0.59541005 -0.111545295
0.2852704 -0.6370699 0.29630187 -0.52023077 0.13053292 -0.85960156 0.54488873 0.11802604 0.68420863 -0.17887913 -0.7697589 0.5338586 -0.4044052 0.9178437 0.18707474 -0.88463664 -0.031052856 0.5814424 0.22633944 0.16666198 -0.69004214 0.50938904 -0.18649974 -0.5978755 0.44507268 0.5572572 0.8210757 0.5393536 -0.23453224 -0.68088216 -0.73647 0.6390787 0.047904983 0.07711968 -0.5005525 0.30626598 0.1803796 -0.3773071 0.87852436 0.8556383 0.7163001 -0.027242078 0.03262622 0.0372354 -0.7865376 -0.18228285 -0.1006886 -0.06291433 0.5949606 -0.39343488 0.2626993 -0.1432629 0.12077832 -0.37936103 0.14837083 -0.16556212 0.4233516 0.13855034 -0.60046595 0.24212372 -0.30710056 -0.4405195 -0.5814759 -0.21336994 0.76622975 -0.01277579 -0.4697476 0.60149556 0.16273765 -0.27965024 0.124936745 0.6403069 0.39386648 0.067769 -0.012075674 -0.28480944 0.15002787 -0.2238806 -0.31603706 0.2755579 -0.6121588 -0.3624749 0.75846785 0.5148718 -0.5376027 -0.20656523 0.56888896 -0.21228796 -0.66542554 -0.11227632 0.5594842 0.37432086 0.08733139 0.1695071 -0.30157763 -0.044664577 -0.47401863 -0.056201268 0.2868363 0.44218662 -0.7682737 0.23589194 0.050310038 -0.4141596 -0.1798898 -0.8550063 0.17726357 -0.88651466 0.0058815284 0.45835504 0.06860275 -0.47408694 0.76357305 -0.68895334 -0.77473783 -0.55637425 0.07993584 -0.5344159 0.4157501 0.70156795 0.35928282 -0.8645985 -0.5376128 -0.17706206 0.24409789 0.26299924 -0.09346384 -0.54847264 -0.25348935 -0.110248566 0.6932865 -0.055703353 -0.2875933 -0.75265545 -0.662482 0.2084388 0.80984026 -0.3426813 -0.77701443 0.42820063 -0.32281816 0.22918954 0.39509445 -0.068134174 0.7209921 0.06277716 0.4245359 0.040458098 0.3904208 -0.76224476 -0.39700642 0.67283785 -0.18575478 0.15101674 -0.5679178 0.4485176 -0.1360564 -0.17414361 0.2388203 -0.0015339479 0.23785554 -0.5992563 0.24384081 -0.20731553 0.2995596 -0.30597392 -0.7110708 0.3271869 -0.09750171 -0.23280215 -0.30522013 0.3207727 0.64343584 -0.5071994 -0.23766616 -0.5375616 0.020963596 0.10905932 -0.04341803 -0.42056006 -0.51450986 0.3198748 0.026141103 -0.37128425 0.6467843 -0.50395614 0.23743527 0.2858323 -0.10962649 -0.2988063 -0.45275843 -0.43913165 0.14809382 -0.1750254 -0.012693714 -0.37228438 0.07693508 -0.0468767 -0.91680855 0.048477314 0.80483013 0.4363141 -0.3149768 0.10056287 0.874136 0.014397567 0.8490485 -0.33100158 0.10089385 0.4112619 -0.4437466 0.09960022 -0.3233464 -0.8601416 -0.8168966 -0.42301282 -0.14572772 0.7237268 -0.7159202 0.03615244 -0.6047219 0.77142054 -0.2683038 -0.8253157 0.27852723 0.352326 0.302272 0.26979232 -0.031086527 0.14198361 -0.5966106 0.6181131 0.6087852 -0.8117948 -0.76266485 0.02789086 0.7305311 0.5056571 -0.17328826 -0.1599909 -0.67496276 0.19151974 -0.5104022 0.15093194 -0.19813454 0.9613289 -0.060747012 0.34910914 0.096357144 0.70662326 -0.8401227 -0.32468185 -0.8534505 -0.8686434 0.6061296 0.3189405 0.3551888 0.7724371 -0.8157409 0.23479109 -0.37571535 -0.06715454 0.7428089 -0.051301084 0.7041265 0.7745394 -0.6829638 -0.33389384 -0.30263805 -0.106625296 -0.033160843 -0.17858236 0.7529988 0.969568 -0.5000936 0.89888734 -0.43446362 -0.67532 -0.9292998 0.45240647 -0.76574063 0.3269036 -0.21189965 -0.21030295 0.10808103 -0.9361453 0.55249715 -0.16468753 -0.23735668 0.3475413 0.90076333 -0.5400139 -0.8125205 0.23239343 0.5257912 0.18195976 0.73533726 0.46308464 -0.43775484 0.5153847 -0.27484512 0.42210287 -0.24049509 -0.54160804 0.72616595 -0.9543295 0.8619206 -0.8105138 -0.2549498 0.40926057 0.7405715 0.029250076 0.74258024 0.3005062 -0.65644956 0.5444521 0.1330446 -0.8634106 0.38723806 -0.4663628 -0.4158558 0.9383186 -0.020310994 0.47663587 -0.41185448 0.61921984 0.1907183 0.1675411 -0.34275964 0.88218415 0.36461648 -0.37879622 -0.30918208 -0.41310048 0.3745251 0.7698811 0.17132796 0.478652 -0.16086018 -0.36366007 0.7289705 -0.54884267 -0.797975 -0.009683877 0.39085567 -0.47004256 0.16508162 0.74637324 -0.9127219 0.9503879 0.29633597 -0.029896691 0.027287584 0.16828755 -0.57733107 0.47291538 -0.30484658 -0.32353225 0.87163013 -0.8377193 0.2064473 0.048260216 0.0023974013 -0.53608024 0.85832834 -0.61138415 -0.4936198 0.054786377 0.051827434 -0.31971893 -0.4998935 -0.59087956 -0.24956672 -0.10708039 -0.6672819 -0.47273636 -0.5830252 -0.15371373 -0.7888147 -0.42555466 0.33338627 -0.12077992 0.70415765 0.18411715
0.9857564 -0.06895385 -0.7237078 -0.98294044 -0.09308126 -0.92643666 -0.35023797 -0.0710446 -0.09939911 0.34364155 -0.76492983 0.7384616 -0.7721246 0.926766 -0.34065512 -0.7905062 -0.45764586 0.3594694 0.7089146 0.3357812 -0.40858078 0.6353343 0.3411123 -0.6910955 -0.09886038 0.6379136 0.33726713 0.34224993 -0.22586165 -0.87569505 -0.6885437 0.1245485 0.6920222 0.30717584 -0.9164201 0.8296946 -0.50956523 0.8983082 0.4725138 -0.5551246 0.47823817 0.42862603 0.88332367 0.28590962 -0.3392341 0.3772831 0.63630223 -0.47799447 0.34114155 -0.4229859 -0.76982623 -0.030436497 -0.3414542 -0.33179775 0.42829138 0.6769843 -0.035132617 -0.78414595 -0.43608615 0.39305103 -0.985115 0.3939632 -0.5818424 -0.6219505 0.9254375 -0.9472757 -0.21373153 0.61864734 -0.6506249 -0.9697529 0.09041195 -0.48818588 0.021094562 0.45428005 0.23393083 -0.6566451 0.32208636 -0.08094373 -0.44077978 0.37674206 -0.5763428 0.08983663 0.9235164 -0.35106546 -0.50482845 -0.6153039 0.7527322 0.5308851 -0.88257766 0.71171767 -0.16206354 0.6837958 0.03065591 -0.29585496 0.1284012 -0.046968866 -0.82950616 0.30545387 -0.36961338 0.9142888 -0.635534 -0.15121296 0.8055249 0.761125 0.4385959 -0.8487409 -0.5147316 -0.7728604 -0.6788178 0.53462243 0.84214586 0.09824411 0.7969767 -0.23273107 -0.86157006 -0.88473934 0.012547499 -0.6035715 -0.2937287 0.3970914 -0.4915364 -0.5547191 -0.82894564 0.5068114 0.5409046 0.3951958 0.051033787 -0.8117268 -0.30728453 -0.50151336 0.078936905 0.027375208 -0.0070016608 -0.59577096 0.20984907 0.6295993 0.8824061 -0.38787076 -0.66471666 0.58866966 0.24435785 0.8135911 0.70099974 -0.8365711 0.78814447 0.50146574 0.9850929 -0.069063924 0.23597157 -0.53394884 -0.12556137 0.62909186 -0.0065323156 0.88447666 -0.257344 0.60910654 0.03188505 -0.33803174 0.84406215 -0.17036448 0.47442466 0.52507716 0.6233579 0.4145243 0.91092014 0.21565367 -0.8042243 0.023660772 -0.08329801 0.8478706 -0.79010665 0.790126 0.7293381 -0.21727492 -0.63104004 -0.62667805 0.6428626 0.09304732 -0.9022399 -0.4977062 -0.41943672 -0.030290581 0.765752 -0.22866802 0.69263786 -0.8954596 0.35404634 0.39887187 -0.8191421 -0.0027605023 -0.3050335 -0.1669429 0.16167253 0.17556345 -0.24633485 0.16510174 0.629733 0.960644 -0.99759215 0.5317392 0.82118875 0.6947584 0.7257321 -0.53798634 0.3596039 0.30333278 0.7770937 -0.8082643 0.35848165 0.49979317 -0.32206696 -0.4181962 0.42309168 -0.74979526 -0.09024214 -0.85738146 -0.43651164 0.56696415 -0.8726346 -0.19902334 -0.787508 0.7355298 0.11008738 -0.79805785 -0.740734 -0.4872746 0.5370085 -0.32470626 0.82746524 0.9155121 -0.42990866 -0.09801571 0.69857264 -0.5288658 -0.9045411 0.32436624 0.73728067 0.6566905 -0.6799034 0.7301746 0.022603035 -0.37142178 -0.35962978 -0.16932125 -0.55777407 0.9719713 -0.3700241 0.28334424 -0.07364212 0.8499802 -0.67864406 -0.10040326 -0.5704835 -0.5136519 0.9393266 -0.036427855 0.047036774 0.64218146 -0.91210383 0.17786627 -0.5747407 -0.32265988 0.35378453 0.8056089 0.38308668 0.90001804 0.17606886 -0.086113684 -0.72627056 0.6680639 0.6695919 0.26892266 0.24507664 0.9270655 -0.94973373 0.98303777 -0.39756992 -0.9532954 -0.9547317 0.42137977 -0.21097513 0.61061627 0.5564488 -0.10896985 0.48047525 -0.91477937 0.6185505 0.7174435 0.21917865 0.35407278 0.8042457 0.11071181 -0.5871429 -0.65153944 0.37839037 0.7179039 0.9179904 0.40352866 -0.35357025 -0.41320357 -0.3838186 -0.18427555 -0.36175442 -0.631262 0.13622892 -0.98169345 0.56072766 -0.67859715 -0.8183881 -0.29555768 0.989281 0.19980101 0.8657947 0.49067053 -0.8753345 0.45682496 -0.6714739 -0.9911506 0.8639151 -0.78317404 -0.96895325 0.96538985 -0.2922413 0.25661916 -0.43556416 0.35209846 0.6821408 -0.39019233 -0.2541641 0.6847829 0.18274175 0.047028482 -0.6631368 -0.120065235 0.6579409 0.78422767 0.0043743933 0.54103136 0.7750638 -0.24505556 0.5042171 -0.39857918 -0.8837287 0.4364506 -0.50959855 -0.709029 -0.05090502 0.4302842 -0.7230124 0.42111763 0.30911678 0.91209406 -0.47679526 0.96104735 0.022255722 0.8126062 -0.27254164 0.27228084 0.6008727 -0.10386835 0.3284894 -0.59723955 0.31531224 0.24317749 -0.02081965 0.10460773 0.3129787 0.5558864 0.37427682 -0.702267 -0.22441244 -0.910097 -0.6304661 0.29616043 -0.74882287 -0.59063625 -0.39878786 0.6195475 -0.79287803 0.57526565 0.2033443 0.53566027 0.63500094 0.31471282
0.3900994 -0.75015086 -0.20419496 -0.96865547 -0.8178493 -0.97218263 0.5096826 0.16812013 0.25969303 -0.08755562 -0.638843 0.5869519 0.2566505 0.45475957 0.07705817 -0.6259608 0.19798677 0.13576718 0.53024745 -0.15667297 -0.9158145 0.68769926 -0.053388234 0.22633843 0.4048272 0.6329417 0.744969 0.4424708 -0.6572222 -0.6037227 -0.4799078 0.14657842 0.4416556 -0.25775304 -0.89725536 0.33939967 0.014899655 0.12702347 0.5788636 0.43345028 0.48738933 -0.16566862 0.86839 0.416992 -0.49797472 -0.12774165 -0.21566232 0.06654662 0.33524463 -0.15896097 -0.30567476 0.05525093 0.08881888 -0.41234162 0.64224386 -0.088550955 -0.03852132 -0.28069592 -0.17797074 0.1677519 -0.5619179 0.16459948 -0.5099539 0.23558447 0.8998713 -0.50376195 -0.45058647 0.49935877 -0.38785902 -0.86039776 -0.17509118 0.016274115 -0.075127944 0.5023319 0.28074494 -0.6155233 0.1725283 0.3473248 -0.4407389 0.94926447 -0.33570898 -0.7268984 0.5334018 0.38187256 -0.6085099 0.14849727 0.777536 -0.0949672 -0.58804375 -0.021284273 0.20343484 0.15513787 -0.036320403 0.6804978 0.460192 0.44190273 -0.43596536 -0.2942659 -0.13119146 0.66323817 -0.3288128 0.524119 0.56688416 0.3456918 -0.21057014 -0.39681575 -0.52520585 -0.8962476 -0.24936685 0.13590474 0.5131232 -0.6933559 0.55956924 -0.73381156 -0.8572835 -0.72800565 -0.29858264 -0.5763146 -0.11569714 0.5879371 -0.15008296 -0.33540717 -0.62939054 -0.19938533 -0.27500343 -0.35581082 0.6498747 -0.6508021 0.36798978 -0.5249715 0.553228 0.33596554 0.23903993 -0.6985447 -0.00041474833 0.338026 0.6232631 0.021971932 -0.5020623 -0.39620873 0.21369842 0.8372565 0.4255425 -0.40295592 0.21482866 -0.27321464 0.9318581 0.7585881 0.41253302 -0.07087511 -0.07226013 0.60043377 -0.31418756 0.26273134 -0.41619036 0.53695786 0.40276876 -0.16746385 0.5239955 -0.37487224 0.7563357 0.48129505 0.1075522 -0.52171355 0.42860556 0.28532454 -0.7191339 0.3620945 0.023213986 0.60009974 -0.38474074 0.40281153 0.80459744 -0.49160165 0.011254049 -0.6923416 0.6231784 0.18613349 -0.2045891 -0.05333783 -0.29666618 0.23792595 -0.1280175 0.11984723 0.59528893 -0.74484944 0.66218466 0.1279559 -0.281714 0.4621748 0.08894976 -0.52661663 0.10799724 -0.0797724 0.47527775 -0.2619869 0.76412547 0.38781577 -0.97966427 -0.08168145 0.40941182 0.054036908 0.27538335 0.7360825 0.67019457 -0.13706025 0.8121075 -0.22729084 0.08901702 0.019307543 -0.15720898 -0.47845808 0.5849132 -0.32136726 -0.683141 -0.15373369 -0.11774392 0.17006995 -0.7808441 -0.3719892 -0.48518997 0.4331963 -0.20244908 -0.8205709 -0.5343595 -0.5594068 0.69712186 0.26944408 -0.21944742 0.33428138 -0.3007006 0.0019887974 0.4558581 -0.39834246 -0.66131085 0.2383219 0.17562412 0.300903 -0.5349069 0.7192881 -0.09865698 -0.16613795 -0.18309356 0.23530312 -0.47349223 0.54894614 -0.13648696 -0.16166162 0.24612197 0.95234656 -0.048885822 -0.26359197 -0.7491323 -0.7829897 0.85675144 -0.35885653 -0.6563235 0.3254021 -0.82343304 -0.17638412 0.17272712 -0.19639532 0.4277898 0.31530857 0.12919924 0.67548466 0.037688307 0.49321112 -0.19189867 -0.14603879 0.097965196 -0.041607663 0.11405051 0.6018062 -0.76853937 0.84597373 -0.4320488 -0.6007536 -0.52258736 0.2530145 -0.74012214 0.51051277 0.30356574 0.025013627 0.5966296 -0.88758284 -0.019062804 0.024330005 -0.06876495 -0.15818235 0.43374383 -0.20357296 -0.52125305 0.746573 0.30028898 0.022350295 0.6242496 0.8255392 0.17046453 -0.08505057 -0.23678766 -0.09497449 -0.14693092 -0.84366536 0.490845 -0.95714146 0.4183063 -0.55193096 -0.34650236 -0.6859868 0.94281334 -0.6761743 0.8930943 0.2988039 -0.8263159 0.16878396 -0.19893214 -0.9943202 -0.0057061254 -0.6629978 -0.8833452 0.79326415 0.27455762 0.5673007 0.009922593 0.13616562 -0.11715463 -0.86531997 -0.44176784 0.50526184 0.34585947 -0.25796118 0.29388264 0.3183213 0.5471433 0.3838992 -0.30579263 0.25939646 -0.34250355 -0.72760236 0.14213999 -0.5511958 -0.33483258 0.62119335 0.024304038 -0.4972719 -0.009295374 0.5867218 -0.9650176 0.8726371 -0.020924386 0.34078816 -0.28849974 0.33950335 -0.65282685 0.40393198 -0.21491647 -0.12102015 0.5487012 -0.6696879 0.4829103 -0.4536382 0.35544014 0.08501208 0.30650792 0.1299575 -0.30237883 0.39475408 0.6265145 -0.43868527 -0.36293867 -0.37973893 -0.4001558 0.54149705 -0.7721054 -0.71296865 -0.0223802 0.13597323 -0.5033329 0.11908979 -0.114379644 -0.17637442 0.48776388 -0.30391473
0.6257936 -0.60054654 -0.39592013 -0.95445895 -0.5863952 -0.9862955 0.09481134 -0.2768812 -0.3139637 0.027682032 -0.46077353 0.34170887 -0.3346583 0.11722207 0.109574735 -0.34272107 -0.272824 -0.18676028 0.20072155 0.37057313 -0.73789114 0.48421004 -0.12469888 0.32361576 0.47427747 0.3687839 0.13594596 0.12996311 -0.35084593 -0.014307098 -0.8651954 -0.21761614 0.48018813 -0.086429924 -0.9153395 0.32915515 0.6876688 -0.2634202 0.41285923 0.3815042 0.77061176 -0.76022243 0.63087815 0.5165329 -0.029642152 -0.008225381 -0.24146697 0.23808154 0.5451579 0.21581754 0.13079588 0.25295645 -0.06751446 -0.57003534 0.629398 -0.47353405 0.4922407 -0.81996953 0.09449443 0.49055067 -0.6239676 -0.12621914 -0.31538722 0.17216538 0.82752705 -0.15264289 0.1521716 0.281935 -0.09285873 -0.35728973 -0.31600797 0.4089741 -0.061422464 0.27542388 0.3151964 -0.5063545 -0.15446249 -0.1479989 -0.56797916 0.58103734 -0.40248263 -0.75757897 0.42175725 0.018229268 -0.12591714 -0.66975796 0.46954602 0.12790108 -0.676913 -0.073713586 -0.1824199 0.21663451 -0.10854375 0.22234948 0.034927737 0.03385464 -0.6752535 -0.20195301 0.2276057 0.6276519 -0.119512185 -0.044206984 -0.29914078 0.2781316 -0.019419327 -0.021204893 0.24189566 -0.5329773 -0.43911543 0.21510896 -0.10933406 -0.28272495 0.32606137 -0.08296251 -0.81476134 -0.7673838 -0.25298503 -0.568191 -0.69602567 0.2129074 0.004002011 -0.24359524 -0.65327865 0.21797 0.34741715 -0.16839589 -0.053951614 -0.6666295 0.1242189 -0.8318355 -0.1582171 -0.49527943 0.18932493 -0.20178969 0.20627905 0.19531548 0.2517184 -0.2050929 -0.6565882 -0.5557446 0.04415477 -0.018216606 0.34436527 -0.42679656 0.5009365 0.2534954 0.93794805 0.25024238 -0.21741635 0.21427536 -0.075789556 0.42844027 -0.26792014 0.32602528 -0.27153736 0.7404741 0.64086205 -0.087923 0.68709296 -0.37109706 0.17786017 -0.37630367 -0.317903 -0.5146855 0.4344319 0.54086834 -0.23291695 0.29135662 -0.26856 -0.0050041582 -0.5740548 0.75434434 0.34957078 -0.42747733 -0.49568558 -0.038560465 0.56217563 -0.37071016 -0.45063198 0.109563775 0.099047095 0.4841778 0.5808904 -0.55672103 0.46663383 -0.44672257 0.33700323 0.7203691 0.4271229 0.42612675 -0.055567153 0.280686 0.20612611 0.11608417 0.28323638 -0.011700674 0.69766533 0.3401366 -0.97546506 -0.28550208 -0.019701842 0.43021214 0.16829334 0.4874027 0.5739928 0.2776865 0.63130903 -0.6780572 0.4672142 0.21199526 -0.35343462 -0.41931796 0.20950985 -0.06884742 -0.5804438 -0.02436982 -0.3984898 -0.0139372 -0.41706192 -0.26361877 -0.6158392 0.47869614 -0.5270004 -0.4989111 -0.1846717 0.19029996 0.8097803 -0.39012897 -0.00888714 0.08243134 -0.008873312 -0.23684242 0.1910129 -0.7469453 -0.7992644 -0.06511023 0.15677561 0.54099035 -0.48906562 0.23694238 0.015271202 -0.0020818627 -0.40834188 0.34589583 0.10967746 -0.06458955 -0.39155656 0.45998165 0.28650942 0.73481554 -0.63030267 -0.8180894 -0.7459215 -0.78587365 -0.025721405 -0.2857884 -0.46591228 0.02600677 -0.83541477 0.6928198 0.26787508 -0.40665832 -0.0009816494 -0.3340747 0.35746625 0.5039378 -0.23436177 0.5708347 -0.5234785 -0.34589818 0.45753485 -0.023019616 -0.15915462 0.25451443 -0.66843706 0.8720609 -0.41730905 -0.29671982 -0.8366067 0.63588727 0.14931795 0.6163309 0.3264643 -0.033275597 -0.038620166 -0.73077416 0.080583334 0.30479735 -0.36503643 -0.07447557 0.83232313 -0.43632412 -0.4875964 0.28872913 0.21111597 0.35254222 0.6285171 0.56381816 0.47310093 -0.36828792 0.124920785 0.15310745 -0.32517955 -0.6335647 0.5883265 -0.8548354 -0.16827849 -0.66530854 -0.2835172 -0.029697314 0.37337235 -0.39802146 0.5119072 -0.24883811 -0.60643166 0.4439738 0.29998255 -0.54116386 0.008531555 -0.7165139 -0.8412452 0.44877467 0.0004229846 0.60552704 0.5641436 -0.31565246 0.36310077 -0.30268827 -0.5164416 0.5788212 0.36347058 -0.43600205 -0.3469017 -0.27812696 0.67801553 0.58866745 0.44535848 -0.024187425 0.16020678 -0.6634722 0.48374695 -0.49464947 -0.65293634 0.45968476 -0.28216383 0.12163385 -0.22393888 0.6239155 -0.8618245 0.40248954 0.2822386 0.39758405 0.23491468 0.38635316 -0.36794958 -0.14713298 -0.3966703 0.002973206 0.12626307 -0.59281296 0.349963 -0.15375738 -0.23601836 -0.3907838 0.47771648 0.07188353 0.49518815 0.53759515 0.63642925 -0.09184803 0.12593158 -0.72329736 -0.30856776 0.19749302 -0.6577109 0.007460886 -0.544417 -0.33790895 -0.07489781 -0.39801934 0.50474733 -0.12045163 0.10070968 0.08264041
-0.008088967 0.057137344 -0.28171107 -0.9682992 -0.6781734 -0.81907403 0.62886363 -0.20961025 0.7009903 0.330485 -0.8561271 -0.23720695 0.41294476 0.81793714 -0.65091884 -0.6101182 0.76829696 0.06871291 -0.11418292 -0.6445113 -0.7801132 0.7913923 0.1370896 0.33543098 -0.390411 0.5106062 0.8920476 0.6368906 -0.21607266 -0.87405133 -0.7677129 0.3454521 -0.014028318 -0.71809214 -0.9865684 0.72337806 -0.42103747 -0.5370308 0.6858047 0.027345076 0.8030607 0.3997568 0.94025344 -0.40817058 -0.6984599 -0.45697132 0.54006976 -0.85154027 0.90227157 -0.6118344 -0.6180989 -0.5160946 -0.15658832 -0.5810422 0.3200097 0.6418441 -0.08468513 -0.63253987 -0.60090303 0.21203679 -0.90815806 -0.27816477 -0.38413998 0.49783057 0.97001135 -0.5206648 -0.9246069 0.21331568 0.30540708 -0.8403518 0.42179674 -0.6052112 0.54159945 -0.5778235 -0.25942734 0.2358391 -0.22800437 0.5055252 -0.73018205 0.99615055 -0.6345244 -0.86892426 0.9377648 -0.3570577 -0.5128258 0.50717187 0.6556657 0.29074958 -0.528727 0.8721295 0.76581275 0.6634943 -0.56247604 0.6984903 0.16223027 -0.07458511 -0.56836116 0.1266962 -0.5039235 0.3511461 -0.6117054 0.68701863 -0.08871695 0.8297697 -0.30695993 -0.5870645 -0.7704491 -0.91925406 -0.07269389 0.25354898 0.6278714 -0.65960276 0.7212863 -0.85094017 -0.55363774 -0.91432595 -0.69245905 -0.7046149 0.23740503 0.630042 -0.0851025 -0.3496328 -0.71187174 -0.58672655 -0.018051403 -0.2851462 0.57589763 -0.7387287 0.4939662 -0.7363343 0.56162286 0.6070798 -0.5128176 0.03802966 -0.061480783 -0.29880875 0.8204281 0.3301331 -0.7772185 0.079883754 0.713885 0.4804105 0.34097102 -0.65270096 0.45363423 0.02133846 0.9805604 0.7104166 0.5168196 -0.61718404 0.14871515 0.090967365 -0.26107973 0.8669116 -0.5015855 0.68003166 0.16418639 0.35598016 0.8904549 -0.7360472 0.53056675 0.6398418 -0.1535096 -0.59629583 0.4832956 0.52608037 -0.9263587 0.7048292 0.40946057 0.93480694 0.25184035 -0.18451639 0.7614003 -0.5632346 -0.2965693 -0.8214558 0.9231983 -0.2287161 -0.84470975 -0.27165234 0.20481288 0.8025114 0.619221 -0.80278486 0.82244974 -0.9023732 0.17145374 0.44518077 0.1127038 0.6007233 0.38858968 -0.2996324 0.6409509 0.055487264 0.85654044 -0.3158015 0.7425656 0.17257911 -0.99135625 0.7185666 0.6498927 0.6509658 0.14871038 0.5809937 0.9726273 0.32523933 0.18848623 0.45519465 0.5029016 0.43702605 0.001959008 -0.101925485 0.07811818 0.23174606 -0.7774386 0.10647281 0.38611424 0.64038914 -0.8377826 -0.19442174 -0.81747335 -0.15981294 0.43532053 -0.90737 0.37307844 -0.134017 0.047484323 -0.04056357 -0.51462 0.03904692 -0.5183381 0.029921247 0.5830714 -0.5682974 -0.88490504 0.52042675 0.6928386 0.6748925 -0.83680946 0.019113377 -0.84958583 0.10381729 -0.4438105 -0.31184477 -0.30478275 0.9167101 0.054751948 -0.41846386 0.05452025 0.7989654 0.09369633 0.52738386 -0.88057464 -0.8365008 0.9515162 -0.29736382 -0.42122915 0.6020865 -0.9549667 -0.06495863 -0.39453262 0.13248603 -0.2486165 0.25063914 0.70526737 0.77885556 0.3661982 0.2587253 0.2314321 0.49109435 0.5128738 0.14168005 0.03980053 0.92860895 -0.93640494 0.6706026 -0.59470063 -0.44199818 -0.2986161 0.92758924 -0.81250644 0.849919 0.11167225 -0.15616037 0.79807097 -0.9400265 -0.59230125 0.59996104 0.75744414 -0.037432995 -0.00061338977 -0.2967379 -0.23860946 0.56035334 0.67394704 -0.23530823 0.14820123 0.81435317 -0.35895076 -0.86119723 -0.64235216 0.6588346 0.5661786 -0.84944475 0.789608 -0.99731255 0.77382636 -0.3718737 0.30829394 -0.7905989 0.9792376 -0.6651133 0.8263031 0.32857192 -0.72509176 -0.1538739 -0.3426905 -0.98888415 -0.454848 -0.8325337 -0.9433429 0.8841484 0.3507715 0.7389471 0.36948216 0.49430498 0.60203594 -0.85764664 -0.7094794 0.6068449 0.7929728 -0.47551975 -0.008609462 -0.6608759 0.7757405 0.76909786 0.27587098 0.57310927 -0.5731203 -0.65436107 0.54409474 -0.24835382 -0.8663259 -0.3923733 0.40528122 0.07196537 -0.2842321 -0.021089086 -0.9267821 0.82444113 0.37934986 0.91234785 -0.16257758 0.6377444 -0.11710587 0.1048167 -0.8656461 0.058559373 0.05745276 -0.7899571 0.33395278 0.2620329 -0.21257584 -0.21265112 0.7686752 0.41912532 -0.4534407 0.944131 0.72970676 -0.8393864 -0.68228644 -0.6430845 -0.8195097 0.6295532 0.17636359 -0.7458402 -0.17712252 0.32854483 -0.50790507 0.4801591 -0.6530604 0.08478362 0.8216725 0.5380216
0.034352865 -0.6861177 0.23783027 -0.85671085 -0.79899347 -0.9213507 0.2686682 -0.5279494 0.4484228 0.29816216 -0.8361698 0.76810575 -0.45086896 0.8960222 0.22147855 -0.16092275 0.41903538 0.03270945 0.22702308 -0.2980295 -0.921163 0.19753668 0.2827817 0.025448734 -0.47621343 0.42626992 0.82658935 0.1594527 -0.50754976 -0.90064335 -0.7546139 0.38581103 0.33409935 -0.38944224 -0.98343366 0.7078831 -0.013375018 -0.08282236 0.64252305 -0.37691212 0.7175006 0.47447392 0.9472218 -0.19570786 -0.069337964 -0.5036645 0.24605115 -0.314485 0.54590434 -0.4407603 -0.7943254 -0.52371323 -0.48105404 -0.07367528 0.42399463 0.30963504 0.43756673 -0.8511673 -0.62314516 -0.15225838 -0.7669792 -0.018520385 -0.258045 0.17533307 0.9651103 -0.61730903 -0.4269413 0.7436112 -0.25391477 -0.9540925 -0.16632597 -0.43497732 0.5822568 -0.29229972 0.37054408 -0.56899065 0.05783295 -0.13947901 -0.06562227 0.580925 -0.8215343 -0.5208205 0.84990984 0.21885675 -0.66392696 -0.4175802 0.65834516 0.40694532 -0.82559097 0.31036043 -0.18917331 0.77325547 -0.21991964 0.20177181 -0.49322227 0.15199882 -0.41002154 -0.09322572 -0.5917992 0.5010375 -0.15921545 0.36206567 0.616127 0.5539779 0.1114159 -0.6353815 -0.73007524 -0.93259203 0.116515376 0.23121095 0.65436745 -0.47298464 0.5673891 -0.6028495 -0.8804465 -0.37863168 -0.2610589 -0.6183474 0.09082897 0.37936231 -0.05054718 -0.70452404 -0.8749754 -0.18018176 0.019232508 -0.15280868 0.7115367 -0.83489007 -0.24333368 -0.6594108 0.4353938 0.34896278 -0.35312697 -0.31489143 0.0160449 -0.2938701 0.6891497 0.42810014 -0.66315776 -0.49779305 0.5215855 0.7974083 0.19334395 0.04517273 0.5492229 0.7356441 0.99035627 0.43024528 0.16290614 -0.8217912 -0.21483067 0.41483852 0.31125295 0.25265193 -0.5942188 0.50020194 0.4321674 -0.08885701 0.9219293 -0.45936993 0.74418205 0.11845056 0.40779865 -0.53553605 0.6572459 0.42603943 -0.91442883 0.10275922 -0.050565153 0.67663896 -0.13069305 0.28092182 0.66538984 -0.62958467 -0.39726 -0.85135 0.87901676 -0.10417224 -0.9065943 -0.48164406 0.12547867 0.42648003 0.40710336 -0.7186703 0.7892878 -0.6712319 -0.03446629 0.21840473 -0.809577 0.2049709 -0.4453341 -0.03232087 0.32056114 0.26123348 0.570093 -0.57202345 0.52186096 0.21876812 -0.9901531 0.2880744 0.6432529 0.53451645 0.7171126 0.63372654 0.7798802 0.35053098 0.8137745 -0.22712989 0.7458373 0.39437386 0.15508942 -0.10986719 0.14601596 -0.42767674 -0.7631275 -0.25873002 -0.1250263 0.27807102 -0.7750794 -0.078000866 -0.8813998 0.4354466 0.17611429 -0.86693335 -0.025025964 -0.5249256 0.89102167 -0.32366678 -0.22522278 0.52622414 -0.2285301 -0.24857797 0.19974516 -0.65889585 -0.8681779 0.4725988 0.78845394 0.16375612 -0.42588982 0.09609166 -0.6252331 -0.23923652 -0.56313187 -0.011237986 -0.5301487 0.98643166 -0.097143345 0.2064843 0.1463615 0.8230914 -0.487721 0.15513052 -0.83721054 -0.81075335 0.8486235 0.032020386 0.18465333 0.23419496 -0.94565654 0.2525509 -0.4455111 0.2479584 -0.35791895 0.29382655 0.80004674 0.7610373 -0.2555167 0.44560322 0.13510332 0.7155225 0.38025847 0.08616912 -0.22644958 0.6080276 -0.9705984 0.8876507 -0.53376865 -0.9035949 -0.9447327 0.93107283 -0.42929217 0.68850136 0.102861 -0.022236548 0.27701432 -0.8873791 0.18979317 0.42062593 -0.05204119 0.30820352 0.48627764 0.059654605 -0.1423742 0.44015983 0.64028716 0.089899346 0.29306856 0.73879546 -0.47526672 -0.6481414 -0.68566054 0.122720145 0.14603978 -0.7961688 0.36507383 -0.8733326 0.6199951 -0.6723163 -0.33069757 -0.33009365 0.85375947 0.18017755 0.8856538 0.61774975 -0.3752936 0.19367063 -0.2965154 -0.9826351 -0.15234758 -0.80138403 -0.91770434 0.9691144 -0.6231681 0.2927637 0.101739325 0.14031513 0.22143194 -0.5051761 -0.49049538 0.68645406 0.65122646 -0.31281388 0.07843161 -0.3050607 0.5158814 0.6252178 -0.10188756 0.3022685 -0.21910729 -0.49589434 0.452604 -0.37127024 -0.82859623 -0.2610071 0.23746762 0.080050424 -0.10964297 0.38170287 -0.94926494 0.6323647 0.41947898 0.79907846 0.22404897 -0.095738724 -0.31350648 0.4963999 -0.8012701 0.32242444 0.09245091 -0.6089084 0.5928736 -0.11908968 -0.039844315 -0.32663807 0.5197221 -0.10830667 -0.40844733 0.65932137 0.34873024 -0.8669504 -0.4845042 -0.84333915 -0.77108747 0.43354172 -0.47829956 -0.62843156 -0.5346158 -0.08655171 -0.8138894 -0.17369832 -0.15498815 0.17230001 0.5875925 0.42948475
0.11902787 -0.7807293 0.2038093 -0.92288446 -0.6818393 -0.93758893 0.1598862 -0.53036004 0.35888764 0.37769017 -0.7168806 0.70679784 -0.31268263 0.69775754 0.14418481 -0.05246636 0.37648752 -0.035078153 0.30614847 -0.25437844 -0.9144787 0.2662653 0.26278168 0.036509518 -0.38925293 0.47663626 0.63988936 0.2751178 -0.55234516 -0.8792463 -0.75882643 0.43594238 0.31541276 -0.3049531 -0.8785742 0.7185773 -0.015682122 0.03997224 0.60967535 -0.3965338 0.61576974 0.3658355 0.9573897 -0.076778606 -0.079999775 -0.45842105 0.22588916 -0.3896948 0.5143469 -0.54621965 -0.84475076 -0.40334064 -0.43336093 -0.02252696 0.40569374 0.24144363 0.31950366 -0.88457555 -0.48393568 -0.15894365 -0.63700163 -0.03811562 -0.23569992 0.14598611 0.86716163 -0.7207994 -0.5204669 0.7251291 -0.18146852 -0.89809257 -0.14284183 -0.52742004 0.6010691 -0.24089836 0.33858117 -0.5033733 0.069851436 -0.24213874 0.04328426 0.5480815 -0.85707057 -0.6196776 0.9480586 0.25985563 -0.61781657 -0.3602765 0.5261171 0.5502886 -0.8014055 0.27865398 -0.25159708 0.65849286 -0.31747854 0.1916868 -0.32854223 0.25031152 -0.42976993 -0.06021403 -0.5013809 0.5674795 -0.24906953 0.35118687 0.5822624 0.51667804 0.0051958477 -0.63444716 -0.7959727 -0.9345324 0.19206087 0.26217765 0.68791527 -0.26979208 0.48269278 -0.58399945 -0.92929435 -0.47198176 -0.25190845 -0.71048194 0.09349737 0.47281158 -0.11279475 -0.7217014 -0.917451 -0.06547546 0.07123569 -0.13936886 0.55431235 -0.83791953 -0.26512122 -0.5358501 0.48165703 0.4559318 -0.2634897 -0.31836078 -0.092294805 -0.1442335 0.6452006 0.32653952 -0.74324787 -0.5167469 0.5483467 0.7702528 0.23091365 -0.12606603 0.41496098 0.71205986 0.98145777 0.3673662 0.031125437 -0.8333754 -0.20518345 0.45349228 0.31175396 0.22588152 -0.50703454 0.53431016 0.42865592 -0.08473351 0.91741616 -0.41198897 0.68158245 0.01863124 0.26436317 -0.5025943 0.65119493 0.4070812 -0.9283095 0.1339417 -0.023265453 0.565244 -0.14416756 0.2979355 0.58809406 -0.51251125 -0.42650926 -0.71480894 0.84496814 0.004126671 -0.7179723 -0.47841427 0.11050579 0.35127237 0.46544644 -0.55081415 0.8311246 -0.7075469 -0.030159686 0.28999743 -0.80015266 0.18576029 -0.4001844 0.027159305 0.23995714 0.28336212 0.5798442 -0.4449367 0.62399626 0.40518618 -0.9878884 0.36424994 0.57352984 0.55237305 0.7911294 0.54294765 0.7426184 0.38614708 0.79545337 -0.27441618 0.5797213 0.45952722 0.13766178 -0.18318453 0.10265996 -0.33466366 -0.7114218 -0.10255132 0.023278944 0.1830916 -0.6446305 -0.13573252 -0.9091217 0.4218446 0.26684695 -0.700096 0.049241547 -0.39441764 0.8921774 -0.33765173 -0.17880048 0.46727458 -0.10390183 -0.2878344 0.11907994 -0.61890346 -0.93429327 0.38905242 0.5725293 0.12390412 -0.38209614 0.08312276 -0.5650612 -0.1691247 -0.6016816 -0.056532774 -0.5160335 0.9831722 -0.12320536 0.22617963 0.021848846 0.7488621 -0.5238125 0.26823306 -0.7162553 -0.7836957 0.7245404 -0.12461119 0.15021066 0.12692563 -0.9313097 0.12093782 -0.4161421 0.15108144 -0.33600795 0.23757255 0.7791706 0.7532593 -0.20247707 0.573468 0.25059026 0.57357484 0.28791088 0.05671852 -0.17117414 0.5975378 -0.85095656 0.9074932 -0.63078344 -0.91063166 -0.94155675 0.8617619 -0.34488538 0.76463133 0.14088306 0.0692298 0.2324886 -0.87152773 0.22998498 0.34866688 0.015123464 0.18067706 0.5216968 0.06936649 -0.14029288 0.4340005 0.6245125 0.19580999 0.21925831 0.7969204 -0.3638641 -0.63522375 -0.715702 0.2565989 0.081616655 -0.8145385 0.3229986 -0.8136061 0.58068395 -0.7100964 -0.3427941 -0.35440132 0.77980614 0.09021653 0.8325644 0.6153591 -0.3079074 0.06502933 -0.2996575 -0.9869246 -0.11572994 -0.81008613 -0.9778722 0.88259304 -0.6589013 0.36163384 0.17343962 0.07453199 0.26723716 -0.44542405 -0.4929177 0.6706225 0.58692425 -0.1761361 0.104409866 -0.2470729 0.57840365 0.6300873 -0.025021829 0.3029829 -0.117068894 -0.5152361 0.5473256 -0.23918295 -0.757035 -0.13046144 0.1382976 -0.0029942947 -0.016259538 0.22760712 -0.8536257 0.47540554 0.27342948 0.92498964 0.30785608 -0.054902148 -0.23680273 0.45722213 -0.787925 0.44805127 0.102194235 -0.7011366 0.5662419 -0.07656905 -0.04512959 -0.2492573 0.5354018 -0.22151595 -0.31527606 0.6649893 0.37251514 -0.7373502 -0.4323262 -0.85553277 -0.8209577 0.3502793 -0.49320123 -0.569729 -0.58489984 -0.05471022 -0.70931 -0.20115562 -0.25189352 0.022975652 0.5162532 0.29806778
0.93746704 -0.42575824 -0.36158347 -0.8485774 -0.033911657 -0.96541846 -0.23708428 0.064928494 0.18182117 -0.3176506 -0.54296714 0.51013696 -0.7462273 0.054129805 0.38262874 -0.48658726 -0.40028274 0.7664002 0.32912463 -0.34479073 -0.42006886 0.39798522 -0.4436936 -0.34718138 -0.20981042 -0.06785052 -0.079345725 0.48900747 -0.73404753 -0.8916071 0.32487056 0.24747781 0.008957324 -0.46776685 -0.8724275 0.6955686 0.21167429 0.44729394 0.72824264 0.27198562 0.7711868 -0.16044734 0.55223197 0.49386612 -0.52440125 -0.089787364 0.07366279 -0.19417211 -0.2239437 0.19744256 -0.67719555 0.38909438 0.24447568 -0.4190725 0.25229868 -0.08338055 0.5915313 -0.11539152 -0.2755939 0.63098735 -0.62059134 -0.08580042 -0.8295486 -0.30661598 0.5855531 0.35952285 -0.8125524 -0.28579417 -0.6192149 -0.45525113 -0.577766 0.41245556 -0.2365471 0.51089424 0.12695515 -0.91821337 0.22590685 -0.057577334 -0.5554539 0.95958734 -0.6883483 -0.03161715 0.8861553 -0.041265443 -0.7464228 0.24999958 0.6285489 0.60204476 -0.6877903 -0.3080076 0.21047361 0.63280874 0.16220985 0.5733146 0.10790707 -0.024212498 -0.22405812 -0.32654634 -0.59235746 0.057254296 -0.77422416 0.2742295 0.90776205 -0.01397445 0.02262086 -0.43922037 -0.90115654 -0.8371621 -0.3373057 0.4441093 0.796315 -0.75854605 0.1843423 -0.6850108 -0.033984944 -0.11974532 -0.76753235 -0.6698393 -0.0022491524 0.6767931 0.44995353 0.46581215 -0.78150135 0.1572268 -0.26604015 -0.11815979 -0.058472823 -0.85363656 -0.3824086 0.04228748 0.35132653 0.24443507 -0.06976968 -0.1493894 -0.562644 -0.7045595 0.12129027 -0.59059626 0.17159486 -0.5572917 0.20650882 0.9065625 0.3437201 0.20562075 -0.10099064 -0.42065457 0.7458289 0.5624787 -0.3240091 -0.8885053 0.10848375 0.36442745 0.057830524 -0.58453643 0.07965894 0.11725223 0.58932096 0.3781065 0.70650417 0.46959552 0.10089772 0.4622226 0.4983317 -0.29621324 0.3156089 -0.1593668 -0.89473337 0.5399835 0.06396999 0.74527967 -0.4110619 0.5811983 0.302014 -0.45574263 -0.054098167 -0.6954012 0.7416203 0.3264664 -0.2542684 0.017813586 0.089188226 0.27868757 0.45641476 -0.42698592 0.72570705 0.086163774 0.799437 0.0399441 -0.08967091 -0.35530183 -0.11287683 0.38613793 -0.00973855 0.088341504 0.5676416 -0.46577534 0.72061664 0.42917398 -0.88215506 0.59003055 0.364476 0.12929246 -0.072390005 -0.26475257 0.9095193 0.31232086 0.73108 -0.12738173 0.4357196 0.61804587 -0.5289315 0.16223685 -0.19199312 -0.52617157 -0.4010171 0.30044815 -0.098512635 0.6854284 0.15514775 0.34875947 -0.78531176 0.7470183 -0.44064814 -0.27582145 0.4717648 0.53861654 0.8937381 0.13559973 0.45365956 -0.244072 0.15237139 -0.4402284 0.34704518 -0.61324185 -0.70964813 0.4336039 0.5378765 -0.17911273 -0.82523143 0.2842539 0.050518457 0.09158031 -0.1909906 0.29955214 -0.043227926 0.35670468 0.119897395 -0.24804397 0.07467612 0.3993008 -0.60754675 0.51846397 -0.80132085 -0.77033854 0.5104432 -0.15868795 -0.7874326 -0.19818985 -0.92860824 0.29762438 0.554598 -0.6171635 0.6457848 0.07290706 0.5428356 0.71171796 0.32817817 0.54885423 -0.025950069 -0.39494935 -0.3166841 -0.034791056 0.4592961 0.024306498 -0.8277777 0.93979555 -0.44074306 -0.9117383 -0.6940486 -0.018911459 -0.67798966 -0.31330922 0.50135386 -0.1455403 0.6134338 -0.8687759 -0.26152387 0.67598426 0.09763999 -0.24568821 0.9155996 -0.6231256 -0.6129498 0.06627756 0.32994673 0.71470547 0.59980536 0.9022418 -0.62721616 0.22395404 -0.40674835 -0.27125177 0.56227094 -0.7335022 -0.6083228 -0.90258205 0.36818042 -0.7746019 -0.6445516 0.284722 0.78969264 -0.47457656 0.55925816 0.76714575 0.3180902 0.38196412 -0.7622615 -0.62245506 0.7092438 0.18915471 -0.78786796 0.81235415 -0.71143955 0.66639936 -0.2632806 0.026788644 -0.3867034 -0.6954162 -0.32863432 0.7941167 -0.41048068 0.44695035 0.32557774 0.56027555 -0.115207605 0.05905399 0.49937335 -0.4010377 -0.022614451 -0.7819172 0.45959464 0.060966607 -0.64881545 0.44636953 0.63042474 0.2348924 -0.21022879 0.47069198 -0.77787447 0.8299111 0.26439232 0.78128684 0.023502715 0.9249639 -0.82132596 -0.14200702 0.43845043 0.021794822 0.5687812 -0.061612528 0.74206 0.59659463 -0.026948439 -0.30345306 0.19795743 0.11166209 -0.3777577 0.34895086 0.6802325 0.20832026 -0.5933582 -0.31411737 -0.3857153 0.48216835 -0.19777445 -0.6033075 -0.44671437 0.37635297 -0.41086695 -0.56213653 -0.4813034 -0.13009387 -0.00869457 -0.33905914
0.91768223 -0.50735486 -0.25903672 -0.86102045 0.19318493 -0.9588346 -0.33493194 0.14031054 0.2052296 -0.5701797 -0.6517069 0.5103074 -0.4989374 0.025532879 0.22142789 -0.56121457 -0.6196446 0.7839033 0.4837006 -0.31700668 -0.23285669 0.38984874 -0.40668762 -0.40634245 -0.30581564 -0.0012210915 -0.14010563 0.59121144 -0.6872821 -0.8753073 0.18923342 0.4293665 -0.08776701 -0.34918493 -0.75252044 0.85723233 0.10640094 0.41110697 0.7496634 0.43065098 0.81747717 -0.30444154 0.40437895 0.31230098 -0.6245087 -0.18408978 -0.011331324 -0.14670868 -0.37203884 0.32794034 -0.5843835 0.3939139 0.40848923 -0.33180624 0.18597944 -0.11714635 0.57057077 0.017279591 -0.20477769 0.5225795 -0.5901203 -0.17160462 -0.79635495 -0.4452527 0.74429256 0.4965952 -0.75515324 -0.30212486 -0.57831687 -0.59412146 -0.5461884 0.5381068 -0.14445512 0.5147654 0.1766445 -0.88336253 0.28730673 -0.1473956 -0.57164043 0.954063 -0.7297607 -0.12983222 0.88163096 -0.008533147 -0.83662695 0.35309917 0.48977867 0.6230691 -0.6176783 -0.4193718 0.32402542 0.6667696 0.29135597 0.58472013 0.035936154 -0.0149856135 -0.09621979 -0.35937417 -0.58709466 -0.19262794 -0.8719008 0.12606722 0.83399826 -0.18995187 -0.19612432 -0.4368757 -0.86529297 -0.8208419 -0.35452476 0.46414292 0.75691813 -0.81978214 0.15711075 -0.43263242 -0.174477 -0.124593526 -0.73819214 -0.5866666 0.25006607 0.7629148 0.4969766 0.38459256 -0.6905359 0.21549703 -0.22827265 -0.08584502 -0.035002813 -0.81630874 -0.37215608 0.098755606 0.38708493 0.16256022 0.07642476 -0.050394103 -0.61281526 -0.69302326 0.13733986 -0.62744635 0.12505358 -0.5732245 0.12763019 0.9393548 0.36635736 0.2282656 -0.064735815 -0.61756796 0.60133857 0.54291654 -0.2625035 -0.8988402 0.082287244 0.3682748 -0.08917231 -0.5889605 0.071441986 0.18661405 0.39560208 0.40781033 0.6805404 0.36093712 0.04926485 0.33088592 0.6460735 -0.27558556 0.4322189 -0.24855217 -0.9041624 0.4837926 -0.029634845 0.40633816 -0.5034468 0.6898693 0.31267864 -0.29075333 -0.20485057 -0.72945434 0.5000322 0.39299458 -0.011446626 -0.24349423 -0.008479647 0.14230427 0.37477332 -0.37719312 0.64509934 0.115922555 0.85013026 0.009246312 -0.018751774 -0.40205127 -0.0333745 0.33289406 0.12726557 0.11602799 0.5704931 -0.5934612 0.6912157 0.40474558 -0.83176845 0.40428862 0.20174491 0.15610662 -0.09878435 -0.3379293 0.90587854 0.2596514 0.70801616 -0.084193565 0.42871624 0.6793711 -0.6407485 0.14287312 -0.22951081 -0.5940674 -0.31614253 0.39345348 -0.03564271 0.7596899 0.2356939 0.3643774 -0.67189926 0.78860694 -0.4385876 -0.2814357 0.65076715 0.6233455 0.8142525 0.056445606 0.31259587 -0.27301204 0.27746052 -0.40490004 0.31124842 -0.70315677 -0.63629526 0.4330191 0.65202194 -0.16289906 -0.6966088 0.23324306 0.28478566 0.2762726 -0.2992877 0.38714477 0.015049353 0.37525225 0.21514289 -0.32032207 0.03727565 0.29144162 -0.78470665 0.51488084 -0.697184 -0.8309878 0.4985547 -0.031476118 -0.58103037 -0.1002002 -0.9378222 0.25737813 0.45315143 -0.6704547 0.74511045 -0.06881082 0.59145975 0.7550828 0.108880155 0.46398082 0.11754467 -0.37409988 -0.29545164 0.03610159 0.41202843 0.11402677 -0.5350843 0.9466092 -0.56833553 -0.94927526 -0.6978701 0.053234924 -0.7895317 -0.38018528 0.29784378 -0.23724398 0.6865107 -0.84022176 -0.3338551 0.48823062 0.15020388 -0.058324397 0.9352628 -0.62832946 -0.5804588 0.10832813 0.46734837 0.6962802 0.6796527 0.88945115 -0.7385229 0.39569643 -0.28762802 -0.2056558 0.4934187 -0.8454908 -0.4510976 -0.85976315 0.41201952 -0.84374523 -0.73021215 0.2778614 0.7618686 -0.47349396 0.52226734 0.7173311 0.1994998 0.44102433 -0.8268113 -0.5911562 0.9098647 0.14390843 -0.40725696 0.8280874 -0.69048506 0.72565347 -0.3993773 0.2381977 -0.18410546 -0.4753673 -0.25589955 0.8354331 -0.36038443 0.49260953 0.18840829 0.62268883 -0.11167924 0.16839388 0.44668475 -0.11358776 -0.124276176 -0.63954675 0.50965863 0.09806491 -0.5194507 0.5748971 0.4988978 0.2381275 -0.16018608 0.55087084 -0.8134284 0.8728076 0.37156916 0.7602709 -0.06183005 0.9425411 -0.8677885 -0.17755477 0.3498527 -0.003130395 0.6144132 -0.052533112 0.76479053 0.75055414 0.08368916 -0.52373046 0.3488402 -0.01257625 -0.50585955 0.31838036 0.560584 0.108819954 -0.69890815 -0.37189397 -0.38953045 0.3314808 -0.24612732 -0.637332 -0.584286 0.2550069 -0.41359788 -0.574178 -0.5248732 -0.08810896 -0.16776752 -0.42090577
0.7842434 -0.8035929 -0.25958726 -0.9570239 -0.32298693 -0.9545171 0.097853124 0.6038176 0.065119475 -0.33594832 -0.3306843 0.2772432 0.20901476 -0.025388272 -0.09387331 -0.66516876 0.25224933 0.33402118 -0.11009606 -0.0016735392 -0.7881218 0.6047281 0.1992467 0.3255611 0.049785595 0.26476562 0.5731254 0.30060765 -0.41048467 -0.737238 -0.6527012 0.047159974 0.056365114 -0.30232754 -0.6669966 0.2714675 0.21073228 0.13063917 0.7100388 0.70003873 0.43993285 -0.53406984 0.18362945 0.22040287 -0.4055347 -0.076836586 -0.4369259 -0.07650983 -0.2487546 -0.19698274 -0.24242458 -0.31915033 -0.3764229 -0.41809785 0.12640052 0.10308238 0.5679092 0.27631274 0.25363645 0.2984901 -0.18353698 0.3365549 -0.49973273 0.063655205 0.928355 -0.20742907 -0.4409323 0.35293958 0.24678299 -0.4589541 0.0076888483 0.25440767 0.31756654 -0.103454165 0.23849055 -0.9120348 0.031835284 -0.3237862 -0.0088973995 0.9253933 -0.16290747 -0.031766675 0.8243578 0.65973425 -0.03129205 0.1636241 0.32096303 0.33355147 -0.2678813 0.25493515 -0.19729367 0.26671144 0.4248235 0.47985587 -0.12429018 0.091495596 -0.3725511 -0.15056562 -0.025386348 0.07340403 0.058350362 0.8476269 0.59800076 -0.40863153 -0.19795242 -0.79802024 -0.7572592 -0.568297 -0.38368797 0.17019317 0.3602769 -0.39859682 0.4209187 -0.049374897 -0.4251699 -0.63931507 -0.5084742 -0.07045174 0.089866325 0.59927315 -0.17309025 -0.4068261 -0.64543325 -0.42005867 0.03611683 0.268342 0.22930388 -0.32033828 -0.14798293 -0.05963656 0.6164906 0.19152997 -0.35165957 -0.67423534 -0.56820905 -0.06563374 0.64656615 0.36307698 -0.35362056 -0.41943857 0.07503575 0.37156337 0.72553295 -0.0245303 -0.0678459 -0.34878486 0.7861999 0.29235834 0.105649166 -0.66951776 0.048367806 0.35086033 -0.21411276 -0.16642825 -0.33423725 0.6222714 -0.20292889 0.23529471 0.7445759 0.010258496 0.358543 0.34673315 0.5697525 -0.72607756 0.20031813 0.011441708 -0.8055713 0.41726646 -0.29631957 -0.122767895 -0.033607442 -0.07924051 0.5113175 -0.017324232 -0.17289925 -0.7514374 0.38392624 0.18255153 -0.21897459 -0.14639954 -0.4104559 0.1390634 0.396602 -0.043910418 0.63831496 -0.4969129 0.1770177 0.74390334 -0.6430259 0.05924701 -0.20282117 -0.6104836 0.044566073 -0.2590176 0.16913328 0.25938305 0.30319774 0.7373401 -0.8301907 0.25246865 0.040402826 0.2024993 0.16796692 0.43364802 0.665336 0.20160101 0.69772434 -0.50870174 0.49963495 0.3260774 0.13917622 0.035774443 -0.023024185 -0.4372471 -0.57393146 -0.2030425 0.15530558 0.548774 -0.09791405 0.13558416 -0.41923445 0.43522322 0.34860796 -0.05468465 0.14384605 -0.25934368 0.7081201 0.02353696 -0.010064762 -0.3006297 0.00082170404 -0.17858939 0.4371104 -0.29554847 -0.89745873 0.038421262 -0.12734726 0.30061924 -0.112645246 0.047614515 0.19024181 -0.10325659 -0.4224106 0.43892086 -0.028756306 0.31880662 -0.15584885 0.45310965 0.2850734 0.7683735 -0.7438614 -0.6541238 -0.7539145 -0.89923644 0.62697667 -0.5089558 -0.04461495 0.3274867 -0.9208775 -0.130983 -0.20735334 -0.4649572 0.4884681 -0.20292382 0.2989758 0.7600727 -0.18252335 0.6113082 -0.49668655 0.27091032 0.0073669935 0.29506177 -0.14225774 0.6804147 -0.8598338 0.88682014 0.40694103 -0.9038267 -0.83159524 0.81946313 -0.6288272 0.22556855 0.08105928 0.09228356 0.21377203 -0.9107801 -0.18614724 -0.13028136 -0.17739491 -0.05187531 0.45504463 -0.37175927 -0.510641 0.66615146 0.7342552 -0.18710612 0.071313806 0.59426606 -0.027291618 -0.21115123 -0.25236306 -0.36113796 -0.32854912 -0.8212264 0.22235437 -0.8576284 0.75358814 -0.7550121 -0.6184037 -0.0051687267 0.69551355 -0.80942905 0.36048093 0.12988186 -0.31176448 0.20192806 0.3915629 -0.5027022 0.09684554 -0.72257936 -0.41728833 0.92266476 0.061956245 -0.04445147 -0.045933068 -0.041739542 -0.15731286 -0.33100003 -0.3787966 0.59825814 0.4786334 0.18305999 0.2072537 0.13123251 0.28781474 0.7134487 -0.17783245 -0.1475496 -0.35927963 -0.69860655 0.5084136 -0.5913251 -0.30846044 0.4538806 0.4699743 -0.005539188 -0.22639123 0.4240225 -0.94675374 0.5873009 0.0063197166 0.8089275 -0.25944844 0.512185 -0.37022793 0.4161843 0.13339512 0.39318714 0.38615385 -0.55138 0.48844883 0.26967278 0.6456785 -0.16536874 0.5884763 -0.5813176 -0.1656809 0.18666545 0.18865484 -0.5350055 -0.045771495 -0.25660735 -0.5179133 0.508578 -0.81955785 -0.6373864 -0.15671727 -0.2741847 -0.5048562 -0.3530833 0.21054934 -0.011822263 0.6059044 -0.2735483
0.7491724 -0.7406403 -0.12910493 -0.965848 -0.38853252 -0.9422206 -0.23666395 0.37294382 -0.07764955 -0.250969 -0.33733124 0.20442516 -0.031368796 0.30072397 -0.55777735 -0.5806852 -0.06924823 0.015806604 0.15012406 0.39858824 -0.7158018 0.6228237 -0.045619827 0.5374763 -0.013276883 0.2291909 0.48753285 0.052606076 -0.20503825 -0.8493168 -0.78420806 0.21783541 0.48797247 0.019300582 -0.71310115 0.5492653 0.2577937 0.41553366 0.6165943 0.505748 0.94682294 -0.44284937 0.23253645 0.15277828 -0.28928453 0.12614661 -0.14290243 -0.2943418 0.087021686 -0.7224728 -0.43368706 -0.4265515 -0.23409449 -0.47541636 0.56199604 0.5529623 0.31857368 -0.10654386 0.12703025 0.016128566 -0.56658095 0.27736422 -0.24656303 0.2542322 0.93012345 -0.5035913 -0.5577734 0.6105839 -0.18483055 -0.5782451 0.31746644 -0.03328522 0.340699 -0.028704228 0.46298933 -0.86149794 0.44620168 -0.5285322 0.21344729 0.88617724 -0.20090474 -0.31651008 0.77176434 0.44447637 -0.38039163 0.18043067 0.3359901 0.19034612 -0.4861629 -0.055805113 0.16997008 -0.0123734325 0.57817876 0.547942 0.19333719 -0.0782772 -0.4458181 0.24729829 0.38861904 0.5292465 -0.28654996 0.76111823 0.39818707 -0.16406946 0.103800975 -0.73329735 -0.65226984 -0.3963031 -0.20115504 0.0862843 0.36421418 -0.6240488 0.8215337 -0.120559156 -0.7189789 -0.83568835 -0.54793376 -0.51825356 0.010028263 0.70786846 -0.5717984 -0.6405644 -0.48161793 -0.28882757 0.1831904 0.482019 0.13585643 -0.2860992 -1.9193685e-06 -0.5657151 0.5211954 -0.17088212 -0.16208228 -0.57032883 -0.40400293 0.07987359 0.76627386 0.31348503 -0.35165802 -0.17615728 0.0366377 0.5812518 0.72236764 -0.23639409 0.36224988 -0.17340355 0.85936475 0.41124552 -0.05512516 -0.47394583 -0.11952273 0.4218063 -0.53867084 0.16402212 -0.52523774 0.61147946 -0.31062314 0.39685962 0.86625695 -0.035094183 0.17672884 0.35475603 0.30563855 -0.5825646 0.7918527 0.04846298 -0.6711163 0.06509573 -0.6587272 0.18730651 -0.17900957 0.07201922 0.691434 -0.17600898 -0.26160088 -0.6140003 0.19874166 0.45602068 -0.12290741 -0.42011264 -0.41680142 0.5637579 0.43784595 0.081122406 0.48597637 -0.72484237 -0.02876258 0.6596106 -0.7427529 0.28542724 0.07615302 -0.5938772 0.47119585 0.075358436 0.57563376 0.10163034 0.7423892 0.7322281 -0.74774134 0.2970473 0.18517418 0.6740115 0.5878494 0.44956288 0.7104043 0.46966097 0.73949367 -0.6727083 0.62732345 0.64177233 -0.18850166 0.033383872 0.3045503 -0.46543086 -0.29490617 -0.57002443 0.4720588 0.496424 -0.311525 -0.04465053 -0.257149 0.385849 0.34412032 -0.27362704 -0.038647264 -0.6029476 0.6954447 -0.21360914 0.049911976 0.020213889 0.20837983 -0.24071641 0.9049694 -0.21261318 -0.8786288 0.50077903 -0.16494519 0.45430568 -0.49955887 0.04517725 0.18490836 -0.30924723 -0.43465132 0.35834876 -0.033183433 0.8942949 -0.3254145 0.41138116 0.07502541 0.63564295 -0.77835965 -0.58395725 -0.70750886 -0.79266614 0.68063855 -0.33959642 -0.31569898 0.061440524 -0.86899334 0.22913471 -0.21210991 -0.6549371 0.2773529 -0.032376964 0.28154945 0.8130208 0.13514231 0.46470234 -0.7118065 0.29606435 0.4668765 0.21727797 -0.24321601 0.4564871 -0.8276358 0.9129115 0.13994358 -0.89193404 -0.7952901 0.70776415 -0.4418941 0.50436413 -0.042080954 0.5569624 -0.069959015 -0.891661 -0.33137816 0.17295091 -0.07209953 0.035315298 0.22688778 -0.19047618 -0.373373 0.5403514 0.65188813 -0.07311762 0.24786305 0.67378145 -0.09580034 -0.18300924 0.028313976 -0.28824508 -0.3899882 -0.68563753 0.20458682 -0.9050359 0.78410834 -0.68496674 -0.5497586 -0.41162166 0.82018864 -0.78816956 0.3206118 -0.089054435 -0.33644795 -0.039852127 0.11172147 -0.59459114 0.45874667 -0.7960937 -0.17553897 0.91466576 0.26800308 0.4764579 -0.18945761 0.11679362 0.09805458 -0.40482005 -0.14854959 0.634401 0.56310904 0.3398219 0.3137845 0.25778988 0.37611353 0.7087761 -0.15980116 0.13886563 -0.14165123 -0.6401654 0.49548084 -0.6472724 -0.13343273 0.42519623 0.26673415 0.11734816 -0.35773954 0.3424515 -0.9364644 0.5464755 0.03825194 0.72035664 -0.34734443 0.5369009 -0.6278597 0.33582506 -0.06527525 0.19061689 0.13257629 -0.528545 0.5728112 0.17693746 0.4177803 -0.23751974 0.5779679 -0.43039063 -0.4199271 0.21460459 0.57759297 -0.71531475 -0.048514236 -0.76143646 -0.26440114 0.35809526 -0.7142432 -0.46538323 -0.14112832 -0.07150767 -0.7520163 -0.21632834 0.049639646 0.48347393 0.5148157 -0.2168266
0.81489176 -0.89876807 -0.6650329 -0.95229036 -0.3245265 -0.8749035 0.30388272 -0.44426367 0.1181262 -0.014593227 -0.2833841 0.7828614 -0.4732526 0.8734651 -0.13929026 -0.12143867 -0.5268747 -0.11048569 0.3201524 0.33087733 -0.5917175 0.33095667 -0.11133445 -0.02438318 -0.4204514 0.49756908 0.13477343 0.3446518 -0.23234288 -0.5442434 -0.5816481 0.24065539 0.087900594 0.026143234 -0.08815341 0.2770906 0.19832459 -0.1816987 0.47370237 0.57767487 0.50454265 -0.4130944 0.65796953 0.35960698 -0.45140913 -0.21029355 0.054280233 0.42421144 -0.04743503 0.459816 0.033873618 0.22041133 0.24157013 -0.21172951 0.5691583 -0.24487199 -0.24024451 -0.44663543 0.58001494 0.14842042 -0.7011252 -0.48904005 -0.7593607 -0.16308768 0.91838235 0.4287743 -0.24400623 -0.20584248 0.35322574 -0.82053 -0.23039733 0.7645013 -0.28977206 -0.085422546 0.53968173 -0.04108043 0.27294257 -0.44562912 0.24389093 0.69829434 -0.53120655 -0.5092243 0.5855679 0.5008456 -0.693161 -0.22165316 0.0592048 0.6719708 -0.030788885 -0.35914138 0.5938433 0.71841407 0.09506014 -0.2810038 -0.44403154 0.4517517 -0.91583127 0.0034100774 0.21662302 0.36880922 0.104543224 0.20533152 -0.1496581 -0.030618247 -0.3778132 -0.0081213545 0.09899768 -0.8074345 -0.685855 -0.3642911 0.5583796 -0.5094827 0.7980299 -0.6786331 -0.8304765 -0.7259441 -0.2576152 0.063929595 -0.2234604 0.7047468 0.3693377 -0.22220963 -0.10790427 0.5777115 0.24976218 0.07764513 -0.31233394 -0.45502803 0.079752244 -0.66706014 0.1760666 -0.1483482 -0.28197816 -0.17995554 -0.33678916 0.2893002 0.44833347 -0.3991758 -0.6391299 -0.4657374 0.43912968 0.6347827 0.83802974 -0.6550604 0.81537163 -0.1405594 0.61890614 -0.4174144 -0.44341218 0.076437235 -0.14469442 0.86982006 0.31646833 -0.31156248 -0.27340466 0.34082055 0.4121382 0.23197788 0.7214245 -0.19184159 0.22120842 -0.017932214 -0.43897042 -0.37975255 0.70032215 0.3752585 -0.6442347 -0.042948768 -0.61079985 -0.06233629 -0.37579677 0.84737056 -0.37699628 0.28287828 -0.19234145 -0.055377427 -0.14537413 0.36862165 -0.03103453 0.014030978 -0.24319653 -0.31861836 -0.06472082 -0.51020265 0.3935693 0.022997245 0.70930505 0.14156212 -0.094250165 0.4414357 0.32933223 0.734801 0.23142894 -0.08820946 0.5413237 -0.30781946 0.87332803 0.7542483 -0.89833295 0.23220909 -0.34901628 0.10533339 0.33479363 -0.063246034 -0.017932184 0.18279663 0.48161763 -0.421677 0.6807317 0.41316837 -0.53942627 -0.37817898 0.35173675 -0.44469726 0.117146485 -0.03278012 0.029911237 0.15414377 -0.43462604 0.17386897 -0.5415825 0.17978945 -0.4797646 -0.6484484 0.30425176 -0.20941958 0.60687184 -0.4807735 -0.30840337 0.27759585 0.2599344 -0.6222837 -0.45778224 -0.87435263 0.14249477 -0.18410058 0.88085765 -0.14312997 0.13675028 0.07121895 0.17185569 -0.124048226 -0.09218791 0.60016894 0.2649205 0.37930167 -0.22272438 0.14603044 -0.646567 0.061753504 -0.58092046 -0.5780505 -0.5444312 -0.67869604 0.22938587 -0.5508763 0.112361245 0.4704256 -0.8147935 0.4258207 0.23134206 -0.4455824 -0.085217975 -0.58098024 0.18487728 0.6326883 -0.19152834 0.3347277 -0.77228695 -0.50596666 -0.36029086 0.25788966 0.14424136 0.34667286 -0.53049564 0.9105748 -0.08837609 -0.5371513 -0.81814945 0.8886834 -0.5908232 0.3713324 0.44267014 -0.3913589 0.6216896 -0.6500509 -0.18446085 0.5155638 -0.06777861 0.33168224 0.915734 -0.67584246 -0.579409 -0.26223347 0.19685018 0.2687498 0.73011905 0.847997 -0.12402998 0.16536401 -0.21335058 -0.081335984 -0.70276517 -0.83101 0.3631305 -0.92440003 0.27553102 -0.7178657 -0.36333546 0.5065355 -0.38802403 -0.5399944 0.3425631 0.30395675 -0.5382029 0.37183595 -0.49287182 -0.37599647 0.43780684 -0.43586972 -0.33715826 0.9310508 0.27841872 0.760501 0.1797771 0.09237813 -0.09537256 -0.19301537 0.25715175 0.702768 0.0482765 0.43544403 -0.13890624 -0.35489848 0.5506424 0.48875964 0.061108578 -0.67152333 -0.28687704 0.21250597 0.84481174 -0.51560694 -0.2114202 0.64125687 -0.36995816 0.5196321 -0.6064888 0.33671033 -0.84927946 0.9694748 0.35425973 0.884418 0.27390483 0.67986876 -0.68326575 0.70705396 -0.5062951 -0.04775531 -0.37267587 -0.55798733 0.71058 -0.13623652 0.24960536 -0.27826485 -0.073075406 0.07362588 -0.025573216 0.5056116 0.48040372 -0.03043645 -0.2619964 0.014582252 -0.50053173 -0.35595748 -0.16123094 -0.12664829 -0.5365987 -0.5737011 -0.90846705 0.12531343 -0.09835188 -0.38467544 -0.21534769 -0.17529976
0.770993 -0.7459524 -0.5329097 -0.9895928 -0.6347018 -0.9631689 0.2069076 -0.35672218 -0.21864396 -0.2962489 -0.8293438 0.7905406 -0.005538728 0.38505203 0.010883117 -0.9263023 0.40211567 -0.008833828 0.3512354 -0.03299309 -0.82508904 0.5380452 -0.33472562 0.32082015 0.248196 -0.2956845 -0.011882033 0.6056959 -0.6414271 -0.16562775 -0.6841177 -0.13204023 0.24700198 0.008366708 -0.9013533 0.68222886 0.62390137 -0.21160099 0.30330256 0.725883 0.8498968 -0.5752241 0.4921368 0.36417317 -0.07880286 0.08074729 -0.47020987 0.11286897 0.86165327 0.40079293 0.52464676 0.5193421 -0.029044498 -0.7666053 0.82362837 -0.27877808 0.4320253 -0.6149119 0.26447093 0.028166596 -0.78462183 -0.47037986 -0.81672984 0.3096135 0.826468 -0.108778216 -0.09202815 0.6334455 -0.5081369 -0.83254474 -0.3831583 0.20049621 0.1915359 0.37500727 0.71034235 -0.70180243 0.17983292 0.033960048 -0.49307847 0.93166083 -0.31208855 -0.89116424 0.71006817 0.27457452 -0.64699525 -0.2752401 0.55820286 -0.20920056 -0.5555984 -0.50261307 0.2467299 0.62258667 -0.102980494 0.6993503 -0.27597684 0.18764052 -0.71254706 -0.27734974 0.39790982 0.49833724 0.10920036 0.55781364 -0.0418954 0.019355532 -0.69931954 -0.26467326 0.33574846 -0.6519034 -0.30273423 0.6707244 -0.5441397 -0.41107956 -0.082471184 -0.27677178 -0.7976334 -0.6801337 -0.48823985 -0.69403374 -0.31110147 0.21306784 0.21321295 0.059468213 -0.8419059 -0.16590406 0.5524574 0.020201374 0.007509173 -0.7035245 -0.3161903 -0.78701293 0.09827459 -0.4677133 0.13128725 -0.40530866 0.56354797 0.48730507 0.32086164 -0.6050387 -0.80273074 -0.27933952 0.26659366 0.28179583 0.32589728 -0.31103194 0.6344133 -0.016076313 0.8036488 0.3076067 -0.24658312 0.13137221 0.122882776 0.20582895 -0.47008565 0.5396774 -0.30273363 0.55698776 0.34225634 0.45359322 0.726668 -0.55475783 0.19181722 -0.21690257 -0.19710025 -0.72775453 0.7797839 0.37363583 -0.7528563 0.07061996 -0.29482955 -0.013593141 0.038183574 0.82642776 0.7721928 -0.4061017 -0.6730577 0.012977516 0.39913976 -0.080143146 0.20651229 -0.18987566 0.295914 0.4453348 0.461016 -0.5697924 0.40745527 -0.9089722 0.6878234 0.55881804 0.28220814 0.6669032 -0.35997087 0.36627978 0.30513948 0.20554708 0.89501756 0.017952716 0.776072 0.89703 -0.67373675 -0.44576085 -0.11970363 0.7020862 -0.050241727 0.53266704 0.9428151 0.20980078 0.6554889 -0.51082265 0.47074494 -0.100104 -0.6285193 -0.5132476 0.7246713 -0.018089958 -0.85839754 0.2301794 -0.46347865 0.55678064 -0.17173868 -0.37769502 -0.763012 0.6131573 -0.46899003 -0.62863624 -0.046157956 -0.07244717 0.6605849 -0.3039308 -0.3665197 -0.26617795 0.073091425 -0.25932303 0.025253192 -0.5963334 -0.93645126 0.38984895 0.112472214 0.39000955 -0.2659924 0.25740758 0.086599715 0.38665023 -0.65120167 0.25282854 0.22115123 -0.0041038822 -0.2895789 -0.082401365 0.17532438 0.9629376 -0.6663498 -0.7594288 -0.8881543 -0.8986522 0.031212728 -0.7296549 -0.28261113 0.34223253 -0.8336265 0.5481933 0.2596763 -0.43362382 0.07149184 -0.38574392 0.5349254 0.3875567 -0.45694387 0.47389483 -0.7132698 -0.33670786 0.24786314 -0.6715604 -0.4088466 -0.13911396 -0.40294495 0.7623419 -0.4362778 -0.55840856 -0.59070647 0.8181701 -0.29759052 0.7798547 0.64325684 -0.13740739 0.34338057 -0.80664146 -0.42519102 0.52086985 -0.3241473 -0.055475466 0.8271457 -0.747871 -0.7199148 0.26333696 0.66078603 0.5465557 0.8212442 0.75469345 0.4656556 -0.5876005 -0.008025114 0.51912236 -0.07368724 -0.79251456 0.64678955 -0.93094337 0.31841257 -0.6745785 0.06784705 0.106401354 0.2792412 -0.7122501 0.3913285 -0.28673795 -0.69160926 0.77753854 0.23318905 -0.43831444 -0.1782767 -0.89181626 -0.43820763 0.1325079 -0.4372057 0.7032604 0.4104074 -0.29009005 0.18920955 0.113264 -0.6318949 0.8073824 0.7259066 -0.32389525 -0.37828174 -0.48788944 0.6320212 0.47862828 0.20347515 0.10352437 -0.42318693 -0.6277293 0.80442846 -0.66704476 -0.3203749 0.40687817 -0.12088521 0.30548623 -0.570421 0.66012394 -0.9415108 0.4241092 0.5513333 0.53121495 -0.008853657 0.07132273 -0.6622709 -0.14504398 -0.22739409 -0.23616545 0.22995909 -0.63456094 0.77278614 0.39337093 -0.17612126 -0.42415458 0.09806281 -0.08632531 0.25855225 0.2285013 0.72808367 -0.2862206 -0.14864336 -0.656904 0.25924885 0.19922262 -0.85354835 0.043685712 -0.72703457 -0.3701156 0.04593352 -0.47249755 0.29660472 -0.7033005 0.048332807 0.05770092
0.30144328 -0.6880692 -0.40169808 -0.98735064 0.0013686235 -0.928626 0.074457504 0.28649786 0.101743676 0.2362625 -0.28278962 0.49670792 -0.18695986 0.51447654 -0.3780582 -0.83800113 -0.18954106 0.03551047 -0.16685782 -0.04165813 -0.6852116 0.47044197 -0.22692542 0.0545929 -0.20013553 -0.07016772 0.49613455 0.6076859 -0.4318693 -0.8404055 -0.3449537 -0.04483401 0.064887814 -0.42574275 -0.36991915 0.5427698 0.46166176 0.3429921 0.50883555 0.5287745 0.20585147 -0.39963418 0.3474394 0.61416274 -0.7193187 0.008354923 0.3849346 0.06539546 0.17702739 -0.13627242 -0.3817006 0.4597491 0.46792874 -0.433785 0.45891798 -0.5162584 -0.2903494 -0.14617676 0.2235036 0.6286487 -0.84976315 -0.03962063 -0.30180228 -0.3317011 0.87907046 -0.12586321 -0.21523431 0.2750854 0.3477961 -0.87370384 -0.105357334 0.33846644 0.07392216 0.33273748 -0.0033949455 0.024471309 -0.12113178 -0.19824338 -0.48951915 0.5431601 -0.37259156 -0.14907543 0.7906464 -0.062072814 -0.5302247 0.12265794 0.6108885 -0.051027477 -0.3212612 -0.099882305 0.23944353 0.35881624 -0.18987027 -0.19271652 -0.4338833 0.10680047 -0.8657679 -0.26244158 -0.31984976 0.68759423 -0.291765 0.6336559 0.48800492 0.13281712 -0.48639223 0.119631216 0.12012106 -0.7619432 -0.60784894 -0.3614606 0.79421157 -0.38264725 0.26669452 -0.844918 -0.52224934 -0.5216463 -0.28220865 -0.1589559 -0.71471643 0.2815501 0.102423415 -0.21096288 -0.43230212 -0.08640043 -0.13913023 0.12169577 0.04744674 -0.7288648 -0.45995098 0.0661033 0.5935162 0.06564407 -0.4394738 -0.13726905 -0.32006964 0.60660386 0.47649404 -0.5162236 -0.5469432 -0.25962186 0.42806438 0.36890158 0.78944814 -0.4365075 -0.18737113 0.14134505 0.691954 -0.22402664 -0.17871366 -0.25742373 -0.30700472 0.6685591 0.17760907 0.22419776 -0.4595137 0.406288 0.36475798 -0.24421203 0.84455687 -0.39133182 0.6311994 0.7720593 0.41602036 -0.14693542 0.08704659 0.06312794 -0.78847367 0.24296671 -0.3279478 0.34707138 0.009598986 0.60862195 -0.25257912 0.3932361 -0.4133017 -0.6735581 0.19931449 0.36203402 0.017992117 -0.50389946 -0.5655787 -0.3105999 0.15573578 -0.58607084 0.7446733 -0.018971533 0.6869678 0.47692373 0.2580329 0.79378355 -0.07493262 0.3091684 0.19818512 -0.121154435 0.7826594 0.18102084 0.8683376 0.7847121 -0.99856377 0.7744103 -0.29505667 0.121556476 0.5135753 -0.04417674 0.103943594 0.3441413 0.53755355 -0.067118175 0.40977314 0.60461134 0.31765547 -0.6949992 0.19745399 -0.3877683 0.031389896 -0.4684665 0.4081618 0.768778 -0.8436323 0.0034267427 -0.43656528 -0.24993297 0.09726345 -0.31646803 -0.15201478 -0.36030185 0.5712998 0.18514223 0.31059402 -0.058254678 -0.04802171 -0.30155826 0.23563516 -0.46655366 -0.6852697 -0.36306116 0.48398885 0.057560924 -0.35336205 0.39280453 0.2856073 -0.2051316 -0.2011851 0.33608517 0.467086 -0.13531989 -0.42298818 -0.114149906 0.21992527 0.75117683 -0.48918983 -0.7261038 -0.62402517 -0.740934 0.22446015 -0.6472161 -0.107574455 0.7381115 -0.8717949 -0.042244527 0.5682922 -0.50874144 0.023603331 0.030434368 -0.26984784 0.67314017 -0.35464582 0.6027825 -0.8465775 -0.27852213 -0.21473265 0.021030419 0.050723054 0.58547026 -0.83898175 0.8438252 -0.13856587 -0.6258299 -0.80332196 0.7844016 -0.6439651 0.6248059 0.20840491 -0.26383072 0.80888754 -0.887192 -0.16572928 0.45440215 0.2551534 -0.5607685 0.58159727 -0.0321689 -0.42661476 0.21942782 0.47835237 0.17195101 0.9144735 0.63068116 0.16654435 -0.103027396 -0.28334352 0.10204964 -0.64847594 -0.8040377 0.08863774 -0.8784232 0.60755146 -0.535786 -0.48712716 -0.4835469 0.23365958 -0.83962494 0.6028597 0.2504938 -0.753901 0.5971435 -0.50757486 -0.046915576 0.14901358 0.09032678 -0.96991974 0.9827442 0.18486436 0.33593935 0.3865175 -0.022427803 0.031152612 -0.75641954 0.014868702 0.6447032 -0.1938354 0.49948055 -0.19471473 -0.63228524 0.7880286 0.45596033 0.0075391782 -0.71109456 0.035469517 -0.547591 0.65340346 -0.4812273 -0.76758426 0.7407808 -0.044043876 0.2824619 -0.13318187 0.74498206 -0.8904361 0.9064879 0.21476848 0.84844345 0.35639834 0.79017204 -0.6538399 0.32806566 -0.11729375 0.36649773 0.15957311 -0.54180706 0.3913099 -0.4872232 0.5463917 0.41399992 -0.48661768 -0.25700253 -0.049712002 0.15001653 0.08862948 0.08514215 0.07825457 -0.016783396 -0.75468767 0.13804299 -0.61881363 -0.41023296 -0.4863575 -0.3742232 -0.083527036 0.095406525 -0.52907854 0.015427259 -0.08618246 -0.03385054
0.6302222 -0.6936207 -0.33435956 -0.9398324 0.013226895 -0.97904634 0.8069547 0.11115131 0.51634675 -0.19697723 -0.7640637 0.66324085 -0.51203716 0.4827455 -0.7057364 -0.7891855 -0.43339127 -0.0016701298 0.07342653 -0.37206885 -0.97959113 0.29887062 0.38929418 0.6464134 0.4323567 0.4766811 0.7368124 0.049986843 -0.22224003 -0.9076178 -0.52954626 0.5213184 -0.105404876 -0.40977067 -0.628409 0.12649016 0.3364892 -0.23414843 0.6928458 0.6956315 0.8892084 -0.17663907 0.5537932 -0.18967237 -0.6078252 0.5899508 0.18042848 0.098524645 0.83259934 -0.42803255 -0.70602167 0.029987006 0.5085785 0.359462 0.34789914 -0.03246569 -0.30858755 0.009375105 0.026797289 -0.23509844 -0.5659784 -0.30887434 -0.24586806 -0.3011192 0.55047596 0.03093081 -0.18323809 0.26446158 0.4278862 -0.7814415 -0.10841369 0.01838978 -0.034567337 0.35108736 0.5204497 0.30453402 0.51571596 -0.08271678 0.18754034 0.32487085 -0.3531737 -0.9211634 -0.07178023 0.5679274 0.26243278 0.1679538 0.6410782 -0.027049722 -0.5897132 -0.32141158 -0.1536607 -0.3591215 0.6129503 -0.30196202 -0.44957852 0.6338746 -0.74842376 -0.7103297 0.3166984 0.2765153 -0.63308984 0.10497476 -0.075309075 -0.30195647 -0.3739526 -0.019111367 0.051769678 -0.97201014 -0.45196646 0.0006326267 0.056184076 -0.5938283 0.9832325 -0.6582444 -0.28715342 -0.80665165 -0.73138773 0.4064194 -0.20539044 0.53994715 -0.10400143 -0.6535312 -0.69975924 -0.7388338 -0.17227063 0.2837995 -0.5401621 -0.83226526 -0.89658046 -0.67352617 0.841029 -0.17925027 -0.6781135 -0.81135184 -0.49470493 -0.48723254 0.43273634 -0.4849629 -0.48652393 0.3925971 0.6369989 0.4504572 0.8067799 -0.026964335 0.49329102 0.031011594 0.6972723 0.0038487986 -0.39009306 -0.31391162 -0.6837826 0.70107055 -0.19754434 -0.080067776 -0.6699364 0.7187435 0.5022874 0.72347546 0.92924094 -0.35070217 0.6979103 0.2163476 0.65238583 -0.39127114 -0.09997829 0.18333313 -0.8319035 -0.01634572 -0.64573735 0.6362001 -0.5522688 0.82309926 -0.27289274 0.29222322 -0.18693249 -0.88203645 0.20473208 -0.012886722 0.22869985 -0.5674753 -0.037151698 -0.24806124 -0.3708512 -0.2695901 0.76795465 -0.77807456 0.06876034 -0.1977631 -0.021851204 0.34043545 0.15751962 0.54347557 -0.093615375 -0.28754973 0.8420335 0.3263807 0.5049209 0.11195147 -0.966127 0.25008968 0.107399315 0.48375896 0.7784333 0.41904134 0.26793516 0.5375637 0.75442207 -0.4379779 0.84080166 0.54039717 -0.16156943 -0.7216389 -0.13197255 -0.2767661 -0.5878192 -0.26423216 0.35129052 0.9430691 -0.18951178 -0.22552189 -0.57397497 0.67660713 -0.34367242 -0.6388922 -0.13351919 0.53809065 -0.012515079 -0.4105675 0.29959503 0.559492 -0.74273795 -0.18056998 0.67840946 -0.7734599 -0.48170158 -0.41319266 0.35027197 -0.13202117 0.34606504 0.030167013 0.016233798 -0.33781958 0.1728568 0.15638845 0.39356235 0.48930433 0.10020004 0.883918 0.561555 0.57124954 -0.7596165 -0.14009787 -0.3259098 -0.86991405 0.7911204 -0.10411763 -0.2134205 0.92446756 -0.90148824 0.0736443 0.6394425 -0.41872084 0.14236966 -0.1715855 -0.1215713 0.095457196 -0.62524855 0.19398999 -0.421337 0.31463957 -0.1582587 0.006701532 -0.005721542 0.46100995 -0.6026741 0.9231476 -0.446975 -0.56576794 -0.85538137 0.4529803 -0.44739863 0.7571691 0.46814823 0.33615875 0.27946287 -0.69325656 0.0658581 -0.42289528 -0.22504647 0.087472826 0.8038106 -0.6480414 -0.71783614 0.51286566 0.14805005 -0.04607229 0.32726225 0.6681642 0.1388325 -0.063658185 0.29311433 0.36664364 -0.42228064 -0.6726063 -0.06981826 -0.9835611 0.681257 -0.19278398 0.042325255 0.008490417 0.86784166 -0.71776426 0.5253385 -0.11809093 -0.98640686 0.86364955 -0.40260923 -0.5120838 0.61787003 -0.58041745 -0.2834679 0.90787566 0.08730353 0.6029821 0.0072770147 -0.031284146 -0.11721281 0.29048994 0.1162231 0.8134168 -0.015784143 0.4408712 0.37900296 -0.51954144 0.42865863 0.49272403 -0.25712934 -0.446788 -0.22206163 -0.6024876 0.18515854 0.18684469 -0.12100287 0.6890193 -0.22927798 -0.5942472 -0.56291837 0.75927407 -0.8766741 0.73964477 0.3523478 0.610918 0.40297812 0.12278639 -0.3131569 -0.14971769 -0.30053556 -0.0007534742 0.8255463 -0.73898876 0.31343862 0.041778263 -0.52303815 -0.20586948 0.237763 -0.43937895 0.46976882 -0.1012111 0.3618983 -0.6970898 -0.66982996 -0.07667845 -0.38809493 -0.33411998 -0.92336005 -0.045017693 -0.45163015 -0.3411084 -0.33271366 -0.7997814 -0.40938592 0.052014016 0.27548212 -0.07281448
0.769836 -0.20640336 -0.24276595 -0.9940449 0.30906606 -0.9517175 -0.46462506 0.5107184 0.50924 0.49747536 -0.8289197 0.2715272 0.12342417 0.7903306 -0.7235552 -0.9158304 -0.7389017 0.22500166 0.9015154 -0.3266754 -0.45425418 0.75852054 0.76369756 0.21724053 0.09986153 0.7566043 0.6223122 0.39747673 0.3010572 -0.7572007 -0.7535241 0.15846454 0.8484209 0.7117519 -0.9684134 0.93940353 -0.41486 0.9789552 0.47523332 -0.19386072 0.7783985 -0.26455328 0.12838453 -0.40328145 -0.7397539 -0.09641736 -0.24102336 0.049450614 -0.3046894 -0.61447287 -0.78536165 0.28858966 0.39499056 0.5172479 0.39176854 0.09517313 -0.53811735 -0.12079565 0.4830959 -0.17358574 -0.49548835 0.013837316 -0.07554796 -0.18569736 0.88303214 -0.9893616 0.51823014 -0.02368125 0.33553043 0.0039480734 0.39587197 0.11800594 -0.5625576 0.39231825 0.6488069 0.17581199 -0.4465444 -0.5900236 -0.75293463 -0.2203372 -0.07111964 -0.49919274 0.30802178 -0.50932634 -0.63927233 -0.27883184 -0.13872916 0.0011857259 0.01955775 -0.26526585 -0.38079074 -0.2629445 0.67799455 -0.4255268 0.59462625 0.3335395 -0.956505 -0.46284574 0.27494413 0.9247375 -0.74940383 0.0441699 0.17256255 -0.33680624 0.68934304 -0.28431723 -0.7064142 -0.33652288 -0.33779058 0.8279766 0.43372285 0.485878 0.8905908 -0.5550845 -0.5592172 -0.9671505 0.36481452 0.1209104 0.29603812 0.60828966 0.2593382 -0.7276487 -0.6516381 0.32343426 0.15093054 0.5849231 0.016577378 -0.37653413 0.43917078 0.1186846 0.4211419 0.36032608 0.175441 -0.07090717 -0.31864217 0.8833718 0.08325588 -0.13617398 -0.8570209 0.016662491 0.35722244 0.07883734 0.5522763 -0.9469777 0.8945862 0.7007436 0.86076075 0.53804874 -0.25511372 0.33638078 -0.05962656 0.22713484 0.37120226 0.43903115 -0.6893803 0.27267805 -0.5801742 0.10277824 0.95732623 -0.735029 -0.37268156 0.66586035 0.45480776 0.09084361 0.5704242 0.6854356 -0.9330245 -0.5742463 -0.40301812 0.4239582 -0.7233566 -0.17312491 0.22553976 -0.30769292 -0.5568016 -0.7076307 0.11311816 0.54878104 0.18783027 -0.7327802 0.26414257 0.5962307 0.63679475 0.06610817 -0.07793117 -0.71277887 0.6487602 0.7137578 -0.31961325 0.65299827 -0.03246868 0.2715802 -0.12603672 -0.35774323 0.37140402 -0.29738903 0.83320016 0.9562497 -0.55067205 0.3606667 0.82069933 0.66879404 0.109203964 -0.68010825 -0.3203902 0.5673432 -0.1343704 -0.35118526 0.74672836 -0.1249611 -0.41241544 0.33989158 -0.12705669 -0.84271514 -0.66105974 -0.0807866 0.21283473 -0.06321476 -0.7920667 -0.5647743 -0.7826882 0.45732635 0.19126453 -0.69376236 -0.8890597 -0.23720427 0.45859608 -0.55013096 0.9304527 0.87973094 -0.37889227 0.34626582 0.27328995 -0.8276578 -0.8252493 -0.11250693 0.11059585 0.86824256 -0.39685568 0.7552761 0.113974154 -0.09166506 0.1646573 0.26000294 -0.6550008 0.8964617 -0.3313801 0.015995128 -0.45541334 0.49354517 -0.66075003 0.17971316 0.16333304 -0.7701099 0.6917749 -0.05545318 -0.26377818 0.77911574 -0.9692182 0.5883926 -0.87133837 -0.706765 0.6342585 -0.27603182 0.36411086 0.9298312 -0.21183719 0.051470183 -0.803171 0.8040449 0.8984263 -0.19278751 -0.5060544 0.81320316 -0.61911184 0.9903271 -0.45727468 -0.27969736 -0.08809904 0.24854566 -0.6092663 0.6869217 -0.39296705 0.4550067 0.21521854 -0.92939496 -0.19302845 -0.043643363 0.4617661 -0.39360452 0.7230701 -0.21839528 -0.6375799 -0.6454662 0.74182606 0.8911258 0.1311754 0.77892625 0.29266307 0.20824845 -0.28876346 -0.33183104 -0.73963434 -0.6255849 0.5314697 -0.9884105 0.7473851 -0.8769179 -0.8754515 0.12499956 0.306201 -0.5517613 0.67411596 -0.25277954 -0.8693852 -0.056880392 -0.62320215 -0.99296445 0.9633546 -0.9140591 -0.9679093 0.1219837 -0.51968795 0.080538 -0.035286136 -0.07493177 0.6960119 -0.124666706 -0.7415622 0.8851136 -0.2835251 -0.4275585 -0.24679023 -0.4915109 0.78272265 0.81475145 -0.46961275 -0.22005972 0.52902955 -0.23775193 0.81026024 -0.558937 -0.596044 -0.22745621 0.047744986 -0.8210538 -0.3630452 -0.25524664 -0.00790313 0.50376815 -0.4741983 0.9688428 0.34292457 0.764808 -0.3353684 0.66643196 0.35191938 0.43191925 0.112329826 -0.6448207 0.7550765 -0.80548286 0.62196606 -0.23489274 0.5723493 -0.4602955 0.26636901 0.8673978 -0.21001637 -0.9214148 -0.37783146 -0.3419346 -0.8417776 0.7592875 -0.87586766 -0.051649563 -0.4806038 -0.0661861 -0.7766404 0.7289753 -0.4310498 0.16233385 0.85207045 0.4818067
0.45656303 -0.6787976 -0.26369667 -0.93991584 -0.4193381 -0.9272615 -0.11580383 0.38079745 0.37583467 0.07826845 -0.5655607 0.24467088 0.24298003 0.12329887 -0.5175354 -0.2552407 -0.10997938 0.3651479 0.4627928 -0.64191276 -0.8164144 0.3500148 0.50736535 0.36927912 0.54347366 0.3630093 0.86504734 0.47846058 -0.021686701 -0.5607935 -0.5679663 -0.023656743 0.65846795 0.33288762 -0.98929954 0.48501623 0.2620968 0.5905704 0.24733566 0.54160404 0.58148783 -0.73452115 0.0013145631 0.06175776 -0.4311144 -0.46961555 -0.7155853 -0.067738235 -0.057800725 -0.14028059 -0.13513806 0.10136321 0.57455695 0.58896935 0.36999714 0.071779095 -0.12225637 -0.06379279 0.5305423 0.17446418 -0.31330585 0.03483722 -0.24770407 0.36329773 0.7178102 -0.79906714 0.113032 0.20423685 0.18093003 0.31804797 0.02243098 0.47542837 -0.61927444 0.20854677 0.24775615 -0.1460629 -0.22686322 -0.52462184 -0.6786119 0.446621 -0.36723134 -0.32969734 0.16377588 0.2895242 -0.593171 0.08908352 -0.17445046 -0.017887626 0.14986748 -0.45138222 -0.053955324 -0.35943484 0.6302244 0.18323556 0.39873576 0.28143123 -0.8828762 -0.8291297 0.44861096 0.47570798 -0.2582797 0.16089611 0.28833306 -0.21690108 0.02980164 -0.16012229 -0.8139489 -0.6184667 0.13965547 0.4822382 0.06260884 0.10739977 0.5241529 -0.8295666 -0.7510331 -0.9152022 -0.10910047 -0.30051503 0.25496662 0.67289144 0.36720824 -0.39863676 -0.08250865 0.06436165 -0.4334212 0.20053212 0.52074045 -0.25834286 0.7391394 -0.2750344 0.8372321 0.55231535 0.35427335 -0.5821474 -0.69619983 0.8721413 0.22066957 0.15614155 -0.6689564 -0.58077055 0.087771006 0.23569219 0.47802743 -0.42318198 0.678221 0.3641679 0.80739546 0.56597024 -0.26472285 0.37048188 0.18084614 0.28148443 0.053120706 -0.15207088 -0.78243315 0.26578754 -0.15162192 0.25948706 0.8454197 -0.49471125 -0.13779664 0.50062644 0.1968693 -0.514078 0.40544337 0.71699196 -0.80177164 -0.44660744 -0.057621405 0.26658332 -0.021782346 -0.15023732 -0.12957546 -0.60426027 -0.31583458 -0.36113453 0.0315494 0.65383244 0.4308441 -0.41512665 0.27252853 0.6412034 0.3557129 -0.109466225 0.22224347 -0.50825554 0.40034264 0.59414685 -0.03987066 0.27020934 0.12319903 0.34314504 0.22488841 -0.22344607 0.77685094 -0.02856884 0.8347765 0.66687924 -0.5332442 -0.13593361 0.17717151 0.43801653 0.093176335 0.026337918 0.15771903 0.5799022 -0.13318518 -0.21701534 0.2424138 -0.5051464 -0.15008909 0.21304627 0.25936598 -0.72772586 -0.8271975 0.07522605 0.017925633 -0.31486163 -0.20304662 -0.5728971 -0.6523708 0.39774138 -0.15477605 -0.6727499 -0.7094005 -0.12088923 0.2580361 0.14159968 0.60897404 0.22389285 -0.4263801 0.095443554 0.524199 -0.6496261 -0.60029936 0.08003434 -0.1765283 0.7889736 -0.59503096 0.5932398 -0.10658705 -0.31148088 -0.12663163 0.486625 -0.7375486 0.43604475 -0.3754479 -0.32077637 -0.35827395 0.21649761 -0.54355294 0.060086936 -0.039601035 -0.9654374 0.30368528 -0.16736588 -0.68537134 0.58886546 -0.96601063 0.33112755 -0.48064065 -0.62435806 0.7345764 -0.62091416 0.33179626 0.77885884 -0.22560687 0.4341813 -0.58547705 0.0071126926 0.16217317 -0.09536966 -0.46797326 0.44811693 -0.65722364 0.9472081 -0.14179479 -0.3316213 -0.088067435 0.24164915 -0.91852057 0.20049526 -0.43768424 0.2009103 0.071688004 -0.80011976 -0.23832893 -0.21596499 0.030971607 -0.66078776 0.4935832 -0.29661572 -0.76939094 0.11981257 0.40537614 0.38833013 -0.21937263 0.8065914 0.14959328 0.13652447 -0.23228595 -0.40773302 -0.6700614 -0.7777587 0.6625198 -0.9918605 0.5538643 -0.7669563 -0.5640237 -0.21142273 0.45008522 -0.46197802 0.6761108 -0.09182558 -0.69659024 -0.27146897 -0.29702643 -0.5317215 0.021927822 -0.6829969 -0.9356764 0.31926128 -0.39042133 0.25177234 -0.009286071 -0.4121745 -0.027415574 -0.541242 -0.8590663 0.77698034 -0.23428641 -0.23916362 0.26517254 -0.21077144 0.8125401 0.22994293 -0.6202675 -0.1797691 0.056753933 -0.7059827 0.7153655 -0.77670264 -0.2848538 -0.04324419 0.53918314 -0.7160987 -0.4680564 -0.15204336 -0.3198396 0.6802007 -0.25258523 0.7964459 0.60689336 0.13399367 -0.5004455 0.62438965 0.58376753 0.31652555 -0.08875953 -0.71291804 0.70338917 -0.6243834 0.31050158 -0.09406761 0.3617565 -0.52479887 -0.34698528 0.92276525 -0.019263458 -0.5823401 -0.4043026 -0.23614766 -0.58579415 0.6176879 -0.877782 -0.2553784 -0.26288462 -0.37039906 -0.09813986 0.16339459 -0.26196402 -0.17793652 0.7728726 -0.083439924
