0.27666295 -0.101421714 0.29553214 -0.8583006 -0.11856638 0.21597236 0.33195996 -0.31347805 0.18139581 -0.23770212 0.1331151 -0.22077353 0.008074493 0.07062003 -0.026584957 -0.09101066 -0.35608748 -0.074176006 0.10991144 -0.12736714 -0.4948304 0.28253868 -0.26920858 -0.16473052 0.5216954 0.54792726 0.23255494 -0.07844084 0.04255862 0.6802651 -0.48993856 0.048627563 0.748216 -0.42476958 -0.36633483 0.7331427 -0.021542596 0.22920118 0.14069197 0.013419243 -0.3080655 0.40837434 0.09637381 0.09904073 0.3919256 0.09713854 0.05046685 0.48444232 0.28215972 -0.5655486 -0.31853002 0.17843099 -0.001496029 0.1932934 0.5972125 0.024844375 -0.61038774 -0.6120652 0.24279736 0.12810463 -0.28745005 0.71434975 0.8056623 0.5553058 -0.24463569 -0.44591597 0.29499298 0.17508215 -0.14967154 -0.06698737 0.5671496 0.2860775 0.7559258 0.54105777 0.32028884 -0.13097677 -0.1882223 -0.1120751 0.18146576 -0.19055098 0.25181207 -0.6905815 0.41294348 0.5844464 -0.11337503 -0.043451898 -0.2804246 -0.6979011 0.46512863 0.10374756 -0.062161982 -0.74347353 0.1567055 -0.049222022 -0.19489986 0.2978924 -0.4041213 0.6275652 0.641818 0.057781048 0.4168767 -0.025750104 0.5966132 0.24373698 0.060602773 0.30311325 0.12778524 0.5256891 0.28048328 0.3091608 0.33641768 -0.37276217 -0.18098728 0.16575651 -0.04115603 -0.14296702 0.12682101 -0.39129797 -0.32173517 0.47816852 0.21174541 -0.13177516 0.22371563 0.25158668 -0.61499554 -0.39444938 -0.08191109 -0.71785796 0.42724463 -0.74368316 -0.3133203 0.50736576 0.71373993 0.03850624 -0.61553437 0.17046162 0.06527019 -0.4920988 0.29057485 0.34069213 0.4095145 0.35991076 -0.10248694 -0.3740388 -0.63474333 0.25235027 0.65309817 0.22773367 0.08065184 0.09378471 -0.042912077 -0.13715601 0.44109944 0.4757175 -0.64094096 -0.14114052 0.055461008 -0.38329628 -0.39199382 0.20776884 -0.80648607 0.0743984 0.5602198 -0.3437852 0.6887726 0.36349857 -0.824688 -0.23127456 -0.6063217 -0.67631215 -0.092463516 0.06890747 0.06924728 -0.4533389 -0.3695344 0.3903323 0.12603973 -0.000992382 0.11895734 -0.42990428 -0.37188068 -0.022593137 0.013034705 -0.1406197 -0.062216207 0.31878617 0.50600296 -0.077025175 0.6989611 -0.44896564 -0.44768602 -0.10750637 0.40156838 0.29795086 0.6705799 0.1709301 0.49995095 0.22199395 -0.38849035 0.30402547 -0.31467554 0.6058433 0.24694152 0.7107764 -0.3175303 -0.17961869 -0.38670406 -0.8338839 -0.12358219 0.3129201 0.323204 0.28626323 0.49496454 -0.50751126 -0.11696124 -0.050547965 0.42769912 0.030032128 -0.51596534 -0.39532822 -0.4516397 -0.16073513 0.0043589585 0.008730373 -0.69211537 -0.5051718 0.26200476 -0.7924342 -0.25136885 0.5846246 -0.5381458 0.61946714 0.14257067 0.4839766 -0.4018461 0.13702899 -0.4480379 -0.53815746 0.35651425 0.4017183 0.60503197 0.51649165 -0.86604106 0.5311216 0.0021983534 0.64166355 0.103245795 -0.83555293 0.56588584 -0.58965886 0.61477625 -0.44655317 0.083014034 -0.21913736 -0.6101513 -0.62243456 -0.47407 0.29180938 -0.26614866 -0.52895296 0.13737762 -0.07195128 -0.14836228 0.39624467 0.22772819 0.6760355 -0.24268544 0.5383482 0.36223948 -0.14785302 0.30842882 0.32693836 0.36737993 0.11437851 0.87535906 0.68258625 0.6358983 -0.36023498 -0.059928607 -0.3612074 -0.29991746 0.029308232 0.629578 -0.25123745 -0.17184235 0.46453902 -0.18139993 0.079478905 -0.12644798 -0.34062502 0.26296028 0.042486776 0.6126586 -0.268041 -0.18448271 -0.47180334 0.28974274 -0.13013725 -0.07257382 -0.22537461 0.40453175 -0.18218033 -0.6506014 0.1301064 0.08015289 -0.5161775 0.009766971 -0.044126134 -0.25330424 -0.54853886 -0.16011067 -0.051744368 0.47407606 -0.37738135 0.081213556 0.21323816 -0.11613698 -0.6708159 -0.22443344 -0.34197474 -0.17096342 0.24191093 0.42810616 -0.15001124 -0.18808351 0.2978216 0.42411882 -0.27181312 -0.38789636 0.56853676 -0.07345092 -0.049795188 0.15977302 -0.67538977 0.50486386 0.5535806 0.020112144 0.5250291 -0.5780159 -0.31990597 -0.5021717 -0.031819433 0.30578572 0.29745358 -0.19358134 0.2717074 -0.4374003 0.4323331 -0.07462 0.07524387 -0.5275436 0.21402615 0.17080337 0.10855208 0.17907283 0.432316 0.21127996 0.31668657 -0.013712934 0.020253986 -0.2397472 -0.68796206 -0.26393557 0.5804955 -0.1049815 -0.7693672 -0.25753942 0.2826021 -0.5737541 -0.0047424617 -0.46899208 0.13276087 -0.37751573 -0.19598211 -0.52329075 0.29568318 -0.3110232 -0.522045 -0.29787228 0.350727 -0.69582385 -0.72071224 0.0058469754 -0.7109052
0.4394451 0.09329032 -0.12222012 -0.8817428 0.09115216 -0.7044352 0.060090743 -0.63174164 -0.21146683 0.8135715 0.59337604 0.31927124 -0.24931131 -0.3232275 -0.2385037 0.1659513 -0.59778553 -0.07439582 -0.29082546 0.8244297 -0.036245763 0.68791944 -0.6699859 -0.22338912 -0.23410383 -0.097606696 0.16109803 0.20047042 0.2435438 0.6581142 0.14602153 -0.46476957 0.8076192 0.35772428 0.47645298 0.057149775 -0.05730437 -0.38561052 -0.59184927 -0.1821259 -0.38471535 0.6486498 -0.4615461 -0.26396555 0.46399176 -0.6956854 -0.4076904 0.035391834 -0.57213116 -0.4271003 0.06658222 0.11496364 -0.10805281 0.058213025 -0.19805712 -0.1222321 -0.16286856 -0.3549762 0.728002 0.38277987 0.5225577 0.82554823 0.5031585 0.5522707 -0.6926201 -0.27564797 0.62500715 0.6065422 -0.454638 -0.35005984 0.011929364 0.588158 -0.5402315 0.6281096 -0.29112276 0.22496282 0.32815942 0.600223 0.556109 0.47556305 -0.25825095 -0.38204885 -0.17810561 0.8059711 0.22684518 -0.74041456 0.2520255 -0.122303195 -0.13300514 0.0002932951 -0.41164753 0.37364063 0.61807805 -0.10826447 -0.022670606 0.23426557 0.111347534 0.8362807 0.7965169 0.35003883 -0.11640832 0.20208661 0.71707505 -0.8555709 -0.25439125 0.48173162 0.30423784 -0.17781602 0.80244887 0.57418865 0.6574569 0.20310827 0.06456794 -0.38110757 -0.37900853 -0.49109724 -0.7495892 -0.5209071 -0.09387641 0.76860464 -0.034415204 -0.46327308 -0.3982864 0.048104662 -0.16461891 0.2304393 -0.6011476 0.20116436 0.022602232 -0.38824707 0.13503684 -0.005626615 -0.061824176 0.75027573 -0.72589487 -0.55070704 -0.058606204 -0.40254572 0.21225554 0.2605596 0.87004024 0.333393 0.17432529 0.14123915 -0.0352244 0.6097545 -0.08161916 -0.5976535 -0.6697529 0.39105624 0.4872285 -0.44954184 0.31066734 0.46598113 -0.2808641 -0.33804557 0.6685007 -0.2751175 -0.32829386 -0.13888632 -0.2674016 0.25884795 -0.25918615 -0.9420126 -0.10281166 -0.2965262 -0.40876713 -0.046096772 -0.7070138 -0.06367365 0.024521707 0.53630096 0.5366527 0.2999936 -0.3227656 -0.45273873 0.42303726 0.4987567 0.6790902 -0.42740044 -0.63521194 -0.45986262 0.5758771 0.49201772 0.2695638 -0.7244078 0.70248944 -0.74656945 -0.053412776 -0.52356744 0.47657457 0.77383786 -0.29453388 0.6572761 -0.06942244 0.8909654 0.2419133 0.27862614 0.30418545 0.23609596 -0.39941236 0.2839794 -0.1398109 -0.29304814 -0.30399892 -0.34868002 -0.3233758 -0.7309863 0.28430253 -0.43948057 -0.32288185 0.01815999 0.51208407 -0.48286182 0.6654175 -0.34676525 0.5046896 -0.10978652 -0.07168997 -0.16712068 -0.39821592 -0.33024374 0.47308373 -0.05184615 -0.089378975 -0.5963537 -0.124881014 0.14224255 -0.6511097 0.055987492 -0.3016378 -0.061041307 -0.5948866 -0.03940379 -0.07700647 0.75119114 -0.023366727 0.06298308 -0.06434872 -0.32862046 0.5368772 -0.11235247 -0.9129201 0.21485555 0.7027827 -0.47711557 -0.33610576 -0.40096128 0.5412565 -0.03321541 0.52739364 -0.5762897 -0.38574198 0.22636807 -0.50797087 -0.6058514 -0.12398082 0.57117337 0.38055843 0.0942415 -0.069477186 0.109961264 0.05196824 -0.40911493 0.5602504 0.7665939 0.5937695 0.79475236 0.07036398 0.2733764 -0.04149882 0.007066374 0.1833536 -0.54584694 0.34655645 0.7979861 0.51359457 -0.3795453 0.015533697 -0.32035857 -0.3400613 0.8610751 0.91844386 0.54859126 0.5836235 0.16052294 -0.41353017 0.41939563 0.08868945 -0.23822273 -0.17492649 -0.4127946 0.03010488 -0.3694182 0.04441276 0.2763777 0.30495822 0.4192551 0.2121516 -0.05129769 -0.008082582 -0.052056693 -0.85051817 0.41875282 0.039339196 0.67858154 0.11608066 -0.20830938 -0.066602275 0.60199153 -0.11172469 -0.6142596 -0.09413216 0.7115403 0.7485864 -0.36028588 6.020604e-05 0.616508 -0.069493234 0.51626784 0.15389518 -0.2235791 -0.5998237 -0.24506639 0.32189563 -0.35551512 -0.25665054 -0.6845044 -0.10754792 -0.3954593 -0.21533263 0.6766725 0.6242783 -0.1175115 0.26960823 0.46759236 -0.1167978 0.20895648 0.0011070234 0.7167624 -0.8741196 -0.6290837 -0.14455432 0.0122464085 0.3347911 -0.1129953 -0.3316316 0.9238512 0.624564 -0.77708143 -0.071517 0.27086726 -0.39433298 0.7310858 -0.6666145 0.012627191 -0.25706574 0.14627762 -0.5377782 0.33969966 -0.058071785 -0.29983383 0.09945627 -0.081899576 -0.1039578 -0.5689028 0.54863024 0.17377086 0.40797484 -0.23985474 0.7028129 0.5246542 0.28584492 -0.6426365 -0.8136356 -0.13147207 -0.47581956 -0.5096208 0.063247435 0.08276073 0.3057466 -0.4656034 -0.044105135 -0.6049902
0.19241989 -0.14132139 0.27792972 -0.8539896 -0.36993527 -0.20526241 0.39545676 0.13167259 -0.075636916 0.26434848 0.1983239 -0.22115313 -0.14813808 -0.18823129 0.18255767 -0.25566518 -0.62179416 -0.036451712 -0.019551134 0.47405815 -0.2446972 0.49978086 -0.3795883 -0.30284387 0.029848326 0.13799974 -0.3734153 -0.0759657 0.098486885 0.39854553 -0.013942866 0.032919776 0.8133108 -0.091623746 -0.555305 0.6220064 0.12711553 0.4394098 0.018423026 -0.4101207 -0.53728765 0.29663685 0.23984183 -0.43381336 0.6291011 -0.3513074 -0.12281131 0.42887118 -0.12547545 0.3706011 -0.4341798 0.22613575 0.12400126 0.37550405 0.28753173 0.09949736 -0.2376172 0.09017568 0.6968986 0.2645036 0.47166798 0.6258763 0.49595165 0.38165587 -0.35428324 0.10860713 0.0125310365 0.05918876 -0.16219257 -0.06762589 -0.34194404 0.29487512 -0.15799782 0.5327434 -0.1712664 0.17795137 -0.3795845 0.43736193 0.6690956 0.3371496 0.35110638 -0.6730458 -0.43138242 0.25317585 0.17356718 -0.74069464 0.6485851 -0.63362765 0.22882676 -0.23050912 0.10403183 -0.070572264 0.5834993 -0.16405709 0.1722318 0.19616044 0.6326805 0.5457507 0.43759647 -0.05640617 0.00026693102 -0.009260373 0.34639966 -0.68198836 0.09603143 0.08046446 0.48899338 -0.34525213 0.2761381 0.43422404 0.6978469 0.17922169 0.22859626 0.21019837 0.22754733 0.21412939 -0.6820452 0.07541546 -0.65008307 0.6271884 -0.60364777 0.51302165 -0.49897254 -0.39661172 0.3998006 -0.08940538 -0.21698007 0.063841075 -0.17335917 -0.59220284 0.089061424 -0.46539623 0.8162094 0.742336 -0.102321476 -0.6049902 0.50267315 -0.1360683 -0.21157457 -0.15494533 0.5343573 0.4212572 0.15141022 -0.4273225 -0.3692827 0.21360376 0.31532452 -0.6377393 -0.46828145 -0.37267166 -0.1503155 0.1939867 0.21602008 -0.0501303 -0.62731385 0.26329163 0.13062939 -0.3237521 -0.059674527 0.14657483 -0.186098 0.06989802 -0.37181392 -0.85417134 0.030411474 -0.13151123 -0.36549717 -0.26323313 -0.59769595 -0.8226633 -0.310562 0.13345595 0.10827152 -0.11528265 -0.12286702 -0.6674501 -0.25255132 0.57004356 0.43617374 -0.47513586 -0.78729886 0.0891415 -0.3155895 0.40757522 -0.015221758 -0.42901558 0.35400993 -0.4858321 0.2702583 -0.067093715 0.74337584 0.25971034 -0.013368923 0.1592399 -0.42863947 0.5813691 0.69562453 0.47143078 -0.62399995 0.14162897 -0.15779223 0.40951774 0.18804446 -0.2355418 -0.3080978 -0.63075376 0.7136573 -0.37674877 0.30138665 -0.029512199 -0.5910859 -0.40076214 0.38972142 -0.030849958 0.3771757 -0.17314613 0.48975378 -0.1272338 -0.5988602 -0.46146092 0.20167005 -0.38604137 0.3789718 0.039485894 0.39619163 -0.284986 -0.08114703 -0.3320479 -0.5283441 0.47111264 -0.41420034 0.121562764 -0.16067432 -0.1051164 0.41374055 0.5660968 0.26309043 -0.0063687414 0.20498484 0.25745425 0.5653672 0.1021674 -0.8455754 -0.106856875 0.3161842 -0.40860102 -0.14376014 -0.5478512 0.54270923 0.09970445 0.28812578 -0.28402492 0.057357628 -0.05197251 -0.2882342 -0.1012665 -0.5007745 0.2004849 -0.24329028 -0.27545935 0.18393454 0.008040894 0.11680126 0.11708543 0.46517134 0.52666646 0.22005105 0.51824844 0.035424165 0.024829201 -0.054229483 0.20765485 0.2692979 -0.2993028 0.25468397 0.52321106 0.428725 0.35729882 -0.035181984 0.16692346 -0.2681766 0.6358746 0.8763909 0.25239858 0.030476876 -0.14696495 0.20905066 -0.5364778 -0.33485445 -0.3388157 -0.13193108 -0.116687916 0.30454728 0.11040905 0.3267197 0.15213047 0.38060558 0.06336673 -0.2850716 -0.2197218 0.5154397 0.30583405 -0.61619264 0.040973827 -0.06894362 -0.09094572 -0.08008482 0.036346227 -0.5067934 0.106688865 0.17313221 -0.17626664 0.13493219 0.045208976 0.12417914 0.060623296 0.0005898848 0.20686111 0.38120705 0.31592193 -0.19422269 -0.5474984 -0.24431798 -0.51997757 0.21128316 0.24683052 -0.20630756 -0.5919757 0.10441944 -0.44206804 -0.022838408 0.5340814 0.57899386 0.08730857 0.22262001 0.56194353 -0.31821266 0.45911556 0.4125517 0.031515125 -0.62867033 -0.04294978 -0.42819136 0.12578526 -0.07756842 -0.16166665 -0.395802 0.76034194 0.28379092 -0.5004722 -0.35191402 -0.13580568 0.2126498 0.76499313 -0.12462735 -0.35460132 -0.33593333 0.094762444 0.075447455 -0.15759215 -0.23326126 -0.25608546 0.44986454 0.097231016 0.26360735 0.05129581 0.040834084 -0.2712339 0.2675733 -0.7079452 0.10302242 0.37608227 -0.10191913 -0.093377806 -0.7385551 -0.0025613047 0.15617754 0.071335554 0.080145374 -0.10602313 -0.31021494 0.095051356 -0.19889589 -0.31360087
0.5338701 0.1277606 0.47826108 -0.87337345 -0.26513112 -0.20073397 -0.12326039 0.46357718 0.17502053 0.27350062 0.30016333 -0.07760988 -0.3044158 0.45711222 0.24624515 -0.18537833 -0.58275 -0.3077031 -0.01864069 0.72059333 -0.4401395 0.4151567 -0.037801493 -0.39835638 0.08334261 -0.02898041 0.16883434 -0.10719086 0.29744014 -0.028912064 -0.09044803 0.2607368 0.5271259 0.3260817 -0.61630523 0.38982564 0.05280874 0.18747061 0.23057169 -0.20657265 -0.63110924 0.32872295 0.11974323 -0.097655535 0.30299923 0.089646935 -0.1438594 0.38931495 -0.30028373 0.14084356 0.09274865 0.52351034 -0.34647858 0.24486753 0.3578768 -0.050166033 -0.20300467 0.32546505 0.59205323 0.14266162 0.4274132 0.77019227 0.29765555 0.2544753 -0.40012026 -0.43577105 -0.50175256 0.115424596 -0.3876012 -0.06275079 0.46172932 -0.0049228314 -0.26425037 0.58043486 0.16898727 0.12869851 -0.547007 0.57873493 0.62904334 -0.30418625 0.5613453 -0.6289231 0.29902864 0.65129817 0.18275979 -0.72927356 0.463439 -0.48609346 0.5654243 -0.12633297 -0.30185223 -0.33120176 0.19014545 -0.38606378 0.4206926 0.056507245 0.40583855 0.46397424 0.55160564 -0.12465559 -0.22001804 0.12227002 0.24525505 -0.24880597 0.5032844 0.10032912 0.002488492 -0.2238991 0.03147724 0.53020304 0.80562145 0.097725764 0.3957309 0.42173278 0.2005994 -0.010207359 -0.013468392 0.06207852 -0.4373039 0.6312109 -0.010273891 0.40955716 -0.7157321 -0.6247803 0.05583176 -0.37948734 -0.31272408 -0.061448637 -0.1449162 -0.7283157 0.25161386 0.27440095 0.52853364 0.44527328 -0.11979297 -0.70365447 0.60888016 -0.24646375 -0.24642552 0.2880964 0.34175205 -0.08610631 0.0046896157 -0.607854 -0.5281857 0.30941728 0.5957084 -0.5689713 0.09367157 -0.4962994 -0.022546673 -0.1617378 0.14865458 0.06376355 -0.2680965 0.09930027 0.0977935 -0.41791075 0.17243828 -0.35978347 -0.36338556 0.14944015 -0.18603042 -0.71171224 -0.3013498 -0.02200163 -0.41996485 0.08775474 -0.6488215 -0.75007236 -0.46900848 0.40823284 0.21087418 0.071044736 0.008910072 -0.45519474 -0.15910242 0.21069516 0.18942103 -0.33608583 -0.8518196 -0.13088429 0.009558978 -0.08310118 -0.38640758 -0.46677965 0.55298555 -0.09203875 0.036002617 0.080166005 0.29978696 0.29170457 0.22885327 -0.257655 -0.21064317 0.23061837 0.47151083 0.24191535 -0.5709333 0.4039386 0.23077738 0.49019915 0.5098007 -0.15282346 -0.3390965 -0.43312415 0.33245495 -0.24295247 0.5576487 0.5139302 -0.82725465 -0.12393194 0.08883875 -0.65035975 0.77082956 -0.029313825 0.10528687 0.31813765 -0.44377884 -0.362218 0.06811169 -0.34028256 0.10333936 0.23211525 -0.33094501 0.19775915 0.022602083 -0.5541758 -0.45720926 0.6090347 0.13454846 0.21408379 -0.20921205 0.22057796 0.0046556173 0.47512603 0.10828358 0.045902718 0.23080923 0.08404183 0.5530176 -0.075165495 -0.6051953 0.0061101606 0.55377936 -0.31492534 0.29351875 -0.6772969 0.008773623 0.030602781 0.14305568 -0.44563147 -0.11797461 -0.307887 -0.018054698 -0.27207848 -0.031493004 0.40142098 -0.14397195 0.00042024656 0.20141165 0.16963889 0.048415493 -0.059573095 0.51970434 0.16774672 -0.10857093 0.3593483 0.18763512 0.15754762 0.28953117 0.018334163 0.14486353 -0.08820611 0.14741789 0.1687949 0.114650026 0.47231966 -0.021787934 -0.027799172 0.24917926 0.67029285 0.6785875 0.3122496 -0.06900694 -0.07511538 0.33118603 -0.10386396 -0.22352383 -0.19994907 0.056630224 -0.29423815 0.037500825 -0.09442473 0.21843244 -0.44576275 -0.0746496 0.18466091 -0.292391 -0.26112744 0.46174845 0.22368309 -0.60907584 0.023628647 -0.23772359 0.03454033 0.115600415 0.46877706 -0.24698552 -0.14823131 -0.30351397 0.19948871 0.387861 0.014532039 0.41526175 0.3996118 0.15651551 0.48444408 0.43676534 -0.1555906 -0.114767924 -0.26156163 0.22557077 -0.43816563 0.12762615 0.28702447 0.39499658 -0.32319453 0.19605315 -0.4169663 -0.4284053 0.12185717 0.01254318 -0.29227766 0.4258213 0.39057952 0.0044588936 0.67698026 0.0052641975 0.66127837 -0.5515837 -0.4053835 -0.17670165 0.18233669 -0.04869778 -0.6355746 0.26779073 0.7485139 0.071087115 -0.25273135 -0.4873164 -0.082779884 -0.06922277 0.593143 0.021748284 0.1563181 0.22805645 0.22071907 0.41012406 -0.023916004 0.054931372 -0.1715523 0.680946 0.030111525 0.07243303 0.11375253 -0.2636177 -0.26094913 0.009708512 -0.8960367 -0.14945133 -0.028212914 -0.07064506 0.18897331 -0.7101383 -0.09195454 -0.3655684 0.33059826 -0.25861406 -0.24139237 0.35091758 -0.042452436 0.20711184 -0.15208076
0.38818142 -0.08070615 -0.091300346 -0.8987658 -0.012929077 -0.7003652 0.07473105 -0.5393944 -0.107756115 0.73985153 0.66041946 0.21909374 -0.115141 -0.23201498 -0.26870522 0.13780513 -0.54506946 0.08419057 -0.5978153 0.59078115 -0.14930928 0.42047283 -0.3846112 -0.05686981 -0.35777968 -0.14233786 0.17217894 0.13972989 0.1304164 0.6075557 0.11514229 -0.5557391 0.6937071 0.3148231 0.2831645 0.26837197 0.15821858 -0.32943642 -0.41986415 -0.3754524 -0.41099536 0.68666303 -0.3442194 -0.18933426 0.4408311 -0.6063552 -0.33342373 0.19891761 -0.39941412 -0.3238713 -0.09114123 -0.06579827 -0.082236044 0.18074992 -0.26191178 -0.115230836 0.011566652 -0.36928913 0.76512396 0.44714785 0.3879807 0.83392 0.5703565 0.4742165 -0.57253975 -0.3963609 0.3351946 0.5847443 -0.24399333 -0.29506493 0.1169709 0.6064548 -0.5004055 0.5669161 0.04443111 0.3837959 0.24561082 0.5393175 0.49122918 0.30606616 -0.24044661 -0.40280142 0.039323624 0.71356845 0.11813038 -0.7016782 0.39866775 -0.1846854 -0.1359255 -0.15362881 -0.39096633 0.11729276 0.50658464 0.05561538 0.10162247 0.3930147 0.014920504 0.68609643 0.69710076 0.1736283 -0.025744084 0.2264158 0.59422976 -0.7458324 -0.07034398 0.35549065 0.17426038 -0.09835635 0.5821859 0.41955766 0.65608907 0.23939535 0.23929475 -0.5552834 -0.45036018 -0.44013202 -0.68818796 -0.50509244 -0.24917527 0.63125855 -0.18249638 -0.45908046 -0.53378063 -0.07675259 0.006530085 0.07498535 -0.3998271 0.3120372 -0.07161703 -0.506422 0.20765114 0.09987768 -0.07255192 0.5824302 -0.5863945 -0.40107688 -0.20251456 -0.42039147 0.4190997 0.3304621 0.76357675 0.37268987 -0.08772328 0.25825664 -0.16512233 0.56565964 0.17181844 -0.62562656 -0.5196621 0.45982644 0.35499042 -0.4509228 0.35101578 0.28693092 -0.52908045 -0.34927887 0.66659266 -0.22736688 -0.30138928 0.041053034 -0.30704004 0.4018047 -0.04840739 -0.909622 -0.24107347 -0.27037066 -0.4869537 -0.14425065 -0.6652813 0.19420765 0.19812082 0.64653957 0.5761886 0.21193242 -0.25929487 -0.34782624 0.58482635 0.61859477 0.68125373 -0.3570405 -0.50486875 -0.3259517 0.4619668 0.3169006 0.43649128 -0.6213507 0.60699695 -0.4626369 0.041999597 -0.36866903 0.25996742 0.7235584 -0.01840201 0.4750455 0.065668166 0.7998278 0.2496186 0.12442422 0.30363533 0.399692 -0.4807309 0.12904316 0.023948366 -0.17746004 -0.24564159 -0.25896373 -0.13320655 -0.53905094 0.1070918 -0.32905555 -0.5306452 -0.048894312 0.4816533 -0.63916665 0.460194 -0.188175 0.55282813 -0.25308886 -0.09348716 -0.093840994 -0.4629736 -0.3846305 0.5519178 -0.08601653 -0.08445941 -0.41292387 -0.0011344824 0.4295541 -0.51347154 0.12818511 0.030127928 -0.017314585 -0.7068292 0.17757998 0.035951607 0.67156255 0.06635951 0.038225334 -0.09641274 -0.33041993 0.5234921 -0.106135674 -0.8201814 0.20562431 0.6273798 -0.4750655 -0.26309782 -0.37331572 0.46794865 -0.2800033 0.5260611 -0.6603583 -0.22811553 0.10626425 -0.5034334 -0.39324835 -0.2469634 0.7369221 0.3745514 -0.12582602 -0.11885225 0.0912256 -0.07287787 -0.38445288 0.5101417 0.7014222 0.7172442 0.64221907 0.0043807146 0.15948468 0.057471152 -0.10404433 0.09805246 -0.46772707 0.3820632 0.7242634 0.35169733 -0.33113846 -0.07175135 -0.11119689 -0.3911267 0.75714606 0.82448536 0.6424532 0.5879371 -0.07653725 -0.33236936 0.42760262 0.07533979 -0.30323663 -0.16826265 -0.4727208 0.017379645 -0.38027722 -0.14511125 0.15136547 0.12390857 0.35432744 0.18090767 -0.27751762 0.22725312 0.015298837 -0.7557826 0.3303947 -0.17548752 0.6115081 0.13645214 -0.47173363 -0.16275427 0.4684518 0.13713409 -0.6692205 -0.24440166 0.49834812 0.6573654 -0.23128907 -0.3486523 0.7100456 -0.028453948 0.5413224 0.099473394 -0.33583832 -0.56227237 -0.026858026 0.33559206 -0.27165323 -0.2384409 -0.49023718 -0.16326262 -0.1947669 -0.4240059 0.67283493 0.57132167 -0.054212403 0.22384621 0.64625937 -0.13589196 0.37408423 -0.068768024 0.7328806 -0.7564614 -0.6344263 -0.13722886 -0.2073455 0.39678222 -0.041625835 -0.4015072 0.77418405 0.60349756 -0.7014036 -0.15119527 0.26395607 -0.37965217 0.6857721 -0.51104283 -0.030043699 -0.100513406 0.23051895 -0.37416145 0.28729925 -0.038352385 -0.3421955 0.01920075 -0.055114284 -0.115770526 -0.47725853 0.45949903 -0.016307037 0.12673204 -0.1363979 0.64633006 0.5548184 0.23698424 -0.6514613 -0.83842164 -0.3521484 -0.41728422 -0.5973331 0.12909475 0.0054568625 0.35676318 -0.58943164 0.080234714 -0.6925414
0.48980328 0.30875134 0.55002034 -0.28762105 -0.64757407 0.3269238 -0.34181792 -0.089615114 -0.3166314 0.49397442 0.47578904 0.016203057 -0.568998 -0.17300184 0.011095295 0.5077754 -0.52665025 -0.018719755 -0.3494355 0.57543594 0.14043492 0.36848179 -0.06987679 -0.2772918 0.18825112 0.25753933 -0.10731244 0.14470062 -0.0041375295 0.20540689 -0.11748271 0.50335747 0.4092298 0.15408505 -0.1024786 -0.29580396 0.19035868 0.46634397 -0.01467793 -0.35233256 -0.2724404 0.4828302 -0.026788363 0.0434333 0.32306114 -0.42657137 -0.45334876 0.19401628 -0.06396115 -0.23290792 -0.20183091 0.30575258 0.16627574 -0.28629547 0.19550051 0.6613853 -0.0824566 0.43869406 0.68039083 0.4672271 0.27415994 0.39028552 0.40980157 0.12613623 0.17571273 -0.4354148 -0.28358 0.20156781 -0.42856473 -0.043131884 0.060027234 -0.0024606073 -0.017951472 0.5962744 0.3236034 0.4101277 0.16472772 0.5341903 0.710227 0.37104785 0.6079605 -0.42169204 0.12833388 0.39776185 0.37111214 -0.281714 0.4639122 -0.088573724 0.20309776 -0.5331779 0.53156585 -0.35701466 -0.1773557 -0.49526104 0.18126339 -0.09749494 0.22781315 0.5568152 0.011399807 0.25111127 0.2535499 0.34849593 0.26942307 -0.5261063 0.38457003 -0.45338556 0.25691134 -0.08512013 0.42392245 0.34583458 0.67469877 0.15424167 0.4502068 -0.20318952 0.10340094 0.23471504 -0.60348415 0.08068138 -0.47486475 0.20840645 0.33951265 -0.15884972 -0.5315853 0.021865943 0.07219528 0.007826419 0.09288686 -0.4015447 0.24849087 -0.6995909 0.41579786 -0.110751145 0.60801494 0.35955572 -0.13684408 0.03240882 -0.10214914 0.3811543 0.069645666 0.19087492 0.13316791 0.3446204 0.31183952 -0.1556924 0.26424098 0.505174 -0.043263156 -0.030772144 -0.017501883 -0.77780354 0.17206165 -0.1343354 -0.0959711 0.36605147 -0.22515683 -0.04108366 0.13311441 -0.5938857 -0.10616087 -0.5009892 -0.55074334 -0.17358226 -0.3317255 -0.8042263 -0.46919268 -0.15762635 0.082686104 0.23876405 -0.84695786 -0.73958343 0.24481514 0.1826819 0.48865113 0.07559482 -0.43650177 -0.5117288 -0.099565215 0.477554 -0.18460658 0.19424684 -0.51784164 0.041264948 0.07189708 0.056327067 -0.5193002 -0.5143907 0.50966984 -0.08131358 -0.0004028926 0.24993572 0.45169353 0.49924588 -0.041310027 -0.12291738 -0.52919465 0.3575936 0.3972342 -0.16192238 -0.734228 0.065498814 0.25464827 -0.10622079 -0.09835631 0.2948285 0.16929163 -0.7924131 0.20189683 -0.5213956 0.51928025 0.47614798 -0.7582427 -0.093464404 -0.2692257 -0.57362163 0.014875647 -0.05604113 0.24116726 0.22826056 0.1964887 -0.36229318 -0.2987818 0.2690678 -0.4403778 -0.3978685 -0.13189536 0.34019148 0.3056163 -0.6964089 -0.09058005 0.08854705 0.09533131 0.18865554 -0.042949613 -0.14960681 0.1804742 0.317798 0.43009833 0.13006988 -0.10953342 -0.314127 0.5176427 -0.35900456 -0.72524613 -0.27917936 -0.21327859 -0.36031026 0.4024165 -0.6927725 0.13799952 0.29291397 0.14098538 0.056472983 0.117816925 -0.17969939 -0.29328126 0.17630143 -0.5260819 -0.051742427 0.13609207 -0.20606378 0.6131423 0.43228498 0.4786201 -0.16901349 0.58727586 -0.11951527 0.34450924 0.21457711 0.61117876 0.032170516 0.38759258 0.5043369 0.39510816 -0.1690645 0.21471594 0.0024560734 0.11027764 0.052165814 -0.4039731 0.3088262 0.16949722 0.6330497 0.19072184 0.3357512 -0.3896584 -0.24133731 0.44849584 0.4064224 0.19410555 -0.33900842 -0.41514307 -0.0024869195 -0.13826406 0.09593516 -0.207198 -0.3292974 -0.13012354 0.53697896 0.19358656 -0.4334735 0.013894259 0.2024514 -0.29969028 0.3437527 -0.43674934 -0.3542401 -0.45237476 0.10519443 -0.03913006 0.31751594 -0.031086437 -0.0048143403 -0.034736104 0.22412437 0.45492637 0.2617653 0.305064 0.3826309 -0.028950566 0.26069477 -0.41369164 -0.577211 0.42138913 0.029352846 0.41074297 0.57532996 0.2669889 -0.26959428 0.33646405 -0.43052456 -0.29414228 0.18574712 0.45558947 0.2208685 0.13798106 0.4570262 -0.10141482 0.34133968 0.040722344 0.60016763 -0.5871089 -0.1282197 0.36927456 0.44946256 -0.31666023 0.006259613 0.0328571 0.794123 0.31381962 -0.4787091 0.3287158 -0.46295837 -0.31887752 0.06480137 -0.35744223 -0.3220694 0.09722071 -0.06495702 0.047464177 0.0052088713 -0.1465346 -0.4885133 0.27750692 0.3975177 0.11330747 -0.40919828 -0.49472386 -0.080878414 0.37813592 -0.17874306 0.15082167 -0.2532997 0.49800554 -0.19217092 0.07413887 0.20295474 0.18031396 0.0022019062 -0.06042707 0.39607197 0.41419575 -0.5686995 -0.45119637 -0.1113332
0.58062 0.4713891 0.6672836 -0.018235734 -0.31252056 0.41242963 -0.17671932 0.20598389 -0.2890436 0.48679492 0.4734653 -0.17508139 -0.10695245 0.0094980495 0.059559535 0.5173595 -0.47533944 0.25638598 0.12343135 0.024621293 0.053059686 0.22332747 -0.4722158 0.07408657 0.13309449 0.5166125 -0.36901167 0.050052065 -0.267921 0.049456414 -0.3329657 0.614382 0.31000194 -0.13741052 -0.33706447 -0.39040715 -0.033193387 0.5663585 0.11871742 -0.39985186 0.058558583 0.24728851 0.055496708 -0.14480887 0.18924083 -0.40370983 -0.17668213 0.48835602 -0.039725594 -0.42492616 -0.44067332 0.46237302 0.21618368 0.07812002 0.29358494 0.2293903 -0.32398576 0.1601309 0.7664204 0.5508662 0.47287574 0.67698514 0.47110918 0.26249662 -0.18308422 -0.013642684 -0.42985755 0.14737135 -0.4951124 0.31435755 -0.27346945 0.23440818 0.2839675 0.2308301 0.4763754 0.48032725 0.26447466 0.6673638 0.25601858 -0.06335594 0.597923 -0.57779455 0.27296257 0.33411694 -0.038801428 -0.50805146 0.6072686 0.12584373 -0.29765922 -0.6160455 0.096634366 -0.48921567 -0.024659894 -0.31558797 0.33573028 -0.08849073 0.5914673 0.16536534 0.118427485 0.2709014 0.38657376 0.5124507 0.01866494 -0.7259238 0.6359303 -0.34858182 0.40423042 -0.22574183 0.35383865 0.48792866 0.70774 0.32176673 0.6331331 0.25495952 -0.23574963 -0.028418258 -0.22125608 0.4004089 -0.22271957 0.26783344 0.43162656 0.14916627 -0.72097707 -0.15043658 -0.3127872 -0.15594822 -0.08878584 -0.44580048 0.038186353 -0.6149212 0.5540304 0.20939957 0.7772453 0.3492398 -0.4735409 -0.24090417 0.121565595 0.084061354 0.2468413 0.14152558 0.24339347 0.43856993 0.1753737 0.033102795 -0.14748785 0.121630386 -0.16564989 0.0068811974 -0.12142813 -0.7416485 0.31426948 -0.40183246 -0.119802 0.38219708 -0.50787616 0.07439929 0.36221525 -0.091923036 -0.2878576 -0.6044633 -0.5739108 0.23589183 -0.33810434 -0.83834976 -0.61566126 -0.28887177 -0.30362317 -0.29102838 -0.88882357 -0.5970513 0.38520464 0.3625067 0.49054685 0.13261798 -0.510896 -0.6391503 -0.39767024 0.39506727 0.19039743 -0.0016530002 -0.60658586 0.122004434 0.2395177 0.21158643 -0.49354038 -0.48438883 0.6167578 0.2617922 0.20121457 0.26864243 0.46288362 0.4065121 0.26948678 0.17642651 -0.23783264 0.44981736 0.5719089 -0.4046791 -0.62354577 -0.34935814 0.12355099 0.24048759 -0.29476655 0.2849613 -0.18675645 -0.8441259 0.2622614 -0.5329211 0.5269357 -0.0113115795 -0.84086436 -0.3250498 -0.4033974 -0.6620278 0.23300831 -0.13970843 0.2251854 0.29308346 -0.17308582 -0.07229213 0.075507045 0.35238057 -0.029399052 -0.04404182 0.18241094 0.43299475 -0.020958541 -0.2110409 0.20169656 0.20305417 0.032064363 0.43173033 -0.5153441 -0.36518985 0.06449811 0.61722267 0.46132696 0.11958296 0.27985913 0.11431672 0.49560773 -0.4222141 -0.78754675 -0.048039865 -0.0143557675 -0.48966202 0.5211863 -0.65564257 -0.14905135 -0.039762717 0.28345326 -0.13482386 0.3080877 0.08861885 -0.33971018 0.37495488 -0.021799073 0.08187704 0.46578145 -0.3442032 0.32928747 0.60116774 0.53617007 -0.29082963 0.19229613 -0.008145869 -0.018272337 0.489969 0.7410908 0.27540156 -0.0048152637 0.13593853 0.5540302 -0.40665457 0.38185856 -0.27917713 0.3120687 0.3007292 -0.14215517 -0.16816488 -0.21249096 0.027061643 0.14496411 0.28045124 -0.03524266 -0.4461841 0.092201374 0.56091416 -0.115479566 -0.50823665 0.08380136 0.21156602 0.34082493 0.14949614 0.24055 -0.45656776 0.0599342 -0.11290235 0.32714012 -0.122997016 0.1749685 0.4623591 -0.4970457 0.33311415 -0.62160504 -0.095511764 -0.5626833 0.2526339 -0.31388023 -0.14589934 0.28824902 -0.14343902 0.34000123 0.462782 0.14214773 0.26055568 0.40860543 0.43202075 0.31442913 0.170604 -0.100918055 -0.5132037 -0.06752975 0.083499186 0.29767206 0.116030425 0.23573919 -0.14706156 0.17231265 -0.10013577 -0.5768568 -0.08270085 0.53161687 0.19851692 0.08127047 0.18665896 -0.40616286 0.6391841 0.24772906 0.4653436 -0.6828566 0.0046343235 0.43484667 0.5958704 -0.41020307 0.1417937 0.33039263 0.70838726 0.04040516 -0.13473047 0.27918196 -0.16179107 -0.4546508 0.3772062 -0.096565664 -0.48192635 0.22203305 -0.02021568 0.29090956 0.483004 0.22868478 -0.14258805 0.46472716 0.3164439 -0.1416938 -0.52394736 -0.72130406 -0.31024057 0.45850676 -0.36609066 0.44561517 0.16288605 0.17779258 0.3050265 0.24074878 -0.09490328 -0.08133101 -0.23673527 -0.31847376 0.5931345 -0.15059592 -0.6422614 -0.35155112 0.00018468479
-0.29895952 -0.18447691 0.41497248 -0.68437654 0.013382017 -0.36964592 0.6772326 -0.66098917 -0.6201359 0.60660714 0.072987996 0.28333068 0.747811 -0.6200108 -0.6728657 0.35871056 -0.40595192 0.75909984 -0.2280018 0.7501588 0.745054 0.8351491 -0.42462838 0.68436015 0.17751645 0.52040213 -0.7135053 0.3926681 -0.6121456 0.22422004 -0.7405986 0.5917538 0.9575384 0.045402225 0.6744118 0.08159584 0.08210158 0.38820055 0.37948275 0.28389814 0.6700825 -0.11056863 -0.58419406 -0.6090401 -0.38530555 0.091300905 -0.40376738 -0.7567113 -0.4076177 -0.52955496 0.624658 -0.80970776 -0.3646971 0.69566506 0.55305743 0.79163116 -0.5191132 0.77575785 0.60211587 0.75037485 0.8324375 0.47124675 -0.43198904 0.030032456 -0.02873463 -0.87115085 0.14058381 0.53770727 -0.5640684 -0.40474042 -0.32805023 -0.29254407 0.14416361 0.6011277 0.17667493 -0.1012922 0.76000834 0.5586671 -0.005325249 0.29175264 0.108726434 -0.04037034 0.49929792 0.7557914 0.6392575 -0.71298003 0.12505491 -0.5692988 -0.12304429 0.75402147 -0.31285027 0.5144589 0.6947335 -0.85401434 0.7568607 -0.31507748 0.81391376 0.81953514 0.023543345 -0.3927915 -0.6489227 0.6386647 0.3439327 -0.6485068 -0.646042 -0.6423691 0.20771821 0.3001996 0.51972985 0.6350508 0.7508478 -0.46277347 -0.17862843 0.025056658 0.0735006 -0.1969657 -0.6698726 0.44584623 0.5261251 0.30415088 -0.18998648 -0.41010633 -0.5330668 0.6067261 -0.44427612 0.11715469 -0.6087831 0.13308857 0.45400766 0.37691602 0.82656354 0.66449344 0.04734779 -0.4085169 -0.717848 0.4124716 0.48602226 0.644076 0.23890203 0.90834475 0.3460628 0.425037 -0.46462858 0.16230021 0.20215821 0.014550587 -0.21927759 -0.21623184 -0.5810582 -0.79096156 0.81199557 -0.2828571 0.51846904 0.6095965 0.03008122 -0.37998044 0.07890208 -0.51266617 -0.8353667 -0.37765265 -0.28069073 -0.44794324 -0.012683742 -0.92177093 0.15148538 -0.58654815 0.009317273 0.32329184 -0.84948915 -0.8441817 -0.4405659 -0.39758095 0.79897344 0.65191543 -0.33089662 -0.7271249 -0.081229 0.7366809 0.8231615 0.3640316 -0.58258915 -0.6548611 0.32224727 0.4869223 -0.11501847 -0.6765095 0.43094817 -0.7212946 -0.6988295 -0.38573563 0.8796492 0.33681858 -0.40697327 0.44216818 0.07777881 0.66011673 0.8098317 0.47204855 -0.054600537 0.010741753 -0.19940342 -0.343692 -0.667039 0.10102231 -0.030627621 -0.7998018 -0.19146091 -0.67506576 0.73666173 -0.3187621 0.49996096 -0.28333423 0.5766915 0.00886755 -0.2976261 -0.48295057 0.54998386 -0.4825132 0.6879926 -0.83536047 0.3065666 0.46241173 0.4480769 0.6865869 0.7483687 -0.42765597 -0.5027024 -0.5606505 0.14163674 -0.4209961 0.052243855 -0.41741866 -0.10995432 -0.17064966 0.25725946 0.33407018 -0.60099113 -0.100372605 0.44961792 -0.69874716 0.8156467 0.24569951 -0.7109345 0.21411245 0.73671025 -0.57811606 -0.037873697 0.20198022 0.38160178 0.70775306 -0.48376995 0.52302545 0.3400823 0.7233766 -0.31173885 -0.17244785 0.40966576 0.81526214 -0.6329779 0.07963704 0.59626824 -0.42034736 0.00062398636 0.6165661 0.65714484 0.80693984 0.20743549 0.28973046 -0.11802722 0.5302598 0.5363692 0.5976369 0.8326944 0.25334784 0.55973387 0.787263 0.35044923 -0.6766348 0.39503798 -0.019427247 0.40373236 0.7941211 0.8961557 0.7412212 -0.44439888 0.03694876 -0.661382 -0.63034433 -0.45039746 -0.7633201 -0.82870847 0.87421584 0.63510406 -0.3273907 0.5172742 0.6246268 -0.2831344 0.10581168 0.7075794 0.49032408 -0.006531741 0.66338104 -0.77747303 0.6294464 0.4055698 0.6418916 0.80467707 -0.50551146 0.2308044 -0.3488818 0.4172128 -0.85051876 0.10302909 0.35025105 0.6162207 -0.28955176 0.6540523 -0.41096216 -0.02479471 -0.57744044 0.68665844 -0.88912183 0.64213884 -0.37878272 -0.59401375 0.8098161 0.7677038 0.29083392 -0.45896396 -0.5101968 -0.39787683 -0.17166783 0.87973446 -0.16087541 0.66588855 -0.1303692 -0.7294384 0.6615841 0.6384475 0.7298647 -0.7969991 -0.7937154 0.6429468 0.72190946 -0.14070162 -0.40884134 -0.4025251 0.86462134 0.3290177 -0.83487767 -0.68390477 -0.26059553 0.65726835 -0.019560834 -0.36236706 0.51378983 -0.6802144 -0.35255182 -0.12919182 0.7981979 -0.40181795 0.3943209 -0.7253242 0.5020825 -0.3961154 -0.8739209 -0.61600643 -0.48472872 0.81820947 -0.21729064 0.35255724 -0.7000239 0.8598199 -0.6803813 -0.69201964 -0.76180947 0.253564 0.4177228 -0.04163259 0.15789534 0.2850872 0.38529834 0.5700422 -0.57396746
0.40836293 -0.10662359 0.3121293 -0.5659731 -0.4885312 0.0942207 -0.25438944 0.11646619 -0.3543385 0.72184664 0.16100697 -0.1630882 -0.33333388 -0.031316895 0.2349328 0.27383566 -0.5697759 -0.1894526 -0.6929932 0.66444075 0.26450253 0.5706954 0.016718933 -0.27564666 -0.1432115 0.11363591 0.06879253 0.13683586 0.004108849 0.021365786 -0.08910271 0.31976482 0.30639455 0.4904662 -0.25245336 0.025592633 0.16257192 0.49314937 0.3806736 0.0019132614 -0.4546977 0.536624 0.21814668 -0.12742841 -0.016145097 -0.50848544 -0.35021734 0.33637974 -0.4514724 -0.20339976 0.1284385 0.237229 -0.07454397 0.12321591 0.029875284 0.7387699 -0.03181732 0.20826988 0.70412046 0.62794137 0.2596855 0.3393071 0.18612713 -0.24981861 -0.077486746 -0.541499 -0.32021916 0.31606808 -0.4871187 -0.3113695 0.5522352 0.10119128 -0.1476383 0.7350856 0.44593427 0.3308099 0.08499646 0.6100387 0.8749678 0.40436468 0.4680968 -0.5994879 0.47128564 0.5875855 0.34250796 -0.43910593 0.61727786 -0.40643907 0.3555942 -0.22721757 0.25273636 0.022073353 0.2365889 -0.44849408 0.5606652 -0.21832316 0.24152373 0.5052885 0.20356396 0.14074305 -0.001623309 0.23858723 0.4564806 -0.41853574 0.023358589 -0.5822004 0.025536144 -0.4619747 0.6171204 0.5877172 0.6901614 0.31154013 0.22731028 -0.19298936 0.53010577 0.043377787 -0.6777599 -0.09161916 -0.24235867 0.62657565 -0.14720185 0.015822478 -0.58484197 -0.00043649285 0.44193736 0.07087373 -0.26012105 -0.4374601 -0.007201071 -0.65639865 0.618268 -0.12975907 0.3064802 0.28747296 -0.04325584 0.18244696 -0.09146675 0.08682513 -0.18060592 -0.038565766 0.17527409 0.5328018 0.09664104 -0.2902823 -0.020468727 0.39146262 0.13501959 -0.40663636 -0.4572612 -0.7036683 0.04511479 -0.21594736 0.14534321 0.39856356 -0.23506862 0.1562539 -0.1752878 -0.56115365 0.021622822 -0.5623113 -0.57238835 -0.06281379 -0.21841347 -0.9448641 -0.24923906 -0.36869755 -0.10822054 0.38929534 -0.8403212 -0.9411429 -0.16145657 0.25456616 0.4216968 0.1617114 -0.5043624 -0.6693573 -0.11393074 0.50307447 0.09908275 0.09945172 -0.8555294 -0.3399148 0.0063253017 0.0031996255 -0.2153077 -0.50033325 0.4349788 -0.073049344 0.0017533461 -0.22799164 0.52101463 0.6346335 0.13569352 -0.23704615 -0.47429374 0.32379436 0.437546 0.21389325 -0.5560905 0.12691219 0.06509951 0.025843017 0.07531869 0.18436196 0.05527003 -0.78101337 0.196576 -0.65734243 0.48065957 0.31718466 -0.52983665 -0.41184428 0.19394493 -0.5272337 0.22212984 -0.09686469 0.27566448 0.33323717 0.11101081 -0.35173437 -0.16049099 0.015673788 -0.11705703 -0.05838819 -0.19590016 -0.1524316 0.053962473 -0.5538634 -0.24111088 0.24589713 0.40842307 0.00803055 -0.0012468288 -0.03293061 0.23961137 0.24774933 0.31630284 -0.04341466 -0.24693763 -0.5134728 0.5871571 -0.2836083 -0.85081667 0.0021123174 0.01316915 -0.27150813 0.37773913 -0.5783102 -0.037054818 0.35401267 -0.05749215 0.033959433 0.025251651 -0.16429654 -0.28393075 0.056157768 -0.43356925 0.27572435 -0.27896377 -0.2106789 0.48677883 0.32715997 0.31836578 -0.123361446 0.5948066 0.039077606 0.43108317 0.20000306 0.1702586 -0.074050784 0.33455282 0.44310507 0.3723479 0.03168122 -0.058333706 0.1886704 0.009072443 0.09418295 -0.36881894 0.26667383 0.134512 0.77083653 0.740514 0.39037392 -0.4065769 -0.3997387 0.16624786 0.007538019 0.17128079 -0.55100816 -0.4722706 -0.10712258 -0.29532188 -0.047242552 -0.053963963 0.11728017 -0.112056844 0.67492676 0.064798765 -0.39134243 0.18283588 0.31085274 -0.7108802 0.46387568 -0.111926615 -0.16955496 -0.10402286 0.0025330996 -0.22983207 0.11493972 -0.5745466 -0.048366196 0.0032621592 -0.04599848 0.62439907 0.26764852 -0.008765831 0.050462447 -0.0627379 0.041956037 -0.17916541 -0.5208867 0.43756053 -0.2889176 0.24708402 0.65858376 0.114865564 0.057556167 0.21345277 -0.2544858 -0.1621131 0.53620076 0.64215493 0.28913465 0.5168974 0.27686948 -0.21070817 0.29843998 0.17533119 0.56545734 -0.5331661 -0.19285254 0.3711499 0.3079316 -0.38108763 -0.29529625 -0.12929238 0.6497862 0.16682418 -0.3846833 -0.073637255 -0.051776275 -0.03244698 0.23694788 -0.4492681 0.008612562 0.20448777 0.2682339 0.47229284 -0.07114586 -0.06703708 -0.52479804 0.36580855 0.37657169 0.05841056 -0.51675373 -0.2075821 -0.33652228 0.25409 -0.5140904 0.2771192 -0.042673055 0.5016006 -0.24645488 -0.25889423 -0.11879728 0.16583171 0.37364352 -0.17114562 0.32433847 0.5744955 -0.2771765 -0.14355703 0.060441166
0.22778192 0.42837226 0.6679151 -0.52138007 -0.4767257 -0.22517447 0.1864383 -0.011433531 0.02098582 0.30888343 -0.06825602 -0.2973405 -0.11124653 -0.29007876 -0.07813682 -0.038211126 -0.5316373 0.20385672 0.12957244 0.5944963 0.022676919 0.40129402 -0.27957773 -0.27336738 0.194347 0.51407754 0.043696158 0.30284685 0.37738937 -0.26956964 -0.55122006 0.4529959 0.5672932 0.5750872 -0.023610106 0.0018370345 -0.16588745 -0.045850523 0.34194154 -0.19881259 -0.20506485 0.25926286 -0.13336937 -0.055629604 0.02486308 -0.0009978006 0.09443011 0.3156324 -0.2392404 0.21509768 0.13950011 0.29682618 -0.011151958 0.36563048 0.33685154 0.1143668 -0.44843102 0.1737703 0.7120741 0.41068763 0.35721764 0.44046542 0.34502184 0.24011408 -0.23253357 -0.47891882 -0.097920686 0.20294134 -0.3489029 -0.42832208 0.09749944 0.0024037028 0.10457168 0.68184453 -0.16591936 0.2993278 -0.16719805 0.473026 0.29852822 0.24714848 0.58727175 -0.46787325 0.2621642 0.5270223 0.36217746 -0.44220746 0.48644078 -0.40255514 0.10337712 -0.20257835 -0.36523673 -2.1975255e-05 0.41194746 -0.68541783 0.39059514 -0.054764695 0.37647036 0.34667844 0.38637057 0.0021076368 0.080655 0.22480078 0.30592304 -0.63208497 0.21416222 -0.2384727 0.056360506 -0.25167182 0.4108891 0.4290957 0.59461725 0.22132748 0.38675153 0.059341937 0.041175906 -0.21021447 -0.5200569 0.15321477 0.07483653 0.7195579 0.033337872 0.31592083 -0.7241366 -0.17687638 -0.02171366 -0.12289004 -0.18518229 -0.22041313 0.05495973 -0.6516251 0.31405327 0.20173344 0.23739874 0.34779873 -0.22985077 -0.26243943 0.21032701 0.09124397 -0.15945973 0.33752412 0.5718284 0.08499293 0.39718768 -0.47397992 -0.45424348 0.050898444 0.29744244 -0.4184649 -0.3581992 -0.46541488 0.3908854 -0.16969252 0.36295393 0.25127497 -0.2872332 0.17072602 0.10869919 -0.3979394 0.1261203 -0.63600445 -0.31015235 -0.12941624 -0.2672177 -0.62620974 -0.08000033 -0.348996 -0.4091362 0.2173294 -0.696973 -0.634967 -0.13101146 0.09952307 0.28999668 0.015662206 -0.21148446 -0.5811782 -0.20293991 0.495108 0.33174452 -0.09652908 -0.7308254 -0.4136245 -0.010422277 0.4026079 -0.18593372 -0.5519708 0.59691197 -0.25707635 0.06660385 0.2718015 0.49446046 0.44062793 0.072482586 -0.026790299 -0.23751096 0.47343892 0.6115043 0.50233805 -0.43129206 -0.027170803 0.086593345 0.056361843 0.07684982 -0.11974128 -0.20576026 -0.70574903 -0.011101976 -0.3380148 0.6683455 0.2471571 -0.48985112 -0.46586674 0.15533094 -0.26184592 0.5254219 -0.3350296 0.24478066 0.072342165 0.041974965 -0.45204574 0.0972151 0.14983304 0.19350547 0.14704055 0.14862806 0.24487776 0.028101092 -0.5517954 -0.25326586 0.29398096 0.15088134 0.2183019 -0.11486155 0.12933692 0.008091279 0.3498586 0.14541498 -0.07484833 0.2173532 -0.0067666145 0.675785 0.087080404 -0.6766161 0.06418396 0.3264457 -0.53977007 0.46440944 -0.58971506 0.17303662 0.20498255 -0.11504114 -0.38974416 0.0063017686 0.042761605 0.0108637195 0.23783365 0.23320386 0.6607464 -0.37060606 0.1721218 0.4348213 0.3474801 0.35302365 0.2007656 0.45187914 0.11782459 -0.002944655 0.017847031 0.1905402 0.4271081 0.28141323 0.29882854 0.107668266 0.17863353 0.20660552 0.14347462 0.083758526 -0.2230368 0.21940619 0.105360635 0.22011018 0.7083992 0.7121074 0.49331415 0.2656241 -0.29638895 -0.009946738 -0.1804306 -0.111998364 -0.4965216 -0.08498408 0.14214355 0.06676768 0.19061305 0.20741595 -0.022789413 -0.20792535 -0.030720595 0.22731236 -0.0013914647 -0.045254722 0.46306163 -0.6611579 0.046776567 -0.0345382 0.23173484 0.1465886 0.3639448 -0.12033585 -0.27525648 -0.1333807 0.051923566 -0.062593564 -0.06629966 0.5659921 0.050287746 0.19003664 0.12503798 0.5414632 0.082466096 -0.1498657 -0.32131872 0.35242975 -0.47145414 0.17700776 0.46887606 0.30444235 -0.06332646 -0.1670051 -0.47453701 -0.4354566 0.4813207 0.38256833 0.18836986 0.49383214 0.15024076 -0.2981347 0.2564748 0.3436282 0.37917626 -0.6143072 -0.22178414 -0.030523691 0.2418692 -0.18151039 -0.40624574 0.43271732 0.6669405 0.23036091 -0.3965899 -0.33911046 -0.2433441 0.25814906 0.47481763 -0.23631789 -0.022513606 0.04449867 0.19206564 0.5260881 -0.15219626 -0.27314806 0.23281045 0.4485757 -0.077333525 -0.15937199 -0.4079204 -0.19665149 -0.26612055 0.48103258 -0.7444159 0.3138009 -0.020385891 0.34171793 -0.20382185 -0.5449586 -0.25301403 -0.49076933 0.43474084 0.061371244 0.22600242 0.31300092 -0.11018409 0.082363695 0.051151216
0.7848239 0.59233457 0.036028303 -0.6591655 -0.32359064 0.026363416 0.03343955 -0.6545484 -0.09244403 0.53333896 0.86222667 0.6432049 0.48637265 -0.75085914 -0.3834706 0.42867202 -0.5205686 -0.49499092 -0.6315458 0.35848048 -0.6714459 0.25230336 -0.7775118 0.12654547 0.32773444 0.11458567 -0.48178598 -0.4560758 -0.51314205 0.6138867 0.47262427 -0.39548978 0.9458108 0.25227696 0.53420806 0.7862909 0.74252313 0.37082252 -0.58983254 0.051057797 -0.7937178 0.5519999 -0.54383564 0.6586139 0.7887339 -0.45007548 -0.6551021 0.49418998 -0.21890293 0.17536709 -0.8648228 -0.1630778 -0.74984425 0.44634512 0.37879282 -0.5784202 -0.6396055 -0.0834149 0.5792949 -0.47040308 0.45859912 0.93011487 0.6749457 0.6611865 -0.65839297 -0.8392459 0.4524354 0.80321914 -0.5931265 0.3583843 0.058891095 0.48039335 0.06394114 0.115053244 -0.44845107 0.24962716 0.63802284 0.3936955 0.39422908 0.33898866 0.0025178813 -0.7637701 -0.23707259 0.66662407 -0.09612212 -0.8746148 -0.32797575 -0.0621418 -0.08556973 -0.62059635 0.46112072 -0.2111883 0.040833183 -0.09793687 0.8709352 -0.19363503 -0.6670038 0.6979183 0.72162575 -0.23235957 0.6208388 0.54732454 0.0013413368 -0.8190963 -0.21524742 0.7576831 0.7023205 0.77263427 0.6788511 0.39772508 0.75415856 0.054083798 0.27777654 0.24240692 -0.73403084 0.078025065 0.10626673 -0.7801887 0.06529558 0.53577095 0.66134614 -0.5692957 -0.07321182 0.62312067 -0.75934315 -0.45601317 0.43564877 -0.3591039 0.114868335 -0.8590351 0.7908874 0.47130328 0.08288083 0.5954363 -0.80361426 -0.37147048 -0.38440147 -0.44672838 0.33691704 0.06076754 0.5310079 0.7548837 -0.43300578 0.60063124 -0.86319745 0.7064254 0.21781527 -0.35917377 -0.684188 0.27845892 0.107436545 -0.5754196 0.7174461 0.6511362 -0.7882917 -0.5707727 0.35619783 -0.23339327 -0.6535849 -0.59317523 -0.3828786 -0.2024497 0.56954986 -0.9279482 0.4486586 -0.57582957 -0.49182358 -0.7728186 -0.7286332 0.28427508 0.6428989 0.92909014 0.71998864 0.09787016 -0.5886996 -0.4446645 -0.25999257 0.03675837 0.71726584 -0.28698814 0.42723206 -0.67503315 -0.07396591 0.69325095 -0.6348069 -0.25005406 0.7664748 -0.3158951 0.5502566 -0.52794313 -0.5911674 0.84758234 0.33468625 0.7805514 0.72129244 0.81329423 0.87178195 0.26789635 0.056705832 0.23811504 -0.20125107 0.68225014 0.3392671 -0.6521269 -0.8338985 0.3604768 -0.48186654 -0.8350735 0.25804174 -0.25256467 -0.6644009 0.016861023 0.56761813 -0.5209099 -0.29947102 0.46390763 0.90826696 -0.67125213 0.72447044 -0.26528287 -0.4333338 -0.2607484 0.64352834 0.5631376 -0.036327474 -0.43296978 -0.59278584 -0.1901216 -0.5057915 -0.43920684 0.19846033 0.17993076 -0.6280927 0.2952952 0.39341524 0.18947345 -0.5092359 -0.35953274 0.72655565 -0.3053219 0.8752281 0.37700477 -0.80460924 0.08408454 0.77272034 -0.26253557 -0.23727334 -0.56483376 0.5898477 -0.15732591 0.20535211 -0.6145906 -0.49443868 -0.72437155 -0.671306 -0.37756115 -0.7814457 0.3369163 0.29133555 -0.80026793 0.3472704 -0.3553071 -0.61950463 -0.3304203 0.45085973 0.79001176 0.3907495 0.85185724 0.27719077 -0.51924944 -0.3620954 0.041400347 -0.39063457 -0.56526864 0.7196854 0.46147725 0.14881839 -0.14705022 0.23570012 -0.27716047 0.4673211 0.6049304 0.880261 -0.17492841 0.12819584 0.59099436 -0.71605784 0.56945574 0.4584114 -0.6628931 0.23551103 0.2615357 0.36068675 -0.49971452 -0.27618384 0.22306544 -0.07057354 0.3882444 0.2772697 -0.77146393 0.40098324 0.046005126 -0.9294992 0.30091873 -0.46382907 0.092438154 0.0048744185 -0.1374913 -0.3860104 0.5423122 -0.33128357 -0.7405864 -0.013346019 0.68802416 0.36951843 0.65525556 -0.49967468 0.31979164 0.017700097 -0.057370674 0.49781558 -0.7634707 -0.65691376 0.6862823 -0.106752396 -0.66047305 0.5626195 0.4278347 0.42494524 -0.5212967 -0.7804427 0.6566577 0.49487546 -0.055488348 -0.46179974 -0.11869171 -0.26598313 0.36444458 -0.12474401 0.5343963 -0.82542485 -0.8911652 -0.06618866 0.7505434 0.30804324 0.27435586 -0.2629211 0.67469764 0.43305182 -0.801581 -0.23777275 0.6611499 -0.78766966 0.45319006 -0.5152919 -0.7561426 -0.40035287 -0.50223523 -0.56891125 0.66817915 0.21953478 0.028311854 -0.30965024 0.0103677185 -0.1501836 -0.46666053 -0.46250162 -0.3043232 0.12527288 0.66076463 0.41316205 -0.01720689 0.35414082 -0.4892737 -0.585583 0.17475984 -0.42524746 -0.6890181 0.5537164 -0.57119405 0.27317885 -0.87772274 0.33099678 -0.54174936
0.69926727 0.37857604 -0.034593057 -0.6677186 -0.42571923 -0.04467844 -0.010305956 -0.72981644 -0.00044633332 0.5558752 0.80228126 0.5771253 0.45801708 -0.6864966 -0.29414842 0.58263105 -0.62439615 -0.40454382 -0.63520706 0.46185178 -0.7482141 0.16547683 -0.67274594 0.09110662 0.40984908 0.114655785 -0.29043588 -0.4710699 -0.30832353 0.8456353 0.52427363 -0.31664693 0.94107807 0.016611675 0.57886195 0.85415566 0.56636834 0.30019283 -0.56354785 -0.013373188 -0.82883495 0.5149748 -0.5523124 0.5040332 0.705839 -0.62827337 -0.6142045 0.5479235 -0.41089943 0.18078807 -0.7802108 -0.016129669 -0.66965777 0.49402803 0.33188677 -0.4150228 -0.67620564 -0.34426123 0.62921405 -0.44244534 0.64415115 0.91443753 0.7736286 0.6077975 -0.60849696 -0.9264975 0.4641586 0.7733079 -0.37325975 0.42589054 0.19487387 0.4607273 0.16370001 0.18084188 -0.35001814 0.036888894 0.68932766 0.315304 0.62777954 0.25849244 -0.041993126 -0.81152296 -0.07850977 0.7175932 -0.112910174 -0.86919576 -0.25076994 -0.2318662 0.053222537 -0.7965014 0.62097657 -0.21632925 -0.1349263 0.052547403 0.7295581 -0.04119734 -0.6667063 0.7639499 0.8042133 -0.14921138 0.6107009 0.5053834 0.07399316 -0.6984912 -0.3172973 0.7292461 0.55753595 0.8066778 0.77847266 0.35792932 0.80327165 0.015832562 0.38849047 0.021022849 -0.6250248 -0.07457664 0.07670536 -0.8202386 -0.10495653 0.653155 0.65835065 -0.37791783 0.039973453 0.700436 -0.75107104 -0.3604564 0.4278163 -0.47896853 -0.015934 -0.8679958 0.8061317 0.37369955 0.08586583 0.6604626 -0.8150891 -0.5402478 -0.28179577 -0.57852113 0.3605721 0.0074301274 0.61726165 0.69686496 -0.29460633 0.64738435 -0.87746423 0.58123374 0.21372113 -0.4359024 -0.74240714 0.2625218 0.066485904 -0.51558053 0.61521286 0.50726515 -0.8234047 -0.7417126 0.4951055 -0.17908357 -0.63120306 -0.6026971 -0.36926395 0.029838592 0.7462511 -0.96808535 0.2805189 -0.47955862 -0.5112208 -0.8376643 -0.8431043 0.31462806 0.6302804 0.91621 0.7409981 0.06442586 -0.67394954 -0.6324908 -0.09671562 0.38258016 0.6167904 -0.38181314 0.46746314 -0.6948661 0.15780337 0.7468119 -0.50737387 -0.48198614 0.7756252 -0.4549625 0.60797405 -0.70205677 -0.46243313 0.8001596 0.30488768 0.7774798 0.6924672 0.8556421 0.8380027 0.1991682 0.18127085 0.57029176 -0.30747402 0.6494784 0.44320202 -0.7514459 -0.8335007 0.13726124 -0.535495 -0.8555318 0.16680245 -0.44456863 -0.5606019 0.04817945 0.6872161 -0.577919 -0.26937613 0.5576654 0.90810305 -0.394538 0.5307482 -0.46105912 -0.5413897 -0.18812487 0.6182309 0.62134945 -0.17473808 -0.40948892 -0.55577826 -0.19511062 -0.45970023 -0.49599496 -0.04505644 0.3721361 -0.66288155 0.4983301 0.26285893 0.25677064 -0.58108795 -0.5067825 0.71376795 -0.10868766 0.843418 0.45447406 -0.85883874 0.24678743 0.71560144 -0.41858658 -0.29642192 -0.7341537 0.57087225 -0.15940069 0.33500326 -0.6278682 -0.51755893 -0.47042167 -0.77180326 -0.58858335 -0.82744646 0.4736929 0.3096256 -0.8774471 0.41778344 -0.2723166 -0.5871963 -0.16411465 0.36900896 0.84166396 0.40835175 0.8617002 0.1878658 -0.6315705 -0.25397843 0.15683745 -0.2589995 -0.623803 0.78625816 0.5080335 0.33214334 -0.2508857 0.2008833 -0.16710827 0.4539891 0.6458571 0.9527526 -0.011370649 0.27783206 0.68043274 -0.6764053 0.48977682 0.5571461 -0.5200162 0.30502558 0.23361014 0.15435871 -0.6003473 -0.28036883 0.22373877 -0.135729 0.4438446 0.2536607 -0.8288035 0.55606145 0.099749595 -0.9343777 0.37860113 -0.5762654 -0.21825661 -0.029747413 -0.1371175 -0.4718868 0.5969923 -0.3437795 -0.7168783 0.05803264 0.7062128 0.55682904 0.6623564 -0.51662266 0.54204905 0.013123901 -0.10813658 0.47586396 -0.7808932 -0.61677504 0.63223225 0.10198296 -0.61302537 0.67186373 0.27250552 0.3206755 -0.41311568 -0.79018545 0.5741713 0.6301544 -0.255481 -0.5908728 -0.084495716 -0.022543238 0.29041126 -0.0789219 0.46737462 -0.90192586 -0.86676276 0.10703472 0.55453914 0.21058527 0.4653556 -0.24614373 0.5746801 0.52805513 -0.7536248 -0.10989912 0.69365084 -0.7002577 0.6825739 -0.4447393 -0.5961026 -0.36171052 -0.35028008 -0.7019476 0.5820353 0.02270897 -0.05842728 -0.3599692 0.17272629 -0.085098535 -0.610281 -0.23597002 -0.2956244 -0.0659935 0.6538946 0.56813264 0.36933145 0.362019 -0.5635072 -0.6814351 0.21881224 -0.51762575 -0.7445129 0.6859092 -0.52126783 0.14556648 -0.87577605 0.23345569 -0.67137754
0.40453455 0.15681002 0.40898147 -0.9536931 0.21920718 -0.57198405 -0.06785435 -0.40513816 -0.20969717 0.219313 0.7427925 0.27067858 -0.25757074 -0.63019603 -0.14559221 -0.23411067 -0.16443805 -0.31901753 -0.116535634 0.11909888 -0.32349846 0.6068992 -0.29428446 0.2882568 0.14956194 -0.07441891 0.30914614 -0.43363705 0.24244311 0.5352874 0.11234847 -0.7996908 0.8194367 0.32522213 0.20955805 0.6015674 0.5348659 0.2683193 -0.40965125 -0.49641025 -0.7403064 0.42983004 -0.4213568 0.377219 0.51059246 -0.24579829 -0.07313053 0.5740776 -0.6671208 0.20270279 -0.5448043 -0.35222217 -0.36169064 0.29051924 0.16026878 -0.4982952 -0.49386233 -0.6684597 0.28659007 0.04313647 0.51425177 0.26493868 0.775558 0.6337446 -0.6130675 -0.69496477 0.39151907 0.36823663 -0.29390284 -0.2641021 -0.26587766 -0.15769662 -0.11660463 0.2730834 0.3337245 -0.06283198 0.42840874 -0.051104836 0.75461245 -0.3478506 -0.50597876 -0.34785357 -0.10236116 0.27276808 -0.32702532 -0.7914934 -0.15316753 -0.23958814 0.00028035743 0.16266096 -0.02706237 -0.20764391 0.21226817 0.25541002 0.30758992 0.5566415 -0.14207776 0.7459604 0.5018059 0.26177466 0.23246826 0.62691814 0.39002258 -0.6438229 -0.12995031 0.5487409 0.3854929 0.43747902 0.74055743 0.08677179 0.34111094 0.47373477 -0.44058394 -0.19774343 -0.644828 -0.7095673 -0.091769606 -0.5005554 -0.07413144 0.53255403 0.2949905 -0.62024254 -0.19140267 0.38860255 -0.28422365 -0.07690258 0.083235085 0.23354441 -0.46619073 -0.5574186 0.48420435 -0.39160356 0.4049156 0.85819125 -0.7220943 0.13388419 -0.30822545 -0.50594836 0.5169199 0.25137848 0.8751281 -0.23693311 0.18173708 0.38501477 -0.40722102 0.5949141 0.60139173 -0.16192445 -0.795804 0.4283145 0.26323318 -0.3271299 -0.00077101734 0.42517143 0.20669393 -0.5543475 0.32681182 0.020202285 -0.5926612 0.14477664 -0.40158167 0.40544164 0.35068837 -0.70419145 0.042809866 0.20370506 -0.24100472 -0.3304364 -0.5553566 -0.1940762 0.18406837 -0.06323145 0.47338578 0.468994 -0.19447245 0.029357087 0.41421902 0.88386315 0.20483047 -0.22163469 0.23663737 0.31709558 0.76929784 0.5351653 0.72196263 -0.28264782 0.3021216 -0.30682662 -0.35061473 -0.40755552 -0.04770716 0.52218515 0.5151303 0.7065549 0.05905408 0.47806457 0.6157077 -0.118493624 0.4705304 0.70062894 -0.77168983 -0.21692848 -0.11233026 -0.65015763 0.025478002 0.07193265 -0.47455204 -0.014691151 0.24908064 -0.35495186 -0.38556576 0.41593552 0.48791036 -0.16754927 0.16661541 0.0009076864 0.28846925 -0.042885683 -0.23907872 -0.6258454 -0.44948515 -0.49568707 0.66476053 0.5030917 -0.25908843 -0.5193935 0.017337516 -0.31459928 -0.7136371 0.2728915 0.35108888 0.40588725 -0.77608865 0.24260499 0.21510266 0.69416624 -0.014535135 0.4101408 -0.51584846 0.35939077 0.73052686 -0.1387062 -0.59286255 0.48750728 0.47554508 -0.540776 -0.34582058 -0.41999167 -0.22517139 0.32442153 0.700525 -0.78783387 0.2204237 0.37367886 -0.737967 -0.2746323 -0.50166804 0.79651314 0.36519927 -0.58819455 0.47137326 0.027383775 -0.06414175 -0.5213622 -0.12748148 0.8983432 0.7067463 0.6996349 0.5222649 -0.018614892 -0.38948023 0.31677875 -0.35832667 -0.1807845 0.54376185 0.76592433 0.018142616 -0.6531394 0.44162256 -0.3900068 0.1960074 0.80208087 0.91141504 0.17197789 0.41676244 0.1695522 -0.7302519 0.09492354 -0.3102812 -0.6872189 0.3112986 -0.119323134 0.48089212 -0.37681586 -0.07371114 0.2597983 0.41597816 -0.19180477 0.25398204 -0.21850672 0.41433072 -0.05018845 -0.7201774 0.32823655 -0.59343106 0.8130554 0.09753854 -0.6184194 -0.635721 -0.17887309 -0.27951872 -0.30889255 -0.5213864 0.41279897 0.5832063 0.07368798 -0.6698909 0.26354617 -0.04484879 -0.26884004 -0.43164352 -0.6414545 -0.80680615 0.04172682 0.3552758 -0.5406875 -0.24410531 -0.2347836 -0.27039918 -0.28840405 -0.62201124 0.8209416 0.4155427 -0.3460256 -0.1320857 0.28311512 0.2791446 -0.31613338 -0.022005962 0.41505846 -0.7911046 -0.4167283 0.4695644 0.098700196 0.284201 -0.089604124 -0.32893807 0.7630597 0.65201384 -0.8260585 -0.42408326 0.7658255 -0.2472031 0.25526667 0.105862625 -0.0933988 0.0121343965 0.5848478 -0.59822416 0.5581572 -0.32039368 -0.6683802 -0.17032821 -0.16178302 -0.0018690249 -0.70239156 0.43876594 0.19175668 -0.31957167 -0.5960488 0.28021365 0.4092638 0.53319496 -0.513155 -0.8724634 0.07251142 -0.5864648 -0.32161316 0.16122037 -0.20577022 0.27674794 -0.05332064 -0.38295376 -0.8019196
0.8654491 0.76842016 0.00020195218 0.38418275 0.7493607 -0.7780367 0.42715338 -0.8802455 -0.785411 0.28996977 -0.8212687 0.86972463 -0.8793958 -0.8579318 0.702943 -0.0028944165 -0.91498435 -0.10722667 0.78086746 -0.057764437 0.37907678 -0.7557631 -0.8682248 -0.92833775 0.100104034 0.49316838 -0.9239765 -0.24850191 0.50340337 0.93864465 0.85662496 -0.4144815 0.9229834 -0.95060104 0.9337177 0.24750473 -0.44646674 -0.91559434 0.43477145 -0.52427775 0.7404522 0.7638173 -0.93805826 -0.40681285 0.3750834 -0.9353225 -0.8363845 0.85127157 -0.82282054 0.5466986 0.8551612 0.75605655 -0.86373395 0.19380736 0.59923154 0.17737055 0.87029314 0.82834536 0.68261725 0.79878026 -0.82303053 0.20517904 0.8100007 -0.39685053 0.16516349 0.8141321 0.9248578 -0.85353076 0.11377698 0.016809145 -0.77012205 0.7265631 -0.5218591 0.79372126 -0.42651165 0.91522324 0.7400252 0.014312273 0.5509339 -0.8222224 0.50888735 -0.8621375 0.33757055 -0.5400469 0.34432474 -0.9170535 -0.857531 0.87126935 -0.9161115 0.83660847 0.87567145 0.85635364 -0.92267823 -0.91325665 0.8687657 -0.77329814 -0.910878 0.39936474 -0.8135481 0.2504213 0.9403151 0.5876162 0.4877892 -0.8795984 -0.85596055 0.90098345 -0.8751531 -0.018587241 0.38015044 0.91862094 0.9498743 -0.6566659 -0.44804236 0.761012 0.8440647 0.7265431 0.038597763 -0.6276812 0.6521195 0.86895525 0.95642966 -0.80555904 0.81988174 -0.7830787 -0.9500772 -0.9743966 -0.9133469 -0.598986 0.08692821 0.88177955 0.8445595 -0.41101864 -0.049354214 -0.1761225 -0.5834833 -0.6071288 -0.6543325 -0.917963 -0.17101178 0.16342582 0.36457008 0.86034834 0.4890783 0.9287029 -0.7523073 -0.23955014 -0.38113847 0.4812145 -0.970037 -0.9051777 0.92109925 -0.77423143 0.6601298 -0.16499281 0.23463196 -0.8827539 0.8986153 -0.14212924 0.800704 0.8917434 -0.94584495 0.8866103 -0.97481763 -0.9658914 -0.099570535 0.11347738 -0.95728856 0.6573891 -0.7897684 -0.8671079 0.83395225 -0.8369226 0.5370753 -0.206882 -0.68697345 0.60862416 -0.48422524 0.9081477 0.24959904 0.95404404 0.7697641 -0.59233826 0.6739476 -0.34976536 -0.8614166 0.91476035 0.7794567 -0.23249133 0.07949008 0.006595846 0.47877553 0.91308296 0.8512334 0.87874776 -0.5401418 -0.6664027 -0.44685808 -0.96412593 0.68991184 0.1061706 0.16791597 -0.8856013 -0.882764 -0.7227017 0.21991819 -0.97085375 -0.85031915 -0.8956611 0.77682817 0.7374411 0.9002846 0.9138726 -0.68416685 0.76279116 0.027562486 0.7765019 0.9174887 -0.8407348 0.9182625 -0.20175199 -0.95748174 0.9482943 0.39391613 -0.84038126 -0.36444294 -0.79214483 -0.14215724 -0.2545517 -0.07760272 -0.93836164 -0.93951523 0.37885156 -0.94940853 0.8374089 -0.4010292 -0.29027292 0.9475032 -0.62543356 0.1446247 -0.24863262 0.4154527 0.6817347 -0.95517343 0.7017603 -0.8791561 -0.93560994 0.40666035 -0.9567959 0.9521661 0.1575267 -0.87968254 -0.58505356 -0.8767892 -0.30579954 -0.88564444 -0.7943647 -0.9112621 -0.89398354 0.17265248 -0.8054339 0.9586066 0.9065111 0.9495301 -0.9015263 0.8762018 0.94244504 0.8889497 0.70935947 0.9218949 -0.84600145 0.48653868 0.53971064 -0.6637993 0.91356426 0.77459174 -0.46859178 0.71032804 0.53005326 0.72375363 0.33127248 0.5384737 0.083309904 0.9776409 -0.90437657 0.9237303 -0.6364882 0.012931131 0.9315468 0.06140948 -0.9556659 0.8777656 -0.84648967 -0.6866779 -0.111471556 -0.8384666 -0.036426526 -0.8192533 -0.88750464 0.86874646 -0.7298341 -0.8460591 0.7258737 -0.8788816 -0.26086688 -0.10244636 0.8583929 -0.46623632 -0.80539465 -0.8484536 0.78543514 -0.93382365 0.15510905 -0.69471973 0.07316373 0.39463893 -0.8642417 0.7165445 -0.22645704 -0.28079677 0.9340753 0.76452917 0.34141448 -0.87802225 0.85997546 0.922296 -0.78492546 -0.19085293 0.59067714 0.57553977 0.5330165 -0.92268944 0.890715 0.97530335 -0.3442751 0.7996023 -0.2172419 0.64615995 -0.8663151 -0.32693815 0.9576263 0.46004146 -0.47951505 0.4674733 0.923622 0.87076604 0.5825879 -0.24112831 0.982905 0.07548243 0.69240487 -0.03005678 -0.968073 -0.54913116 -0.74020755 -0.86116403 -0.85532045 -0.49009597 -0.3156096 -0.87473506 -0.90987676 -0.8628649 -0.27683944 -0.77374214 0.6201452 0.24969636 -0.28101158 -0.87961525 -0.93426913 0.95574284 0.9078362 0.966482 0.97054726 -0.94965637 -0.75699717 0.23723601 0.1932476 -0.4456154 -0.93601936 0.04333358 0.7797546 0.18685836 -0.9526333 -0.37189522 -0.7312222
-0.25264332 -0.23280165 0.5408763 -0.8726279 -0.096767366 -0.2651963 -0.48504773 0.45919082 0.4096498 0.47237536 0.64196193 -0.505892 -0.35563335 -0.31490305 -0.3966252 -0.34725115 -0.5665005 -0.36021593 -0.5353533 0.74664825 0.23796028 0.46876588 0.55185145 0.29903835 -0.43190795 -0.19140033 0.13026187 -0.4989372 -0.39318165 -0.17214894 -0.30323577 -0.2525906 0.8428063 0.274415 0.021931749 0.8669217 0.22193258 0.0010767924 0.0077137407 -0.6262564 -0.5475544 0.11749945 0.38280758 0.19689879 -0.16687869 0.31993562 0.31062987 0.54191 -0.5590276 0.58704066 -0.4401612 -0.23187147 -0.63282114 0.79955065 0.6386039 -0.19688058 -0.46164635 0.06670684 0.084282875 0.4226129 0.40849334 0.7423184 0.58680564 0.24208465 0.026527192 -0.5404874 -0.67272455 0.5425563 0.148775 0.5897651 -0.46142453 -0.40556535 -0.7156009 -0.24690402 0.071533136 0.2933465 0.11204338 -0.0063391407 0.6971401 -0.40098372 0.23477365 0.009472396 0.29867327 -0.18547598 0.059938177 -0.59996 0.4604239 0.07785285 -0.20657267 -0.454149 -0.33051446 0.024611674 -0.33623984 0.10822883 -0.03608041 0.19428174 0.60812324 0.60017794 -0.26382342 -0.44684005 -0.42561075 0.44288498 -0.16545433 -0.4088793 0.670899 0.18339013 0.14834233 0.31142965 0.41606298 -0.07360229 0.8331274 0.23649056 -0.08875083 -0.022259168 -0.32963988 -0.3071294 0.21185957 0.48946303 -0.6277776 -0.23692353 0.13528505 -0.078942575 -0.68378294 -0.04415214 -0.07408439 0.16136171 0.28708807 0.3515521 -0.56764305 0.13994351 0.29064754 -0.5212399 0.5095402 0.6143649 -0.5096928 -0.010253751 0.32434118 0.29947516 0.019455306 -0.34936443 0.8054412 -0.40351015 -0.6043252 -0.46744817 -0.5495176 0.058083497 0.6393978 -0.34854844 -0.4508702 -0.18746166 -0.21705766 -0.24209452 0.41010186 -0.011421047 0.15045194 -0.5105416 0.4993045 -0.6678111 -0.08642692 -0.26800334 -0.031231435 0.51170456 -0.13945335 -0.00905279 -0.5204791 0.15629363 0.39504337 0.3618863 -0.36871293 -0.31217885 -0.5897115 0.32709247 0.38306955 0.4235738 -0.39818713 -0.8235823 0.36714005 0.44118467 -0.15154217 0.46915916 0.1270167 0.52704036 0.37542152 0.25454244 0.47965968 -0.6477517 0.36452988 0.3934971 -0.33950946 -0.1430801 -0.1358677 -0.58845645 0.5870794 0.3444792 -0.6294261 0.10302038 0.6370223 -0.075163595 -0.44830617 0.5068765 -0.34020466 -0.2649821 -0.15952139 -0.5897503 -0.6947761 -0.5654952 0.24257307 0.4302551 0.32827303 0.5194696 0.029907601 0.14049475 -0.2879995 0.076136746 0.5525308 -0.1345931 -0.045539755 0.50278723 -0.6361025 -0.7240323 0.6123242 -0.39145502 0.36095837 0.6167948 0.47109985 0.6083505 -0.57838535 -0.39300135 -0.3717368 -0.32994848 0.31369436 0.51177514 -0.38471088 0.3896031 0.4574294 0.4636138 0.44861802 0.44742718 -0.47302562 0.34773296 0.6878379 0.34024128 0.11667636 0.17724687 -0.2556181 -0.6183748 -0.041693803 -0.46940994 -0.3384516 0.35063764 0.44993058 -0.5802968 0.09809021 0.22999234 -0.51737094 0.38589874 -0.35482064 0.5812601 -0.5618691 -0.5344868 0.51421684 0.28911582 -0.5155848 -0.024492381 0.033933368 0.76826316 0.19943997 0.4065818 0.4690138 0.32710123 -0.017313618 -0.13911474 -0.16956426 -0.42524144 -0.049125697 0.5667513 -0.4228324 0.21327288 0.26638055 0.27030644 0.38465518 0.74458724 0.5061701 0.63346803 0.4801266 -0.15458925 -0.6352805 -0.4755635 0.07339175 -0.48241696 -0.30960253 0.2558882 0.5467268 -0.1522871 0.30458733 -0.32001555 -0.20443846 -0.15874876 -0.6196238 0.31662825 0.67186457 0.56801325 -0.41628218 -0.44998512 -0.45642632 0.47387084 0.29578137 -0.41390765 -0.72440773 -0.4137479 0.029464785 -0.10796176 -0.18000925 -0.63927627 0.49232143 -0.29896194 -0.4500825 0.47512725 0.5151161 -0.3540788 -0.027610365 -0.6539863 -0.5323858 -0.7133779 -0.06192197 -0.22525474 0.70811427 -0.80226684 0.088647895 -0.5459486 -0.4524784 0.31030583 -0.37968555 0.32544246 0.3545484 -0.11475642 0.1843852 -0.07052753 0.3962021 -0.28065678 -0.6124113 0.09474676 0.16596958 0.408557 -0.12611656 0.14616844 0.59104174 0.09299914 0.29319182 -0.48337257 -0.32655716 0.52222854 0.4271268 0.84203506 0.4441748 0.32325676 0.27425966 0.55028605 -0.48684838 0.3680159 -0.18689854 -0.489277 0.54049605 0.5276526 -0.45297852 -0.48456097 -0.5584042 -0.6161187 -0.2370092 -0.88996094 0.20695579 -0.22962654 0.09385268 0.63364345 -0.47703913 -0.198745 0.06742514 0.75936973 -0.52523863 0.044346653 -0.27632192 0.33533338 -0.28948665 -0.61099225
-0.23664057 -0.39286676 0.67868584 -0.85124004 -0.22699478 -0.3498555 -0.3157749 0.31823096 0.35245544 0.2504122 0.6754741 -0.59382087 -0.23890556 -0.16559961 -0.5216137 -0.23788743 -0.44636264 0.058217533 -0.6619457 0.55214626 0.2585664 0.30950898 0.45497707 0.37361455 -0.104034804 -0.25954354 0.30766872 -0.6396988 -0.26213187 -0.30589244 -0.42598665 -0.4074939 0.62300575 0.45093343 -0.12391568 0.7007725 0.46819714 0.1256029 0.22675224 -0.7183726 -0.49872822 0.21173154 0.28860098 0.121756 -0.17112514 0.37478834 0.12741457 0.4782173 -0.44901693 0.4798901 -0.39196947 -0.34637994 -0.40681154 0.6113699 0.4262102 -0.0673708 -0.42281657 -0.14082758 0.2642617 0.35316712 0.2738876 0.8865174 0.52543235 0.057475768 0.15261842 -0.57482505 -0.68677 0.49532035 0.28975973 0.2265625 -0.49219278 -0.052108873 -0.51127154 -0.1562569 0.40319023 0.6506886 0.27387583 0.02905298 0.6250823 -0.4425036 0.01921428 -0.04371115 0.15079825 -0.30720457 -0.05321833 -0.73260754 0.32846785 0.18236932 -0.43300557 -0.57700574 -0.30133632 -0.23637867 -0.0631069 0.0796832 0.13635506 0.5285506 0.6855651 0.42667592 -0.2734077 -0.49115607 -0.24815659 0.06317345 -0.1369403 -0.50829804 0.45855275 0.16539039 -0.11189856 0.1360619 0.2576397 -0.027545152 0.3788987 0.19003646 -0.17833348 -0.3402703 -0.5196423 -0.24213341 0.015423199 0.33004722 -0.56575054 -0.16716303 0.121659845 -0.36733952 -0.8464671 -0.041877657 -0.09752286 0.11553955 0.31772205 0.11330795 -0.2312446 -0.17164388 0.38587505 -0.4423431 0.35207826 0.3164144 -0.34413144 0.2853099 0.22091952 0.06771737 0.0037940172 -0.15802069 0.67022395 -0.33622745 -0.6300459 -0.5875136 -0.23875174 0.13756786 0.80998725 -0.327145 -0.29342878 -0.22213817 -0.22942421 -0.3462755 0.5203833 -0.30891684 -0.11483561 -0.45333412 0.46391585 -0.38863063 -0.5363456 -0.44865614 -0.16760316 0.29497403 0.25026718 -0.17821306 -0.46573743 -0.011392638 0.28733176 0.2538798 -0.15073387 -0.29551446 -0.36838454 0.24193682 0.35295177 0.2015141 -0.59620655 -0.6823841 0.39891157 0.5478755 0.09707481 0.2752136 0.039999865 0.30559605 0.20559603 0.15383095 0.20833682 -0.4545881 0.18736582 0.42785117 0.04003915 -0.16179202 -0.30827314 -0.14952506 0.7296531 0.451244 -0.07559162 0.13797438 0.45951402 -0.07773826 -0.16484514 0.34006017 -0.3630014 -0.18354215 -0.24919887 -0.42638284 -0.5181349 -0.7235478 0.43374038 0.43885738 0.11130569 0.3622964 -0.14669074 0.05079036 0.0076436764 -0.3142572 0.27773494 -0.15056776 -0.16744351 0.0039707785 -0.45390955 -0.28659648 0.41356507 -0.33466908 0.00879496 0.26024458 0.37871373 0.55162704 -0.45887375 -0.3238639 -0.40927717 -0.0718776 0.70288545 0.3780952 -0.63427496 0.493474 0.50707763 0.024159389 0.4252053 0.5216023 -0.15741715 0.04189393 0.53177065 0.041563462 0.10855585 0.32736787 -0.14058512 -0.6427189 0.03197553 -0.1381757 -0.24789749 0.2104201 0.46866542 -0.75231475 0.19424865 0.38770652 -0.5866945 0.6257147 -0.40026966 0.7531475 -0.40955645 -0.5498457 0.31369892 0.46369335 -0.5396659 -0.09322123 0.30528152 0.5261051 0.24173462 -0.0038024262 0.46382764 0.18955202 -0.03623999 0.20933728 -0.20691185 -0.36411238 0.13221222 0.5291892 -0.40066692 -0.020759944 0.27859244 0.64652455 0.37892482 0.72842735 0.7081276 0.5910259 0.38542548 -0.12619737 -0.30197904 -0.35428014 0.13528186 -0.45532075 -0.37488827 0.17167056 0.7117068 -0.08505821 0.4223316 -0.20340595 -0.0843702 -0.1683915 -0.601631 0.20446517 0.84615964 0.36911985 -0.8046519 -0.31769004 -0.59452695 0.5111715 0.2569458 -0.52601063 -0.510661 -0.4844934 0.0006492615 0.12163149 -0.30985183 -0.4921039 0.4159621 -0.23311938 -0.69338006 0.7245424 0.52695185 -0.17551371 0.16088101 -0.4959104 -0.6077999 -0.37077346 -0.07411144 0.2561037 0.73904675 -0.36827835 -0.17997995 -0.35376534 -0.5747973 0.54414344 -0.09300773 0.33549374 0.5852677 -0.050421804 0.09861211 0.029670628 0.20765932 -0.13338885 -0.3302267 0.19518071 0.20071198 0.19855534 -0.32562548 0.09594161 0.36848658 0.15806198 0.33841038 -0.57197803 -0.15051062 0.20053673 0.4922896 0.61123943 0.4857642 0.036156308 0.29894513 0.47819126 -0.16478932 0.5690635 -0.16881666 -0.66821927 0.32717273 0.45761746 -0.3028189 -0.37357202 -0.5272837 -0.7207655 -0.46913972 -0.65500367 0.33230454 -0.2318485 0.1670223 0.10482004 -0.631206 -0.19688341 0.21516106 0.30194175 -0.46968302 0.15700103 -0.21408577 0.18390211 -0.30605718 -0.6607293
-0.269906 -0.2369743 0.64655125 -0.890058 -0.07761981 -0.042598926 -0.29465574 0.42087078 0.43778148 0.27014968 0.66540897 -0.49798295 -0.23469685 -0.68191975 -0.45336393 -0.28975114 -0.5394715 -0.31685755 -0.57435906 0.5693046 0.18730049 0.7221484 0.543358 0.36536515 -0.2154152 -0.12317513 0.15079194 -0.5888464 -0.34204692 -0.22074099 -0.29088297 -0.34702855 0.75390637 0.18883021 -0.03619203 0.8209188 0.48092952 0.1342123 0.03833244 -0.77614915 -0.4548754 0.10715361 0.37828046 0.29453444 -0.14127783 0.1743908 0.22430952 0.6792549 -0.32869834 0.5053941 -0.54651386 -0.4375637 -0.24692307 0.5410511 0.43528026 -0.0885996 -0.59811205 -0.0062911585 0.068410024 0.34890267 0.09632433 0.7510147 0.6329934 0.2754364 0.06871028 -0.6227037 -0.47526434 0.5350301 0.24397193 0.64124674 -0.5838765 -0.035646003 -0.66901153 -0.23622054 0.24518172 0.5463046 0.09025935 -0.09664781 0.70643187 -0.31388924 0.15221594 0.1451831 -0.038202684 -0.36158586 -0.16397946 -0.53386915 0.34023884 0.115194224 -0.19883029 -0.41676003 -0.13566476 -0.09096084 -0.23538698 -0.071986675 -0.08088475 0.4449045 0.81500894 0.73188347 -0.33309704 -0.40286967 -0.26439 0.22663312 -0.28766572 -0.5175915 0.4809482 0.24542563 -0.0057534594 0.29427654 0.47355878 -0.16217087 0.5953524 0.26081043 -0.19950046 -0.33260757 -0.32829815 -0.2615295 0.055123653 0.3076516 -0.75620973 -0.27895126 0.28045785 -0.1485187 -0.74154663 -0.03088926 -0.19806539 0.3589353 0.23002146 0.21963419 -0.51228905 -0.07276465 0.43638635 -0.6134517 0.38572693 0.68221295 -0.23108555 0.06707313 0.44603866 0.31940556 0.017582314 -0.3608418 0.76462793 -0.25976166 -0.56706715 -0.56824076 -0.31795067 0.3580783 0.6838797 -0.18252978 -0.59895253 -0.22027223 -0.39305535 -0.18750927 0.5902587 -0.09710142 0.22836724 -0.3881313 0.5359811 -0.55866176 -0.5122944 -0.40097168 -0.115853705 0.5636376 0.0722515 -0.09003945 -0.45466486 0.20841745 0.31981283 0.38606682 -0.2697861 -0.42550343 -0.6100663 -0.042097267 0.43209696 0.27312815 -0.50803196 -0.83532983 0.31124362 0.50828046 -0.049730692 0.31416574 0.05178424 0.50539213 0.37076256 0.11607167 0.4777887 -0.7542638 0.25191808 0.21938618 0.026711125 -0.15845144 -0.056305856 -0.47186884 0.4641622 0.7130245 -0.21632233 -0.0017857341 0.6150085 -0.16972004 -0.32426503 0.47161442 -0.4498222 -0.14812005 -0.4919708 -0.4709604 -0.4898332 -0.76666605 0.29205483 0.17116825 0.21874222 0.53928584 0.021429075 0.1538079 -0.0870745 -0.14669885 0.2559164 -0.4034268 -0.0131545765 0.2981496 -0.73171514 -0.70654875 0.61790526 -0.2595924 0.21168743 0.4502862 0.37391007 0.35835555 -0.38116768 -0.58089507 -0.5585823 -0.14172944 0.35824665 0.30450815 -0.33389476 0.45904 0.546612 0.23932648 0.43366405 0.37021586 -0.43696144 0.38204193 0.79748935 0.19124043 0.13994363 0.24479899 -0.22076201 -0.5839455 -0.018839363 0.04562233 -0.1975277 0.29515952 0.5674049 -0.69749564 0.12384809 0.51871246 -0.5375486 0.3758003 -0.6320266 0.48663065 -0.5013132 -0.63511616 0.6374708 0.30630496 -0.5537952 -0.2004918 0.19669597 0.76986396 0.19484347 0.12116134 0.45649135 0.06892861 -0.27889705 0.17353177 -0.2941496 -0.51059586 -0.041083474 0.74605536 -0.49978706 0.0691919 0.39650837 0.46494684 0.43450117 0.82387197 0.6122911 0.70746297 0.23391587 0.17645736 -0.3116953 -0.5327312 0.06523252 -0.69389975 -0.19432141 0.31933802 0.59925807 0.0029845908 0.5762138 -0.33749187 0.11110562 0.016050285 -0.5457907 0.35253966 0.7541291 0.4662355 -0.71830624 -0.4885803 -0.675934 0.4302975 0.5228736 -0.32436174 -0.55773896 -0.4526573 0.044694602 0.03190168 -0.31458843 -0.38106743 0.42500812 -0.29959697 -0.44616127 0.6200893 0.56350344 -0.29433483 -0.06967359 -0.70490086 -0.70547116 -0.5964877 0.07782889 -0.033400998 0.5787655 -0.6701027 0.06711194 -0.53985214 -0.51929927 0.59714496 -0.07504556 0.22389428 0.6457794 -0.2182763 0.05455043 -0.26265448 0.42597985 -0.28806177 -0.40226027 0.5025975 0.59674805 0.5451387 -0.40790954 0.3008673 0.245759 0.2523977 0.37904164 -0.63251954 -0.11285071 0.70064825 0.5636408 0.73456955 0.51861805 -0.14571108 0.48980704 0.7256109 -0.40522584 0.4778345 -0.28589165 -0.6253932 0.52724516 0.34688258 -0.45849475 -0.56184655 -0.49609149 -0.5027201 -0.24854876 -0.61682725 0.43777373 -0.41256845 0.13760567 0.30133978 -0.32977948 0.06276492 0.12326989 0.35518435 -0.385731 0.29930145 -0.5371182 0.47705647 -0.57222396 -0.62374425
-0.3563334 -0.47322795 0.47848037 -0.912241 -0.30680698 -0.05013211 -0.46189135 0.47563365 0.3382665 0.3326304 0.6061248 -0.4651277 -0.4050218 -0.36181462 -0.6464347 -0.2973456 -0.59728986 -0.12032781 -0.5293487 0.57353747 0.13659489 0.5746537 0.72581613 0.44232816 -0.19934389 -0.24243996 0.4430177 -0.60606974 -0.51967 -0.21963733 -0.5116423 -0.40538543 0.67313224 0.42753315 -0.036015917 0.84221107 0.27199683 0.40500695 0.26600215 -0.6970594 -0.56367904 -0.10839617 0.32989994 0.5310252 -0.18803954 0.40220144 0.12335707 0.5336339 -0.41812474 0.64464897 -0.53036344 -0.3493926 -0.49437976 0.76906496 0.59798145 0.044833127 -0.42956945 -0.26300976 0.020621546 0.6025564 0.09049964 0.72866327 0.47560468 -0.013638104 -0.026327586 -0.73580784 -0.5057909 0.55823493 0.45065328 0.54024446 -0.60720605 -0.30988872 -0.47042984 -0.33320045 0.33611235 0.427513 0.15604848 -0.1737348 0.75283086 -0.44718954 0.003556781 0.18961373 0.26289898 -0.34917063 -0.15803733 -0.73224807 0.16012877 0.19993968 -0.43492195 -0.5140401 -0.2972952 -0.17618452 -0.3337747 0.20161174 -0.043616813 0.33173516 0.63852686 0.67116475 -0.36518592 -0.5109867 -0.34627652 0.48499078 -0.20415765 -0.08744548 0.6439995 0.10738742 -0.13023806 0.4104238 0.3407748 0.09654318 0.53587973 0.17243153 -0.19994017 -0.299374 -0.3833259 -0.5134551 0.10631353 0.3954683 -0.83346313 -0.26422322 0.36202756 -0.18550348 -0.75278324 0.09958248 -0.38801202 0.42924005 0.30965823 0.29918468 -0.40314966 0.05227241 0.33587992 -0.52548945 0.46859694 0.5723457 -0.37385496 0.16698529 0.49309304 0.17403117 -0.012301407 -0.5023063 0.79906976 -0.32904 -0.54304135 -0.58954185 -0.2978579 0.13787173 0.83644867 -0.060704745 -0.40328166 -0.11352472 -0.21904904 -0.24039888 0.54443896 0.024521744 0.14098716 -0.6296256 0.5830882 -0.54425484 -0.41372284 -0.49549848 -0.045499913 0.8086807 0.26852202 0.09620322 -0.61765325 0.34097347 0.54091066 0.39204955 -0.31099075 -0.37333417 -0.48646325 0.11330498 0.6505467 0.22037312 -0.73891664 -0.89700687 0.45920604 0.7761716 -0.04784836 0.68120176 0.18813561 0.37829542 0.45788312 0.20925291 0.6827794 -0.8812882 0.3800304 0.536159 -0.131421 -0.3622562 -0.31565607 -0.39490905 0.5919535 0.61975574 -0.18032236 0.14604294 0.47413233 -0.115655944 -0.29063103 0.5622693 -0.5006955 -0.29037368 -0.251281 -0.55435836 -0.7401779 -0.5638037 0.23962425 0.36850137 0.068924196 0.61863726 0.25957233 0.297245 -0.19951677 -0.24419533 0.5678918 -0.5098452 -0.0681696 0.516925 -0.74760187 -0.71724087 0.62921596 -0.17923991 0.122998424 0.58991116 0.2979771 0.3892559 -0.37805304 -0.59761363 -0.32182044 -0.31233948 0.32011956 0.52856195 -0.50864935 0.4745728 0.28277844 0.25679907 0.2722966 0.5014603 -0.47818553 0.44140556 0.729156 0.17345287 0.18093179 0.27701834 -0.372543 -0.634065 0.02702496 -0.19014183 -0.21856973 0.4190245 0.31150392 -0.5181368 0.140044 0.43625364 -0.48444062 0.42527497 -0.42341566 0.76146764 -0.4448139 -0.5341493 0.73429286 0.36335903 -0.61565155 0.012794631 0.10047131 0.75549483 0.31092522 0.117620274 0.55637056 0.25986984 -0.2522117 0.1368555 -0.13915719 -0.58117527 0.0034566126 0.79037696 -0.5663051 -0.017776726 0.3334982 0.35417706 0.5073931 0.8345536 0.69703895 0.7439529 0.297656 0.06205274 -0.58810955 -0.6402662 -0.049676713 -0.55789727 -0.14087696 0.20918205 0.5280604 0.082654126 0.5808981 -0.26595467 -0.09533921 -0.12523144 -0.52885723 0.2889917 0.7179144 0.6500701 -0.7333766 -0.53806263 -0.74668586 0.5019146 0.34642562 -0.58305514 -0.82582194 -0.48590234 0.21245378 -0.18304424 -0.2479949 -0.5429398 0.32647896 -0.15789182 -0.5266414 0.67284536 0.6341471 -0.40875822 -0.24571534 -0.6442008 -0.5701753 -0.75843984 0.15999602 0.04723858 0.6829792 -0.5730765 0.19531593 -0.5434443 -0.50004584 0.6708556 -0.4089195 0.2512592 0.49540964 -0.33940637 0.36090073 -0.16904967 0.6471322 -0.5289698 -0.4585405 0.49511975 0.48312873 0.6424128 -0.5155755 0.24754971 0.48552898 0.23198362 -0.037957072 -0.47613427 0.048797507 0.71215457 0.5506681 0.8570546 0.65882814 0.12520716 0.39097458 0.726863 -0.32444188 0.5129313 -0.21044393 -0.8128592 0.32894787 0.7508653 -0.566339 -0.6595162 -0.47774833 -0.6702153 -0.41312692 -0.7649064 0.3663261 -0.42344356 0.16800198 0.33504152 -0.603139 -0.03859122 -0.009503418 0.6497025 -0.28494605 0.1261707 -0.5048482 0.3447875 -0.57194906 -0.75204694
