0.037083447 0.0088074105 -0.2661399 0.55756056 0.44113156 -0.13644202 0.3502945 -0.42331663 -0.28479278 0.7932981 0.6162727 0.35332093 0.5734744 -0.40204632 0.722379 -0.90367126 -0.2748187 0.8565713 -0.2944109 0.90258205 -0.3274701 0.42340103 0.27381516 -0.23134956 0.5180453 -0.9422418 -0.46406063 -0.7106025 -0.55438685 -0.829729 0.71176994 0.5725793 -0.5992177 0.39308605 0.2914753 0.6781541 -0.3334703 0.27706116 -0.6794473 -0.611666 0.5531423 -0.19936454 0.3158131 0.8465946 0.6920217 -0.7653417 0.10032695 -0.33289552 -0.61129516 0.8545901 -0.08696295 -0.48386043 0.5354085 -0.71208614 0.78882825 0.49222046 0.33784077 0.33168888 -0.80630827 0.77633005 0.07150134 -0.18539172 -0.8159549 0.3784975 0.87876517 0.7567324 -0.4554574 -0.4921992 -0.116242975 -0.25584012 0.08309189 0.036367074 -0.3585068 -0.5318868 0.3330714 -0.8732275 0.5739136 0.15460369 0.7537319 0.0027208475 0.3830751 0.5079936 0.107591145 -0.72443944 -0.37093824 -0.70371574 0.9224228 0.41206127 0.29824847 0.3759532 -0.50016326 -0.41945451 0.035636727 0.89021194 -0.7847053 -0.42864132 -0.19053735 0.34706554 -0.040302355 0.34255022 -0.3495255 0.34680098 0.8442048 0.6139865 0.79586154 -0.8937718 0.22694653 -0.61157334 -0.68464035 0.3817568 0.15354827 -0.6502791 -0.30396017 0.38158625 0.48358333 0.35585457 -0.27811366 -0.5193534 0.6257628 0.43448964 -0.862122 0.3300608 -0.55836505 0.7674892 0.9065901 0.3920879 0.8391094 0.23670776 0.7872841 -0.17212173 -0.6559832 0.07622597 0.5220276 0.33025298 0.56891054 0.85245186 -0.7068347 0.75004196 -0.5845353 0.51075 -0.8787628 0.3693768 0.3342935 -0.46326914 0.7772151 -0.12296552 -0.103016704 -0.06454965 0.9673011 -0.4138594 -0.10143515 -0.303868 -0.95798934 -0.52198493 0.2809314 -0.5209052 -0.7126844 0.15886056 -0.64441967 -0.5303952 -0.31957036 0.28270087 0.43929917 0.3741057 -0.31753168 0.53258336 -0.017221853 0.23704869 0.26724198 0.39346105 0.60115445 0.3594543 0.26806855 0.46983904 -0.29311293 -0.71094775 0.45385 -0.44865802 -0.18477683 -0.5780921 -0.33101484 0.91607744 0.62411267 0.33730036 -0.44806817 -0.13931969 0.03520642 0.6954174 0.2624507 -0.22648445 0.42807582 -0.2940363 0.79578054 0.52709687 -0.46610618 -0.51629275 -0.78255844 0.19565251 -0.3767443 -0.889795 -0.42951924 -0.20710897 0.68854654 0.40540913 0.10189704 0.24627829 0.069229424 -0.13640131 -0.24069637 0.79086673 -0.41343156 -0.2591162 0.89579636 0.15976758 -0.30247173 0.7659092 0.32117692 0.21846387 -0.67066085 -0.27837205 0.720812 0.4326125 0.19783112 -0.5035535 0.47653452 0.5281951 -0.23991159 0.9379902 -0.61937904 -0.5606425 -0.062208775 0.60572886 0.34816924 -0.64937264 -0.5896806 0.6418419 0.25965104 -0.2577667 -0.79378337 0.45457882 0.14693375 0.7901121 0.33463633 0.57228696 -0.66574496 0.8546058 -0.8379175 -0.88558865 -0.46383345 0.5654101 0.15243708 0.23666693 -0.78733647 0.18013246 0.9641036 0.570635 -0.7024416 -0.55598444 0.67940426 0.7738939 -0.37436974 0.5470959 -0.11355874 -0.2651027 0.70290774 -0.38218358 -0.21487024 0.75694793 0.5012059 0.8213294 0.22755674 0.80547214 0.17618418 -0.57359916 0.063434646 -0.8619475 0.142021 0.7844177 -0.48101237 -0.013870364 0.16622017 0.08752878 0.29417768 0.0094708 0.44024724 -0.6935876 0.795887 -0.38104373 0.3552786 0.21691217 0.6227886 -0.6976838 0.5520102 -0.36580002 0.87178016 0.18786551 0.44128433 0.5194621 -0.80614245 0.4230499 0.52976656 0.30408958 0.5098195 -0.63963205 0.79243994 0.60793406 0.5834051 -0.4233631 -0.58876276 -0.80297536 -0.5439159 -0.73517627 0.012957059 0.25566876 -0.87269485 0.44051194 -0.6252421 0.56629205 0.6206466 0.35296184 0.20353255 -0.564174 0.18072091 0.08270065 -0.46322066 -0.014216546 0.072789274 -0.5407241 -0.71156466 0.21526541 -0.2073431 -0.8249317 0.41610196 0.9151836 -0.4330706 0.43103826 0.8829165 0.8509321 -0.72685564 -0.18049532 -0.1807639 0.009431738 -0.5531984 0.19823177 0.33333468 -0.33478013 0.78512365 -0.35185286 0.21214819 0.61483824 -0.47041777 -0.93964124 -0.79313123 -0.5866773 -0.8185914 -0.81374365 -0.5000225 0.2436563 -0.0636829 -0.72223115 0.9273674 -0.91084117 -0.46433648 -0.6626799 0.3474926 0.60458237 0.69884443 0.4411054 0.55620706 0.31075516 -0.50991875 -0.2311714 0.89900714 0.52373314 0.6570427 0.7493375 0.40496042 -0.2167419 -0.65058136 0.9656604 0.35431433 0.22188152 -0.49970803 -0.21372646
