-0.122851685 -0.7502358 -0.6057732 -0.13950238 -0.28458858 0.26171884 0.16681558 -0.8500897 0.72086555 0.010654776 -0.88409954 0.8121024 0.5474877 0.9261702 -0.36964148 -0.34204173 -0.284139 -0.10601076 0.29276443 0.12781838 0.29061288 -0.47871858 0.055890113 -0.06563362 0.12847482 0.28831026 0.7596693 0.28119296 0.19217639 0.2473114 -0.16340536 0.7069471 0.5757428 -0.35462725 -0.8587233 -0.48102558 -0.6253164 -0.20960578 -0.6263291 -0.24788633 0.76817364 0.30360344 0.25720358 0.43384257 -0.074245475 0.46681523 0.5334809 -0.6176981 0.8266932 -0.23284453 -0.24005684 0.19037522 -0.7114699 0.041527145 -0.15340538 0.7927932 0.26853076 -0.64705276 0.5188715 0.039891623 -0.77646405 -0.5127219 0.010929314 0.22721177 0.7220348 0.42769304 -0.23229262 -0.5974558 0.0032038167 -0.75968534 0.655032 0.023315156 0.8115662 -0.68917215 0.7742056 0.18428428 -0.029130641 0.26213935 -0.034599006 -0.68675643 -0.1582231 -0.92543656 0.71170634 -0.101812065 0.3077157 -0.033008248 -0.070246994 -0.07961648 -0.9037777 0.32794115 0.2863308 0.48286906 -0.49513286 0.5799763 -0.5375957 0.37857705 -0.64044887 -0.20710252 0.4602158 0.13771337 0.610487 0.20933932 0.15834409 -0.41331387 -0.1323688 0.41166338 0.00968108 0.26808864 -0.6536841 -0.26558223 -0.0011391137 0.3116513 -0.027816486 0.7288405 -0.12532012 -0.8459733 0.022051388 -0.58690983 -0.21576907 -0.4973413 0.07365336 -0.15685554 0.5581508 0.5059122 0.40336168 -0.6305764 0.96500736 -0.08998053 -0.49644125 -0.37888247 -0.7905336 -0.10058131 0.026942264 0.24083851 -0.02210378 0.8175631 0.32792544 0.47865295 -0.38528594 0.71286017 0.28081262 0.52808356 0.06549187 0.5422033 -0.032452594 0.1701972 0.7807233 -0.05018256 0.97786766 0.3577148 -0.047852598 -0.20085452 -0.61305505 0.7646925 -0.91195995 0.3995542 0.48645613 0.22812454 0.6331553 0.4203387 0.1294411 0.70687777 0.14266498 0.09386055 0.743878 0.38034424 -0.43440902 -0.6880903 -0.47378555 0.69345874 0.5311758 -0.117017806 -0.19023809 0.7170252 -0.1884327 0.6501724 0.42244214 -0.4729942 -0.26902395 0.30851755 0.31039882 0.23503229 0.4788414 0.049988106 -0.6483768 -0.5420668 0.48123848 0.42945248 0.62105244 0.8083292 0.5873043 0.66821164 0.83537203 -0.31730068 0.93892777 0.28989172 0.1428464 0.5605903 -0.5104331 0.44205526 -0.056882493 0.58395845 0.64819276 0.5385058 -0.5807932 0.64966273 -0.01764953 0.17154767 0.26120824 -0.5072969 0.90516526 -0.14761657 0.881341 -0.5163362 0.6010779 -0.4443872 0.021141935 -0.028968325 0.3297887 0.08606755 0.10820126 0.45075727 0.03343435 -0.08433275 -0.057083186 0.24843794 0.592581 -0.49584582 -0.6917184 0.5450834 -0.71324766 -0.018930724 0.5149074 -0.06877078 0.31827182 0.64172834 0.5428559 -0.594115 0.56608075 0.73383653 -0.80018127 0.35745367 -0.029454537 0.3557095 -0.70919675 0.7424884 -0.5487171 -0.40084374 0.57080096 0.108492166 0.8297748 0.050322138 0.0262697 -0.4606049 0.46583334 -0.72264445 0.5935937 0.38407642 -0.5430381 -0.46072587 0.33289143 0.89993787 -0.14838798 0.302667 -0.6316507 0.031649362 -0.5468444 0.3760337 0.88321525 -0.15336588 0.79039377 -0.12489966 -0.15041171 0.70161295 0.301081 0.01567866 0.8084727 0.1779239 0.6168497 0.5420109 -0.7115731 -0.12247366 -0.10064478 -0.74471796 0.03814499 0.82022434 0.026706437 0.6940749 -0.15801546 0.32729855 0.54108155 0.2927117 0.47593272 0.10645619 -0.47435206 -0.27221578 0.22411363 -0.024225948 0.65500206 -0.76551914 0.5187807 0.12875625 0.46940422 0.19479762 0.48748833 0.36772588 -0.21103509 0.6179836 0.6328392 -0.93073624 0.49922672 -0.004485704 0.7026396 -0.87509066 -0.36080277 0.058803752 -0.71289444 -0.82075906 0.25013062 0.24157053 0.6367227 -0.30586344 0.83910686 0.90670896 -0.11881165 0.40054226 -0.063031 -0.415905 -0.28516757 0.38166687 0.22608842 -0.90829074 0.4492899 -0.106631175 0.6647367 -0.311863 0.17967774 0.6462028 -0.5079294 -0.05158004 0.53019935 -0.5188153 -0.24198918 -0.60147554 -0.7834792 0.5324563 -0.61392444 0.73170054 -0.20904873 -0.19576256 -0.7651182 0.45906293 0.51202095 -0.32929933 -0.030816073 -0.16823086 -0.60451096 -0.8296754 -0.3051257 0.4581053 0.32308757 0.17739205 -0.6837681 0.4687751 -0.6646128 0.4099326 0.094292946 -0.22866915 -0.16455482 -0.27390447 -0.71856695 0.7787817 -0.41898754 -0.60353905 -0.3387542 0.07949873 -0.17160478 0.6252185 -0.44164014 0.7900055 -0.5092655 -0.44248307 0.86397266 0.03031842
-0.60633004 -0.44990915 -0.84422636 0.049022812 0.2515287 -0.78631747 0.9411915 -0.50789833 -0.7986032 -0.17391752 -0.42869058 0.42926005 0.5091164 0.88120556 -0.7658683 -0.49325678 0.276703 -0.3706343 -0.7549806 0.80258375 -0.89299786 0.4658913 -0.7152709 0.9359548 0.44087723 0.60810214 0.56450576 0.33913648 -0.81081927 0.13413557 -0.5046806 -0.4493138 -0.303692 -0.39057454 0.7489971 -0.6182985 0.66822726 -0.8987846 -0.49866873 0.63871753 0.048968602 -0.4134222 -0.43369192 0.762688 -0.16247451 0.36935988 -0.79294115 -0.9467218 0.7211157 -0.4250323 -0.88763386 -0.91186386 0.9479005 0.132207 0.38354427 -0.72579706 -0.958768 0.36390445 -0.52166754 0.42075545 -0.2893389 -0.5508444 -0.16723707 -0.11756865 0.5165696 0.7802836 0.9295507 0.8613583 -0.6108073 -0.1256055 -0.35566217 0.7338746 0.03966966 0.5120922 -0.27545488 -0.64231825 0.8175531 0.06348888 -0.534613 -0.76753724 -0.81952304 -0.74130243 -0.08851094 -0.05379667 -0.77413917 0.7815444 -0.12920722 -0.53996766 -0.9142968 -0.2780661 -0.5755083 -0.48264813 -0.29471946 0.30758366 0.8961644 -0.34717116 0.1427333 0.5467743 0.88619214 -0.54198337 -0.0622782 -0.27728605 -0.001456128 -0.6294502 -0.9175349 0.54121995 0.5412198 0.7379924 -0.91763175 -0.8108623 -0.0011899034 -0.6780061 -0.29792938 0.07438116 -0.7566902 0.64256716 0.8603942 -0.49437127 0.12535876 0.38521957 0.52296156 0.060463462 0.8539881 -0.7691992 -0.26422954 -0.16235444 -0.66968286 0.34379306 0.5858179 -0.09321535 -0.26640415 -0.8185557 -0.94461393 0.41035515 0.46870112 0.12098263 -0.21934758 0.63058746 -0.28725293 -0.8373373 -0.79428947 -0.31426674 0.47237355 0.41814867 0.9223257 0.6257431 -0.54068494 0.6213666 0.025725648 0.4308678 -0.6304785 -0.7746904 -0.7960065 0.6310671 0.41757852 -0.25042427 -0.33481547 -0.75052744 0.9067407 -0.41190442 -0.23572488 -0.7490009 0.62596536 -0.8474264 0.5845896 0.59574026 0.5229921 0.29630548 0.15267648 0.08207303 0.6217643 -0.39018247 -0.7926356 0.7141585 0.1595706 -0.32960156 0.36402705 -0.8082117 0.26725975 0.6698408 0.2366981 -0.23453392 0.5212152 -0.06250142 -0.23239276 0.062233236 -0.26237246 -0.20647044 -0.6347202 0.86689204 0.3824267 0.71164787 0.28907788 0.54595804 0.89151466 0.92695296 0.75070906 -0.91180235 0.44236565 0.736553 -0.28967533 -0.18057945 0.84789467 0.76667756 -0.83599347 0.79472536 -0.84499913 0.5916566 -0.43333578 0.93552923 0.81912255 0.5786257 -0.7132824 0.74650717 -0.49656835 0.44829375 0.93476856 -0.11069298 -0.59549594 -0.78511304 0.29632533 -0.26702994 0.3838787 0.9361392 0.41782913 -0.66866654 0.07915735 0.83740264 0.7971153 -0.6287911 -0.80570084 0.7811294 0.9382065 0.15512286 -0.5654519 -0.09484246 -0.800907 0.44605088 0.18676034 0.34666455 -0.5261954 -0.12307304 -0.072132185 -0.87008345 0.057191387 -0.5118442 -0.53138334 0.012781436 0.7705881 0.78951395 0.11471668 -0.58845085 -0.6821789 -0.67346823 0.1649237 -0.6264343 0.04931295 0.9797409 0.48747522 0.6120797 -0.041632697 -0.55968374 -0.2498542 -0.5718425 0.17959273 0.4990677 0.87891155 0.8658142 -0.6138017 -0.6882392 0.9246731 0.35790896 -0.72495747 0.39667267 -0.08939278 -0.003219881 -0.012334936 -0.48245013 0.11227998 -0.76143104 -0.29733855 0.411348 -0.9054847 0.86694175 -0.8433816 -0.6747887 -0.9178709 -0.565864 -0.36615807 0.14966531 0.34050024 -0.75928295 0.43290526 0.8338818 0.12598126 -0.58137214 0.781491 -0.88888836 -0.24835336 -0.49163657 0.6970799 0.4569097 -0.6741476 -0.20332968 0.5107626 0.76084316 -0.902983 -0.7416005 0.537689 -0.8555086 0.16940701 -0.5445863 -0.7074512 -0.89131165 -0.27359933 -0.62620586 0.51600456 -0.8395532 -0.38485435 0.7657904 -0.5585047 0.92711586 0.69444585 0.7299296 0.65468764 -0.87004495 -0.37080163 0.23063327 0.6509378 -0.20807672 -0.7224997 0.18985799 -0.8734841 0.94401526 0.704428 0.0071828756 0.6275174 -0.067167304 -0.6141706 0.0013019424 0.040125515 0.7516757 -0.5508164 -0.13866088 0.70916486 0.04154381 -0.9778018 0.434872 -0.69716436 -0.5096916 -0.7399611 0.896291 0.49235913 -0.060726956 0.32101682 -0.6391968 -0.98368573 0.8652166 -0.73617136 0.22962214 -0.056551836 -0.11198872 -0.31156608 -0.7132471 0.26879975 0.8867864 -0.059864253 0.54176116 0.4929153 0.7368684 -0.8357334 0.16335925 0.17146723 0.018434495 0.17296347 0.47938725 -0.6716133 0.86181575 0.52328575 -0.51050246 -0.123282015 0.64150715 0.85363334 -0.63300055
