-0.54210013 0.0021541119 0.43408814 -0.80506957 0.99380887 -0.19196887 -0.090800956 0.36907166 0.63091034 0.42760214 0.4338123 0.45162153 -0.22910121 -0.40662625 0.11588377 -0.6411542 0.20914522 0.6919877 -0.17296678 -0.013481438 -0.13214776 0.9751065 -0.5018911 0.9849036 -0.17937362 -0.57260793 0.58619595 -0.1476836 0.38032123 -0.8195639 -0.052387193 0.7177212 0.29315227 0.48339033 0.39136127 -0.8359119 -0.81759834 -0.8839042 -0.17829515 -0.44399077 0.43916446 -0.48661083 0.64363384 0.99079955 -0.17275298 0.11516452 -0.87604004 0.43157345 0.20476265 0.4532947 -0.8411307 -0.9739665 0.70038337 -0.17852777 0.8432257 -0.058455072 -0.12708741 -0.56892955 -0.96739566 0.8876761 0.2565797 -0.975088 -0.4100486 -0.45220536 0.9939251 0.71846145 0.38735858 0.24709609 -0.14238742 0.7719308 0.4359023 -0.28993928 -0.6651331 -0.4307843 -0.2330784 -0.97833717 0.1764915 0.79989123 -0.33611953 -0.62577575 -0.42374945 0.77349234 -0.1716523 -0.7977911 0.59541714 -0.025337078 0.9681423 0.39604586 -0.6859795 -0.0944885 -0.6548341 -0.83229804 0.12120493 0.9935323 -0.47245127 0.73166096 0.16449116 -0.5400219 0.2207434 -0.8397081 0.10813448 0.9332415 0.90007794 -0.04831636 0.40676448 -0.6907167 -0.8342254 0.24300843 -0.3947521 -0.6496105 0.1373171 0.21859083 -0.54009694 -0.13568479 -0.6330395 -0.5382819 0.51333237 0.34036162 0.86850345 0.07649925 -0.9747842 -0.92578894 -0.53927517 0.13728166 -0.10405378 0.08578938 0.99754184 0.24689054 0.45709944 0.90642476 -0.49819833 -0.53570116 -0.30443603 -0.5065963 0.009118594 0.48207045 0.8945817 0.67374647 -0.6587013 0.2120988 -0.48063678 -0.47093064 -0.13790752 -0.42420068 0.46623892 -0.18660682 0.61516845 0.77041864 0.5315597 -0.32418877 -0.36949182 -0.4431852 -0.7982036 0.9067019 -0.8851899 0.12461452 -0.9401737 -0.44116274 -0.97334313 -0.020037629 0.9185629 -0.9032696 0.9540576 -0.14134142 0.19638997 0.4356305 -0.6255696 0.23506093 -0.4966772 -0.018948585 0.83893716 -0.42376703 0.13547681 0.40589058 0.44568503 -0.4255564 -0.27309647 -0.14974606 -0.286926 0.3456539 0.23649865 0.48344678 0.06009713 -0.10458106 0.3357182 0.47975793 -0.9858229 0.32379586 -0.8601371 0.54489547 -0.35788727 -0.431914 0.3563907 -0.24186724 0.4378843 0.117174864 -0.47044924 -0.4224407 -0.36426508 -0.606585 -0.41561773 0.37166807 0.9474324 0.9462121 -0.97781754 -0.63392437 0.5667505 -0.33037168 0.16480568 0.47111106 0.6765635 -0.16735867 0.035639524 0.329522 -0.37402147 -0.83813 -0.5911272 -0.3286336 -0.38715506 0.012765855 0.6972345 0.4402684 -0.021674335 0.9191101 0.5336089 0.4397133 0.5081124 0.9818038 -0.44293368 -0.3042037 0.27954835 -0.25580788 0.00570035 0.121742755 0.2173505 0.425193 -0.27530068 0.37739038 -0.49507558 0.9817929 -0.82372415 0.8875631 0.435661 0.9919725 -0.9302037 0.94434226 -0.6259854 0.44935563 0.43942395 0.5851322 -0.44416997 -0.9152839 -0.7358278 -0.6986177 0.5110053 0.09081581 -0.77526176 0.5458305 0.32756254 0.43561366 0.5173269 0.4180254 0.4302508 0.10276988 0.9163083 -0.48951778 0.5157559 0.9164443 0.5451462 0.80804425 -0.48933285 0.4821349 -0.5076576 -0.38345313 -0.76916176 0.84378207 -0.4445891 -0.5089915 -0.86035335 0.41287386 -0.73882174 0.6419625 -0.44821 0.25424588 -0.413179 -0.857504 0.33127275 -0.48859397 -0.46405458 -0.8748188 0.45080015 -0.47999462 0.6733103 0.49487558 0.48015597 -0.4717009 0.43395066 0.43234375 -0.41447166 0.45330963 -0.4222393 -0.5341598 0.23929939 -0.43464386 0.5947575 0.3997174 0.99682444 -0.3860306 0.95758706 -0.41355547 0.31262285 -0.93374765 -0.6470369 -0.83861864 0.007982766 0.032956988 -0.981144 -0.5708719 0.08295593 0.82953537 -0.82450604 -0.35706162 -0.19593549 -0.45478067 -0.38975558 0.04220611 0.0556843 -0.99576366 -0.49623942 -0.33744022 0.9446638 -0.9745252 -0.47522414 0.66121614 0.40484074 0.5897902 -0.0879685 0.6451397 0.21947464 0.022037178 -0.43692425 -0.09708646 0.7604715 0.9554374 0.97904587 0.961455 -0.5783272 0.15984078 -0.08557737 0.95237994 0.28422022 -0.9685139 0.7627938 0.48434636 0.024881244 -0.19416046 0.43639463 0.5354914 0.8853723 0.28634253 0.44012958 -0.95123065 0.8451728 -0.32603973 -0.77394634 -0.43156463 -0.4523778 -0.9279087 0.4777395 -0.9330379 0.30720383 0.3544785 0.9427456 0.43491337 0.20243031 0.95998544 0.3684424 -0.50421333 -0.54978466 0.6978893 -0.4936566 -0.41401285 0.08884564 0.27065882
-0.9480731 -0.99654174 0.7759467 0.6855147 -0.99755514 -0.32028806 0.03294751 0.31275713 -0.99365824 0.8171778 -0.98638153 0.9437406 0.72436816 0.8501599 0.42172405 -0.39650857 -0.99703 -0.8226415 -0.9189783 0.08194044 0.9971657 -0.738136 0.37190855 0.5443347 -0.97293305 0.26425245 -0.35835215 -0.9768435 -0.8980122 -0.26350942 0.9858167 -0.6858653 0.76998335 0.34467193 0.78954107 -0.9645417 -0.9973166 -0.9886733 -0.3689532 0.9254923 0.36987132 -0.35825178 0.98257923 0.3718843 -0.9237174 -0.47999778 0.7003144 -0.16748938 -0.22299977 0.04943785 0.45108876 0.3132702 0.25778562 0.29505673 -0.9820708 -0.2852887 -0.9893424 -0.56322056 -0.37273172 -0.81730026 0.74696577 -0.8608179 -0.39842647 -0.99762297 0.9975215 0.6488928 -0.9954264 0.15090275 0.2367561 0.37402672 0.38054132 0.8599473 0.9773763 0.31545097 0.02276647 0.94140065 0.4471823 -0.40143532 -0.6455656 -0.06538765 -0.85149634 -0.16497636 -0.5796416 -0.5437739 -0.7567873 -0.41792074 0.9607585 0.43750584 -0.5366933 -0.4138843 0.4762013 0.72423 -0.9364938 -0.38203174 0.3400059 0.9854647 0.20232806 0.27543464 -0.9851408 -0.9313057 -0.7759856 0.08640483 0.604124 -0.43385762 -0.9993847 -0.3428805 -0.54877377 -0.17309809 -0.36781693 -0.999052 -0.9326072 0.66358984 -0.98930556 -0.39792013 0.9574226 0.43448097 0.17305875 0.8922826 -0.2409755 -0.97233343 -0.99898785 0.40149844 -0.36204132 0.28383583 0.9861654 -0.04280609 0.3967176 0.38451833 0.34240544 0.99634105 0.88397574 0.3666575 -0.9966047 -0.93834007 0.48207018 -0.72672904 0.4656483 0.9945684 0.43709952 0.87838864 -0.873657 -0.3429243 -0.8690529 -0.10636449 0.9814118 -0.33809137 -0.56686366 0.029068768 0.4072667 0.72152793 0.40230393 -0.24121392 0.8245375 -0.8325517 -0.99548566 0.8088983 0.81989336 -0.7433487 -0.64090544 -0.7000906 0.98860276 -0.83125985 -0.9942465 0.2944967 0.7299608 0.64857066 0.8056617 0.9845082 0.48138383 0.07976982 -0.9621304 -0.33877867 0.15891029 0.95899534 0.9957371 -0.22760665 0.6279831 0.36010057 -0.36766136 0.45117205 -0.9688828 -0.99877524 0.04218653 -0.96807784 0.86084116 0.9739567 -0.9995874 -0.9915838 -0.47023535 0.94289374 -0.9576151 -0.3967993 -0.99780595 -0.99009633 0.5755491 0.98335314 -0.6342745 -0.9460201 -0.36773488 0.05477026 0.49214283 0.9033183 0.21027929 0.9996309 -0.79638475 0.88609064 0.8042842 0.9992854 -0.27771696 0.8063359 0.3626258 -0.71002007 0.057305574 -0.18807632 0.118877664 0.1741255 0.99781716 0.9630164 -0.92870605 0.18356133 0.5906508 0.3637089 0.9098916 0.418561 0.7977828 -0.9387227 0.3665249 0.99760056 0.9877505 -0.89661884 0.73659 -0.99392116 0.32874215 0.99192274 0.9891448 -0.93585545 0.5315456 0.07533017 -0.96975255 -0.7388514 -0.9580846 -0.3406304 0.3642564 -0.28782827 0.41358307 0.93000877 -0.4822211 0.37375465 -0.7815379 0.31369996 -0.53117967 0.9988371 -0.45805717 0.16012564 0.36403158 -0.9909036 0.26584786 -0.24147284 -0.69814014 -0.9917666 0.046279624 0.434476 0.5548537 0.37830657 0.7960096 -0.39283592 0.87568724 0.0028104037 0.23127875 -0.99909997 -0.99449444 -0.9458542 0.78831494 -0.9927515 -0.84449637 0.2969663 -0.93241 -0.61116266 0.14865452 0.67312586 -0.30586994 0.30961755 -0.8777579 0.9451356 0.84153646 -0.6536937 0.99479604 -0.97353476 -0.3646014 0.58244145 0.21909489 0.94602704 0.97752285 0.35863385 -0.7703605 0.96823895 0.1976055 0.9680357 -0.9703922 0.9967747 -0.8007952 -0.742695 0.54823154 -0.60927975 0.9838793 -0.5883813 0.3988185 -0.3759519 0.61990017 -0.9408867 0.63193643 -0.7999786 -0.93333757 0.120964944 0.06910047 -0.20827577 0.4513582 -0.9992191 0.8972314 0.07720545 0.1932309 0.3931238 0.99852955 -0.15975572 0.7123158 -0.09577826 -0.00056034327 0.9298276 0.99852407 0.78261185 0.6738955 -0.13926125 0.45819834 -0.36373806 -0.45657587 0.83582115 -0.3320507 0.9237039 -0.30914792 -0.9972451 -0.6429391 0.5130444 0.9836 0.4470706 0.9894996 0.4812335 -0.41150415 0.5145791 -0.8692938 -0.356603 0.20474294 0.28109744 0.24416013 0.87894845 -0.75227195 -0.25625992 0.38183838 0.21433716 0.4056114 -0.8458523 -0.7556881 0.6816871 -0.9484778 0.7384708 0.64815646 0.9507462 -0.3665876 -0.9775887 0.09136602 0.95676446 -0.7843491 -0.34335968 0.25853202 0.31048203 0.9686413 0.75967777 0.99180365 0.8625449 -0.22566977 0.9752819 -0.3063032 0.98161083 0.8195722 -0.7251657
