-0.059982277 -0.7369757 0.44138372 -0.377753 0.6430744 0.38266507 -0.48195392 0.6762391 0.418947 0.013494855 -0.14737323 0.5514544 -0.1883513 0.960899 0.05836556 0.30266884 0.79396963 0.46013147 0.55321 0.8412624 0.15905994 0.5640131 -0.95273393 0.90431327 0.9575583 -0.92271435 0.9841303 0.15278529 -0.30937284 -0.48021257 -0.6672677 0.93739367 0.21655723 0.885475 -0.4461537 -0.9170593 -0.9564182 -0.624224 -0.94038165 0.26168388 -0.22396605 0.6397991 0.31063807 0.8389397 -0.116884075 -0.37835428 -0.824033 0.04510788 -0.33872402 0.09840202 -0.86756694 -0.96406126 0.14287037 -0.49313712 0.97278535 0.31561002 -0.6463088 -0.15141451 -0.8592394 0.98126525 -0.7751433 -0.11912009 -0.0074804537 0.63860035 0.55532116 0.87275505 -0.22441803 -0.3092317 0.0147591755 0.8926985 0.27895764 -0.5820216 -0.7107149 0.8439881 -0.017005324 -0.31951356 -0.103557795 0.64458096 0.14413147 0.58729595 -0.7916496 0.6979187 -0.31996426 0.945687 0.26253554 0.10440695 0.28329712 -0.75407916 0.22863086 -0.36504263 -0.43711883 -0.79024714 0.25446498 0.84113836 -0.3405262 0.39637744 0.9070276 0.26434696 0.02604372 -0.27065778 0.37292066 -0.2638835 0.9409761 0.27088684 0.2568786 0.44787392 -0.6190501 -0.95916986 -0.10171773 0.23761502 0.8716857 -0.36522925 0.6519654 -0.86746585 -0.1755431 -0.5224114 0.8591228 0.86819774 0.06162604 0.8191688 -0.611661 -0.45904297 -0.7976066 -0.31969327 -0.47795856 -0.7543492 0.97045 0.6357395 0.6192205 0.7880293 -0.7878639 0.031525485 0.461681 0.6149977 -0.82399386 0.23765998 0.76657677 0.7649764 -0.5979896 -0.3755148 0.12563674 -0.459349 0.3200597 -0.6380138 0.8785163 0.24871597 0.7692734 0.79425776 0.30246 -0.397749 -0.7240331 0.26420173 -0.7544206 0.9205727 -0.44899076 0.50767195 -0.8842986 -0.70941806 -0.9382079 -0.021208666 -0.1924611 -0.53493774 0.35353756 -0.2836198 -0.8071344 0.68869865 -0.78052485 0.6712343 0.13869618 -0.6419833 0.051547013 -0.71762764 -0.67288303 0.33000976 0.5484739 -0.55152655 0.35702437 -0.4444731 0.6618108 -0.6763585 -0.3069953 0.7587956 -0.39854681 0.6213864 -0.5571292 0.34788692 0.74527395 0.41531038 0.7328798 0.39594167 0.23624074 0.40661412 0.5539785 0.47197616 0.57375693 -0.7685606 -0.5866971 -0.12717299 -0.8216044 -0.8090432 -0.28500992 -0.1868649 0.8238361 0.92687625 -0.798758 -0.123327464 -0.64722574 0.61670595 -0.03311907 0.8935146 0.7887736 0.3169317 0.0986029 -0.6497134 0.78298295 0.3085378 -0.28918147 -0.38711423 -0.36833334 -0.0029088333 -0.038260367 -0.26934567 -0.7682787 0.7323352 -0.14702414 0.93402976 -0.2647038 -0.3684612 -0.87999713 -0.27104822 -0.6498972 0.2814343 -0.059478406 0.38558942 -0.2910089 0.7158199 0.25232655 -0.16773164 -0.45893413 0.883541 -0.66357446 0.667169 -0.8239269 0.30922467 -0.8335628 0.8058582 -0.60103256 -0.9641794 -0.046053343 -0.19624649 0.837396 0.7397294 -0.4681266 -0.2491956 0.4666314 0.11441744 -0.2505669 -0.72044104 -0.033455655 0.5137879 0.1518068 0.4483586 -0.66609305 -0.4529664 -0.07166412 -0.3530434 0.1844497 -0.12112977 0.8935261 0.4429513 -0.83676445 -0.13624218 -0.5886076 0.7936882 0.41771513 0.22782928 -0.82814205 0.7037984 -0.31089434 -0.6257022 -0.8587841 -0.12113776 -0.85752386 -0.055277906 0.5981499 0.69393504 0.5530844 -0.21465193 -0.858398 -0.8666329 0.3895462 -0.41592187 0.3905226 0.12986247 0.7890348 -0.91052186 -0.887236 -0.053444505 -0.19521861 0.34853214 -0.5330381 -0.30179396 -0.020380765 -0.77895796 0.48714918 0.6547913 0.6936248 0.669377 0.20124887 -0.7539383 -0.90211856 -0.32471344 0.9749089 -0.6154587 -0.80283684 -0.08318689 0.82896763 -0.5199986 0.7759627 0.82603705 -0.8594031 -0.86979145 -0.33222234 -0.29585183 0.24958514 0.79486275 -0.15207112 -0.9373656 -0.3897542 -0.61189324 0.8390697 -0.25333682 -0.61452967 0.72911656 0.9062203 0.054174528 0.4123051 0.9271075 0.5088164 -0.5817728 -0.9101414 0.16349435 0.7283042 0.030484647 -0.42421362 0.40674883 -0.33933544 -0.66660243 -0.6000191 0.98452806 0.16427627 -0.95460886 0.2655557 0.5700018 -0.0069743134 -0.55317557 -0.065466195 -0.57172674 0.90105766 -0.6552883 0.4544522 -0.64700603 0.68249965 -0.19751973 -0.70896643 -0.6954813 -0.22651051 -0.6573147 0.81288934 -0.6740609 -0.67959327 0.25899956 0.12539107 -0.21819785 -0.4002755 0.9063439 0.13305867 0.27896082 -0.91169745 0.77251697 -0.62960917 -0.7080482 0.13961747 -0.05211684
0.37689456 -0.5582455 -0.037084877 0.5713947 0.57074296 0.02907132 0.27636063 0.4162489 0.6130812 -0.22575083 0.18392897 0.20786431 -0.21491665 -0.045692973 0.5801601 0.8200493 0.8277457 0.9159287 0.48577562 0.31779757 0.3908487 -0.086867005 -0.63865745 0.9446839 0.91444945 -0.3100028 0.55813557 -0.31472307 0.15844613 -0.1531899 -0.16596286 0.5466559 -0.7323574 -0.049104076 -0.866686 -0.98202634 -0.38938606 0.12165797 -0.7273182 -0.031306826 -0.37868804 -0.46013415 0.7213468 0.6199361 -0.35033306 -0.05274981 0.19328126 0.39538085 0.32843715 -0.4064246 -0.33732098 -0.8711495 0.43461826 -0.60630316 0.7501327 -0.184333 -0.30525175 -0.28354508 -0.5175682 0.9962431 -0.78269684 0.039559275 0.29864073 0.5353716 0.40075076 0.973209 -0.55485994 -0.2390972 0.8673844 0.6348557 -0.8358634 0.88505256 0.13790366 0.27790064 0.16275558 -0.7781629 0.42245117 0.71547866 -0.14472002 0.42440265 -0.079199485 0.9408266 -0.5881239 0.5503999 0.34741578 0.27450627 -0.23803356 -0.31300485 0.45898783 -0.04514219 -0.35685956 -0.8616653 -0.1833365 0.6163031 -0.69490135 0.89060694 0.8817259 -0.3753394 -0.16414304 -0.56184524 -0.075851746 -0.52629507 0.6600223 -0.39298412 -0.5929558 -0.2419303 -0.5613471 -0.9500666 -0.46295705 -0.37298444 -0.41515428 0.32746595 -0.120457724 -0.91285056 0.55759287 -0.09147541 0.42273146 0.23277801 0.5507165 0.27035713 -0.05531156 -0.52187586 -0.3864159 -0.18937413 0.047767527 -0.49773955 0.9870893 0.5605348 0.698661 0.98300576 -0.8886178 -0.6789514 0.39078638 0.091157705 -0.37773743 0.9111907 0.87544715 0.8627724 0.18127818 0.16831778 -0.8611534 -0.48869842 0.24985725 -0.7984438 0.25380537 -0.5225536 -0.11286349 0.0076597854 0.62217623 -0.16911897 -0.86598945 -0.300489 -0.9628151 -0.0758162 -0.045944892 0.29500324 -0.77859503 0.111885376 -0.9401046 -0.34990355 0.005459197 -0.6805218 0.21335818 0.40829265 -0.9593867 0.08609092 -0.020998895 0.69635355 0.05998656 -0.31680495 0.17330346 -0.6083423 -0.7982 0.849067 0.5286019 -0.07951234 0.36211145 -0.8680591 -0.06206484 -0.77471983 -0.52933276 0.21105212 0.043459915 0.42091632 0.80147475 0.47163272 -0.5573151 0.955742 0.3088083 0.67914987 -0.7370142 -0.28894466 0.4612744 0.18769622 -0.45613524 -0.22594976 -0.84128004 0.18404126 -0.40002626 -0.032645255 -0.36751604 0.35251665 0.7828583 0.869992 -0.32783338 -0.14511448 -0.2451022 0.74660164 0.058271408 0.39910623 0.5462409 0.08056663 0.1186082 -0.4274381 0.7245326 -0.36717868 -0.9000741 -0.50967795 -0.70761794 0.195617 0.115025215 0.31847715 -0.7050792 -0.40334535 -0.21721886 0.98704386 0.4496617 -0.12263384 -0.41484103 0.20608571 0.12610078 0.5365048 0.1908536 0.1705538 0.5668001 0.20578404 -0.092156544 0.6094541 0.69253796 0.34785965 -0.83304894 0.8295936 -0.6009228 0.59799445 -0.96390957 0.5312072 -0.109599695 -0.94408995 0.56655204 0.83462 0.83893365 0.62120944 0.8581967 -0.23183206 -0.17688556 0.9695778 0.6142811 -0.8816397 0.43006095 -0.1659033 -0.395875 -0.018563189 0.46516228 0.3356624 -0.63532704 -0.90517634 0.111750655 0.34537685 0.6354378 0.6946777 -0.5334061 0.9090687 -0.289246 0.032726303 -0.10625121 0.64795804 -0.6287677 0.59214604 -0.24019226 -0.7692482 -0.9371662 -0.5202378 -0.91289246 -0.49404997 -0.42010763 0.77002776 0.73103964 0.53879493 -0.26354793 0.09717517 -0.22955759 -0.68301916 0.5360974 0.89795625 -0.27299264 -0.5604484 0.053765923 -0.5608678 -0.37717903 0.31813884 0.06397574 -0.414034 -0.31635457 -0.50676525 0.07264437 0.52676415 0.904656 0.3667212 0.24560797 0.069364436 -0.83363223 0.7525596 0.63684356 -0.4683155 -0.7303351 0.18128633 0.36049455 -0.54352313 0.38060796 0.46556747 -0.4639295 -0.38564372 -0.8702434 -0.52871525 0.2816028 0.80850613 -0.2308217 -0.5306261 -0.9402261 0.0011731386 0.6931594 -0.7178713 -0.46166196 0.2821531 0.17586586 -0.228535 0.69607544 0.5183002 -0.75835294 -0.6721808 -0.14533755 0.684571 0.58209544 -0.08842643 -0.6116637 0.48796725 0.3156763 -0.908116 0.21362741 0.7318453 0.25085458 -0.8906442 0.3081896 -0.5626933 0.42492777 -0.13061778 -0.7642955 0.14663638 0.8308237 -0.5882864 0.35798487 -0.37721935 0.42303014 -0.14227596 -0.033595078 -0.13506947 -0.5619535 -0.49196574 -0.62844825 -0.3607576 -0.45156875 0.5531602 0.2753788 -0.42883775 0.2542288 0.43198103 0.2791979 -0.5447342 -0.69137716 0.38383973 -0.68737894 -0.8676306 0.27602735 -0.4103952
-0.027506515 -0.08855445 -0.9746853 -0.3731819 0.49563962 -0.9013062 0.56115407 0.73285645 0.8450226 0.39795303 0.1212035 0.6204723 -0.3193283 -0.016909713 0.80504864 -0.48316455 0.580764 0.94868225 0.7877912 0.78852063 0.26137593 -0.16351081 -0.3322802 0.72320694 0.3554345 -0.3502596 0.41303992 -0.24252121 -0.11614058 -0.75781393 -0.3482229 -0.29656664 -0.6213457 0.17067821 0.8232512 -0.77364564 -0.37920982 0.30994746 0.07995183 -0.17966373 0.031208364 -0.6120319 0.80581933 0.42265075 -0.019112786 -0.0017795949 -0.059774786 -0.4074101 0.17249101 -0.22708537 -0.106694005 -0.8345872 0.5908585 -0.9853069 0.62741876 -0.031416215 -0.8322082 -0.5976199 -0.26265147 0.9906941 -0.9344644 0.40316215 -0.07880041 0.2011075 0.9085302 0.9557148 -0.79663473 0.40368852 0.49310172 0.5872902 0.6464824 0.41827157 0.61670756 -0.074398205 -0.65611655 -0.7452878 0.39855024 0.5970602 0.35024557 0.87137705 0.0718887 0.9888171 -0.1496816 -0.8705615 -0.0036336114 0.51538813 0.8849967 -0.18697253 0.1844813 0.13213207 -0.29973817 -0.91091955 -0.7616013 0.21840797 -0.8129382 0.44202086 0.6000724 -0.6057109 -0.23248672 -0.007981157 -0.6131586 -0.86386436 0.7711417 -0.87820035 -0.26619175 -0.9599388 -0.73021865 -0.8077592 -0.50628334 0.09051612 -0.27903438 0.44044372 -0.24603093 -0.3668045 0.40612254 -0.63635397 0.68246543 -0.17572749 0.37037942 0.1278399 -0.94003654 -0.21801247 0.2525345 -0.40396625 0.013530912 -0.50078815 0.9522635 0.11412189 0.7976328 0.9300656 -0.7382854 -0.69663614 -0.36862567 0.18022268 0.6202247 0.99462295 -0.23258892 0.6267562 0.44949204 0.23348588 -0.97875863 -0.6981957 0.1744076 -0.29565492 0.078197785 -0.15545851 -0.40837693 0.054920472 0.8712978 0.21295978 -0.4113944 -0.6270117 -0.99483585 -0.49910253 0.82730925 0.7484175 -0.9130503 -0.5664544 -0.2443557 -0.41816083 0.8839819 -0.85709625 -0.21068458 -0.20273985 0.69295174 0.07800079 0.13945104 0.99288046 -0.7166613 -0.10301375 -0.13671434 -0.39539292 -0.92515373 0.8037259 0.83630306 -0.46155512 0.022786198 -0.1151849 -0.65859884 -0.08993774 -0.8383408 0.76606584 0.7005535 0.75126606 0.57305866 0.09423975 -0.9209043 0.43477112 -0.19786924 0.7553477 -0.36311445 -0.5739103 0.28777444 -0.65135556 -0.5139332 -0.032294113 -0.9189443 0.07912192 -0.4827731 0.119642004 -0.25517568 0.7973032 0.4691908 0.7800797 0.26891425 0.06352028 -0.036964804 0.28269663 -0.053716894 0.8578601 0.34258857 0.105394006 0.5366542 0.70284706 -0.14802954 -0.11470847 -0.92407185 0.764432 -0.14385298 -0.09363167 -0.32587498 0.12559676 -0.9087176 -0.7997044 0.41947865 0.99733293 0.10104808 0.8233938 -0.36748198 -0.21321967 0.2804034 -0.49409345 0.9464691 -0.5046019 0.64849085 0.29651448 -0.25011972 0.3710441 0.5685551 0.16487488 -0.9133641 0.7451097 -0.1819297 0.27166378 -0.9821995 0.13088311 -0.77494323 -0.10106665 -0.19634667 0.62747276 0.086200155 0.23583002 -0.68308854 -0.5900355 0.7749254 0.99700797 0.65273243 -0.07232783 0.007812943 -0.7370745 -0.96256703 -0.14704144 0.76684254 -0.40579253 -0.04270736 -0.27702284 0.17571539 0.4537209 0.17367479 0.28269202 -0.85441405 0.95812744 0.34196094 -0.34992218 -0.75164574 0.08679837 -0.83537257 -0.022301361 -0.13113016 0.16383521 -0.74450254 0.4307279 -0.8294269 -0.44239417 -0.81426495 -0.6604771 0.94319427 0.18518639 -0.03585144 0.6113931 0.8647245 -0.630149 0.49822217 0.94248843 0.47282937 -0.76860714 0.94959337 -0.10045849 -0.045076247 0.66790885 -0.03317051 -0.42025012 0.8004181 -0.2754449 0.9513428 0.011799593 0.98733556 -0.44577667 0.0011812067 0.019318363 0.18631496 0.9353148 -0.55634874 -0.75310266 -0.87226355 -0.13746071 -0.792696 -0.9675294 0.63083416 0.634578 -0.17486167 0.41145584 -0.40110993 0.38120177 0.713218 0.5601739 0.1662353 -0.57126987 -0.6028577 -0.08857327 -0.07017953 -0.9300972 -0.79576975 0.8856981 0.14806664 0.74548507 0.9041146 0.07744492 -0.38520902 -0.89820045 0.4827661 0.111243844 0.06915097 0.5381291 0.7961815 0.5634551 0.5398968 -0.8355074 -0.0012427694 0.78500676 0.46488237 -0.77383876 0.9269515 0.24644887 0.76043504 0.66047037 -0.960393 -0.15968196 0.90995854 -0.46301088 0.35839316 -0.00030978653 0.26292086 0.70098484 0.13645199 -0.117418796 0.16547093 0.092974715 0.45867792 0.34533843 -0.2266431 -0.06711194 0.7286725 -0.1850265 0.13108502 0.47406834 0.118681975 -0.19706173 -0.9199628 0.36205357 -0.29875323 -0.9332122 -0.32079476 -0.22064479
-0.1202817 0.17950368 -0.06036169 0.35899207 -0.9302369 -0.3876091 0.29653594 0.633784 0.5524263 0.2981131 -0.4282147 -0.0639196 -0.60093004 0.49393168 0.382325 -0.3901238 -0.3735827 0.2171631 0.25617102 0.0939014 0.06214485 -0.46888345 0.38650566 0.124275886 0.44599718 -0.40146717 0.39315212 0.09398863 -0.3282611 0.35109425 -0.0062956363 -0.14762273 0.60276484 -0.6945045 -0.44010147 -0.055742636 -0.5583321 -0.41243207 0.17619464 0.25997636 0.2894442 0.34726846 0.13173291 0.31210965 -0.29331756 0.2630651 0.2040542 0.66980475 0.024764247 0.60156393 -0.35998246 0.5508056 0.4478519 -0.06993315 -0.33083597 -0.1047326 -0.36327118 0.45072374 -0.4029946 0.19697082 -0.26793554 -0.21342522 -0.090248026 -0.26263198 -0.42231885 0.01168894 0.104036756 0.26331487 0.4392457 -0.16184705 -0.8726105 -0.4320539 0.64840853 0.07752437 -0.4834435 -0.3393952 -0.30268133 0.4067547 0.6082305 0.5004387 -0.1138941 0.19592866 -0.14343967 -0.14518584 -0.13949408 -0.8295983 0.9004346 -0.15354718 0.21695367 -0.5598155 -0.03973139 0.1320115 -0.1351901 -0.5147624 -0.4801195 0.993995 -0.03640305 -0.1575502 -0.66945845 0.122475006 0.37618276 0.058872852 -0.3422774 0.07844745 0.0013483395 -0.3073841 0.029341104 0.40584236 -0.42803806 0.0026818102 0.13358787 -0.445986 -0.024373293 -0.73733264 -0.24031119 0.82671237 -0.61949635 0.4466876 -0.4220586 0.042699914 -0.6142347 0.29249105 -0.3153937 -0.4547829 0.6184081 -0.5324185 0.16700172 0.79121715 0.38773364 -0.15070449 -0.19399107 0.35450312 -0.27595127 -0.82514346 -0.43169552 -0.5093068 0.4202611 0.6902339 0.059995156 -0.23103756 0.07766308 -0.12926853 0.082219325 -0.27604276 -0.16891861 0.4789991 0.4717327 0.046871573 0.071569026 -0.39163655 0.094013765 -0.46027675 0.43065235 0.0031571244 -0.13725424 0.4450034 0.50483704 0.7177564 0.129498 0.12622166 0.57605904 0.00054796174 -0.2603246 -0.040776864 -0.5181825 -0.3146049 -0.15794066 0.19765148 -0.03390562 0.6195343 -0.17480929 0.28666416 -0.72980344 0.53767514 0.98961985 0.17301288 -0.42904776 0.07455257 -0.49910057 0.66857344 0.46719092 0.12200328 -0.31265652 -0.79432374 0.82607657 0.3107681 -0.48507375 -0.58221185 0.04666943 0.086903036 -0.42145622 -0.020912277 -0.7174191 -0.947759 0.061596025 -0.13002743 0.06281817 -0.107019305 -0.3588282 0.7777418 0.8425387 -0.5121301 0.4692035 -0.44939485 0.7369303 -0.7093868 0.392228 0.6352704 0.2725157 -0.01601441 -0.57613504 -0.4723819 0.7202805 0.42603987 0.23660754 0.24917597 -0.06415652 0.72053295 -0.26265135 -0.41328493 -0.14349996 -0.22353995 -0.0960199 -0.21284458 -0.16770864 0.08096253 -0.5047901 0.7988377 -0.43606323 -0.36240795 -0.082451046 -0.9279185 0.19595183 0.7357766 -0.18759179 -0.013367601 0.36698046 -0.14121012 -0.4965318 -0.2601261 -0.78983283 0.6905118 0.63103 -0.41484728 -0.37390092 0.35085723 -0.22772041 -0.8094874 0.28597894 0.23607953 0.18318288 0.1540846 -0.40999633 -0.33657748 0.54817975 -0.8684551 0.05624909 -0.36165315 -0.1448892 -0.062202334 0.31411147 -0.08841178 0.1358074 0.887597 -0.20496911 -0.008927715 -0.4837493 0.5183195 0.7685611 -0.47249463 -0.40054724 0.06572586 0.4125957 -0.26110613 -0.88395506 -0.5393201 -0.21600045 0.14676625 0.600683 0.04164915 -0.1071801 0.5746199 0.4423798 0.031708762 -0.16689724 -0.63930345 0.24665123 0.09707977 -0.17489912 -0.3066876 0.82309186 -0.22599788 -0.41391578 0.39001727 0.467218 -0.3253493 -0.37693658 0.07731558 -0.73153126 0.23875238 0.3321821 0.051907416 0.23436746 -0.36847058 0.48942348 -0.30144137 0.5682207 -0.14213678 0.22257768 -0.17817019 -0.12228887 0.09224271 0.178529 0.34627262 -0.5472836 0.31192586 -0.47505036 0.35077327 0.072119296 -0.059980147 0.24912381 0.29102495 0.2753619 -0.68715787 -0.34747654 -0.19434297 -0.6342156 -0.19943845 -0.1844187 0.1038562 -0.40588966 -0.094171226 -0.356276 0.3561686 0.20533437 -0.39526966 0.4412645 0.58185124 -0.4677003 -0.37103564 0.064476736 -0.040377077 0.20719229 -0.32311475 0.536884 -0.55607307 0.3269431 0.13621534 -0.23565403 0.5318168 -0.54942995 0.15821093 0.020215264 -0.04724881 -0.68163973 0.21093988 0.11844432 0.38087037 0.7426573 0.3430203 -0.4058384 0.63207346 0.3146203 0.16941534 -0.02348961 0.84545785 0.54209846 0.6223522 0.48245814 -0.23706326 -0.59229296 -0.16597974 0.5474385 0.90837026 -0.20735388 -0.72663236 -0.25309348 0.5109218 0.29148164 -0.09301684 -0.19664986 -0.27422512 0.04728954 0.12783445
