0.276663 -0.10142175 0.29553217 -0.8583008 -0.1185664 0.2159724 0.33196002 -0.31347805 0.1813958 -0.23770216 0.13311507 -0.2207736 0.008074507 0.07062009 -0.026584981 -0.09101069 -0.3560876 -0.074176006 0.10991149 -0.12736715 -0.49483046 0.2825387 -0.26920855 -0.16473056 0.5216955 0.5479273 0.232555 -0.07844083 0.042558625 0.68026537 -0.48993865 0.04862755 0.74821603 -0.42476964 -0.36633486 0.7331429 -0.021542655 0.22920123 0.140692 0.013419249 -0.30806556 0.4083744 0.096373804 0.09904075 0.39192566 0.09713854 0.05046683 0.48444235 0.28215978 -0.5655487 -0.31853008 0.17843102 -0.0014960057 0.19329342 0.59721255 0.02484436 -0.6103878 -0.6120653 0.24279748 0.12810464 -0.28745008 0.7143498 0.80566245 0.55530596 -0.24463573 -0.44591612 0.29499304 0.1750822 -0.14967155 -0.066987395 0.56714964 0.2860776 0.7559258 0.5410579 0.3202889 -0.1309768 -0.18822232 -0.11207511 0.18146577 -0.19055104 0.25181216 -0.6905816 0.41294348 0.58444643 -0.11337507 -0.043451883 -0.28042462 -0.6979011 0.46512863 0.103747554 -0.062161967 -0.7434736 0.15670548 -0.049222015 -0.19489986 0.2978924 -0.40412143 0.6275653 0.6418181 0.05778107 0.4168768 -0.025750104 0.5966133 0.243737 0.060602773 0.30311337 0.12778525 0.5256891 0.28048328 0.30916086 0.33641773 -0.37276223 -0.18098731 0.16575652 -0.04115604 -0.14296702 0.12682107 -0.3912981 -0.32173526 0.47816864 0.21174544 -0.13177519 0.22371565 0.2515867 -0.61499566 -0.3944494 -0.08191111 -0.7178582 0.42724472 -0.74368334 -0.3133203 0.5073658 0.71374 0.03850624 -0.6155345 0.17046167 0.06527019 -0.49209887 0.29057488 0.3406922 0.4095145 0.35991082 -0.10248692 -0.3740388 -0.6347434 0.25235033 0.65309817 0.22773367 0.08065183 0.09378471 -0.042912066 -0.13715605 0.4410995 0.47571763 -0.640941 -0.14114054 0.055461008 -0.3832963 -0.3919939 0.20776893 -0.8064862 0.07439837 0.5602199 -0.34378532 0.68877274 0.36349863 -0.8246882 -0.23127459 -0.60632175 -0.67631227 -0.09246353 0.06890748 0.06924725 -0.45333895 -0.36953443 0.39033234 0.1260397 -0.000992381 0.118957415 -0.4299043 -0.3718807 -0.022593113 0.0130347125 -0.14061971 -0.06221621 0.31878623 0.50600296 -0.077025175 0.69896114 -0.44896576 -0.44768614 -0.10750638 0.4015684 0.29795086 0.67057997 0.17093018 0.49995103 0.22199398 -0.38849038 0.30402553 -0.31467554 0.60584337 0.24694158 0.7107764 -0.3175303 -0.17961872 -0.38670418 -0.83388394 -0.12358222 0.31292015 0.32320407 0.28626326 0.4949646 -0.5075113 -0.116961256 -0.05054797 0.42769924 0.03003209 -0.5159654 -0.3953283 -0.4516398 -0.16073516 0.0043589594 0.008730389 -0.6921154 -0.50517184 0.26200476 -0.7924344 -0.25136894 0.5846247 -0.53814584 0.6194672 0.1425707 0.48397663 -0.40184617 0.13702904 -0.44803798 -0.5381576 0.3565143 0.40171835 0.605032 0.5164917 -0.86604124 0.5311216 0.002198324 0.6416637 0.10324582 -0.835553 0.5658859 -0.58965904 0.6147763 -0.4465532 0.08301404 -0.21913736 -0.61015135 -0.6224346 -0.47407 0.2918094 -0.26614878 -0.528953 0.13737765 -0.07195129 -0.14836228 0.39624467 0.22772822 0.6760356 -0.2426855 0.53834826 0.36223954 -0.14785305 0.3084288 0.32693845 0.36738002 0.11437854 0.8753592 0.6825864 0.6358984 -0.36023507 -0.05992862 -0.36120746 -0.29991752 0.029308256 0.62957823 -0.25123748 -0.17184235 0.46453908 -0.18139996 0.079478934 -0.12644799 -0.34062508 0.26296034 0.04248677 0.6126587 -0.26804107 -0.1844827 -0.47180343 0.2897428 -0.13013728 -0.0725738 -0.2253747 0.40453184 -0.1821804 -0.65060145 0.13010643 0.08015285 -0.5161776 0.009766933 -0.044126157 -0.2533043 -0.5485389 -0.16011071 -0.051744375 0.47407606 -0.3773814 0.08121359 0.2132382 -0.11613702 -0.67081594 -0.22443348 -0.34197474 -0.17096342 0.24191095 0.42810625 -0.15001132 -0.18808356 0.29782167 0.42411885 -0.2718132 -0.38789642 0.5685369 -0.07345094 -0.049795218 0.15977305 -0.6753898 0.5048639 0.5535807 0.020112146 0.5250292 -0.57801604 -0.319906 -0.50217175 -0.031819403 0.30578575 0.2974536 -0.19358134 0.27170745 -0.4374004 0.43233317 -0.07462 0.07524387 -0.52754366 0.21402621 0.1708034 0.10855208 0.17907284 0.4323161 0.21127996 0.3166866 -0.013712957 0.020253979 -0.2397472 -0.68796206 -0.26393557 0.5804956 -0.104981564 -0.7693674 -0.2575394 0.2826021 -0.57375413 -0.004742461 -0.46899214 0.13276087 -0.37751576 -0.19598217 -0.5232908 0.29568323 -0.31102324 -0.52204514 -0.2978723 0.35072702 -0.69582385 -0.7207124 0.0058469595 -0.7109054
0.42609766 0.1664249 0.33869427 -0.8449255 -0.30267075 -0.15988116 0.2302619 -0.05007842 0.08759092 0.42777407 0.10371589 -0.10921587 -0.12976694 -0.12079056 0.03322266 -0.4005014 -0.58767766 -0.13339943 0.06256571 0.5272934 -0.35231885 0.6566721 -0.48888347 -0.27008498 0.1310397 0.025488298 -0.2133742 -0.26183656 0.531676 0.312088 0.044920225 0.07153858 0.8954554 0.18049002 -0.3558604 0.41338345 -0.10825596 -0.0038347265 -0.1408765 -0.58614886 -0.20009378 0.26390862 0.35756913 -0.37853974 0.5690849 -0.47457674 -0.08843953 0.5708383 -0.050170936 0.3351912 -0.08286315 0.17665173 0.3284785 0.14311582 0.27545762 -0.05751872 -0.33302814 0.16554768 0.79617673 0.18293826 0.36130458 0.55728465 0.4298676 0.53770345 -0.40745476 -0.10265025 0.117065065 0.12937444 -0.2578334 -0.022626964 -0.053931974 0.21192966 -0.014348501 0.546912 -0.21557625 0.44472647 -0.32076672 0.398159 0.66827136 0.1334991 0.5419054 -0.7059526 -0.2631092 0.4019023 0.27391362 -0.82205594 0.6110837 -0.4464926 0.10339501 -0.16509354 0.100360714 -0.11566502 0.38565278 -0.4164622 -0.080415 0.08155305 0.5867499 0.60691416 0.44418085 0.12599348 0.0928901 -0.1273663 0.3081547 -0.5821286 -0.046188265 0.0834025 0.39535543 -0.357957 0.35074845 0.3324792 0.6201793 0.30162862 0.25902832 0.1540727 0.19398436 0.07485487 -0.47565097 0.17304581 -0.44758266 0.68008393 -0.51910245 0.42594123 -0.59645283 -0.4093507 0.14479932 -0.08902161 -0.27898958 0.008483883 -0.20817226 -0.48808485 0.14443913 -0.35423496 0.7005787 0.6857363 -0.15540126 -0.6424439 0.468536 -0.12676598 -0.18313815 0.05883936 0.62544745 0.21965066 0.25019717 -0.3862795 -0.53263307 0.21028683 0.38703278 -0.5525709 -0.35790253 -0.18541981 0.001552648 0.1568789 0.19401903 -0.097698726 -0.4433934 0.33161095 0.018004443 -0.23143362 -0.24035168 -0.08835154 -0.047300454 0.03882591 -0.47186303 -0.80678785 0.0036402198 -0.14784528 -0.46150216 0.026991963 -0.45565292 -0.82615167 -0.12742242 -0.028972894 0.13290441 -0.23607941 -0.11038138 -0.5332734 -0.14379096 0.4006627 0.22655539 -0.4482621 -0.7302337 0.14909148 -0.20527789 0.45843813 -0.24582887 -0.30821818 0.35045424 -0.5090135 0.25903395 0.37719277 0.6935256 0.23234057 -0.12015285 0.27288073 -0.45098692 0.67202336 0.6037589 0.27532035 -0.5241073 -0.092228964 -0.1388383 0.51284003 0.10855871 -0.03713206 -0.12849712 -0.67311823 0.6707219 -0.29523817 0.2433732 0.14820981 -0.7807038 -0.48433942 0.50377756 -0.05103449 0.43316802 -0.21942933 0.45528227 -0.28740576 -0.43903792 -0.42066526 0.19970663 -0.26984975 0.21176693 -0.13396247 0.16748211 -0.0031257737 0.07189635 -0.5544032 -0.66944927 0.5503675 -0.49653748 -0.009812069 -0.018702006 -0.087673835 0.42455423 0.5568666 0.42823103 -0.044589914 0.18433015 0.24993919 0.4928969 0.10568536 -0.6692353 0.03762154 0.3662195 -0.30959192 -0.018526053 -0.41170692 0.35230166 0.041456874 0.23398964 -0.35732752 0.20133403 -0.040636025 -0.09308771 -0.30464694 -0.40373445 0.27126065 -0.16332088 0.04331009 0.17466325 0.18868844 0.22155556 0.11208172 0.43292975 0.43879923 0.39386755 0.39392015 -0.06996479 0.25838825 0.04362377 0.07071471 0.30253696 -0.14511688 0.20489202 0.6079948 0.56870854 0.067784995 0.011646776 0.18690786 -0.45972627 0.66935694 0.7668078 0.50124544 0.088580854 0.088319674 0.5236084 -0.38730422 -0.046604987 -0.23134944 0.070152804 0.17074619 0.36043027 -0.112811744 0.5549571 -0.14766976 0.33044735 0.06042887 0.004780164 -0.22570412 0.60117024 0.2265557 -0.6993998 -0.038069353 0.002410464 0.13718817 -0.0371551 0.22200635 -0.30098554 0.26597673 -0.05382043 -0.2795567 0.24266239 0.23119868 0.41042098 -0.15979768 0.151353 0.43757993 0.45644486 0.5417704 -0.3172744 -0.56208724 -0.28293 -0.4674078 0.22702114 0.35002258 0.00997918 -0.62679154 -0.33034414 -0.5076895 0.23423132 0.46863356 0.8122319 -0.20382872 0.4035387 0.6173215 -0.38200969 0.6292033 0.3258091 0.23774697 -0.89086396 -0.10151174 -0.3537897 0.28256115 -0.26053318 -0.19054326 -0.36752415 0.80661625 0.5794048 -0.371246 -0.37802926 -0.10256703 0.27026114 0.7540156 -0.118405946 -0.19272305 -0.24761504 0.14162238 0.35278395 -0.14315072 -0.46092775 -0.31562418 0.38983643 -0.16229968 0.3491253 -0.032084312 0.32968155 0.12308733 0.32229534 -0.6465215 0.36461782 0.31700176 -0.260965 -0.049384896 -0.6630899 0.19481221 0.03891709 -0.0010380277 0.080022834 0.12172983 -0.35530114 0.05658052 -0.117490925 -0.11842102
0.19241989 -0.14132144 0.27792972 -0.8539896 -0.36993527 -0.20526241 0.39545676 0.13167259 -0.07563692 0.26434848 0.1983239 -0.22115314 -0.14813809 -0.18823129 0.18255769 -0.25566518 -0.62179416 -0.036451727 -0.019551141 0.47405815 -0.24469718 0.49978086 -0.3795883 -0.30284387 0.029848324 0.13799974 -0.3734153 -0.07596571 0.098486885 0.39854556 -0.013942869 0.03291977 0.8133108 -0.09162374 -0.555305 0.62200654 0.12711553 0.4394098 0.018423038 -0.4101207 -0.53728765 0.29663685 0.23984185 -0.43381336 0.62910104 -0.3513074 -0.12281131 0.4288712 -0.12547545 0.37060106 -0.4341798 0.22613575 0.124001265 0.37550405 0.28753173 0.099497356 -0.2376172 0.09017568 0.6968986 0.26450363 0.47166798 0.6258763 0.49595165 0.3816559 -0.35428324 0.10860713 0.012531046 0.05918876 -0.16219255 -0.067625895 -0.34194404 0.29487512 -0.15799785 0.5327434 -0.1712664 0.17795137 -0.3795845 0.43736193 0.6690956 0.3371496 0.35110638 -0.6730458 -0.43138242 0.25317585 0.17356719 -0.7406946 0.6485851 -0.63362765 0.22882676 -0.2305091 0.10403182 -0.07057226 0.5834993 -0.1640571 0.1722318 0.19616044 0.6326805 0.5457507 0.43759647 -0.056406178 0.00026691705 -0.009260389 0.34639966 -0.6819883 0.09603144 0.08046446 0.48899338 -0.34525213 0.2761381 0.43422404 0.6978469 0.1792217 0.22859626 0.21019837 0.22754733 0.21412939 -0.6820452 0.07541546 -0.65008307 0.6271884 -0.60364777 0.51302165 -0.49897254 -0.3966117 0.3998006 -0.089405365 -0.21698007 0.06384108 -0.17335917 -0.5922029 0.08906143 -0.46539623 0.8162093 0.742336 -0.10232151 -0.60499024 0.50267315 -0.13606831 -0.21157457 -0.15494533 0.5343573 0.4212572 0.15141022 -0.42732248 -0.3692827 0.21360375 0.31532452 -0.6377393 -0.46828142 -0.37267163 -0.1503155 0.1939867 0.21602009 -0.05013031 -0.62731385 0.26329163 0.13062936 -0.3237521 -0.059674516 0.14657483 -0.18609801 0.06989802 -0.37181392 -0.85417134 0.030411478 -0.13151126 -0.36549717 -0.26323313 -0.59769595 -0.8226633 -0.310562 0.13345593 0.10827152 -0.11528265 -0.12286705 -0.6674501 -0.25255132 0.57004356 0.43617374 -0.47513586 -0.78729886 0.0891415 -0.3155895 0.40757522 -0.015221756 -0.4290156 0.35400993 -0.4858321 0.2702583 -0.06709373 0.74337584 0.25971037 -0.013368893 0.1592399 -0.42863944 0.58136904 0.69562453 0.47143078 -0.62399995 0.14162897 -0.15779223 0.40951774 0.18804446 -0.2355418 -0.3080978 -0.63075376 0.7136573 -0.37674877 0.30138665 -0.029512193 -0.5910859 -0.40076214 0.38972145 -0.030849962 0.3771757 -0.17314613 0.48975378 -0.1272338 -0.5988602 -0.46146092 0.20167005 -0.38604137 0.3789718 0.039485894 0.39619163 -0.284986 -0.08114704 -0.3320479 -0.5283441 0.47111264 -0.41420034 0.12156275 -0.16067432 -0.1051164 0.41374055 0.5660967 0.26309043 -0.006368717 0.20498484 0.25745425 0.5653672 0.10216739 -0.8455754 -0.10685688 0.3161842 -0.408601 -0.14376014 -0.5478512 0.54270923 0.09970446 0.28812578 -0.28402492 0.057357624 -0.05197251 -0.2882342 -0.10126651 -0.5007745 0.2004849 -0.24329028 -0.27545935 0.18393454 0.008040896 0.1168013 0.117085464 0.46517134 0.5266664 0.22005105 0.51824844 0.035424177 0.024829194 -0.054229476 0.20765485 0.26929787 -0.2993028 0.25468397 0.52321106 0.428725 0.3572988 -0.035181984 0.16692346 -0.2681766 0.6358746 0.8763908 0.25239855 0.030476866 -0.14696497 0.20905067 -0.5364778 -0.33485445 -0.3388157 -0.13193108 -0.11668792 0.3045473 0.11040906 0.32671967 0.15213047 0.3806056 0.06336674 -0.2850716 -0.21972181 0.51543975 0.30583405 -0.6161927 0.04097384 -0.0689436 -0.09094572 -0.08008483 0.036346216 -0.5067933 0.106688865 0.17313221 -0.17626663 0.13493218 0.045208972 0.12417914 0.060623292 0.0005899109 0.20686111 0.38120708 0.31592196 -0.19422267 -0.5474984 -0.244318 -0.51997757 0.21128316 0.24683052 -0.20630756 -0.5919757 0.10441944 -0.44206804 -0.022838412 0.5340814 0.57899386 0.08730857 0.22262 0.5619436 -0.31821263 0.45911556 0.4125517 0.03151512 -0.62867033 -0.042949777 -0.42819136 0.12578526 -0.07756841 -0.16166663 -0.39580196 0.760342 0.2837909 -0.5004722 -0.35191402 -0.13580567 0.21264982 0.76499313 -0.12462735 -0.35460132 -0.33593333 0.09476245 0.075447455 -0.15759216 -0.23326126 -0.25608543 0.44986454 0.09723104 0.26360735 0.051295802 0.04083409 -0.2712339 0.26757333 -0.7079452 0.10302242 0.37608227 -0.10191912 -0.09337781 -0.7385551 -0.002561301 0.15617755 0.07133556 0.080145374 -0.106023125 -0.31021497 0.095051356 -0.19889589 -0.31360084
0.59241545 0.23698297 0.43870857 -0.9219167 -0.42809427 -0.22257842 -0.0053272382 0.47833532 0.15372108 0.3247458 0.278006 -0.014995476 -0.2837421 0.32435435 0.13334522 0.05691876 -0.6483466 -0.27435017 -0.14076394 0.6647255 -0.48593357 0.4061762 -0.018378377 -0.47365874 0.108428225 0.045233857 0.049741816 -0.024298782 0.2882595 0.11695463 0.033127677 0.17940252 0.653119 0.37476358 -0.4884232 0.29550835 0.16285177 0.13703738 0.13523658 -0.13723266 -0.5381393 -0.03927586 0.114898734 0.022183884 0.40840763 -0.009806529 -0.38416764 0.33092892 -0.4125672 0.061608624 0.13558912 0.66246575 -0.49113438 0.17489924 0.46053877 0.069939785 -0.21403223 0.22502239 0.70775104 0.109483555 0.404577 0.8350528 0.24701546 0.111258864 -0.4206676 -0.5211374 -0.595838 -0.00046940625 -0.33927098 0.028264044 0.61155593 -0.034488283 -0.23148957 0.68554413 0.1640287 0.08322889 -0.56704366 0.49472377 0.5335406 -0.123061046 0.48512673 -0.7409571 0.40169114 0.5654667 0.3348649 -0.6222065 0.49656782 -0.53752494 0.51398605 -0.27460828 -0.19271795 -0.18258722 0.09197259 -0.22142392 0.48422492 0.040086426 0.3575151 0.4174728 0.41406667 -0.20717828 -0.42729315 0.18113217 0.50121933 -0.38869235 0.43602893 -0.09477982 -0.106982835 -0.26701683 -0.12011208 0.5840134 0.7740028 0.05581838 0.33185822 0.44882467 0.057652768 -0.13490607 -0.2245811 -0.014060326 -0.61193454 0.68665826 -0.20379514 0.53353834 -0.6288247 -0.51101696 0.025492731 -0.44515252 -0.23101433 0.081476845 0.021979373 -0.79773504 0.11302758 0.17090659 0.41856545 0.56190515 0.11811301 -0.6382828 0.49483025 -0.09897597 -0.20962685 0.102304764 0.43015227 0.07263164 0.0581727 -0.77813244 -0.4592264 0.08769143 0.55520326 -0.38309324 0.021089124 -0.41022998 0.1301281 -0.19567822 0.113522045 -0.07611971 0.0061359014 -0.0024795406 -0.10468173 -0.60100746 0.44763854 -0.37737492 -0.3658482 0.14863107 -0.027597573 -0.53945917 -0.04818216 0.016981557 -0.14424697 0.0637266 -0.69721234 -0.7844767 -0.42723924 0.25505382 0.25049868 0.0418993 0.03891774 -0.5335231 -0.20549864 0.24864556 0.19424705 -0.27600715 -0.7229055 -0.2423752 0.17871308 -0.092775255 -0.24455437 -0.59931004 0.41001537 0.13023816 0.1220802 0.13343447 0.32113883 0.37001342 0.39680043 -0.2780447 -0.1358418 0.23344746 0.6146261 0.24280803 -0.4077536 0.36093876 0.0659022 0.46707386 0.5626659 -0.18930608 -0.20408785 -0.3906657 0.22757992 -0.31557325 0.5295542 0.53095573 -0.70748144 -0.13251841 -0.10597612 -0.47687513 0.7922053 0.094374076 0.15589812 0.30692846 -0.19883753 -0.30350715 -0.022526892 -0.29218787 0.196012 0.20494308 -0.33641213 0.33366686 0.074475184 -0.4918636 -0.3075158 0.5455455 0.09752695 0.19461846 -0.08445271 0.31379807 -0.2170512 0.120337866 -0.018582841 -0.038000412 0.16310818 0.24605578 0.5714333 -0.037231278 -0.67118955 0.06592252 0.42512444 -0.5368906 0.31241608 -0.45098323 -0.058704667 0.11691252 -0.039875057 -0.5491222 -0.31052506 -0.2390519 0.2616143 -0.25836813 -0.10674216 0.42643344 -0.07873811 -0.028342979 0.30120167 0.120303206 0.07888275 0.035660107 0.5864202 0.032705985 -0.16918233 0.41158587 0.28480965 0.05123133 0.46160167 0.012179447 0.10671879 -0.12647112 0.23218897 0.13324057 -0.0033450974 0.37636036 -0.096150964 -0.06751697 0.36387888 0.7212743 0.3331827 0.44535965 -0.18874305 -0.18007389 0.367407 -0.07845283 -0.41590846 -0.1906318 0.13476662 -0.42091572 0.10189881 0.010448045 0.07664555 -0.43628362 0.06120818 0.3130251 -0.32426164 -0.33205944 0.40146822 0.104577936 -0.55384177 -0.09569674 -0.27975082 -0.1520093 0.10274745 0.5022964 -0.3896633 -0.38123065 -0.3229769 0.20502448 0.3115815 -0.23903921 0.28738087 0.47689807 0.068749525 0.58924043 0.2550864 -0.16975541 -0.2301385 -0.2138862 0.28125152 -0.45651823 0.17433684 0.095785275 0.4709817 -0.27518272 0.17069738 -0.44195434 -0.3893249 0.23289289 -0.13828686 -0.34646812 0.3546255 0.4349128 -0.11595148 0.75438136 0.06248718 0.494674 -0.49160427 -0.20570034 -0.17182893 0.4071308 0.020375868 -0.45785084 0.27625716 0.8009336 -0.021526093 -0.36141226 -0.26983953 -0.14098553 -0.07939585 0.74277925 -0.0061228173 0.07263882 0.17519292 0.30956566 0.22427888 0.03430323 -0.0375322 -0.110913366 0.706139 -0.05077175 0.0437732 0.038492385 -0.44447672 -0.3467434 0.11202508 -0.92422193 -0.07863981 -0.11174845 -0.0022280775 0.22946773 -0.8057282 -0.11769632 -0.42049372 0.45727894 -0.26870224 -0.057660818 0.40408608 0.04020539 0.10735535 -0.25648105
0.30253777 0.13095985 0.4564597 -0.75921834 -0.23612992 -0.24772888 -0.13256373 -0.013462889 -0.25962812 0.51676977 0.52789164 -0.11451009 0.19144523 0.11226947 -0.0053017093 0.0359186 -0.4816887 0.39887825 -0.42828232 0.18767098 -0.24586704 0.24907036 -0.10072185 0.03249531 0.084558114 0.12684835 -0.12243442 -0.2802411 -0.0070623923 0.203697 -0.19477712 0.014976977 0.665841 0.07823088 -0.29987815 0.3687495 0.2353804 0.2455551 -0.00037557757 -0.58417326 -0.3096265 0.5963582 0.28065872 -0.5351353 0.33478373 -0.39899978 -0.019958092 0.3144549 0.122684754 0.06491119 -0.19771187 -0.18360913 0.19216222 0.19043183 0.25095263 0.16185194 -0.22122015 0.07210037 0.712205 0.21893649 0.21322516 0.7747125 0.27316868 0.32620624 -0.20215511 -0.29020718 -0.3748529 0.17241779 -0.18015121 -0.20162916 -0.108051226 -0.037977353 0.031207753 0.3675226 0.33156466 0.5125769 -0.031849522 0.51229775 0.5871296 -0.17681304 0.438927 -0.72071064 0.04644548 0.47978744 0.31069437 -0.81778175 0.5080359 -0.04303066 -0.37024465 -0.38134003 0.15882373 -0.3443008 0.23620643 -0.22234063 0.19589655 0.20160751 0.6720759 0.2752288 0.35494938 -0.22825037 0.01652915 -0.06825614 0.18909763 -0.47400108 0.26963726 0.0023582885 0.19832441 -0.1486557 0.10288945 0.15713273 0.5680072 0.12038147 0.5175754 0.047247984 -0.32647416 -0.07261237 -0.45695356 0.05506358 -0.24086915 0.34050483 -0.30739728 0.202836 -0.78588736 -0.38598463 -0.015998915 -0.1489478 0.09927792 -0.23212673 0.059926484 -0.5354726 0.25769946 -0.09135395 0.6215322 0.1538266 -0.26323965 0.047060724 0.24808024 -0.21485496 0.038055826 0.16380364 0.47671643 0.23909628 -0.19149952 -0.21361695 -0.21288592 0.114876926 0.49928957 -0.48849428 0.028081942 -0.17737369 0.19949988 -0.12218224 0.008968791 -0.1103384 -0.5819966 0.16289069 0.3427029 -0.23367468 -0.44245815 -0.094567694 -0.24863295 -0.04130824 -0.102338485 -0.8249981 -0.42132837 -0.35811532 -0.3631907 0.08991374 -0.5992332 -0.29654294 0.11635159 0.2549162 0.36160013 -0.21278702 -0.46093008 -0.46700242 0.22933851 0.27626106 0.37040222 -0.26709545 -0.41444087 0.20179395 -0.063900724 0.33259416 -0.23541543 -0.22267576 0.40213636 0.041957453 0.11041052 0.48206276 0.4798476 0.41570497 0.13820435 0.15397656 -0.16313028 0.6248249 0.50226384 0.049995385 -0.5519188 -0.039615616 -0.07187779 0.15798141 -0.01647486 0.10782199 -0.09035139 -0.6644322 0.6620509 -0.21835381 0.0955211 0.0021063779 -0.88100636 -0.52229506 0.3536407 -0.3364108 -0.12695707 0.034261372 0.31982955 -0.33977726 -0.13762128 -0.21455492 0.22160487 -0.25027198 0.23037317 -0.30947578 0.21238911 0.24182571 0.014736106 0.029077953 -0.22804587 0.25992447 0.1433219 -0.11762256 -0.52277774 -0.16354598 0.44196817 0.3997736 0.40336758 0.15676108 0.3600789 -0.17634605 0.500538 -0.14782473 -0.62800944 -0.042542696 0.31819218 -0.44101116 0.012891557 -0.4343094 0.15641908 -0.15248083 0.35594884 -0.44804662 0.25151542 -0.16890785 -0.3716379 0.21929455 -0.3951795 0.5445228 -0.10517922 -0.3050698 0.11678026 0.24717683 0.065611176 -0.11669248 0.49198794 0.45960322 0.2726976 0.16930509 -0.063919954 0.29256746 0.5638381 0.31519687 0.31387743 -0.26988167 0.1586521 0.33285534 0.44267014 0.37803993 -0.3458365 0.60552263 -0.098363765 0.43538302 0.48181832 0.37994182 0.29651153 -0.16427666 0.17174299 -0.07982044 -0.030314893 -0.37913504 -0.33047757 -0.14985083 0.4628905 -0.28641537 0.44918352 0.008723665 -0.1703999 -0.2412477 0.041101463 -0.48869604 0.41047728 0.39022934 -0.51496035 0.27020594 -0.17212245 0.1841286 -0.13945045 -0.17837143 -0.21190941 -0.006403608 0.3697374 -0.13640584 0.17151949 0.04946637 0.3983195 -0.08841451 -0.20696764 0.54634386 0.2943767 0.4870668 0.15974921 -0.666885 -0.087128215 -0.107851185 0.08015672 0.43494728 0.51550853 -0.3115495 -0.13958101 -0.1425523 -0.2126976 0.2242572 0.5665298 0.1813801 0.27563652 0.55121017 -0.39735955 0.6914327 0.076769374 0.5806697 -0.67409575 -0.4117508 -0.19537854 0.2102312 -0.2522574 -0.081193954 -0.030986922 0.5573404 0.5997025 -0.47897768 -0.46355486 -0.2513299 -0.05762578 0.39375174 -0.0018859962 -0.19603035 -0.26040775 -0.0322221 0.31089115 0.21904315 0.04129112 -0.41998965 0.21738683 0.265067 0.17322141 -0.07661953 0.039693195 -0.18510316 0.08692533 -0.4509402 0.29986534 0.268717 0.12224903 -0.35960984 -0.44258237 -0.08968273 -0.06806638 -0.20249124 -0.1115009 0.032457415 0.18493843 -0.37097973 0.025088238 -0.2965788
0.64202046 0.6910151 0.8342219 0.14021094 -0.27268293 0.44127014 -0.22987808 0.102433845 -0.46748435 0.59371287 0.6757929 -0.09232325 -0.24843156 -0.12961727 0.15847981 0.6308004 -0.58490634 0.27520323 -0.027688418 0.17323543 0.06589256 0.1532906 -0.35848033 0.05765444 -0.011572453 0.6652671 -0.17205873 0.19155276 -0.12247724 -0.1001138 -0.47424027 0.7287901 0.106843226 -0.12837273 -0.21007216 -0.59861773 -0.13497804 0.5672439 0.06679689 -0.19552691 0.099249415 0.39565408 0.012549314 -0.20094699 -0.023535442 -0.56430507 -0.1950267 0.46196607 -0.083605014 -0.46591154 -0.31903666 0.4709776 0.13225703 -0.11249846 0.10296899 0.26899177 -0.37561238 0.120388165 0.74955773 0.57409185 0.43554384 0.5205452 0.5744992 0.22138032 -0.06795023 -0.1530273 -0.45610613 0.15656902 -0.65859795 0.17386343 -0.2536151 0.2800656 0.14132181 0.20081408 0.47256774 0.6211017 0.4794413 0.6678536 0.23210193 -0.028276658 0.73088425 -0.5734967 0.3243717 0.49069872 0.123937584 -0.36177054 0.59656376 0.31552467 -0.1437214 -0.62530243 0.12298174 -0.5202184 -0.057244405 -0.45261917 0.3499046 -0.20005858 0.4214167 0.065922365 0.24970256 0.42613864 0.47281632 0.42358187 -0.019847123 -0.74709374 0.6499853 -0.35845342 0.5545037 -0.25993085 0.5355039 0.4393576 0.7288826 0.39741585 0.627694 0.040096935 -0.23128371 -0.17008111 -0.19479224 0.31707633 -0.09083625 0.41235027 0.6590655 0.018612945 -0.67004246 -0.2542486 -0.19440077 -0.2648948 -0.0095295375 -0.66203874 0.046881072 -0.66764164 0.57738584 0.07719878 0.73491305 0.2744614 -0.31514585 -0.024969239 0.09314788 0.13382788 0.15250553 0.15036198 0.29526675 0.42993042 0.24236067 0.03773943 0.045184128 0.17966542 -0.3571302 0.051297907 -0.26763928 -0.7820892 0.37589744 -0.29916096 -0.32158 0.40698403 -0.3583154 0.16469416 0.3476622 -0.22559908 -0.24595141 -0.64473015 -0.58790874 0.036601882 -0.4872808 -0.80842006 -0.62710655 -0.43647563 -0.20908447 -0.14621505 -0.8818915 -0.59117305 0.51018846 0.39689556 0.65256804 0.32653937 -0.621024 -0.6424661 -0.33311385 0.55509275 0.02732031 -0.033990774 -0.5792224 -0.016820801 0.28134224 0.37304038 -0.719209 -0.6453765 0.6732064 0.30470884 0.301661 0.18417273 0.561687 0.3979982 0.20820647 0.15662797 -0.2559988 0.5165558 0.52447265 -0.4274451 -0.7980363 -0.33292803 0.3505668 0.043651383 -0.4554172 0.4981525 -0.038167275 -0.9070923 0.22069621 -0.5533191 0.6190053 0.069947705 -0.84111637 -0.2809054 -0.41680723 -0.7108782 0.094995424 -0.2394334 0.036990628 0.3074788 -0.019488527 0.07710328 -0.030329002 0.55053645 -0.21381882 -0.087090775 0.18995017 0.66740346 -0.06325008 -0.37476218 0.17146029 0.21606995 0.13606623 0.41325736 -0.28305095 -0.5365609 0.22362486 0.4129217 0.63765496 0.3187842 0.17687216 0.07725727 0.61380875 -0.6342351 -0.75048864 0.019867199 -0.041976713 -0.6010289 0.5167357 -0.64680946 -0.22171336 -0.025947569 0.18977456 -0.26466838 0.29114738 0.07010227 -0.4696085 0.56591094 -0.16739102 0.08944286 0.4805807 -0.36524433 0.3461345 0.6705693 0.709255 -0.3657559 0.13408493 -0.03280574 0.07837919 0.26568273 0.8325364 0.28171736 0.16790845 0.2951391 0.5089524 -0.30425113 0.34470963 -0.31813726 0.25901356 0.21250543 -0.090824425 -0.046617974 -0.014008342 0.15908515 0.034054045 0.42638665 0.020672703 -0.42265868 0.19749887 0.6392281 0.05897242 -0.48659292 -0.09922854 0.21541275 0.15229979 0.30923474 0.038903713 -0.3953537 0.1981776 0.04088568 0.51483184 -0.30630225 0.1263767 0.4220918 -0.46579844 0.52863526 -0.6203666 -0.12836632 -0.66056 0.33998913 -0.29802722 -0.052924167 0.27039006 -0.21495068 0.24445444 0.3958731 0.1701863 0.3235378 0.43034592 0.5846156 0.30862176 0.313049 -0.05997383 -0.64160204 0.097034745 0.26860783 0.46413207 0.2806765 0.32640642 0.03625476 0.30244723 -0.16173565 -0.3966628 -0.01776858 0.52331126 0.3548375 0.22018912 0.06230869 -0.35588354 0.47143024 0.3434059 0.6527695 -0.69238484 0.13867645 0.43812644 0.6031547 -0.58740336 0.2855174 0.38946646 0.84883136 0.10273438 -0.14530674 0.2906368 -0.21375479 -0.56744057 0.17613444 -0.05184188 -0.5364903 0.32089457 -0.01280674 0.2695507 0.31756783 0.2805723 -0.13302293 0.43093103 0.50376993 -0.31688216 -0.548718 -0.76802367 -0.27036345 0.52825713 -0.23397844 0.43517944 0.15076232 0.26032633 0.22165146 0.3989364 -0.12031363 -0.15350035 -0.29382053 -0.34416398 0.65714514 0.07179572 -0.70786273 -0.5146833 0.18108815
0.58062 0.4713891 0.6672836 -0.018235734 -0.31252056 0.41242963 -0.17671932 0.20598389 -0.2890436 0.48679492 0.4734653 -0.17508139 -0.10695245 0.0094980495 0.05955955 0.5173595 -0.47533944 0.25638598 0.12343135 0.024621293 0.053059686 0.2233275 -0.4722158 0.07408657 0.13309449 0.5166125 -0.36901167 0.050052065 -0.267921 0.049456414 -0.3329657 0.614382 0.31000194 -0.13741052 -0.33706447 -0.39040715 -0.033193387 0.5663585 0.11871742 -0.39985186 0.058558583 0.24728851 0.055496708 -0.14480887 0.18924083 -0.40370983 -0.17668216 0.48835602 -0.039725594 -0.42492616 -0.44067332 0.46237302 0.21618368 0.07812002 0.29358494 0.2293903 -0.32398576 0.16013087 0.7664204 0.5508662 0.47287574 0.67698514 0.47110918 0.26249662 -0.18308422 -0.013642684 -0.42985755 0.14737134 -0.4951124 0.31435755 -0.27346945 0.23440818 0.2839675 0.2308301 0.4763754 0.48032725 0.26447466 0.6673638 0.25601858 -0.06335594 0.597923 -0.57779455 0.27296257 0.33411694 -0.038801428 -0.50805146 0.6072686 0.12584373 -0.29765922 -0.6160455 0.096634366 -0.48921567 -0.024659894 -0.31558797 0.33573028 -0.08849073 0.5914673 0.16536534 0.118427485 0.27090144 0.38657376 0.5124507 0.01866494 -0.7259238 0.6359303 -0.34858182 0.40423042 -0.22574183 0.35383865 0.48792866 0.70774 0.32176673 0.6331331 0.25495952 -0.23574963 -0.028418258 -0.22125608 0.4004089 -0.22271957 0.26783344 0.43162656 0.14916627 -0.72097707 -0.15043658 -0.3127872 -0.15594822 -0.08878584 -0.44580048 0.038186353 -0.6149212 0.5540304 0.20939957 0.7772453 0.3492398 -0.4735409 -0.24090417 0.121565595 0.084061354 0.2468413 0.14152558 0.24339347 0.43856993 0.1753737 0.033102795 -0.14748785 0.121630386 -0.16564989 0.0068811974 -0.12142813 -0.7416485 0.31426948 -0.40183246 -0.119802 0.38219708 -0.50787616 0.07439929 0.36221525 -0.091923036 -0.2878576 -0.6044633 -0.5739108 0.23589183 -0.33810434 -0.83834976 -0.61566126 -0.28887177 -0.30362317 -0.29102838 -0.88882357 -0.5970513 0.38520464 0.3625067 0.49054685 0.13261798 -0.510896 -0.6391503 -0.39767024 0.39506727 0.19039743 -0.0016530002 -0.60658586 0.122004434 0.2395177 0.21158643 -0.49354038 -0.4843888 0.6167578 0.2617922 0.20121457 0.26864243 0.46288362 0.4065121 0.26948678 0.17642651 -0.23783264 0.44981736 0.5719089 -0.4046791 -0.62354577 -0.34935814 0.12355099 0.24048759 -0.29476655 0.2849613 -0.18675645 -0.8441259 0.2622614 -0.5329211 0.5269357 -0.0113115795 -0.84086436 -0.3250498 -0.4033974 -0.6620278 0.23300831 -0.13970843 0.2251854 0.29308346 -0.17308582 -0.07229213 0.075507045 0.35238057 -0.029399052 -0.04404182 0.18241094 0.43299475 -0.020958541 -0.2110409 0.20169656 0.20305417 0.032064363 0.43173033 -0.5153441 -0.36518985 0.06449811 0.61722267 0.46132696 0.11958296 0.27985913 0.11431672 0.4956078 -0.4222141 -0.78754675 -0.048039865 -0.0143557675 -0.48966202 0.5211863 -0.65564257 -0.14905135 -0.039762717 0.28345326 -0.13482386 0.3080877 0.08861885 -0.33971018 0.37495488 -0.021799073 0.08187704 0.46578145 -0.3442032 0.32928747 0.60116774 0.53617007 -0.29082963 0.19229613 -0.008145861 -0.018272337 0.489969 0.7410908 0.27540156 -0.0048152637 0.13593853 0.5540302 -0.40665457 0.38185856 -0.27917713 0.3120687 0.3007292 -0.14215517 -0.16816488 -0.21249098 0.027061643 0.14496411 0.2804512 -0.03524266 -0.4461841 0.092201374 0.56091416 -0.115479566 -0.50823665 0.08380136 0.21156602 0.34082493 0.14949614 0.24055 -0.45656776 0.0599342 -0.11290235 0.32714012 -0.122997016 0.1749685 0.4623591 -0.4970457 0.33311415 -0.62160504 -0.095511764 -0.5626833 0.2526339 -0.31388023 -0.14589934 0.28824902 -0.14343902 0.34000123 0.462782 0.14214773 0.26055568 0.40860543 0.43202075 0.31442913 0.170604 -0.100918025 -0.5132037 -0.06752975 0.083499186 0.29767206 0.116030425 0.23573919 -0.14706156 0.17231265 -0.10013577 -0.5768568 -0.08270085 0.5316168 0.19851692 0.08127047 0.18665896 -0.40616286 0.6391841 0.24772906 0.4653436 -0.6828566 0.0046343384 0.43484667 0.59587044 -0.41020307 0.1417937 0.33039263 0.70838726 0.04040516 -0.13473047 0.279182 -0.16179107 -0.4546508 0.3772062 -0.09656561 -0.48192635 0.22203307 -0.02021568 0.29090956 0.483004 0.22868478 -0.14258805 0.46472716 0.3164439 -0.1416938 -0.52394736 -0.72130406 -0.31024057 0.45850676 -0.36609066 0.44561517 0.16288605 0.17779258 0.30502653 0.24074878 -0.09490328 -0.08133101 -0.23673527 -0.31847376 0.5931345 -0.15059592 -0.6422614 -0.35155112 0.0001846848
-0.102978006 0.39754182 -0.39745128 -0.42075375 -0.05874011 0.068566345 0.4282779 -0.52199197 -0.6295407 0.5570047 0.7947923 0.6391493 -0.494794 -0.25524738 -0.4511 -0.021206945 -0.28199828 0.5545198 0.3026509 0.58842623 0.51534986 0.1478575 -0.31172416 -0.10456825 -0.32380983 -0.3002391 0.7219412 0.07636545 0.7519905 0.61057466 0.44682673 0.029990384 0.32366568 0.3451414 0.6078109 -0.43996423 -0.5544243 -0.326923 -0.5535947 0.46343684 -0.24609707 0.6788644 -0.5635172 -0.52999705 0.49080727 -0.4143839 -0.7883763 -0.54065675 -0.62990624 -0.61484593 0.06529592 0.69402087 -0.121103756 -0.52894986 -0.37428132 0.31357694 0.24044886 -0.23722078 0.7887466 -0.08072453 0.636453 0.64993525 0.68610495 -0.12896529 -0.7166454 -0.002372187 0.6462627 -0.18676956 0.28635982 -0.7334933 -0.048684716 0.6048215 -0.77731746 -0.3827087 -0.64094067 -0.15586515 -0.010933389 0.66256386 0.42538092 0.64834964 -0.46607536 -0.1925046 -0.5209715 0.23700027 0.7810172 0.1939562 -0.34451047 -0.6367657 -0.44936818 0.42166764 -0.0382533 0.3006266 0.687819 -0.56467015 -0.550736 0.42760593 -0.303321 0.64476633 0.8346258 0.4423467 -0.45206305 0.36606273 0.2938158 -0.72101414 -0.51426893 0.5831475 -0.58452076 -0.6537655 0.73828685 0.6727214 0.55730903 -0.15858556 -0.5110555 -0.49268046 -0.20325893 -0.480678 -0.31791753 -0.6611155 -0.39899725 0.84449756 0.65367085 -0.65369254 0.2028016 -0.74471664 -0.41511372 0.43907458 -0.7032579 -0.3009579 0.11671707 0.27140644 -0.60564667 0.35108888 0.15495797 0.53577167 -0.58865714 -0.7473226 0.077544406 -0.57153046 0.3845498 0.7374298 0.79337007 -0.546009 0.66555464 0.15038626 0.57263243 0.6914322 -0.47213033 -0.71708024 0.053780686 0.47850198 0.17666557 -0.45483288 -0.25409168 0.23424181 0.5124166 0.031100372 0.752615 -0.5498466 0.49360105 0.106030524 -0.40078497 0.3603676 -0.006343917 -0.8911193 0.26185393 -0.0905566 0.04716823 -0.14293745 -0.8297095 0.10082574 0.38241696 0.7837026 -0.017080782 0.30907696 -0.4869574 0.07834316 0.4180275 0.08135525 0.5833583 -0.10690805 -0.93012726 -0.7568176 -0.017098604 0.44494748 -0.484912 -0.77880436 0.80686295 -0.6533752 -0.6211056 -0.54482555 0.78695387 0.8215266 -0.63756377 0.56395817 0.14057393 0.7718384 -0.5393087 0.7357206 -0.040933285 0.1362474 0.36782804 0.1962101 -0.454859 0.61265767 -0.13676302 -0.24961974 -0.38073552 -0.41363427 0.8121476 -0.2706769 0.22443764 0.5990509 -0.40506485 -0.8202802 0.578241 -0.5593232 0.31802535 0.6359882 -0.47500637 0.6081806 -0.5192052 -0.6208872 0.051235363 -0.1897247 -0.24583279 -0.6216143 -0.55085367 0.06353299 -0.49373183 0.072066724 -0.6272793 0.23470429 -0.24299805 -0.60227716 -0.61001515 0.7599844 -0.14935616 0.6540918 0.5561782 0.6007685 -0.2188025 -0.10158627 -0.51947033 -0.0112497015 0.6056112 -0.093526185 -0.23372729 -0.18549533 0.41862208 -0.26034355 0.46529463 -0.29246843 -0.70421755 -0.22619626 -0.20674743 -0.4809553 0.21210831 0.59568244 0.60969204 0.6711857 -0.28498515 0.84906524 0.39559102 -0.4157055 0.398678 0.71068555 0.17106514 0.58018637 0.78710026 0.69143003 -0.39155966 0.38386166 0.59532785 -0.59959584 0.1725537 0.24467205 0.4589156 0.6094238 -0.4101081 -0.5759116 0.096148424 0.7021828 0.6936473 0.24992374 0.4558034 0.526014 -0.1607463 0.65122813 -0.20763853 -0.40275407 -0.521207 -0.73857486 -0.3900538 -0.41235542 0.113650344 0.24875629 0.7090728 0.50270915 -0.42437086 0.5302393 -0.4637167 -0.57770395 -0.42955902 0.13347097 0.018415442 0.6711165 -0.41930184 -0.43031335 0.45630515 0.49604297 0.50130725 -0.6242605 0.59450483 0.5301326 0.38890046 0.23171249 0.5398529 0.7294389 -0.4122459 0.35972646 0.01385679 0.53362024 -0.39309394 -0.75102663 -0.073344894 -0.349466 0.22856323 -0.73422784 0.16711804 -0.7109779 -0.1692418 0.24607167 -0.43312728 -0.24214856 0.8402814 -0.43403447 0.6332557 -0.5929531 -0.12583134 0.8521372 -0.3200391 -0.68595266 -0.7174065 0.34613457 0.16379838 -0.6767368 -0.36729875 0.8169095 0.66500854 -0.73340833 0.41641116 0.2054149 -0.69728005 0.590224 -0.2518525 0.6604647 0.44180307 -0.41796958 -0.50404006 -0.18708846 0.357397 -0.76238453 -0.08375579 0.51700306 -0.5884486 -0.48288104 0.57249206 0.46510088 -0.043154404 -0.690724 0.28648582 0.7402224 -0.06531526 -0.046175618 -0.8499013 -0.4973886 -0.60540897 -0.50823003 -0.38926554 0.75582165 0.60794646 -0.8095785 0.27882946 -0.5990167
0.59688205 0.29575118 0.08790993 -0.70603424 -0.5276849 -0.06397396 -0.06440445 -0.6519007 0.059331268 0.48862556 0.831123 0.5873378 0.43007892 -0.7479999 -0.2651615 0.65506303 -0.7187926 -0.42566592 -0.6353634 0.47663575 -0.70815724 0.12238609 -0.69385517 0.070162095 0.4241364 0.055476367 -0.25579676 -0.5212315 -0.13762133 0.8551574 0.47055253 -0.41613597 0.9556618 0.032878265 0.63359934 0.7892262 0.5961782 0.19163567 -0.4633836 -0.07804253 -0.8493525 0.46087784 -0.5613566 0.50512046 0.6882624 -0.58694196 -0.62382853 0.5061155 -0.41489968 0.16738866 -0.7044336 0.06423939 -0.6823457 0.47652954 0.29309404 -0.35539246 -0.65165347 -0.38275364 0.7320178 -0.38674408 0.7462445 0.9193205 0.7347254 0.6266288 -0.53203493 -0.9011905 0.44744626 0.79804635 -0.23920253 0.40399817 0.2748233 0.4865427 0.13432513 0.26407108 -0.1795853 -1.3469355e-05 0.7281877 0.22631277 0.7053877 0.16054653 -0.037674535 -0.8096373 0.053333864 0.772846 -0.09135347 -0.8789899 -0.28496212 -0.19809334 0.09489359 -0.8067281 0.5816093 -0.19112056 -0.19618216 0.0380266 0.6372372 -0.042760506 -0.59796757 0.7943763 0.7666889 -0.22398968 0.53034 0.35583925 0.22309896 -0.7355912 -0.28613022 0.6561079 0.4007626 0.74085766 0.7853353 0.36840978 0.8327795 0.093401425 0.33650455 -0.06929739 -0.5405315 -0.18695979 0.04653875 -0.76248527 -0.19398084 0.63443685 0.6496771 -0.32425773 0.022345737 0.5851625 -0.70058906 -0.2632161 0.4084473 -0.46357796 0.057912413 -0.8671862 0.7967216 0.22357519 0.09335907 0.6768591 -0.6923002 -0.6193069 -0.20362969 -0.63515973 0.4467072 -0.025437765 0.5792806 0.6566782 -0.40787274 0.5655253 -0.80706817 0.44894427 0.25420594 -0.48634 -0.75758004 0.12885013 0.13775264 -0.55694735 0.57527775 0.39568058 -0.7350233 -0.70303714 0.49548563 -0.28421077 -0.6587013 -0.6063474 -0.44019875 -0.06651186 0.7124845 -0.96584034 0.1213346 -0.41655266 -0.48764065 -0.7786918 -0.8011788 0.20965101 0.53612596 0.77257824 0.7496431 -0.028741967 -0.6343245 -0.6079856 0.09226238 0.5315881 0.63592845 -0.38925183 0.4127142 -0.61675996 0.123863965 0.6921478 -0.41330978 -0.53490037 0.80615145 -0.4059803 0.57652164 -0.6442066 -0.42394873 0.8060688 0.2801617 0.76037884 0.6798203 0.81702656 0.79281133 0.25784767 0.32726526 0.5541041 -0.36050954 0.67532384 0.46436188 -0.71564066 -0.75355273 -0.042635802 -0.5275917 -0.8552026 0.2466104 -0.37889585 -0.48319393 0.11536706 0.6368012 -0.60860914 -0.17636314 0.6035969 0.87745327 -0.3108963 0.51554406 -0.40640467 -0.5630922 -0.07430981 0.62319076 0.5548297 -0.11074934 -0.39809147 -0.44866264 -0.3383012 -0.47999945 -0.5201419 -0.09325435 0.37736556 -0.6909366 0.5354885 0.18025506 0.13497858 -0.5992618 -0.5410932 0.7254449 0.028804077 0.86844885 0.40420038 -0.86808836 0.31407872 0.7028843 -0.52057403 -0.2417068 -0.6666591 0.5051125 -0.1256456 0.31860754 -0.6763244 -0.51493704 -0.46989623 -0.77724886 -0.58132195 -0.81233037 0.470842 0.18655258 -0.85778695 0.4487301 -0.115479335 -0.6134077 -0.18896312 0.4570707 0.87568206 0.47821447 0.8235556 0.1749639 -0.60923517 -0.15456028 0.25396097 -0.17994592 -0.5852521 0.8216332 0.60643053 0.30319193 -0.2965896 0.08700623 0.052586567 0.4501655 0.67319643 0.900939 0.110443994 0.34694055 0.6892082 -0.6968657 0.49236363 0.41026562 -0.42604613 0.228105 0.018348778 0.14702915 -0.5451313 -0.20937102 0.240638 -0.18915808 0.49652913 0.3439738 -0.828483 0.56914556 0.08840233 -0.92289895 0.41694936 -0.6646992 -0.2323069 -0.072889686 -0.24821931 -0.5059762 0.5414592 -0.3664635 -0.72118855 0.123877525 0.6967926 0.58528244 0.7560239 -0.6055105 0.6503935 0.02089348 -0.121333696 0.49565846 -0.7914674 -0.5159935 0.636236 0.20161255 -0.5527787 0.68558383 0.22755352 0.14272937 -0.25133938 -0.78429556 0.62170446 0.62971413 -0.33246255 -0.5355797 -0.097400606 0.058048602 0.16719888 -0.049099617 0.44491473 -0.8990291 -0.7437166 0.24615484 0.43575203 0.07115866 0.49421135 -0.24237284 0.6624143 0.6163626 -0.8053278 -0.037769865 0.55499065 -0.693759 0.7029694 -0.48607934 -0.61718273 -0.3299962 -0.22386725 -0.6804917 0.6188214 -0.054612476 -0.095194526 -0.33645305 0.28964964 -0.048726324 -0.58517236 -0.21818244 -0.4172913 -0.075324245 0.6177437 0.5825196 0.35342026 0.41247115 -0.60864663 -0.71400195 0.28298151 -0.62293345 -0.70857453 0.69980544 -0.43995637 0.17493501 -0.8382265 0.30601108 -0.6950477
0.39879805 0.18767089 0.5389559 -0.5430345 -0.7864786 0.337001 -0.21208349 0.09178554 -0.38175192 0.48240224 0.39306995 -0.15040039 -0.3541291 -0.11535305 0.17793204 0.50193954 -0.6827845 0.08919237 -0.70485795 0.30650735 0.22815551 0.36874986 0.010819352 -0.256095 -0.08755996 0.15580091 0.19513072 0.27503285 0.42744964 0.2851673 -0.32854226 0.070838735 0.24905255 0.4147692 0.030144388 0.053778596 0.10355668 0.55764306 0.39035672 -0.13915072 -0.66581887 0.37883076 0.12879665 0.13296232 0.13120821 -0.5538374 -0.40464032 0.43061548 -0.3411547 -0.19530502 -0.11685925 0.3376822 -0.06954921 -0.0023854838 0.033008512 0.5832625 -0.048766583 -0.12809901 0.70547366 0.65405005 0.35264674 0.363011 0.36218974 -0.33429414 0.32597727 -0.55746573 -0.3889989 0.41903046 -0.19823262 -0.2618003 0.28774172 0.27470702 -0.19413424 0.58228636 0.54706705 0.1474821 0.2543351 0.3044423 0.7731729 0.0613246 0.34320784 -0.6065753 0.787121 0.5366073 0.48843443 -0.29429862 0.32163915 -0.046216503 0.24726968 -0.6014407 0.4832652 -0.41853738 -0.17068078 -0.48298895 0.39364195 0.21560425 0.08925823 0.66950536 0.38490787 0.18481123 0.10320803 0.10273836 0.7062523 -0.30199623 0.30002546 -0.62443405 -0.087440744 -0.16258617 0.41585803 0.6402009 0.64928025 0.3454253 0.24779545 -0.26331744 0.5312609 -0.33890957 -0.77541894 -0.29961497 -0.5790643 0.46406668 0.2052685 -0.22947197 -0.44649184 -0.30549788 0.25964668 0.022445105 0.39582145 -0.35570556 0.46745518 -0.7136507 0.29678127 -0.32669356 0.70800894 0.40647608 0.35685775 0.06644725 -0.03339854 -0.111503035 0.17613652 -0.26220083 -0.021747423 0.29559416 0.0896344 -0.51895136 -0.025376309 0.20919494 0.26350126 -0.12416203 -0.37300095 -0.58507735 0.3004578 0.0071254144 -0.18133639 0.30261594 0.0052076327 0.19666171 -0.23411201 -0.5822236 -0.24796064 -0.32536152 -0.67409974 -0.25496355 -0.027491717 -0.89016765 -0.41026318 -0.24666548 -0.084077895 -0.030802667 -0.7580004 -0.94798404 -0.18772288 0.2511498 0.5972922 -0.07812958 -0.6089075 -0.44761837 -0.013446091 0.729134 0.043059327 0.51763976 -0.8101357 -0.09368997 -0.41426885 0.1102212 -0.23997116 -0.70757073 0.6661193 0.3637416 0.26830548 -0.036409713 0.3836289 0.490415 0.1200929 -0.017546892 -0.32719898 0.2596311 0.09754797 0.049938653 -0.35638568 0.25891414 0.106761 0.09675936 -0.14586599 0.10026382 0.050137114 -0.8546888 0.31313094 -0.66415775 0.33923256 0.32317823 -0.7202573 -0.15545711 0.081925176 -0.7019951 0.002241973 -0.12542985 0.1671851 0.17783378 0.11142926 -0.22470677 -0.25105673 0.25386217 -0.33347186 -0.44241658 -0.122304074 0.012552075 0.089105226 -0.79054195 0.016748078 0.13390264 0.21644649 0.33095217 -0.01716772 -0.010486954 0.11085614 0.09857036 0.23158726 0.054490898 -0.07397135 -0.06064339 0.6436712 -0.17626143 -0.8941502 -0.026701802 -0.33542165 -0.35298458 0.22454678 -0.6118726 -0.22775961 0.23759946 -0.027411785 -0.35355017 -0.026563717 -0.40878847 -0.40919012 0.042163406 -0.4399123 0.0011617708 0.07429875 -0.57902974 0.57837373 0.48611677 0.21503706 0.0635795 0.30501118 0.18878087 0.5224614 -0.03821153 0.41928416 -0.16990037 0.45142224 0.5001641 0.43098202 0.17819077 0.07918491 0.38544005 -0.058006108 -0.30639872 -0.6083737 0.3995675 0.018081944 0.6284502 0.5026333 0.5331483 -0.16497375 -0.071381934 0.06563453 0.14416273 -0.06032886 -0.5701138 -0.30301186 -0.48582992 -0.19364174 0.19495377 0.13653386 0.3244026 0.025270618 0.4081739 0.33654103 -0.7282185 0.16699207 0.222691 -0.7731977 0.43573764 -0.6447312 -0.37453148 -0.45386633 -0.034933753 -0.570227 -0.09230588 -0.33798268 -0.104941204 0.21923226 -0.04928165 0.38525113 0.5658033 -0.41762647 0.52669656 0.19577442 0.21802594 -0.52104676 -0.5541927 0.3894081 -0.11756864 0.28589946 0.7774297 0.18724278 0.18564996 0.04655483 0.120311014 -0.027990563 0.6863067 0.53085345 0.09609272 0.37089092 0.025289573 -0.016980497 0.12612087 0.2732098 0.33083314 -0.65394944 0.3439596 0.43122947 0.31352705 -0.7090719 0.28821585 0.20171537 0.7262391 0.60713243 -0.26245335 0.06137511 -0.43882453 -0.4696552 0.31987974 -0.17738914 -0.16321312 0.5165231 0.57888156 0.47351545 0.05701516 0.071341366 -0.73431635 0.49687314 0.6537915 -0.14178783 -0.48836842 -0.34265003 -0.40680864 0.03237269 -0.16190036 0.42758864 0.06875429 0.44733742 -0.40266117 -0.33583236 0.17480059 -0.22136779 0.13371687 -0.09095935 0.6376811 0.2903744 -0.45253298 -0.14510877 -0.0022130588
0.76181436 0.66453516 0.7127328 -0.9043735 0.4116328 -0.40223658 0.116244994 -0.5607347 -0.6146572 -0.21457441 0.68667626 0.50195664 -0.040420976 -0.59894353 0.21802874 -0.29274222 0.1585178 -0.32373896 0.50428027 -0.5551085 -0.78206617 0.50663805 -0.549491 0.34511337 0.67551315 0.23963453 0.20613731 -0.7201669 0.65983886 0.74997693 0.2161767 -0.6102592 0.882001 0.10806177 -0.008741885 0.7313086 0.6639928 0.826744 -0.39371103 -0.52625996 -0.7260829 0.43362534 -0.45076433 0.32197484 0.8749305 -0.25533092 0.16404997 0.73099816 -0.60919064 0.37357926 -0.7826055 -0.398993 -0.2671541 0.1197143 0.3429043 -0.74255496 -0.7550116 -0.6999418 0.2262071 -0.43444985 0.69283515 -0.30324277 0.7833296 0.79500985 -0.80941087 -0.65115684 0.6132469 -0.06403574 -0.6050379 -0.6012551 -0.40457472 -0.6530171 0.5909978 0.35999835 0.34767765 -0.5116207 0.45256996 -0.22025378 0.8091925 -0.7660099 -0.5946159 -0.7887164 -0.18164277 0.3535736 -0.4624244 -0.9373621 -0.37458274 -0.596108 0.27770698 0.54571676 0.4676113 -0.6240997 0.2565733 0.09445137 0.5959928 0.5971115 -0.2839009 0.5660321 0.6798004 0.52066064 0.6128793 0.8085514 0.39899 -0.45746517 -0.37153852 0.40698096 0.7166766 0.5343689 0.62881655 0.010131379 0.18573643 0.56018484 -0.63537645 0.43544182 -0.62647486 -0.6335569 0.071411215 -0.7243042 0.24560985 0.8825863 0.29205588 -0.38439322 0.16557875 0.501244 -0.343798 -0.53289145 0.3178348 -0.10709506 -0.6758546 -0.76823306 0.62750965 -0.533573 0.9470831 0.85713965 -0.7285578 0.32005477 -0.3412159 -0.77953196 0.49928588 0.36040568 0.8029399 -0.4292972 0.6972702 0.5520314 -0.60540396 0.53939104 0.92490894 0.049589362 -0.82544154 0.4034862 0.4515938 0.03526874 -0.60810256 0.5598358 0.3813497 -0.4027013 -0.2028302 0.43707946 -0.69821835 0.48469424 -0.4823659 0.08754763 0.60149574 -0.93103147 0.44022006 0.21042919 -0.48831445 -0.80988663 -0.6628193 -0.5990715 0.44949326 -0.4879592 0.21811315 0.4475536 -0.0233553 0.4786694 -0.011860822 0.9190385 -0.022302236 -0.4900952 0.43316397 0.662427 0.6176619 0.7566987 0.4815461 0.34446245 0.09930229 -0.2944139 -0.5529121 -0.21127109 0.095908746 0.7774566 0.68810517 0.57478094 0.04682862 0.40700436 0.8731785 -0.21148612 0.2401267 0.6495179 -0.655468 -0.2005183 0.08582218 -0.6954481 0.51461977 0.40305242 -0.4463369 0.17078972 0.494839 -0.59998506 -0.6761408 0.31752682 0.7980622 0.11672936 -0.27688754 0.42602912 0.27762103 -0.29079267 -0.08964644 -0.83242744 -0.61862594 -0.5481386 0.6753913 0.66396594 -0.60446644 -0.7248908 0.27092078 -0.82240254 -0.72008467 0.80721897 0.33008817 0.4780575 -0.7040197 0.031825684 0.23987447 0.83442706 -0.18125252 0.58376884 -0.35557953 0.78338605 0.75547475 -0.2815325 -0.8509327 0.5740113 0.66928476 -0.4239837 -0.4613074 -0.71908224 -0.55556023 0.48766363 0.6625426 -0.7062266 0.69593227 0.3010181 -0.76506424 -0.38192856 -0.5976346 0.7761466 0.53009725 -0.72176665 0.6275488 -0.11350836 0.28945333 -0.466336 -0.5193679 0.87668854 0.5314656 0.6966532 0.6835535 -0.056706212 -0.36796257 0.6498549 -0.3998758 0.2830449 0.66048455 0.62679946 0.18762721 -0.74736744 0.52539736 -0.6780974 0.2981451 0.63746583 0.91504616 -0.45664328 0.23429301 0.3149242 -0.63716227 -0.041768827 -0.8185612 -0.8404517 0.65279305 -0.010316381 0.78273964 -0.56006986 -0.11288514 0.47250998 0.531472 -0.7098852 0.61035156 -0.5513661 0.36890048 -0.25949898 -0.5888608 0.68569326 -0.75403357 0.7718983 -0.36474973 -0.45278487 -0.8092196 -0.5726171 -0.5795946 -0.09294416 -0.31588826 0.6696144 0.3844234 0.49030784 -0.7045546 -0.16394113 -0.14736548 -0.46577042 -0.7986459 -0.8684796 -0.6925321 0.32060483 0.3775911 -0.43023875 -0.42749834 0.07077183 -0.5596493 -0.10235084 -0.4970671 0.74843776 0.7416719 -0.66050595 -0.5570812 0.3567353 0.33522347 -0.3569149 -0.20930663 0.58489674 -0.96411663 -0.6961015 0.5004086 0.22495909 0.13890333 -0.35482225 -0.5192977 0.8876578 0.8285822 -0.7427193 -0.8383387 0.745329 -0.33659986 -0.2922904 0.4765626 -0.18697168 -0.23301283 0.57717377 -0.2709069 0.47756025 -0.3985774 -0.707162 -0.4009557 -0.34547064 0.40174636 -0.55619013 0.7251639 0.59887356 -0.40129665 -0.7977713 -0.35044423 0.6172005 0.63680494 -0.6520229 -0.9212385 0.31813347 -0.7562762 -0.36056352 0.39576384 -0.54806405 0.4267486 -0.01531443 -0.511627 -0.7092306
-0.053881768 -0.040598243 -0.1418707 -0.78673214 -0.69534254 -0.41332445 0.020071078 -0.7703812 0.3137721 0.31246457 0.39563754 -0.2898292 0.061212074 -0.025507905 0.3671472 0.20147336 -0.60600674 0.2667413 -0.2648132 0.30023488 -0.37479904 0.23764615 -0.34315288 -0.10614449 0.6125587 0.8154089 0.5300885 -0.49788854 0.5782729 0.899684 -0.5816385 -0.5577412 0.8845231 -0.27234218 -0.36710018 0.3211242 0.31480163 -0.13322496 0.015042596 -0.25695714 -0.61897415 0.18920133 0.23590742 0.4905752 0.7647627 -0.16383249 0.2946147 0.55946463 0.0058587566 -0.37383965 -0.23045738 0.3024701 -0.49915203 0.0069285505 0.6117149 -0.47415322 -0.13618937 -0.8272057 0.17755245 -0.22046547 -0.22412919 0.68216914 0.7699062 0.60826445 0.017595619 -0.5054545 0.022642024 0.5517494 0.015526354 0.13653168 0.8344316 0.69830436 0.5662716 0.786938 0.51415384 -0.18422814 0.28954428 0.32384664 0.67016643 0.012688562 0.19129556 -0.5186361 0.10175675 0.5823753 0.073121704 -0.3183073 -0.34445873 -0.4193317 0.4370716 0.3932947 -0.3949938 -0.5624248 0.1904087 -0.3502186 0.078187376 0.5684215 -0.6236592 0.70066166 0.41093183 0.34631553 0.2751546 -0.3975319 0.5107561 0.23673595 0.522214 0.5558933 -0.08612793 0.64074475 0.44822356 0.3458036 0.21646114 -0.10551321 -0.0364197 -0.43922168 0.030676808 -0.2803199 -0.22477256 -0.5881222 -0.29228565 0.5121332 0.5043423 -0.14882803 0.23466656 0.39333007 -0.5043967 -0.65749437 -0.46019098 -0.51657104 0.2609839 -0.8387471 -0.14324757 -0.064357534 0.16332817 0.5255753 -0.044110816 -0.39319623 -0.02295148 -0.31729954 0.2440914 0.36972126 -0.16895898 0.7668465 -0.050977256 -0.16874449 -0.5953677 0.17996597 0.67414945 0.32592902 -0.11307954 -0.04061098 -0.6643066 -0.27955833 0.19315113 0.27982718 -0.5657689 -0.42351928 0.037336055 -0.62487483 -0.39118004 0.666669 -0.85546005 -0.3780191 0.2584949 -0.63096315 0.07685491 0.27607247 -0.39180633 -0.52314675 -0.80418164 -0.5200029 -0.18013412 0.57702667 0.30801645 0.017303923 -0.205053 0.1573493 0.57374936 0.26160204 -0.60062134 -0.2656215 -0.21663688 -0.69277376 -0.15129623 0.07815001 0.27243215 -0.2504706 0.25794026 -0.150619 0.44466308 -0.41970143 -0.37630528 0.28203356 0.071656354 0.54401934 0.44579402 0.3152807 0.62877226 0.57888293 0.02558016 0.69083714 -0.47920695 0.22246419 0.43121335 0.35773873 -0.5601993 -0.70164156 -0.40121037 -0.5909226 -0.010120534 -0.18999106 -0.04906333 0.3356511 0.50826144 -0.6018489 -0.21545546 0.06414087 0.014170382 -0.09433748 -0.6644376 -0.28335884 -0.634598 -0.30846915 -0.22922452 -0.46259046 -0.69378126 -0.70364773 0.10391107 -0.5186985 -0.58160377 0.64477044 -0.27516887 0.57665884 0.08831244 0.6367457 -0.2933115 -0.061372418 -0.06431378 -0.38067526 0.1809102 -0.31603476 0.38706076 0.53140974 -0.69155717 0.7399393 0.39191514 0.11451255 -0.20153345 -0.37269956 0.46292415 -0.07420511 0.7417865 -0.7305429 -0.22003727 -0.5231114 -0.43372875 -0.71490735 -0.4086948 0.25696477 -0.16452923 -0.58461285 0.17714816 0.35471755 -0.11823761 0.14485899 -0.027053392 0.85584474 0.32124558 0.6788258 -0.45085785 -0.52956337 0.5345343 0.6289936 0.1548774 -0.15168925 0.52285767 0.66041243 0.23729293 -0.38255137 -0.10187966 0.0037534833 -0.15887031 0.002329852 0.4632757 0.12055348 0.031739 0.5058897 -0.63186646 0.17694496 0.18740293 0.18859081 -0.040610332 0.29700437 0.7566373 -0.04064502 -0.38940486 -0.40228057 0.5882723 0.17609343 -0.29703242 -0.23664387 0.5945208 -0.38710442 -0.6939253 0.24551718 0.017526489 -0.725337 0.09762551 -0.3680019 -0.17184533 -0.23813522 0.069699116 -0.36009914 0.06690066 -0.16697332 0.5446024 -0.010445751 -0.25812587 -0.33888277 0.030786764 -0.3667553 -0.03163966 0.075717635 0.54728794 -0.10235912 -0.23071854 0.15600826 0.14225887 -0.18890783 -0.18346566 0.20532295 -0.1851811 0.20760055 0.31405026 -0.59500813 0.4602486 0.50721073 0.085755624 0.10378916 -0.57496095 -0.19076146 -0.5316909 -0.31045106 -0.4397618 0.12554337 -0.08437281 0.15272418 -0.39021882 0.5865359 0.05873471 -0.22915098 -0.2942495 -0.13512576 -0.24196911 0.43197986 -0.4980859 0.2913498 0.36882326 0.21181455 -0.35947904 0.10774596 -0.6895166 -0.4964031 -0.1357745 0.43658164 0.13948429 -0.47208014 -0.11121748 0.13677953 -0.52409744 0.3481914 -0.19822064 -0.003430424 -0.61031026 -0.32226166 -0.6055593 0.23856041 -0.28476703 -0.44144332 -0.32599995 0.36327368 -0.59029055 -0.33152613 -0.04446407 -0.76699936
0.3109309 -0.2530884 0.012741125 -0.21874702 -0.45903486 -0.3944291 0.21646681 -0.51192373 -0.5813845 0.8465967 -0.08497367 0.22830433 -0.26055467 -0.42672494 0.36456063 0.44708517 -0.8264307 -0.09966578 -0.49540034 -0.034805737 0.073882766 -0.14705665 -0.3783706 -0.43064538 -0.547093 0.46329853 -0.36333168 -0.20935911 -0.060862586 0.5099862 0.07903718 0.07152539 0.71010274 -0.22514866 0.48923832 -0.23619667 -0.016667752 -0.02257206 -0.19352917 -0.44126844 0.0069092223 0.5899477 -0.41934597 -0.20590304 0.31637752 -0.8948165 -0.3505847 0.81265765 -0.6706569 0.23707698 0.37903866 0.49695775 -0.4027476 -0.28410175 -0.28172255 -0.11050817 0.49734065 -0.102113605 0.72891295 0.7708771 -0.22311153 0.15842468 0.587693 0.23893617 -0.1213007 0.12340195 0.15786287 0.080547445 -0.016362673 0.08981121 0.056857597 0.39963558 -0.53956956 0.61219287 0.41294158 0.6573163 0.59275585 0.22128585 0.22821799 0.05756247 0.08663165 -0.6373052 0.24190852 0.059935085 0.37497377 -0.6119923 -0.017672382 0.38383603 -0.33505052 0.16354412 0.5562723 0.25998163 -0.26424572 -0.6379912 0.6275747 0.4441001 -0.35139793 0.6512034 -0.028934881 0.704785 0.493858 0.18354428 0.51935685 -0.6573024 -0.095598236 0.097054295 -0.19603127 0.07483233 0.5991399 0.5032422 0.6576887 0.71751 -0.03936142 -0.2330559 -0.030863507 -0.29935303 -0.18717676 -0.5146355 -0.20520857 0.12088856 0.18294053 -0.28456235 -0.1044044 0.32421857 -0.1799352 -0.5198903 -0.23625256 0.10330637 -0.051608622 0.1847205 0.4225865 -0.517928 0.7599759 0.624801 0.32085901 -0.12311457 -0.48002875 -0.43396577 0.30465502 0.07964669 -0.15247796 0.5175432 -0.32334793 0.4018062 -0.23089635 0.3722069 0.24770737 -0.36658844 -0.5576673 -0.6931271 0.61060214 -0.13910481 0.05458956 0.30417794 -0.4760205 -0.2633194 0.4100268 -0.11041251 -0.09364886 0.1316781 -0.808549 0.119300514 -0.6670705 -0.9671591 0.32440034 -0.5502732 -0.6426541 0.13151267 -0.61465496 -0.8376512 0.25001532 -0.095628895 0.62963265 0.39577746 -0.11400385 -0.023437677 0.35797217 0.7835248 -0.03479642 0.57314295 -0.12640907 -0.34843662 0.4046925 0.5374516 -0.07533071 -0.028502956 0.49127015 0.3759088 0.32018182 0.4302441 0.23906703 0.4953094 0.5571567 0.349331 -0.42045486 0.6421135 -0.0023486898 -0.38121992 0.05458929 0.36874244 -0.38606232 -0.485131 -0.56108516 -0.36800036 0.33248848 -0.8043699 0.04911293 -0.6899861 0.5993924 -0.057638127 0.006522765 0.15525764 0.3533991 -0.6406411 0.2118415 0.22536118 0.56143576 -0.30719134 0.24383302 0.11647098 -0.7607045 0.5516816 -0.07004495 -0.54627126 0.010934088 -0.19607446 0.23184419 -0.33321616 -0.47333863 -0.30153742 -0.17530943 0.19470455 -0.51521814 0.35735258 0.26786795 0.07941902 0.75432056 -0.08801297 -0.137719 -0.6259146 0.29811424 0.23002017 -0.8372289 0.1943837 -0.4491338 -0.6587205 -0.26780432 -0.84246665 0.2699894 -0.2577409 -0.34094974 -0.46087506 -0.40207934 -0.068268925 -0.50294125 -0.17783348 -0.7142418 -0.1492516 0.4098266 -0.36757398 0.5950919 0.5721056 0.6837247 -0.55656433 0.04377033 0.6507121 0.6578275 0.4459973 0.58616245 -0.44474548 0.57985044 0.7148425 -0.03720545 0.50510794 0.378573 0.27880946 0.47854388 -0.17618205 -0.032276154 0.035304233 0.37745792 0.19007142 0.66571325 -0.027227232 0.5291381 -0.18519947 -0.19245422 0.55007374 -0.42432654 -0.6406362 0.4137926 -0.29315355 0.35108316 -0.33459678 -0.24649619 -0.052839894 -0.15947509 -0.14242227 0.3484875 -0.630369 -0.06794782 0.51220816 -0.92467034 0.2602273 -0.58410424 0.10604364 -0.0665416 -0.3774562 -0.5640852 0.40273696 -0.48363543 -0.40761182 -0.2940512 -0.3268137 0.31385 -0.43809798 -0.44575262 0.09683295 -0.09798455 0.5255845 0.06284817 -0.65368205 -0.3043832 0.3724429 0.18776464 0.07033884 -0.13149673 0.24720463 -0.012470609 0.047203388 -0.55566883 0.49179256 0.8257456 -0.17196034 0.4444223 0.4656686 0.13391107 -0.12668903 -0.09047149 0.66561323 -0.26888835 -0.15571083 0.07425629 0.39081195 0.16871165 0.48280993 -0.14000854 0.8520916 0.5479488 0.18396257 -0.43442017 -0.66984475 0.09168834 0.17059182 -0.5682005 -0.26683465 0.4407967 -0.12412444 -0.35488796 -0.24126709 -0.2324612 -0.18384391 -0.0189753 0.61503863 0.060831882 -0.58485645 -0.26736102 -0.45204797 0.4687191 0.2626631 0.8355467 0.5605362 -0.24539112 -0.4586959 -0.43925738 -0.093762554 0.31429574 -0.44372353 -0.03660227 0.62305665 -0.13184741 -0.5987582 0.1966964 -0.38628098
0.45876417 0.004198107 -0.47001308 -0.81286323 0.38195765 0.34304667 -0.24571124 -0.5915586 -0.15317306 0.69328547 0.8585778 -0.46419218 0.2781391 -0.11673279 -0.73427457 0.043096896 -0.007224101 0.8742957 -0.383737 -0.2781741 0.7586978 0.45793003 -0.3271133 -0.021622755 -0.5038744 -0.100291 0.54318553 0.4789158 0.3124148 -0.32773653 -0.8315991 0.029785674 0.19225796 0.33579874 -0.16779251 -0.6132874 -0.6091023 0.5772859 0.39274803 -0.4562454 0.20345658 -0.08515798 -0.23254925 0.059181113 -0.63884294 -0.3583943 0.51930183 0.06605861 -0.47488037 -0.5354108 -0.24769536 -0.12251576 -0.12394801 0.9135299 -0.23503654 -0.48602286 -0.6262991 0.04998165 0.13070291 0.78091145 0.34636945 -0.28415325 0.22766106 -0.39668608 0.8447551 0.2329529 -0.36245757 0.5103677 -0.3078509 0.681646 0.047283158 0.6040262 -0.26274362 -0.5975345 -0.57422054 0.12119931 -0.72603095 -0.13466041 -0.33857968 -0.24048473 -0.25556302 0.12429232 0.4524093 -0.009822449 0.39690265 -0.40625626 0.08596288 0.011832545 -0.32734314 -0.10696041 0.5361237 -0.14298667 0.5479712 -0.012823262 0.51372385 0.27615625 0.2250747 0.40678748 0.5974231 0.72626513 0.10665865 0.2816822 0.10285336 0.40010798 0.009006065 -0.63047636 0.62178934 -0.11660146 -0.4156883 0.4180243 0.7648239 0.77194506 0.53551686 -0.07654755 -0.4906335 -0.33092472 -0.59818864 0.10039452 0.20539382 0.63608706 0.319567 -0.37129676 -0.077406295 -0.69698846 -0.4101373 -0.7044549 -0.14681919 -0.13738468 -0.39899114 -0.21048667 0.3851528 0.11361728 0.55644214 -0.27152538 -0.04490582 0.21721631 0.7479862 -0.2672375 -0.6008034 0.72410446 0.30161312 -0.78764945 0.29397568 -0.5894545 0.77897537 0.13879657 0.16366105 -0.34747967 -0.39342153 -0.36438614 -0.18732123 0.14940766 0.23985429 0.11708056 -0.27877063 -0.47499388 0.5251261 -0.7173904 -0.7015252 -0.07735666 0.2979091 0.2477613 0.30024326 -0.18541744 -0.7081594 0.6758897 -0.706755 -0.3622395 -0.7661264 -0.8147817 -0.022213688 0.90233177 0.78776354 0.14943898 0.37839615 -0.3155657 0.021957165 -0.004375971 0.3134026 -0.14519604 -0.2862532 -0.5722512 -0.19544902 -0.17519362 0.32709733 -0.4335818 0.33151194 0.8762246 0.028337158 0.17722827 0.089822166 0.2950048 -0.11867355 0.74075013 0.2366624 0.30515814 -0.02036879 -0.36840552 -0.60794884 0.7724563 -0.4727695 0.5785677 -0.15319626 0.5462659 -0.95159066 -0.34871334 0.16541018 0.47729075 0.30928212 0.63020086 -0.9492838 -0.623625 0.012295586 0.35687873 0.8902568 -0.8415996 -0.14419416 0.7545614 -0.84470993 -0.5155045 -0.5364432 0.5491278 0.12194545 -0.37268198 0.30772918 0.35822535 -0.8506296 0.49830624 -0.0044520795 0.775639 -0.43425947 0.57562107 -0.13696837 0.41846585 -0.06571713 0.24201742 -0.42660898 0.35676125 -0.059934635 0.18801264 -0.13960275 -0.55704963 0.3247288 0.5377692 0.5370526 0.12593712 -0.54513603 -0.063187964 0.104690224 -0.27264264 -0.012057471 0.5385504 -0.4078788 -0.3984652 -0.4773549 0.15340191 0.3493611 0.17722493 -0.10940938 -0.45196566 0.69240314 0.49297997 0.026843352 -0.05787169 0.23361555 0.8028175 -0.21893881 0.55216706 -0.17386769 -0.53573143 -0.32335642 -0.42336977 0.29531726 -0.2148743 -0.7557177 0.7388974 -0.8061609 -0.43884516 0.09124894 -0.55602956 -0.30754682 0.3879445 0.120535456 0.47957754 0.53057224 0.41621277 0.5675729 0.39145535 0.2202543 -0.26117224 -0.46927923 -0.91897935 0.65224177 -0.20798886 -0.43412566 0.6150609 0.47000256 0.528392 -0.641956 -0.33795795 0.32600284 0.4944521 -0.55437547 -0.82704943 -0.21288915 0.081680864 0.35159597 0.2837901 0.6736224 -0.053833816 -0.033880014 -0.8041605 0.7528777 0.6261127 0.7469824 0.31347096 -0.4642915 -0.19276823 -0.0224117 -0.56889147 -0.4366038 0.091954276 0.12117654 -0.3623294 0.038545478 0.30293366 0.45853227 -0.13747329 -0.2974944 0.36303374 -0.40987512 -0.59258425 -0.24378781 0.061891444 -0.28419194 -0.19173416 0.32812876 0.47469684 0.34322053 -0.3851827 -0.8410712 0.10571569 0.0734879 0.026331425 0.19067043 0.32267475 0.48521933 -0.5116025 -0.2558524 0.5236564 0.04712723 -0.37911797 0.43408862 0.17336304 0.5754133 -0.20658337 0.23005013 0.7546162 -0.7540354 -0.80491203 0.58947116 -0.33967543 0.5803532 -0.24214238 -0.71156627 -0.23666885 -0.099257514 -0.48812735 -0.078972146 -0.5104839 -0.44785094 0.7219404 -0.47419888 -0.021437436 -0.11401325 0.7560146 0.205921 -0.49390778 0.451045 0.2719997 0.07332493 -0.6100742 0.6504514 -0.7350724
0.46130195 -0.47316977 -0.67715317 -0.90548193 -0.4947512 -0.16236871 0.9706507 -0.7526535 0.77013147 0.41600642 0.91662437 0.907566 0.6541972 0.9251954 -0.5757698 0.66164577 0.5865676 0.01918828 0.458486 -0.8053405 0.85483074 0.92919815 0.2571962 0.8630925 0.31492525 0.73376006 -0.87938404 -0.587102 -0.73799205 3.5576522e-05 0.9431527 0.0709718 -0.4848249 -0.2864702 -0.7657531 0.7960516 0.49289888 -0.35101694 0.44122693 -0.8004505 0.69731367 -0.64460135 -0.1868254 0.26743418 0.7220699 0.6444003 0.44327486 -0.7175673 0.5689403 -0.5757561 0.68256664 0.56176704 0.36748433 0.41826862 0.3153879 0.4866797 0.81496775 -0.7132085 -0.35505593 0.94910234 -0.074826136 0.73403686 -0.80823123 0.683462 -0.6993758 0.64250904 -0.8337647 -0.75650066 -0.55453485 0.77605647 0.5169678 -0.54108787 -0.36475182 -0.26770997 0.7211892 -0.6047114 -0.74270606 -0.29827994 -0.4816705 -0.1953808 -0.6856285 -0.20653793 0.65715504 0.60187525 0.43696955 -0.8258292 0.95286006 -0.6657274 -0.04919055 0.5896435 0.6756948 0.7815858 0.062909216 0.86848694 -0.3296678 -0.6954675 -0.66521525 0.87948495 -0.6562967 -0.2610953 -0.5942927 -0.48881513 0.15595666 0.7365362 0.7414587 0.35206693 0.15623248 -0.68467194 0.21849406 0.1529819 0.868013 -0.7705323 0.2278311 -0.544541 0.5508763 0.3209795 -0.9418274 -0.7584915 -0.9524003 0.097589776 -0.89104813 -0.44972694 0.53093785 0.79505706 -0.06747207 0.8957137 0.90581524 0.24143517 -0.28500476 -0.54841423 -0.243557 0.7028838 -0.2737183 0.6339156 0.85810226 -0.7047376 0.45348483 -0.8137089 0.44006723 -0.873378 0.46566728 0.5359952 -0.68041474 -0.80056465 0.6657541 -0.3200239 0.9373034 0.49886712 0.275487 -0.8311126 -0.2982038 -0.73464614 0.6751062 -0.5436832 0.040577188 -0.828218 0.85933506 -0.70937157 -0.39061093 -0.6844734 0.6187035 0.4056908 0.5863256 0.32671046 -0.19344151 -0.21675853 -0.7183172 0.55003303 -0.11034355 0.75936 -0.8565342 0.21099722 0.77149266 0.32130712 0.9535618 -0.8877849 0.77308714 -0.26852003 -0.8183657 -0.2823123 -0.6522528 -0.12511991 0.5589592 -0.17548601 0.9424333 0.8760334 -0.36411238 0.42902437 -0.675097 -0.3102918 0.28838584 0.5779053 -0.71707237 0.2926467 0.69553137 -0.8346287 -0.9074639 0.72000766 0.65168214 0.85526896 -0.93312776 -0.5039356 -0.82076174 0.73885477 0.68780905 -0.8318671 0.6907933 0.30374414 0.7454477 -0.5444139 -0.97901905 -0.40097916 -0.27835983 -0.8398041 -0.95108503 0.5348634 -0.69560975 -0.3223903 -0.950513 0.79939604 -0.653589 -0.51998085 0.38338888 -0.969167 0.5500355 -0.24241647 0.12595537 0.6658329 0.25273958 0.46696198 0.8093456 -0.38145095 -0.32123193 0.7165037 -0.75534654 -0.74412966 -0.9272125 0.6703645 -0.5489101 -0.85330576 -0.58476233 0.6358684 0.77549446 0.035669133 0.1194913 -0.4019555 -0.36724588 0.6697196 0.4999686 0.9518281 -0.88618916 0.8200651 -0.55692214 -0.87532574 0.17644522 -0.034150764 0.21515058 -0.34892964 0.8319363 0.3265472 0.52478015 0.94289637 -0.86254734 0.7358695 0.6430043 -0.62585086 -0.14039542 0.935434 -0.7265436 -0.8038123 0.692639 -0.8687196 0.8383894 -0.37649253 -0.90275455 0.29640093 0.32589498 -0.29949507 -0.9567232 0.9238405 0.668881 -0.18264256 0.8337214 -0.78848875 -0.3913136 -0.7301757 -0.7862575 0.5211523 0.80207926 0.62060386 -0.59500396 0.3119073 0.27424952 -0.78159404 -0.6486422 -0.2620546 0.9608702 0.23327078 -0.8694213 -0.39029348 0.6058082 -0.47659013 0.16768943 -0.22295755 -0.39710283 -0.07305083 0.7166499 -0.9070162 0.6808194 0.70000684 0.6846872 -0.7316553 -0.59705687 0.29709548 -0.48656464 0.57931 -0.83541536 0.6489751 -0.036314256 0.67183524 -0.9832267 0.61325026 0.6134416 -0.22657417 0.38807064 -0.887524 -0.6982717 -0.89044386 -0.95171463 -0.6002547 0.03439915 -0.8140171 0.9288661 -0.773925 0.880867 0.8727576 0.7859638 0.29776466 -0.2638287 0.39663455 -0.7974333 -0.90158343 0.054123335 0.4068529 0.70386326 0.55390894 0.2593221 0.23097841 0.3300994 0.7315452 0.91825867 -0.8872828 -0.8541437 -0.21836853 -0.66828644 -0.5462619 -0.011584699 -0.877346 -0.54353726 -0.6055063 -0.40112856 -0.8448688 -0.8032638 -0.89506054 -0.65147716 0.7731759 -0.6870649 0.36933288 -0.3037548 -0.046617582 -0.63465166 0.3331024 0.33985516 0.47193754 -0.80514866 -0.5717376 0.47393733 -0.5203347 -0.9458521 0.459067 -0.8621413 -0.71251625 0.46829286 -0.75428265
0.29063395 -0.5986069 0.08525939 -0.5153377 0.4332055 -0.34930375 0.345227 0.020986676 -0.12293172 0.85355526 0.5547394 -0.17424844 0.3199894 0.10366945 -0.20098157 -0.22689247 -0.54573435 0.31617463 -0.25433865 0.72869074 -0.4373726 -0.142078 0.62187916 -0.16788752 0.547128 0.26483715 -0.2504116 -0.41650924 0.0045889327 -0.47884595 0.26054013 -0.009796615 -0.5109533 -0.6574144 0.33934817 0.6038778 -0.0030641835 0.55691814 0.7597364 -0.38429964 0.8747563 -0.1471999 0.9069883 0.3319564 -0.037494037 -0.6521102 0.847519 0.9418384 0.4110572 -0.37904963 0.31303024 0.50872844 0.8136401 -0.15367578 -0.85801595 0.35907018 0.71529925 -0.3043126 -0.3298648 0.94123536 0.10067513 -0.5027769 -0.90214646 -0.390149 -0.54234374 -0.44070202 -0.14507076 -0.8322862 -0.8712267 0.3690681 0.5893123 -0.46800664 -0.5988542 0.3843555 0.3002752 0.37119865 0.8340457 0.16949837 -0.052377462 -0.11577569 0.58944136 0.42445025 0.7697077 -0.8335495 0.10458916 -0.48051617 0.56906784 0.43795064 -0.1558711 0.2599213 -0.11977732 -0.2805263 0.6628567 -0.91654253 0.0067843967 -0.6966173 -0.6469663 0.14652485 -0.8730399 -0.35903856 -0.11145982 0.42574954 -0.18987189 0.6756475 0.16937707 -0.60397875 -0.61447984 -0.22103147 -0.4517423 -0.2627283 0.1879684 -0.18331683 -0.8088003 0.079004414 0.107448414 0.20273197 0.11422101 0.019939559 0.8226705 -0.39258814 0.14218098 0.030374417 0.13518137 0.31880933 0.040770315 -0.046440415 -0.04643073 -0.13535811 -0.2986708 0.33503667 -0.31476554 0.48860562 0.2301644 -0.33290896 0.8223421 -0.1454355 -0.2309216 0.3770115 0.3841918 -0.13386004 0.34797972 -0.5180995 -0.3341174 -0.38123548 0.10536402 -0.46256202 0.035359904 0.00060811086 0.8940268 -0.4531008 0.093537085 -0.46636906 -0.5863526 -0.25125727 0.22683246 0.2308854 -0.21533555 0.6613431 -0.038961682 0.07311957 -0.21239215 0.058807164 -0.18923694 -0.16068676 0.4596406 -0.779592 -0.8803908 -0.40499964 -0.3516065 -0.8175371 -0.5385125 0.07240016 -0.15342486 -0.23341554 -0.46167624 -0.27223718 -0.25829193 0.3140898 -0.8618931 0.7505882 -0.5708153 0.22592653 0.76514363 -0.5411922 -0.70107746 0.2884873 0.5404895 0.5851658 0.70451707 0.45571414 -0.36903268 -0.71760106 -0.27539462 0.7709013 -0.7523075 -0.3974388 0.2590039 -0.8343967 -0.11623459 -0.221783 0.24372174 -0.76943374 0.09937603 -0.46309015 -0.14025877 -0.8971957 0.2104093 -0.5156547 0.11859841 0.52262443 -0.687481 -0.05379347 0.9151222 -0.4507478 -0.024571987 -0.3599037 -0.52794987 -0.026038822 -0.028553255 -0.44477463 -0.15174073 0.15101695 -0.4237775 -0.52259743 -0.60984635 0.63164514 0.31351155 0.68467754 -0.65683436 -0.5939646 -0.0180862 0.08047188 -0.03956835 -0.29160714 -0.6072057 -0.82869 -0.13663839 0.90464914 -0.04280466 -0.77726847 -0.5662913 0.25964367 0.71945024 0.5816698 0.5972617 -0.098190285 -0.0054257587 0.17381288 -0.78307337 -0.60116214 -0.82396245 0.28098232 0.45376062 0.08198571 0.43260086 0.40359682 -0.045565445 0.3998756 -0.17023486 0.07305373 -0.25419912 0.5183847 0.023467377 -0.39093632 0.49418414 -0.19558667 -0.44615895 -0.6988516 -0.3372118 -0.9119688 -0.38665667 0.41044006 0.8367907 0.4882537 -0.894682 -0.8375149 0.2865769 -0.3376165 0.6728612 0.39566785 0.119941 -0.52537245 -0.13725983 0.21382497 0.8254957 -0.56868964 0.9007937 -0.33226708 0.7028969 0.51538587 0.66190875 0.20694864 -0.6278655 0.068982 0.6511783 0.21458273 -0.52439773 0.4125594 -0.5428122 -0.5601884 -0.09321336 0.6254915 -0.11682228 0.8355792 -0.57866484 -0.9059699 0.24443342 -0.10206706 0.10437078 0.29511768 0.266239 0.24298394 -0.35809323 0.54533094 0.2791376 -0.82537293 -0.6976684 0.5760953 0.56290835 0.29783976 -0.55707854 0.24891065 -0.58311045 -0.46873286 -0.43718225 0.65257895 0.3573422 -0.52280945 -0.5220735 0.693524 -0.4853172 -0.25545567 0.8669879 0.3523065 0.0071480186 -0.27231905 0.87624973 0.41290915 -0.20888293 -0.22582117 0.17610581 0.04191368 0.057549644 0.09758201 -0.34528953 0.37927455 0.29676065 -0.3755331 -0.6285133 0.5447138 0.39422077 -0.054610986 0.05390629 -0.32712388 -0.26778513 0.22268821 -0.069526546 0.49629125 0.9374856 -0.8888963 0.57706666 -0.105968334 -0.18852411 -0.2558416 0.3352224 0.8340592 0.42992306 0.85050833 -0.08297291 -0.103628434 -0.28803584 -0.28108382 0.27776003 0.36574867 -0.13795877 0.405967 0.13448593 -0.25200948 -0.9145145 -0.22654158 -0.10803011 -0.40587097 -0.50465643 -0.5884614
