-0.81012595 -0.90777934 0.3831767 -0.60702956 0.23972952 0.55326605 0.7191834 -0.8401992 -0.31652677 0.266262 0.27975267 0.026704714 0.32864982 -0.38574603 -0.8660817 -0.7811731 0.9179659 0.86692697 -0.56302744 0.41022354 -0.6390559 0.70988923 0.41853228 0.94913894 0.77361697 0.103451714 0.9393381 -0.34642547 0.032624252 -0.7987561 0.40830824 0.58804256 -0.2874362 0.9017485 0.49727508 -0.0025436282 -0.70109415 -0.5846136 -0.12797503 -0.5249898 0.594791 0.6851128 0.27927724 0.8852209 0.6003591 0.7329049 -0.7937241 -0.5039036 0.3586164 0.5978106 -0.8890655 -0.9360111 0.66080296 -0.64672637 0.9544488 0.8495044 -0.67707103 0.41110882 -0.89021516 0.22540192 -0.52577734 -0.36784574 -0.73871017 -0.7083531 0.8164966 0.35515726 -0.7734054 -0.7207433 -0.6065202 0.86328 0.13979246 0.21110763 0.61131376 0.69901234 0.09598176 -0.81618077 0.04958694 0.51515424 0.468505 0.8792188 -0.08995353 0.13319398 0.032109234 0.6647812 0.27044445 0.23426105 0.8102052 -0.6857237 -0.5813853 -0.8545676 -0.33607408 -0.47662142 0.7766235 0.88333553 0.08864669 -0.5440279 0.9284683 0.35607925 -0.34143013 0.38534072 0.9323746 0.8184895 0.77309155 -0.5196597 -0.96865034 -0.46868482 -0.56462353 -0.7311832 0.43197608 0.40883124 -0.25510582 -0.120774016 0.6362142 0.04955881 -0.5353459 -0.7716855 0.5938175 0.74607897 0.37240672 -0.07497397 -0.9663691 -0.057758704 -0.40811485 0.7144618 0.10985555 0.7564906 0.75457996 -0.14949614 0.18490057 0.8371726 0.0731321 0.6031482 -0.5929851 -0.4833141 -0.70176554 -0.4233809 -0.5190258 -0.017407225 0.30034748 0.30757493 0.44669765 -0.7670415 0.23047055 -0.49463725 0.85622627 0.13655666 0.26172045 0.34564036 -0.6855346 -0.36935616 -0.6474298 -0.12483761 -0.18452774 0.73273814 -0.8220343 -0.65138596 -0.38688648 0.21993409 -0.644107 -0.54454136 0.6194589 -0.42532992 0.67351705 0.17140836 0.72438145 -0.3760078 -0.5370072 0.28938913 -0.78616434 0.27355927 0.20907696 -0.7112926 -0.048660416 -0.4756561 -0.7309006 -0.5874772 0.70545065 0.3774884 0.7967025 -0.47779864 -0.3500244 -0.54182124 -0.6556685 0.74175096 -0.062994465 -0.36723065 0.54572195 -0.09730605 -0.84113353 -0.02859592 -0.008578157 -0.27456877 -0.47243512 0.32526076 -0.15891445 0.49748683 -0.8717068 0.34388387 0.23061141 -0.69042754 -0.8053174 -0.29812145 0.55669665 0.53759336 -0.8556667 -0.3603496 0.15841743 -0.5988214 0.4320727 0.5778554 0.5822394 0.47859108 -0.5504761 -0.326588 -0.8098631 -0.5707 0.031159867 0.14267832 0.19441907 -0.23832095 0.74013805 -0.58791935 0.5405472 0.7846142 0.44101483 -0.35125712 0.29075685 0.74712086 -0.5360115 -0.53060263 0.2828654 0.8250184 -0.42086205 -0.2767292 -0.4151402 -0.53877896 -0.71214545 -0.16717412 -0.32975242 0.9470587 -0.8938388 0.32423288 0.24644436 0.55344415 0.42525533 0.7658215 -0.72671264 0.028078437 -0.8098531 0.8396867 -0.59998316 -0.23336358 -0.7485844 0.34018293 0.50376135 -0.23331562 -0.13765155 0.63829184 0.485676 -0.3325197 -0.35523796 0.6655252 -0.91975796 -0.27342615 0.7137255 -0.4635473 -0.042744093 0.28360596 -0.25473994 0.65430224 -0.25785667 0.54943186 -0.20275642 0.5940668 -0.16829497 -0.5035919 -0.8153641 0.012686254 -0.6250553 0.83278596 -0.051050752 0.6491225 0.38310054 0.34356266 0.63339657 -0.6940904 0.12266607 -0.7164094 -0.12083414 -0.71041626 0.6784639 0.0026486963 0.9237074 -0.42678934 0.5035253 0.60827315 -0.6400427 0.381555 -0.92044336 -0.28257573 -0.2982175 0.7134899 -0.29738522 0.37665328 -0.8508088 -0.5138743 0.33602268 -0.62363553 0.14850768 -0.507361 -0.3848188 -0.94688773 -0.037895694 -0.18558891 0.034901112 -0.42276913 -0.66059184 -0.82246804 -0.30193213 0.8258433 -0.8168202 0.30968487 0.3146323 0.10738225 -0.671935 0.5487757 -0.62122923 -0.88234293 -0.13281794 -0.016418576 0.7112125 -0.47642845 0.5882442 0.78173333 0.26326865 -0.70582074 0.612133 0.6619783 0.70739764 -0.105983905 -0.8625695 -0.7912425 0.30304715 0.35942012 0.22332 0.8259124 -0.5093425 -0.78074926 -0.74043 0.77570796 0.44909316 -0.69776416 -0.41163024 0.48088855 -0.15258671 -0.61320317 -0.6701898 -0.43330857 0.9283794 -0.57548714 0.66396 -0.5168766 -0.6248859 0.5843644 0.10348839 -0.7987928 0.050100513 -0.5872092 0.3882156 -0.92528206 -0.33763015 -0.21296391 0.92654747 -0.7640195 -0.85878724 0.6798876 0.72261804 -0.09241189 -0.5067404 0.8319197 -0.25132224 -0.6793187 0.7077667 -0.6900873
-0.16303478 -0.23325169 -0.0304844 -0.30491123 0.19371057 -0.13815388 0.30138353 -0.4589343 -0.04561208 -0.30270827 -0.16195115 0.19561335 -0.20314327 0.157492 -0.6136737 -0.3944453 0.91936594 0.8061001 0.10762444 -0.111492574 -0.7348195 0.70933306 -0.06228769 0.80297995 0.27977094 -0.2584125 0.8158789 -0.6274214 0.31378403 -0.10866106 0.09925519 0.2259722 -0.18430981 0.53220004 -0.20552586 -0.3235586 -0.67134595 -0.4107485 0.24100058 -0.61499584 0.4745775 0.73420155 0.7228042 0.2925483 0.33652192 0.67897314 -0.21157259 -0.513351 0.1976448 -0.010053125 -0.3402687 -0.7117864 0.09772856 -0.66078764 0.6937206 0.3516576 -0.06611154 0.36872673 -0.15888318 -0.13569434 -0.73032176 -0.004788219 -0.5538053 -0.5844849 0.77828133 0.29956803 -0.13944136 -0.3547432 -0.5268195 -0.12843862 0.03817936 -0.21027182 0.11288103 0.5450864 -0.299331 -0.2699721 0.48005974 0.45014757 -0.40262875 0.100465536 0.14344235 0.24308352 0.2896357 0.00087928865 0.28508168 -0.23320156 0.27334085 -0.14104371 -0.6018755 -0.1684327 -0.18887758 -0.514592 0.6853309 0.7119766 -0.05007084 0.21009128 0.7750826 0.013547422 -0.43446386 -0.06392027 0.808405 0.61596364 0.834186 -0.70884997 -0.36998874 -0.49367088 -0.6904304 -0.5275908 -0.1102862 0.59878737 0.015053446 -0.10033653 0.5089164 -0.21283476 -0.11736493 -0.5736207 0.2332863 0.78763324 0.08094283 -0.1542027 -0.46463048 -0.35671157 -0.24153699 0.30213705 -0.32351232 0.59880173 0.7020094 -0.03343962 0.44534987 0.52773446 -0.085827865 0.1204 -0.036502033 -0.044189908 -0.366338 0.21797578 0.012198813 -0.33168152 0.22994891 -0.06718328 0.56690526 0.16615409 0.28602642 -0.20885308 0.58934987 -0.10851467 0.3798002 0.3901196 0.075136624 -0.32082585 -0.037782647 -0.27161887 0.07828367 0.7979885 -0.7704177 0.11726857 -0.44780505 -0.25904375 -0.45270792 0.078041926 0.323061 -0.5190267 0.51282346 -0.26871124 0.17035179 0.106480196 -0.6199404 0.21063086 -0.7093941 0.60427934 -0.02360829 -0.53575385 0.1831974 -0.07896475 -0.64204746 -0.7024585 0.5429215 -0.3876276 0.6653654 -0.20253533 -0.12880817 -0.4513853 -0.7379854 0.45411894 0.084706955 -0.44768444 0.45355436 -0.013040988 -0.7130179 0.2890556 -0.19340828 0.22549802 0.12304128 0.5163858 -0.36065733 0.22771591 -0.8826391 0.4482389 0.22568637 -0.2659409 -0.17048526 -0.0917296 0.10197321 0.583549 -0.6626518 -0.17207308 0.57296896 0.0041118218 -0.17123063 0.23008476 0.13927218 -0.19562934 -0.039067414 -0.41610852 -0.37958074 -0.5985007 -0.17968716 -0.001776136 -0.4299879 0.134595 0.59375936 -0.071702994 0.046152357 -0.087295875 -0.19821103 0.13232714 0.53076154 0.36187387 -0.55587447 0.08907515 0.12469396 0.33939773 -0.07675415 -0.41468653 -0.33769375 -0.010758282 -0.6710776 0.2039935 0.12706661 0.8769932 -0.61886805 -0.051471945 -0.002828584 0.6662136 -0.0028807456 0.30080432 -0.064621985 -0.11828849 -0.0031877882 0.28709453 0.025775377 0.009877579 -0.5839536 -0.195325 0.63162595 -0.36280355 0.12334451 0.8030706 0.32962155 -0.4622773 0.29123557 0.19273952 -0.24281889 -0.19379827 0.5087086 -0.47327662 0.072668366 0.37964416 0.28877902 0.72084266 0.29231948 0.03857076 -0.38387445 0.56566256 -0.41734204 0.1722451 -0.7083051 0.22352415 -0.53399515 0.5302182 -0.28361526 0.58464926 -0.031309396 -0.22152786 0.18319778 -0.56727093 -0.07992971 0.088167846 0.284496 -0.62207353 0.5063628 -0.323357 0.746704 -0.13722473 0.18988143 0.30040938 -0.28614336 0.0656779 -0.024123605 -0.5199563 -0.47816533 0.67102027 -0.62886965 0.16409332 -0.57035 -0.5366442 0.5048405 -0.23668405 0.5043668 -0.35734728 0.11145982 -0.7306214 0.12709151 0.38296324 -0.09285364 -0.13219261 -0.5690351 -0.9649951 -0.49963784 0.55935895 -0.33391628 0.20239976 -0.007123607 -0.12400539 -0.27980977 0.1743366 0.16588926 -0.8207221 -0.28639036 0.43650597 0.5506771 -0.40041846 -0.097234614 0.26299828 0.48987138 -0.18505293 0.29701275 0.65898645 0.631292 -0.43132615 -0.51325 -0.5422532 0.5215508 0.4518788 0.23298888 0.29456785 -0.5753125 -0.26871422 -0.30247346 0.7471948 0.25423843 -0.55194384 0.11855057 0.27714437 0.00095471647 0.11092882 -0.54957294 -0.4255966 0.88950884 0.05110964 0.53807825 -0.6067055 -0.4920684 0.4850925 -0.17080286 -0.3270429 -0.110261075 -0.716453 -0.18161725 -0.547214 -0.07450843 0.25576487 0.5639666 0.038473222 -0.58117384 -0.0048241927 -0.12703319 -0.19019243 -0.5392736 0.19443063 -0.20226166 -0.43856546 0.68655527 -0.7735163
-0.56241494 -0.83542055 0.37969503 -0.31986874 0.060697556 0.31909057 0.42651874 -0.48950902 -0.25568253 -0.080490515 -0.17266269 -0.07118705 0.22291763 0.16297583 -0.5705774 -0.8723709 0.90550953 0.7580346 -0.21121131 0.18456963 -0.8304342 0.7024611 0.27163744 0.6170601 0.4043489 -0.069280915 0.8783072 -0.20959161 0.031055123 -0.44761765 0.23922074 0.6480364 -0.21862279 0.56598866 0.35549897 -0.10926114 -0.6259692 -0.70197874 -0.34133634 -0.41633692 0.2910358 0.78009814 0.57585025 0.6454535 0.3355945 0.7044601 -0.6027421 -0.5022251 0.19318585 0.4974756 -0.82254326 -0.61240506 0.58298993 -0.4115076 0.77160734 0.822262 -0.32740605 0.2717485 -0.5524902 0.10346266 -0.70976406 -0.496398 -0.3243616 -0.50485563 0.72373885 0.36230552 -0.3289466 -0.09089771 -0.45029217 0.2956967 0.08132098 -0.10195126 0.50466853 0.34900546 -0.027142536 -0.6712561 0.21046089 0.4721146 -0.30568865 0.6614511 0.27642864 0.23515491 0.06991271 0.42333746 0.19165017 0.38195544 0.6914449 -0.37997463 -0.39069852 -0.5528764 -0.52933615 -0.29812372 0.57182944 0.36468342 -0.2740684 -0.005790386 0.8171085 0.055032358 -0.36531562 0.6341355 0.8594181 0.66375726 0.81860054 -0.6312019 -0.80132496 -0.17064172 -0.64335406 -0.55573523 0.5664992 0.51272017 -0.13438784 -0.100776784 0.5462884 0.15843856 -0.4290221 -0.45339182 0.72114205 0.74613667 0.15709591 -0.5820473 -0.5128273 -0.1037185 0.023942903 0.2070918 -0.17436294 0.7904701 0.42104465 -0.30394694 0.2944156 0.26257595 0.1514943 0.34519812 -0.29914802 -0.43268782 -0.45690188 0.18514894 0.105908684 -0.21893176 0.16204067 0.13248995 0.50810874 -0.057707064 0.25985017 -0.03309212 0.49317616 0.33443165 0.13688563 0.39492834 -0.16198555 -0.08214232 -0.39353213 0.05682226 -0.2285453 0.8064008 -0.7643741 -0.06786037 -0.5240267 -0.04234804 -0.41625163 -0.25987723 0.8762599 -0.2078949 0.29245704 0.010236405 0.6841139 -0.20591317 -0.63586867 0.22246917 -0.7089105 0.57377994 0.013991917 -0.5659127 -0.00921217 -0.15701023 -0.5578554 -0.7781593 0.37749597 -0.23289481 0.565249 -0.48392174 -0.4531415 -0.40207866 -0.6277534 0.37463105 -0.39359334 -0.3805796 0.54595757 -0.4212535 -0.6243793 0.020931995 0.09846681 0.09004015 -0.30523372 0.42669222 0.0780684 0.5261515 -0.8672615 0.7978475 -0.07373356 -0.5898184 -0.074743204 -0.10567432 -0.110670485 0.17851122 -0.4262319 0.06902481 0.34637254 -0.54999083 0.23546155 0.5399435 0.66122645 0.33611372 -0.32439905 -0.48469132 -0.3139506 -0.64941317 -0.10891387 0.5687198 -0.35431436 -0.031215368 0.7611855 -0.7172808 0.4067676 0.4816768 0.032289483 -0.19198866 0.37384158 0.5755725 -0.31585777 0.11405871 -0.086641595 0.19433331 0.14492191 -0.28901938 -0.8287454 -0.16620463 -0.5613062 -0.14998645 -0.34929773 0.8098505 -0.6789118 0.06375953 0.15598616 0.69274306 0.6387691 0.60019886 -0.5785503 0.09486446 -0.5579864 0.9330416 -0.1316699 -0.20426282 -0.71482044 -0.046750817 0.5952535 -0.38038263 -0.34201095 0.691221 0.13149136 -0.10940239 -0.18029869 0.6583347 -0.5215074 0.022127682 0.2736538 -0.22707036 0.10753293 0.073881544 -0.26759437 0.6681256 -0.07596766 0.32679135 -0.3230296 0.53066194 -0.3797044 -0.2637562 -0.73607755 -0.010540356 -0.3932818 0.84715384 -0.022006199 0.63245815 0.058418233 0.30325347 0.5606068 -0.26862004 0.012747611 -0.49230808 -0.056167774 -0.7841455 0.59027636 -0.077544436 0.683312 0.019703934 0.3072197 0.14186577 -0.44546622 0.44866285 -0.28365374 -0.32539058 -0.3372843 0.72428167 -0.46293887 0.2265885 -0.70182836 -0.4923674 0.44274274 0.043619175 0.35070613 -0.6965091 -0.017671209 -0.7959319 0.2914728 0.09126908 0.032509387 -0.22621265 -0.43840218 -0.9198287 -0.38805082 0.6557302 -0.57770985 0.43418586 0.033315863 0.02036611 -0.6605571 0.28953123 -0.23545295 -0.8443471 -0.12543187 0.15657093 0.62659395 -0.27029076 0.28405717 0.7498768 0.22998418 -0.61488825 0.112930946 0.5610374 0.47139364 -0.39249924 -0.64213145 -0.39273143 0.45295525 0.55731976 -0.17395897 0.15678029 -0.48869273 -0.07649532 -0.7273385 0.58709836 0.08137598 -0.2687408 -0.36535 0.2982295 -0.21586649 -0.05080106 -0.38951755 -0.52385104 0.87453926 -0.29173407 0.7184861 -0.49758375 -0.38620704 0.576012 -0.23320532 -0.6424736 0.068784736 -0.39084265 0.17916635 -0.6475015 -0.3465574 0.0034823716 0.58992565 -0.1468153 -0.6900388 -0.028082695 0.059271045 -0.053868853 -0.6430743 0.5200845 -0.012352143 -0.43697733 0.7598495 -0.5305407
-0.64255685 -0.6116746 0.4025566 -0.22447073 0.043688487 0.27128294 0.5210926 -0.48586136 -0.25902826 -0.13621199 -0.29759002 0.006552698 0.15949088 0.11016361 -0.3625662 -0.8593925 0.7189042 0.71259934 -0.17732981 0.08923539 -0.67233825 0.6148755 0.26777437 0.5654196 0.41551077 -0.113658264 0.68798065 -0.1358659 -0.003817305 -0.3952795 0.2787633 0.5679848 -0.19364756 0.4245471 0.22449555 -0.15920188 -0.66621464 -0.6058039 -0.42410788 -0.4759039 0.29892448 0.6236295 0.5880722 0.61667305 0.31407863 0.61984277 -0.50349694 -0.4801913 0.18681385 0.4209222 -0.75183594 -0.45353758 0.47725904 -0.37262782 0.6126509 0.78425604 -0.17492491 0.33529666 -0.55364156 0.004237919 -0.58768386 -0.42350444 -0.23369983 -0.3881142 0.6917943 0.29257601 -0.26090583 -0.06407756 -0.40317166 0.32143164 0.10996113 -0.028974608 0.45817733 0.20541327 -0.14303263 -0.7312018 0.23732391 0.3626233 -0.2894398 0.55603707 0.3121658 0.26539007 0.0302549 0.26087955 0.13175085 0.49709314 0.79945904 -0.28252813 -0.3136106 -0.29187393 -0.58309734 -0.38014662 0.4821221 0.35224196 -0.32788804 0.12108971 0.7134899 -0.04246515 -0.4169396 0.39459446 0.73880666 0.5578326 0.8393028 -0.5637026 -0.6951104 -0.20555338 -0.6613412 -0.3656869 0.582825 0.38375384 -0.14762872 -0.0047635217 0.46457198 0.12837651 -0.3781443 -0.3802738 0.6130998 0.6813339 0.23192436 -0.5663793 -0.73311764 -0.026933122 -0.025190234 0.21131605 -0.11297147 0.6519179 0.45390895 -0.20538218 0.3240895 0.2366735 0.15441455 0.27653915 -0.19249633 -0.48483202 -0.30626556 0.102250464 0.06397198 -0.09148163 0.20306313 0.30549374 0.45663244 -0.008219207 0.19281887 -0.08844334 0.46766248 0.39349633 0.021440037 0.3448345 -0.036842816 -0.052271858 -0.3744995 -0.015165886 -0.21487118 0.7961411 -0.7668405 -0.08242644 -0.56132287 0.06770578 -0.4247546 -0.20040344 0.89882255 -0.19170684 0.14786434 -0.0074465396 0.46377814 -0.02834537 -0.5230762 0.12273909 -0.5554155 0.60869426 0.020508219 -0.43799278 -0.14758933 -0.033029333 -0.37700477 -0.4928996 0.2927952 -0.26852727 0.52858585 -0.53160584 -0.36033782 -0.20899817 -0.48756495 0.311675 -0.3259921 -0.3270467 0.2988537 -0.40556857 -0.6302723 0.08748439 0.19084236 0.023537634 -0.23172471 0.2754049 0.14014581 0.456523 -0.86389273 0.76062226 -0.16752796 -0.39652964 0.10340188 0.008633906 0.026078396 0.05923195 -0.31887612 0.120016426 0.44598144 -0.31430572 0.074852146 0.4013448 0.6774636 0.2521906 -0.15170495 -0.4091992 -0.3114434 -0.6154011 -0.09038541 0.60330844 -0.4011034 -0.13131024 0.723119 -0.61459947 0.36991876 0.38040912 0.043986484 -0.20717566 0.25894517 0.6112645 -0.23231481 0.11266806 -0.22771148 0.051611334 0.13354877 -0.23564214 -0.7814716 -0.2132977 -0.4611458 -0.15033552 -0.2794635 0.8529719 -0.6776105 0.08524706 0.2845807 0.51405513 0.5641032 0.55796725 -0.6399399 0.14147694 -0.3922152 0.73482305 -0.038813043 -0.1106589 -0.7599842 -0.09052025 0.39892447 -0.4068086 -0.39351055 0.61278534 0.083739884 -0.2935363 -0.04550303 0.55606717 -0.47764656 0.08587868 0.31641832 -0.21873337 0.002729991 0.082975306 -0.21471046 0.65380603 0.07454221 0.24564755 -0.2888751 0.47377628 -0.32886478 -0.28662512 -0.75105304 -0.0562136 -0.40232077 0.75262433 -0.10620914 0.64665085 -0.027608354 0.14832881 0.5218174 -0.37715745 0.008079888 -0.32630754 -0.100880936 -0.6639806 0.4834687 -0.21403074 0.77515996 -0.17603385 0.16857518 0.13247815 -0.3804915 0.38505283 -0.32025132 -0.32058516 -0.29040718 0.5851959 -0.36963508 0.11170356 -0.49803385 -0.37097946 0.5009254 0.08487928 0.40384266 -0.7555237 0.06116654 -0.73186326 0.04527964 0.045854516 -0.10258321 -0.061699927 -0.5409817 -0.8487851 -0.4498002 0.5118771 -0.41551554 0.37236923 -0.0765036 0.061457697 -0.6473281 0.17125277 -0.27123106 -0.80107194 -0.26867217 0.25852662 0.50947195 -0.3832146 0.16754945 0.537339 0.14545938 -0.34050977 -0.015258128 0.5469809 0.37739566 -0.3504398 -0.42369217 -0.30850768 0.4340065 0.45829237 0.057432357 0.079116225 -0.5096718 -0.056813344 -0.5309726 0.4464961 0.11283219 -0.16904041 -0.2938671 0.23051232 -0.20313177 -0.031180162 -0.38789082 -0.4562992 0.7343802 -0.27309498 0.653202 -0.41056773 -0.23201609 0.5447927 -0.2684661 -0.63856083 0.047511555 -0.3497288 0.20592919 -0.48160914 -0.3946988 -0.044446103 0.4260515 -0.050470136 -0.47113237 -0.030040205 0.056003 -0.05447394 -0.572247 0.54929703 -0.14005241 -0.35862324 0.6777502 -0.48611397
