-0.52787936 0.75490427 0.17251135 -0.66833323 -0.24039374 -0.32821774 -0.97034 0.13231461 -0.85484374 0.89179635 -0.8353283 0.18271846 0.27103916 0.34712648 -0.9066142 -0.26275682 0.8451103 0.099266335 0.015038133 -0.08101021 0.9814773 0.5002152 -0.18415739 0.675559 0.20544058 0.008863121 -0.07003376 0.18210769 0.2056682 -0.4877575 -0.19128266 0.012003107 -0.2975548 0.09467162 -0.90623045 -0.14890063 0.01472646 -0.34554115 -0.33744934 -0.09843439 0.63354254 -0.09952344 -0.85075355 0.101103276 -0.39579108 -0.96656823 -0.115597054 0.09947941 -0.6587769 0.1007501 0.08860333 0.10480592 0.52451825 0.21165942 -0.31298837 0.49151167 0.11523718 0.84757125 0.10610047 -0.04446566 0.15249503 0.5323764 -0.107923225 0.8470581 -0.15121526 -0.10945599 0.20272027 0.28112072 0.10188693 0.12481211 0.10497236 0.861799 -0.107938975 -0.102000624 -0.8373122 0.1813694 -0.40855306 0.47424018 0.92883027 -0.08386676 0.4863865 -0.237038 -0.101038575 -0.86704266 0.06042154 -0.13751099 0.9884381 0.09899768 0.14997545 -0.16714913 0.020674378 0.8270784 0.02154535 -0.8439286 0.41699666 0.98031557 -0.06260751 -0.76312983 0.88918614 -0.7463112 0.27066007 -0.6546917 -0.25010782 0.10755047 0.07040274 -0.17179422 -0.35044274 0.09428288 0.5227747 -0.39217407 -0.064504445 -0.4100325 0.5107354 0.008247197 0.15985052 -0.1294052 -0.9339671 0.11634472 0.27430752 0.8390385 -0.99771863 -0.89157164 -0.27488497 -0.21267633 0.7495443 -0.8288364 0.86615515 0.32117218 0.06366369 0.9218584 0.6480576 0.08013806 -0.8321837 0.6156888 0.120559424 -0.053618997 0.1076093 0.6620767 -0.37694743 -0.1093407 0.13628155 -0.13607554 -0.38942206 -0.2039113 -0.14845082 0.5168236 -0.6246351 0.26003116 -0.9970676 -0.9517764 0.61541235 -0.11616011 -0.14203775 -0.10342388 0.20378415 0.55147755 -0.58831847 0.57967824 0.10912159 -0.90980923 0.9912504 -0.8684533 -0.5171092 0.094368786 -0.16888046 -0.12322554 -0.81773263 0.28172556 -0.91006017 0.08973694 0.8510189 -0.121710345 -0.16656384 0.003466159 0.9898535 -0.41444147 -0.78280133 0.066836715 0.5803251 -0.38398084 0.110830545 -0.737131 -0.13021274 -0.24816829 -0.012588412 -0.10098179 -0.99983984 -0.844907 0.38581425 0.21293509 0.117480636 -0.030200452 0.6933024 -0.94875956 -0.7448824 -0.33909994 0.20397466 0.675313 0.39188462 -0.7467166 0.33476618 -0.8940071 0.6258862 -0.72918284 -0.15068427 -0.83924294 0.17322928 0.18664345 -0.37297627 -0.9441006 -0.7925169 -0.25479633 0.39180234 0.40660164 -0.9970398 0.53082526 -0.0013517737 0.056723103 0.84841436 -0.50447404 0.15374503 0.112893745 0.56962633 0.10910165 -0.3106432 0.9695885 -0.61818624 0.9777758 0.8324477 -0.26453933 0.26008373 -0.9919969 0.03508693 0.8679286 -0.16773613 0.14866823 0.38020408 -0.032019824 -0.79578245 0.24742317 -0.14247191 -0.118238 0.10101479 -0.6568036 0.0757274 -0.88931835 -0.56134635 0.09340149 -0.8034219 0.08927946 -0.101278394 -0.35117936 -0.24574085 -0.44183886 0.08953774 0.80924296 -0.8512153 0.10249983 0.4148315 0.08966741 -0.8520307 -0.08427812 0.11175458 0.36480838 0.58851725 -0.19125563 0.4472747 -0.10107395 0.4788854 -0.9352719 0.597422 -0.6748506 -0.6249884 0.015277237 0.07214704 -0.32142654 0.1267849 -0.106014 0.35720485 0.18437341 0.9559679 0.51111394 0.955746 -0.017936498 -0.0993301 -0.92116153 -0.10095996 0.9036915 0.27950993 -0.9846402 0.100438476 0.15908505 0.8152956 -0.46145236 -0.13183695 0.77181816 0.109254345 0.11187841 0.3191589 0.19345377 0.18355264 0.57626873 -0.7517797 -0.29060596 0.99344367 0.8111906 0.4242294 0.20464036 0.3269489 -0.644234 -0.9836973 -0.09504281 -0.7785129 -0.51508623 0.082710534 -0.7654639 -0.6871125 0.6539724 -0.04400987 0.59255534 0.40577766 -0.63691974 -0.020032644 -0.08999482 0.091704786 0.079266936 -0.5190717 0.12697601 -0.112305135 0.00786528 0.16907455 0.7800654 -0.05110012 0.0055410266 0.81924164 0.9972937 0.62087834 0.07970194 0.049633116 0.97333646 -0.05431986 -0.84757876 -0.06977877 -0.3851854 0.9983742 -0.18703228 0.512265 -0.99929523 0.0680252 -0.07490231 0.07936245 0.10316527 0.2508303 0.9886969 0.55861425 0.103436574 0.108599305 0.22253785 -0.94317365 -0.40308833 -0.31551197 0.110241264 0.876284 -0.89493746 0.3447119 -0.9513664 -0.10804361 0.3076194 0.48178172 -0.35465944 0.24762222 -0.16975173 0.05189246 0.10249534 0.1396425 -0.06931778 0.9858892 -0.020451427 0.7175959 0.48783857 -0.2190565 -0.8181827 -0.10452174 0.335907
-0.794683 -0.8521026 0.08368078 0.45003453 -0.542219 0.7847512 0.49089354 0.54956836 0.74754876 0.110159405 -0.19833012 0.5031353 0.9885493 0.9534356 0.61497027 -0.100569256 -0.5062909 0.865139 -0.33456504 0.13629729 -0.57570845 -0.8523062 -0.80780894 0.5705354 0.47914672 -0.45071 0.8692817 0.6421917 -0.39929113 -0.31956375 -0.55120873 -0.5772846 -0.059868168 0.093380496 -0.805487 -0.7257959 -0.5662715 -0.7647053 -0.044868585 -0.73062605 0.3584772 0.4549774 -0.2514709 0.86605185 0.27795008 -0.6306499 -0.7442209 0.059044633 0.6138159 -0.57488614 -0.70709944 -0.25906476 0.34483713 0.72957355 0.39689103 0.7550705 -0.6226243 -0.7955968 0.68680876 0.25875917 -0.529803 0.83373153 -0.20667545 0.9614215 0.59316957 0.5500855 -0.051224265 0.47551307 0.72187495 0.21274267 0.73502445 0.40152696 -0.21382886 -0.6958705 0.48632863 -0.113126405 0.34090462 0.31022012 0.9007289 -0.48787892 -0.19439049 -0.12250329 -0.34101093 -0.7059728 -0.56435704 0.33143485 -0.7615604 -0.8879592 -0.7346696 -0.751151 0.666799 -0.59722394 -0.22930229 -0.61050814 0.49544308 0.93157333 -0.41606462 0.3686186 0.91765475 0.13526067 -0.18906614 0.74335325 0.5089054 -0.7544933 0.28712815 0.3277147 -0.849116 -0.5394477 0.057249777 0.54086524 -0.5544951 -0.20842965 -0.7456447 0.5306359 0.3079306 -0.25616324 0.6053585 -0.44123864 0.8305161 0.012332574 0.6942455 -0.48983455 0.4222399 -0.33203214 0.093893126 -0.6840393 0.5137207 0.01738179 0.37741655 0.04931334 -0.95711774 0.62063736 -0.6044241 0.28793567 -0.06850859 0.32896447 0.7180245 0.772761 0.7967902 0.6851788 0.0009637384 -0.2365757 -0.39590877 -0.037284423 0.029138623 0.59091175 -0.43123248 0.88244057 0.98003364 -0.7726356 -0.7829305 -0.59895813 -0.7873354 0.16996576 0.768958 0.6889592 -0.5313968 0.05321283 -0.86540055 -0.69654 -0.5352025 0.23288704 0.3728288 0.26248187 0.731979 0.36468452 -0.60409766 -0.42340735 -0.3933526 0.32866737 0.50233436 -0.76883656 -0.05228273 -0.36667463 0.44597855 0.010489707 -0.72295606 -0.91763943 0.64531386 -0.49734914 0.04031136 0.73680896 0.1962001 0.781082 -0.8799428 0.0099284705 0.8752884 0.25342065 0.2085693 0.88255996 -0.9846151 0.30300465 0.88958484 0.61363465 0.50054914 -0.46817 -0.5089345 0.34984058 0.4369912 -0.031661678 0.68908376 0.6880866 0.7311464 0.3779653 -0.7643532 0.3668744 -0.09619773 0.59458095 -0.13890274 0.28665364 0.3091121 0.6788546 -0.16064243 -0.9257753 0.43552235 -0.85006315 0.4620832 -0.7900555 -0.46467602 -0.6082349 -0.28604722 -0.010070374 -0.055228576 0.89269066 0.041821126 0.85490704 -0.33059007 -0.76403105 -0.50606257 -0.21616851 -0.32350874 0.70303786 0.7975331 -0.4175817 -0.050008744 0.8998823 0.2708498 0.05122727 -0.5095228 0.7564986 0.5082495 0.5493016 -0.6352218 0.7101588 -0.12840496 0.3252373 0.26423022 -0.03560268 0.06847293 0.052141845 0.79606885 0.2623598 0.49596518 0.061265457 -0.15753956 0.84320146 0.40524912 -0.13617425 -0.13163963 -0.18020071 -0.033544417 -0.6693135 -0.13384421 0.10701724 -0.15496029 -0.37333193 0.65330744 -0.106174655 0.72535723 -0.41951504 0.22210974 0.9533164 -0.63624066 -0.18777645 0.780434 0.2138934 0.27920163 0.70529824 0.570211 0.64728695 -0.26176283 0.5434566 -0.88184804 0.40713325 -0.4280854 0.918568 0.0327569 -0.047563724 -0.52685845 -0.51369435 0.35313284 -0.90295535 0.9206612 -0.5738557 0.26227024 -0.7567054 -0.6761138 0.665651 0.08603687 -0.7049609 0.94820744 -0.5239465 -0.76006097 0.045026723 0.061268758 0.3237522 0.27106422 0.6445967 -0.45620114 -0.71228325 -0.8793837 0.915379 0.8927927 -0.7357417 0.39052647 -0.9660456 0.5704813 -0.019772636 0.8851457 0.53343546 0.72207904 -0.6010474 -0.3942233 0.5135542 -0.7419891 0.8907579 -0.151523 -0.4795784 0.20868999 0.0030564307 0.23283036 -0.934915 0.16976799 -0.1845377 0.06862236 -0.90997666 -0.43262228 0.11627824 0.55698466 0.242971 -0.09970431 0.91028965 0.50831056 -0.6219222 -0.5040093 -0.5757065 -0.2601131 0.10767832 -0.1282652 0.3559723 0.08664921 -0.4359855 0.48534802 0.11807284 -0.13876797 -0.41026884 -0.49598572 -0.72044164 0.22704172 0.11170609 0.83998156 0.1646928 0.061086837 0.40849966 0.17325719 -0.7731886 0.6513279 -0.27123186 0.33668315 -0.73411036 -0.6785979 0.4567951 0.76049536 0.17109412 -0.55326045 0.16720486 -0.84231967 0.11448617 -0.75614196 0.5890958 -0.8671205 -0.22424906 0.75713843 0.38457802
-0.14804325 0.42045242 0.21995011 0.054316457 -0.5200691 0.18409483 0.444362 0.25835663 -0.24576654 0.471506 0.0049344753 0.039054703 -0.021132724 -0.6439726 -0.47825107 -0.0013951854 0.36458763 0.06863794 -0.107146755 -0.16054465 0.10501675 0.1667591 0.17669103 0.6643184 -0.006923113 -0.01631552 0.054790035 -0.3327286 0.16771083 -0.5391182 0.50478417 0.35842288 -0.3442468 0.5413353 0.43755853 -0.017694285 0.009937574 -0.09660196 -0.20349632 -0.2283804 -0.020142797 -0.32934403 0.28535053 -0.11529135 -0.42093444 0.48072958 -0.39341563 -0.6968739 -0.3506049 0.06852055 -0.04683208 -0.4352004 0.15496993 0.47411808 0.14730565 0.09764759 -0.73078334 -0.119179346 -0.2923388 -0.57027256 0.08874407 -0.27303982 -0.1957846 0.19178279 0.3788859 0.38150695 -0.77644545 0.2435703 -0.43464375 0.22385071 0.52404237 -0.6834351 0.22909907 -0.6227528 -0.3952435 0.59119797 -0.2285559 -0.053196386 -0.17089164 -0.06288115 0.53175926 -0.72533596 -0.37374765 0.015653681 -0.06714043 0.08355169 0.08137292 0.273069 0.026976483 -0.2974722 0.14946584 -0.15225983 0.04744915 -0.3353377 0.41510764 0.30506974 0.14325356 -0.2693854 -0.48849118 -0.123838305 -0.45423576 -0.0005838362 0.2881632 0.41269824 0.26476216 -0.20357059 0.49579787 -0.32471964 -0.08883126 -0.424924 -0.5742145 0.03450781 0.44123793 0.031883262 0.041044287 -0.41251934 0.020050831 -0.0257777 0.16426776 -0.38055223 -0.44843933 0.16405892 0.59331214 0.13645378 0.23289216 0.28338358 0.5125179 -0.10000385 0.30565012 -0.21454611 0.6575366 -0.07439931 -0.07600802 0.070090465 0.57862294 0.033119798 -0.3346395 0.15034181 0.21109393 -0.08233918 0.4747563 -0.46143487 -0.2876443 -0.044243913 0.4915807 0.25785738 -0.23469305 -0.51056695 -0.28294155 -0.69159013 -0.42436898 -0.17863512 0.2991289 -0.66107154 0.11616276 0.2411877 -0.61541384 -0.014939824 0.046181936 -0.1677273 0.3862868 -0.5716092 -0.5064372 0.098150894 -0.3605686 -0.673119 -0.2726161 0.36614004 0.026228635 0.48277697 0.15067059 -0.2890718 -0.57057494 0.6901313 0.59756184 -0.17713848 0.11693414 0.19090827 0.15160233 -0.188861 -0.13681741 -0.19349636 0.4444134 0.4628225 0.4261465 0.3014494 -0.82952005 -0.0073932754 -0.29465106 0.1171652 -0.31100035 -0.5208929 -0.51911616 -0.19630171 0.38951585 0.11580325 -0.68065566 -0.39995542 -0.14803313 0.43079907 0.15361528 0.67096835 -0.17838322 0.3245019 -0.39125186 0.44269615 -0.08872754 0.428747 0.2462252 0.3188307 -0.31908926 -0.14286539 -0.0674249 0.4908669 -0.29027262 -0.10833533 -0.18024889 0.3447263 -0.07756091 0.13314408 -0.12151463 -0.15556799 0.040618323 0.6540553 0.23287512 0.17825046 -0.5173962 0.6897134 -0.32342073 -0.16790351 0.32849953 0.47328356 0.40839037 -0.39354122 0.29852688 -0.03057431 -0.056840084 -0.14430682 -0.7993794 -0.43386257 -0.89585894 -0.35296825 0.3409651 0.071622856 -0.30333555 0.45112285 -0.16534534 0.38630524 -0.6310368 0.40470287 -0.0007261684 0.37392372 -0.29367375 -0.6015529 0.32408345 0.28914583 0.14173281 0.10213359 -0.16908841 0.2874419 -0.22811337 -0.08829562 0.17140837 -0.11739648 -0.052755676 -0.093420014 -0.08582324 0.034736138 -0.4466989 -0.5755167 -0.3200723 0.15954754 -0.8477051 -0.0062886435 -0.23708676 -0.37115785 -0.19024195 -0.8312935 -0.031079728 0.25331855 0.37083116 0.48520672 -0.3881199 0.24597758 0.00160312 -0.081938535 -0.48625877 -0.51806486 -0.128761 0.092235394 0.24689896 -0.29230753 0.049221937 0.25987914 0.3645977 0.75527394 -0.18150048 0.3905301 -0.16625437 0.09439912 0.06461181 0.4871158 0.5440968 -0.36826792 0.15952948 0.19434947 0.16988564 0.20933795 0.13213009 -0.019285481 -0.26889357 0.03216782 0.08485344 -0.104984134 -0.3392283 0.24917205 -0.20161618 -0.08096806 0.13626744 0.2991016 -0.11452644 -0.18503256 0.50650036 -0.38297966 -0.13892081 -0.18662746 -0.6028199 -0.13263431 0.032856736 -0.55109197 -0.51404816 0.23056448 0.40730402 -0.2709997 0.042007852 -0.2980722 0.036387805 -0.37030798 0.25355867 0.011039171 -0.16816927 -0.018677643 0.13991648 -0.13933259 0.013653265 0.59343106 0.4573785 -0.45447588 -0.2332636 -0.20403367 -0.35123426 -0.20097618 0.37943065 -0.15292002 -0.27409244 -0.48301852 0.00840482 -0.42000002 0.3116732 -0.31851822 0.5912519 -0.2934113 -0.066818334 0.24424964 0.23096041 0.5433996 -0.012772445 0.1847261 0.07266609 -0.23597 0.21334869 0.04610862 0.27989462 0.20744535 -0.08759056 -0.067913964 0.73955804 0.72462916 -0.47665086 0.60886717 -0.24156068 0.43806154 0.14566322 0.12171224
-0.61096317 -0.5788279 0.40963072 0.70173246 -0.83005774 0.7365729 0.800276 -0.39143893 -0.08306029 0.7060226 -0.6287563 -0.043162078 0.804844 0.49091256 0.24434803 -0.6349768 -0.417095 0.4535107 -0.55198765 -0.6565023 -0.5127573 -0.8972911 -0.1450396 0.018708512 0.33399782 -0.34452033 0.5351468 0.026051672 0.14598528 -0.3878301 0.009135863 -0.011184313 0.3172224 -0.22186263 -0.11083313 0.054859784 -0.59544873 -0.62150675 -0.7095026 -0.6695984 0.36289358 0.5861572 -0.28138128 0.70318156 0.1765529 0.42496446 -0.7014226 -0.5020923 0.48427457 -0.5764336 -0.20243222 -0.299401 0.32102296 0.7411104 -0.0854925 0.8052371 -0.13588588 -0.7852874 0.5983931 -0.427945 -0.6406589 0.4563644 0.18136145 0.26899394 0.14578676 0.36109576 0.057188306 0.040473685 0.083501786 0.50379676 0.9437045 -0.14724894 0.69898635 -0.7232402 0.624626 0.27695134 0.2705403 0.63445145 0.3924818 -0.05671876 0.13533022 -0.42727107 -0.50634426 -0.8377621 0.04456807 -0.13109463 -0.55775976 -0.4195255 -0.7425067 -0.33461088 0.82146865 0.1534979 -0.8674966 -0.76033336 0.15199801 0.9117757 -0.39557916 0.48192424 0.45235893 0.17210609 -0.057693105 0.89146584 0.4268058 -0.3613357 -0.47538236 -0.23831019 -0.5589578 -0.20076323 0.42572898 0.29480824 -0.8518567 -0.6126723 -0.6060908 0.7357457 -0.5428504 0.03224166 0.58017856 -0.67047524 0.677199 -0.6584032 0.18959743 -0.008734119 0.619644 0.28373462 0.35788405 -0.6691887 -0.26618484 -0.060541026 -0.6211599 0.12810642 -0.07399643 0.8953727 -0.6395552 -0.019353814 0.046029706 -0.17295118 0.26829126 0.79100436 0.6780523 0.7484082 0.7791169 -0.6472308 -0.6791019 0.26091015 0.29298875 0.50894487 -0.49240386 0.05319873 0.1522482 -0.6276203 -0.39246958 -0.4883144 -0.50793785 -0.25631586 -0.05072645 0.4636876 -0.20422356 0.66950905 -0.5701801 -0.37707052 0.02357856 0.59117347 -0.6246358 0.50689876 0.7400709 -0.18313585 -0.047773287 0.3599927 0.42814162 0.63956827 0.26217127 -0.86694723 0.14834252 0.043378163 0.59384865 -0.043913744 -0.75903463 -0.314799 -0.1016574 0.3532382 0.4503629 0.5466107 0.798435 0.876599 -0.7994249 0.076687135 -0.0019588827 0.29434815 -0.32570723 0.74977 -0.70548546 -0.36033487 0.35460535 0.41531187 0.72673106 0.52980185 -0.8209445 -0.59763 -0.23860131 0.16823088 0.9156003 -0.036572013 -0.0678781 -0.09669503 -0.10253489 0.397183 -0.014288134 -0.059118513 0.66250336 0.65947306 0.051848516 0.66050655 0.20663697 -0.27958488 -0.157547 -0.92190284 0.61105675 -0.09703082 0.4959382 -0.64462715 -0.73477715 0.22433668 0.58324003 0.6993664 -0.014190327 0.010852804 -0.66802466 0.3757491 -0.26652125 -0.6487879 0.32018796 0.51244456 0.89604604 -0.24364218 -0.6231083 0.63754165 0.54305464 0.23385835 -0.62530005 -0.43868753 0.5286513 0.2174544 0.077548206 0.38361877 -0.12486742 0.44783998 0.013872922 0.48254362 -0.7277844 0.28737438 0.25993353 0.4187636 -0.36212882 0.053709798 -0.16179183 0.012846604 0.38682914 0.27883542 -0.9043174 -0.3897467 -0.058235113 -0.6934011 -0.088862896 0.6414369 0.1764244 -0.23977475 0.61571205 -0.74251527 0.8456268 -0.32582292 -0.34318438 0.23254448 -0.7801907 0.11174241 0.73678637 -0.5658713 0.548877 0.47213137 0.7847749 0.22033274 0.5907643 0.8059037 -0.4125292 0.42738742 -0.70552176 0.8235794 0.42685357 -0.56809527 -0.53038675 -0.644502 0.50965226 -0.29529104 0.8546598 -0.056048907 0.5481181 0.10906464 -0.8007368 0.38380322 0.0029901827 0.24465035 0.6338517 0.7040145 0.18439145 0.2511605 -0.62632054 0.2380492 0.18692726 0.41861644 -0.20791776 -0.83497554 -0.30095306 0.45964998 0.45459956 -0.6541828 0.18400416 -0.5058896 0.6185198 0.3457328 0.67898065 0.5627115 0.6603606 -0.30746242 -0.5720045 0.46046174 -0.6463643 0.024152981 -0.2968556 -0.37916535 0.67067844 -0.31992623 -0.29826027 -0.120955676 0.2988784 -0.6833063 -0.097630255 -0.868814 -0.20827085 -0.5315395 0.56774545 0.40276024 0.15155052 0.66728336 -0.22670287 -0.42198277 0.31749752 -0.18272746 -0.36898902 0.39209968 -0.56561464 -0.43500683 -0.386293 -0.10937737 0.53833914 0.09504415 0.17910652 -0.70713407 -0.61161083 -0.6361083 0.3330847 0.14748137 0.57295394 0.5196119 -0.50532895 0.47544348 0.6840962 -0.14724666 0.821233 -0.07829025 0.47112596 -0.74530834 -0.64680535 0.50169843 0.8454907 0.3796952 -0.5534891 -0.50790995 -0.4771757 0.62459 -0.4100633 0.39297646 -0.6577571 0.299141 0.8907913 0.34398645
-0.5638529 -0.5412775 0.32134023 0.25409025 -0.92975414 0.30936566 -0.63218904 -0.90526885 -0.89300185 -0.16742252 -0.14781415 -0.853082 0.23996195 0.17082316 -0.2108062 -0.85387033 -0.3387947 0.728413 -0.92172605 -0.9596806 0.32432243 -0.6681938 0.91405404 -0.9046395 -0.62576723 0.4324652 0.81040496 -0.32165214 0.81705016 0.24123287 -0.42514014 -0.28793344 0.30256304 0.63732845 0.39033127 -0.3900343 -0.41011277 0.046103597 -0.6714686 0.14486313 0.73975664 0.07702222 -0.6602399 0.37112534 -0.3700396 0.23981774 -0.8241224 -0.8613406 -0.2000724 -0.5886996 0.21072952 -0.4915487 0.8634323 0.6620786 -0.0062461803 -0.3111515 0.29520786 -0.15117101 -0.8618077 -0.6311649 0.56224537 -0.5876051 0.46168998 -0.9698403 0.22505768 0.9430633 -0.6058835 0.6011956 0.021157922 0.85240835 0.8818659 0.14341514 0.9399166 0.4735823 0.9099411 0.5837274 -0.6188031 -0.20879148 -0.32596743 0.8746214 0.59777755 0.14228284 -0.4038594 -0.38649783 0.10029111 0.47613958 -0.7569304 0.761142 -0.89208174 -0.78495914 -0.5131762 -0.66638565 -0.82442194 -0.89474624 -0.6137203 0.81577027 -0.21574728 0.40168014 -0.87816536 -0.61539024 0.061240386 0.29267573 0.78452444 0.03719665 -0.8546064 -0.82689327 0.61481607 -0.93298715 0.45911896 -0.6318204 0.21277909 -0.37561852 -0.31775048 -0.81284183 -0.79258263 0.1462248 0.6213277 0.84519875 -0.07672942 -0.8957013 0.716213 0.115955815 -0.8908387 0.69412655 -0.48553634 0.549905 -0.29588914 -0.53348035 -0.7609577 0.9483737 0.9162789 0.5620811 0.28324047 -0.874485 -0.20889468 0.21788913 0.50811595 0.44574004 0.3390516 0.40679327 0.5326396 -0.84353614 0.12003034 0.72649586 0.9233377 0.21193416 -0.06913198 -0.6277995 -0.7063398 -0.8369657 0.38815778 -0.5453002 0.26503867 -0.42434257 -0.24947725 -0.72885394 -0.75561917 -0.88282126 -0.8460201 -0.3533603 0.54143214 -0.41817293 -0.057490103 0.9111429 0.6624353 -0.8383242 -0.11612174 0.8958536 0.8394795 0.0075905374 -0.25820196 -0.061583426 0.45373136 -0.778434 0.16840449 -0.89844614 0.49632195 0.51677084 -0.19030628 0.82321346 -0.9180332 0.32000595 -0.37573996 -0.52055365 -0.5716681 0.8530314 -0.6600425 0.66732126 -0.9182847 0.89531696 -0.8874486 -0.31227195 -0.73728454 -0.3457332 0.10794042 0.97638506 -0.4363971 -0.4434457 -0.92528236 -0.838652 0.7874204 -0.26657447 0.6058039 0.8864303 0.4925882 0.74016243 0.70959926 -0.3468588 -0.4269073 0.9547143 0.19947033 -0.16018859 0.6671738 -0.5255218 0.33931607 -0.5975717 0.4514682 0.5873787 -0.85599464 -0.60499126 -0.49315694 -0.68083686 0.5092179 0.8921318 0.87984824 -0.9590813 0.22484252 0.07138291 0.91144377 0.33624807 0.4017517 0.48500735 0.9533046 0.44480985 -0.7246599 -0.1516149 0.07946959 0.13937555 -0.42012802 -0.21655661 -0.24488933 -0.7536227 0.7554884 -0.23384194 0.7642011 -0.4600212 -0.5310221 0.70944077 -0.9435355 0.7439363 -0.9423168 -0.14037974 0.39284128 -0.09393459 -0.5656221 -0.44965822 -0.74700016 0.8222103 -0.4584628 -0.19187804 0.1352511 0.15862735 -0.20679861 0.16622257 0.3595362 -0.13121486 0.544629 -0.84655994 0.52193046 -0.19771707 -0.83771044 -0.6951843 0.45690438 0.26778483 -0.4577957 0.5363777 0.44630525 -0.12620568 -0.74234134 0.6941968 -0.33522642 -0.88911635 -0.8461813 0.13038103 -0.7650075 0.28388354 0.8145457 -0.9374314 0.094398975 -0.3696303 -0.4064363 0.6595499 -0.1529181 0.25949088 0.86293614 -0.6339848 -0.8375026 0.9284761 0.30076915 0.5465828 0.82754856 0.2116495 0.6563792 -0.77971435 -0.3579313 -0.659971 -0.7982064 0.022184068 0.5776404 -0.932721 0.66875756 0.42629358 -0.15503511 0.009521586 -0.703788 -0.6062567 0.84809226 0.54061174 0.75642556 -0.22783662 0.063333966 0.6750427 0.16235535 0.7034707 -0.8068461 0.27814075 0.8241585 -0.52830535 0.5026571 -0.3562783 -0.15607841 0.7988894 -0.40696198 -0.54061896 0.76752967 -0.4999322 -0.105125025 -0.36964437 0.8628127 -0.24922761 -0.86570597 -0.18267666 -0.50634044 0.5048468 -0.6571207 0.08953037 -0.018126179 0.5366381 -0.72655356 0.26142725 0.54665583 -0.263599 0.33536717 -0.35338503 0.2546543 0.42715493 0.6315487 -0.44403395 -0.05881594 0.055620074 -0.5951047 -0.5100663 -0.7868509 0.19924724 0.76212305 0.25449678 0.68446964 0.61635214 0.7371204 -0.34202823 -0.8334965 0.32173383 -0.013419711 -0.49022076 -0.3527598 0.13269798 0.16707599 0.6196755 -0.5674096 0.30206516 0.5803994 0.63135934 0.54967284 -0.7771602
-0.77222836 -0.8005922 0.40349796 0.20447722 -0.34872553 0.3830437 -0.3693144 -0.72983676 -0.6779331 0.32530546 0.3427528 -0.31737465 0.5149799 -0.40500444 -0.54920715 0.20440987 0.23476988 0.798394 -0.8822652 -0.3517154 0.3898 -0.6694201 0.6605224 0.4403278 -0.50017107 0.4773986 0.14857325 0.069529615 0.08548555 0.27533126 -0.8414772 -0.28067094 0.1988781 -0.43856654 0.6645915 -0.11340584 0.07251731 -0.78493696 -0.18522331 -0.15435083 -0.46908653 -0.43679547 -0.5632306 -0.2979705 0.3366636 0.7553646 -0.8381422 -0.2505247 -0.36061135 0.45404407 0.43662056 0.22335419 0.09707517 0.6810678 0.22492234 0.2736322 0.25589326 0.12542358 0.04480268 -0.18882018 0.6414122 0.1843237 0.18910857 -0.70010465 -0.78435457 0.30547905 0.21223076 -0.7575309 0.4277184 0.874912 -0.21226019 0.6916558 -0.3627765 0.034768004 0.34791887 -0.004551714 -0.50127834 -0.68892384 -0.5019211 0.5569523 -0.3882688 -0.25810745 -0.58113384 0.79705733 0.3157221 0.241186 -0.6292916 -0.6866868 0.4698965 0.44829547 -0.57278365 0.34163013 0.6770156 -0.61642945 0.69007534 -0.6272349 0.51635677 0.45205218 -0.13706394 -0.31446952 -0.32952157 -0.36574242 0.7668219 0.020976458 -0.12456149 0.29425207 -0.3960235 -0.17652635 0.053496275 0.47823408 -0.329337 -0.7259938 0.42582944 0.37317538 -0.6907453 0.13351883 -0.06643985 0.7306593 -0.34465584 0.51307446 0.5478614 0.54312354 -0.52822775 -0.4306207 -0.17276262 0.42225334 -0.8892474 0.5998217 -0.930145 0.74876267 -0.56207824 0.673238 -0.10481411 0.120693676 -0.6839697 -0.7331314 0.06396658 0.020393077 0.51236343 -0.7957767 0.56578964 0.09699988 -0.38784716 -0.16484776 0.712288 0.1471424 -0.65915644 0.21586655 -0.9176213 0.25562254 0.18689944 -0.12959829 0.5299334 -0.72302604 0.1869047 -0.50767845 0.029584521 -0.5246196 0.28970146 0.21567658 0.2777165 0.36697617 -0.0137615325 0.013120752 0.5827578 0.36386493 0.12822235 0.56482464 0.4210755 -0.3478788 0.4141119 -0.7851614 0.25783283 -0.70848376 0.43934867 -0.49249882 0.27815524 0.2087109 -0.5206272 0.84348637 0.38678816 -0.8306739 -0.6702269 0.5511354 -0.41259468 -0.050353613 0.13651918 0.32140318 -0.079407565 -0.65504813 0.44546586 0.1875717 -0.7071657 0.4739908 0.32230175 0.06687286 -0.409558 -0.19147542 0.13223708 -0.37037492 -0.43459293 -0.46676868 -0.438686 0.46308753 -0.6400167 0.06970805 -0.5021297 -0.35265684 -0.3633904 0.93334925 0.77075016 0.8196979 -0.7157963 -0.5658891 -0.35679373 0.19642977 -0.56308585 0.17622517 0.74383795 -0.6112813 -0.73503923 0.73155534 0.29059 0.28416345 0.51164657 0.3133807 -0.008501041 0.6687889 0.4492605 -0.60767925 0.35931867 0.6215854 0.5629228 0.73100144 -0.83776516 -0.85054845 -0.3952491 -0.7893318 -0.6427711 -0.46234298 0.47071603 0.06850763 -0.6040323 -0.5472249 -0.18282561 -0.32612228 -0.53197867 0.17314896 0.23955497 -0.13829644 -0.33258572 -0.37629554 -0.8010158 -0.5900137 -0.2535934 0.13519625 0.4397524 0.6665443 -0.4147126 0.31398374 0.09076829 -0.3004549 0.054442164 -0.33815247 0.70988816 0.114206575 0.6257797 -0.3855117 -0.32096094 -0.32360175 -0.14997888 -0.84065413 -0.36769357 0.42213073 -0.10339841 -0.37339982 -0.20575625 0.5367563 0.20087296 0.23017061 0.458405 0.6658717 0.29338816 0.69051784 -0.32967675 0.42730668 0.020912655 -0.8517854 -0.68499553 -0.43989754 0.06420942 -0.77670014 0.49638703 -0.42967355 -0.5216257 -0.669456 -0.14397827 -0.35646084 -0.57057744 0.40744212 -0.30706877 0.39295492 -0.43313333 0.03504936 -0.038993467 0.31979594 -0.13917726 -0.5991417 -0.88769597 0.010765088 -0.45802766 -0.089604154 -0.17070228 -0.51971114 -0.075628266 -0.12643863 0.32485142 -0.19606128 0.46116626 -0.34369418 0.120331906 0.039779253 -0.40365174 -0.27088243 0.15787198 -0.59398913 -0.5384442 0.25212127 0.012809011 -0.79114467 -0.60213864 0.3677028 -0.55866885 0.5606741 -0.61436474 -0.57210404 0.08245558 -0.8680611 0.6209889 -0.20228535 -0.61857855 0.32444873 0.14318784 0.47206473 0.7086478 0.7492793 -0.526817 -0.49318182 -0.49907872 0.6093585 0.84420735 -0.18468177 0.14258237 0.5243782 0.7911238 -0.37401524 0.40232188 -0.18955584 -0.40985495 -0.52069116 0.55881184 -0.0050772694 0.43569386 0.7861558 0.40983123 -0.5802008 -0.197489 0.027411146 0.53167284 0.27619556 0.18560097 0.43330058 -0.24887817 0.25101334 -0.7255814 0.08352339 -0.78384304 -0.49004984 -0.11266104 -0.5020627 0.16441096 -0.21428123 0.7630264 -0.5104599
