0.9986171 0.12740065 -0.5591796 -0.98818284 -0.59687775 -0.8072187 -0.110086374 -0.4391192 -0.4490099 0.20010631 -0.5882622 0.6778252 -0.84019434 0.90905046 -0.5417096 -0.93666273 -0.44787133 0.70010585 0.9340396 0.8280723 -0.62302 0.69848746 0.6075269 -0.2701833 -0.2286467 0.7497911 0.9020353 0.19376896 0.2128629 -0.95580953 -0.43043053 -0.029348694 0.36460268 0.9728755 -0.83437085 0.9299079 -0.883738 0.9953644 0.3020369 -0.80947506 0.69610715 0.14334746 0.76963675 -0.130895 -0.6367733 0.82552814 0.649293 -0.63899934 -0.18212847 -0.67218333 -0.9620246 -0.7435984 0.12082469 0.05891525 0.24868216 0.79584414 -0.15276386 -0.69106716 0.029181173 0.37320572 -0.89370507 0.66703135 -0.25335962 -0.78220874 0.98373365 -0.9880597 -0.7219194 0.736454 -0.47997996 -0.9784436 0.057556458 -0.7295931 0.65357834 0.75322574 -0.11963661 -0.25270104 0.37412181 0.018381009 -0.051114857 0.78078926 -0.35195467 -0.47399268 0.9987309 0.017204067 -0.5605591 -0.5280438 0.92043996 0.2294655 -0.67919946 0.9321486 -0.16014862 0.5763526 0.41242698 0.13408329 0.22101107 0.21854919 -0.6295082 0.06728758 0.12670618 0.9697069 -0.9129308 0.18120052 0.80412555 0.8374437 -0.35703635 -0.9170732 -0.2001278 -0.9394809 -0.8577977 0.9629934 0.9637934 0.23223655 0.9810061 -0.4202722 -0.9403259 -0.99524707 0.7274115 -0.84454656 -0.37509152 0.8117592 -0.84994125 -0.043464936 -0.867182 0.5821718 0.61528295 0.3609185 -0.12035567 -0.9326372 -0.35901487 -0.6223213 -0.02081719 -0.12168136 0.27847055 -0.8401455 0.022252679 0.7871067 0.90960217 -0.52258104 -0.6285487 0.42964557 -0.16503648 0.1902544 0.38869742 -0.9750038 0.8045152 0.2780601 0.9939225 0.1397206 -0.16659227 -0.62431824 0.14603946 0.6821627 0.3734838 0.7267011 -0.45731795 0.8245466 -0.43829235 0.14631723 0.8336795 0.022612695 0.6656977 0.7383043 0.83512384 0.19561704 0.94731754 0.41237965 -0.9175668 0.2982225 0.58721924 0.86653894 -0.58897465 0.79920244 0.31711847 -0.3768694 -0.75885 -0.6733112 0.05210838 0.2179932 -0.9703936 -0.49687034 -0.5098003 0.34492102 0.85690653 -0.568834 0.6963923 -0.7573415 -0.18947573 0.4928866 -0.96954626 0.28847817 -0.09591763 0.14709915 0.7495583 0.09919874 -0.17069829 0.9206569 0.9458302 0.8779863 -0.9990491 0.89046293 0.89741784 0.67437065 0.8034492 0.03511085 0.3731618 0.009801239 0.82277536 -0.94845736 0.5843964 0.9055211 0.3517816 -0.13152018 0.8289943 -0.93341565 0.6242113 -0.889917 -0.30092928 0.42832845 -0.9514073 -0.12504362 -0.77107465 0.33033738 -0.43619004 -0.77069974 -0.58307004 -0.5128726 0.4545522 -0.24244031 0.85358566 0.95694757 -0.17585629 -0.40273404 0.86472154 -0.57594997 -0.99059755 0.26489866 0.91858715 0.73590004 -0.44832623 0.84816104 -0.17615098 -0.5386028 -0.5203583 -0.4219504 -0.7112083 0.9982616 -0.2850818 0.19293126 0.33342004 0.99077505 -0.82029295 0.5460837 -0.6846003 -0.90557635 0.96463746 -0.34766278 -0.19625027 0.84088075 -0.9586881 -0.20372792 -0.79774785 0.40523368 0.86344945 0.9527489 0.40079793 0.9074668 -0.48306662 -0.106851086 -0.60604787 0.70981723 0.36175954 -0.05695987 0.3943454 0.9803628 -0.9683478 0.9826737 -0.15051186 -0.99457675 -0.95274025 0.30956998 -0.3552412 0.61562175 0.44906992 0.068249345 0.1482919 -0.91186017 0.84458506 0.50671506 0.3064165 0.33181918 0.9201866 0.29930943 -0.8861584 -0.13344975 0.5520945 0.32299647 0.859251 -0.077184476 -0.74055517 -0.6454721 0.50375134 -0.18532008 -0.8158889 -0.35671866 0.5683737 -0.9958273 0.8054477 -0.43425816 -0.81678355 -0.5113621 0.9790842 -0.1380226 0.8387282 -0.30287006 -0.96244955 -0.034812216 0.09736896 -0.99659395 0.7389723 -0.5260092 -0.78837466 0.9822077 -0.6216185 0.5595126 -0.67065454 0.6095907 0.804108 -0.21689306 -0.4161791 0.47662467 0.2655524 0.2530114 -0.5992682 0.08084865 0.84633076 0.6084425 -0.3729939 0.5250618 0.9831565 -0.24871342 0.90064263 -0.45880738 -0.96556836 0.17564085 -0.65251875 -0.9849523 -0.19532974 0.21090217 -0.89541197 0.6487004 0.19836509 0.91097623 -0.5326631 0.85527647 0.4266885 0.9703349 -0.80257046 0.44982052 0.7269979 0.22397445 0.1845594 -0.7374736 0.33544806 0.80696815 0.04142265 -0.45997924 -0.47150195 0.7403805 0.84387046 -0.91052747 -0.63872325 -0.85356474 -0.40450272 0.24028602 -0.7499906 -0.88753235 -0.43241552 0.36692357 -0.7259853 0.74048495 -0.15631498 0.67986584 0.89951414 0.0069831926
0.64027256 -0.72218007 -0.77067226 -0.99515194 -0.88536847 -0.97847486 0.551956 0.033623308 0.41903484 0.6057075 -0.86268973 0.52736604 -0.052609574 0.51588726 -0.65806156 0.12227395 0.6110281 0.6583182 0.76965487 0.1463214 -0.83087325 0.46085957 -0.23241124 0.1821271 0.70525587 0.67701364 0.6331705 0.45124388 0.059746224 -0.8953992 -0.490744 0.8082471 0.7688585 0.21539742 -0.9711167 0.58350533 0.42947382 0.6629326 0.22666189 -0.07037197 0.9321504 0.3673598 0.95091355 0.24553084 -0.10708834 0.7152412 0.64771616 -0.19889295 0.5757186 -0.36503398 -0.21822408 -0.09005219 -0.34879765 -0.4167052 0.6933039 0.7243723 0.5332555 -0.67171836 -0.28437117 -0.2974147 -0.9432084 0.90511155 -0.12735394 -0.13595237 0.94599956 -0.93213296 -0.7321222 0.9104069 -0.5599282 -0.8470723 0.6736712 -0.56134117 0.42636603 0.008104874 -0.2891169 -0.61148417 -0.73347163 -0.36505413 0.20101771 0.9652317 -0.3639846 -0.6226281 0.50483596 0.08346272 0.39421737 -0.055407144 0.8407515 0.10215298 -0.65524423 0.7413248 -0.26201963 0.4629324 0.8725772 -0.34643266 0.13501957 -0.05055428 -0.9524065 -0.12417574 -0.13964418 0.4996231 -0.5463365 0.20647036 0.7508828 0.60493577 0.51612467 -0.5591312 -0.030794684 -0.7850279 -0.66721874 0.15146033 0.34398925 -0.62455386 0.9489797 -0.1766439 -0.7039629 -0.31075513 0.054624103 0.012977518 -0.04836414 0.29695278 -0.77156997 -0.48932028 -0.67477846 -0.4765946 -0.093334176 0.09488175 0.21348548 -0.93058705 -0.13496493 -0.72002727 0.6484656 0.4147107 -0.053601597 -0.92776656 -0.28509292 0.018516578 0.78522164 -0.70279735 -0.11336236 0.76895523 0.85155356 0.88569564 0.5248468 -0.75525117 -0.2759911 0.3299909 0.98090076 -0.36628726 0.73840684 -0.43112987 0.05261033 0.68973804 0.083756685 0.42138654 -0.9182358 0.08899387 -0.026484398 -0.17320997 0.83065504 -0.36276805 0.8590084 0.67115957 0.56632113 0.3320237 0.79259145 0.19435456 -0.83886284 -0.2578776 0.090484664 0.8665938 -0.8289063 0.8620045 0.49829128 -0.2595851 -0.29287037 -0.590698 0.37961075 -0.42627832 -0.8037079 -0.58053285 0.4297677 0.17259257 0.3723988 -0.09212257 0.5434278 -0.79310095 -0.023338467 0.30139112 -0.6722076 0.19137672 -0.00995211 -0.23285893 0.7114922 -0.18890208 0.40226737 0.4150774 0.96283746 0.94138396 -0.99945486 0.10718097 0.33462366 0.54778653 0.6894799 0.6310329 0.7417344 -0.013246419 0.73293394 -0.9148089 0.5880709 -0.34019315 0.23558229 -0.35711002 0.74417794 -0.91579807 -0.3370542 -0.8728213 0.25701478 0.15296428 -0.95862305 -0.5406378 -0.83201385 0.84834975 -0.4601336 -0.73868364 -0.41946623 -0.2194342 0.52807873 -0.6942838 -0.20075637 0.39019936 -0.7474048 -0.090954944 0.84744525 -0.49543074 -0.8385047 0.7181529 0.34491882 0.46816275 -0.7131809 0.3309323 0.16164306 0.4635923 -0.11871851 0.5301824 -0.45070958 0.8414484 -0.15697756 0.2593408 0.62126297 0.9703117 -0.47056094 -0.51839995 -0.86412364 -0.9150443 0.9751701 0.39620167 -0.34865725 0.829769 -0.8867322 -0.7122248 0.5098256 -0.13722017 0.66352844 0.9240366 0.41600376 0.76460505 -0.31310108 0.3807106 -0.38593084 0.9440317 0.8402074 -0.4305357 -0.16698867 0.915991 -0.75809073 0.8922067 0.059085034 -0.95487124 -0.91483355 0.34187606 -0.48794875 0.8137843 0.6548792 0.077750705 -0.024938414 -0.90463734 0.42455068 0.6075675 0.7635703 0.24005732 0.71622455 0.58897287 -0.24674681 0.13205068 0.45503998 -0.007411237 0.8239797 -0.06624649 -0.35617465 -0.16067204 -0.3404799 0.54377383 -0.017114718 -0.6858788 0.47778314 -0.9963255 0.78532255 -0.18897574 -0.4914085 -0.5975374 0.97943467 -0.16499718 0.89662695 0.31744564 -0.8216211 0.2342639 0.31574133 -0.9861143 0.11049443 -0.8554973 -0.9836452 0.9604626 -0.6146842 0.24266408 -0.30559632 0.53839535 0.45499894 -0.69662875 -0.86820024 -0.11253827 -0.074690044 -0.10895778 0.10605594 0.02250019 -0.035971895 0.885875 -0.2178925 -0.12633833 0.7374429 -0.7072677 0.23881292 -0.8841302 -0.8132471 0.5446481 -0.35262355 -0.63712466 -0.43908173 0.21714404 -0.961358 0.50695103 0.0038562329 0.44037464 0.26628435 0.37188432 -0.31492805 0.89779675 -0.9621259 -0.7921572 0.83385175 -0.6790969 0.089621454 -0.8688419 -0.09351468 0.28934458 0.4596766 -0.42077377 0.5638304 0.5799339 0.6335677 -0.96880585 -0.24065778 -0.73445326 -0.065997094 -0.10825998 -0.80869025 -0.83341765 0.26002824 0.42527193 -0.7597909 -0.45776516 -0.5232277 -0.32437298 0.66342986 -0.21924077
0.94220114 -0.58496934 -0.76113 -0.9794972 -0.6407393 -0.96146655 0.29542387 0.4072521 0.596607 0.440624 -0.49654824 0.1784237 -0.26278332 0.7698495 -0.28384033 -0.014736999 0.11802309 0.6376694 0.82813406 0.40288696 -0.6168552 0.8809471 0.1679758 -0.099730775 0.28310248 0.8233206 0.6994076 0.3187921 -0.33649 -0.93011206 -0.57356447 0.05349426 0.3082418 0.5794135 -0.90071225 0.87605345 -0.4107535 0.53566873 0.57484055 -0.05534638 0.8123646 -0.2996804 0.9779492 0.07072513 -0.5252025 -0.006901984 0.15595062 -0.77685714 0.5652689 -0.50048727 -0.5166565 -0.2949318 -0.5315425 -0.16527453 0.40329605 0.5333136 0.7578667 -0.7400126 -0.09171395 0.11289957 -0.9316358 0.34625122 -0.56236386 -0.49087703 0.91524583 -0.65370405 -0.54904056 0.60382944 -0.08229343 -0.88089985 0.14040296 0.18980625 0.09623019 0.20233168 -0.29580125 -0.4492388 -0.16177768 -0.1888875 -0.46897683 0.95422107 -0.020957801 -0.62948513 0.8671643 0.4084662 -0.30070722 -0.3679998 0.8926512 0.49489778 -0.6377926 0.40766674 -0.41073263 0.78697014 0.6132786 -0.35002124 0.395806 0.123315364 -0.9588514 -0.20957679 -0.16064525 0.7131271 -0.77652067 0.21809466 0.73260957 0.30136588 0.24067622 -0.7036737 0.010665496 -0.9750685 -0.57856464 0.80006236 0.36060277 -0.43794394 0.95196813 -0.53065425 -0.9823904 -0.6528986 -0.3943708 -0.66882193 -0.24946485 0.60853755 -0.53147185 -0.23349653 -0.963861 0.20002334 -0.0064947587 0.24616398 0.23934726 -0.7058037 -0.05898825 -0.52738094 0.7275611 0.299494 0.26679584 -0.8319683 -0.53352314 -0.14325774 0.7675764 -0.13178636 -0.3335055 0.11084154 0.52860373 0.9574622 0.41402954 -0.6450845 0.14719366 0.12931545 0.95845765 -0.0812535 0.5700232 -0.5739593 0.27090305 0.62360024 0.1270256 0.33066866 -0.3631225 0.18911098 0.35444504 -0.33273077 0.55961376 -0.5669669 0.76167226 0.052050192 0.6729937 0.2334039 0.7805868 0.08609332 -0.8455233 0.2957216 -0.424134 0.87467575 -0.9109221 0.7106394 0.6405449 -0.44319993 -0.36265975 -0.7701974 0.47757116 -0.04889216 -0.87870634 -0.60686463 -0.54082006 -0.39955094 0.22819181 -0.2988521 0.81365496 -0.75766313 0.23256019 0.38454044 -0.2117027 -0.10796075 -0.11799256 -0.251346 0.47919983 0.16110493 0.47242346 0.120547675 0.6475229 0.95392126 -0.9992019 0.17272376 0.5022961 0.5233427 0.41828716 0.571574 0.4257456 -0.3601374 0.8866171 -0.45919135 0.5413816 0.20644829 -0.28412983 -0.3860122 0.35406664 -0.8409805 -0.40885794 -0.7480726 -0.26333815 0.21110521 -0.84229803 0.081230044 -0.65311027 0.46689606 -0.38745221 -0.8610752 -0.26983854 -0.21939977 0.47569406 -0.1910611 0.017468214 0.57381344 -0.37753773 -0.52090806 0.26763478 -0.27318916 -0.8199145 0.29398662 0.50690323 0.16460067 -0.018255848 0.5054916 0.03930527 -0.01506201 -0.71197325 0.35193267 -0.31364223 0.7587923 -0.25645167 0.20882118 0.47302783 0.90376174 -0.87443554 -0.048012704 -0.8563455 -0.83931834 0.86909133 0.1419254 -0.020561894 0.7582953 -0.980432 -0.1247983 -0.13956122 0.17850392 0.42282602 0.7747251 0.2542346 0.8749661 -0.17457648 0.5169672 -0.08013545 0.5493154 0.62730896 -0.05641131 0.12575473 0.96657926 -0.9593139 0.9454663 -0.45249256 -0.8154163 -0.7966551 0.8379648 -0.7539048 0.7869583 0.4554275 -0.13289638 0.12918293 -0.92709124 0.5201769 0.8205802 0.7447233 0.20978016 0.60506076 0.05710004 -0.44737107 0.1181291 -0.16327082 0.22988124 0.71054286 0.3230246 -0.25526142 -0.15732852 -0.47514227 0.12550686 -0.55349946 -0.8939415 0.6342369 -0.9480414 0.57624584 -0.6332986 -0.49931118 -0.014053247 0.9143031 -0.17553325 0.7816716 0.3249383 -0.784595 -0.066492714 -0.24787778 -0.95843583 -0.015218928 -0.8409514 -0.9406288 0.95317453 0.053513806 0.413252 0.24861665 0.5165967 0.17800163 -0.5761002 -0.43781748 0.58065283 0.38365036 -0.15666248 -0.31810978 0.47096017 0.40822124 0.6982097 -0.40300566 0.017432459 0.5515664 -0.62567335 0.12760514 -0.6745841 -0.6747918 0.58847815 -0.38356972 -0.17913775 -0.18898912 -0.1052085 -0.89600533 0.5826407 0.22719836 0.21883701 -0.22372039 0.5047881 -0.4702781 0.8806118 -0.5391746 -0.6532058 0.722059 -0.4786741 0.4518068 -0.72344303 0.25438517 -0.023138769 0.0976541 -0.18112428 -0.15687549 -0.016387308 0.5740583 -0.5990841 -0.08042913 -0.7928531 -0.3088131 0.24861018 -0.7527852 -0.96803266 -0.09635144 0.13692763 -0.8334427 0.14284018 -0.23952752 -0.00773173 0.34070134 -0.035732962
0.8148497 -0.26809222 -0.44219375 -0.9573033 -0.8059814 -0.9792472 0.7045195 -0.16301835 0.57743096 0.37247655 -0.66317177 0.31185758 -0.16881369 0.69234073 0.04886024 -0.3589442 0.17268027 0.35425267 0.41702062 -0.46157876 -0.84539163 0.9379318 -0.018597541 -0.156789 0.22730419 0.62052965 0.7360552 0.59309506 -0.5248577 -0.75964 0.17133544 0.45026398 -0.04630768 -0.18278198 -0.9455262 0.73858154 -0.012382097 0.0820569 0.61217296 -0.14430511 0.6443325 -0.14012733 0.9544765 -0.09868124 -0.37422013 0.28676605 0.31732675 -0.5029423 0.38486525 -0.14254314 -0.57492924 -0.2852881 -0.6349232 0.01828755 0.7270225 0.49260613 0.35719356 -0.65286726 -0.6931359 0.055455107 -0.8643173 0.10501799 -0.44106933 -0.12602106 0.9094766 -0.61326283 -0.8846201 0.3531863 -0.33963457 -0.9171498 -0.16141757 -0.14424959 0.44241318 0.41394675 0.35429394 -0.5610441 -0.16280152 -0.15609148 -0.51377594 0.9547818 -0.55688524 -0.7429714 0.8999693 0.38136643 -0.46122816 -0.021818837 0.9205596 0.2978786 -0.464262 0.44202763 -0.08232668 0.780267 -0.1547326 0.36571658 0.29587156 0.20617479 -0.39134783 -0.07395784 -0.33425888 0.62581885 -0.4385135 -0.20237078 0.8365826 0.7439697 0.37413412 -0.50819826 -0.5068121 -0.7835106 -0.538337 0.5313149 0.6095423 -0.59173185 0.9515024 -0.64389044 -0.8997585 -0.3091815 -0.2779241 -0.47030222 -0.22563931 0.11713228 -0.18687533 -0.30504927 -0.9418016 -0.38502175 -0.1847371 -0.014346024 0.21988486 -0.5749012 -0.030167285 -0.8267347 0.60561556 0.3676096 0.17994095 -0.42761305 -0.40451506 -0.032755848 0.7362976 0.24477604 -0.18585487 -0.2339561 0.43843865 0.66678566 0.13515085 -0.50970197 0.44409508 0.2517188 0.9769724 0.12623776 0.48202336 -0.80400693 -0.1784598 0.60053295 0.05048993 0.28750083 -0.58196056 0.34069258 0.58814317 0.068489194 0.58371 -0.7168055 0.6435112 0.35399783 0.76353955 0.08454626 0.58515596 -0.059945747 -0.9456904 0.6352361 -0.241246 0.9473618 -0.41173768 0.56459177 0.7743051 -0.54378206 -0.03373448 -0.7100873 0.7314068 0.338217 -0.53959423 -0.3579779 -0.14087409 0.074941814 0.113463886 -0.02475799 0.8678355 -0.51894236 0.51073515 0.39736524 -0.52624506 -0.03474748 0.39451462 -0.3133979 0.61472076 0.086408466 0.7680539 -0.311659 0.4877889 0.30071688 -0.99795526 0.3081645 0.46264312 0.09188638 0.17408825 0.83275145 0.7425928 -0.34104118 0.6456525 -0.28795716 0.8449606 0.295845 -0.26389822 -0.43201137 0.28429866 -0.35312334 -0.69227326 -0.1945681 -0.19989291 0.43654034 -0.58793783 -0.31770554 -0.8156766 0.5167219 -0.049414583 -0.86321396 0.183088 -0.18317841 0.5874396 0.05505295 0.17193936 0.2939077 -0.1885706 -0.11455588 -0.055010326 -0.2263827 -0.85754263 0.11076129 0.356599 0.26317176 -0.5909363 0.4116062 -0.40639004 -0.13877456 0.056922443 0.14482868 -0.4522095 0.72490877 -0.15753594 0.17555784 0.24426797 0.880163 -0.13780895 0.28182963 -0.79098505 -0.8816715 0.92295086 0.03236601 -0.18014993 0.6724101 -0.973745 -0.14752573 -0.46146888 0.14253779 -0.06331029 0.59324443 0.25250965 0.7355294 0.095630705 0.47743118 0.058568943 0.7679545 0.12179518 -0.5234526 -0.13409574 0.8361208 -0.94575745 0.9083891 -0.29584455 -0.67401 -0.8323179 0.40529102 -0.77443635 0.75798 0.42545718 -0.275129 0.30681607 -0.9331559 0.17252879 0.21211433 0.5387825 0.23473567 0.5485701 -0.205967 -0.1952193 0.3620911 0.5017575 0.06913326 0.6554909 0.5306159 -0.4397333 -0.20693031 -0.4059593 0.47612578 0.22257087 -0.9448219 0.21923617 -0.935793 0.5922179 -0.6586609 -0.35742474 -0.66618615 0.9798912 0.21181503 0.8959068 0.21444173 -0.8798189 -0.26787445 -0.5314877 -0.887653 -0.2301149 -0.8423317 -0.96493584 0.93166816 -0.24289423 0.7397194 -0.12424275 0.11380484 0.061176524 -0.7632237 -0.43826565 0.51073015 0.29166332 -0.25999144 0.056189142 0.12956561 0.47676048 0.67732954 -0.6490493 -0.02557869 -0.18416502 -0.6285 -0.103730194 -0.37824804 -0.91368866 0.12220586 0.2800415 -0.21762894 0.11095107 -0.10184822 -0.93326974 0.18612605 0.09158167 0.42926386 -0.3857292 0.40995663 -0.45658645 0.5474409 -0.71768904 -0.31932965 0.3152583 -0.54176104 0.68620545 -0.2799421 0.2693271 -0.033387575 0.026838465 0.52352965 -0.40593803 0.30203408 0.53649545 -0.630263 -0.4327516 -0.4650964 -0.46318018 0.5877549 -0.79444176 -0.9719407 0.04602346 -0.07967666 -0.8872366 0.072182395 -0.5373471 -0.11634614 0.5466918 0.09618456
0.863182 -0.40263543 -0.7731284 -0.9614398 -0.72958624 -0.97103745 0.596132 0.09702711 0.3597586 0.7858351 -0.40737393 0.122619316 -0.14549279 0.80666673 -0.29538682 -0.57095027 0.3166566 0.48314822 0.7288938 -0.039126307 -0.80944115 0.8268554 0.3040259 -0.22933246 0.2415207 0.5047252 0.6432178 0.43330464 -0.25726968 -0.83978033 0.02139046 0.2943807 0.327317 0.1831136 -0.9695043 0.5664229 -0.20040081 0.15511617 0.38971046 -0.05614848 0.8087097 -0.43366683 0.9087558 -0.31546754 -0.14234437 0.46811914 0.039066326 -0.75428176 0.30680263 0.09700486 -0.15809204 -0.6012314 -0.48051047 -0.113173544 0.8349887 0.61936265 0.53678554 -0.33576363 -0.3726272 -0.24160479 -0.7384027 0.41966096 -0.4058379 -0.22379655 0.9216563 -0.8271423 -0.6808245 0.5460181 -0.27881196 -0.9100826 0.11380316 -0.4501434 0.15263008 0.48542506 0.1881935 -0.32162437 -0.21725287 -0.2625083 -0.47982997 0.9026217 -0.07216325 -0.5506873 0.8274862 0.26626286 -0.30322754 -0.008724002 0.9093999 -0.015176161 -0.5416684 0.1884682 -0.33110464 0.7275724 0.005881341 0.029567715 0.25345817 0.30046767 -0.8941301 -0.050420772 -0.41365266 0.6636472 -0.2429479 -0.4728708 0.7633376 0.657137 0.22665189 -0.6423573 -0.24659333 -0.8498392 -0.7202955 0.5984058 0.65235287 -0.642591 0.9840833 -0.44464397 -0.9071073 -0.33717108 0.19590853 -0.5138335 -0.421621 0.028207142 -0.329386 -0.5464387 -0.9113006 -0.058654834 -0.0022760895 -0.14832713 -0.07220478 -0.65027386 0.12400564 -0.6264407 0.46940708 0.2642661 0.06829042 -0.8150877 0.020087626 0.33913338 0.8049502 0.11295469 -0.41399556 -0.027451998 0.5073327 0.6313102 0.2546247 -0.8277727 -0.0992206 0.22746325 0.93417066 -0.17314482 0.5147636 -0.8034253 0.03246066 0.6766151 0.124502085 0.4842215 -0.56953967 0.5584958 0.39265397 -0.16538782 0.84555846 -0.55880964 0.551877 0.0982545 0.6858454 -0.11473708 0.62193614 -0.5296267 -0.95415515 0.44774288 -0.060338885 0.9306525 -0.52454627 0.7174006 0.45120552 -0.43840808 -0.21832064 -0.54541385 0.48682097 0.16484922 -0.5879105 -0.5652472 -0.4451393 -0.3136805 0.52581584 -0.30700138 0.7782242 -0.5562859 0.30222633 0.16518253 -0.6751395 0.17373882 0.093272574 -0.09757467 0.3535126 -0.038189825 0.62732977 -0.010297119 0.19880766 0.78338873 -0.9980232 -0.0034613665 0.2570596 0.27366015 0.51108116 0.78887033 0.48053464 -0.46697643 0.63943946 -0.53132206 0.700654 0.12344134 -0.26599357 -0.57887536 0.41336995 -0.84925985 -0.54376906 -0.5325531 -0.25216156 -0.004867111 -0.59074235 0.18522248 -0.79254305 0.57729876 -0.40193748 -0.5727419 -0.036191102 -0.16999072 0.29833204 -0.2311968 -0.12195411 0.24505626 -0.2212507 -0.08437313 0.045295574 -0.28697154 -0.6740605 -0.01429983 0.09806127 -0.24564394 -0.28541544 0.16448276 -0.26573583 -0.041654624 -0.23490202 0.48368266 -0.02043048 0.78055555 -0.13889419 -0.016744537 0.18241423 0.92198133 -0.3421617 0.039316583 -0.5604791 -0.83601046 0.85301715 -0.21451241 -0.07608806 0.45323405 -0.94582224 -0.2655572 -0.22806579 -0.16159716 0.26034886 0.74218786 0.57732034 0.6683464 -0.12654266 0.35091156 -0.36915943 0.78950137 0.13224024 -0.5479431 -0.19619505 0.9878124 -0.8273558 0.94547313 -0.06284196 -0.838522 -0.78071964 0.63092333 -0.53224313 0.36632514 0.43175977 -0.5821103 0.39765662 -0.9088542 0.40991738 0.37990308 0.58673304 0.15255597 0.6580805 0.03478362 -0.42475474 0.034290656 0.28004506 0.18952547 0.4400734 0.37827823 -0.25072983 -0.07830604 -0.23862076 -0.08934543 -0.13076384 -0.93374807 0.7187967 -0.8965383 0.62367 -0.52182955 -0.115541704 -0.35364413 0.9308692 -0.11908677 0.9094411 0.07944341 -0.8866436 -0.019745884 -0.2502897 -0.9381448 -0.32534108 -0.76189494 -0.8283693 0.8904037 -0.20343733 0.542182 -0.016789068 0.38605413 0.31327865 -0.59835964 -0.55784994 0.52574646 0.30798963 -0.5085412 -0.13180646 -0.11178576 0.39397532 0.8826985 -0.6381457 0.35140863 -0.030407522 -0.27895474 0.48779112 -0.7211618 -0.91559803 0.059530705 -0.13657816 -0.6641818 0.08314883 -0.408115 -0.87704605 0.06536245 -0.04592979 0.26042593 -0.18624648 0.24059302 -0.50994027 0.7296155 -0.72246224 -0.760811 0.5645207 -0.106822856 0.35406688 -0.602991 0.3884782 0.050494883 0.07239766 0.3376315 -0.07147728 0.11558186 0.38546544 -0.6151407 -0.092375234 -0.6438202 -0.60253555 0.55776924 -0.93811363 -0.9321847 0.44008744 0.009941992 -0.8641718 0.066373095 -0.3387069 -0.34983116 0.71787626 0.02863634
0.9969604 -0.50347483 0.06000096 -0.97939575 0.06666936 -0.934101 0.541824 0.13905925 0.20384268 0.6692942 -0.43367088 0.66174227 -0.44120452 -0.04280131 -0.24076448 -0.46894035 -0.17387398 -0.24442357 0.8039248 0.14670436 -0.8471016 0.91060746 -0.16338119 0.23220122 -0.013566451 0.6379524 0.73959154 0.47211108 -0.34954172 -0.8744871 0.2643749 0.34590968 0.49821913 0.28183717 -0.85173917 0.74187636 -0.33420026 0.21035518 0.44806063 -0.22424424 0.68350154 -0.29338402 0.59630847 -0.41962737 -0.5573521 0.3850053 0.45802554 -0.50163597 0.14521031 -0.23840767 -0.009906065 -0.45922667 -0.39382648 -0.45897418 0.76733154 0.6547352 -0.39219713 -0.7898729 -0.12827227 0.4778063 -0.17094839 0.12931147 -0.107734434 -0.44978184 0.9556219 -0.42077082 -0.82470095 0.34945562 -0.100553796 -0.32101 0.4833894 -0.1728865 -0.0077754767 0.6227359 -0.23939615 -0.41538805 -0.044019967 0.03981422 -0.43710914 0.8945046 -0.54751766 -0.5258403 0.31178278 -0.045844648 -0.5654076 -0.30352283 0.8478653 -0.13404422 -0.64066964 0.7249045 -0.14115874 0.7144455 -0.36127082 0.3503219 0.110951446 0.19708647 -0.8821546 0.28758726 -0.4867427 0.7297967 -0.7646247 -0.48530114 0.59964675 0.23245922 -0.2669246 -0.3935326 -0.35728893 -0.9072485 -0.8379174 0.33966574 0.2664079 -0.4358591 0.96865386 -0.7307117 -0.61376756 -0.74036354 -0.4430802 -0.17388001 -0.43156496 0.38626218 -0.32951647 -0.8039782 -0.37379292 -0.45555186 -0.15563099 -0.38740337 -0.3902392 -0.57994884 -0.3518587 -0.7897027 0.8308546 0.6420929 0.072560884 -0.6147985 0.009059394 -0.05740401 0.8322904 0.006811511 0.008019455 0.2978 0.4356952 0.26691538 0.20069143 -0.8516473 0.6023286 0.25941986 0.89712983 0.16116121 0.36178428 -0.44612145 -0.40489045 0.6260159 0.15729624 0.13477701 -0.67185587 0.6003521 0.549393 -0.40712017 0.73010117 -0.73368955 0.4355929 0.34919527 0.15231611 -0.06408516 0.16419877 -0.35739827 -0.8805673 0.5773809 -0.38738057 0.7699816 -0.82404256 0.20076129 0.6310247 -0.15743695 -0.0065175127 -0.5278551 0.1766924 -0.15038094 -0.5093605 -0.6175893 -0.6840975 0.0123505015 0.5315422 0.20329377 0.87320244 -0.61948055 0.31766838 0.5981708 -0.6864928 0.6632545 0.50471663 -0.13112557 0.041581973 0.118996784 0.5918718 -0.22414328 0.51253235 0.04630471 -0.99694455 0.43456006 0.5338701 0.3414213 0.6622348 0.686697 -0.34145245 -0.44738287 0.7301275 -0.11161329 0.41873464 0.6186041 0.3320893 -0.26670232 0.0053071114 -0.72687054 -0.37497252 -0.66629153 -0.082676694 0.6963347 -0.95442736 0.15243956 -0.76491046 0.5475688 -0.12305557 -0.839449 -0.5031414 -0.54150337 0.111168765 0.27405313 -0.5461161 0.38157773 -0.58455557 0.14740004 0.1560089 -0.5457498 -0.71207994 -0.35278597 0.319539 0.14358139 -0.14908898 0.597631 -0.28839144 0.24501604 0.019067146 0.25080633 -0.28662118 0.8821816 -0.45694306 0.33144563 0.46937862 0.7863636 -0.8258784 0.26052755 -0.6675222 -0.6815256 0.9297834 -0.35215127 0.19929524 0.6147243 -0.8151257 0.28839192 -0.122169726 -0.31238377 0.547141 0.5185844 0.31427005 0.6925894 -0.14241579 0.7155713 0.2614143 0.70067763 0.07547132 -0.1769983 -0.35481444 0.81104267 -0.87898755 0.9029338 -0.6061704 -0.66602147 -0.6675717 0.600585 0.0063593406 0.80336154 0.13429384 0.11202872 0.46373612 -0.90506095 0.7548426 -0.11784168 0.18432744 -0.1864654 0.55572945 -0.34336424 -0.1791559 0.30220294 0.0021956363 0.2858792 0.79387194 0.7485087 -0.52954805 0.31777313 -0.51179034 -0.15287337 -0.6517423 -0.85552645 0.13650739 -0.96573454 0.7529683 -0.63552994 -0.4124556 -0.5882205 0.94677246 -0.47250712 0.91271985 0.5486332 -0.9451126 0.013103558 -0.06761642 -0.9411511 0.2995328 -0.86338466 -0.9695947 0.9375662 0.10463382 0.52885306 0.029553022 0.26115257 -0.2172101 -0.5225402 -0.48971638 0.35421652 -0.08486491 -0.22351153 0.13075931 -0.33564806 0.23362866 0.5986253 -0.59361494 -0.08404793 0.044587422 -0.8278525 -0.021614613 0.017345594 -0.60760826 0.6579778 0.21887492 -0.73167694 0.23404966 -0.0060734656 -0.8660265 0.4978189 -0.1858143 0.2420398 -0.49283114 0.598545 -0.4993578 0.22147997 -0.37210292 -0.7594454 0.75154793 -0.57172465 0.6883871 -0.7263345 0.1063487 0.6033482 -0.41670743 0.44971165 0.062563635 -0.45017052 0.50957257 -0.9030515 0.0081456555 -0.70912397 -0.74535185 0.6729863 -0.83569545 -0.94760513 0.6541942 0.31518415 -0.8992315 0.62113065 -0.21372363 0.077584594 0.40888506 0.08278224
0.9546472 -0.16955754 -0.454365 -0.94903976 -0.2744038 -0.900205 0.0059968242 0.3346133 -0.22556542 0.30017966 -0.30539623 0.47847196 -0.39095354 0.36070016 -0.3580665 -0.7721716 0.3959861 0.4358849 0.6675842 -0.027111055 -0.81881684 0.6970554 0.7229105 0.003846303 0.19479421 0.85581225 0.9426716 0.26940516 0.07368864 -0.77305716 -0.19344445 0.2803071 0.33220688 0.024269488 -0.9107569 0.6246579 0.21741988 0.124251455 0.48605293 -0.06715236 0.6918231 -0.022104628 0.40843666 -0.028104717 -0.6090056 -0.06309128 -0.04228155 -0.14022142 -0.008551669 -0.21586975 -0.16934094 -0.15259573 -0.18470818 -0.10388414 0.5621003 0.24492328 0.38984266 -0.48180282 -0.3759866 0.4922342 -0.721155 0.2926934 -0.015756387 -0.1495674 0.8952535 -0.30247515 -0.5855856 0.67872226 -0.016961612 -0.8229728 0.40060818 0.20291306 -0.4521731 0.43664077 -0.55139786 -0.2819164 -0.14904904 -0.14408676 -0.23990439 0.96370476 -0.2824255 -0.727948 0.9709112 0.3575292 -0.31116477 0.09023967 0.94600755 -0.15334265 -0.08847706 0.7678272 -0.302785 0.3719949 -0.08574358 -0.11041929 0.2011421 0.33305776 -0.9550785 -0.5077749 -0.10811901 0.5388169 -0.0073504606 0.27351996 0.67945135 0.42603615 0.2006184 -0.83544767 -0.35891223 -0.7226447 -0.63280874 0.44920596 0.55426764 -0.50675005 0.98533887 -0.50962716 -0.9499689 -0.9232505 -0.20748788 -0.36579502 -0.5425387 0.7828496 -0.47247273 -0.41939625 -0.69654876 -0.1790774 -0.0076048295 -0.45311368 0.07732866 -0.39092246 -0.053591978 -0.57732445 0.43909988 0.39552838 0.29314262 -0.77144533 -0.3552579 0.5384337 0.4744322 0.40047908 -0.068466514 0.06094411 0.05072003 0.5300809 0.5105916 -0.62626415 0.39340067 0.06681463 0.95270807 0.023612693 0.06376343 -0.41956612 -0.35420674 0.7775569 -0.32625902 -0.03726142 -0.763605 0.5038221 -0.20303045 -0.27065733 0.69183743 -0.526199 0.45263985 0.4505711 0.26291516 -0.035759453 0.37439787 -0.562522 -0.96267694 0.6778194 -0.29291457 0.9065518 0.13284326 0.44009 0.3340067 -0.44835886 0.08400676 -0.5737016 0.58938664 0.332044 -0.65820605 -0.55648416 -0.7606308 -0.2432478 0.86840785 -0.19491981 0.696674 -0.36996493 -0.031553593 0.53071624 -0.5482472 0.029644644 -0.31557706 -0.24349736 0.12310598 -0.11437079 -0.05325985 -0.080142856 0.25901115 0.7528556 -0.9988842 -0.094563015 0.18777283 0.07968134 0.3917181 0.70718575 0.15543109 -0.34298015 0.71405685 -0.84529936 0.48930702 -0.09802286 0.37101242 -0.28711376 0.49902877 -0.34256312 -0.6434203 -0.6878591 -0.11899825 0.10113615 -0.43229896 0.21839604 -0.7541874 0.25003216 -0.23289101 -0.7431517 -0.71890724 -0.5063168 0.52459687 -0.045569483 0.02883063 0.21104576 0.20596059 -0.2524058 0.53229076 -0.07554151 -0.8345273 0.10370779 0.12422781 -0.09158323 -0.07430204 0.57831043 -0.3939996 -0.030871455 -0.3489031 0.58197045 -0.49797362 0.4918709 -0.3729966 -0.06649454 0.07443705 0.78423196 -0.557157 0.028078638 -0.5906645 -0.81469584 0.90710926 -0.34063724 -0.21667498 0.21845773 -0.9152097 -0.16199714 -0.43589532 0.11377834 0.6561203 0.7099315 0.2726137 0.46199632 -0.46720958 0.39155033 -0.23157956 -0.100719236 -0.11188223 -0.20980659 -0.15618327 0.98657274 -0.91833836 0.8652529 -0.3803063 -0.5851789 -0.5351919 0.55792964 -0.24308357 0.013100013 0.26190263 -0.54908055 0.255967 -0.9068499 0.419408 0.56437624 0.6695571 -0.4652639 0.72792596 0.49873894 -0.7223013 0.3954278 0.35315812 0.22500862 0.94360894 0.6719481 0.021674078 -0.21924289 0.075780086 -0.43553093 -0.48284754 -0.90823776 0.6518114 -0.986999 0.5957683 -0.299386 -0.18084331 0.3282109 0.73161316 -0.23959659 0.9367314 0.14679775 -0.78563845 -0.1500525 0.33045986 -0.94187015 -0.24736708 -0.6184166 -0.90794283 0.8645761 -0.05467492 0.03389607 -0.122287005 0.2565411 -0.041655153 -0.6198984 -0.21231079 0.7077033 0.05081037 -0.4286643 -0.49205068 0.3424419 0.6379059 0.6343847 -0.5850844 0.3737765 0.6212905 -0.5910691 0.016988209 -0.72036314 -0.87330633 0.4953474 0.03128215 -0.7761481 0.49958473 -0.29258725 -0.7986858 0.6238925 0.0878286 0.5801239 -0.7908783 0.3721641 -0.4334908 0.54277396 -0.013786828 -0.2382361 0.5066443 -0.010711774 0.6558295 -0.7157732 0.685288 -0.10829264 0.013607745 -0.2024958 0.17704788 0.4028245 0.020128187 -0.5760141 0.043594677 -0.49658516 -0.5632694 0.672688 -0.6972011 -0.97239983 0.520223 -0.12055618 -0.7003095 0.6109969 -0.2836779 -0.108148955 0.7593928 -0.41573852
0.7308778 -0.15590218 -0.35727534 -0.8744765 -0.006009998 -0.8717948 -0.2125739 0.40834045 0.41067505 0.53784466 -0.6069888 0.7611056 -0.18637954 0.09691931 0.30946848 -0.26231846 0.35081863 0.45233235 0.47110212 0.10982362 -0.8076172 0.5158421 0.030491043 -0.057347868 0.29078734 0.4391344 0.8288434 -0.1456988 -0.13411179 -0.8882132 -0.26613766 -0.3084886 0.16977112 0.0049892734 -0.9110422 0.39201608 0.24564339 0.1426719 0.3035056 -0.70066196 0.78109074 0.016476745 0.6923398 0.07323426 -0.5654541 -0.1857345 0.078101166 -0.60420483 0.7101396 0.030285202 -0.13305384 -0.5658537 -0.2589147 -0.6157772 0.5304198 0.37950218 0.15302648 -0.6727826 -0.078077324 0.26940387 -0.61788946 0.23521559 -0.2574494 0.17508037 0.8929381 -0.44435555 -0.72455436 0.6514862 -0.15628128 -0.6386088 0.15058644 -0.3456346 0.27824968 -0.05392257 0.08512074 -0.4010539 -0.08712584 -0.24073556 -0.07756159 0.6306311 -0.64362663 -0.1354791 0.39402136 0.40260836 0.021865223 -0.4829278 0.591433 -0.2539241 -0.7044077 0.6474767 -0.2651757 0.18026292 -0.021717409 0.03847184 -0.19520476 0.17644714 -0.8977834 -0.39038506 -0.06393973 0.5153399 -0.7807762 -0.20300676 0.71373457 0.49202773 0.054237664 -0.28952748 -0.40107024 -0.60971457 -0.32936004 -0.32248247 0.35446322 -0.29415125 0.75726384 -0.40631866 -0.6020884 -0.91425604 -0.56419194 -0.600768 -0.60653466 0.62787706 -0.26205662 -0.81048316 -0.30847228 -0.6892593 0.3603533 0.048254352 0.32635775 -0.5587747 -0.12943216 -0.60485035 0.718553 0.38321945 -0.17391118 -0.7587365 0.57421845 0.38897648 0.7966955 0.062538676 -0.55520886 0.059522573 0.3465461 0.42880023 0.06465887 -0.20931411 0.77834874 0.23334916 0.96918184 -0.2645648 -0.12231921 -0.38895142 -0.3543329 0.37423727 0.23317215 0.23545037 -0.71832144 0.8180733 0.3143773 -0.46883997 0.7462265 -0.66217047 0.6103633 0.2354866 0.44505033 0.04135078 0.46057254 0.3917511 -0.7830061 0.43515497 0.07440831 0.8773106 -0.7031354 0.58471286 0.14085563 -0.45397976 -0.26134926 -0.24061053 0.6733434 0.041268315 -0.92453474 -0.5202602 -0.41302934 0.4361304 0.8211503 -0.3674019 0.72389203 -0.37521926 0.47778356 0.54238707 -0.555428 0.50179535 -0.24324138 -0.12323638 -0.28365153 0.16178574 0.5247055 -0.17997132 0.30717766 0.57725114 -0.998395 0.31172347 0.31883356 0.3268339 0.7204068 0.71245533 0.19482642 -0.107438155 0.3822515 0.00018338533 0.7098167 0.2165163 0.4101163 -0.24746361 0.0022888135 -0.45536157 -0.2805736 -0.85176414 -0.4031451 0.22170493 -0.83296824 0.18859226 -0.6565183 0.11756518 -0.62405473 -0.9044257 -0.44426164 -0.4466254 0.65115213 0.3108073 -0.062552765 0.41130126 -0.6853918 -0.27813622 0.6394901 -0.35725945 -0.86341643 0.0048293127 -0.04435329 0.2782085 -0.31645694 -0.0044018477 -0.46072933 -0.043233745 -0.49005428 0.094269074 -0.46964124 0.63999283 -0.46683732 0.71889645 0.3682375 0.87223095 -0.7999326 0.011005806 -0.80656296 -0.90458125 0.65999746 -0.38626993 0.25589457 0.13424669 -0.9215795 0.45255187 0.0651479 0.037121866 0.21140015 0.26404625 0.50406456 0.6118934 -0.6079604 0.45678186 -0.09479191 0.4422363 0.35915276 -0.33046594 -0.41106147 0.8944054 -0.8433267 0.8458117 -0.5497156 -0.6562576 -0.60001796 0.8287923 -0.4058392 0.6703649 -0.43960288 -0.50748086 -0.20693131 -0.77654195 0.63230884 -0.06886989 -0.041822165 -0.08635128 0.49688354 -0.5758652 -0.41676328 0.57178503 0.013526557 0.49726558 0.6168885 0.21603565 0.049327325 -0.049620476 -0.03818584 -0.5087206 0.0062436713 -0.40039915 0.42777932 -0.9120062 0.3292394 -0.7046356 -0.2083291 -0.23011503 0.84041524 -0.23655239 0.88389826 0.0014137344 -0.9054776 0.08868853 -0.34952706 -0.9084067 0.44319758 -0.062866144 -0.89830804 0.9687852 0.05354419 0.4190988 0.172538 -0.31132323 -0.18386127 -0.44079742 -0.58585477 0.6966983 0.40034074 -0.3220098 -0.33490413 -0.06431029 0.5251737 0.63871574 -0.17702042 -0.34593856 0.4411266 -0.50922114 0.53126526 -0.39277074 -0.8687085 0.292767 -0.052463014 -0.17392042 0.49637172 0.034846224 -0.7192926 0.638034 0.2609433 0.4006865 -0.5382608 -0.18793797 -0.37989768 0.29503334 -0.43564662 0.09252171 0.5806606 -0.59838825 0.42257163 -0.637924 0.103702 -0.31970417 -0.08956596 0.3403992 0.4511245 0.5529867 -0.098082915 -0.43613714 0.1679762 -0.73807144 -0.64227605 0.66281295 -0.86741257 -0.87045026 -0.0002145798 0.31084195 -0.8562551 0.46882764 -0.38494527 0.34332636 0.7033097 -0.14466162
0.6381793 -0.6599421 -0.053100545 -0.82177544 -0.4888819 -0.7872029 0.62640035 0.02230789 0.5114776 0.2412115 -0.68496966 0.5054807 -0.34285536 0.85921866 -0.18329377 -0.7361324 0.037514076 0.59847254 0.19109899 0.43245465 -0.8433662 0.26707253 0.07952885 -0.4549421 0.39195102 0.19778587 0.72394174 0.5735489 0.016971204 -0.6153511 -0.53961456 0.44582707 0.276058 0.35512993 -0.7330717 0.11883001 0.21096118 -0.15571074 0.6031376 0.6224907 0.5359457 -0.088032305 0.2895152 0.07139713 -0.31800663 0.08597112 -0.08415513 -0.0070796073 0.535173 0.05226632 0.1772912 -0.044325635 -0.27168372 -0.23422226 -0.12573595 0.037235226 0.385479 -0.0651698 -0.55337334 -0.012038112 -0.08088673 -0.37717777 -0.5992087 -0.42228076 0.83514565 0.033313744 -0.5751779 0.41289803 0.35384756 -0.6563984 -0.09777421 0.4336948 0.29771495 0.11546948 0.11609569 -0.23208384 0.35312685 0.14428668 -0.336479 0.6566794 -0.5010845 -0.50980127 0.74750495 0.50702345 -0.19753811 0.15269138 0.85752624 0.061120607 -0.62360615 0.25467885 0.62198883 0.4754093 0.24189419 0.01725259 -0.17225909 0.36072755 -0.5334303 -0.19729224 0.10360117 0.5140138 -0.6956559 0.1378851 0.6329756 -0.5971677 -0.1375057 -0.78284436 -0.15480609 -0.89717054 -0.35628667 0.4410043 0.048820965 0.0016346425 0.85803986 -0.4837122 -0.86920905 -0.8191932 -0.08757355 -0.40628237 -0.031907834 0.5071095 -0.11075223 -0.65287197 -0.5858584 -0.28100148 0.20358273 0.1161152 0.24092616 -0.61897343 -0.35995176 -0.41932812 0.5337815 -0.11631404 -0.020550027 -0.7725106 -0.44335634 0.01410309 0.5845825 -0.08441457 -0.6847116 0.30070946 -0.020775763 0.11769178 0.40306893 -0.49647865 0.59880143 0.1696328 0.71410215 0.14025936 0.38787606 -0.6510067 -0.47603682 0.7957106 0.08306349 -0.17591299 -0.31059092 0.5187048 -0.18521474 -0.2194828 0.39958656 0.05353342 0.60241187 -0.2974728 0.6828773 -0.21379998 0.38152078 0.25312456 -0.7430151 0.17838411 -0.0469017 0.11972484 -0.26611167 0.6567012 0.67554915 -0.4157868 -0.6130622 -0.36572102 0.18330967 -0.10142101 0.0042753625 -0.39453697 -0.5335562 0.21744174 0.10781644 -0.49708614 0.41787547 -0.5561403 0.23747033 0.35214594 -0.017828207 -0.32178572 -0.055152453 -0.12716773 0.19461693 -0.04859676 0.24265705 -0.055604376 0.30498472 0.32811412 -0.9488262 0.1542492 0.71763176 0.40915442 0.011689078 0.2770177 0.7294694 0.085752964 0.85778785 -0.35410863 0.43746912 0.41358107 -0.2734541 -0.06712389 -0.14821385 -0.46928358 -0.53134334 -0.1829786 0.12826934 0.70634574 -0.6512131 -0.1746341 -0.7283767 0.60631055 -0.4356881 -0.78703535 0.11923211 0.10824768 0.5174431 -0.13512231 -0.14731127 0.24240564 -0.42840242 0.18691404 0.72738427 -0.7180774 -0.7752042 -0.16926329 0.58680373 0.12449577 -0.059697088 -0.25889724 -0.4633072 0.17369294 -0.57988846 0.30803946 -0.17433195 0.7992463 -0.049950648 0.46675333 0.038387865 0.7685357 -0.6535238 -0.45204318 -0.88602614 -0.9610238 0.75262064 -0.12904057 0.032295886 0.8058889 -0.91859645 0.27026653 -0.1722398 -0.022825401 0.6411816 0.22273912 0.5293937 0.5577115 -0.31970122 -0.031772275 -0.39528188 -0.15449983 0.018856501 -0.02751719 0.543087 0.896543 -0.6396476 0.9313995 -0.05950833 -0.5803573 -0.9075415 0.6914939 -0.7766851 0.63736075 -0.019095607 -0.036299996 0.00796273 -0.8852027 0.51131666 -0.17305556 -0.24166843 0.2121838 0.9222731 -0.5087533 -0.65307516 -0.12446259 0.3565772 0.13767037 0.67768633 0.49387297 -0.39972705 -0.16422088 0.14350556 0.11541843 -0.47649083 -0.6083633 0.6059084 -0.9968004 0.4974261 -0.7929106 -0.47406548 -0.23164389 0.8020852 -0.09530308 0.8307041 0.26697174 -0.41260442 0.3014355 0.11278163 -0.589896 0.45590237 -0.6091589 -0.62961215 0.75392365 0.025641365 0.6869216 -0.7158234 0.5200603 0.11992492 -0.026299518 -0.08901293 0.88499033 0.6289392 -0.057759922 -0.6433637 -0.07135988 -0.022165934 0.6404913 0.23503031 0.28847364 0.10814388 -0.480358 0.5130875 -0.34551764 -0.65720254 0.31628618 -0.05271817 -0.65875417 0.06389977 0.704194 -0.90062636 0.7879681 0.6132546 0.38525072 0.07585843 0.5417056 -0.33968586 0.45126554 -0.564649 -0.44914258 0.7422949 -0.5714144 0.49493903 0.029742515 0.35468677 -0.39194205 0.618616 -0.34816033 -0.42716816 0.120508835 0.00862064 -0.23815623 -0.3801529 -0.46497792 -0.36209396 0.034416415 -0.7317145 -0.56698924 -0.49657106 -0.14175738 -0.81715304 -0.024144813 0.30903614 0.43179387 0.43664876 -0.036334455
0.99850035 -0.4861246 0.19434342 -0.9398611 0.3760695 -0.9351007 0.33832026 0.19498096 0.11662697 0.39799604 -0.6155314 0.7287829 -0.83456194 0.0010144478 -0.2606626 -0.5956177 -0.20719995 -0.4008318 0.6508418 0.24103028 -0.91152084 0.678045 -0.3486899 0.46586162 -0.25467685 0.419236 0.52862215 0.5386985 -0.22979246 -0.8280317 0.227752 0.24209808 0.23486362 0.14382365 -0.8434634 0.86149275 -0.32378015 -0.03688979 0.54798365 -0.21460661 0.76234955 -0.4102697 0.6159113 -0.67586917 -0.7156782 0.5229728 0.40319282 -0.44057155 0.32304496 -0.115195096 0.0023857127 -0.34221268 -0.1980103 -0.55434585 0.65175223 0.5786148 -0.3936113 -0.7271571 0.24194238 0.52375036 -0.09194478 -0.170116 -0.06444878 -0.37212715 0.89873254 -0.0776064 -0.67368853 0.55942094 0.054514877 -0.29585996 0.31854638 0.02347768 -0.041912377 0.78031003 -0.48026827 -0.6104955 0.21196039 0.08700588 -0.057618465 0.81437606 -0.36482033 -0.7408724 0.24518839 -0.18466587 -0.59319454 -0.22327842 0.7996683 -0.2378127 -0.6371009 0.7921238 0.03759557 0.81961775 -0.4644249 0.4542319 -0.2648659 0.35626498 -0.89742786 -0.099066384 -0.5251581 0.5000762 -0.7094763 -0.4745002 0.47394034 0.259629 -0.45207545 -0.48967072 -0.3816202 -0.916359 -0.77590024 0.22694716 -0.0029829158 -0.5780055 0.8206456 -0.7536859 -0.4228061 -0.8364516 -0.5298166 -0.33259338 -0.39805925 0.32491973 -0.33013687 -0.7174888 -0.1905356 -0.46213782 0.29680625 -0.5158024 -0.4461477 -0.5258419 -0.763778 -0.55885464 0.707284 0.584224 0.092133954 -0.63579947 0.15773864 -0.21426359 0.76080716 -0.098433964 -0.17513917 0.39225602 0.62115043 -0.060237743 0.14599898 -0.73777246 0.73628354 0.13054095 0.82393503 0.037339326 0.27155665 -0.5080804 -0.51786685 0.6662562 -0.09359855 -0.064923376 -0.8313665 0.7841432 0.49201295 -0.21554531 0.80596685 -0.7649077 0.56554353 0.24362029 -0.051462814 -0.20012175 0.08679209 -0.11434146 -0.97252023 0.8382791 -0.27559766 0.8102826 -0.6398182 0.05710856 0.29459697 0.23026885 0.12619753 -0.2655403 0.048209675 -0.4896404 -0.45222145 -0.67671996 -0.41626373 0.02199864 0.8373941 0.03191164 0.8223427 -0.7241383 0.14204848 0.5399364 -0.7368897 0.72374356 0.37678683 0.13312314 0.03800024 -0.060999606 0.586838 -0.2827526 0.6676008 -0.07366149 -0.998168 0.3669191 0.5302521 0.4391129 0.7926775 0.68400115 -0.21132964 -0.3637972 0.83605933 -0.1552851 0.46614394 0.5288298 0.5007425 -0.39154202 -0.15239419 -0.5745824 -0.41661328 -0.7433616 -0.06984784 0.717065 -0.84287214 0.31039065 -0.83086807 0.62431073 -0.027110875 -0.7649721 -0.6329182 -0.3009322 0.18393771 0.3798787 -0.53194916 0.1657301 -0.5837027 0.20549592 0.42450553 -0.8082542 -0.732335 -0.41244143 0.034318745 0.20330207 -0.02408746 0.5161857 -0.53492594 0.40771303 0.16394211 0.10798089 -0.45454156 0.7094513 -0.50428134 0.7334209 0.5036517 0.66703004 -0.89773244 0.28549635 -0.7788282 -0.76615196 0.7754951 -0.35029888 0.37975556 0.67058563 -0.88174623 0.2932229 0.05151521 -0.48908392 0.6910402 0.23441626 0.3843408 0.39189532 -0.68613493 0.63670284 0.4473975 0.5458541 0.0256776 -0.30943573 -0.53622824 0.86562115 -0.95411295 0.9119465 -0.7174485 -0.5420541 -0.5905176 0.75900394 0.1416097 0.7269617 0.03823509 0.09086149 0.3210402 -0.9076177 0.57394284 -0.080869555 -0.2722956 -0.48086604 0.53089076 -0.44385046 -0.08435331 0.4568481 -0.111456536 0.6002556 0.7279959 0.66274095 -0.34899992 0.41674006 -0.41863707 -0.22292006 -0.8219924 -0.7758031 0.414513 -0.97231036 0.5476815 -0.65272504 -0.3462033 -0.43711376 0.86482817 -0.6217171 0.8548197 0.31164503 -0.9370225 0.19608279 0.29100263 -0.8530752 0.43501183 -0.85238665 -0.8338164 0.84812737 0.109755434 0.73080325 0.061359495 0.16467884 -0.25713173 -0.23332594 -0.7204117 0.757528 0.09940741 -0.03661468 0.021343391 -0.47568402 0.24407567 0.70234495 -0.4255505 -0.31283113 0.05952868 -0.88766813 0.16645285 0.06359674 -0.73363686 0.8527902 0.1361898 -0.7743639 0.14012526 -0.07210644 -0.9120873 0.54860693 -0.16773754 0.04381627 -0.26517302 0.5508671 -0.4963248 0.02721291 -0.28547853 -0.7990065 0.7007404 -0.6267443 0.72632957 -0.6044538 -0.16866544 0.34956774 -0.3015537 0.3566148 0.21420357 -0.3674694 0.5478591 -0.6576161 -0.10527112 -0.80051786 -0.5857873 0.5320714 -0.84242576 -0.9413963 0.51114964 0.46666366 -0.8556523 0.2899443 -0.24480453 0.25665674 0.51245356 0.13566141
0.64747965 -0.62683135 -0.17011337 -0.99499875 -0.27120435 -0.9787352 0.010086836 0.0075214133 0.017694464 0.66881835 -0.36712176 0.10891536 -0.3718664 -0.123992786 -0.018596396 -0.056322765 -0.14856197 0.28897747 0.5310253 0.27806345 -0.40748155 0.36379212 0.45785078 0.10898048 0.5068896 0.62185955 0.5936916 0.09243653 -0.07536617 -0.34925953 -0.68247896 -0.3099595 0.5177985 -0.2522013 -0.8758713 0.40570974 0.42115474 -0.016716184 0.32794148 -0.14062102 0.8591383 -0.5576399 0.40257934 -0.024815883 0.079820864 -0.13319442 -0.06096224 -0.031959258 0.2629292 -0.13125437 -0.12076135 0.10328552 -0.23380509 -0.60651886 0.7071727 -0.13133284 0.39303458 -0.86045176 -0.009488919 0.41640943 -0.49408495 -0.03426075 -0.07520171 -0.0010557715 0.6951206 -0.08338246 -0.122972265 0.04226132 0.38382858 -0.38211408 0.018981343 0.09084386 -0.014526941 0.25567612 0.3363793 -0.29871944 0.0067239013 -0.16349883 -0.1811258 0.5668223 -0.49063057 -0.60449314 0.44490585 0.5254285 0.08323017 -0.59373546 0.49557978 0.19302799 -0.7792205 0.1943328 -0.37751162 -0.03863877 -0.06574145 -0.5122916 0.00017217919 0.49203953 -0.5318651 0.0064050043 0.14851367 0.6082695 -0.3875794 -0.09660574 0.017760782 0.25071654 0.33755875 -0.402523 -0.20712262 -0.621061 -0.39698905 0.08981679 0.12425285 -0.31344765 0.61727047 -0.07723998 -0.7429027 -0.7602828 -0.23117088 -0.6447304 -0.58189756 0.550705 -0.31895852 -0.45076954 -0.66349983 0.03755134 0.0347834 -0.22434057 -0.09461192 -0.539032 -0.13832125 -0.66520715 -0.027092535 -0.4670822 0.405441 -0.50827825 0.10001156 0.068752505 0.46229568 0.2365938 -0.28622457 -0.6956033 0.18042704 0.032485668 0.2966654 -0.5091998 0.39591107 0.28932688 0.9704914 0.15150602 -0.4357736 -0.31077647 -0.4935135 0.582907 -0.098892786 0.3672878 -0.3899033 0.7732129 -0.068966344 -0.3531702 0.4743599 -0.38955405 0.34887955 -0.20882441 0.14338423 -0.31859657 0.22440842 -0.043834724 -0.251816 0.5625018 -0.02429058 -0.036879804 -0.78366023 0.4027281 0.05574909 -0.15620226 -0.124044955 -0.28821343 0.5731751 0.2914656 -0.5212477 0.04600555 -0.3898107 0.63551295 0.88331884 -0.4349228 0.64477277 -0.08328963 0.22084989 0.7582296 -0.22810231 0.12368343 0.15782751 -0.35940525 -0.04076555 0.019111276 0.11633718 -0.29556933 0.5245393 0.2384785 -0.99616784 0.15412098 0.118777744 0.10867061 0.60643595 0.49182153 0.37516785 0.078849606 0.65879804 -0.6841186 0.533257 0.27285638 -0.055428226 -0.06867875 0.19804604 -0.16182162 -0.591702 -0.44745463 -0.31141093 -0.22066998 -0.6464685 -0.47021475 -0.44050097 0.4536787 -0.44339612 -0.44274965 -0.2861404 0.16621548 0.7237691 -0.14440216 0.14602432 0.4777268 -0.4478812 -0.54409206 0.6848815 -0.38015762 -0.7951719 0.1568733 0.0034848014 0.35011667 -0.29528278 -0.2808089 0.002234173 -0.01928687 -0.49320555 0.34358674 -0.5020891 0.20815964 -0.41685447 0.5276402 0.060350865 0.62706715 -0.5318886 -0.4649991 -0.696085 -0.85285926 0.3976292 -0.13007988 -0.056517065 -0.21690372 -0.9868973 0.76921713 0.030934976 -0.12954514 0.5159598 -0.0026615905 0.32120344 0.66810447 -0.035012748 0.54538304 -0.33878228 -0.08238275 0.22587441 0.24422687 -0.07073074 0.7529654 -0.6441294 0.87984306 -0.27739045 -0.28131652 -0.6645451 0.6419106 -0.20213695 0.5070556 -0.2796197 -0.1662319 -0.35453543 -0.70354193 0.4602129 0.22218755 -0.4839216 -0.054075126 0.89659554 -0.20247866 -0.4717241 0.46916616 0.18098168 0.541383 0.63543797 0.3736602 0.33458817 -0.2849331 0.21782368 0.00057306513 -0.28093746 -0.3364461 0.37374938 -0.68499976 -0.11113858 -0.83139175 -0.56887925 -0.37049335 0.6020604 0.036261383 0.80240965 -0.24561886 -0.6430691 0.0132693695 -0.036825046 -0.5991141 0.3055169 -0.53551143 -0.73565966 0.92833954 -0.038844116 0.3459944 0.36207384 -0.17267105 0.048309073 -0.7815623 -0.75410545 0.38977304 0.18055725 -0.4132995 -0.20873722 0.015656814 0.47193977 0.7757323 -0.11328542 -0.28997886 0.3421223 -0.4449141 0.4900122 -0.4130276 -0.80050147 0.22782055 -0.2845683 -0.16765459 0.28616822 0.46066344 -0.6162641 0.54584587 -0.15178566 0.6377559 0.017591551 0.5182118 -0.3488466 -0.008299658 -0.41707182 0.08413181 0.11409554 -0.6450025 0.012665604 -0.12570792 0.1182886 -0.39211273 0.7830281 0.18985644 0.32157367 0.76478004 0.20870861 -0.56415415 0.27190223 -0.60929364 -0.56982213 0.31426388 -0.66534907 -0.42987823 -0.20115514 0.24440889 -0.43203974 -0.0641634 -0.05548135 0.29547474 0.3490575 -0.026762586
0.48262542 -0.6489471 -0.3019893 -0.9637143 -0.71855026 -0.92727953 0.016563045 -0.08287348 0.57465 0.71024275 -0.59055567 0.121479005 -0.21312246 0.6337482 -0.29331893 0.39061403 0.34070015 0.1869004 0.5255657 0.082574606 -0.6854539 0.63808566 -0.47387707 0.046100013 0.06077687 0.8121501 0.8348011 0.14871639 -0.2846317 -0.93531054 -0.48477542 0.5868473 -0.10079022 0.17384107 -0.8746138 0.86015165 -0.3111239 -0.010088072 0.39175263 0.016707037 0.72371197 -0.10827561 0.83808994 -0.4618987 -0.59332967 0.13955209 0.12181002 -0.6522949 0.6006078 -0.5703701 -0.46296582 -0.6995257 -0.74429005 -0.06212996 0.5744162 0.84251904 0.7046099 -0.6830607 -0.74182206 -0.38792393 -0.8079126 0.34709588 0.04877236 0.24869607 0.9393806 -0.6874309 -0.88875395 0.74816006 -0.38632965 -0.73627645 -0.16799639 0.017354796 0.454116 0.28188464 -0.29726458 -0.44653645 0.11032043 0.07064804 -0.44825256 0.9383553 -0.46861085 -0.512765 0.84673804 -0.21337272 -0.19360305 -0.5568709 0.86884624 0.6868167 -0.8818278 0.6644307 0.020768972 0.7708758 0.6274057 0.23012474 -0.06897717 -0.17370641 -0.48999205 0.09826062 -0.65562844 0.4492142 -0.6310536 0.338865 0.4250658 0.48409453 0.08999236 -0.65413386 -0.34999523 -0.8969604 0.07862251 0.7209924 0.8033565 -0.3786677 0.972213 -0.44673875 -0.9688237 -0.8562738 -0.4163979 -0.4555506 -0.12180192 0.690908 -0.4251634 -0.6368487 -0.90626436 -0.3798207 -0.26065904 -0.00884318 0.28785086 -0.7811286 0.35608843 -0.76879084 0.6217159 0.43871745 0.2468406 -0.1897893 -0.36251274 -0.16115288 0.79656726 0.07734207 -0.5987513 -0.027657397 0.55931336 0.913779 -0.06594948 -0.38407156 0.40257913 -0.013635094 0.9516687 0.044052616 0.42752987 -0.7554088 0.43366295 0.42452404 0.051283184 0.45659336 -0.47683907 0.16033101 0.019106079 -0.45299858 0.83905923 -0.6865962 0.6959873 0.48382044 0.40884525 -0.16757293 0.57834285 0.23669055 -0.88154095 0.63720584 -0.24113849 0.76357037 -0.7745932 0.13025604 0.7309077 0.039135527 -0.24322164 -0.7205009 0.386427 0.17426994 -0.79408866 -0.55790734 0.22577417 0.46118608 0.28356862 -0.26298806 0.5561872 -0.7289845 0.13805898 0.15271813 -0.68945193 0.27584013 -0.10121501 -0.30206445 0.6246955 0.4125868 0.4209971 -0.1177981 0.75254035 0.1630253 -0.99861383 -0.19654185 0.53358084 -0.054536957 0.70405304 0.50994295 0.7517935 -0.25465927 0.6421904 -0.095591165 0.68540823 0.27344593 0.34426332 -0.003025399 -0.011342911 -0.4252262 -0.5196814 -0.7117433 -0.19934958 0.3026609 -0.8218643 -0.46172684 -0.72003496 0.7315264 -0.014983603 -0.75844395 -0.04406076 -0.52571696 0.59721476 -0.20093167 0.019694863 0.41535962 -0.46755493 -0.5536079 -0.054424204 -0.51738524 -0.62462324 0.57041717 0.44391388 0.5572772 -0.49473828 0.40678442 -0.28547812 -0.058083877 -0.4686736 0.16003996 -0.76227295 0.76526 -0.15037131 -0.2117442 0.23706381 0.6689404 -0.20791377 0.34483272 -0.7935359 -0.66874504 0.89694965 0.6097501 -0.05433556 0.53147256 -0.92323595 0.12854576 -0.43457642 0.45176575 -0.007913053 0.734749 0.6885597 0.8734089 -0.2958311 0.43818447 0.45793155 0.9149048 0.86999255 0.3247107 -0.1662971 0.8089158 -0.53163 0.92997897 -0.6278144 -0.7334176 -0.78581476 0.6551529 -0.54027545 0.6521307 0.12510166 0.17675044 0.23377241 -0.8911734 0.046734553 0.65348846 0.49288037 0.42162207 -0.08869016 -0.06827628 -0.040867887 0.6385345 0.11434687 -0.3136009 0.5781804 0.47478232 -0.40482438 -0.39379215 -0.50657535 0.4268904 0.2810875 -0.8423617 0.76522017 -0.9409164 0.6625107 -0.56521624 -0.5600131 -0.54935807 0.8928257 0.29872933 0.80991703 0.3531106 -0.7909619 -0.4604946 -0.30447546 -0.9461781 -0.26628774 -0.7294999 -0.92301196 0.8073096 -0.3773044 0.79178953 0.25949904 0.45801672 0.5669929 -0.69228905 -0.7785454 0.6316556 0.32039452 -0.03776108 -0.14458026 0.33281082 0.36401105 0.91071117 -0.20871758 0.6344316 0.6110106 -0.52737874 0.17541473 -0.083085105 -0.8268393 0.46038646 -0.04388573 -0.036788378 0.32344332 -0.2440488 -0.95016485 0.80616057 0.19998814 0.121188916 0.0657191 0.35899255 -0.46026504 0.32739794 -0.70138425 -0.18636587 0.17058043 -0.6558248 0.73292315 -0.27270493 -0.089995086 -0.14494725 0.37044874 0.2208397 -0.44146016 0.28628576 0.4938469 -0.85358936 -0.42875236 -0.672632 -0.7613054 0.4828317 -0.51403195 -0.918033 -0.33600625 0.43906242 -0.6695052 0.43147245 -0.2329981 0.14535181 0.64132667 -0.28751767
0.5369575 -0.6034583 -0.1263366 -0.9664464 -0.77065676 -0.93455195 0.44518858 -0.26233268 0.2573741 0.4124346 -0.6392255 0.26986176 -0.00031176582 0.68608147 0.074706204 -0.3041797 0.05493223 0.41771087 0.19418952 -0.14110768 -0.76063675 0.6886353 -0.28666455 -0.34059322 -0.44025427 0.81402844 0.5018552 0.40245187 -0.09607123 -0.7831158 -0.30831987 -0.023791928 0.36103433 0.10576573 -0.89484876 0.643798 0.086439274 0.018365374 0.32870886 0.107434675 0.55910426 0.26258987 0.8812574 -0.1578035 -0.12931952 -0.2633377 0.61954737 -0.34175268 0.19342707 0.062795535 -0.3556449 -0.09044464 -0.51492536 -0.14937302 0.5613212 0.72755545 0.15881485 -0.7408839 -0.5596576 0.043667756 -0.53327 -0.04976776 -0.41767517 -0.04383651 0.94522464 -0.24717143 -0.8801333 0.29908782 -0.16112213 -0.805034 0.36052856 -0.29705253 0.4788358 -0.015000895 0.038294688 0.018813284 -0.20467608 -0.21622926 -0.4992362 0.8363793 -0.46976823 -0.7596086 0.9104995 0.073266014 -0.63036126 -0.15739971 0.5375088 0.63080376 -0.14864194 0.15384275 -0.18875413 0.8104473 0.10316171 0.11571889 0.30807945 -0.32171178 -0.7997065 0.10540441 -0.4205502 0.6620176 -0.47085315 0.07098226 0.4271745 0.45612627 -0.39389336 -0.7149588 -0.563564 -0.89652425 -0.5686909 0.49420655 0.7392565 -0.53452116 0.8666392 -0.61117196 -0.790037 -0.7045578 -0.36233914 -0.64000154 -0.21330425 0.5379836 0.12431149 -0.28442577 -0.7975917 -0.027250823 -0.10818549 -0.014224014 0.34714547 -0.6933761 -0.014461554 -0.65809524 0.47622195 0.45539546 -0.08969039 -0.0976342 0.09319668 0.0041145296 0.33584234 -0.23839019 -0.63887423 -0.030422086 0.13282035 0.7708494 0.0018154588 -0.5707591 0.2795016 0.24285632 0.9534505 0.15332836 0.3398157 -0.72025293 0.2066967 0.21436533 0.35105187 0.21731731 -0.65179783 -0.026048157 0.4976473 -0.53120583 0.5961312 -0.8122404 0.16024208 0.07312166 0.10277693 -0.2168332 0.80747056 0.27023166 -0.98656607 0.5807319 0.111540906 0.5056014 -0.5215498 0.55422944 0.62325275 -0.36434764 -0.21171933 -0.83814764 0.78378105 -0.028185591 -0.81221145 -0.3451073 -0.2272632 0.10437803 0.32310915 -0.4373964 0.8426031 -0.62858427 0.36207053 0.57878894 -0.31761712 0.14192002 0.1341447 0.2525482 0.5153227 0.29152715 0.7554264 -0.5008684 0.4103843 0.5717636 -0.9488956 -0.122214116 0.26972565 0.2372131 0.7376238 0.46690223 0.36974853 0.10496887 0.45470384 0.2694968 0.5095345 0.4442808 0.03427618 0.104237884 0.32902032 -0.35482487 -0.71739066 0.059792664 -0.23196366 -0.068491414 -0.63350105 0.16690686 -0.79757404 0.5878804 -0.15762125 -0.618795 0.41202286 -0.24195297 0.3358008 -0.20425385 -0.3169424 0.22632353 -0.1750033 -0.1502879 0.30746973 -0.41111967 -0.8215775 -0.3595273 0.77446836 0.0572954 -0.6422343 0.12801646 -0.10732515 0.0072676623 -0.6371068 0.20289476 -0.28801027 0.86046344 -0.25526205 -0.16450721 0.07100128 0.8278944 -0.60524493 0.5249086 -0.80387384 -0.846954 0.8879996 -0.102100335 0.26969376 0.6685945 -0.9310004 0.25422555 -0.15047595 0.2594458 -0.104409166 0.5683345 0.5156786 0.8807934 0.46759373 0.43622684 0.18629989 0.30186427 0.04334297 -0.27759182 -0.23214905 0.55000573 -0.8662792 0.89521486 -0.24532706 -0.7576056 -0.6798318 0.91246843 -0.6051632 0.3018375 0.6823074 -0.40441886 0.41569796 -0.84419376 0.0008490407 0.5915419 0.44142428 0.23711285 0.5265491 -0.38561115 -0.35771987 0.2647234 0.3737478 0.188489 -0.01937553 0.65076274 -0.24819122 -0.4812011 -0.4865241 0.49547037 -0.09712534 -0.93974936 0.16086733 -0.9584323 0.26591176 -0.5677867 0.06747679 -0.67737204 0.7661685 -0.21882847 0.820992 0.21688941 -0.7005707 -0.27939665 -0.31603098 -0.92831707 0.018882489 -0.6072964 -0.8099795 0.9372635 0.08791064 0.5103951 -0.21831101 0.1627558 0.36085552 -0.6073015 -0.23219573 0.6439909 -0.06539522 0.056241486 -0.36448935 -0.23365673 0.5917289 0.7459428 -0.4213234 0.18663518 -0.17661214 -0.3343217 -0.07971232 0.026255758 -0.82147455 -0.03499318 0.14353178 0.119262315 -0.15959872 -0.20336339 -0.9383345 0.76846594 -0.061796207 0.57304156 -0.31822425 0.3919008 -0.44347098 0.19000137 -0.70624554 -0.20388213 0.14502253 -0.5196045 0.6935118 0.13851054 -0.0364526 0.039331336 0.14776541 0.39544353 -0.5594666 0.12979674 0.6344156 -0.8204329 0.118277214 -0.69277847 -0.83804774 0.35843104 -0.34228 -0.89016885 -0.32987425 0.09028693 -0.67428267 0.71620727 -0.3094252 -0.27884427 0.41493782 0.07708903
0.7807556 -0.073586844 -0.55292547 -0.9928619 -0.26511738 -0.9887016 -0.14054857 0.5581396 0.5309315 0.23575197 -0.44201523 0.058628574 -0.33929265 -0.0058724033 0.3687536 -0.1822728 0.035003737 0.67177933 0.89087117 0.72240454 -0.56665426 0.42509416 -0.27909347 -0.39484772 0.08860366 0.8275533 0.4149944 0.58598894 -0.09487873 -0.69002146 0.09197265 0.7557294 0.21539314 0.25095558 -0.77043635 0.8521939 -0.1544499 0.62528217 0.6575149 0.20789905 0.76529056 -0.31946933 0.9571321 -0.18152049 -0.44966227 -0.30507505 0.0130457375 -0.50242686 0.05582897 0.08943473 -0.47888586 0.07091472 -0.057865947 -0.4450444 0.40784672 0.09135482 0.586705 -0.09992078 -0.41076022 -0.13856378 -0.7988317 0.55049205 -0.74095744 -0.21710525 0.79593146 -0.12941587 -0.86316013 0.14711106 0.284685 -0.7864752 -0.2589842 0.14969045 0.3959078 0.6919393 -0.32598612 -0.5141281 -0.39243233 -0.048830144 -0.4422071 0.83429265 -0.2601519 -0.2911133 0.7622985 -0.1303581 -0.54693156 0.2999238 0.34019464 0.6749235 -0.30373028 0.5272658 0.19804433 0.688411 0.65485275 -0.24634649 0.65332544 -0.21595599 -0.9513502 -0.38558605 -0.58738464 0.05808577 -0.6937412 0.17508747 0.7139901 0.08644276 0.18749963 -0.712185 -0.6044139 -0.91768086 -0.5131422 0.4373063 0.5747438 -0.5457836 0.53865325 -0.6041551 -0.6239025 -0.021420892 -0.4660604 -0.7087521 0.1878117 0.6697175 0.084205866 0.41267624 -0.83292115 0.22339144 0.3619873 -0.36415657 -0.294935 -0.5532057 0.58361846 0.1070377 0.56596893 0.031000473 0.050510116 -0.59714705 -0.4543865 -0.10543758 0.36744 -0.8055917 -0.22921033 -0.305465 0.36584866 0.80858177 0.77648443 -0.6422263 -0.13799523 -0.52649647 0.9446268 0.56928146 0.18906464 -0.8258713 0.2036931 0.31065315 0.26499987 -0.46292317 -0.0328377 0.39039898 0.2909736 -0.38488498 0.7107588 0.28260672 -0.015978783 -0.4065104 0.39605334 0.43778354 0.563806 0.2854454 -0.80819494 0.4069974 0.31241202 0.48322108 -0.29007378 0.6910929 0.60644805 -0.5294123 -0.24499117 -0.6508661 0.699356 -0.298374 -0.5957546 -0.70784944 0.14707339 0.12636027 0.3801246 -0.3869883 0.7535226 -0.016235946 0.6617411 -0.1872675 -0.04155914 -0.37880304 -0.2915867 0.055140853 0.39364234 -0.3486272 -0.067520104 0.041272953 0.93534917 0.82975835 -0.98747134 -0.10414271 0.3067946 0.014101564 0.3965041 0.25946903 0.8354619 -0.02333653 0.37385136 0.06502172 0.43196958 0.5032733 -0.44088814 -0.35409623 -0.3957034 -0.6370609 -0.6532708 0.3342873 0.22505493 0.4549818 -0.45115662 0.16354738 -0.5976376 0.31636158 -0.68905556 -0.25676072 0.47082165 0.45313838 0.8027819 0.050307576 0.020892682 0.23199715 -0.35993657 -0.028947352 0.2959235 -0.5368301 -0.20723034 0.3301279 0.298445 -0.18027173 -0.5525358 0.48062158 0.11938697 0.31314713 -0.25607938 0.12247419 -0.31861627 0.26234907 0.03472377 -0.2791278 0.07645507 0.5895907 -0.80740565 0.31377262 -0.6507477 -0.9005634 0.69890726 -0.42021886 -0.5495953 0.3289365 -0.86402535 -0.04713414 0.16446514 -0.20899571 0.83745766 0.06612944 0.73009306 0.8911878 -0.055798907 0.37702957 0.3101001 0.20626529 0.57481337 0.29498777 -0.003949819 0.884961 -0.7362044 0.92934513 -0.1283817 -0.8750493 -0.6153719 0.34381226 -0.7814055 -0.15231042 0.43917605 -0.17263411 0.42904767 -0.88373727 0.26146528 0.58727396 0.7075734 -0.027221449 0.901267 -0.20161276 -0.6995515 0.3727217 0.3480343 0.6415565 0.5372724 0.4918665 -0.47720376 -0.09371365 0.051083185 -0.37167513 0.38972908 -0.7188778 0.24282928 -0.9899303 0.09759333 -0.6657271 -0.5415317 0.006982435 0.75249743 -0.15398489 0.7064675 0.53231233 0.09516858 0.19377585 0.13775422 -0.75329554 0.6805662 0.24636018 -0.9806476 0.8762211 -0.58415484 0.70459145 0.36179423 0.59505135 0.54354537 -0.1991817 -0.3341387 0.75645804 -0.1842718 0.37580976 -0.17480941 0.5889053 0.3131211 0.8845342 0.38952363 0.23712428 0.5682937 -0.3576901 -0.07786128 -0.23874812 -0.898994 0.74519247 0.04564221 -0.5090959 -0.0018534506 0.040795602 -0.7129543 0.60481524 0.16316044 0.4644821 0.40418893 0.80794084 -0.47976613 -0.1711607 0.19018929 -0.06179751 0.8893759 -0.21545206 0.40517455 0.45491326 0.27417555 0.33117932 0.45730785 0.212009 0.44606715 0.67624426 0.525744 -0.40983257 -0.21175657 -0.7422437 -0.78877133 0.27606276 -0.33094442 -0.8589245 -0.001142353 0.44302726 -0.80467874 0.022978421 -0.66239977 -0.032754384 -0.24507107 -0.37952727
0.7751178 -0.06899634 -0.54220974 -0.9928357 -0.26203287 -0.9899383 -0.15550031 0.55477786 0.53202266 0.2309415 -0.43047085 0.07112963 -0.33242688 -0.0156206675 0.3745909 -0.17687905 0.025399918 0.67060155 0.91084826 0.7203623 -0.5544508 0.42257398 -0.26661533 -0.389953 0.105278514 0.82556915 0.4136787 0.5834977 -0.10831509 -0.6798478 0.0960431 0.7775905 0.21136539 0.2599323 -0.76979136 0.84776145 -0.16328973 0.6456292 0.6499195 0.20851633 0.76468205 -0.31659722 0.9569181 -0.16873531 -0.43489787 -0.2987577 0.013227487 -0.50866085 0.03866518 0.07244355 -0.49104777 0.08631896 -0.052125677 -0.44133443 0.4061727 0.086058885 0.5829255 -0.10698504 -0.4084735 -0.15416919 -0.797708 0.55202967 -0.7442326 -0.21560685 0.7952235 -0.124954484 -0.8513622 0.13781479 0.2934521 -0.78575855 -0.26121464 0.13470921 0.3923417 0.6893591 -0.34208405 -0.513225 -0.39000526 -0.052253734 -0.44028348 0.83342755 -0.2646288 -0.3007449 0.7609709 -0.12817796 -0.54037756 0.3004599 0.3411335 0.6688363 -0.32166135 0.52483416 0.21183015 0.6912569 0.6566697 -0.23464948 0.6461869 -0.20178378 -0.96445286 -0.39188594 -0.5886913 0.063387044 -0.69181335 0.16061296 0.71250707 0.08003742 0.18331698 -0.71053046 -0.60251063 -0.9085045 -0.527178 0.42490354 0.5708355 -0.5432785 0.53658 -0.6087867 -0.62427825 -0.016112104 -0.45739663 -0.7063567 0.18701066 0.668401 0.09151582 0.3999174 -0.83066136 0.22856458 0.3777872 -0.3709967 -0.29228452 -0.55095583 0.5823171 0.11272505 0.5624211 0.044250946 0.056012064 -0.59726894 -0.44282353 -0.10704597 0.3615187 -0.8050011 -0.23863979 -0.31121856 0.35491216 0.8076587 0.7705774 -0.6405189 -0.13298936 -0.51953936 0.9448328 0.57806766 0.1894307 -0.82566035 0.19656464 0.31462446 0.2608726 -0.46067065 -0.028592782 0.39447522 0.28161964 -0.38334703 0.7055816 0.29369813 -0.013718925 -0.42327583 0.39164472 0.4289024 0.5624424 0.28511143 -0.8066544 0.40493685 0.33102596 0.50080323 -0.29111794 0.6896563 0.6024891 -0.516678 -0.24104625 -0.651232 0.7080444 -0.29812497 -0.5934514 -0.7251407 0.13948014 0.12002578 0.37700734 -0.39457828 0.7507984 -0.027624138 0.6587133 -0.19298412 -0.028890552 -0.36872232 -0.28890806 0.04010756 0.3860584 -0.3632228 -0.060481615 0.028904777 0.93614215 0.82902306 -0.9875011 -0.096815474 0.31478262 0.0056455955 0.39416933 0.25766635 0.8331135 -0.009763357 0.36306542 0.079323575 0.4294597 0.5067553 -0.4540587 -0.3707031 -0.39709705 -0.62752014 -0.65170276 0.34094885 0.23958962 0.44212133 -0.4485237 0.17384727 -0.5957949 0.3138173 -0.69214505 -0.2640745 0.47570562 0.4699827 0.8016426 0.052299898 0.009791402 0.24926609 -0.34442863 -0.031401098 0.29183483 -0.5412496 -0.20310399 0.3370746 0.28473777 -0.16594696 -0.551203 0.48706084 0.11482588 0.31024456 -0.2415183 0.12443804 -0.3048363 0.24999155 0.03377088 -0.27310207 0.07437869 0.5874601 -0.8062194 0.3204978 -0.64592123 -0.9001624 0.697047 -0.43217933 -0.55535585 0.325453 -0.8636027 -0.04205015 0.15333898 -0.2028175 0.8364299 0.062093068 0.72631454 0.8885777 -0.046180032 0.3729971 0.31781977 0.20971873 0.5783008 0.290974 -0.00027232943 0.88440156 -0.73198 0.9288955 -0.13553715 -0.87499547 -0.6133667 0.3624738 -0.7801259 -0.14680226 0.42450908 -0.16767055 0.4265512 -0.8807509 0.2646825 0.5755635 0.7119032 -0.028762799 0.89536446 -0.19727242 -0.69110775 0.37228274 0.33369455 0.6381203 0.5359685 0.4963913 -0.47078815 -0.088795714 0.03569921 -0.35948572 0.40695804 -0.71751916 0.23989755 -0.98988634 0.093081415 -0.65900403 -0.5289244 0.019130267 0.75124484 -0.16687903 0.7078151 0.5402632 0.0803473 0.20032196 0.1319977 -0.7520078 0.68579 0.23130883 -0.98041666 0.8755449 -0.58235145 0.7047364 0.35613135 0.59606254 0.542149 -0.19335848 -0.33252022 0.7572333 -0.18025883 0.37286836 -0.17052642 0.59838307 0.32798764 0.8842323 0.3913647 0.25277317 0.56464696 -0.35307536 -0.07153577 -0.23450193 -0.89788276 0.741605 0.042756688 -0.5065629 0.0023925463 0.043833658 -0.71145767 0.5929173 0.15961234 0.47560626 0.39970624 0.80694044 -0.47423849 -0.17608826 0.18578339 -0.07315403 0.88905686 -0.22362477 0.39436835 0.44763273 0.2752907 0.32145378 0.46134037 0.21824452 0.4535264 0.6952243 0.5131518 -0.40960032 -0.2260033 -0.73170465 -0.7879574 0.28530708 -0.34721562 -0.8580625 -0.0052352482 0.4401485 -0.80444896 0.01671785 -0.6595222 -0.02730232 -0.25277862 -0.37949884
0.77957535 -0.06826267 -0.54741186 -0.99282134 -0.26090854 -0.98993117 -0.14672776 0.5460957 0.52338386 0.23016246 -0.43876442 0.075669594 -0.32871822 -0.020093184 0.37655327 -0.17770377 0.023164596 0.6679713 0.91083914 0.7120317 -0.564173 0.42464975 -0.26584512 -0.3936819 0.10542821 0.8266079 0.40441084 0.5824813 -0.10519693 -0.68591225 0.09153851 0.7766669 0.2042157 0.2610107 -0.7695963 0.84997344 -0.15237895 0.63463473 0.6458455 0.2007557 0.76394504 -0.31605253 0.9568828 -0.17712793 -0.43553013 -0.29728007 0.0076804403 -0.5181052 0.049474165 0.078897946 -0.48731947 0.07707865 -0.056265146 -0.43690374 0.40487108 0.08612413 0.5843901 -0.10615232 -0.40730146 -0.15584157 -0.7976904 0.5504005 -0.7375268 -0.22726509 0.7902224 -0.12409619 -0.8623188 0.13562635 0.29283512 -0.78553635 -0.26274738 0.14270973 0.39150876 0.6822507 -0.3317534 -0.51318794 -0.39124033 -0.05893123 -0.43480477 0.8333322 -0.27373606 -0.30113414 0.76090336 -0.12541166 -0.5370734 0.29092404 0.3375518 0.6789645 -0.31126913 0.5245303 0.20814194 0.6910284 0.64705986 -0.23259787 0.6512816 -0.20184642 -0.9630867 -0.3910722 -0.57824355 0.074043505 -0.6914512 0.1592977 0.71235496 0.07806239 0.18070856 -0.7105168 -0.6022046 -0.9172194 -0.5257403 0.43320656 0.5625177 -0.5328404 0.5359819 -0.6105344 -0.6238627 -0.015842052 -0.46071464 -0.7064874 0.18308192 0.6679162 0.08385147 0.40028003 -0.8328616 0.23108917 0.3798446 -0.36183122 -0.30270946 -0.5506657 0.57282287 0.11441028 0.56347644 0.04555321 0.057409212 -0.595275 -0.44431683 -0.11467292 0.35469756 -0.8010797 -0.22934484 -0.31582496 0.36228067 0.8076002 0.7667402 -0.6403145 -0.13305609 -0.515109 0.9449497 0.57818246 0.19000389 -0.82485485 0.20532498 0.3123937 0.25559998 -0.45989072 -0.023926204 0.39614782 0.28693247 -0.38122627 0.7090095 0.28962106 -0.007674388 -0.42400017 0.39238396 0.42691398 0.5613081 0.29727936 -0.80642277 0.40482146 0.32091463 0.4998568 -0.29611832 0.6893084 0.59988344 -0.5233026 -0.23232168 -0.6501063 0.70955384 -0.30032492 -0.5931482 -0.71841776 0.14148827 0.12269562 0.3767294 -0.3940259 0.7489773 -0.02747076 0.64876115 -0.19406447 -0.036368124 -0.38031247 -0.2874632 0.04790238 0.38991278 -0.35839736 -0.068608165 0.035740454 0.9260566 0.82886374 -0.9875075 -0.091447085 0.31485936 0.008567668 0.39375067 0.25699195 0.83118635 -0.009966963 0.3744494 0.071122244 0.42076445 0.5071401 -0.45050043 -0.36936566 -0.4048329 -0.62565017 -0.6491424 0.3526311 0.23766454 0.44098812 -0.4480537 0.16971575 -0.59535486 0.3124465 -0.6946653 -0.26457778 0.48228258 0.4723023 0.80168116 0.053005606 0.017698862 0.23804802 -0.35638967 -0.030501565 0.2918873 -0.5308825 -0.2026525 0.34475014 0.28422913 -0.17170203 -0.5499556 0.4876572 0.106815 0.30924824 -0.2484206 0.11515136 -0.3148242 0.2571811 0.031342916 -0.2664532 0.0648543 0.5871707 -0.806489 0.32041633 -0.64882666 -0.8999955 0.6971817 -0.43881562 -0.5491056 0.32504326 -0.8616774 -0.036753837 0.15950769 -0.2039956 0.8365168 0.060272478 0.7236767 0.8857864 -0.050087906 0.3735438 0.3277337 0.20684116 0.5780031 0.2913227 0.0014385481 0.88428974 -0.7344423 0.92894435 -0.13474976 -0.8743358 -0.6131496 0.3514272 -0.7775843 -0.13670841 0.43592066 -0.16540736 0.41515988 -0.8817024 0.27444962 0.5789444 0.7004874 -0.020040365 0.9005852 -0.19335568 -0.689949 0.36600265 0.34396243 0.63082504 0.53390986 0.50877804 -0.474886 -0.08823716 0.04228373 -0.36162922 0.39517432 -0.717379 0.23955467 -0.98986405 0.08946211 -0.6639052 -0.5389186 0.00706364 0.7510725 -0.15784791 0.70881784 0.5423364 0.08033068 0.20987064 0.13197023 -0.7518865 0.68813485 0.23101267 -0.98058826 0.87273264 -0.58122283 0.70953345 0.3560443 0.5872576 0.5420277 -0.19453146 -0.33161008 0.7461754 -0.17465289 0.36830136 -0.17000315 0.5970881 0.318331 0.8841557 0.3845973 0.24176663 0.5658618 -0.35416022 -0.06871814 -0.23353681 -0.89841735 0.7439042 0.042179514 -0.5061289 0.002665101 0.04575686 -0.7110592 0.59240794 0.14871484 0.47735482 0.39735213 0.80540967 -0.4658162 -0.18022983 0.18025398 -0.075319126 0.8820518 -0.23345168 0.40176877 0.44182923 0.26700112 0.32640386 0.47187915 0.21895325 0.4620037 0.68489313 0.5130686 -0.4080926 -0.22144012 -0.7407531 -0.7798182 0.28841192 -0.34846345 -0.8580223 -0.0068776347 0.44114655 -0.803543 0.012900573 -0.66050684 -0.027122382 -0.25017738 -0.36751953
0.7751178 -0.06899634 -0.54220974 -0.9928357 -0.26203287 -0.9899383 -0.15550031 0.55477786 0.53202266 0.2309415 -0.43047085 0.07112963 -0.33242688 -0.0156206675 0.3745909 -0.17687905 0.025399918 0.67060155 0.91084826 0.7203623 -0.5544508 0.42257398 -0.26661533 -0.389953 0.105278514 0.82556915 0.4136787 0.5834977 -0.10831509 -0.6798478 0.0960431 0.7775905 0.21136539 0.2599323 -0.76979136 0.84776145 -0.16328973 0.6456292 0.6499195 0.20851633 0.76468205 -0.31659722 0.9569181 -0.16873531 -0.43489787 -0.2987577 0.013227487 -0.50866085 0.03866518 0.07244355 -0.49104777 0.08631896 -0.052125677 -0.44133443 0.4061727 0.086058885 0.5829255 -0.10698504 -0.4084735 -0.15416919 -0.797708 0.55202967 -0.7442326 -0.21560685 0.7952235 -0.124954484 -0.8513622 0.13781479 0.2934521 -0.78575855 -0.26121464 0.13470921 0.3923417 0.6893591 -0.34208405 -0.513225 -0.39000526 -0.052253734 -0.44028348 0.83342755 -0.2646288 -0.3007449 0.7609709 -0.12817796 -0.54037756 0.3004599 0.3411335 0.6688363 -0.32166135 0.52483416 0.21183015 0.6912569 0.6566697 -0.23464948 0.6461869 -0.20178378 -0.96445286 -0.39188594 -0.5886913 0.063387044 -0.69181335 0.16061296 0.71250707 0.08003742 0.18331698 -0.71053046 -0.60251063 -0.9085045 -0.527178 0.42490354 0.5708355 -0.5432785 0.53658 -0.6087867 -0.62427825 -0.016112104 -0.45739663 -0.7063567 0.18701066 0.668401 0.09151582 0.3999174 -0.83066136 0.22856458 0.3777872 -0.3709967 -0.29228452 -0.55095583 0.5823171 0.11272505 0.5624211 0.044250946 0.056012064 -0.59726894 -0.44282353 -0.10704597 0.3615187 -0.8050011 -0.23863979 -0.31121856 0.35491216 0.8076587 0.7705774 -0.6405189 -0.13298936 -0.51953936 0.9448328 0.57806766 0.1894307 -0.82566035 0.19656464 0.31462446 0.2608726 -0.46067065 -0.028592782 0.39447522 0.28161964 -0.38334703 0.7055816 0.29369813 -0.013718925 -0.42327583 0.39164472 0.4289024 0.5624424 0.28511143 -0.8066544 0.40493685 0.33102596 0.50080323 -0.29111794 0.6896563 0.6024891 -0.516678 -0.24104625 -0.651232 0.7080444 -0.29812497 -0.5934514 -0.7251407 0.13948014 0.12002578 0.37700734 -0.39457828 0.7507984 -0.027624138 0.6587133 -0.19298412 -0.028890552 -0.36872232 -0.28890806 0.04010756 0.3860584 -0.3632228 -0.060481615 0.028904777 0.93614215 0.82902306 -0.9875011 -0.096815474 0.31478262 0.0056455955 0.39416933 0.25766635 0.8331135 -0.009763357 0.36306542 0.079323575 0.4294597 0.5067553 -0.4540587 -0.3707031 -0.39709705 -0.62752014 -0.65170276 0.34094885 0.23958962 0.44212133 -0.4485237 0.17384727 -0.5957949 0.3138173 -0.69214505 -0.2640745 0.47570562 0.4699827 0.8016426 0.052299898 0.009791402 0.24926609 -0.34442863 -0.031401098 0.29183483 -0.5412496 -0.20310399 0.3370746 0.28473777 -0.16594696 -0.551203 0.48706084 0.11482588 0.31024456 -0.2415183 0.12443804 -0.3048363 0.24999155 0.03377088 -0.27310207 0.07437869 0.5874601 -0.8062194 0.3204978 -0.64592123 -0.9001624 0.697047 -0.43217933 -0.55535585 0.325453 -0.8636027 -0.04205015 0.15333898 -0.2028175 0.8364299 0.062093068 0.72631454 0.8885777 -0.046180032 0.3729971 0.31781977 0.20971873 0.5783008 0.290974 -0.00027232943 0.88440156 -0.73198 0.9288955 -0.13553715 -0.87499547 -0.6133667 0.3624738 -0.7801259 -0.14680226 0.42450908 -0.16767055 0.4265512 -0.8807509 0.2646825 0.5755635 0.7119032 -0.028762799 0.89536446 -0.19727242 -0.69110775 0.37228274 0.33369455 0.6381203 0.5359685 0.4963913 -0.47078815 -0.088795714 0.03569921 -0.35948572 0.40695804 -0.71751916 0.23989755 -0.98988634 0.093081415 -0.65900403 -0.5289244 0.019130267 0.75124484 -0.16687903 0.7078151 0.5402632 0.0803473 0.20032196 0.1319977 -0.7520078 0.68579 0.23130883 -0.98041666 0.8755449 -0.58235145 0.7047364 0.35613135 0.59606254 0.542149 -0.19335848 -0.33252022 0.7572333 -0.18025883 0.37286836 -0.17052642 0.59838307 0.32798764 0.8842323 0.3913647 0.25277317 0.56464696 -0.35307536 -0.07153577 -0.23450193 -0.89788276 0.741605 0.042756688 -0.5065629 0.0023925463 0.043833658 -0.71145767 0.5929173 0.15961234 0.47560626 0.39970624 0.80694044 -0.47423849 -0.17608826 0.18578339 -0.07315403 0.88905686 -0.22362477 0.39436835 0.44763273 0.2752907 0.32145378 0.46134037 0.21824452 0.4535264 0.6952243 0.5131518 -0.40960032 -0.2260033 -0.73170465 -0.7879574 0.28530708 -0.34721562 -0.8580625 -0.0052352482 0.4401485 -0.80444896 0.01671785 -0.6595222 -0.02730232 -0.25277862 -0.37949884
0.7318531 -0.70463365 -0.6456055 -0.98532486 -0.5164755 -0.89000636 0.13778469 -0.049524426 0.37780505 0.5697752 -0.72327226 0.28788075 -0.31268752 0.44109815 -0.49836507 0.18354157 0.3824472 0.80616766 0.8665185 0.44893917 -0.47061163 0.06611899 0.13195999 -0.2627762 0.102642626 0.7678833 0.48197317 0.38936368 0.18574964 -0.87402165 -0.3427373 0.4473881 0.69863236 0.038637955 -0.7096054 0.6775473 0.045133527 0.38941038 0.15368895 -0.20959623 0.9562404 0.17354916 0.9469954 -0.31392995 0.05647171 0.25937843 0.43752822 -0.094544895 0.2883549 -0.23950247 0.063843004 -0.20499888 -0.4119092 -0.6353815 0.5117072 0.55823785 0.5221617 -0.86552304 -0.21417247 0.23440753 -0.8148062 0.45882446 0.04214971 -0.22149538 0.9131857 -0.4590234 -0.8415643 0.79970837 -0.36997807 -0.89145404 0.66975605 -0.0064057927 0.36318067 0.08557785 -0.45904076 -0.18057339 -0.20381719 -0.4119037 0.09133986 0.8455221 -0.46131787 -0.5765735 0.8197418 -0.27217633 0.014429023 -0.024619395 0.7674245 0.01552611 -0.5977789 0.821828 -0.114928134 0.38338292 0.59259105 -0.54091424 0.03304955 0.03674263 -0.89576465 -0.18953976 -0.42021537 0.2800576 -0.6905366 0.30994913 0.52065754 0.3413099 0.07293917 -0.8188772 -0.39697748 -0.8105159 -0.738051 0.3644122 0.5802887 -0.3201807 0.8826699 -0.024477806 -0.9213389 -0.75044405 0.24201031 -0.30835244 -0.37390313 0.6188773 -0.6455013 -0.1212539 -0.7748557 -0.20314209 -0.17734462 0.03571013 0.27807537 -0.8572181 -0.3017533 -0.28056395 0.28165364 0.4073939 0.4115681 -0.81565464 -0.3454013 0.22352298 0.46763527 -0.6006252 -0.18679911 0.4233704 0.61693 0.4012557 0.15096247 -0.5123756 -0.09643319 -0.049306497 0.8767402 -0.22714192 0.8201324 -0.5659562 -0.17006774 0.7081325 -0.16644141 0.12919639 -0.72877747 0.15686992 -0.0681096 -0.41305977 0.65190417 -0.38348228 0.50595725 0.67054504 0.7179583 0.18308371 0.94137925 0.3923515 -0.8327678 0.3889934 0.043862987 0.82147765 -0.5619361 0.6967695 0.14838603 -0.12028005 -0.6042268 0.0068917507 0.41266516 0.097528845 -0.618065 -0.6312821 0.008250926 0.0065941666 0.67581373 -0.030646397 0.5276176 -0.5793147 0.24980417 0.49567217 -0.5904422 0.3079324 -0.17892876 -0.13090567 0.6609356 0.08709627 0.20907758 0.31207517 0.9755296 0.9611993 -0.99852455 -0.024889633 0.010290058 0.29893488 0.7308939 0.44837904 0.4324912 0.1731627 0.5640716 -0.8465272 0.33642575 -0.17052132 0.59837794 0.18153174 0.3815514 -0.24059725 -0.10973534 -0.63226295 -0.043122776 -0.17068881 -0.95421225 -0.4280457 -0.84679484 0.6974261 -0.5197202 -0.46115744 -0.47587708 -0.013379464 0.74399894 -0.72402877 -0.047800962 0.011539722 -0.27581513 -0.24912336 0.60329986 -0.3358013 -0.769786 0.22949515 0.3315598 0.3591871 -0.74974304 0.27422637 0.3907054 0.58489853 -0.67644906 0.4719434 -0.45143953 0.5969079 -0.18843153 0.28891167 0.40074012 0.4422372 -0.6027973 -0.43074206 -0.7302946 -0.9068593 0.6375574 0.29430556 -0.21202122 0.86586905 -0.9137929 -0.42660666 0.010324098 -0.11261614 0.65652585 0.79223555 0.50637114 0.66406095 -0.26485196 0.1077169 -0.13554321 0.75722957 0.38964328 -0.027126009 0.2576847 0.9608903 -0.39944035 0.8999754 0.22414093 -0.802625 -0.78986937 0.4887408 -0.56628716 0.6356767 0.23274668 -0.123013765 0.3875002 -0.85451734 0.5480207 0.77367324 0.6038592 0.08428143 0.84787863 0.42726812 -0.021265864 -0.06734167 0.23162788 -0.16443351 0.60885745 -0.069784485 -0.37229902 -0.04207613 -0.17210504 0.3271657 0.08073958 -0.8357918 0.66245013 -0.99072623 0.77235365 -0.46103483 -0.6188739 -0.5797167 0.8569924 -0.060449384 0.666747 -0.023054315 -0.59978724 -0.3127095 0.10925971 -0.71282494 0.15770939 -0.5160251 -0.79582644 0.883128 -0.6687684 0.28818992 -0.3415528 0.362035 0.72157437 -0.77522045 -0.58962685 0.50103164 0.20353922 -0.111514755 -0.50808406 -0.24510695 0.15333542 0.89491093 -0.21691896 -0.004746935 0.7856021 -0.66541773 0.5215371 -0.6599727 -0.894355 0.45965952 -0.47643012 -0.6330374 -0.3065573 0.028084869 -0.8087561 0.43072492 0.38102373 0.17014204 0.4741863 0.7162312 -0.08281351 0.8169802 -0.9155483 -0.53294295 0.6087458 -0.72219664 0.41968036 -0.6657317 0.12515838 0.35479483 -0.09868932 -0.5483885 0.026435252 0.53091586 0.39199537 -0.82958055 -0.31196702 -0.55488145 -0.45675355 -0.14704855 -0.82313466 -0.631065 -0.036047034 0.18055397 -0.63195336 -0.08714734 -0.19013047 -0.021232469 0.45607492 -0.5450198
0.84617776 -0.9233298 -0.5711066 -0.9899388 -0.78693306 -0.9562188 0.42018265 -0.16644076 0.69258654 0.72511584 -0.84815073 0.42086786 -0.4002314 0.5210878 -0.47625816 0.3609097 0.52136713 0.6763212 0.84564525 0.6696449 -0.8530256 -0.05312601 0.30886537 -0.4576489 -0.100836515 0.9634171 0.1406801 0.4383523 -0.043756224 -0.8625446 -0.29823238 0.7084784 0.7501022 0.008941843 -0.8967263 0.7919707 0.46685192 -0.18044968 -0.036553167 0.115105554 0.97193396 0.357986 0.9330734 -0.6688245 0.24653228 0.16550502 0.6085195 0.10450452 0.61009336 0.100825794 0.61307156 -0.5432403 -0.59885347 -0.76818746 0.738879 0.39567596 0.8676002 -0.9182429 -0.30364972 0.2634178 -0.7582738 0.4961508 0.2054251 -0.3199095 0.91907007 -0.38519078 -0.83706814 0.8476416 -0.5085124 -0.83063126 0.5947918 0.15149324 0.12621714 0.025066938 -0.6540998 -0.18983868 0.0068377526 -0.39650005 -0.048089765 0.9868329 -0.64219075 -0.8373741 0.7864658 -0.4343479 -0.2661303 -0.17292468 0.7149054 -0.073909946 -0.53574365 0.84495866 -0.47707194 0.45089486 0.61630034 -0.7214248 -0.02424146 0.10520795 -0.934192 -0.1154086 -0.50855494 -0.21950984 -0.46027333 0.4230656 0.039010018 0.03934385 0.03294707 -0.8227837 -0.28205943 -0.70598596 -0.8570461 0.5606271 0.63362193 -0.55535406 0.8976455 -0.0017755765 -0.95443326 -0.6916995 0.4033963 -0.2592497 -0.628451 0.671564 -0.5426809 0.009736963 -0.90358084 -0.17637105 -0.23501246 0.15875763 0.4847091 -0.8085207 -0.23287612 -0.48223078 0.019585656 0.11426038 0.27778113 -0.77635616 -0.35237196 -0.049510572 0.52430457 -0.5171843 -0.042498637 0.011097948 0.7480784 0.30253738 -0.26655874 -0.16899502 -0.31947172 0.06344336 0.87616414 -0.4087126 0.8873606 -0.7950802 -0.026395462 0.7424497 -0.18110836 -0.2915593 -0.91446924 -0.15233882 0.2321313 -0.32905754 0.72328967 -0.48896337 0.44607192 0.6015049 0.759569 -0.017909199 0.9577067 0.3599126 -0.9604567 0.49945688 -0.06627018 0.80769217 -0.6068423 0.48753962 -0.0090576 -0.14457792 -0.57675606 0.27833292 0.39026046 0.13107057 -0.2842376 -0.58334845 0.41529515 0.09618062 0.57538337 -0.3275549 0.5018286 -0.48545706 0.17946401 0.576608 -0.44978437 0.23459223 -0.49888363 -0.056974534 0.6168655 0.2668575 0.30967796 0.2445429 0.95824426 0.93409604 -0.9978318 -0.3447228 -0.05711569 -0.02173354 0.61313546 0.6302974 0.76512253 -0.05708643 0.47161812 -0.84611666 0.28340542 -0.26431766 0.68200326 0.21336387 0.5822854 -0.034363914 -0.26135582 -0.3981368 -0.18321344 -0.689247 -0.9728528 -0.38628283 -0.8668656 0.914579 -0.53610116 -0.2713358 -0.33814394 0.17097823 0.82970726 -0.859968 -0.11167449 -0.2270434 -0.35099143 -0.35189778 0.8110837 -0.1507735 -0.55774796 -0.0028819796 -0.04938467 0.3497167 -0.67261916 0.185919 0.38527614 0.59217185 -0.7244343 0.7908735 -0.27144155 0.22869788 -0.19112232 0.33499846 0.5318854 0.3270334 -0.46239194 -0.39994186 -0.5101864 -0.8686045 0.31385544 0.1411236 -0.44842908 0.912501 -0.9045654 -0.23414317 0.07583994 -0.5170897 0.57482535 0.7469368 0.6489477 0.60842067 -0.5679353 0.047262084 -0.22457373 0.53705484 0.17496337 -0.22673863 0.09669676 0.98329514 -0.27395073 0.85199445 0.14837635 -0.9026827 -0.7767512 0.5868392 -0.5561381 0.52677965 0.22420916 0.3395481 0.291564 -0.85402966 0.40670186 0.7340065 0.31051362 -0.05586846 0.8414352 0.8186061 -0.15021051 -0.06672147 0.48717752 -0.47590578 0.26108196 -0.0145937 -0.6218755 -0.08095763 0.1685155 -0.15109032 -0.22491127 -0.8330203 0.79301065 -0.9959037 0.68897927 -0.5199995 -0.41879758 -0.53470576 0.78686017 -0.20511386 0.45546365 -0.041914746 -0.32103583 -0.52682495 0.49275586 -0.4037453 -0.15977491 -0.7206455 -0.8399626 0.79562926 -0.6011323 0.5194907 -0.12304752 0.16081293 0.80093366 -0.86988795 -0.7487143 0.4149892 0.38956565 -0.38250262 -0.59879225 -0.07862455 0.17309925 0.879374 0.037058543 -0.17828341 0.63822687 -0.4819051 0.602999 -0.9184134 -0.89044446 0.5289542 -0.5815911 -0.7216003 -0.6027245 -0.0463222 -0.95993894 0.86684346 0.23673925 0.19927983 0.59338 0.76318634 -0.56379986 0.7104585 -0.9219768 -0.8528525 0.43236318 -0.7270318 0.5402048 -0.52344805 -0.35325062 0.06017374 -0.30423158 -0.68002194 -0.29117456 0.5630914 0.40699223 -0.82450265 -0.3389573 -0.6584966 -0.44940764 -0.3191287 -0.8998063 -0.37346017 -0.39788416 0.1788449 -0.5303252 -0.48678538 0.24811152 -0.08385117 0.16555953 -0.8051509
0.64131224 -0.63372815 -0.6990553 -0.9819454 -0.42492673 -0.8434811 -0.0009146967 -0.024941983 0.20602782 0.5303474 -0.7075332 0.3302873 -0.21132223 0.42379096 -0.5560139 0.11050025 0.37197798 0.9049001 0.8886742 0.28988975 -0.27639884 0.20785026 -0.031525865 -0.1758104 0.28933966 0.6519756 0.7165783 0.38250792 0.3621635 -0.87184155 -0.3497176 0.3959893 0.67386913 0.103352256 -0.6193486 0.6107991 -0.17738636 0.80938923 0.28056428 -0.3933786 0.955049 0.13647358 0.9566547 -0.11044992 -0.02525774 0.42419246 0.3460371 -0.23630363 0.14751694 -0.46263433 -0.2100468 -0.002609653 -0.39625722 -0.5754393 0.39429656 0.73056006 0.3394988 -0.8176424 -0.22438514 0.10751015 -0.8551 0.5368117 -0.068483256 -0.17620039 0.9420241 -0.5462975 -0.8025198 0.7641581 -0.2674241 -0.9355836 0.7072286 -0.19966322 0.61202586 0.05101518 -0.3590256 -0.16000052 -0.45713663 -0.38304162 0.12635478 0.7699494 -0.34164944 -0.40820754 0.8157922 -0.095660605 0.24310024 0.030875374 0.80401766 0.12816851 -0.66980606 0.8036715 0.072120205 0.39533582 0.6316328 -0.43696222 0.11017143 0.038980976 -0.8652257 -0.1883785 -0.4025728 0.56710273 -0.8546851 0.20176311 0.93408537 0.5814981 0.23752898 -0.753371 -0.37610957 -0.8324279 -0.665279 0.21425787 0.57575 -0.17282462 0.8882698 -0.09855068 -0.8571783 -0.67844164 0.07778432 -0.31327313 -0.2396242 0.52122265 -0.76241344 -0.24138343 -0.6880426 -0.2723275 -0.18349463 -0.060674556 0.259865 -0.9249643 -0.23730108 -0.26099613 0.5224162 0.6166699 0.48669285 -0.85541767 -0.37682703 0.42218727 0.50630265 -0.65801674 -0.23236519 0.8235239 0.5909699 0.5408787 0.48422498 -0.7823979 -0.04228856 -0.013704796 0.8781186 -0.17875876 0.7982699 -0.4395128 -0.20134108 0.6810396 -0.022799456 0.3864673 -0.6667507 0.33107567 -0.25318035 -0.46297643 0.65972495 -0.2983818 0.56709915 0.7027403 0.74835545 0.36034644 0.9323714 0.29444218 -0.78498155 0.21199204 0.09031806 0.8222779 -0.5727594 0.86345613 0.31243324 -0.06014654 -0.5989283 -0.24942115 0.3178822 -0.003109364 -0.8925229 -0.59480083 -0.15697892 -0.03118263 0.61229527 0.17490466 0.45936105 -0.671358 0.26943603 0.42486432 -0.6286971 0.3272818 0.01713138 -0.27244538 0.6101883 -0.053608235 0.2016246 0.468176 0.9726675 0.9666424 -0.99916553 0.14818 0.1106719 0.53323925 0.80813354 0.31359673 0.24711208 0.21948819 0.7015603 -0.83974737 0.43144345 -0.06807774 0.5386144 0.024992263 0.31223568 -0.45958114 -0.025211247 -0.8485387 0.13049653 0.094264865 -0.9480395 -0.5363872 -0.83861554 0.62830144 -0.46175212 -0.63713723 -0.5014327 -0.12334566 0.69820935 -0.6695033 -0.14017752 0.20306464 -0.25298452 -0.25617173 0.5276446 -0.4248769 -0.92101747 0.50183296 0.59139353 0.36648524 -0.79997295 0.2924236 0.32701895 0.51053274 -0.647284 0.30390888 -0.6363161 0.8681609 -0.2106018 0.18063685 0.31745046 0.6106674 -0.7038562 -0.3400247 -0.9106469 -0.92714757 0.9302411 0.4302666 -0.045233935 0.84105784 -0.92870253 -0.5912363 -0.025091399 0.12678975 0.6898512 0.8519165 0.3550125 0.7105701 -0.10145476 0.15211701 -0.13666542 0.95376235 0.5477479 -0.03710622 0.30151743 0.9467378 -0.46345028 0.9134288 0.32575414 -0.7564241 -0.8228355 0.37297088 -0.6049617 0.7289238 0.3417023 -0.42333442 0.30940628 -0.857707 0.7113981 0.8182449 0.858631 0.35329136 0.7954683 0.24624167 0.052086204 -0.112897135 0.11223761 0.012285819 0.90906787 -0.1696846 -0.2930701 -0.13921285 -0.4368217 0.7076146 0.21933007 -0.8234329 0.5883477 -0.98820263 0.8267617 -0.33064508 -0.6570641 -0.6501 0.9298726 0.10199343 0.8498734 -0.003931312 -0.827948 -0.18487558 -0.088706285 -0.97665435 0.29003426 -0.44323888 -0.79701155 0.9654828 -0.6577298 0.116156876 -0.45896855 0.5476653 0.68141884 -0.73153204 -0.5872254 0.43108287 0.054599628 0.061618127 -0.38040388 -0.2293487 -0.010159081 0.8868 -0.41788685 0.12714154 0.79681677 -0.7737336 0.38726085 -0.5761104 -0.8569316 0.4417152 -0.4240674 -0.54476917 -0.14355786 0.09852703 -0.7333907 0.25774917 0.37595406 0.18380864 0.35229415 0.6282107 0.19566675 0.84032047 -0.9006621 -0.37985408 0.75495327 -0.6795799 0.377261 -0.8004912 0.35698617 0.54684407 0.12562552 -0.4281211 0.26178545 0.5185913 0.3080821 -0.86723846 -0.25051653 -0.49243125 -0.39819768 -0.051844515 -0.7858523 -0.8413756 0.15865482 0.098079085 -0.7026707 0.1046191 -0.44067895 -0.0692147 0.6349239 -0.38409212
0.76828307 -0.58838856 -0.3874172 -0.78793555 -0.17484394 -0.885229 -0.6106085 -0.17562073 0.15639907 0.581502 -0.18051815 0.32742888 0.14927112 0.09364873 0.38797686 -0.06212014 0.21828046 0.6257573 0.401463 0.2023536 -0.622338 0.6179966 0.06546022 -0.27811027 0.34418556 0.1756104 0.34714913 -0.06997205 -0.3584831 -0.86591727 -0.25987363 -0.47264373 0.13554752 -0.06130482 -0.95480853 0.27357078 0.3148077 0.56058276 0.35043067 -0.53301233 0.9196969 -0.32061046 0.3284898 0.23221605 -0.16817725 -0.5424372 -0.22977589 -0.5035365 0.30050442 -0.15679212 -0.39776132 -0.72569627 -0.21249384 -0.42474598 0.6149064 0.19576834 0.36979362 -0.6082871 -0.015968546 0.5860825 -0.61948454 -0.059195776 -0.2555385 0.47068447 0.5340025 0.12496108 -0.49791053 0.25662288 -0.32126707 -0.45417434 -0.23060523 -0.49398685 0.5278556 -0.15133965 0.55305004 -0.4969409 0.05830613 -0.4054254 0.0051085297 0.44956562 -0.7555523 0.18556996 0.494825 0.705547 0.113341935 -0.63406026 0.6261934 0.25264212 -0.64040744 -0.023548497 -0.34187216 0.44929364 0.29927292 0.2543495 -0.49664307 0.056646124 -0.81954384 0.061550993 -0.3141591 0.43134522 -0.30668545 -0.072976366 0.30275774 0.22177628 0.0073461975 -0.4174732 -0.39397988 -0.659316 -0.45063722 0.11812075 0.582483 0.058219742 0.36695504 -0.10542904 -0.6455624 -0.95825946 -0.3789652 -0.74702185 -0.69310325 0.85865617 -0.14234409 -0.4232712 -0.7352944 -0.0416101 0.13716543 0.3927595 0.36232984 -0.7470386 -0.17284855 -0.6847174 0.4252676 -0.10999346 -0.12528665 -0.8217348 -0.25044194 0.2500117 0.6902507 0.3034764 -0.79364926 -0.57962245 -0.10659755 0.53608924 -0.16370559 0.20111671 0.24080011 -0.12418252 0.9788117 0.17954111 -0.34826207 -0.70090723 0.071031995 0.21143305 0.58678174 -0.1223961 -0.71850055 0.5092092 0.120650284 -0.1748126 0.5073607 -0.1588092 0.43485898 0.11665383 0.43350005 0.021440545 0.5537257 0.23581108 -0.83881176 0.44766238 -0.0053108884 0.550602 -0.6714166 0.29604995 -0.095639355 -0.418873 -0.55827564 -0.38505322 0.7717381 0.3773227 -0.7462297 -0.13534924 -0.3238214 0.4567771 0.66075927 -0.67473304 0.7955764 -0.40014812 0.30049762 0.7370215 -0.2202716 -0.3195454 -0.5765525 0.1732556 -0.47759342 0.5189027 0.75881565 -0.28508177 0.16406083 0.40336144 -0.9418565 -0.12005381 0.19829778 0.17932954 0.74322724 0.4415512 0.37582672 0.29189533 0.35152477 -0.5143404 0.41070294 0.40895298 0.20031703 -0.10446719 0.39379922 -0.4796475 -0.33217278 -0.72823113 -0.61374795 -0.17655852 -0.36244372 0.36766177 -0.39240906 0.2868163 -0.26704973 -0.21293388 -0.13147965 -0.19921583 0.8049776 0.13235377 0.36608574 0.25627065 -0.63728917 -0.47629708 0.6167656 0.065295145 -0.93610424 0.3346782 -0.11490033 -0.35798004 -0.17532079 -0.5117992 0.04910258 0.1336342 -0.78034616 0.3814603 -0.20065613 0.50856334 -0.40367517 0.51516044 0.63489676 0.7061683 -0.6658141 0.08169241 -0.70254445 -0.83467174 0.30551538 -0.34642094 -0.3651423 -0.46960932 -0.96717536 0.59335876 0.09330079 -0.43393046 0.26687557 0.120218955 0.72991693 0.80706686 -0.33033526 0.68583107 -0.32927 0.003577258 -0.032231122 0.052507162 0.105544314 0.44178572 -0.9534654 0.89734703 -0.14400153 -0.8827397 -0.72162926 0.64746183 -0.32006532 0.0029049283 -0.18793315 -0.49900678 -0.24278313 -0.69818187 0.67733526 0.13476112 -0.4717707 -0.20032202 0.73665106 -0.36799362 -0.50833523 0.28112516 -0.14346601 0.36347762 0.111353844 0.48486498 -0.05534137 -0.55126697 0.18337576 -0.38311452 -0.11141286 -0.42926595 0.11697214 -0.8707413 0.69585985 -0.80372494 -0.12041865 0.13441482 0.8443807 -0.3114533 0.56232446 0.3417825 -0.52775997 -0.15666129 -0.45025826 -0.5382198 0.25873348 -0.20254321 -0.8632244 0.80129075 -0.24842139 0.6069039 0.27032164 -0.40373108 -0.36949676 -0.59886515 -0.7383124 0.8140211 -0.0017573052 -0.31059915 -0.15866311 0.5699162 0.3530053 0.31332946 -0.033118848 0.33132994 0.6733863 -0.512229 0.52890384 -0.56096286 -0.88496757 -0.3658018 0.093953155 0.2472402 -0.062727176 0.19555058 -0.89098525 0.8673987 -0.054468043 0.7138339 -0.27201536 -0.22687976 -0.51886106 -0.06488519 -0.110241294 0.31325462 0.113046564 -0.35351855 0.17125183 -0.062777214 -0.087201886 -0.26096654 0.30567303 0.36775196 0.01952497 0.08367489 0.3404907 0.13423552 0.03389282 -0.8790913 -0.16383454 0.07823037 -0.84172803 -0.3296138 -0.2056002 0.30802888 -0.28515905 -0.3685363 -0.16700189 0.01697901 0.46898183 -0.54909563
0.37669176 -0.5659719 0.082536265 -0.758699 0.24980183 -0.8417176 0.5831514 0.4121037 0.44260573 0.40759096 -0.586321 0.054363642 -0.45317966 0.585593 0.29039142 -0.7112107 0.23041157 0.049320396 -0.04162467 0.26730463 -0.65854424 0.8178149 0.21015045 -0.35006663 0.22545673 0.12884262 0.61974037 0.39737815 -0.5610995 -0.65358496 0.3387165 0.13277973 -0.33442098 0.31292424 -0.7780463 0.74076164 -0.15350598 -0.109527394 0.52766603 0.18273848 0.2684273 -0.25783432 0.19859135 -0.08806761 -0.3821282 0.2326804 -0.08165811 -0.4195539 0.3710929 0.31559202 0.09872755 -0.29340795 -0.32997265 -0.14845163 0.14633769 -0.013495611 0.5160248 -0.58593476 -0.27082148 0.72330546 -0.5418923 -0.22313814 -0.6206108 -0.103012584 0.5398942 0.1020121 -0.71861815 -0.042191397 0.038623117 -0.2872295 -0.07589261 0.05577122 0.4254412 -0.20690957 -0.2377656 -0.3324566 0.35969725 0.02947021 -0.5625788 0.5889962 -0.39830983 0.019906268 0.5488907 0.64242387 -0.59992343 -0.50530934 0.7369951 -0.39873347 -0.22454521 0.4837705 0.045841027 0.77483296 -0.3678515 0.40304628 -0.35654503 -0.22112796 -0.3566361 -0.21448621 0.00045488746 0.45566466 -0.66476333 -0.0030824312 0.48292676 -0.2955407 -0.10884601 -0.42111915 0.019125262 -0.93540156 -0.51158327 0.107504465 -0.19253589 -0.5380649 0.44358072 -0.53990215 -0.33296576 -0.81958765 -0.15223128 -0.79599434 0.06999582 0.5315956 -0.091528885 -0.73742306 -0.6190007 -0.15485932 0.12095515 0.3933514 0.18468009 -0.59995806 -0.6161955 -0.11615769 0.4143391 0.19524974 0.2128027 -0.32189077 -0.3201758 0.046654463 0.81928056 0.027826093 -0.54981214 -0.1920058 0.16143396 -0.10408238 0.12198357 -0.6229552 0.5060338 0.5131043 0.6343052 -0.13246618 0.18404557 -0.71407646 -0.34895453 0.7902267 0.1568999 0.2594147 -0.49693158 0.62620956 -0.05168838 -0.42720714 0.57716686 -0.44530624 0.2240141 -0.31702802 0.37319008 0.09505763 0.21785517 -0.556965 -0.75706965 0.7446255 0.039394867 0.51222277 -0.50638777 0.030167047 0.5662804 0.13226484 -0.07220868 -0.41062722 0.33559442 0.13500752 -0.4173722 -0.22183305 -0.7355267 0.36563224 0.73119783 -0.28911576 0.83725667 0.05138035 0.6935721 0.25360072 -0.3065699 -0.16389005 0.012147809 -0.30763996 0.16039263 -0.036152467 0.21171173 -0.36159083 -0.06224135 0.15393402 -0.9609932 0.37552193 0.40497696 0.49876714 0.19763316 0.037061505 0.46328455 0.25711426 0.8192011 0.18601519 -0.015967641 0.022026204 -0.1792187 0.044073153 -0.20804393 -0.568979 -0.65833473 -0.57032704 -0.053318426 0.6749952 -0.7342136 0.43991742 -0.61352396 0.12039887 0.15931666 -0.3589282 0.08602114 0.08524478 0.6450566 0.27688867 -0.1586521 0.1927983 -0.6755241 0.23794973 0.5155936 -0.31475744 -0.89077663 0.08282132 0.6220631 0.29648343 -0.31680524 -0.116034426 -0.28201482 -0.23292316 -0.44619963 0.20923549 -0.23511375 0.2752796 -0.2531148 -0.11196078 0.08975487 0.857507 -0.6850771 -0.090224855 -0.85494095 -0.8596955 0.51611584 0.10125698 0.65363586 0.45295563 -0.9583591 0.5335605 -0.40640277 -0.19155236 0.3115705 -0.15489419 0.26070035 0.7767321 -0.2934648 0.21812509 -0.38353685 -0.15103844 -0.30480495 -0.45969555 -0.08660136 0.73908854 -0.83316386 0.9073778 0.008635798 -0.2884083 -0.58225316 0.86036617 -0.6094848 0.55979604 -0.123618975 -0.14214754 0.38916528 -0.8247505 0.5425269 -0.103636414 -0.015040877 0.048376285 0.7891428 -0.48957816 -0.5998742 -0.12790962 0.46048644 0.34047103 0.6837491 0.27736676 -0.7143183 0.027956989 -0.5468742 0.16391338 -0.1737592 -0.71302146 0.5582515 -0.9179566 0.58088404 -0.82085466 -0.511698 -0.25825927 0.80345213 0.21697436 0.7334404 0.2699545 -0.61257696 -0.09289616 -0.19108173 -0.87426645 -0.2011363 -0.519665 -0.9409894 0.88752675 0.098828584 0.37768948 0.19947094 0.22919546 -0.21552515 -0.691746 -0.51147145 0.67818755 0.26476938 0.026055435 -0.07584968 -0.30813938 0.2679867 0.8045742 -0.293499 0.15956387 -0.41883582 -0.8104681 0.6374979 -0.617201 -0.9404215 -0.15393327 0.4692345 -0.5912291 0.22199796 0.5175619 -0.89818996 0.49410245 -0.11702883 0.18943006 -0.09883588 0.43855336 -0.6247335 0.6886963 -0.15926655 -0.21670064 0.34058467 -0.47528222 0.2878868 -0.46727988 -0.22842851 -0.04315008 -0.047950942 0.12120666 -0.39711252 -0.19211718 0.021809865 -0.16561049 -0.0060693705 -0.3189213 -0.5463845 0.23190868 -0.74973667 -0.7877137 -0.103594184 0.3887444 -0.5341518 -0.17862883 -0.419515 -0.20841858 0.5186677 0.14835455
0.8209223 -0.59591115 -0.7039323 -0.8815493 0.030352259 -0.9635299 -0.48027185 -0.056788757 0.48964867 -0.091338195 -0.4890721 0.15272684 -0.43782562 0.47127253 0.12621509 0.26420778 0.5612071 0.25975734 0.6033421 0.042797286 -0.78795683 0.5692187 -0.07622527 -0.46937266 -0.14362553 0.28039742 0.45181292 0.41794792 -0.042441003 -0.92370355 -0.7483521 -0.55049455 0.103218175 -0.16554312 -0.69931847 0.20093057 0.09429403 -0.13311513 0.42242777 0.056033123 0.7660821 0.1710152 0.80472904 0.4667866 -0.18759544 -0.39074212 -0.09979094 0.0747003 0.2756399 0.52329296 -0.29279834 0.422171 -0.10231535 -0.38255152 0.661943 0.2936264 0.31426695 -0.68209654 0.41167706 0.53461754 -0.54792076 -0.3186738 -0.31425694 0.070885964 0.6979847 -0.22078209 -0.6754779 0.47158492 -0.41339594 -0.41600373 -0.11341931 0.1554366 -0.2340943 0.11997598 0.44809985 -0.22758879 0.37128967 -0.31686878 -0.09362789 0.5918165 -0.5440176 0.27764356 0.70072484 0.6210038 -0.3908794 -0.4463704 0.15450464 0.061867297 -0.70697147 0.13934779 -0.34314996 0.39961746 0.16079521 -0.49126646 -0.07167535 0.23255293 -0.71629196 -0.37110645 -0.5785259 0.23400727 0.082469776 -0.013887189 0.7106343 0.24985126 -0.07870115 -0.4659588 -0.54071426 -0.8660118 -0.008509579 0.11062224 0.25222707 0.15729596 0.45122564 -0.31564152 -0.79123944 -0.89945185 -0.15445395 -0.4161925 -0.24815105 0.4791115 0.4137091 -0.21133676 -0.23087771 -0.028525688 0.43900818 -0.12082738 0.21894805 -0.6881325 -0.13407886 -0.4926042 0.390991 0.088207886 0.14735314 -0.60365295 -0.31663495 0.25971666 0.39834154 -0.47506046 -0.91702545 -0.3050611 0.0520506 0.7976027 0.1014474 -0.118892975 0.5486991 -0.29174155 0.928054 -0.18868585 -0.5926082 -0.5684669 -0.1668175 0.49999386 0.44395193 0.29656106 -0.75994444 0.15495732 -0.11672456 -0.011379291 0.6374039 -0.2274476 0.74677163 0.43738192 0.29506817 -0.32982928 0.60111624 0.020786917 -0.679604 -0.19264066 -0.14612636 0.15724443 -0.4170215 0.9380725 -0.04762614 0.0051472257 -0.65685433 0.35591164 0.61162525 0.49367195 -0.71753585 -0.09765558 0.11075842 -0.17595561 -0.069401674 -0.58184475 0.59446734 0.022357164 0.20794243 0.15634242 -0.3648148 0.06953922 -0.18298857 0.082562655 -0.21806403 0.3662563 0.34307373 -0.46056154 0.832308 0.9511201 -0.9773608 0.17042457 0.008216446 0.06770439 0.39610556 -0.36818436 0.6750809 -0.4123708 0.4782301 -0.50386196 0.45397443 -0.37690425 -0.064352416 -0.0046939068 0.11773666 -0.36707625 -0.26366857 -0.59506685 -0.5900322 -0.21129571 -0.5732678 0.5490057 -0.76217824 0.5546031 -0.71836275 -0.45501727 0.19367814 -0.5432971 0.9114537 0.02670764 -0.19803363 0.73360914 -0.52166694 -0.6487371 0.19360356 -0.3882259 -0.77624315 -0.43279222 -0.18346253 -0.18656844 -0.3559733 0.12588634 -0.16730727 -0.3520684 -0.57425845 0.2760929 -0.3806006 0.003362568 -0.44957688 0.5544495 0.19877963 0.52022034 -0.93650544 -0.6477702 -0.7603533 -0.9438949 0.2675299 -0.3079484 -0.113911614 -0.20464681 -0.99516493 0.6999972 -0.18108945 -0.35172698 -0.27870417 -0.31433973 0.35201648 0.76271677 -0.20508377 0.5077235 -0.47809467 -0.22005475 -0.16731244 0.14430133 -0.29741 0.6258305 -0.96385974 0.9047234 -0.23806259 -0.8438316 -0.8455515 0.7654771 -0.4484592 0.118048266 -0.15545999 -0.38826537 -0.19782862 -0.6849956 0.08279875 0.5659418 -0.45951843 -0.03740814 0.648136 -0.4829668 -0.7246836 0.16612832 0.20357957 0.45952764 0.76897603 0.1578409 0.3070441 -0.43431702 -0.26688108 -0.119239606 -0.16761816 -0.51217055 0.105504476 -0.77453697 0.44218367 -0.7829526 -0.45689607 0.15417346 -0.014361413 -0.37050006 0.6211385 0.043046907 -0.81677413 0.2697591 -0.7579128 -0.47233397 -0.10124622 0.11390912 -0.8963823 0.99168146 -0.2369904 0.024114091 0.54056823 -0.47086903 -0.12721145 -0.34582806 -0.678028 0.7863461 0.48938394 0.26319557 -0.07155034 -0.15079479 0.70484424 0.38383412 0.10179361 -0.5946703 0.13716297 -0.17064981 0.81156236 -0.75232625 -0.7001097 0.07846814 0.17105903 0.50887275 -0.20489629 0.03853732 -0.8827601 0.86698693 0.72786784 0.42050722 0.140977 0.28006575 -0.70521903 0.6067376 -0.015834616 0.7573866 -0.09257158 -0.84624255 -0.083554864 -0.22594029 0.18580456 -0.023887856 -0.2959967 0.1731147 -0.09839143 0.5042975 0.32445168 -0.10851294 0.15792984 -0.5199348 -0.5987371 0.3414853 -0.62134874 -0.69618523 -0.5995078 0.08880329 -0.4403637 -0.30399132 -0.19009694 0.09778107 0.37790185 -0.15677781
