0.18935733 -0.17996946 -0.0451715 -0.30353138 -0.98925745 -0.8871928 0.7118787 0.2000757 -0.08005402 -0.061750017 0.68679696 0.41097236 -0.02499162 0.7356006 0.2586074 -0.4519033 -0.18682201 -0.25318256 -0.065546095 -0.24878699 0.13849038 -0.67935425 0.26266804 0.82171065 -0.2482698 -0.7460849 0.052196942 0.096076116 -0.49017525 0.4859584 0.77573156 -0.7261942 0.68685925 -0.6931358 -0.36621737 0.6072165 -0.14112462 -0.77414197 0.49172783 0.32088372 0.40405035 0.7660287 0.055945978 0.20595619 0.05642307 0.40923902 0.17869274 0.768486 -0.06391162 0.5997048 0.02269725 0.15311423 0.2175184 0.12006177 -0.5787566 -0.033133563 0.3625411 0.59561247 -0.67339796 0.4201253 0.1809599 -0.15917456 -0.4293573 -0.3951039 -0.198411 0.25635517 -0.71515405 0.050041974 0.6414159 0.72661614 -0.78426844 0.3906983 0.18707156 -0.19706306 -0.33241606 0.04583108 -0.46836838 0.49744725 0.8472167 -0.14006937 -0.11450865 0.402078 0.11634919 0.040288 -0.5705651 -0.83762705 0.94244754 -0.3703601 -0.27493238 -0.71190697 -0.060572684 -0.023997802 0.06722304 0.014924841 -0.04974064 0.9016529 -0.29812983 0.3652236 -0.7703176 0.39311504 -0.52414256 0.25060582 0.29852864 0.2815536 -0.29805622 -0.6868888 0.09905443 0.026497645 0.08367096 0.39391926 0.6637568 -0.34680548 -0.61376876 -0.581788 0.5864755 0.64535016 -0.017664785 0.1788312 -0.770886 0.35590643 -0.9786033 0.03666618 -0.6717187 0.09766603 0.8101294 -0.47587654 -0.28228492 0.8658276 -0.23251924 0.28320545 -0.6223541 -0.36959526 -0.00080715865 -0.461547 0.3627919 -0.7657267 0.3923488 -0.31969753 -0.064307995 -0.390917 0.76726395 -0.069760814 0.13287765 -0.1549665 -0.64196676 -0.42613822 0.7377773 0.13158213 0.73895967 -0.0061940216 -0.11066623 -0.12495128 -0.16490005 -0.20564055 0.2922314 -0.17858885 0.40811232 0.7512975 -0.51211 0.53680897 0.91824496 -0.69854975 0.0030674292 -0.8431442 -0.90676063 -0.588461 0.10539273 0.28680074 -0.10244037 0.47090048 -0.59544605 0.42108762 0.3537545 -0.1825713 0.88072044 0.34046286 0.762073 0.22455497 0.10485263 0.07777418 0.37681872 -0.35559466 -0.45366377 -0.5467348 0.9497091 0.68471396 -0.7588206 -0.29574242 0.1222593 0.18554017 -0.56529963 -0.022051767 -0.5732573 -0.827088 -0.7740216 0.44771984 -0.17151761 0.07905611 0.25332198 0.4486418 0.28571683 -0.70434767 -0.2906047 -0.524025 0.08270096 -0.50531286 0.9083189 0.6684241 -0.100535184 0.021146223 -0.5805508 -0.40691465 0.31017134 -0.796302 -0.52682495 0.7072432 -0.5701489 0.46642527 -0.9371691 -0.16059533 0.0048071225 -0.43946037 -0.44528317 -0.7120028 -0.31023914 0.29604685 0.29855055 0.79779875 -0.022628367 0.6011545 -0.61541766 -0.97401494 -0.45289242 0.9322901 0.12857176 -0.6639354 0.55033475 0.55792826 -0.8387777 0.19783251 -0.82000625 -0.24142425 0.25658727 -0.231056 -0.49596018 0.62230533 -0.44005594 -0.7735791 -0.036745086 0.51660174 0.200944 -0.23511949 -0.19830234 -0.32099903 -0.39264604 -0.6829177 -0.30242503 -0.7085527 -0.062035896 -0.86928874 0.32761428 0.11826004 -0.06178271 0.8323154 0.38794205 -0.47624126 0.38371804 0.67579174 -0.25998005 -0.18797499 -0.48881793 0.2280169 0.79614305 -0.8634596 -0.8720974 -0.058492847 -0.7307477 0.04647746 -0.26868832 0.34169495 -0.2702504 0.5383057 0.6418965 0.49136016 0.5208918 -0.7873057 -0.33704773 0.29566476 0.19745731 0.24395786 0.3800655 0.29632983 -0.3459102 -0.37591022 -0.34442127 0.37918782 0.37437052 0.3311895 -0.78911644 0.1133864 0.8039856 0.5584758 -0.43285736 -0.52176416 -0.15349661 0.6960933 0.64426666 -0.7252246 -0.088247314 0.2982508 -0.38072604 -0.5636574 -0.6282505 0.41842806 -0.6893492 -0.15618296 -0.79544777 0.7887495 -0.74642223 0.67925155 0.05975769 -0.17014262 -0.78547615 -0.6267863 -0.8007979 -0.857066 -0.6677039 0.055568025 0.14233135 0.016836762 0.74300456 -0.3302467 0.08642275 0.44435287 -0.5336189 0.6361326 0.6225285 0.8305926 -0.27642474 -0.78310734 -0.1300167 -0.59134054 0.582613 -0.37466308 0.72537804 0.26304394 -0.31543678 -0.5735521 0.059344124 0.03348726 0.39649427 0.5861502 -0.7723131 -0.14505488 -0.3634828 -0.23444697 -0.15170883 0.05726708 0.26081863 0.021190003 -0.60512733 0.78326964 -0.68784606 0.18596464 0.61294436 0.4613133 0.13564666 -0.20815718 -0.30145437 -0.10658603 -0.603279 -0.4621905 0.3254113 0.5610034 -0.06438428 -0.5701218 0.39162087 -0.27071732 -0.25617766 -0.49995765 0.011331556 -0.20227224 0.519731 -0.63559467
-0.10006775 -0.75210303 -0.3569831 -0.7974283 0.4618029 -0.77062666 -0.43404925 0.0736137 -0.3983578 0.9071376 0.30022174 0.6294351 0.24197468 0.3138151 -0.13543758 -0.6383757 -0.74546975 -0.40963635 -0.73526806 0.034379456 -0.48785627 0.38839793 -0.26737478 0.19317278 -0.5646693 0.75761604 -0.17370842 0.0748326 0.34729958 -0.7090868 0.116043925 -0.56406355 -0.7217819 0.71314526 0.42303744 0.64049524 0.2779667 0.25191194 0.37788954 0.2769344 0.81334627 -0.3407604 0.4256749 -0.4140101 0.47781533 -0.8644392 0.06765533 -0.26664883 -0.5259161 0.521574 0.4301872 -0.70606256 -0.5745904 -0.32779807 -0.36031356 0.5551732 0.5015956 -0.10066512 0.78399426 0.5684001 -0.66049546 0.36890292 -0.6563807 -0.23718998 0.18336666 0.022761373 -0.72260034 0.5499358 0.53143764 -0.5098738 0.30269304 0.20923907 0.70342 0.544935 -0.28177816 -0.33074665 -0.51884836 0.26650742 0.9873197 -0.25287044 0.66923636 0.19039048 0.29792047 -0.626559 -0.56577 -0.7171484 0.7972535 0.9625322 -0.89156973 0.37306017 0.015431353 0.89537704 0.35935768 -0.46365753 -0.53262585 -0.35609227 0.44538632 0.031001879 0.5455782 -0.94868356 -0.3231982 0.40746856 0.5072124 0.025428358 0.04382687 -0.4899193 0.047237214 -0.4882867 0.7720761 0.1914601 0.4565232 -0.723557 -0.55188024 0.09409312 -0.11334317 -0.8094141 -0.12839834 -0.2297186 -0.09322295 0.57389426 -0.9681673 0.14320634 -0.57950586 0.6765768 0.73767877 0.4132515 -0.35430133 0.7097915 0.5909073 -0.46899456 0.78832966 -0.5964694 -0.822535 0.78591174 0.86487514 0.66394377 -0.42197075 0.21889704 -0.15229213 -0.7558933 0.24691159 0.13275719 0.35324323 0.113443516 -0.38560846 -0.5177398 0.81886303 0.61461645 0.5048134 0.73119307 0.47791016 -0.13484247 -0.6848618 0.56323 -0.5157522 0.5870738 -0.5125893 -0.6140856 0.58649176 -0.3215156 0.81700987 -0.61394316 -0.4374721 -0.26778457 0.43466935 0.19777448 -0.066468515 0.7378964 -0.81788135 -0.4411844 -0.6240884 -0.45553154 0.38650066 0.56625825 -0.3248046 -0.5345393 0.30587652 0.7214737 0.08209725 -0.7739758 -0.21721151 0.5234322 0.84181076 -0.6314558 0.91324997 -0.4744762 -0.9933241 0.39808026 -0.38618055 0.75723416 0.62774336 0.8547524 0.6199754 -0.41219577 -0.35798553 0.67585534 0.56226104 0.6769623 0.48233074 -0.8914174 -0.847585 -0.5738892 0.78263706 -0.6847494 0.8793755 0.73413545 0.9253279 -0.38397625 -0.21319458 0.11828837 -0.43104973 -0.62653154 0.8561338 0.39667228 -0.34828278 -0.17470758 0.6458144 0.37486058 -0.7002268 -0.45441985 -0.21461497 -0.5163104 0.82585406 -0.79011875 0.05648625 -0.88820213 0.32487413 0.66890824 -0.1258144 0.6567044 -0.607435 -0.9749887 -0.80460083 -0.53439647 0.90041965 -0.027817016 0.5268514 0.14087155 -0.90702784 0.4828765 0.559728 0.15330468 -0.35084134 -0.7524357 0.31051925 -0.4488451 -0.32609648 0.89937633 -0.715269 0.4420397 -0.92658454 -0.80406886 0.2813465 -0.45673996 0.146157 -0.080096185 0.57269186 0.4939326 0.87633175 -0.20427597 -0.45355216 -0.62855655 -0.15303583 -0.77572954 -0.83727396 0.0827553 0.5481946 0.82417953 -0.48330143 0.5219382 0.730894 -0.436289 0.50922453 -0.06906407 -0.76865727 -0.123804025 -0.24232993 -0.70256895 -0.29308718 0.96147376 -0.5697391 -0.08030823 -0.2634393 0.36621633 -0.38483158 -0.709119 0.36423376 -0.7445939 -0.18238182 0.22251423 0.46453968 0.6829612 0.14502247 0.16775824 0.42724404 -0.2279996 0.7545355 -0.3652517 0.609104 -0.22821459 0.2647276 0.6307422 -0.16428268 -0.57287204 0.6019417 0.9407556 0.31874394 -0.81212914 -0.534413 -0.54523057 0.23535967 -0.76549274 -0.79131705 -0.7806741 0.08581827 0.5013587 -0.8136724 0.7628586 -0.37815556 -0.28349653 -0.32456413 0.35178968 0.40888536 -0.50723237 -0.2521517 -0.5733062 -0.10370438 0.40456876 -0.37506044 0.28842127 0.31070814 0.47787374 0.4565257 0.01126326 -0.29917425 0.7431329 0.8757392 0.5781639 -0.43435493 0.7076785 0.666344 -0.638672 0.04648375 0.65121204 0.5652525 0.2445175 -0.3114669 0.08570594 0.40668198 -0.46191272 0.5500811 0.69703746 0.64338905 0.7312595 -0.38745895 -0.67430156 -0.7813367 0.2232374 0.73603326 -0.46698773 -0.35467446 0.2132263 -0.1520014 0.3610769 0.71417713 0.50222206 0.8438255 0.26937193 0.42456833 -0.6906737 0.7204357 -0.58003527 -0.018341167 -0.8912828 -0.2656897 0.07414403 -0.29356933 -0.05975469 -0.5390231 0.0016254648 0.3633864 0.6278802 -0.80227584 0.19589137
0.57919604 0.55321485 0.5551378 -0.90024894 0.6486933 0.18629384 -0.320247 -0.8082672 0.65909296 0.9002049 0.3068298 0.98802483 0.5811868 0.5681114 -0.90360564 -0.52717876 -0.06978303 0.75080574 0.5813103 -0.74086344 -0.56708956 0.97269976 0.40608183 -0.13559397 0.56575215 0.62130576 -0.15923241 0.38331637 0.5020568 0.22726631 -0.3818746 -0.08096552 0.5763526 0.29053497 0.54608864 0.37736204 0.77664125 0.95757675 0.31156218 -0.4631382 0.59294957 -0.5754142 0.6307367 0.64570117 0.100256205 0.57881343 0.53448623 0.6201533 0.59518075 -0.23753387 -0.909359 0.6212301 0.6168257 0.5820049 0.16986436 0.41733786 -0.8199837 -0.09514731 -0.56470454 -0.5364957 -0.16002211 0.53441167 -0.5227852 -0.055891335 -0.47032076 -0.54156876 0.19486463 0.5562094 0.26669014 -0.21862635 0.54390466 0.7418082 0.54144424 -0.681299 0.43812737 -0.4180949 0.1579025 0.18638179 0.20383008 -0.5649483 0.16786566 -0.8988613 0.8703159 -0.75047433 -0.51662314 0.42497125 0.97332746 0.5514871 -0.33618233 0.5049515 -0.43152493 -0.511943 0.73271817 -0.01611304 -0.06899003 0.9425554 -0.6310733 -0.6568766 0.6571388 -0.57013136 -0.57496804 0.4735199 0.091308296 0.37141386 -0.020356912 -0.5931655 -0.59827787 0.5401762 -0.54890597 -0.4400844 0.41182905 0.9420425 0.22330385 0.3865209 0.30763954 -0.6850035 -0.45051557 0.16089082 0.003642507 -0.69456744 -0.965345 0.018316537 0.19028848 0.6870635 0.03575325 -0.6523365 0.8552971 0.55560046 0.46272168 -0.59055686 0.8340473 0.35416207 -0.704919 0.6832739 0.30524096 0.32555136 0.49299768 -0.62378937 -0.872807 0.1164332 -0.18985364 -0.34922048 -0.18650049 -0.6952984 -0.7693318 0.02052614 0.70417875 -0.05330956 -0.25562984 -0.939954 -0.89005613 -0.5882199 0.008000217 0.5515308 -0.5181895 -0.10556005 -0.20892358 -0.18946013 0.010605276 0.40527332 0.99473643 -0.8919873 0.7446387 0.57216465 -0.30228317 0.5730627 -0.73499626 -0.5493319 -0.39244905 -0.27324507 0.8169315 0.9585274 0.30924416 -0.066862136 0.5347029 0.83275056 -0.54679465 0.09314597 0.38652956 0.49421984 0.49987596 -0.50971156 -0.74753594 -0.03223309 -0.6308285 -0.58591795 -0.97467554 -0.7265565 -0.17533292 -0.30222756 -0.60591084 0.47889927 0.5530547 -0.62189937 0.5583327 0.3731653 0.95337164 0.0112944245 -0.5657364 0.71804357 -0.61466056 0.8390758 -0.18086106 -0.60038084 0.359839 0.5555664 0.1513449 0.17101255 -0.2499999 0.5454308 -0.1298281 0.061628193 -0.15689605 -0.046267733 -0.8849237 -0.29234117 0.7668356 0.16992944 0.49669516 -0.82227933 0.64806056 0.43525013 0.32602933 0.5129858 -0.5959295 0.88549197 -0.7531898 0.91902196 0.5857433 0.94395834 -0.60645056 -0.40429723 -0.13670409 0.19013667 -0.5898367 -0.49580488 -0.6014884 -0.76817864 0.64603823 0.22533308 -0.089294545 0.45163196 0.53890944 -0.62714314 0.5452165 0.30603963 -0.13687898 0.7130152 0.7120976 -0.5416263 -0.524152 -0.5918921 0.6445874 -0.98217833 -0.34922224 -0.36950937 -0.7855334 0.5446729 -0.21257943 -0.9889191 0.5137061 -0.47782475 0.42386553 0.68412906 -0.7057755 -0.13253859 -0.05143699 0.65886545 0.46171343 -0.8104226 -0.5386696 -0.5417935 0.5753363 -0.8263919 0.9459293 0.8173706 0.923177 -0.67368156 -0.71569026 0.6075237 -0.6475293 0.41633368 -0.3835751 0.4536292 -0.62405396 -0.6515887 0.09997639 -0.5395986 -0.51026917 0.6052642 0.536602 0.6996027 0.954017 0.532227 -0.9745875 -0.92397076 0.91508496 -0.67378306 0.8337673 0.4354509 0.38384682 0.2827797 -0.85225654 -0.90666616 0.66697454 -0.55273795 0.6557589 0.6237459 -0.65541124 -0.58285713 0.5854774 0.968214 -0.5898147 -0.47296113 0.49116573 0.5435539 -0.9435025 -0.16881281 0.7415511 -0.69279253 -0.9863773 0.6371524 0.22915673 -0.53511024 -0.33088166 -0.5318073 0.39885515 0.58846873 -0.8826103 0.38617948 0.6859752 0.9535035 -0.5430957 -0.58630717 0.050366044 0.97551286 0.23410419 0.538677 -0.8685403 -0.47889993 -0.36018294 -0.79196864 0.89980245 0.6194891 0.9767433 -0.56654006 -0.31230667 0.5455345 -0.092321664 -0.5477459 0.5276 0.5455321 0.57300776 0.99229515 0.82806087 0.55049026 0.35394698 0.5574957 0.6462307 -0.50678504 -0.7686546 -0.8820118 0.7635508 0.5498165 -0.33311933 -0.3819854 -0.5505686 0.55494785 -0.64642274 0.62503374 -0.71902514 -0.31790212 -0.573839 0.5341623 -0.94142985 0.69677615 -0.53885144 0.77729046 -0.60473526 -0.5497637 -0.57997465 0.45740354 -0.52358615 -0.6155262
0.43696925 0.059742182 -0.10362436 -0.8795531 0.14710103 -0.24835609 0.6794764 0.3621202 -0.50563717 0.792685 0.32567543 0.9796288 0.4967115 0.6357693 -0.75825906 -0.47646892 0.33729583 -0.64286613 0.46208566 -0.21361247 0.4196319 0.7114558 -0.055820882 0.7465986 0.12087324 -0.46673313 -0.52111036 -0.009765867 0.6044668 -0.50590914 0.063418895 0.26466167 -0.41922444 0.5746116 -0.38331062 -0.022948213 -0.12785378 0.48612502 -0.10661557 0.120204695 0.608859 -0.54464674 0.13130462 0.72616184 0.0815364 0.46969637 -0.38577777 0.4856392 -0.0888751 -0.43725672 0.49849492 0.464358 -0.5789153 0.4163153 -0.32076892 0.8457395 0.3685705 0.3554445 0.3444458 0.35790914 -0.33072144 0.051466107 -0.38193625 -0.5675885 -0.15866755 -0.51328194 -0.77004886 0.20988518 0.6353182 -0.06564657 0.5791933 -0.57382965 -0.71375537 -0.6740264 -0.35936272 -0.7435987 -0.53553283 0.44697425 0.7548827 -0.50546575 -0.3681438 -0.35179216 0.7249332 -0.38360518 0.038032815 -0.3403243 0.93192625 0.49117047 0.29701382 -0.16476402 0.6648201 -0.34986636 0.06640278 -0.47010422 -0.18228139 0.26154315 -0.073352695 0.51406235 0.7136951 -0.701813 -0.56043893 -0.34517112 0.8047945 -0.21654718 0.30970222 -0.40984225 -0.58419037 0.46050578 -0.24732493 -0.085965306 0.49263477 -0.29210314 -0.58190954 -0.040570453 0.37795973 -0.7269801 0.19214362 -0.3100754 -0.57123905 0.57536626 -0.94174314 -0.5119204 -0.34135428 -0.6791769 -0.14082171 0.6535018 0.6597782 0.6800113 0.62756145 -0.5320121 0.53282404 0.2843151 0.624755 0.8463254 0.5038048 0.22118796 0.53880566 -0.48476878 -0.4368105 -0.31148753 0.51485384 0.33779588 0.48998868 -0.874658 -0.5105504 -0.05276405 0.71013314 0.108434334 0.83367443 0.05928257 0.13687986 -0.34652182 -0.82794976 0.3790443 0.188216 0.5134863 -0.25235406 -0.46943498 -0.56156945 -0.5815573 0.9650856 -0.12863928 -0.021252133 -0.6015501 -0.7392599 0.54811597 -0.25650734 0.7398293 -0.64454377 0.042110264 0.4628217 0.56918395 0.2967563 0.7941283 0.755486 -0.7187333 0.17288628 -0.1301507 -0.46594232 0.44208145 -0.5585416 0.69357353 -0.16466925 -0.48072195 0.7513269 -0.089699194 -0.9757702 0.21400139 -0.41661674 0.695523 0.500497 0.39495337 0.5216208 -0.5042466 -0.6192589 0.286679 0.51322377 0.50022167 -0.46840388 0.21542911 -0.69619644 0.56627834 -0.076492 0.36929017 0.55216455 0.6303514 0.9036684 -0.21765025 0.3342811 0.31193873 -0.714214 0.30050227 -0.5436921 -0.6604046 -0.7965662 -0.4363969 -0.07311508 0.39907026 -0.8087132 -0.86807036 -0.51333547 0.33727697 -0.028222682 0.19340527 -0.5747388 0.36732697 0.66787845 0.29090816 0.42771035 0.6976404 -0.57742953 -0.8144133 0.15525863 -0.45164707 0.86870754 0.50168127 -0.6742471 0.68772143 -0.44091627 0.54204375 0.40304056 0.18183643 0.3843447 0.06134604 0.23074871 -0.6708962 -0.31669438 0.8129742 0.45949304 0.8875993 0.17173356 -0.6132362 -0.66076386 -0.79057384 0.38579488 -0.27262366 0.34161425 0.28729594 0.72017 -0.5704216 0.53263557 -0.34978822 0.36146188 -0.53367734 -0.46750438 -0.3069348 0.6947873 0.65531904 -0.109827384 0.36905771 0.50866073 0.52645415 0.20156635 -0.5388686 -0.72584057 0.75056744 0.66970336 -0.19807008 -0.82435185 0.75737137 0.1587879 0.45295835 -0.5821677 0.6384076 -0.6280277 -0.58469564 0.7367699 -0.07959749 0.3090014 -0.07499069 0.6465345 0.30982843 0.9234613 -0.55993843 -0.12988879 -0.60418904 0.9083284 -0.86257493 0.41928554 -0.4772549 0.15958284 0.43273032 -0.844416 -0.4991352 -0.35534638 0.14497787 0.4762858 -0.31273362 -0.57103455 -0.57185185 0.62202585 -0.028478444 -0.35286814 0.437635 -0.4263519 0.6707076 -0.60023856 0.5922003 -0.0032676011 -0.4585786 -0.97979176 -0.16697079 0.27577993 -0.58197325 -0.52366877 -0.5969218 0.42441353 0.6100874 -0.22924832 -0.45353222 0.093807735 0.07476769 -0.28081197 -0.6510462 -0.19009525 0.8100046 0.55039966 0.3993699 -0.7445314 0.4507234 0.17393355 -0.62865645 0.60194135 0.92498624 0.4874768 -0.5005676 0.02575875 0.30227518 0.5509138 -0.4288774 0.50972325 0.49068263 -0.27974397 0.9269495 0.14384529 0.4665058 -0.9236113 0.36058453 0.5646853 0.45977715 0.55421805 -0.64759153 0.38632023 0.01857765 0.5737515 0.54666567 0.18283573 0.6237854 -0.7555318 0.26165822 0.3037899 -0.2968406 -0.35586607 0.47460848 -0.8023221 -0.5002724 -0.52739716 0.11313081 -0.7216576 -0.06411141 -0.21800283 0.32381475 0.13853528 -0.74661034
-0.44756138 -0.39613247 0.17269862 -0.77518237 -0.31732255 0.15188733 -0.3014103 0.04885544 -0.17836198 0.8631459 0.794 0.99619526 0.56110036 0.9835751 0.50691175 0.87375414 0.9823282 0.8304829 -0.5896933 -0.97761786 0.82818043 0.999084 0.67710406 0.59866095 0.39672387 0.95418864 -0.51218975 -0.23363596 -0.66894716 -0.63558483 -0.35079125 0.56692356 -0.985294 -0.27916318 -0.40249255 0.21886054 0.7732355 -0.16472667 -0.099815026 -0.6850959 0.8260854 -0.9354019 -0.4937734 0.60132587 -0.20540145 0.58739066 0.61835325 -0.98492956 0.3786088 -0.882166 -0.15175343 0.8349676 0.95429474 0.89263564 -0.022821967 0.9369222 0.8574195 -0.9246841 0.44804132 0.99588436 -0.96661836 -0.19500497 -0.43055707 -0.36417282 0.2592366 0.26882014 -0.9506823 -0.8226137 0.4774509 0.95836717 0.5629425 -0.8304371 -0.2316239 -0.6999528 0.90100276 0.701468 -0.95550025 -0.5886349 -0.9179193 -0.31175345 -0.9786041 0.7283082 0.66581076 -0.40881115 -0.4694945 -0.046475735 0.85184014 -0.51557535 -0.6003731 0.4508203 0.7142415 0.97279215 0.50945127 0.48875272 -0.3763411 -0.35019284 -0.5517468 0.6608457 -0.86461014 -0.30524704 0.3451231 -0.43762192 0.17567259 0.70512545 0.90042555 0.361159 -0.6779815 0.2912973 -0.7789397 0.2898243 0.52887917 -0.9173254 0.8919784 -0.60337305 0.9840176 0.26939532 -0.92039233 0.68241185 -0.68072623 -0.9346889 -0.33830136 -0.8206156 0.67545426 0.9791366 -0.8060936 0.9791171 0.994435 0.63630664 0.3371336 -0.50357753 -0.6273139 0.6533325 -0.36995447 0.02247142 0.4328647 0.79512113 -0.29576564 -0.8527416 0.13312055 -0.65545744 0.16151257 0.7335717 0.32075217 -0.23667523 0.967568 0.5891217 0.6903214 0.59424734 -0.83027446 -0.87761223 0.7439813 -0.5925225 0.7827733 -0.8610562 -0.9597154 0.5307452 0.9057863 -0.8785053 0.79942966 -0.9731558 0.8096027 0.7729856 -0.65236354 -0.095045164 -0.3870334 -0.122349426 -0.33574677 0.9396114 -0.54706323 0.9932012 0.57706994 -0.38289583 -0.098127946 -0.22688708 0.793163 -0.82933235 -0.7712252 0.5870252 -0.48257905 -0.56706816 0.71186024 -0.4918892 0.81668794 -0.8213962 0.23222777 0.97341686 0.013928138 0.41187316 -0.10939172 -0.22375546 -0.23071392 0.13163102 -0.8820915 -0.02089791 0.93776584 -0.9462234 -0.9012083 -0.19450879 0.31906778 0.8815662 -0.9587946 0.95278424 -0.37899393 0.3273145 0.8173891 -0.42221808 -0.7605106 0.06308585 -0.34067324 0.6407363 0.21998833 -0.087868676 -0.063502535 -0.31466624 -0.9877644 -0.8034523 -0.5189711 0.56512403 0.23552765 0.46082506 0.24433431 -0.51186186 0.61773884 -0.99169964 -0.37951466 0.9496858 0.70377564 0.8442966 0.8243819 -0.37324467 0.97687906 -0.118471846 0.19790266 0.8012841 -0.940179 -0.9590101 -0.58555776 -0.81342375 0.1447712 -0.9806659 0.11041717 -0.83436877 0.7162135 0.18689895 0.37602115 0.25571534 -0.40415242 -0.33865115 -0.31453264 -0.5898801 -0.9379808 0.8215313 0.19609155 -0.7667324 -0.0934293 -0.2212586 -0.47534204 -0.5655353 0.6279918 0.58466446 0.61377585 0.8356003 -0.9516092 -0.1213199 0.5458898 -0.8707354 0.99282265 -0.043879554 -0.6496757 -0.86296624 0.9785424 -0.763184 -0.78051156 -0.15697408 -0.6670329 -0.33752725 0.64753795 0.30481538 -0.73232794 0.0123550445 -0.6234548 -0.80133164 -0.6647477 0.08237923 -0.2554223 -0.6873818 0.1704898 -0.6984862 -0.135048 -0.87972915 0.5801152 -0.2897144 0.34980333 0.108590975 -0.8333657 -0.7919097 0.99103177 -0.19135408 -0.30579865 -0.07414241 -0.9578483 -0.8107224 -0.20892428 -0.26816362 0.6490565 -0.5430811 0.90901434 -0.90068173 0.9374276 0.70546764 -0.12412113 0.2924156 -0.30343208 -0.8414245 -0.71756136 0.94671726 -0.8482715 -0.9265389 -0.32897455 -0.8488971 -0.9835993 0.8173344 -0.08778251 0.024526335 0.9476065 -0.2076728 -0.6664588 -0.66568756 -0.79984045 0.37388927 -0.26378435 -0.936441 -0.891591 0.4543689 0.94433093 0.47292823 -0.07534353 -0.7222158 0.7464125 -0.23831668 0.5157963 -0.6061497 -0.6906161 -0.46623892 0.4798944 0.64368606 0.7424416 -0.9918695 0.3535119 0.9753076 0.97752726 0.4798576 -0.3692752 0.57495373 0.64796686 0.20453095 0.73622984 0.16332263 -0.058325984 -0.62106484 -0.0031413585 -0.9961553 0.61825174 0.13394687 0.05331529 0.76608044 -0.56131244 0.31861252 0.28596938 0.30509216 0.061109785 0.009447973 -0.025861874 0.4480171 -0.17550713 0.7704036 -0.071532704 -0.70831823 -0.5479864 -0.516555 -0.7835626 0.7062568 -0.41931593 0.6894321
-0.5694223 -0.5484581 0.903885 0.3486033 0.25716975 0.22244862 0.25142115 0.800449 0.17825255 0.92785287 -0.16741818 0.430447 -0.24693862 0.6738184 -0.73882884 0.31891656 -0.28873575 -0.41284925 -0.8259333 -0.18372473 0.62793493 -0.28170216 -0.08842156 0.72800463 -0.7008945 -0.40124005 -0.41511 -0.056666017 -0.53949594 -0.5847062 -0.76236963 -0.7856089 -0.50444144 -0.7613342 0.36850297 0.34574273 0.5582037 -0.7280419 0.7168948 0.42010733 0.6617929 -0.48724476 0.97827876 0.75291544 0.38245526 -0.14271064 0.234193 0.30738977 0.81207764 -0.020782927 0.57675517 0.68404025 0.9197149 0.51695585 -0.29099318 0.053986717 -0.22104041 0.17544654 0.018128345 0.9120044 -0.4314286 0.0022689062 0.30907673 -0.8374712 -0.57291764 0.15144695 0.41848776 0.97238445 0.6175197 0.08061221 -0.5160038 0.13728084 0.29056376 -0.41458738 0.25631422 0.006142618 0.15624593 0.5204442 0.34893233 -0.24170993 -0.002252937 0.48657048 -0.2163507 -0.50164294 0.695202 -0.18211848 0.29333806 0.5809478 -0.87780386 -0.47341675 0.48539278 0.55022675 -0.68563896 -0.7135938 -0.739165 -0.71906227 0.6661818 0.8382347 -0.6033784 0.388739 0.58241695 0.87623954 -0.20176424 -0.24020983 0.83440834 0.3593063 -0.65640396 0.08195873 -0.10775574 -0.8065346 -0.24174753 0.16076522 -0.69731015 -0.33245823 -0.1303027 0.88277423 0.7815046 -0.8605701 0.56553483 -0.86354274 -0.25374028 0.8058043 0.823863 0.7068065 0.27059552 -0.40458214 0.9034997 -0.17766711 -0.6151521 -0.15524828 0.5880636 -0.4448076 0.10980458 -0.7846466 -0.61015743 0.61098397 0.37393352 0.02482304 0.82589215 -0.018732904 -0.41834012 0.2751826 0.06667606 -0.8801051 -0.6719892 -0.3082926 0.2955352 -0.90408075 0.140033 0.89183664 -0.6210383 -0.45525035 0.2492986 -0.31759557 0.118136674 0.42881754 0.88131243 -0.24872433 0.57267314 -0.2711413 0.07993487 0.5729589 -0.070063226 0.8523772 -0.041358687 -0.83754313 0.5841446 0.5132991 -0.48728037 -0.66635257 0.2618178 0.54499125 0.36342722 0.67651504 -0.6137988 -0.91916806 -0.2075416 -0.24334076 -0.45130792 0.3512677 0.49402305 -0.89278513 0.77640224 -0.6968544 -0.14973906 -0.0880689 -0.27182394 0.287288 0.8757806 0.9548217 0.53792655 0.6141678 0.6780843 0.18806052 0.37405998 -0.20917335 0.115700975 0.71716946 -0.3803185 -0.46139088 -0.57936615 -0.19951394 0.43207803 -0.64072233 0.80572844 0.034517504 0.7951427 -0.4635352 0.52722806 0.8481235 0.314005 -0.71221983 0.937678 -0.23110925 0.5524718 -0.22576873 0.12011176 0.39460054 -0.34501046 -0.39648062 0.8868323 0.30220148 0.30717933 -0.5819217 0.46970353 0.88947636 0.20053008 0.8624449 -0.030098941 -0.6768557 0.26983583 0.81115854 -0.41099715 -0.41432595 0.0056380713 -0.8368513 -0.6868526 -0.47456414 -0.705289 -0.099750526 -0.014451718 0.38805237 0.0346757 -0.28547147 -0.31766745 0.4926006 -0.6863076 -0.38324964 -0.9413961 -0.19423458 -0.8696522 0.58881515 -0.26556298 0.86937314 0.595072 0.96484095 -0.6861075 0.8398447 -0.6533001 -0.100265756 -0.2236494 -0.42008647 0.5475867 0.22240165 -0.057638198 0.57941616 0.076043956 -0.3154093 -0.9096657 0.013732485 -0.14605147 0.68115216 0.04871479 -0.8083249 -0.92812216 -0.760595 -0.91643876 -0.1743142 -0.5725554 0.95632756 -0.80599076 0.16362903 0.029738868 0.4536598 0.06962545 -0.58217925 -0.6360872 0.6524135 0.1776061 -0.82191926 -0.39078712 -0.7575541 -0.41749874 -0.5684734 0.40605265 -0.01972729 0.7159054 -0.16869637 -0.043829173 0.39027798 -0.2635477 0.6258826 -0.40069047 0.26965934 -0.5911138 0.70329046 -0.4943846 -0.4032632 -0.11247062 -0.69505346 -0.87666047 -0.6675483 0.12408218 -0.28258052 -0.5576808 -0.4635203 -0.5580661 -0.50970334 -0.81257904 0.13880521 -0.6565711 0.039535236 -0.561136 -0.5139983 -0.058122523 0.65734726 0.81995815 0.050432462 -0.023559945 0.26983297 -0.24189077 0.046989862 -0.6274444 0.84646493 0.44606084 -0.82220024 0.25357646 -0.51447886 -0.62666994 -0.3822172 0.56018645 0.017402947 0.7831389 0.8251639 -0.90974605 0.72161794 -0.44053257 -0.764797 -0.6547907 -0.24852486 0.28918 0.2423907 -0.93307 0.84020984 -0.058098994 0.23258428 -0.77518857 -0.34491017 -0.16375987 -0.17196257 -0.024345694 0.6025218 -0.8985308 0.028163407 0.64300334 0.16544652 -0.20086291 -0.5687359 0.52220327 0.23700793 0.7541413 -0.3917945 0.8261111 -0.4002364 0.8777978 -0.005400532 0.088131055 -0.010829011 0.28504357 -0.55835414 0.79762834 -0.8628772 -0.60296905 -0.574183
0.41147137 0.19131179 0.2860164 -0.13335611 -0.44868878 0.37910452 0.81314445 -0.46841687 0.6011106 0.7413427 0.71904564 0.87147474 0.91487026 0.75548136 0.44764918 0.8617135 0.6908461 -0.05189137 -0.4936811 -0.73837245 0.832563 0.84077287 0.76670015 0.8411988 -0.1947778 0.8866041 -0.40756395 -0.25648794 -0.39927205 -0.9102557 0.11272864 0.60837245 -0.33510965 -0.7009659 -0.77045864 0.4120343 0.7182351 -0.42746255 0.08492884 -0.8067462 0.65774536 -0.48476583 0.71222025 0.18149358 -0.16622968 0.2292585 0.74411 -0.8643247 0.9383397 -0.48512036 0.6340147 0.45506796 0.8210051 0.60696715 0.48259106 0.2786978 0.34103894 -0.39587927 -0.5286943 0.95697945 -0.61508095 -0.16595884 -0.7578248 0.7987888 -0.72043705 0.09819366 -0.7268888 -0.55980736 -0.7549579 0.76347154 0.5800395 -0.47002965 0.56579876 -0.083281785 0.59750235 0.5421441 -0.651665 -0.30455157 -0.4438759 0.18357566 -0.79728043 -0.6676861 0.4330904 0.51145506 0.46056294 -0.4258174 0.9300154 -0.8239696 -0.24639946 0.6350448 0.26805377 0.43878952 -0.320957 0.38971487 -0.15112701 -0.76072764 -0.15125199 0.8630903 -0.7756496 0.27731985 -0.26403978 0.4850664 -0.93951225 0.7444217 0.75148517 -0.21331216 0.70705855 -0.6324863 -0.16178867 -0.66513836 0.32887942 -0.52115726 0.5847645 -0.68638253 0.11418292 0.47032782 -0.86196876 -0.41550177 -0.08612937 -0.8503978 -0.5435095 0.7771061 0.51982796 0.95320547 0.81124425 0.25714105 0.58911395 0.01579921 -0.39933813 -0.3262993 0.6010473 0.64171463 -0.14911468 0.25369555 0.14909384 -0.22160183 0.24368829 -0.1843078 0.16832355 -0.48330855 0.16866702 0.8210188 -0.60235584 -0.8077471 0.6536881 0.32620376 0.5555515 -0.6956688 -0.5620843 -0.5621523 0.11577633 -0.5868238 -0.075927086 -0.3169005 -0.58546275 -0.7566315 0.533467 -0.6348871 0.15178114 -0.8598825 0.4939692 0.41650176 -0.46884388 0.81315416 -0.7843658 -0.54426855 0.27449524 0.74895096 -0.61476856 0.24334618 -0.49995857 0.77383596 0.016415164 0.0001859963 0.6520199 -0.8785006 0.79455435 0.092466384 -0.7001158 -0.22515282 -0.20726553 -0.73046094 0.8602986 -0.6036471 0.32298115 0.71768343 0.1307809 0.6566967 -0.21760663 0.22114396 0.4374837 0.2760356 -0.44969139 0.15617064 0.75753754 -0.7236233 -0.4996279 0.63099414 -0.42166033 0.6447977 -0.617412 -0.29539788 -0.15893123 0.8343018 0.7604805 -0.59839773 -0.3082919 -0.03857591 0.6557907 0.09865651 -0.78644055 -0.2689778 0.5619364 -0.5231502 -0.6773454 -0.27396756 -0.8545234 -0.033705585 -0.6562979 0.6419877 0.38890004 -0.40139782 -0.1060957 -0.7321814 0.28094485 0.725648 -0.48878354 0.8151694 -0.0748357 -0.20287788 0.7698716 0.28410256 0.23995274 0.34755284 -0.3260724 -0.84512484 -0.36744255 -0.3766521 -0.8946742 -0.8567288 -0.76800406 0.4041237 0.66848403 0.05644922 0.737659 0.5099477 -0.23913714 0.4301257 -0.23224613 0.065702066 -0.7586719 0.6673405 -0.6457044 0.41855022 0.52899945 0.63141584 -0.37263763 0.17334081 0.24883424 0.9062242 0.039973274 0.64089465 -0.51197535 0.9096831 0.72970855 -0.036104918 -0.28775182 0.49474603 -0.44592094 -0.82763267 0.9119078 -0.15320268 0.41296107 -0.4350877 -0.8271657 -0.6564841 0.20380849 0.12160488 -0.7814951 0.52490705 0.10477202 -0.8523166 -0.12198415 0.02767849 -0.41108173 -0.36974055 -0.6413949 0.48258084 0.3448391 0.31885678 -0.67718136 -0.5304917 -0.5534596 -0.7874452 -0.72937083 -0.33906087 0.8886827 0.6519133 -0.509148 0.13010225 0.5193069 -0.4417556 0.6753679 0.7252182 0.4113813 0.118879214 0.6399406 -0.3843881 0.7283958 0.65346503 -0.34459546 -0.66144043 0.32056358 0.2646193 -0.81700325 0.488661 -0.7111499 -0.36077178 -0.0110419355 0.08766996 -0.7948131 0.12320832 0.7395501 -0.09572901 0.75425017 -0.14961766 -0.05634655 -0.7729006 -0.71602273 -0.2540527 -0.36721882 -0.85132116 -0.0603005 0.31412375 0.92004114 0.5389051 0.005229708 0.18105188 -0.5207659 0.8439578 -0.75798184 -0.814142 -0.6511322 -0.57643104 -0.058889978 0.023462504 0.60735226 -0.73306423 -0.73658705 0.45509157 0.79933 -0.8110447 -0.6624062 -0.29613227 -0.45312947 -0.3996349 0.010585815 -0.62629235 -0.1219199 -0.6144724 0.01884583 -0.70605063 -0.42589206 -0.43808138 -0.53882056 0.5846224 -0.17001617 0.42772645 0.71080947 -0.661192 -0.6387085 -0.5248157 0.45278424 -0.37020338 0.39628565 0.14411937 0.775052 0.03317093 -0.8396443 0.85610294 -0.6734189 -0.31288213 0.3234325 0.33552957
-0.2534333 0.048534095 0.5974484 0.17008948 0.2946394 0.1551108 0.54636604 -0.18333697 -0.61704993 0.087301165 -0.21436888 0.57646334 0.77295876 -0.20040253 -0.01703903 0.21317306 0.69122344 0.6547197 -0.20662463 -0.52284646 0.76306707 -0.111290574 0.5971361 0.8554081 -0.7406275 -0.014378071 -0.6448524 0.06730892 -0.57188797 -0.76279473 0.36683118 0.3995862 -0.2548928 -0.69834435 0.17049754 -0.12654589 0.36151567 0.140688 0.38699597 0.27660847 0.35340464 -0.43179387 -0.20641366 0.32271323 -0.828833 0.37688652 0.27151924 -0.16660422 0.29270953 0.19050786 -0.2187236 -0.12764043 -0.28862005 0.65052915 -0.5460391 0.39529923 -0.3459404 0.61536145 -0.16391292 0.37330517 0.2544143 0.4538497 -0.110166706 -0.04961612 0.046029076 -0.5733142 -0.7890642 0.52688086 -0.56757843 0.71039647 -0.5076381 0.38824192 0.2181003 -0.50808334 0.40571204 0.6564334 -0.01489073 0.15836403 -0.4146791 0.76731884 -0.53451115 0.2448861 -0.28101146 -0.31537104 -0.41731024 0.14495116 0.84859574 -0.6927068 -0.22080494 0.40699655 0.22886942 0.16198708 0.7032747 -0.122384295 0.18099824 0.28281453 0.42030352 0.38200003 -0.2689628 0.3855638 -0.6849332 0.82653177 -0.69217604 -0.060570642 -0.20165724 -0.7388518 0.56133455 -0.07501939 -0.18356977 0.15502003 0.69115674 -0.25583923 -0.37324053 -0.53478396 -0.5349104 0.722528 -0.47366953 0.72311765 0.2502029 -0.44948512 -0.7829311 0.06222774 0.53902423 0.3785982 0.8962414 0.26656166 0.038813412 0.6238899 -0.46863973 0.16226491 -0.27511498 0.14870414 -0.054026872 0.24269101 0.045982115 -0.17498095 0.2531175 0.49909553 -0.08921296 0.091236174 -0.23134907 -0.17615962 -0.7504252 -0.72236586 0.07284418 0.3635784 -0.61818564 0.060649134 -0.26230413 0.051243104 -0.024531499 -0.49688524 -0.1548779 -0.22363578 -0.15419213 -0.14089802 -0.030707315 0.23386164 0.009716719 -0.1439209 0.71789324 0.20107722 -0.4803723 0.43080413 -0.5511155 0.28993565 0.4742719 0.30306664 0.0058296323 0.119151935 0.33743963 0.3042771 -0.3894391 0.69659305 0.46999866 -0.74258304 -0.66691685 -0.0013623983 0.54171693 0.27715522 0.52030176 -0.3583832 -0.07919972 -0.35083407 0.5765648 -0.026495129 -0.6871946 0.07820314 0.009988993 0.08555395 0.5993782 -0.15317565 0.1639699 -0.49721175 -0.2402528 0.10690298 -0.15323484 0.5636356 -0.6353489 0.26858193 -0.45454574 0.50548476 -0.37673718 -0.21054086 0.073741466 -0.2949319 -0.33374983 0.12968048 0.48332557 0.36997 -0.3242517 -0.30333465 0.627995 0.09437348 -0.32891583 0.18628964 -0.6405322 0.16369349 -0.05816089 -0.21027295 0.6840884 -0.2075954 0.11238859 0.23074952 -0.18411613 0.19395886 -0.41856217 0.8499008 0.588891 0.028282717 0.04802633 0.08297235 0.579752 0.26917058 0.36069924 -0.05607207 0.10666828 -0.09840971 -0.57840556 -0.46727768 0.014788121 0.12748793 0.585071 -0.39773548 0.4421474 0.732365 -0.5080356 0.5015216 0.13495077 -0.49916327 0.0744196 0.29433817 -0.6461674 0.76708406 0.024561688 0.7343728 -0.48308262 -0.09305038 0.47754714 -0.11644898 -0.3495105 -0.18526278 0.14265898 0.6437289 0.47431073 -0.49986276 -0.6127872 0.66773057 0.59458333 -0.004931599 0.5683203 0.18658933 -0.054388717 -0.53023505 0.11658096 -0.81474 -0.62934303 0.17147736 -0.120244876 -0.1594967 -0.23719376 0.012031674 0.2021424 0.68173325 -0.28375277 -0.68729717 0.3948217 0.26716316 0.0670055 -0.23558025 0.03678598 -0.08248402 0.4623998 -0.6864388 -0.832286 -0.1965119 0.6078147 0.1584706 -0.8100747 0.16225603 0.82290375 -0.04943126 0.4005572 -0.41256124 0.26703024 0.56750757 0.66616696 0.057288226 0.37935287 0.18373801 -0.05120725 -0.020285621 -0.5034116 -0.44309366 -0.81755185 0.39966694 -0.27929202 0.17030457 -0.34851518 -0.037849244 0.2589178 -0.57231605 -0.25454962 0.08628612 -0.49600813 -0.54600143 -0.54226494 -0.09927322 0.361243 0.15241185 -0.19461796 -0.61130977 -0.5155809 0.87826693 -0.2603269 0.43676507 -0.41956174 0.42267022 0.21811755 0.70987546 0.22038311 0.19710338 0.37472168 -0.8137237 0.4966467 -0.22943144 -0.5626242 0.2252931 -0.66887534 -0.30936247 0.40645683 0.3523585 -0.623209 0.54434067 0.42488763 -0.6011324 -0.046951946 -0.51073223 -0.2093289 -0.22736616 0.45174783 0.31358698 0.2432219 0.14573771 0.7648723 -0.07557334 -0.19570118 -0.6041517 0.2641991 0.038617432 -0.7764081 -0.58745885 0.7421176 0.10786011 0.16836555 -0.13634649 0.6931492 -0.31632972 -0.0030320585 0.28903785 -0.01265762 0.068243004 -0.010916213 -0.2829696
0.109037384 -0.6825627 0.124061435 0.2434098 -0.6550234 0.45480815 0.044179514 0.6772958 0.8392894 0.50638497 -0.076907456 -0.30505437 -0.20513138 0.40151048 -0.026456412 0.54346466 -0.28951788 0.7521064 -0.7571149 0.75038606 -0.370098 0.14399312 0.1220365 -0.48404503 0.14061075 0.49520326 -0.087710515 -0.3705555 -0.6601001 -0.86895365 -0.6954466 0.27574414 -0.18704283 0.6331537 0.49588266 0.23633489 0.2736018 -0.01988107 0.09867357 0.070219345 0.21577916 -0.2090732 0.18956415 -0.5452198 -0.4232642 -0.25729275 -0.5544972 0.34348795 -0.42493075 0.40998393 -0.38888177 0.37383908 0.22401951 0.85181195 0.28705853 0.33360326 0.058452137 -0.62380445 0.4653337 -0.509386 -0.05863163 0.8849466 -0.42206806 -0.031340748 -0.7106727 -0.034774363 0.20103692 0.69754446 0.29762357 0.39483446 -0.03213319 0.066287026 -0.22416686 -0.35347754 0.42801145 0.6611347 0.21762444 0.080432825 -0.11434616 -0.01664696 0.4567421 0.34315097 0.24153227 0.5464646 -0.24013317 0.03745033 -0.014072135 0.25760162 -0.35248446 -0.43088064 -0.75514686 -0.56788075 0.7279085 0.14730448 0.5365651 0.45202833 0.36069778 -0.25594792 -0.5558373 -0.80891156 0.4232179 0.3294328 -0.2983144 0.53524673 0.6652221 0.28791696 -0.6953821 -0.29734987 0.5154903 -0.22283638 -0.12337927 -0.7375641 0.48391253 0.53081256 -0.34764194 -0.26997083 0.3150948 0.8427453 0.36063948 -0.6074884 0.0599768 0.74665225 0.08808093 0.5396242 -0.33693725 -0.120892145 0.460608 0.14566617 0.79202044 0.20988032 -0.54564035 0.825717 0.04330103 -0.21030088 0.3982981 0.52560705 -0.19323629 0.09877653 -0.12803046 -0.12890053 -0.15708485 -0.68036425 -0.6286345 -0.883469 -0.27336672 -0.31714272 0.60160017 0.36302882 0.3306437 -0.5627561 0.076295376 -0.11314124 0.6609261 -0.78562486 -0.29747364 -0.4492721 -0.5803834 -0.22775069 0.12619331 -0.56975865 -0.17064461 -0.35061863 0.33959854 -0.027911365 0.6321578 0.7287837 -0.090121165 0.14029257 -0.16687903 -0.37634116 -0.437008 0.010468125 -0.6755427 0.64073944 0.26591498 -0.24482681 -0.48619872 0.24511962 0.77715707 -0.17308095 -0.11999924 -0.8287902 -0.18906084 0.2659943 -0.42066315 0.20702249 0.5908963 0.65136707 0.8481743 -0.60760677 -0.3848993 -0.21213888 -0.6757474 -0.04654514 0.25190467 -0.41432202 0.26528284 0.5166509 -0.19386806 -0.13053626 0.25094908 0.22463864 0.35017878 -0.6004989 -0.58233 0.087159544 0.08536658 -0.5357041 0.90305793 -0.20101056 -0.35651267 -0.054314725 0.09762237 -0.082765184 0.26356614 -0.52387035 0.17205992 -0.27340016 -0.43766844 -0.3706202 0.63631785 0.32590246 0.3443219 0.28587747 -0.77831876 0.6069744 -0.49416396 -0.02816917 0.23353063 0.06642474 0.6147515 0.38546705 -0.2829253 -0.04807224 0.019495316 -0.13243955 -0.755278 -0.2845127 0.013437286 0.4277023 -0.09611818 0.4109156 0.74115115 0.5123117 -0.22647573 -0.2459902 -0.042652622 0.30509192 -0.9698721 -0.8324685 -0.6503834 -0.59962285 0.7765347 -0.15426028 -0.056976523 0.32652426 -0.0274449 0.4876141 -0.18543163 0.621318 -0.6766061 0.033878207 -0.72503567 0.17746332 0.018550228 0.006125696 -0.25936148 -0.5676726 0.707989 -0.663494 0.2817685 -0.31651413 0.05330485 0.4273761 0.6068517 -0.67481846 -0.38850075 -0.0384313 -0.21357602 -0.40163845 -0.09864134 -0.86424196 -0.00733901 0.7702233 -0.47455978 -0.21620923 -0.57849103 -0.83733433 -0.7636628 -0.019337669 0.732254 -0.3821881 0.3820644 -0.5394599 0.607804 -0.5282521 -0.4831571 -0.3167153 -0.62740266 0.3628105 0.39865056 -0.4827547 -0.477191 0.22758174 0.5875268 0.34377864 -0.6022762 -0.38748616 -0.9323496 -0.400269 -0.90853965 -0.3969641 -0.12056486 -0.20307967 -0.276547 0.13862278 -0.058036644 0.6364882 0.82703424 -0.36808348 0.05860699 0.74528146 0.5599916 -0.4045155 -0.050703637 0.35203338 -0.10354629 -0.5723591 0.50926423 -0.21139547 0.26035738 0.5850954 -0.02831551 0.21877097 0.20439553 -0.4076508 0.31079537 0.3314162 -0.01459536 0.82366824 -0.6434026 -0.40743944 0.5039555 0.44501114 -0.634006 -0.14711761 0.53049695 0.21566218 -0.7424615 0.23353669 0.084633395 -0.6811719 0.85354805 0.8736521 0.13695723 0.38813722 0.53262854 -0.33673742 0.63100624 -0.2509531 0.7837739 -0.3480434 0.15419677 -0.015253341 -0.31908748 0.09068094 -0.24938685 0.087622754 -0.32223517 -0.57380134 0.007440407 -0.5128078 -0.29790002 0.43867835 -0.64501333 0.10947028 -0.658177 -0.12227428 -0.56803465 0.38299382 0.55989337 0.27516365 -0.4641822 -0.37719837
-0.16568196 -0.6419134 -0.45516574 -0.3197364 -0.52352166 0.12039937 0.587639 0.49753803 0.5590238 -0.29634205 0.29315996 0.5326515 0.19491741 0.9327415 0.3928971 0.45175856 0.42537546 -0.23056838 -0.8154955 0.40486062 -0.06588056 -0.8152581 0.38681123 0.21013284 -0.06983739 0.31093562 -0.3208297 -0.25899386 -0.49358833 -0.45957643 0.5811112 -0.25342172 0.19288701 -0.1828407 -0.36842996 -0.2707042 0.13749707 -0.7633287 -0.015148357 0.43462852 -0.08897574 0.22486095 0.3761599 -0.09282647 -0.33737516 0.019410923 -0.6338811 0.13099441 -0.078971386 0.7939923 -0.12919071 0.27628663 -0.48243317 0.3981088 0.02635593 -0.614393 0.34269977 0.5159547 0.0034977794 -0.24255693 0.7021332 0.82151616 -0.26643085 -0.5602797 -0.4564397 0.45286804 -0.62936115 0.67832536 0.4664893 0.21118113 -0.24226177 0.1084686 -0.5355955 -0.52910966 0.019509718 0.50570977 0.1584921 0.21169557 0.4493428 -0.4973222 0.22928348 0.055583913 -0.40218747 -0.40809897 0.081955954 -0.6739533 0.1672268 0.18428278 -0.6254164 -0.9411521 -0.5164342 -0.022372246 0.76341003 -0.05798562 -0.12127752 0.7031826 -0.08515657 0.47036362 0.07228062 -0.32189554 -0.48130006 0.27786434 -0.61068946 -0.37211567 0.63791287 -0.100212425 -0.508406 -0.66306293 -0.19668263 0.71913487 -0.36323953 -0.2777776 -0.23867029 0.32006055 0.24838078 0.83793616 0.06404318 0.49893534 -0.061124004 -0.7974602 -0.19229943 0.7706411 -0.09388851 0.10399618 0.54382926 0.23275524 0.27378482 0.113315225 0.17865163 0.04526595 -0.5184054 -0.20077561 0.05180178 -0.21921651 0.25375023 0.14165235 -0.22711313 -0.17735425 -0.3704024 -0.5400792 -0.45817867 -0.22494137 -0.5148892 -0.7925725 -0.9004009 -0.5274284 -0.15296729 -0.12223078 0.41613242 -0.12093856 0.57650924 -0.16951947 0.5191163 -0.78503716 -0.51045763 -0.5218752 -0.094050445 -0.33944848 0.68857265 -0.301193 -0.28503063 -0.5582777 0.84310687 -0.6069511 -0.63545203 0.49855998 -0.1688253 -0.7812608 -0.24932852 0.058764726 -0.31937417 0.65598387 -0.58735526 -0.08984579 -0.31690168 -0.50794953 -0.30504933 -0.15250999 0.8551232 0.08114036 0.21577072 -0.88725674 -0.7835299 -0.5955682 -0.25822645 0.45280254 -0.11768442 0.5315896 0.8708602 -0.2444207 -0.24903876 0.75421864 -0.14809255 -0.29283366 -0.43355596 -0.3842728 -0.87493634 0.3544686 0.17383365 0.013065338 -0.31740084 0.13680364 0.3488386 -0.45736527 -0.73450434 -0.6449496 0.3272018 0.5413902 0.10471049 -0.276403 -0.851856 -0.52021384 -0.08465481 -0.8047748 0.017987862 0.6509919 -0.1909942 -0.14949028 0.16514818 0.29362255 0.65915453 -0.38711733 -0.42588055 -0.044895004 0.18946013 0.77072346 -0.8759567 0.5842057 -0.21582116 0.19981988 0.30984187 0.14366038 -0.5736838 -0.2195369 0.7690127 -0.025863012 -0.5143089 0.25146845 0.7302171 -0.1942448 -0.2501833 -0.05124642 0.23106349 0.17300498 0.45188844 -0.36106864 -0.41176742 0.06800696 -0.7047221 -0.6682527 -0.31709325 -0.55842865 -0.10479771 -0.3613033 -0.14359125 0.29458615 0.029871285 0.26528072 -0.20219485 0.27187485 -0.5266115 0.89687896 -0.4925248 -0.51059914 0.10689323 0.17901461 -0.58698106 0.5078513 0.033235475 -0.63820064 0.25769603 0.8403739 0.061446335 -0.5652334 -0.26884353 -0.34063876 -0.027469568 0.2724527 -0.4916499 0.09942376 -0.22962674 -0.8136425 0.017940849 0.7401368 -0.04174733 -0.05460164 -0.5163283 0.6000886 -0.2209033 0.6642194 0.3059048 -0.579648 0.37059456 -0.46392536 -0.67971426 -0.18051887 0.032659486 -0.39336237 -0.69585496 0.10893209 0.4413063 -0.6055649 -0.30032396 0.30153543 0.49007773 0.9440398 -0.34451002 0.014553025 0.18135673 0.21985313 -0.43659848 -0.19591193 0.054592244 -0.87668407 -0.6529453 0.7828759 -0.7534812 0.63470376 -0.6332332 0.067587614 0.486867 0.09140442 0.0073853396 -0.28860062 -0.18480714 0.1423097 0.29599568 0.77739584 0.5048245 -0.326259 0.06543921 -0.51927465 -0.40155196 0.68992066 -0.052495845 -0.25794834 -0.18288894 0.7287683 -0.5959053 0.677318 0.40243095 -0.6602951 -0.075982034 -0.37718755 -0.6876541 -0.60644084 -0.4103642 -0.2125482 -0.6342602 0.21189009 0.5261796 -0.035582997 0.46875182 0.35989386 0.4780432 -0.008447733 0.27924052 -0.5255667 -0.41136047 -0.33062446 0.050226927 -0.13626692 -0.1472245 0.47526228 0.44330242 0.035299204 -0.34575745 -0.6131624 -0.20323217 -0.49602228 -0.77250147 0.2995212 0.10770166 -0.1228288 0.15786819 -0.02334667 0.48110807 -0.82614684 -0.6595411 0.51593983 0.80166185 -0.7363284 0.011530209 -0.08868527
-0.1320256 -0.33714497 0.3650139 -0.10270806 0.049403146 0.39935935 0.24091074 0.063127115 0.041579604 0.5953489 0.63662237 0.26420927 0.72985846 0.6777582 0.72346413 0.52966374 0.46679014 0.27300966 -0.6959261 -0.21452844 0.2515108 0.06538555 -0.048610404 0.4192311 0.24193461 0.19998646 -0.66685045 0.06826246 -0.22069977 -0.6759318 0.20098168 0.27101392 -0.10910834 -0.41148764 -0.5600213 0.2753217 0.22127633 -0.15568574 -0.31134397 0.3299808 0.18988226 -0.5092771 0.26517737 0.009937629 -0.34529236 0.06399 0.19870536 -0.07169373 0.29708725 -0.0702334 0.36933905 0.7907628 0.33707583 0.62873167 -0.3172791 -0.062056497 0.61596066 0.1803284 -0.120156035 0.65444034 0.0152453 0.6732899 -0.14443895 0.06632383 -0.56013966 0.6864867 -0.57016337 -0.0019360855 0.014380682 0.5840751 -0.26059327 -0.15623951 0.4105336 -0.12695132 0.22348428 0.3532027 -0.27994698 -0.07261022 -0.24752876 -0.09050481 0.06672147 -0.008244574 0.40939626 -0.27507982 0.2955842 -0.3497275 0.29090652 -0.19255725 -0.12899187 -0.14640333 0.11602262 0.20003474 0.120505795 0.08123937 -0.044256236 0.04568217 0.056189075 0.4006871 -0.31752545 -0.086827576 -0.33089352 0.6300125 -0.23682687 0.032982484 0.14176172 0.068743564 0.030208025 -0.5968229 -0.29683423 0.3683198 -0.027235799 0.11683939 -0.1687502 -0.36739856 0.31661868 0.574178 -0.022746112 0.32824752 0.38372028 -0.5924019 0.19282132 0.3745185 -0.22060522 0.5273244 0.39010412 0.45441192 0.18642935 -0.33777365 -0.31741408 0.124231905 0.04809756 -0.09270131 0.16295648 -0.15201141 -0.12268658 0.024019562 0.36002576 0.38755727 -0.45278418 -0.22720242 0.08396274 0.57198596 -0.080886 -0.55567837 -0.16190685 -0.12365569 0.1176701 -0.359933 -0.044856958 -0.41627058 0.030913148 -0.33915251 0.17470302 -0.30707207 -0.7237507 -0.49582994 -0.38277093 -0.029200938 0.18894267 -0.33255017 -0.28850397 -0.20444365 0.10226698 0.3449634 -0.46080393 -0.2925704 -0.12333594 -0.03481789 -0.407601 -0.10937561 0.25679284 0.5264857 0.2558937 -0.19371623 -0.5113056 -0.8319831 -0.31030464 -0.5208678 0.054588743 -0.4307641 -0.12991078 -0.36489427 0.2663493 -0.5672519 -0.33088067 0.49835706 0.3009228 0.5388833 0.6092174 -0.12210367 0.23191503 0.4901051 -0.43307722 0.22172686 0.2963961 -0.3219105 -0.40113813 0.55463684 -0.6609518 -0.4669571 -0.022161096 -0.19801927 -0.113907166 0.020410992 0.15005791 -0.5068417 -0.102713294 0.047103412 0.569884 0.15992388 -0.43110025 -0.5912955 0.45082337 -0.6795421 -0.14340995 -0.39383042 -0.099526145 0.18272965 -0.48718414 0.5069071 0.47674516 -0.53949726 0.35900545 0.04376821 0.30895987 0.42857194 -0.41665035 0.30883044 0.43480045 -0.09265955 0.46595913 0.5264507 0.30763045 0.06342848 -0.3670013 -0.7028794 -0.21663842 0.04289499 0.009529617 -0.67883646 -0.077368654 -0.23996374 -0.15178119 0.39706624 0.7871426 -0.009809103 -0.40407515 -0.066457145 -0.18027756 0.067385 -0.26190862 -0.09180705 -0.12371875 0.28556374 -0.07276741 0.7231916 -0.7169961 -0.041862473 -0.016319156 0.18607625 0.1093833 0.50262207 -0.11215839 0.21099508 0.30279273 0.08240186 -0.22993432 -0.050937437 -0.09991096 -0.47939888 0.14482707 0.21761993 0.17742255 -0.31655514 -0.6447906 -0.29571688 0.29641676 0.17708504 -0.60519046 -3.7938356e-05 0.22743921 -0.7496704 0.14316975 0.073502615 0.40508035 0.42566198 0.18311451 0.21560532 0.10026396 -0.05161785 -0.29990467 -0.4546164 0.040718958 -0.3178602 -0.5105902 -0.15308264 0.37316817 0.11585406 -0.45951527 0.16838041 0.5673001 -0.0428648 0.0003427863 0.26129773 0.18576548 0.2882088 0.10463528 -0.15604877 0.2983542 0.20097184 -0.27668905 -0.2870853 0.6127093 0.037296288 -0.57316774 0.44490469 -0.20617232 -0.15443522 0.290132 0.31877673 -0.51497865 -0.021037832 0.38142377 0.08826226 0.10292674 0.53034806 0.6410789 0.15352882 -0.07570152 0.08840376 0.042512175 -0.37318647 -0.31504 0.7714616 0.30394354 -0.25751865 0.2676292 0.024172742 -0.26278812 0.13706844 -0.35532933 -0.240734 -0.54163516 -0.007894531 -0.8736278 -0.27049005 0.39773408 0.006958021 -0.3066591 0.46197832 0.49152154 -0.28358606 -0.17535442 0.13429575 0.21416172 -0.5922103 0.09804998 -0.50728834 0.29428014 -0.31739685 0.43787616 -0.1884864 -0.64514166 -0.006903045 0.31171173 -0.07988933 0.14066231 -0.09136583 0.29397857 -0.0045507373 -0.6393718 0.097989306 0.1575581 -0.031910136 0.584158 0.3316247 0.26995212 -0.4272139 -0.82284856 0.5335986 -0.18558648 0.06572656 0.5706173 0.09177005
-0.25487253 0.28974804 0.80388606 0.2743039 -0.24302581 0.20685305 -0.7027813 -0.17498627 -0.77841944 0.34677008 0.8572283 0.3149837 0.46841705 -0.74387264 -0.5942081 0.74537766 -0.17959218 0.37951016 -0.8074734 -0.34927464 -0.0011980534 -0.1213809 -0.7126155 0.6392334 -0.07754168 0.2426609 -0.45433396 0.4389832 0.21696672 0.320636 -0.63214576 -0.44928026 0.7411227 -0.5546044 -0.0040897205 -0.6540551 0.8111396 0.64963615 -0.036290463 -0.4962214 0.07548791 -0.7329292 -0.3098152 -0.26376712 -0.46257746 -0.6887789 0.004028648 -0.2200155 0.7909926 -0.7269162 -0.40227965 -0.836719 0.5081614 0.40297014 0.5240382 0.019757979 -0.37465405 -0.034999706 -0.18833932 0.48036522 -0.41915852 0.7731248 0.39427888 -0.4770018 0.5939777 -0.6745583 -0.34692648 0.8898873 -0.028842343 0.83907247 -0.14562973 0.18732107 0.73242927 0.038382053 0.20041688 0.58212876 0.29227704 0.66212857 0.12173128 0.61589694 -0.45578003 0.6369543 0.057110652 0.33307803 0.75888646 -0.37935233 -0.26004863 0.6293802 -0.7370136 -0.6547394 0.4033786 0.08034523 -0.0676025 -0.84460247 -0.22748703 -0.7295574 0.5957467 0.8620126 0.42469522 0.042187415 -0.6729131 0.5416098 -0.86460996 -0.081429735 0.2981822 0.42260706 -0.41943377 0.6676905 0.16793993 -0.78205055 -0.10387816 -0.15157598 -0.6708714 -0.7624019 -0.81297773 0.7238442 0.18341702 0.17207523 -0.037831485 -0.8827816 0.10215241 0.050533775 0.5736288 0.7250267 -0.040319253 -0.101792574 0.06229338 0.6112349 0.47004938 -0.3570552 0.0799296 0.033463344 0.037510507 -0.38798633 -0.4619903 0.8919507 0.32923436 0.42617917 0.658303 0.65110147 -0.5944675 0.07336745 -0.47643912 0.16837731 0.5769358 0.4209361 -0.08605872 0.29447237 -0.5133184 0.36614126 -0.51688147 -0.7123534 -0.74783313 0.32585856 -0.7039364 -0.77037054 0.7348849 -0.28921038 -0.42221156 -0.4135732 0.4743689 -0.49416506 -0.1614447 0.49368298 -0.62650687 0.14839393 0.39867306 0.77344364 -0.016572848 -0.73113513 0.4081426 -0.5648824 0.3521884 0.268331 0.15264529 -0.9270522 0.6044662 0.6485791 -0.21767107 0.41669285 0.5425849 -0.72313905 -0.12823282 -0.109233506 -0.7504263 -0.6588705 -0.46279073 -0.2609553 -0.43040115 0.83304274 0.5023385 0.10302412 0.0088973455 0.33607486 0.73702693 -0.1776348 -0.32595235 -0.58836144 -0.642596 -0.004144594 -0.3772884 0.038762685 -0.07281317 0.49487448 0.1171439 -0.62318677 -0.6375348 -0.8711325 0.042654425 0.43879488 0.004546441 -0.075959645 0.86853623 -0.5620814 -0.56351256 -0.6911298 -0.039194435 -0.4872071 -0.057369396 -0.47389728 0.18243846 0.12606014 -0.13043131 -0.5889195 0.7707529 0.53020483 0.55492365 0.7833191 -0.5708478 -0.5182471 0.54400104 -0.28259757 0.42860058 0.4035333 0.56390166 -0.1808818 0.027349725 0.54591244 -0.6249495 -0.7930373 0.020834517 0.17611283 0.093817204 -0.20477179 -0.035941206 0.3336861 -0.76772946 0.7411968 -0.5297819 -0.15046632 -0.8789071 0.6038288 0.7947558 0.87179196 -0.1749982 0.6769085 -0.6988228 0.4318451 -0.70015585 0.3399509 0.11638018 -0.75561476 0.51563025 0.28341442 0.3336566 0.75921327 0.5466126 0.38761687 0.5839611 0.008383006 0.23197602 0.7824729 0.75413716 -0.81319845 -0.5208693 -0.3923166 -0.75882095 0.09885169 -0.12921849 0.85917395 0.15051816 0.38939294 -0.72958523 0.8997219 -0.37730566 0.24188061 0.29581955 0.6240716 -0.21373227 -0.50960255 -0.4350533 -0.6925548 -0.20707555 0.02074626 -0.069254056 -0.15317057 -0.2615692 0.8472294 -0.2081241 -0.42054778 0.023494411 0.32440972 0.52369875 0.5466934 -0.72190106 0.80732906 0.2623821 0.0869638 0.65574753 0.755447 0.047728024 -0.7217234 -0.2706653 0.420622 -0.59728026 -0.39558935 0.42617255 0.6682279 -0.7575104 -0.78282225 -0.4457236 -0.64370006 -0.5195204 0.121585935 0.7561904 -0.13105777 0.8388411 0.42374957 0.43328485 0.13791224 -0.37904617 -0.37982875 -0.59708893 0.6071428 -0.18928434 -0.44432533 -0.11038243 -0.40735734 0.1426206 0.8952664 -0.78229606 0.5347466 -0.11552578 0.5912131 -0.2921645 0.8791727 -0.7080559 0.36179838 -0.24359825 0.048394352 0.29611304 -0.90276706 -0.66643655 0.865082 0.23345526 -0.43557814 0.65182364 -0.36415654 -0.56190574 -0.22693026 -0.15452987 0.28082737 -0.36698586 0.68249345 0.11165929 -0.23953691 0.060409747 -0.6462246 0.39347064 -0.9219087 0.7521995 -0.528422 0.75299025 -0.5993403 0.44864666 -0.16753818 -0.0588464 -0.8249577 0.649843 -0.05727633 0.8727987 -0.9311318 0.17053775 -0.7860702
-0.3824431 -0.12738241 0.7088399 0.051543884 0.3496 0.050300404 0.3276102 0.2858996 -0.42984533 0.26323187 -0.03542422 0.49787968 0.61769533 0.5677011 0.041129682 0.8354337 0.38732255 -0.24738541 -0.5722434 -0.44910255 0.708156 0.36759076 0.65804005 0.3239817 -0.43144426 0.47327253 -0.5548558 -0.45976925 -0.17947951 -0.1897307 0.03675229 0.65266985 -0.36244577 -0.38510114 -0.5729974 -0.1667821 0.35374987 0.26349884 0.2357556 -0.3382997 0.065678164 -0.39906484 -0.22431993 -0.21095955 -0.7121424 -0.12711012 0.6073952 -0.195234 0.83766294 -0.18395498 0.43635327 -0.08611266 0.03190154 0.46082786 -0.3822718 0.3609413 0.68789226 0.17759866 0.015169095 0.56467557 -0.303337 0.29043832 -0.01754047 0.4999225 -0.40409967 0.48058918 -0.33573115 0.43110362 -0.16489004 0.66558737 -0.33131143 0.3362044 0.59335303 0.22798286 -0.01652044 0.66984016 -0.11412952 0.47028482 -0.0050261794 0.22247463 -0.59384465 0.020959187 -0.11787905 -0.015029728 -0.04219318 -0.2071457 0.7243106 -0.13058059 -0.2824964 0.14727229 -0.30597723 -0.09371619 0.16512027 0.27565318 -0.11877821 0.29228595 0.51404166 0.5943527 0.41517422 -0.410977 -0.813082 0.767842 -0.5530247 -0.28992587 -0.093868256 -0.4400988 -0.2742976 -0.5068494 0.34859115 0.17416841 -0.12635933 -0.13613781 0.0939882 -0.40725636 -0.5383401 -0.018364891 -0.7926922 0.59420115 -0.22551051 -0.27943873 -0.4811167 0.046022862 -0.42885283 0.47505522 0.5239677 0.2915085 0.07585361 0.3526337 -0.23074213 0.011212964 0.6372354 0.104237 0.30784228 -0.26518375 0.22659338 -0.051869236 0.565481 -0.18368001 -0.36004144 -0.22209425 -0.0049771965 0.36443782 -0.37492448 -0.19209261 0.23473957 0.36792696 -0.17369844 0.07666968 -0.3815606 0.09161672 0.5484957 -0.54613066 -0.04961378 0.008918375 -0.41557303 -0.3473629 -0.08077703 -0.006740663 -0.16190158 -0.38009936 -0.18731044 0.15068758 -0.5893626 0.65327007 -0.7466274 -0.32159168 0.31141722 0.7246277 -0.51584744 -0.15155704 -0.077176556 0.3013067 -0.06790926 0.66202056 -0.050808355 -0.51615024 -0.34583974 0.25570697 0.418179 -0.5756613 -0.16405001 0.24640846 0.6547272 -0.042268783 0.38119155 0.040614787 0.113908164 0.5876208 0.017809935 0.012905978 0.6144637 0.52746284 0.3235358 -0.24400531 0.24933513 0.13950597 0.08472711 0.3187173 -0.3754178 -0.14408332 -0.4232203 0.017291114 0.31253907 -0.2550474 -0.18474871 0.006069988 -0.2759717 -0.09450044 0.021569267 0.00970006 0.04068046 -0.74917877 0.78294945 -0.21086085 0.16809274 -0.11043838 0.24904844 -0.277682 -0.33443162 0.023151591 0.43795016 -0.3955871 0.18933636 -0.54984117 0.29832932 0.12708567 -0.052169137 0.7321787 0.4405165 0.0019729733 0.6057875 0.05733616 0.08110428 0.1309005 0.11025622 0.07106924 0.058419626 0.005370252 -0.25882006 -0.470698 0.15977658 -0.24572834 -0.11408241 0.033194073 0.6389671 0.20182514 0.000609044 0.24869606 -0.4623848 -0.23347758 0.12571892 0.5448991 -0.054711804 0.5675212 -0.39234164 0.53330755 -0.6359882 0.0849691 0.007962704 0.0524911 0.104418814 0.21479826 -0.19526619 0.57160413 0.048002735 -0.14082286 -0.04719509 0.28739834 0.34379542 -0.12442194 0.27562475 0.15554084 0.22598085 -0.314051 0.1705216 -0.5583879 -0.21156347 0.62189525 -0.37934464 0.20331338 -0.0077054696 -0.19846177 -0.41587687 -0.06874211 -0.310335 -0.41814435 0.25686717 -0.21077083 -0.15798418 -0.53557247 -0.40289503 -0.7280701 0.12995541 -0.23476139 -0.7973447 -0.42484644 -0.037606955 0.31432426 -0.47417328 0.20107505 0.5994693 -0.23179892 0.053621493 -0.25263196 -0.20307189 0.3730157 -0.22331706 -0.27839717 0.6919896 0.13163069 -0.36540186 0.121767715 0.19956595 -0.036007944 -0.26683015 0.047358967 0.03887365 0.27780494 0.051838264 -0.22288889 0.2339048 -0.42499918 0.19165565 0.31078795 -0.22100979 -0.0435248 -0.086979866 -0.1315453 0.17753743 0.32481802 -0.053019755 -0.06603562 -0.11905402 0.5850934 0.36080825 0.041571602 -0.47602996 0.091122 0.43349412 0.7989886 -0.2991109 0.19774072 0.20006083 -0.54089797 -0.026613617 -0.42376372 -0.1557487 0.31685334 0.1073748 -0.058724314 -0.09573591 -0.29000902 -0.23563367 0.19220793 -0.36362004 -0.65729135 0.0068694353 -0.34620678 -0.13184431 -0.32000816 -0.07637647 -0.004455548 -0.37076372 -0.39037073 0.18314272 -0.13356835 0.37360018 -0.5552218 0.06828076 -0.39648253 -0.5147628 -0.66452533 0.52332556 -0.5489369 0.38097617 -0.13684864 0.5984731 -0.010423318 -0.34682465 0.82666725 -0.6121681 0.15077364 0.73620594 -0.1799107
-0.18989195 0.00059628487 -0.45794132 -0.74606645 0.47225028 0.3221488 0.7460394 -0.096121706 -0.81907153 0.05782097 0.23487651 0.20586902 0.27372342 0.012635544 -0.16264796 0.44442055 -0.39583826 0.0086554885 -0.029547174 0.59164894 0.4861857 -0.5153848 0.35757732 0.11716677 -0.070552625 -0.61121756 0.2607757 -0.074627295 0.07779512 -0.2896651 0.11351549 0.077407934 0.18361312 0.4294606 0.7323413 0.0011806786 0.15907845 0.27159643 -0.27117807 0.42046896 -0.5913907 0.12651378 -0.77286315 -0.8091566 0.6540484 0.48621213 -0.69782025 -0.29386675 -0.36607483 -0.57559943 -0.04975783 0.3514014 -0.079761475 -0.20956632 -0.27493113 0.26134467 -0.18193984 -0.031149589 0.6082091 -0.5005174 -0.20586678 0.7766793 0.34811372 0.27242738 -0.4363748 0.3168822 0.3630876 -0.26624992 0.20030463 -0.09027435 -0.6027056 0.17008172 -0.45179304 0.25591615 -0.58664876 -0.23678003 -0.46954605 0.44659817 0.7083608 0.55265266 -0.3850867 -0.18689083 -0.51035357 0.3859567 0.10261449 0.6019851 -0.4398769 -0.68329763 0.45321843 0.5392374 -0.05789316 -0.42027557 0.5435835 -0.009263512 -0.44276422 -0.2554527 0.32569808 0.15929201 0.21247661 0.016451403 -0.62848794 0.77832 0.36346322 -0.7780843 -0.41031158 0.49942023 -0.07380584 -0.37021726 0.39904195 0.40782577 0.4464929 -0.33006382 -0.20450929 0.17458683 -0.09272307 -0.40098986 -0.5333774 -0.21385844 -0.32237965 0.54151195 0.50014544 -0.051813483 0.3203717 0.2549173 0.25177783 0.51474905 -0.77216184 0.18897358 -0.3438026 0.16355401 0.14044167 0.5829438 -0.31753498 0.5030295 -0.18207581 -0.43357596 -0.35712096 0.31762788 0.1107264 -0.12514308 0.7635976 -0.03666478 0.44507903 -0.54122496 -0.10365768 0.31699285 -0.33557296 -0.15340431 0.13400307 0.61435556 0.00012156367 -0.5048286 -0.7623749 0.32865188 0.04459283 -0.03564461 0.18940008 -0.103178084 0.6085099 -0.10191187 -0.45361662 -0.1489889 -0.249273 -0.029927045 -0.18707807 0.37077698 0.07160668 0.49786937 -0.8435738 -0.25973168 0.32891685 -0.3090996 -0.8566859 0.3667508 -0.7429813 -0.35492826 0.075461686 -0.13477421 0.7386937 -0.73693216 -0.6219046 -0.18115082 -0.094942816 0.3985873 -0.030859761 -0.76871777 0.6261653 0.22651239 -0.3409574 -0.40001264 0.89433414 0.61117125 -0.14194183 0.5142541 -0.24951166 0.8447112 -0.094611585 0.34475127 0.04802735 -0.46539757 -0.18619913 -0.027093634 0.04842946 -0.57886934 -0.025405347 0.59685963 -0.7597624 -0.60481364 0.3238274 0.109937266 0.48504743 0.51339614 -0.35287246 -0.56715775 0.60001427 0.29588002 0.772715 0.68908817 -0.27524427 0.052697584 -0.3010084 -0.7051325 0.6665516 0.19724223 -0.46552128 -0.37286803 -0.49185687 0.40368557 0.44633922 -0.5577017 -0.72137415 0.67682654 -0.76258194 -0.67629784 -0.21981218 0.35009578 0.0013905577 0.34245536 0.63350785 0.44520196 0.10080548 0.16976225 -0.53856355 -0.68530923 0.5361684 -0.5475908 -0.19956599 -0.18232952 0.3849155 -0.14561395 0.3404041 0.23592544 -0.5142554 -0.026478859 -0.034967124 0.02566412 0.39909884 0.477791 0.008239374 0.89847064 -0.5090615 -0.28716564 -0.41137135 -0.35616487 -0.22117166 -0.20405738 -0.19069777 0.343914 0.41670856 0.6712022 0.2072036 0.37141064 0.2870358 -0.17472984 0.5307858 -0.5637325 0.14092025 0.40923396 -0.32893932 -0.6487995 0.92663443 0.13947575 0.48458928 0.11185023 -0.49014473 -0.23193699 0.46034944 -0.05618556 -0.23580705 -0.43429178 -0.36048073 -0.62668383 0.43049988 -0.107563615 0.16283587 0.035469934 0.13902526 -0.60173345 0.23049866 -0.23585576 -0.4914075 0.12747118 0.31594124 -0.30729166 -0.18140467 0.6135476 -0.49017024 -0.3244958 0.19941789 0.05437176 -0.21091333 0.14034098 0.21585856 0.010537557 -0.63780385 0.18044604 0.546245 0.2627641 -0.24230729 -0.047064766 -0.07848794 0.17960888 0.30158132 -0.27789167 -0.55329734 -0.66888857 0.5410186 -0.7497032 0.49941838 0.39554393 -0.44165447 0.49593353 -0.41975427 -0.07996633 0.09010641 -0.3032565 0.57856524 -0.61203325 -0.4341444 0.8895813 0.3317832 -0.43242556 0.12166205 -0.067614526 0.22736378 -0.3974805 0.235219 0.7866534 -0.20192558 -0.7269485 0.11447653 0.66232395 -0.15700391 0.4845091 -0.07516512 -0.05932896 -0.29847604 -0.39289558 0.13550879 -0.46543986 0.7339161 -0.27128783 -0.019856378 0.5168891 0.0028831777 -0.5668444 0.55584645 0.61780536 -0.126486 -0.5835995 0.022651836 0.06322622 0.2764236 -0.29362935 -0.6762188 0.39802906 -0.6076524 -0.31657535 -0.611872 0.5173394 0.8729677 -0.15346293 0.11076334 -0.8555114
0.24491842 0.41061902 0.5123867 -0.83438456 0.18791042 -0.428154 0.1334079 -0.2763349 0.31634837 0.23558499 0.19176006 0.60842836 0.70848227 -0.13352078 0.36374453 -0.11579664 -0.07327147 -0.16751075 -0.08361287 0.16699195 -0.47075838 -0.1837426 -0.0044126473 0.13990584 0.08787991 0.29591918 -0.34081393 -0.45779648 0.6288488 -0.15827018 0.08699014 0.45835698 0.6918358 0.21595475 0.21875581 0.7803265 -0.08577696 0.6484339 0.3010704 -0.47467858 -0.3300992 -0.21890646 -0.4610539 -0.29387304 0.041219678 0.6709733 0.7349372 0.23891893 0.2508128 -0.55364484 -0.27292532 0.10657815 0.65503865 0.69731635 0.21782675 -0.43082055 -0.30925602 0.31634355 0.34772635 0.31643116 0.066063866 0.83343434 -0.09397498 0.04880263 -0.19789463 -0.42306572 -0.4170429 0.334815 -0.369465 0.3142305 -0.0651026 -0.4416946 -0.14124206 0.32440293 -0.122985125 -0.34805557 -0.18694651 0.29679617 0.63563 0.16601646 -0.22412097 -0.39969555 0.41385493 0.10530055 -0.60204846 -0.65596926 0.51382124 -0.7621732 0.45803756 -0.15626755 -0.4500641 -0.5293217 0.42218918 0.40251464 0.43516356 0.37065142 0.80089533 0.66879225 0.44744432 0.13484904 -0.5719881 0.72025174 0.37925452 0.13708079 -0.4754744 0.3473663 0.27267718 -0.42491177 -0.2137557 0.803667 0.54093087 -0.3226215 -0.12722245 0.12194973 -0.024600163 -0.4848271 -0.468957 0.5493702 0.051787175 0.5085246 -0.40495044 0.52449393 -0.027327694 -0.088025026 -0.056804955 0.03219726 -0.55623126 0.7506516 -0.7143941 -0.43589872 0.28019816 0.8335949 0.43067497 0.32558057 0.15896404 0.13694936 0.59549356 -0.38097322 -0.31263915 0.39320332 0.5395148 -0.49319494 -0.23078841 -0.6826234 -0.8850714 0.49191803 0.6173955 0.026641585 -0.45476532 0.1201957 0.44562033 -0.42792547 -0.13150339 0.64594126 -0.6258987 0.18891439 0.014731728 -0.33308762 -0.28715992 0.13839296 -0.06810003 0.17238739 -0.1837974 -0.3245859 -0.684489 0.36873308 -0.3606582 0.07290022 -0.35259223 -0.4747354 0.080283165 -0.3975109 -0.19903263 0.10299772 -0.20928255 -0.44360298 -0.5611912 0.55941445 0.7545027 -0.025544735 -0.19481127 0.42096072 0.11304061 0.40555477 -0.05340159 -0.55298185 0.53938746 0.4364801 0.024423938 0.43664843 0.4402252 0.5252638 0.3593049 -0.3698408 -0.43047616 0.46103626 0.6917532 0.59852123 -0.00019645691 0.017388001 0.12222303 0.39614654 -0.008935355 -0.6441039 0.2560023 -0.4446139 -0.40917492 0.29961216 -0.447108 0.4784711 -0.6330835 -0.8043334 0.34242082 0.181479 0.3261817 0.1761193 0.731997 0.07134972 0.18134226 -0.71643424 0.10486458 -0.2429389 0.29337382 0.41988286 -0.155659 0.7415347 -0.6707878 0.16350174 0.2826325 0.15075973 0.2571015 0.34914097 -0.66648376 0.2951994 -0.19557741 0.19277956 -0.3163268 0.29815352 -0.20846441 0.22528349 0.8291292 0.5428604 -0.22607873 -0.48973376 0.7908187 0.23654236 -0.1933782 -0.09177966 -0.5437751 -0.32567954 -0.0118843 0.25556976 -0.048600145 0.24182379 -0.3560812 -0.053329695 0.087151565 0.7458097 -0.12496961 0.037017435 0.15753308 -0.729699 -0.05155574 0.5391318 0.36055273 0.3145183 -0.652987 0.42769557 -0.10848118 0.11472918 -0.1754109 -0.55485976 0.57289046 -0.05142243 0.6122664 -0.27943185 -0.64108485 -0.1543461 -0.23506656 -0.5779863 0.34251156 0.44461033 0.72804093 0.20492482 0.45224565 -0.31518447 0.4881812 -0.6571426 -0.09652775 -0.60473275 0.39711478 -0.38445544 0.5060669 -0.5601499 0.36400944 -0.7029332 -0.35886833 0.07952318 -0.1447034 0.43237203 0.40951097 0.6986098 -0.2898285 0.060851686 -0.129127 0.3186932 -0.111810826 -0.15700439 -0.29326683 -0.15930037 -0.061745375 -0.22119379 0.07070273 0.10836114 -0.20962694 0.066102244 -0.48573563 -0.07701947 0.3485831 0.112711504 -0.16280973 -0.5925204 -0.28208244 0.3730921 -0.036566056 0.42354235 0.5847041 -0.6672406 -0.3311677 0.02335991 -0.36448252 0.3913847 0.3918463 0.24774483 -0.10935241 0.14744991 0.015368976 0.4312171 -0.058495045 0.4752338 0.044503897 -0.4879642 0.11578615 -0.21068019 0.14104101 -0.75155365 0.34524408 0.53598064 0.28511506 0.0786115 -0.4403686 -0.031780444 0.5863666 0.49149323 0.023829635 0.43662566 0.10292472 0.3172176 0.7692065 0.08289477 -0.5120958 0.14000943 -0.08726969 0.16274028 0.1302479 -0.5905448 -0.00094124116 0.08597137 0.28949118 -0.64630765 -0.62586224 -0.48095834 0.08571703 -0.022650607 -0.5201001 -0.20988187 -0.21227325 0.14858384 0.17467354 -0.56590164 0.05667935 0.22899649 -0.10893788 -0.70181346
-0.20496072 -0.21532005 0.34120452 -0.15643853 0.485927 0.046656635 0.0634686 0.31513807 -0.82312584 0.59513783 0.03617038 -0.061215863 0.5734126 0.26727396 -0.16185585 0.11683449 0.29546812 0.2171508 -0.02385521 0.4909671 0.35328764 -0.25726673 0.12867978 0.8789724 -0.24865745 -0.0060801357 -0.14595892 0.22074223 -0.04041955 -0.5989147 -0.27671424 0.53274333 -0.107324824 0.06470676 0.093113154 0.6181787 0.1875852 0.8459969 0.2127922 0.35044605 -0.04191076 -0.34487602 -0.47382674 -0.11597832 0.11988871 0.5698123 -0.27387607 0.16034877 0.6874778 -0.013904495 0.061810933 0.18815953 0.04327276 0.7041614 -0.41864312 -0.27430683 0.39985713 0.115981534 0.027818955 0.48612833 0.049237806 0.5135895 0.122123666 0.29637283 -0.28665775 -0.10945984 -0.29258302 0.11510618 0.036416158 0.35458934 -0.5980684 -0.38933876 -0.1710943 0.4286068 -0.31605574 -0.014280215 0.06373867 0.021854635 0.11116192 0.31673133 0.104775146 -0.02613867 0.24909931 0.23187862 -0.36110154 -0.10264771 0.24853444 -0.48611575 -0.1260463 0.19752598 -0.08058673 -0.100672096 0.1944637 -0.032935686 0.13294418 -0.030663922 0.35598758 0.54314166 -0.2731418 0.019950077 -0.2269864 0.60485786 0.20402934 0.15926336 -0.28734812 -0.30144882 0.3024106 -0.20662561 0.066676736 0.29539713 0.45346755 -0.3518507 -0.19398287 -0.14806667 -0.43988746 0.4242264 -0.45564437 -0.0059480704 0.17847113 -0.118970275 -0.12013237 0.16664967 0.07068242 0.43232077 0.35841632 -0.1443722 -0.4481255 0.14819439 -0.5502941 -0.0052299425 0.4574284 0.4183014 0.15443861 0.16177894 0.1447712 -0.12283679 0.4273826 0.11806065 -0.18909137 -0.24158484 0.30129164 -0.20097907 0.3637591 -0.9009757 -0.7502329 0.5014588 0.048725285 0.024036527 -0.060156032 -0.036249667 0.049228348 0.042877868 -0.09461495 0.27817523 0.017679643 0.017698407 -0.32210937 -0.43018386 0.47103032 0.07588717 -0.23243678 0.16282925 -0.05147508 0.37455314 -0.48811617 -0.47135052 -0.41650787 0.22615457 -0.61649686 -0.6064887 0.44859993 0.12712844 0.21665959 0.7584515 -0.45363575 -0.6553887 -0.57978827 0.4251874 0.23343861 0.21344964 -0.5716311 -0.15309608 0.268609 -0.012549683 0.054699704 -0.44010413 0.42450792 0.14989536 0.5785669 0.47579917 0.3197784 0.17503774 -0.011757616 0.1668213 -0.163509 0.17105606 0.18469897 0.6140818 -0.86773896 -0.38640457 -0.18686908 0.16853076 0.032187887 -0.5286806 -0.08073581 -0.013214819 -0.15198886 0.21408983 -0.366442 0.6751538 -0.47200269 0.14523622 0.65554225 -0.23557518 -0.043245625 -0.5910501 0.38400793 0.027689978 -0.23568031 -0.84206295 0.29704836 -0.7564492 0.5630238 0.4435176 0.036295064 0.56864965 0.23777884 0.39887393 0.4683656 -0.28224343 -0.15099765 0.52352875 0.036985435 -0.5633644 -0.17999515 0.43320101 -0.11431734 0.30200866 -0.41856927 -0.25798294 0.47582632 0.27616006 -0.18999049 -0.28828514 0.6346575 -0.465686 -0.4170265 -0.122638695 -0.041722327 0.0112321265 -0.115966946 -0.4838912 -0.07248184 0.52566123 -0.025878036 0.35655585 -0.69449914 0.60783184 0.02385706 -0.2409648 0.142149 -0.53117394 -0.09519642 0.15673944 -0.05633211 0.27244768 -0.3914769 0.011821086 0.16517787 0.33126146 0.68398434 0.085815564 0.40926212 0.09940654 -0.16170038 -0.4390245 0.35759872 0.3954146 -0.017534599 -0.12462145 0.58604026 0.15892433 0.623567 0.5290949 0.36060548 -0.3426612 -0.023164602 -0.2708621 0.28295285 -0.31860223 0.18202075 0.35420924 0.5817545 -0.72459483 0.2006403 -0.25544748 0.21440026 -0.46114963 -0.18142493 -0.39821464 0.2177667 0.5141096 -0.15393123 -0.13053182 0.019141212 0.16900244 -0.29557806 -0.21821085 -0.34218523 -0.72014284 0.3938699 -0.38933372 -0.020162933 0.07526682 -0.631682 0.12897849 -0.16210254 0.45651788 0.20445591 -0.10812648 -0.42310926 -0.38368052 0.50511134 0.034846593 0.18324727 0.26123813 0.597421 -0.098013744 0.23517619 -0.0779775 -0.23302981 -0.020525515 -0.30884826 0.5339155 0.28568155 0.081329584 0.5839683 0.04045597 -0.37232843 0.7702614 -0.35257104 -0.6803061 -0.59836435 -0.2657257 -0.13919877 -0.37852916 0.21836573 0.72934735 -0.22439748 0.21892926 -0.046686023 0.5619538 0.3699643 0.8795758 0.4864928 -0.14166659 0.08680849 0.16349597 0.79960626 0.32746127 0.4377021 0.17229925 -0.32669502 0.0745639 -0.12785158 -0.14243706 0.009186313 -0.1736626 0.16048172 0.18315294 -0.5792282 -0.057797227 -0.24345498 -0.35956663 -0.2410649 0.012671545 -0.51865155 -0.15528065 0.0888142 -0.025656233 0.27995312 -0.40425226 -0.076661184 -0.6938498
0.079786785 -0.75100625 -0.3783558 -0.41201484 0.13798599 0.3878996 0.8995725 -0.8157501 0.6635394 -0.6637027 -0.837138 0.5424391 0.47075734 -0.17878127 -0.9239655 0.4472626 -0.36328015 -0.018345945 0.54131633 -0.76789916 -0.30838388 -0.010554921 0.41442955 0.45945176 0.7644589 0.4507617 0.025539339 -0.512493 -0.5717836 -0.88258004 -0.97487456 0.30811152 -0.20117563 0.18113509 -0.676413 0.09521738 0.74039125 0.36924958 0.19955866 0.26881447 0.4545383 0.7705297 0.50941795 0.20489737 0.03139899 0.06906326 0.556592 0.8582057 0.58167934 -0.48941272 -0.65546143 -0.054063134 -0.8896464 0.86312354 0.73999727 -0.3209794 -0.9291118 0.25736952 0.061755434 -0.57095593 -0.9400247 0.93068916 0.46845946 0.3389694 0.6223383 -0.6414123 -0.19406793 0.5666339 0.3504237 -0.6234527 0.7243372 -0.67708313 0.5999844 -0.007552225 0.40651172 0.45898056 0.17290083 -0.3640799 -0.19302405 -0.84001005 -0.5667139 -0.99241936 0.21308962 0.91700923 -0.4317872 0.5577646 -0.67131317 0.46156812 -0.9685011 0.7645651 0.07258892 -0.5689897 -0.5415445 0.7549117 0.89359176 0.11227243 -0.021246126 -0.24229705 -0.028083857 -0.77942795 0.36241823 -0.21151891 0.6385745 0.23282185 -0.5662916 0.39174694 -0.3384001 0.50948817 0.14231859 -0.12979974 -0.5947081 0.1042968 0.34992075 0.94777006 -0.25333598 -0.6702828 0.8055009 -0.23170039 0.14433089 -0.54687953 -0.3157933 0.05981473 0.54893386 0.83986545 -0.27452973 -0.4783608 -0.069843516 -0.6806513 -0.018147796 -0.1806755 0.6604299 0.49588823 -0.5271841 -0.5175308 -0.7824719 0.5319298 -0.46206936 0.39582962 -0.4702484 -0.60532194 0.4750572 0.751061 -0.19429782 0.0373535 -0.4978748 0.35223424 0.3795336 0.6047969 -0.20799483 0.096827365 -0.24084435 -0.4468707 -0.31571004 0.91586703 -0.8835027 -0.15980783 0.03742917 0.3468606 0.85793805 0.2542084 -0.18059564 -0.626081 0.020196365 0.7473683 0.7465315 0.8734286 -0.69561785 -0.6387049 -0.66186285 -0.087653585 -0.21504804 0.124115266 -0.64015174 0.031864796 -0.09836826 0.82659006 0.3219152 0.18996519 0.7165524 -0.09201424 0.20203201 0.2650697 -0.80627537 0.53844625 -0.32366553 0.18621932 -0.42370215 0.79109514 0.7832606 -0.77933264 -0.82522196 -0.35028848 0.78961587 -0.5293157 0.22739819 0.66710645 0.18991132 -0.4531974 -0.018229589 0.72915494 -0.7632887 0.36535606 0.7065712 0.5052042 -0.49383965 0.78876066 -0.41226876 -0.7275883 -0.59958345 0.79057527 0.505396 0.39272815 -0.15512636 0.3209838 -0.5291575 0.58067966 0.9444406 -0.48804998 0.71766925 0.5074772 0.32873964 0.25227863 0.74038994 0.12315608 -0.73280513 0.42787832 -0.8349552 -0.39053693 -0.54338944 -0.26369914 -0.7047232 0.8539845 -0.05369854 -0.07925463 0.4349409 0.45992598 -0.003911741 -0.040956855 0.7423315 -0.48074663 0.11857244 0.35265097 -0.21465263 -0.31716466 -0.32263416 0.67366964 0.500592 0.46143433 0.66342837 -0.25701618 -0.3952082 -0.6859653 0.2741934 -0.57747626 -0.18701816 -0.6069246 -0.8624079 0.13294029 -0.26870275 -0.9301068 0.6152056 -0.63381785 -0.5018077 0.03103917 -0.7264321 -0.2403828 0.38729888 0.46032155 0.9048346 -0.6894407 0.5973023 -0.7776733 -0.4423046 0.6773078 0.9478338 -0.15180282 0.82947814 -0.91692644 -0.12657088 0.54542935 -0.74230886 0.10200661 0.6249141 -0.034362093 -0.72446424 -0.14314166 0.7987814 -0.38115418 -0.5355028 -0.20729473 0.27485704 0.36847106 0.7375175 0.46595007 -0.58855915 0.1565285 0.42751738 -0.67822164 0.43352568 -0.7933733 -0.45618173 0.9278565 -0.18450877 -0.55179447 0.5621178 0.098378964 -0.9449642 0.7297196 -0.71161103 -0.9855958 0.3362293 0.7405373 0.00075909495 -0.08562133 -0.16240783 0.3337116 0.515925 -0.74363387 0.5037991 -0.3871945 0.5243008 0.33120286 0.86652076 0.83876175 -0.15774567 -0.43521583 0.13333681 0.6648103 0.61050797 0.17047565 -0.09054694 -0.46355933 -0.009333577 0.43607897 0.6542967 0.41520593 0.8147398 0.5984662 -0.5489347 0.03992878 0.798794 -0.9429222 0.56433475 0.558864 0.07734242 0.45830855 0.755621 0.11183472 -0.8536602 -0.67185396 -0.35853747 0.9649018 0.9236723 -0.08508137 -0.4375403 0.6309054 -0.79944074 -0.3024221 0.28541118 -0.9404682 -0.054297242 -0.87974364 -0.11452396 0.4074548 0.11926056 -0.18862152 0.20476337 -0.29841542 -0.31836557 0.5767597 -0.15062305 -0.3917024 -0.56731254 -0.89065826 -0.37117374 0.7522394 0.438738 0.30753902 0.09692179 -0.52154994 -0.3718957 0.19531603 0.44777077 -0.84663707
0.80155647 -0.25571102 0.5784763 -0.5710904 0.26772496 -0.065630406 0.32656738 -0.48261064 -0.18405832 0.107174814 -0.39685407 0.47799978 0.5909426 0.26525748 -0.15384671 0.78639215 -0.015018497 0.63477194 -0.59088206 -0.25639176 0.44616956 0.4739263 0.3792183 0.65499914 0.7817569 0.753459 -0.40634382 0.31608945 0.11084449 0.43535057 -0.94767416 0.31273875 0.005702123 -0.2607069 -0.4647737 0.45627123 0.77631164 0.69091594 0.081467055 0.50360394 -0.36176187 -0.31850612 -0.11933008 0.6646469 -0.45937434 0.2158557 0.6597812 0.25751626 0.05136228 -0.8985522 -0.54848206 -0.44538906 -0.017740503 0.6953973 0.50710565 -0.48578122 -0.5454781 0.1706108 0.51137304 0.36727262 -0.5813297 0.8310136 0.7535503 0.6388197 -0.4507976 -0.3488998 -0.13318644 0.8787371 0.28703746 -0.30519503 0.18357387 0.21005532 0.6272921 0.6347942 0.43079552 0.3968257 0.18598573 0.7430278 0.48645335 -0.5165335 -0.27407733 -0.32686743 0.8452132 0.80099285 -0.13125896 0.3810526 -0.5058329 0.19117095 -0.3124217 0.22063467 0.3475874 -0.90264845 0.53944975 0.6253824 0.06945109 0.60011894 0.17861073 0.40707928 0.731365 -0.6062164 0.03776445 0.35677457 0.18990466 0.6141627 -0.39817327 0.6128806 -0.52336663 -0.10126977 0.012633584 -0.5727526 0.544323 0.28158566 0.5093419 -0.066224724 0.038030278 -0.08600432 -0.11534731 -0.73948306 0.40524194 -0.005947739 0.60665685 -0.64230233 0.30961543 0.5208699 -0.6225357 -0.34248737 -0.7453822 0.1693601 -0.18847305 -0.41054273 0.7866266 0.2632926 -0.022592247 -0.23898697 -0.5571081 0.5863967 0.7135885 -0.5351553 0.39000168 0.14708006 0.38909632 0.07746343 0.6084569 0.045975044 0.03158796 0.36200744 0.80521953 -0.23339796 -0.7433114 -0.800436 0.14316137 -0.63281274 0.057704818 0.49124163 -0.74153686 0.073566765 0.16853985 -0.5380495 -0.6523042 0.47184533 -0.7667631 -0.615365 0.6940865 0.6136553 -0.8208379 0.74271786 -0.6229468 -0.37804243 0.16516241 -0.18116046 0.08419033 0.25808436 0.1035289 -0.03824378 -0.18727188 0.40519994 0.1277978 0.20598167 0.8394619 -0.65961367 -0.48246762 -0.118363276 -0.12176059 -0.37970895 0.09740126 0.39439842 0.020281047 -0.44710556 0.32471067 -0.4047905 -0.41617823 0.743384 0.3490906 0.4799264 0.6360473 0.45997405 0.4467113 0.42536297 -0.14686541 0.7047621 -0.2634319 -0.4112124 0.7866603 -0.4695951 -0.5296021 0.48329586 -0.48056626 0.06397266 0.16320151 0.66248846 -0.20702134 -0.39729917 0.25486994 -0.3468223 0.64312106 -0.47211254 0.7901646 -0.6083417 0.5891025 -0.90408176 0.106725946 -0.444601 0.73412955 -0.30074087 -0.7980648 0.8036064 -0.722523 -0.40309882 0.7303758 0.43017098 -0.7285476 0.73714936 -0.52335095 -0.05783668 -0.4315902 -0.13785884 -0.68936944 0.41234592 0.51174307 -0.17204419 0.59472775 -0.13111405 -0.5951009 -0.48761192 0.5677992 0.14243057 -0.17371304 0.2848444 0.09322348 0.1588406 0.76381993 -0.26932123 0.76415783 -0.19679081 -0.61399543 -0.4367897 -0.8467656 0.333163 -0.07654768 -0.9079525 0.3828097 -0.5033648 -0.29362237 -0.06973095 -0.51916885 -0.19550647 -0.15981251 0.4090336 0.16291302 -0.60023916 -0.2297498 -0.3072627 -0.2730198 0.39756358 0.71974546 0.23584993 0.56180423 -0.5651608 -0.6308131 -0.3611353 -0.17237309 -0.6466743 -0.28725424 0.05882544 0.19649813 0.57251984 0.68579936 -0.4576712 -0.59048903 -0.43580782 -0.15933779 0.26982442 0.59843934 0.46204078 -0.05220139 0.43454057 -0.06571713 -0.7569028 0.3050183 0.4857177 0.24209619 -0.032265157 -0.5595822 0.33781576 -0.36825633 -0.20385861 -0.5017887 0.3676554 -0.33922324 -0.0088080745 -0.60621166 0.23845586 0.7221155 0.42676252 0.23359793 0.8132999 0.3116331 -0.06833695 0.34446183 -0.8366852 -0.79744416 -0.0583559 0.6896275 0.4558424 -0.13385263 0.023435757 0.13801937 0.6952499 -0.2873214 0.85010993 -0.5042208 0.85179985 0.46632546 -0.44531754 0.91968495 0.26482487 -0.18645269 0.477843 -0.6184638 0.09854885 -0.37727267 -0.61732715 0.6907325 0.17020644 -0.41819564 -0.45303896 0.101381764 0.10009412 0.34221292 0.21907067 0.30259153 0.7483597 0.44329894 0.03974956 0.3823442 0.24151935 -0.7510772 0.48156866 -0.029435389 -0.7940891 -0.41963276 -0.84728914 0.28464422 -0.28164858 -0.58249974 -0.31335548 0.28746346 0.42807224 -0.7446892 -0.11153689 -0.31800497 0.77372813 -0.4354714 -0.70154893 -0.7191105 0.73810977 0.10303595 -0.198498 -0.13703406 -0.26005852 -0.527078 0.6376027 0.3747489 -0.65921
0.0077364873 -0.32874987 0.31839585 -0.6509814 -0.33733246 -0.13692689 0.12962621 -0.9127867 -0.13694665 0.72905916 -0.43923205 -0.24880248 0.7145517 0.29419994 -0.32445538 0.55757713 -0.52235377 0.24510676 -0.12488963 0.21427736 0.15871693 0.57452685 0.46605748 0.45873132 0.6287409 0.6176679 -0.071786724 0.27938193 0.39510167 0.40314302 -0.6524643 0.69245327 0.3077551 0.08979719 0.25828344 0.32773912 0.50526 0.9095059 -0.24874824 0.06756175 0.15190789 -0.1561265 -0.011025019 0.46757588 0.7501343 -0.66980124 0.09236353 -0.1860033 0.08571697 -0.7261305 -0.22059321 -0.4980337 -0.09002347 0.053162165 0.4313419 -0.2567774 -0.123255275 -0.43150836 -0.09570552 0.39490294 -0.63069934 0.69762003 -0.02376832 0.8936503 -0.70061994 -0.20919596 0.57641804 0.7668573 0.14103141 -0.8130381 0.64655936 -0.54286 0.99065065 0.6801554 0.5363591 0.77921164 0.23102555 0.52370316 -0.10116482 -0.6242726 -0.473521 -0.2134762 0.7810246 0.71312064 0.093153976 0.19044998 -0.1489723 0.08450349 -0.80158794 -0.38245785 0.11342488 -0.3130088 0.50988096 0.017126136 0.2993388 0.32802776 0.60720277 0.85821956 0.6133822 -0.20648253 0.03373328 0.89279354 -0.07724032 0.84587455 -0.28479135 0.3543852 -0.71246445 0.345415 -0.060112335 -0.15126967 0.4195413 0.25711527 0.75887704 0.89751923 -0.18896477 -0.73109186 -0.24590525 -0.007487297 -0.31370625 0.36717415 0.043899283 0.52667856 0.124805614 0.8232445 -0.46565688 0.3312728 -0.37882632 -0.11319501 0.3728789 -0.45426467 0.72094417 0.13257304 -0.12097515 0.57523763 -0.11228622 0.24089709 -0.34636924 -0.23697446 0.14413778 0.11312134 0.5289225 0.6440181 0.38964337 0.34319776 -0.013404647 -0.117962465 0.7813794 -0.14311723 -0.5652615 -0.5734105 0.32163468 -0.25090662 0.5834019 0.97150826 -0.39123118 -0.5917911 -0.10834918 -0.7124213 -0.3546028 0.3621805 -0.6729111 -0.7776995 0.1270428 0.54457533 -0.3886593 0.36622372 0.09848836 0.104818776 -0.7371379 -0.21504441 0.21938711 0.26134396 -0.43178117 -0.3550802 -0.14587638 0.12089813 0.48532504 0.4717548 0.6842469 -0.44747508 -0.32794452 -0.117170535 0.053027183 -0.19026181 0.09916065 -0.30497345 0.5735948 -0.4064519 0.24151239 0.3043952 -0.6358639 0.9672948 0.4666008 -0.27612132 0.080318734 -0.059668254 -0.12595688 0.41832376 0.16279802 0.444615 -0.58169335 -0.3563277 0.97156703 -0.8439931 -0.4791122 0.94462967 -0.81419396 0.6007149 0.35108948 0.78943473 -0.20620456 -0.086956546 -0.48340645 0.14478679 0.42782292 -0.5122969 0.87097645 -0.48483682 0.3178289 -0.9483236 -0.038916692 -0.97102535 0.6047115 0.20223054 -0.8174195 0.10101714 -0.84603244 -0.122833915 0.20471138 0.548929 -0.6389664 0.03787251 -0.91310894 0.29062107 -0.45005828 0.14214475 -0.5727911 0.40624985 -0.019739185 -0.54952186 0.5767776 0.28097814 -0.5557129 -0.15687649 0.8575344 -0.6060448 0.02797421 -0.14059891 -0.01043126 -0.022264754 -0.3525777 0.5202804 0.59277743 0.34994915 -0.42976087 -0.6454185 -0.20951861 0.7828104 -0.13174823 -0.4766326 0.34282538 -0.34204113 -0.22883742 0.026438821 -0.8044448 0.18225989 -0.18010601 0.7310348 0.8153 -0.3404755 -0.47965446 -0.3494 0.14261582 0.0031280816 0.87566376 0.069851816 0.34427887 -0.69159335 -0.4274609 -0.05999081 -0.6189004 0.08667247 -0.6784671 -0.60375047 0.35182402 -0.06980839 -0.099027395 -0.5788048 -0.2673755 -0.28048393 0.20712438 0.8608335 0.45321637 0.94104654 0.097761266 0.2137845 -0.40219605 -0.9361489 0.33953148 0.011687875 0.22654024 0.63556993 -0.108458266 0.15120547 0.044198826 0.35013953 -0.74052763 0.123065054 -0.35299432 -0.13460352 0.23242372 -0.46493393 0.36887902 0.75025856 0.44795126 0.45900965 0.1835475 0.17465419 0.16520116 0.34617987 -0.8881686 -0.28289515 0.9154582 0.39114034 0.35918653 -0.39643475 -0.0022900328 0.22024989 0.023902334 0.42285582 -0.2364375 0.7326817 0.2435531 -0.39618886 0.79769737 0.31123608 0.28901973 0.7877548 -0.081265025 0.5049547 -0.6590063 -0.71390986 0.06405537 -0.11549634 -0.24363856 -0.83447385 0.69331163 0.33505768 -0.42900905 0.07094279 0.4449728 0.60338694 -0.0075772107 0.09566503 -0.06633242 -0.27999216 -0.689826 0.35838372 -0.20817085 -0.4462825 -0.60877776 -0.08521713 0.17080227 -0.32529604 0.11855532 -0.3679635 0.19560668 0.6076539 -0.2848724 -0.37465823 -0.67607 0.5944555 -0.07761895 -0.81886196 -0.180615 0.648703 -0.3526345 0.082053 -0.1651651 -0.31110692 -0.25464237 0.9213212 0.35760587 -0.76504135
0.24457377 0.32691842 -0.38112068 0.0019025318 -0.6566748 0.45817447 0.11975479 -0.70386064 0.697796 0.5642103 -0.7191651 0.20536715 0.85682285 0.19025914 -0.3399447 0.798158 0.32363233 -0.07059038 -0.6520278 0.37712976 -0.6860953 0.022262784 -0.425547 0.6499778 0.946364 -0.051482946 -0.016215902 -0.20157179 0.22964074 0.32062095 -0.58410454 0.47332922 0.8601341 0.1382122 -0.4343499 0.3612528 0.45235074 0.107501484 -0.31896198 -0.72754997 -0.33182877 0.6052774 0.7134709 0.17551784 0.22441673 0.46734622 0.37036753 0.6809296 0.84587455 0.0687015 -0.79944414 -0.51954436 -0.5535596 0.79812956 0.7697765 0.43808457 -0.85161364 0.24549982 -0.07374489 -0.47046193 -0.5196617 0.47865197 0.3353843 0.86543477 -0.16394818 -0.27802247 0.61590517 0.7254968 -0.32473433 -0.82025343 0.51985824 -0.8327729 0.9606659 0.018636908 0.2475824 0.4292422 0.19776641 -0.15904592 -0.046569042 -0.83783466 -0.27096114 -0.87475693 0.039805252 0.75111556 -0.20757103 -0.019930346 -0.6255703 0.59681153 -0.6768959 0.4406489 -0.06743109 -0.7690589 0.18221872 0.69940203 0.44941533 0.33750826 0.40928197 0.117355436 -0.28907156 -0.81889 0.23069936 0.34744924 0.4102313 0.68193984 -0.53774095 0.5175907 0.06173395 0.5038343 0.048049144 -0.37512067 0.09602325 0.6916838 0.87019134 0.7291292 0.67224085 -0.8164407 -0.15806046 0.6135454 0.265662 -0.6892739 0.6096239 0.69176525 0.39270347 0.88060284 -0.5728064 0.11168652 0.64829135 -0.7067107 -0.6521456 -0.2749828 0.8932288 0.3394523 -0.60935646 -0.5435381 -0.25137833 -0.25762585 0.06383969 0.23230354 -0.12825586 -0.55292684 0.39562556 0.77874845 -0.53889996 0.2814192 -0.7035885 -0.3693187 0.3458336 -0.34686705 -0.35652977 0.017097361 0.619633 -0.46852535 0.019981429 0.8102804 -0.53737557 -0.55986774 -0.44904307 0.2143075 0.13072518 0.2719438 -0.36808965 0.26719448 0.2636601 0.85037357 -0.20139429 0.8773872 0.0011738613 -0.5451602 -0.64901614 0.24698812 -0.1605303 0.5505035 -0.33422616 0.30517158 -0.8416238 0.5429967 -0.17754188 -0.6644057 0.45809966 -0.41736537 0.3888399 0.413845 -0.16781251 0.47780493 -0.62489605 0.5738752 0.712545 0.4798399 0.6394673 -0.6553283 -0.803643 0.041730426 0.27457184 -0.23239745 -0.5131444 0.06885621 0.12731972 0.15323898 -0.62960446 0.6504597 0.13085324 0.60119724 0.9826011 -0.5455801 -0.7271204 0.92673004 -0.6884649 0.08787723 -0.31704378 0.63830787 0.24692795 -0.38305098 0.2114681 0.33142924 0.5619413 0.6127754 0.8124102 -0.6285523 -0.08290309 -0.17810364 0.78719056 -0.76845294 0.82116336 0.10966821 -0.25012636 0.7589743 -0.3374287 -0.94898397 0.35236892 0.19150719 -0.8483907 0.31118444 -0.3020456 0.361029 -0.77092224 0.13001883 0.002320733 0.07858407 -0.21595035 -0.43778604 0.1942256 -0.4368186 -0.7094315 -0.19777086 0.65701526 -0.0640442 0.385001 -0.60621923 0.020065479 0.023442067 0.41177303 -0.7248646 0.45037302 0.022357885 -0.5978962 -0.06435557 -0.5286347 0.77904415 -0.111924335 -0.74951386 0.4078476 -0.40605056 -0.6537316 0.42027658 -0.5711399 0.28637126 -0.21489453 -0.10071136 0.46360517 -0.62450147 0.5289859 -0.48329213 -0.16191304 -0.3148316 0.79655135 0.22081606 0.09856148 -0.36903775 -0.12688723 0.42828888 -0.59772295 0.2639756 -0.61303437 -0.2083284 0.4292212 0.61199194 0.460031 -0.82680815 -0.80521137 0.35950458 -0.3597762 0.62477237 -0.043589838 0.6610099 -0.4943393 -0.22232717 -0.6756519 -0.34877303 0.7671063 -0.80797744 -0.4879105 0.7352004 0.041082725 0.5480288 0.19158985 0.11875175 -0.9496827 0.6704025 -0.72110194 -0.93950754 -0.159159 -0.028186627 0.86192447 0.7460682 0.1267532 0.18080214 0.27364627 0.2322708 0.7809983 0.09299709 -0.097656846 -0.56771153 0.95237726 0.60686654 0.75046176 0.61067635 0.7075339 -0.072775215 -0.3538744 -0.19030407 0.42742306 -0.08492009 0.6853347 0.6090341 -0.07390751 -0.500888 0.55085975 -0.19463785 4.284084e-06 0.2399291 -0.21943083 -0.8766607 -0.16501333 -0.61218035 -0.807322 0.1133576 0.8001913 -0.44761685 -0.6089376 0.570299 -0.42832184 0.3584047 0.62031585 0.74426 -0.47995546 0.4838179 -0.8014451 -0.25396436 -0.23904186 -0.73608124 -0.7549327 -0.8370174 -0.20322181 -0.27474856 0.78453773 -0.72604567 0.7785863 0.5541931 0.13162386 0.54172635 -0.84254277 0.63182634 -0.18692133 -0.61183923 0.38020954 0.9022698 -0.21057026 -0.045087967 -0.6326902 -0.6175258 0.6560643 0.6704161 0.7037377 -0.58989155
0.24445786 -0.39309117 -0.41239136 -0.89412653 -0.11699011 -0.34521955 -0.5949536 -0.3055724 0.3117428 0.9475426 -0.7297057 -0.00898017 0.51919687 0.8619444 0.45403633 0.03154482 0.14564463 -0.11250958 -0.58175117 0.8218816 0.56336135 -0.8703041 -0.6456701 -0.50567156 -0.6881651 0.020788591 -0.722533 -0.44344205 0.09176344 -0.49601132 0.7138977 0.52408856 0.96298206 0.74283487 -0.65779346 -0.0035384372 -0.44711307 0.38616362 0.22426859 0.85964507 0.42703018 0.53810275 -0.4250722 0.6786462 -0.48016414 0.6876663 -0.90010303 -0.35068813 0.054443043 0.8706746 0.4609493 -0.20327656 0.3887534 0.7951568 0.6859818 0.74570054 0.2643155 0.50666386 0.7275234 0.37378705 0.046527207 0.8032228 0.83422226 0.557473 0.38782406 0.6541356 0.6251836 0.97865164 -0.58487564 -0.4891439 0.48142245 0.71537256 -0.844625 0.63914615 0.46238512 0.46031892 -0.6942617 0.42415735 0.68703926 0.6555245 0.69403577 0.4720405 0.87591004 0.0792561 -0.6617663 -0.67277974 0.9285891 -0.65187436 0.23877433 0.27730593 0.830113 0.32064292 0.61527073 -0.55218285 0.011045508 0.92770535 -0.21329372 0.7314011 0.8908852 -0.4238922 -0.8171678 0.7100609 -0.3205746 0.18868914 -0.79640245 -0.42389825 0.122480534 -0.69058806 0.86986464 0.891261 0.6517168 0.8122244 -0.8818281 -0.481969 0.31690186 -0.68037355 -0.18791138 0.49329254 -0.4708151 -0.03431301 -0.9689318 0.57990426 0.59270227 -0.18597572 0.7118569 -0.22703329 0.28012517 0.7271203 -0.73655623 0.38386077 -0.6503345 -0.6189709 -0.36576688 0.8551801 0.77901584 -0.5868256 0.22354746 0.26913074 -0.040132664 0.5591588 -0.47298062 0.22066261 -0.5686818 -0.96340245 -0.6553139 0.8522352 -0.16582392 0.04257094 0.48696157 0.7985727 0.64925766 -0.010475121 0.42631152 0.6100132 0.16559061 0.67027014 0.0788464 -0.67842495 0.248972 0.09250655 0.20729986 0.2024039 -0.68034375 -0.6702583 -0.06771515 -0.12116307 -0.091515504 0.79410475 -0.6896317 -0.09911252 0.89286965 -0.80702585 0.781122 0.23861548 0.41795033 -0.8383525 -0.25771394 -0.26988363 0.68574107 -0.38682404 0.1405405 -0.44512367 0.47615683 -0.42057994 0.892406 -0.8673545 0.07047235 -0.35548198 0.6264749 0.5736766 0.054397285 0.7783644 -0.16986883 -0.7955469 -0.5615805 0.295961 0.34423319 0.6896373 0.6608437 -0.85392535 0.41571414 0.8907391 0.4025522 -0.3994345 0.2359674 0.6577748 0.8067223 0.51005304 -0.5849922 0.37500763 -0.9232397 -0.6576773 0.52920634 -0.7348769 0.09565528 -0.6451192 0.7090167 -0.7445541 0.102139495 0.409289 -0.36542645 -0.5395764 0.58418226 -0.17559655 -0.2173737 0.61632055 -0.28744367 0.44542444 0.652351 0.75429946 0.22870162 0.23096704 -0.7064411 0.4234506 0.7593913 0.42078668 -0.85754883 -0.8262713 -0.71911156 -0.3404182 0.717779 0.6031374 -0.79738444 -0.3191883 -0.37296873 0.6136739 -0.5405905 -0.6132505 -0.31813073 -0.5116098 0.19764672 0.65132856 -0.12878618 -0.12667334 0.55082697 -0.46951407 -0.72339845 0.65815437 0.08027889 0.37382555 -0.48160335 -0.5191016 0.31873685 0.9023318 0.6477568 0.28861797 -0.25376278 0.8455384 0.67355853 0.6238058 0.55294704 -0.9047758 -0.42375264 0.5272477 0.60270095 -0.46274325 -0.29082748 0.79896367 -0.42133987 -0.62931335 0.42961043 0.17148982 0.35692453 0.5609244 0.6566145 -0.7225371 0.037151337 0.50228786 0.48044875 0.110390164 0.88616526 -0.38364506 0.5748883 -0.79730815 -0.81377864 -0.838038 0.36782178 0.56793624 -0.029974617 0.3270801 0.94670784 0.57718515 0.11667488 0.819226 0.70000887 0.89017886 -0.7640631 -0.59297365 -0.5639 0.77048117 -0.23064288 -0.6944911 -0.29140955 -0.89540094 -0.0734395 0.441874 0.26610813 -0.47292638 -0.4403753 -0.46027127 0.32809728 -0.708109 0.12860194 -0.10880557 0.26527658 0.5799276 0.58223855 0.8366754 0.5819672 0.2555768 -0.495585 -0.29768065 -0.124659956 0.2667347 0.22174859 0.8077134 0.6306042 0.83647203 -0.8573313 0.47871858 0.6976503 -0.4706564 0.15426515 -0.622153 0.640949 -0.76274276 -0.38890836 0.12441088 -0.14453337 0.75922966 0.8919726 -0.2661264 0.47542423 0.9474962 0.6051742 0.33665383 0.57027376 0.42559284 -0.5349004 0.910448 -0.8054321 0.7456996 -0.47025293 -0.7366473 0.66230106 -0.9553244 0.20190418 0.37855935 0.18183935 -0.7893463 -0.50950485 0.724819 -0.44687766 -0.36061543 0.21907729 -0.31540242 -0.6940006 0.45306176 0.6203999 0.7475113 -0.0063413978 -0.45748013 -0.32259727 0.45756963
-0.7298574 -0.69798046 0.37793988 0.1858128 -0.8582992 -0.7598279 0.68450457 0.43265373 -0.5484414 -0.74017555 0.53475314 -0.21240498 -0.351324 -0.33437768 0.761924 -0.48900357 -0.7844888 -0.6531448 -0.8160349 0.48776478 -0.3764557 0.23864853 0.9088023 0.34694076 0.26822925 -0.08719663 0.6027426 0.24982117 0.33134356 0.63938135 -0.45420957 -0.6834332 0.80738854 -0.2348163 -0.5087491 0.7401428 0.20002925 0.10114208 0.714877 0.21962851 0.48464978 -0.54157716 -0.5752456 0.730476 0.11589476 -0.44458514 0.7626224 0.9200995 -0.15707397 0.37051716 -0.33318567 0.8818451 -0.1950703 0.46026355 0.27803645 0.5528866 -0.32176867 0.46592635 -0.70834416 0.66938084 0.706617 -0.2723628 0.5745008 -0.62747085 -0.78707886 -0.5953008 -0.47047964 0.58890724 0.6522223 0.8000806 -0.8667426 0.6876412 -0.5542723 0.013230681 0.34296134 -0.7644201 0.31269866 0.3427156 0.47341046 -0.3387663 -0.6620222 0.07039711 0.8009023 -0.05194036 0.62372446 -0.86448514 0.9658828 0.50234354 0.7644322 -0.5875155 -0.6879148 -0.7963353 0.10206087 -0.7585991 -0.70511436 0.8712337 -0.34533408 0.57989234 0.4729629 -0.37942392 0.1653308 0.35705292 -0.38102406 0.19861612 0.3081456 -0.93974215 -0.6055089 0.79042006 0.06456987 0.6367677 0.61759347 -0.7331405 0.18496166 -0.84909606 0.15726846 -0.039766386 -0.6583136 -0.3597834 -0.5229605 0.8350318 -0.0048208237 0.27844033 -0.7825144 -0.42532766 0.66917115 0.120057605 -0.52998865 0.933521 -0.35309586 -0.71665394 0.68561816 0.7951339 0.6479446 -0.74743634 0.16236383 -0.9396682 0.8558908 0.8287159 0.060901787 -0.19425458 0.30064118 -0.02035115 -0.42055115 -0.75076205 -0.69274575 0.6858437 0.887633 -0.11562689 0.10969046 0.2728848 -0.4241315 -0.6854847 -0.3268701 0.84961385 -0.65660894 -0.55106753 -0.62157285 0.89301085 0.19976029 -0.17821097 0.03263631 0.53380746 0.20582734 0.35787016 0.021374695 0.30176485 -0.10076831 -0.5847445 -0.5110076 -0.6477561 -0.7008026 0.80170447 -0.78028876 0.6467879 0.9282904 -0.25159743 0.34367383 0.7890744 -0.76465935 0.8061453 0.016279746 0.6519399 0.20198114 -0.8328564 0.9307675 -0.58644426 -0.35222107 0.41346785 -0.79639715 0.35142282 0.6091075 0.5120181 0.66651493 0.17174616 0.24604674 -0.52295446 0.60191244 0.031076454 -0.6896365 -0.06599744 0.75471514 -0.7465 0.6647502 -0.67876315 -0.6246566 0.58280027 0.8196103 -0.6268511 0.81575155 0.6750963 0.51633096 0.49432272 0.90870756 -0.76244116 0.8213068 0.17206338 0.6370215 0.7749054 -0.8235968 -0.81084543 -0.56664854 0.38807386 0.5392514 0.60647506 -0.76139456 0.040089466 0.0499662 0.9020163 0.6183484 -0.38222584 -0.85057515 -0.83241844 -0.31361 0.91954917 -0.6469679 0.658002 -0.59733766 0.715245 -0.6813639 -0.6772932 0.10851961 0.81003386 0.8201994 0.46170467 -0.6597676 0.7035942 0.19210652 -0.1822271 0.37888107 0.5792619 -0.4934617 -0.39808747 -0.7406883 0.015414604 -0.2811591 -0.8584259 -0.60260344 -0.65177906 0.1546992 0.42548308 0.5940534 -0.7632625 -0.27552128 -0.108016424 -0.6123778 0.550801 -0.7959957 0.7453829 0.7577946 0.38392645 0.015231155 -0.22335348 0.77540904 -0.3824808 -0.9409155 -0.68487144 -0.549037 0.5325043 0.81669337 0.5299268 -0.07345538 0.7151354 0.8379641 0.36885595 -0.13363034 -0.78394127 0.6439554 0.1363324 -0.7549494 -0.6268556 0.7064534 0.21459602 -0.6938418 0.6062537 0.73415834 -0.74503183 -0.16384614 0.7450147 -0.93584204 -0.25558683 0.5532381 -0.5993928 -0.3335874 -0.7955845 -0.87682015 -0.5657725 0.42641994 -0.26622915 0.6597171 -0.54970133 -0.518761 0.5634156 0.52218795 0.4114386 -0.72861123 -0.70416987 0.33477145 0.8468788 0.053436797 -0.7482005 -0.01913516 -0.030283391 -0.4927624 -0.58772767 -0.8473344 -0.79902744 -0.7695872 0.34829742 -0.35780737 0.84114933 -0.7310495 0.62889814 0.6452265 0.44946003 0.23778246 -0.6507261 0.6452147 -0.1403614 -0.77396417 0.34588903 0.36739707 0.707704 0.7811258 -0.4806237 0.82949597 -0.8701097 -0.6461689 0.2706034 -0.5204323 0.70973355 -0.75076926 0.19609234 -0.42210823 0.59085625 -0.45213276 0.6047242 0.35706353 0.7776905 -0.5592347 -0.6837428 0.47926176 -0.24008554 0.2811919 -0.62296784 -0.36711282 0.79233044 -0.29442325 0.77524006 -0.7449493 -0.82558984 0.11471436 -0.3972516 0.2681756 0.77286917 -0.61828136 -0.832561 -0.18433948 -0.11757643 0.7372533 -0.5721944 0.45825353 0.20778044 0.71392316 -0.7351727
-0.14008486 -0.5945691 0.057559147 0.193579 0.14676267 -0.26668736 0.25535256 0.5572352 0.67895377 0.4980818 0.7075138 0.25623474 0.22723593 0.828578 -0.2723497 0.010345444 -0.6777124 -0.21589224 -0.19404395 0.55738485 0.4062088 -0.36824027 -0.20866035 0.12839474 0.5446683 0.16196293 0.25484478 -0.38519955 0.71738505 -0.13871264 0.41777056 0.12920234 -0.07998958 -0.058032162 -0.021379909 0.10351498 -0.39067814 -0.0622345 -0.3589277 -0.42688912 -0.05941485 -0.33875778 0.1663608 0.3687855 -0.41627914 0.19410442 0.7576697 0.45298576 0.94044834 -0.37196535 -0.21897921 0.47394052 0.31792334 0.65936965 -0.73832726 -0.17390624 -0.32621858 -0.08476958 -0.14227784 -0.3398627 -0.37307924 0.011657804 0.16775231 0.20499466 -0.44682407 0.025210895 -0.100603834 0.809391 0.6871241 0.54420745 0.061721552 -0.20292689 0.26390707 0.7098372 0.06357512 0.026563168 -0.13456061 0.39489904 0.54851377 -0.22374578 0.45666775 -0.15253612 0.037848487 0.41565624 -0.07751466 -0.27693012 0.14636484 0.13230631 -0.6126473 -0.30143803 -0.17534697 0.2983623 0.22959232 0.06035289 0.32931072 0.7186787 -0.23601848 -0.020884894 -0.09940664 0.21072048 -0.38314378 0.19456059 -0.66947854 0.029705022 -0.47499228 -0.23374426 0.035008773 0.17888826 -0.41566098 0.4895798 0.43173975 -0.23045525 0.22799018 0.015372589 0.2540078 0.38443387 -0.25681072 0.81230736 0.15681078 0.107433155 -0.3864732 0.14209354 -0.62720436 -0.56977475 -0.04768353 -0.60504127 -0.39495125 0.25661203 0.2530408 -0.25567093 0.7215494 0.36028928 0.22924505 -0.70587677 0.33394077 -0.4925468 0.51228863 -0.024785645 0.39142781 0.51864403 0.67271066 -0.57165116 0.72785115 -0.5862171 -0.59872997 0.023095809 0.23243225 0.39275056 0.7441661 0.36494213 0.08080249 -0.3761418 0.024166122 0.07129853 -0.23681098 0.12552842 0.2253395 0.5146409 0.26843476 -0.31722522 -0.12540321 -0.56751966 -0.5540066 0.70337284 -0.5708296 0.4857348 -0.3794957 -0.16168721 -0.24567097 0.24192537 -0.75688124 0.14910135 -0.87149775 -0.007833421 0.3951662 0.15517715 -0.56634855 0.019076837 0.16986035 0.09495711 -0.19209039 0.27065626 -0.6198237 -0.29849458 -0.04058513 -0.3975531 0.7399188 -0.2765779 0.5347195 0.37836045 -0.086134985 -0.32484904 0.18666232 -0.285253 -0.03218797 0.3587265 0.41304815 0.2937616 -0.5630484 -0.24436419 0.5332146 0.061030954 0.81876194 -0.44549787 0.22502558 -0.78364027 -0.14706588 0.31859928 0.521426 0.92874056 -0.83492756 -0.51988417 0.27258012 0.45395175 0.18913795 -0.22589265 0.5763405 -0.08767724 -0.29385027 -0.5188838 0.43740118 -0.31248185 -0.1576793 -0.07878649 0.07299388 0.03405325 -0.46335027 0.3415887 -0.46205124 0.19657877 -0.63594735 -0.5443175 -0.17122588 0.23203462 -0.009236246 0.28768876 0.45590547 0.37155282 0.28018212 -0.46254003 0.20028272 0.21579918 0.55077624 0.11456691 0.75415564 0.70138144 0.06701503 0.0039079264 -0.5121439 0.037412673 -0.18317607 0.034078814 0.39357167 0.5847769 0.13958657 -0.4432713 0.0710695 -0.4455744 -0.12504117 -0.16956142 0.30805236 0.38904625 -0.31314117 0.54707676 -0.30332553 -0.26509225 0.2877719 -0.047636494 0.6072764 0.3976733 0.30028993 -0.106483296 0.72668594 -0.36040896 -0.06484002 -0.1344893 0.2530988 0.48404276 -0.013283864 -0.609385 -0.7556957 -0.21674368 0.75063884 0.7784499 -0.22480854 -0.060764186 0.5777265 0.093151204 0.33015501 0.37105125 0.09412524 -0.34254768 -0.027326524 -0.022793606 0.6002797 -0.5207536 -0.30514157 -0.7082188 -0.6254901 0.6195781 0.23247135 0.14720847 -0.4066994 -0.30795738 -0.43882644 -0.28891346 -0.38619155 0.40880477 -0.07885648 0.1415939 0.28138188 0.42415535 0.37962085 0.18392517 0.12308076 0.35420913 -0.3674582 -0.23237938 -0.021034844 0.17965111 0.23224337 0.8472531 0.4058978 -0.23658684 -0.69463736 -0.061244994 0.215909 -0.25692624 0.29319093 -0.41130203 0.17528507 0.30218905 -0.051011354 0.83596367 0.47791898 -0.23333934 0.26133525 0.83178556 0.14409247 0.062905826 -0.15632446 0.6121574 0.32613036 -0.30142725 -0.29935503 -0.023265421 0.5085594 0.01646074 0.15183222 0.31730086 0.0675336 -0.1050101 0.373285 -0.24159513 -0.30977103 -0.10563649 -0.25017864 0.34591255 0.894027 0.047794335 -0.34108916 0.807951 0.13291246 -0.43071282 0.4771853 0.53557545 0.3606888 -0.47232765 0.11146125 0.37874717 -0.6105857 0.079851 -0.11012406 0.08142785 -0.31506753 -0.17115936 -0.8275254 -0.3627468 -0.08474751 -0.22274317 -0.5131285 0.03974318 -0.19345883 -0.011933565
