-0.5146142 -0.7658279 -0.03879942 -0.20631638 0.77192414 -0.33957037 0.3974894 0.26544362 -0.30912814 0.8592155 0.40507746 -0.14918688 0.4870876 -0.40234566 -0.7154218 -0.8154088 0.06437752 -0.096627 -0.22280611 0.24547225 -0.27586585 0.8599888 0.034612507 0.5618436 0.23885454 0.2197289 -0.11908726 0.17800528 -0.2078694 -0.62864685 -0.42094392 0.2801845 -0.24889046 -0.6458185 -0.21767345 -0.054790273 0.49955878 0.50434947 -0.64411306 0.3769927 0.4739732 -0.6098262 0.07591864 -0.2107636 0.025073752 -0.24413995 0.24148998 0.12896335 -0.62757576 -0.12434835 -0.37135017 0.4833169 0.71233135 0.084420614 0.08956707 0.16199109 0.34443372 0.7546654 -0.3867534 -0.33420452 0.31924677 0.25356317 -0.023978561 -0.8457757 0.36536947 -0.36327797 0.3461653 -0.79437697 -0.15741944 0.16254458 0.70534635 0.228589 0.2621174 -0.1932995 0.3108205 -0.050245076 -0.2289299 0.48608345 0.29000378 -0.2836543 0.47376132 -0.10039309 0.35593587 -0.24589798 -0.27987778 0.27515572 0.75261456 -0.17486456 0.046152987 -0.68460375 -0.24395123 0.12445392 0.8305457 0.578014 0.39782023 -0.1587346 0.3955145 0.17536768 0.3025457 0.51338685 0.19303942 -0.30896503 0.13633817 -0.4826122 0.27716738 -0.2431137 0.25796837 0.17513628 -0.2589122 0.8751177 -0.11295816 -0.124879524 0.39091435 0.91511524 -0.6935634 -0.051595777 0.21042165 0.67667377 0.25152975 -0.6867721 0.040765457 0.086483255 -0.023303181 0.3258819 0.054425962 0.4825989 0.5100127 0.17358966 0.58539796 0.013203308 -0.2574933 0.12883864 -0.31890774 0.8573984 0.06304413 0.6671231 -0.5678847 0.71279603 -0.765398 -0.3002299 -0.104129925 -0.55303526 -0.15134552 -0.2970652 0.68734574 0.35273296 -0.64525944 0.3765527 0.9165127 0.37837666 -0.6475207 0.30911207 -0.22952762 0.12468945 -0.55515003 -0.5601852 0.4400402 -0.16235149 -0.025176719 -0.5374429 -0.04329464 -0.17993899 0.46733385 -0.61702037 0.0029533692 -0.18441275 -0.021751389 -0.13846302 -0.40301818 -0.15895495 0.031104185 -0.23726262 -0.2659991 0.28882003 -0.4371758 -0.95951366 0.39851815 0.25379857 -0.26736364 -0.52422124 -0.81598884 0.65623546 -0.40827832 0.8636889 -0.74900925 -0.025498837 -0.02447638 0.5240723 0.6973617 0.50258464 0.7683823 0.091966145 0.033054322 0.6472467 0.21129265 -0.5466651 -0.58566874 -0.25258213 -0.84809387 -0.41075775 -0.09884018 -0.57241404 0.27656695 0.7212706 -0.83530146 0.10015545 -0.27638015 -0.8969385 0.65504533 0.4733112 0.104598716 -0.036939494 0.69033635 -0.22358058 -0.30695736 0.08766781 -0.2495709 -0.22548339 -0.84368825 -0.04521692 0.38936144 -0.348114 0.2606243 -0.19545473 0.029347137 -0.26568598 -0.59188807 0.5267515 -0.48663497 -0.2661044 -0.11070682 0.6120419 0.49070507 -0.0109907 0.10076448 -0.35918278 0.45302185 0.2618034 0.6932066 -0.33692586 0.16957293 0.32348496 0.6164018 0.48840046 0.7183646 0.26914328 -0.6744349 0.29082942 -0.116594195 0.27261326 -0.26325724 -0.3159132 0.14058414 0.72742206 0.17307812 0.4771443 -0.03854068 0.67628944 0.16733682 0.74967444 0.23527029 -0.09655654 -0.65392214 -0.610232 0.06585331 0.018708289 -0.3047654 0.115639485 0.23547849 0.40548027 0.89253116 0.5876504 -0.012725253 0.56471133 -0.4899339 -0.7336757 0.5483751 0.4399556 -0.1596522 0.46243018 -0.515774 -0.49007416 0.6905773 0.39079854 -0.39235163 -0.40008593 0.6587678 -0.8613231 0.09135805 -0.40060368 0.29679677 -0.22815214 0.06459655 0.4066037 0.49907243 -0.22517839 0.40052566 -0.4973482 -0.21836239 0.19744825 0.76064765 -0.6246467 -0.64858735 -0.60324955 0.082569085 0.5353448 -0.7517219 0.52934366 0.33555737 -0.59012043 -0.14990404 -0.580298 -0.41321597 0.5203314 -0.3048874 0.45886332 0.5711888 0.046463206 0.26765266 -0.8478408 -0.25978124 -0.09930758 -0.5724655 -0.6220943 -0.53118765 -0.26922214 -0.16857971 -0.64559335 0.11821546 -0.024576537 -0.19922623 -0.94174814 -0.15200809 0.8711026 -0.3388695 -0.021979272 0.46271223 0.40978485 0.8522726 0.10376841 -0.89728284 0.39070487 0.10433846 -0.14705105 0.14071813 0.41592932 -0.20609207 -0.35335904 -0.51926297 0.12223554 -0.6545011 -0.9023142 0.14171682 0.23314929 0.34980807 -0.81007284 0.10428719 -0.6239347 0.8345418 -0.04786685 0.75521326 -0.44510394 0.554046 -0.28119206 0.29273608 0.45091188 0.79973215 -0.55711436 -0.1955344 -0.4863106 -0.04277107 0.026452947 0.7117577 0.1903142 0.42541745 0.23856312 0.30634102 -0.21755856 -0.59064245 0.7534799 0.42046425 0.6567769 -0.42324597 -0.010788582
-0.9643644 -0.2931865 -0.75583595 -0.71954876 -0.27579904 -0.5965418 0.7518019 0.19418135 0.24092557 0.95611626 0.4051783 0.70300084 0.9980021 0.9916919 -0.39485103 -0.77027625 0.010812268 -0.3710153 -0.40490788 -0.52773696 -0.07402652 0.60899204 -0.9689463 0.13516271 0.47742674 0.9043106 -0.2827529 -0.2069555 0.7539792 0.69472486 0.50128037 0.24187504 0.80648696 0.11382739 -0.044206746 -0.23574443 -0.014342455 -0.18026611 0.0053330734 0.46267962 -0.8694286 -0.121723406 -0.36614123 0.013010323 0.08468395 0.58970803 -0.4385268 -0.94806224 0.7157009 -0.6352739 0.0381592 0.09200486 0.5794383 0.7986216 0.8997031 0.9947471 -0.54732466 -0.2536052 -0.9660393 -0.74943155 0.0067702606 -0.17494372 -0.4005245 -0.46893334 0.07480902 -0.643992 -0.24047947 0.4994183 -0.44068417 -0.30708736 0.7398356 0.8657872 0.51905894 0.26797998 0.050629884 -0.92418176 -0.70130515 0.7859408 0.48585415 0.19750832 -0.36438084 -0.7886943 0.17939577 0.41284284 -0.11764712 0.13585737 0.8095361 0.36533362 -0.020528235 -0.6516564 -0.30795 0.941656 -0.6904718 0.54746366 0.98349696 0.58466053 -0.18100876 0.42573816 -0.010186836 -0.26438937 -0.5599595 0.23614521 -0.7852333 -0.69817066 -0.9818998 -0.51106554 -0.49563205 -0.2525252 -0.58215976 0.7467586 -0.14929599 0.45226878 0.53217894 0.5972193 0.15368116 -0.26369035 -0.19567892 0.093040094 -0.6871396 0.5208012 -0.9840185 -0.29027617 -0.6139178 -0.5139538 -0.8529967 0.5098766 0.12255865 0.6002941 -0.24496353 -0.23717424 -0.5816923 0.2920655 -0.35559607 0.16883555 -0.25405422 -0.7387127 -0.5314793 0.96263224 0.47040814 0.034478314 -0.96531075 0.82364583 -0.35670766 -0.36880305 -0.9187852 0.43864 0.40563682 0.6798603 -0.11526709 0.46445116 0.5231845 -0.41636324 -0.5190174 0.4504153 -0.33539256 -0.4487639 -0.7613368 0.095149785 0.40158483 -0.8874044 0.8567979 0.20337206 0.7009799 -0.08172261 0.15298079 0.48806095 0.6089941 0.32448432 -0.7614685 0.09159343 0.2936282 -0.33175758 -0.46949413 0.46317428 0.9965188 -0.73503006 0.19472782 -0.33190796 0.26842368 0.90795445 -0.2550143 -0.7508966 -0.8561425 0.8470298 0.5612432 0.16687761 -0.99354184 -0.6005221 -0.8225991 -0.7089307 -0.6668683 0.86348224 0.7544384 -0.75227696 -0.40986747 0.1420202 -0.22979951 0.6488996 0.33161283 -0.912148 -0.58935463 0.63360786 0.9075363 -0.023561582 0.47541112 0.4982658 0.18455407 -0.90622336 -0.60850745 -0.24103421 0.47950843 -0.5055274 -0.22261491 0.72246844 -0.79587865 0.6848847 0.7449015 0.1547063 0.7028143 0.7878965 0.061452672 -0.36410013 0.20015246 -0.7269691 -0.44311035 -0.7714532 -0.9658313 0.9787996 0.26644218 0.76966316 -0.91256666 -0.7094927 -0.13330969 0.62205476 -0.574592 -0.183277 0.9106872 -0.28940067 -0.50958747 -0.00069404393 -0.81712323 0.21707411 0.32683736 0.52761406 -0.27948928 0.72288215 -0.21585128 0.27918524 0.43601394 -0.014134251 -0.34667376 0.12991318 -0.6781594 -0.75083554 0.8064482 -0.43451053 0.40405214 -0.019305322 -0.3435099 -0.23606473 -0.40623635 0.88461787 -0.40427697 0.9551395 -0.17773859 0.2258768 0.4190832 0.7650914 -0.041814826 0.13568348 0.43714556 -0.6875149 0.9134197 -0.19721417 0.004436694 0.83691794 -0.2659211 -0.034316853 -0.7994467 -0.48050272 0.088572375 -0.3580545 0.51350456 0.73918086 -0.3904163 -0.8239454 -0.41684175 -0.37890965 -0.6189396 -0.049670212 -0.46471405 0.14470471 -0.36494994 0.51587677 0.52778304 -0.8312572 0.4416039 -0.20494027 0.15365139 -0.08336003 0.16572681 -0.7191504 -0.109856114 -0.91502935 0.24916288 -0.15243071 -0.3620208 0.20170154 -0.4732546 -0.9565948 0.37663674 0.5581731 -0.69028085 0.15337604 -0.33711368 0.1444025 -0.19330259 -0.4933131 -0.2139428 -0.21235205 -0.8465156 0.6756637 -0.4158011 0.6059034 -0.6593387 -0.48922017 -0.71116346 -0.74015146 0.484911 0.32504174 0.5623571 0.8286994 0.7412011 0.22050463 0.501719 0.5301726 -0.31465605 0.3830672 0.3589848 0.8680278 -0.5989843 0.8833991 0.08781955 -0.22189648 0.81078386 -0.35823 -0.4945713 -0.33165866 0.3210493 0.23485073 -0.0051717535 -0.8741434 -0.25525463 0.77871627 -0.35212293 -0.32068384 -0.85757303 -0.04216191 0.8543443 0.90563613 -0.48068267 0.13807061 0.06390169 0.10532112 0.7642954 0.53290427 -0.2924425 -0.26520982 0.37697384 -0.43363386 0.0678798 0.6188063 -0.37904224 -0.76974446 0.13654825 0.15327218 -0.80059814 0.87696934 0.8508935 0.28483814 -0.49019343 0.18871562 0.49939075 -0.6987364
0.73485005 -0.6009561 -0.108536735 -0.5364275 0.79282624 -0.57646006 0.92092294 -0.5796925 -0.9477142 0.73963827 -0.42272848 0.7256434 0.4646667 0.49383402 -0.064289965 -0.82739455 -0.057362143 0.94474536 -0.020500217 -0.38293013 -0.69171596 0.3529293 0.4559629 -0.3653761 0.5570031 -0.89923686 0.46143514 0.78753185 0.10996107 -0.67620736 -0.84908897 0.13840404 -0.19657695 -0.46903935 -0.6402688 0.15035236 0.81914306 0.87660205 0.17106855 0.5281958 0.8335682 -0.056978106 -0.0041777897 0.7218438 -0.5583616 0.38123822 0.2984193 -0.48323235 0.5033875 0.53760946 0.16417684 -0.9239153 -0.60339904 0.18579549 0.86157453 0.43209094 -0.5222831 0.9250388 -0.5009817 0.81327933 -0.8925818 0.13429292 0.2864447 0.764075 -0.5419121 -0.58942556 0.7339034 0.74545014 -0.4460034 0.57248217 -0.7579489 0.23063171 -0.56624526 -0.8148044 0.34062195 -0.83565176 -0.4875895 0.8646353 -0.09530467 -0.16644691 0.7109937 -0.7322123 0.5731691 0.52297527 0.5353931 0.6666821 0.95815223 0.09803305 -0.7882708 -0.44817358 -0.532794 0.2716183 -0.30464277 0.34056783 -0.80871713 0.55439126 -0.33719665 -0.25896367 0.2640314 -0.24686117 0.6557704 0.16542698 -0.103029415 0.6329876 -0.4273367 -0.6863439 -0.07900632 0.60401213 -0.33086538 0.7653417 -0.2995841 -0.7720983 0.8514883 0.5588002 -0.41618016 -0.6737546 0.44499585 0.51146364 0.023119438 0.71453255 -0.6641938 -0.72385925 -0.4819289 -0.67998105 0.16514446 -0.84476286 0.8008601 -0.4638301 -0.46514833 -0.5769622 0.79816973 -0.73880833 -0.32930005 -0.53907025 0.7840975 0.7898375 -0.033018097 0.71808624 0.53284925 -0.71417123 0.227004 0.66929 -0.5972229 -0.62277263 -0.741139 0.14423414 0.7128436 0.6034926 -0.30392805 -0.8008691 -0.29844803 0.13059305 -0.8192164 0.7747062 -0.28045425 0.11050093 -0.07868753 -0.36102226 -0.10744306 0.6275004 0.51407415 -0.6968223 -0.7520539 -0.2784429 -0.6819119 0.40920246 -0.81942195 0.21530166 -0.6444434 -0.18908022 0.19085608 0.78130907 -0.70834464 -0.15613586 0.70265317 -0.73733115 0.52583843 -0.28255782 -0.26797283 0.25079125 0.16306224 0.19276619 -0.65822417 -0.6786581 -0.17062192 0.5043244 -0.8368594 0.64485157 0.5539002 0.88656706 -0.35680932 0.6137627 0.82907134 0.112221844 0.632313 0.77276033 0.8062655 0.5671534 -0.62272775 -0.47519416 -0.5530812 -0.69855654 0.77163285 -0.5819212 -0.15463875 0.07664704 -0.29948586 0.1453283 0.83885324 0.58939236 0.42883235 -0.5683062 0.8690437 0.6104097 -0.72026634 -0.05941174 -0.68157065 -0.6950215 0.71539646 -0.31385764 0.60739905 -0.7836201 -0.588284 -0.86528695 0.46042523 0.2618245 0.57742363 0.4958674 0.6190621 0.88457793 -0.51641536 0.043980557 0.61697143 0.4791991 -0.5590125 0.3074134 -0.7290167 0.30364117 -0.49728486 -0.3828949 0.3391912 0.62345785 0.6176818 0.420105 0.7503429 0.48977098 -0.005230738 -0.7322815 0.6082354 0.73014736 -0.41109383 -0.7066475 -0.6341256 -0.11963882 0.83928144 -0.2762359 -0.81056315 -0.70359385 -0.53602266 0.72371334 0.524662 -0.6260917 -0.6581903 0.7224171 -0.6768702 0.16339457 -0.30834097 -0.39283803 -0.5070684 0.814068 0.27102938 0.32536265 -0.7315165 0.7480186 -0.556733 -0.28714398 -0.002153935 0.26227736 -0.85996723 0.7067949 -0.7647717 -0.9172913 0.87012225 -0.57911104 -0.40256596 -0.73647696 -0.43891525 0.5566035 0.7790917 -0.87102157 0.5970373 0.846368 -0.7378149 0.44319016 0.5345738 0.2814558 -0.21007226 -0.87020206 0.6125544 -0.9361443 0.63342136 0.5827897 -0.6761557 -0.96474534 -0.37571996 0.5199357 0.09905772 0.21391357 0.6458245 0.43521094 0.46341747 -0.75574774 0.6017951 0.2611211 -0.6901079 0.7152666 -0.40907073 0.72682226 0.54357624 0.35533887 -0.53059334 -0.13454807 -0.4824805 0.08693987 -0.86325467 0.48349398 -0.35323957 0.0919704 -0.72541827 0.38291988 0.67777747 0.9457798 0.72674745 0.7908444 0.9534752 0.16688004 -0.42391825 0.4849094 -0.83198184 0.79849386 -0.6517434 -0.94819534 -0.7840173 -0.49152026 0.078343056 -0.046369933 -0.5414259 -0.86974925 -0.2973729 0.018138338 0.07936684 0.6580589 -0.5706468 -0.40062264 -0.38421413 -0.7222444 -0.42116565 0.32309157 0.3658727 0.6153063 -0.44544554 0.5591721 0.7517212 -0.508607 -0.5834353 0.84456605 -0.48854738 0.6924114 0.7982791 -0.22093672 -0.3048487 -0.5478613 0.036909666 -0.16830225 -0.5724994 -0.23540103 -0.15157732 -0.013187796 0.6459954 -0.6078478 -0.41447985 -0.90090543 -0.55196345 0.35109645
-0.75838846 -0.41689414 -0.017920155 0.45882958 0.3665375 0.61885166 0.5173882 -0.7191694 -0.26985407 -0.43842733 0.13285637 0.58470374 0.8597503 -0.13943404 -0.25384557 0.8339119 -0.035124317 -0.677318 -0.054925453 -0.35362786 0.22757864 0.83013314 -0.4732678 0.012522452 -0.068904534 0.34681118 0.112458944 0.570608 0.57412744 -0.23768932 -0.6574535 0.4793966 -0.50152516 0.018445045 0.18042895 -0.81580436 0.7328945 -0.7503754 -0.21778527 0.6305816 0.50486004 -0.8174166 -0.3879207 -0.27956253 0.15266594 -0.5188559 -0.04276066 0.23866121 0.9390705 -0.90467954 0.08954111 -0.120024465 0.6530762 -0.116048545 -0.550094 0.87222195 0.76035416 0.048903033 0.47629285 0.86860335 -0.21184903 -0.3939495 -0.22297895 0.6805636 0.13102023 0.60260695 -0.101497665 0.10347699 -0.73931235 0.43523505 -0.12602553 0.98544693 0.7943781 -0.64011157 -0.6309283 0.78788495 -0.33715808 0.4093989 -0.39843464 0.45802426 -0.81117004 -0.4271592 0.08656251 0.6302035 0.82606524 0.31144953 -0.7336829 0.7405069 0.37264192 -0.09351678 -0.8367999 0.1332673 0.9900045 -0.1754063 -0.2551524 -0.90635854 0.95186645 0.7681284 0.2438293 -0.3614979 -0.048299484 0.37672314 -0.7042506 -0.24440211 -0.063952215 -0.1021098 0.81209624 0.05718316 0.109278575 -0.2599222 -0.6860506 0.26655412 -0.1503639 -0.44664383 0.31559223 0.1534004 -0.71730584 -0.19435579 0.38870373 0.48339102 0.5360544 -0.024901997 0.51019377 0.11391501 0.31312934 0.68943346 0.5240871 0.8921337 0.34546602 -0.7975072 -0.15298294 -0.588676 -0.40318713 0.31071466 0.10302428 -0.90195996 0.5602864 0.6457576 -0.57483566 -0.5729501 -0.018194012 0.8092479 0.046897776 -0.4753725 0.83381915 0.40488327 -0.37778518 0.27008325 -0.04185882 0.65815794 -0.59466606 -0.63430303 0.35805643 -0.43083945 -0.34813914 -0.52469295 -0.32901722 0.19522633 -0.63154423 -0.84981436 -0.20052269 -0.52744627 -0.5101998 0.2226376 0.11394365 0.70756364 0.8461717 -0.73773146 0.00778405 -0.94732434 0.60910726 -0.09387952 0.011092208 0.27918723 -0.7138341 0.0065236017 -0.5048919 -0.25181216 0.79197854 -0.5962675 -0.6105982 0.61658907 -0.8092836 0.8495562 -0.6995212 0.8708098 0.7104717 0.95922315 0.16703095 -0.6608492 0.30978495 0.7437326 0.14108849 0.88225746 0.19546522 -0.06953591 -0.15705346 0.15790696 0.101234555 -0.78570807 -0.6454309 0.67929727 -0.11755144 0.8036544 0.010116592 0.44852972 -0.8609146 -0.90718186 -0.089701146 0.5891881 0.3833512 0.6416702 -0.054449804 -0.41960382 0.11808132 -0.7357625 -0.1556559 -0.38724118 0.33285975 0.34274822 0.30082464 0.3835942 0.013656974 -0.94345206 -0.6597039 -0.82951695 -0.2440002 0.07830915 -0.53188944 -0.06018195 -0.9488684 0.31332213 0.49959266 0.0372058 -0.37081307 -0.57750595 0.4750751 0.6920107 0.80942005 -0.55897033 0.03777857 -0.8024241 -0.7687584 0.4930323 -0.609965 -0.76313096 -0.46042648 0.50229347 -0.12254946 -0.6430828 -0.62570983 -0.6119102 0.41315615 -0.42694044 -0.558264 0.5684422 0.28435308 -0.21891074 0.59121174 0.9697664 -0.030823395 0.24069096 -0.7909254 -0.46293545 -0.40749538 -0.49644536 0.86646044 0.65343606 0.041587353 -0.10550519 0.5711103 0.8074714 0.7122683 0.16483723 0.17291597 0.3310306 0.0049772337 0.29996425 -0.5337215 0.14574428 -0.6151584 0.47334903 -0.2703334 0.73564744 -0.91628194 0.61070794 0.97032785 -0.23683113 -0.37935138 0.6349818 -0.5039246 -0.7993449 -0.5590003 0.9062639 0.09850196 -0.74790204 0.85370845 -0.3749727 -0.18487449 0.07104801 0.38889962 -0.38580194 -0.74469143 -0.7807417 0.0033445433 0.008803114 -0.7160137 -0.329067 0.46224082 0.47394067 -0.8822307 -0.0981917 0.85493803 0.36408153 -0.0068920814 0.30291218 0.8933461 0.5396089 0.23865588 -0.056408413 -0.40139925 0.55504733 0.09086621 -0.17290185 0.58043516 -0.7913349 -0.58522004 -0.55406976 -0.76888776 0.3753492 0.88025135 0.02602011 0.24343961 0.2865537 0.9210503 -0.7530975 -0.29008996 0.20659643 0.9744364 0.27539504 -0.21875942 0.047671936 -0.7143466 -0.012244549 -0.55744094 0.60612726 -0.72918296 0.59455514 -0.764639 0.13245632 -0.14583017 -0.92370945 -0.2992914 0.33722726 -0.36254197 -0.63760376 0.27392352 -0.22525503 0.16473219 -0.94454956 0.09719868 -0.6523218 0.35301173 -0.7866844 0.8357987 0.17900339 0.6285036 -0.20623386 -0.13888256 -0.5015826 -0.62519693 -0.402905 0.38419354 -0.6109196 0.34477246 -0.025486043 -0.58368796 -0.40303615 0.40589577 -0.4895674 -0.3374611 0.35269347 0.9796743 -0.91952825
0.46885863 -0.9516984 -0.5670437 -0.84080815 0.6789442 -0.52636105 -0.8208059 -0.23287618 -0.8317249 0.91461927 0.829471 -0.56793237 0.9757173 0.16010307 -0.11128992 -0.95622015 -0.9625073 -0.34568876 -0.96960926 0.72764665 -0.7811557 0.6056351 -0.9234004 -0.80395544 0.5809365 0.6125306 0.20349428 0.69908 0.7553377 -0.65494645 -0.5692904 -0.6402483 -0.30737007 0.06018191 0.25741667 0.8244693 0.96231693 0.91301 0.24706522 0.9032737 0.7465721 0.37386847 -0.9136792 -0.8239074 0.28505123 -0.70874643 -0.53335446 -0.7487531 -0.59475756 -0.67052597 0.028794058 -0.28231895 0.9305466 -0.6308071 0.83825296 0.6719324 0.5309296 0.46214077 0.8327625 -0.9374741 -0.8359301 0.30296296 0.7779454 -0.6688002 0.7598961 -0.5115296 0.3714887 0.14858392 0.7567251 -0.8613749 0.8540993 -0.4034928 0.63126385 0.91418284 0.8333116 0.5023997 -0.8662732 0.503962 0.9919185 -0.15570194 0.86392605 -0.25261298 -0.7252885 -0.9396235 -0.6361749 0.7686864 -0.3795461 -0.5677515 0.5807427 -0.97409105 0.81407946 0.85006994 0.7907726 -0.89495957 0.8443374 -0.117119126 -0.42500407 0.9391885 0.91192997 0.29720682 0.6307235 0.7901028 -0.74055123 -0.8092214 -0.8790341 0.70492375 0.63646793 -0.7944806 -0.0013036821 0.9561207 0.6663755 -0.14403798 -0.81909317 0.7695045 0.8653653 -0.687269 0.6165737 0.17420778 -0.69102806 0.63529396 0.71193725 -0.6561809 -0.5916489 -0.006499501 -0.7772697 0.70193493 -0.56235784 -0.58482367 0.79804385 -0.87779546 0.8366536 -0.7446767 -0.665618 0.49622375 0.40051106 0.8049297 -0.4996084 -0.32597733 0.05638053 0.8018838 -0.9906109 0.3005206 0.32898736 -0.7406369 0.4748692 0.78463775 0.2854056 -0.270847 0.7382051 0.55619645 -0.3104432 -0.6100744 -0.0014132764 0.90005356 -0.6984958 -0.948161 0.2208425 -0.8385992 -0.7308639 -0.98327756 -0.7892823 -0.58610934 0.47395158 -0.62003565 0.7889906 -0.97299963 -0.32948864 0.77381444 -0.9394088 -0.6778891 0.006503485 -0.76254654 0.6457384 -0.55902356 -0.810922 -0.9789337 -0.25994918 -0.39226124 0.6249178 -0.66111904 -0.9826191 0.7865843 -0.9849512 -0.49006468 -0.89011973 -0.3271101 0.4365465 0.9023944 0.9739515 0.70239645 0.41393048 0.7042207 0.35592413 0.6005104 -0.09726641 -0.5475085 -0.78731257 0.96135825 0.60191447 -0.9713065 -0.43977618 0.309048 0.92967707 0.642188 -0.6656384 -0.39134523 -0.6648353 -0.97130305 0.5965843 0.624547 0.04968484 -0.8720596 0.99133277 -0.81527793 -0.65945464 -0.7535457 0.4231888 -0.15077925 -0.29627132 0.57379985 -0.13319045 -0.8523023 0.81342125 -0.5336986 0.75644857 -0.48527583 -0.968081 0.78486234 -0.026062744 -0.6600025 0.2124402 0.42833054 0.76745313 0.6180838 0.82770205 0.7617601 0.9479929 -0.94649714 0.63604647 -0.5425209 0.9122659 0.82927775 -0.610489 0.9053915 0.9654444 -0.45462167 -0.7687083 0.26044807 0.4739223 -0.26548427 -0.18278171 -0.8588789 0.9514651 0.8109695 0.9183351 0.18765931 0.63234323 0.81449896 0.5964638 0.5825882 0.31536815 0.60451436 -0.84589404 -0.5632022 -0.107728675 -0.32447597 0.73332936 0.6015555 0.7940597 0.78058076 0.7671478 0.6283924 0.90796894 0.72541106 -0.6471659 -0.8059584 0.46727178 0.26947346 0.009836711 -0.40837783 -0.4326885 -0.8968577 0.98413813 0.96993715 -0.8998037 -0.50928694 0.97124296 -0.9347315 0.7529202 -0.865974 0.4419157 0.78638285 -0.9434756 0.8636847 0.9311094 -0.7436759 0.50104916 0.019022906 0.8428909 -0.24600917 0.9702204 -0.45149875 -0.9744874 -0.08908367 0.15690339 0.72332877 -0.9511442 -0.6757942 -0.37238544 -0.9339453 -0.89912045 -0.6020046 -0.1940566 0.20004424 -0.41172877 0.16268866 0.6710014 0.47081873 -0.73951733 -0.85702723 -0.080951065 -0.38498095 -0.7063217 -0.19296056 -0.6998595 0.85983825 0.8435106 0.597822 0.9804947 0.32163563 -0.7745218 0.53783137 -0.4693207 0.9927253 0.87635195 -0.46629763 0.9164717 0.59102744 -0.22951616 0.59627235 0.8542079 0.6206254 0.4944275 -0.7034218 -0.9669396 0.89092743 -0.70543975 -0.71882296 -0.6819607 0.965332 -0.76747686 -0.7678268 0.39572114 0.11417249 -0.82512766 -0.9327227 0.6218851 -0.042480834 0.94427013 -0.7355469 0.58026856 -0.5175399 0.549221 0.030120427 0.70268 0.6554299 0.9946352 -0.8400446 0.17691228 -0.6908105 0.6852339 0.6420004 0.4373099 -0.96141595 -0.7499808 0.94387174 0.095057145 -0.37705046 -0.16904117 0.94452024 -0.5663477 0.71204716 -0.8928572 0.43305284
-0.26062077 0.3016974 0.96056974 -0.85617626 -0.50966483 -0.82739925 0.14454952 -0.65161914 -0.4294294 -0.46608654 0.4877493 -0.3215166 0.9491595 0.36117482 -0.41658324 0.6740914 0.2781343 -0.4186026 -0.5535418 -0.08927669 -0.54254186 0.25815895 0.40891278 0.7027806 0.9547962 -0.57754064 -0.97012854 0.6954358 -0.49538115 -0.40264508 -0.13231178 0.47276706 0.95005786 -0.45878044 -0.34882766 -0.15351519 0.28538004 0.48492265 0.25492322 -0.73146284 -0.33239096 -0.92877114 0.3051542 -0.53432095 0.81407094 -0.7321371 0.6485419 -0.42675585 0.20644058 0.43389148 0.3965746 0.41242477 -0.47071457 -0.605098 0.5283594 0.66788125 -0.9236516 0.8824744 -0.043941714 -0.5809283 0.9056125 0.9490398 -0.93415415 0.75678974 -0.06905064 -0.9135747 -0.30181482 0.7515734 -0.31568596 0.13701229 -0.76457226 -0.8493695 0.14660576 -0.23710304 0.8285483 0.8572556 0.9313551 0.06583929 0.8747829 -0.20617267 -0.6623824 -0.36564216 -0.75679255 0.042537548 0.3670509 -0.14232036 -0.14887509 -0.016985657 0.28747886 -0.02162598 -0.59443164 0.6399405 -0.24227494 0.5185314 0.49044856 -0.37496072 0.8760737 0.9927803 0.2450841 0.35300827 -0.8573629 -0.13818596 -0.566014 -0.46115178 0.7548318 0.045428216 -0.4106439 0.5708023 -0.6246072 0.10976434 0.7366881 0.1594983 -0.7146672 -0.21811752 0.09986435 0.8167943 -0.2671951 0.8829124 -0.09564369 -0.7658846 0.26938885 0.5889484 0.50110865 0.1761683 0.6897141 -0.038470708 0.14193203 0.8667869 0.4422831 -0.7846339 0.83446944 0.0070504965 0.47502226 -0.45250303 0.81489575 0.4041803 0.20525734 -0.72065794 -0.26989394 0.76492393 -0.9957452 -0.61380416 -0.81745493 -0.52357495 0.6030125 -0.461837 0.49910238 -0.6656052 -0.047644496 -0.972041 0.79099464 -0.7767692 0.35186988 0.5488423 0.37005976 -0.48342934 -0.85908353 -0.62543035 -0.9296029 0.751498 -0.27623677 -0.80343497 -0.30316123 -0.63939685 0.5182417 0.7018592 0.64114714 -0.7143977 0.16950175 -0.68847686 -0.09525417 -0.062110737 0.8564358 -0.6751073 -0.8463986 -0.43275028 0.48304194 0.05230008 0.08627071 0.6370591 0.5587527 -0.4407525 -0.887146 -0.38107213 -0.59470814 -0.860113 -0.79752976 0.69754934 -0.7178498 0.43224752 0.81294405 -0.2606513 -0.8937907 0.552556 -0.3702518 -0.53335875 -0.61371994 -0.73625886 0.6280716 -0.33312222 0.2829538 0.8882342 -0.27745718 -0.8089959 0.85395706 -0.8831056 -0.7244869 -0.0114860535 -0.06294119 0.3246139 -0.2955078 -0.63421625 0.8909836 0.22716221 -0.8607527 0.35985905 -0.35259658 0.4914211 0.42445832 -0.9418323 -0.19578195 0.86713463 0.12583269 0.78158617 0.26185268 0.819136 -0.6810113 0.8241077 0.26686513 -0.036784515 -0.39185888 0.16861853 0.80733305 0.28920585 0.29039127 0.059121072 -0.69158804 -0.8473581 -0.89124197 -0.47123885 0.8504035 0.04885125 0.11710876 0.07065105 0.13845477 0.77489436 -0.25511098 0.96855605 0.8450307 0.8542522 -0.18673375 0.80825657 -0.6514441 0.9938736 -0.4543383 0.8931763 -0.70411164 0.81780934 -0.94154894 -0.6713221 0.6793734 -0.83026534 0.2670049 0.22333646 0.39467043 0.43103027 0.44671643 0.7416585 -0.40178168 0.84317446 -0.34438846 0.7756483 0.4111261 -0.82476306 -0.03661941 -0.6404614 -0.7527703 -0.67700946 -0.73856777 0.8610496 0.6166209 0.55720043 0.36942762 -0.20718378 -0.88950944 -0.62698984 -0.7000918 -0.680704 -0.83917046 -0.42058608 -0.47555858 -0.7846281 0.28608516 -0.01755704 -0.2774412 0.6259821 -0.76502526 0.6679758 -0.5981359 -0.8700628 0.6600363 0.79420924 0.49128267 0.7519433 -0.6523773 0.18294986 0.5928841 -0.38844535 0.86523485 0.8077917 -0.71127015 0.6106137 -0.3990649 0.63795745 -0.8549984 -0.7293048 -0.520362 0.47805873 -0.8765734 -0.90038097 0.7511765 -0.7567644 -0.88115185 0.7943701 -0.7748519 -0.75680876 -0.18349274 0.82335496 -0.7355653 0.08332324 -0.8699156 0.7000104 0.6661255 0.8226007 -0.8871317 -0.24884875 -0.8119057 0.27800727 -0.3873341 0.81175506 0.24930415 0.882398 0.6744954 -0.8473244 -0.10678303 -0.673211 -0.87538505 0.73256534 -0.17337716 -0.94184434 0.673501 -0.10045675 -0.8971758 -0.6408822 0.4853722 0.5861663 -0.09246708 -0.6798325 -0.8457343 -0.22788475 -0.85670793 0.4544274 0.7363291 0.7200218 0.98019403 0.36067757 -0.72981983 -0.87552375 0.78545094 0.14078544 0.007947087 -0.9092715 0.89582586 -0.87866163 -0.46426266 -0.7549363 0.7385281 -0.26418245 -0.56318843 -0.6663693 0.785302 -0.91313297 0.59416497 -0.18874952
-0.26029092 -0.2757368 0.0062237307 -0.6805157 -0.06418415 -0.30272037 -0.3608012 0.02469223 0.45383486 0.16858596 0.4832958 0.6636946 0.5274596 0.2116779 -0.25986445 -0.37113717 0.29575965 -0.79431885 -0.60115385 0.5560583 0.2712075 0.7946148 -0.055347517 -0.11383037 0.44610512 -0.5021569 -0.6399505 0.17097963 0.10001796 -0.020382015 0.54390925 0.079020426 0.6876793 0.06873923 -0.4230408 0.044612743 0.93236613 0.8563057 -0.5789727 -0.084847875 -0.7016362 -0.83982956 -0.026203513 0.6759589 -0.28495038 0.30185568 0.44567543 -0.4729555 0.96137387 -0.0010219514 0.76582754 0.171174 0.14562716 -0.28015652 -0.13107756 0.42466724 0.04644985 0.4483347 -0.3494507 0.867545 -0.3502593 0.5748774 -0.4524081 -0.31124064 -0.18966138 -0.912645 0.077299744 0.3962364 -0.24224974 0.15077116 -0.2876001 -0.0030372944 0.45456254 0.36220434 0.8760202 0.20288509 -0.5494438 0.56103575 0.4635172 -0.45605445 0.5424749 0.02206941 0.80519354 -0.21549025 0.20972028 0.34545872 0.054409817 0.355972 0.19408745 -0.12087518 -0.50696266 0.43060473 0.07392833 0.40397966 0.52611405 -0.7261883 0.418473 0.8970704 0.28157067 -0.33406866 -0.2929661 -0.06679897 -0.43646568 -0.6693696 0.045834795 0.2040842 0.4262061 0.77151763 0.42599118 0.7549919 0.7407272 0.5567135 -0.20936649 -0.3021301 0.08672817 0.48799548 -0.3339142 -0.1975918 -0.78657144 -0.665797 0.6931474 0.5530195 -0.25600255 0.8490006 -0.36301905 0.36977828 0.2903763 0.24920762 -0.72638386 -0.5894286 -0.14922391 -0.52406514 0.114593424 0.28279325 0.658319 0.6398312 -0.058546536 0.35020486 -0.59309524 -0.6120874 -0.31427193 -0.05704449 -0.07785283 -0.45925164 0.1881774 0.5527359 -0.08876403 0.36389312 0.54959744 0.30756447 -0.33613157 -0.47809073 -0.47612026 0.64114547 -0.26537132 -0.7546052 -0.27620292 -0.075424746 0.3405869 -0.6752459 -0.44422102 -0.4029353 0.47274143 0.08992848 0.24531654 0.51635253 0.0592778 -0.09969382 -0.15761939 -0.6632824 0.117931694 -0.3823814 0.5741072 0.16224441 -0.72234267 0.18114862 -0.5424838 -0.06697708 0.08478587 0.50511456 -0.9013339 0.5497963 0.62964606 0.020301953 -0.49803302 -0.29771298 0.3227172 0.44541618 -0.1486427 -0.29067552 0.16878606 -0.029932484 0.19498864 0.27529803 0.5384071 0.4212575 0.44608155 0.44175744 -0.11395033 -0.16769476 -0.14501983 0.35635957 -0.09849812 0.06529029 -0.11828381 0.25979775 -0.19916782 -0.930164 0.20118791 0.5444235 0.26004183 -0.30994043 0.3121049 -0.43817404 -0.30757105 0.33542424 0.33704507 0.10499176 -0.49233812 -0.68608814 0.66203916 0.19182666 0.33921006 -0.019206174 -0.11275979 -0.8492212 0.20277286 -0.29305077 -0.22460742 0.28104347 -0.68938553 -0.053098746 0.5986809 0.1705791 0.15143421 -0.02052018 -0.28144407 0.33665866 -0.11055927 -0.45050097 0.6144142 -0.26990217 -0.4430373 0.20009771 0.3873299 0.67250663 -0.1258952 0.343866 0.14336589 0.46618888 -0.38047433 -0.20959447 0.3320816 0.83667207 -0.35179257 -0.42732656 -0.22723912 0.2252394 -0.6642639 0.23481324 -0.10045056 0.009646345 -0.32890248 0.45465833 0.15511186 0.045001082 0.017969554 0.25659817 -0.54657614 0.28979716 0.28957283 0.7799321 0.33063915 -0.7992665 -0.17887804 0.3054599 0.8171366 0.6857226 -0.0128726065 -0.26257622 0.20926361 -0.3497649 -0.095723286 0.9540671 -0.70243233 0.3279324 0.4802997 0.20704606 -0.2657621 -0.22413471 -0.68558013 0.29573348 -0.2741765 0.5013445 0.8122781 -0.2183361 0.551613 -0.16696565 0.07241924 0.55103856 0.011983618 -0.31935224 -0.3751137 0.0010824613 -0.11767067 0.26506326 -0.11412772 0.40938386 -0.22372515 0.32927924 0.33775046 0.5319406 -0.058544807 -0.112623096 -0.27843815 0.12082839 0.34043404 -0.18887103 -0.5722118 -0.6385708 -0.5784557 -0.06418157 0.39676946 -0.4948401 0.1467267 -0.552842 0.6153072 -0.41239658 0.30761784 -0.112292394 0.071064636 -0.67746687 0.03741689 0.27249867 0.5088175 -0.29978234 -0.15439332 -0.52224016 0.2244762 0.06459622 0.7355461 0.040793203 0.49713793 -0.14537519 -0.53151643 0.41355193 -0.5475329 0.36278713 0.36310855 -0.6269165 -0.43449268 -0.014884196 -0.10872712 -0.2876129 0.30476257 0.28027204 -0.04484787 0.57841027 -0.21679339 0.5155484 -0.5044667 -0.13602531 0.5733823 -0.0440266 -0.013397529 -0.27608916 -0.56324404 -0.9171747 -0.4050664 -0.6143671 0.16290821 -0.2549891 0.19633475 0.18964447 0.041715726 0.38075688 -0.7195877 -0.25743413 -0.4355658 0.21920261 0.038322937 -0.2585975 0.22501267 -0.39732194
0.23561116 0.59019727 -0.49438387 0.26045662 0.0005963966 -0.43521684 0.38162526 -0.69289666 -0.87718606 0.5988912 0.6047133 0.70975435 0.43144524 0.4508127 -0.8794577 0.6074704 -0.44176143 -0.7751281 0.05761703 0.847015 0.7240757 0.74083346 -0.66252226 -0.912347 0.6971418 -0.054315254 -0.3947969 0.08620081 0.40653822 -0.27223292 -0.6108382 -0.72466874 0.060571775 0.032303534 0.59477675 -0.7563896 0.5892484 0.8221828 -0.78962064 0.658331 -0.0030626282 -0.8331057 0.3288945 0.7095702 -0.14710738 -0.52664983 0.8684225 -0.58335704 0.82694894 -0.28437227 -0.13283393 -0.7199528 0.06679674 -0.88854665 0.58565956 0.8983202 -0.23762795 0.110139266 -0.62584746 0.9740849 -0.94533867 0.6792506 0.29811352 0.8087433 -0.81776583 -0.96641904 -0.48504245 0.7403879 0.3462073 0.08101347 -0.77250266 0.6026848 0.36231762 0.70241815 0.8103917 0.48861352 -0.94537425 0.09510432 0.8926517 -0.7991818 0.741336 0.1350944 0.97311085 0.7428603 0.6763743 0.30045822 -0.024940502 0.5610459 -0.8850881 -0.947224 -0.58169246 0.8508371 -0.5284619 -0.5949396 -0.87539 -0.62040937 0.20780502 0.8653204 0.77479076 0.28843176 -0.52718824 -0.6980311 -0.9220785 0.10410504 0.6706895 0.16940337 0.63147295 0.94063485 -0.6094454 0.27195933 0.8011038 -0.6297317 0.7779248 -0.15020737 0.303379 0.47411713 0.5444804 0.44908378 -0.841002 0.8207858 0.5164313 0.8415495 0.06635049 0.5790533 -0.5966878 -0.68776506 -0.07578257 -0.045562044 0.78660387 -0.82948625 -0.6066853 -0.8188693 -0.19298483 -0.08976018 0.37960765 0.60910404 -0.2717084 0.97979605 0.69911855 0.17652655 -0.7261713 0.5506769 0.78643763 -0.67067593 0.24230683 0.35261297 -0.61294705 0.6945329 0.80025554 -0.9128302 -0.15719563 -0.38814068 -0.5437464 0.9060991 -0.78068364 -0.46789223 0.5646774 -0.41234368 0.89377314 0.7595729 -0.68362975 -0.7356517 -0.35487238 0.61298084 -0.3183165 0.8037998 0.6368177 -0.74389213 -0.036018245 -0.59020734 0.93323326 -0.57774866 -0.21359575 -0.8594747 0.5729986 -0.86897355 0.6563397 0.7840984 -0.676617 0.6372252 -0.7743 -0.7594619 -0.70681244 -0.26267534 -0.7592378 0.534184 0.76670384 -0.7984009 -0.75796837 0.90539944 0.25774002 0.7002865 0.85370755 0.5422851 -0.17646351 0.72467107 0.8442971 0.7536056 0.38912642 -0.8324844 -0.5702656 -0.7405251 0.7986305 -0.7511866 -0.49369985 0.5878895 -0.69922316 -0.8122078 0.6831931 0.48369026 0.5206301 0.5586266 0.30370036 0.021840688 -0.1585434 0.7068525 0.77182305 -0.8213632 0.7732495 -0.92693675 0.68630457 0.6341027 0.5201588 -0.18613756 0.68300754 -0.6372432 0.9126102 0.33896187 0.18027753 0.24994464 -0.79520506 -0.02872332 0.1557805 -0.68600476 0.65983313 0.50526035 -0.53934604 -0.6845802 0.26213744 -0.8453961 0.7235366 0.4800509 -0.15207914 -0.72291505 0.0028019622 0.8011098 0.11221671 -0.960509 -0.7860353 -0.57780814 -0.6360084 0.77506256 0.6652411 0.91450465 0.5377134 -0.4761532 -0.8977589 -0.96240914 -0.37880397 0.94843864 0.44594666 -0.61876273 -0.64094883 0.34786707 0.397182 -0.43002728 0.7398831 0.083547875 -0.64695585 0.82622576 0.059185877 0.8793779 -0.17214277 0.064713895 0.5430954 -0.5647958 0.3379836 0.17924038 -0.64220774 0.3953013 0.18694453 -0.7656555 0.801118 0.5888441 -0.4243376 -0.36155564 0.78493553 0.9382536 -0.50930893 0.6408882 -0.3027426 0.767244 -0.11040476 0.6814231 0.40469527 -0.5532052 -0.018142926 -0.79554194 0.61123216 -0.13995267 0.31120157 0.15640259 0.27089676 0.59156394 -0.84369326 0.8102156 -0.8901326 -0.31763917 -0.11491519 0.8367018 0.6804476 0.7731865 -0.020323254 -0.2639988 0.58233625 0.15492521 0.7291378 0.57623816 -0.41830105 0.81884545 0.24956866 -0.60641813 0.15261306 0.12429705 -0.11988731 -0.8238922 -0.7034285 0.33284244 0.6221595 0.2813785 0.69805604 0.6435816 0.8498607 0.8420182 0.69943136 -0.64450353 -0.7762657 -0.03490312 -0.11354359 0.95747536 -0.8160167 0.66862315 0.26839358 -0.9509553 0.15067285 0.75806767 -0.95627284 -0.21983501 0.645285 -0.1301803 0.367304 -0.61906797 -0.25782022 -0.019777358 0.0870024 0.10529861 0.4161456 0.60389656 -0.7791944 0.53437644 -0.83548754 0.6713176 0.30485374 -0.20300494 0.73766106 0.5865084 -0.7536351 -0.09087616 -0.035291545 -0.94489205 0.66569644 -0.816595 0.8811985 -0.70165735 0.7247214 0.5811899 -0.806948 0.75041527 0.63872665 -0.05968764 -0.0763908 -0.8626786 -0.85876495 0.1251446
-0.8063779 0.04585006 0.7808806 0.29398268 -0.5596121 -0.26023135 0.73927 -0.45213485 -0.6536109 -0.15552878 0.8086521 0.027996905 0.97693944 0.22215773 -0.5903563 0.8221092 -0.7546406 -0.30147442 -0.83779633 -0.30965382 0.89705825 0.72824895 0.6360067 0.22635868 -0.092425786 0.5185757 0.018957127 0.28155166 0.03285722 -0.39884824 -0.24886045 0.87122464 -0.03205847 -0.33775568 0.2681336 -0.5966867 0.9500569 0.46969312 -0.047108956 0.628216 0.11041683 -0.5184426 -0.79796624 -0.8785151 -0.39911997 0.37528244 0.5742135 -0.2748531 0.73805034 -0.84317887 0.42313188 0.7345911 0.5197133 -0.17027704 -0.75425464 0.721056 0.3347722 0.5611523 0.7822172 0.7985609 -0.113613196 -0.17857987 -0.5790976 0.7363906 0.59271795 0.33510435 0.22858638 -0.12844601 0.36942512 0.33742553 -0.6408359 0.67577374 0.49088612 -0.0984223 -0.0958146 0.69386053 -0.5987411 0.22654025 -0.35847163 -0.49713537 -0.44684398 -0.86374116 0.7040007 0.65088 0.11503324 0.73203695 0.116736546 0.09931043 0.27251685 0.32061338 -0.30027702 -0.18923634 0.7982303 0.31125346 0.34387755 -0.24771532 0.74622256 0.8805789 -0.3511002 -0.6724348 -0.5557127 -0.12523142 -0.7380883 -0.7769922 -0.4471547 -0.85525554 0.73520607 0.30188307 -0.44726443 -0.028480042 -0.7873708 0.54260033 0.16646875 0.5513312 0.3074478 0.3748676 -0.95965743 -0.31896156 -0.143982 -0.57810694 0.50513315 0.34325784 0.5738484 -0.326467 0.7928456 0.45507562 0.25403005 0.35163695 -0.5250264 -0.2964225 -0.5031731 -0.48714352 -0.6562163 -0.43405175 -0.30228674 -0.7737736 0.8580395 0.8969514 -0.6109011 0.22233288 -0.49071392 0.33972836 -0.73322105 -0.9093817 0.4796989 0.43284926 -0.48503226 0.04983304 0.6844915 0.22902109 -0.28511912 -0.5129955 0.53194475 0.26269007 -0.48266435 -0.76643157 -0.2905988 0.36974525 -0.68366206 -0.211102 -0.5661189 -0.058474794 0.69524074 -0.035076797 -0.048780054 -0.7726902 0.7816503 -0.6148037 0.29093152 -0.7090462 0.7279562 -0.5037755 0.5252029 0.6030919 -0.7229223 -0.49063683 -0.6455928 -0.5531536 0.8509492 -0.46319395 -0.59932494 0.67282677 -0.38811123 0.74588394 -0.6657425 0.09615707 -0.021178158 0.7549642 0.65909874 -0.009070765 0.7297487 0.5340688 -0.6165388 0.45529485 0.71190315 -0.72687715 -0.6445664 -0.442388 -0.41279846 -0.23627189 0.61120087 -0.30962008 -0.31049192 0.66206104 -0.3131171 -0.4537306 -0.5047992 -0.13253886 0.54509866 0.57357955 0.3731204 -0.18579216 0.43737832 -0.32206705 -0.6170937 -0.47746637 0.8226818 0.26578057 -0.18481311 0.45602223 0.7406299 0.58134043 0.7016023 -0.8457011 -0.19748646 -0.42252415 -0.13984773 0.2793406 -0.3598915 -0.30515373 -0.79379493 0.002615273 0.7802962 0.35934716 -0.75731254 -0.35519853 0.2772856 0.6122103 0.6501782 -0.8632662 -0.30527794 0.29934847 0.01574599 0.6171315 0.8375351 -0.4858796 -0.80786884 0.8967625 0.54734004 -0.4584788 0.6124582 -0.5690587 0.79795957 0.83891475 -0.33223337 0.082864225 -0.73204756 0.7622721 -0.12252618 0.6713757 -0.6947721 0.023592532 -0.5614777 -0.049409013 -0.009078056 0.23350365 -0.3233108 0.6455753 0.59546953 0.5624435 0.896041 0.57439464 0.8901278 0.64281154 0.53324807 -0.044807825 0.5177833 0.81234485 0.44225442 -0.17724386 -0.1471599 -0.7791735 -0.13399184 0.9622662 -0.7140287 0.6020793 0.5818235 -0.81132096 -0.5788801 0.3117103 -0.87524587 -0.85508156 -0.10356882 0.38595572 0.58450186 0.74384856 0.7310331 0.24303451 -0.73687494 -0.6627569 0.6162446 -0.021319985 -0.81124854 -0.53950644 -0.49371457 0.23966566 -0.85752106 -0.28945902 0.7241397 -0.5630878 0.0074236244 -0.61367154 0.6670344 -0.5159223 -0.76181 -0.3743613 0.4806912 0.5299077 -0.039537005 -0.67389524 0.63468724 -0.6639415 0.8324292 0.53638786 0.5350404 -0.37875652 -0.18363063 -0.0070448816 -0.7490635 0.49274313 0.5856489 -0.553615 0.0064295195 0.7929505 0.6402265 -0.4087187 0.22912604 -0.60188586 0.6262537 -0.2651984 -0.051494643 0.23664246 -0.67734873 -0.75669146 -0.54289436 0.6198335 -0.53270286 0.5003855 -0.3918915 -0.83680654 -0.70022595 -0.060093753 -0.8422496 0.80631125 0.6410499 -0.72462547 0.69019234 -0.076615736 0.56143034 -0.68783003 0.54271084 0.24819684 0.33554178 -0.38794953 0.87828565 0.7651222 0.8354843 -0.67735946 -0.40596312 0.02029264 -0.82288873 0.5005019 0.7131055 -0.6317476 -0.011066932 -0.72806275 0.091534264 0.17381904 0.02471248 0.110876516 -0.7725115 -0.06066963 0.8403637 -0.874241
-0.6318306 -0.013086744 0.21613608 0.5142024 -0.31102115 0.14000416 0.21114399 -0.19531348 -0.46667325 0.031265005 0.68841094 0.038822554 0.93351483 0.3995406 -0.17597109 0.8326731 -0.6175738 -0.014848903 -0.8725401 -0.11086057 0.57177496 0.6842556 0.4579737 0.2534219 -0.27176797 0.46032023 0.1011083 0.13964123 -0.2354825 0.00012309849 -0.1723303 0.43992203 -0.21033998 -0.49726656 0.069133624 -0.46625194 0.8703141 0.062811986 -0.3036643 0.59778154 -0.10895816 -0.7768864 -0.81016237 -0.7264024 -0.3657011 -0.27739054 0.17867209 -0.12680823 0.5597764 -0.38396117 0.36404616 0.6939479 0.6033684 0.22295657 -0.3144593 0.7469951 0.11835856 0.26078466 0.73646843 0.50527906 -0.24807222 0.13369036 -0.24306992 0.28209916 0.278978 0.3689026 0.12579522 0.16069809 0.72672755 0.3577937 -0.6536767 0.6116642 0.15192688 -0.27394086 0.08027845 0.29567543 -0.18331303 0.33721313 -0.009827942 -0.52976716 -0.49323326 -0.27530593 0.25715137 0.5543958 0.16992511 0.48414385 -0.034096293 0.2148074 0.2396901 0.05141125 -0.2388348 -0.26504087 0.6877738 0.22762448 0.11462411 -0.37395868 0.3869301 0.91515565 0.047257837 -0.41632277 -0.7927732 -0.2511781 -0.62768996 -0.47660676 0.06641348 -0.23224875 0.5650427 0.57750463 -0.61929953 0.019070413 -0.32867402 0.240191 0.031275515 0.1674993 0.3663452 0.45118752 -0.50308424 0.10932563 -0.42003265 -0.48871815 0.64611644 0.6198812 0.6358527 -0.17376572 0.32959995 0.532887 -0.06436761 0.47999495 -0.16529754 0.08243739 -0.47192967 -0.2002318 -0.5973908 0.032501657 -0.06451339 -0.47843134 0.7693492 0.5493973 -0.54321253 -0.07073923 -0.85364985 0.1450808 -0.2956766 -0.9515061 0.5327223 0.68436843 -0.6172629 0.4473762 0.36441064 0.21342197 -0.3396288 -0.40453994 0.22435562 -0.041407414 -0.050426822 -0.7135221 -0.14622705 0.40444452 -0.41556567 -0.41607848 -0.58260536 0.31343013 0.7131602 0.083744645 -0.42824596 -0.6764914 0.40161967 -0.45200485 0.1817611 -0.64808375 0.56037986 -0.2743913 0.111068845 0.52045363 -0.5405726 -0.4143341 -0.34702873 -0.32407814 0.7043332 -0.29347008 -0.18593676 0.35204503 -0.6455054 0.71416336 -0.23264512 -0.19439965 0.23594174 0.75358576 0.18378757 -0.1939414 0.29151314 0.33208236 -0.7186208 0.5897097 0.7962299 -0.27655047 -0.5687561 -0.4462313 -0.24579659 0.07603914 0.06708086 -0.4277853 -0.20359115 0.09240392 -0.55688787 -0.71023935 -0.479598 0.00879197 0.40278694 0.30463916 0.41523048 -0.08420111 0.13358778 -0.47586754 -0.3893495 -0.7243295 0.7310064 0.4306716 -0.40458414 -0.013543628 0.5938141 0.6916025 0.478187 -0.3874952 -0.21255457 -0.48828405 -0.15631089 0.16240232 -0.058495276 -0.11979436 -0.68292093 0.25367963 0.44821873 0.45592165 -0.22214134 -0.60769176 0.27784824 0.32556945 0.23776299 -0.6698845 -0.068743125 0.23456503 0.23893312 0.73684096 0.78531826 -0.17664437 -0.7829695 0.5547626 0.20742498 -0.09566764 0.28128344 -0.66454446 0.73493254 0.8427759 -0.51652217 0.12234822 -0.52520037 0.40212435 -0.14369805 0.29272538 -0.29580513 0.08337476 -0.53805536 0.12151484 -0.22062904 0.4100223 0.22204122 0.3288289 0.46262974 0.5513398 0.7585728 0.7524148 0.39848596 0.28425908 0.7177873 0.23854086 0.6009706 0.67772174 0.44347844 -0.07702382 0.075614005 -0.45984504 0.07507166 0.9891019 -0.40166092 0.77231246 0.2334986 -0.78922224 -0.3470996 0.22850703 -0.7153433 -0.77112687 0.09216425 0.119178385 0.29845667 0.09393675 0.64278847 0.055455208 -0.7456847 -0.23136407 0.6942501 -0.029674856 -0.56541467 -0.67597765 -0.4182498 0.3078184 -0.58221906 -0.45205998 0.13073735 -0.063067876 -0.38261402 -0.4050606 0.7781243 -0.34249043 -0.45654714 0.006429881 0.6847404 0.36104903 -0.21865225 -0.2917844 0.34766227 -0.48705697 0.3991665 0.28207815 0.62913895 -0.20979783 -0.068051025 0.118841335 -0.32289246 0.04733573 0.6237612 -0.592608 0.034257736 0.6980982 0.59396577 -0.63298446 0.29284143 -0.5928434 0.6289731 -0.27779695 0.13929193 0.5716469 -0.7200756 -0.40726566 -0.34803295 0.4061248 -0.16752055 0.63389766 -0.50869656 -0.69810224 -0.40317023 0.21453692 -0.7387694 0.8610858 0.57141775 -0.21114415 0.3789066 0.17037874 0.11271655 -0.7461949 0.017604416 0.058645617 -0.02084272 -0.08893901 0.43975368 0.5144198 0.83500814 -0.28946567 -0.47533008 0.19917035 -0.8003838 0.382618 0.5947381 -0.4176644 -0.09185773 -0.38462734 -0.2653638 -0.07407606 0.49768755 -0.016043618 -0.5223025 -0.44316316 0.7572741 -0.8213911
-0.8039538 0.27643102 0.87507707 -0.09739593 -0.17869475 0.43562967 -0.4492122 0.14099592 -0.7915175 0.4566601 0.29438967 -0.092240654 0.056549564 -0.40885895 -0.86333454 0.7745661 -0.22385433 0.21879399 -0.74147165 0.13151771 0.822987 -0.009359598 -0.38005346 0.71835065 0.65634674 0.20233104 -0.7715459 -0.40040472 -0.51233894 0.49217013 -0.77567786 0.1673298 0.7952823 -0.27514803 0.6981418 -0.65257037 0.84892833 0.8112861 -0.1272634 -0.58630025 0.5876385 -0.3779191 -0.776777 0.19041282 0.5599861 0.26436603 0.22340444 -0.5422344 0.9466701 -0.76046383 -0.7353616 -0.7390033 0.40331632 -0.5130104 0.28183317 0.004687071 -0.31822848 0.52483803 -0.061219826 0.8806449 0.49325997 0.74716866 0.16696267 0.8772706 0.5112734 -0.6420305 -0.9295685 0.9294512 0.28440613 0.83827454 -0.40783727 -0.65696585 0.7556878 -0.51284146 -0.18836224 0.78526866 0.72205746 0.5034267 0.755514 -0.0519215 0.6554144 0.47877666 -0.071938634 -0.20539904 0.7415269 -0.16187017 0.370603 0.18372172 -0.55844927 -0.84061646 0.2561304 -0.58525014 0.06511924 -0.85249555 -0.7417089 -0.342924 0.8986359 0.9547641 -0.28711975 -0.25949883 0.24746294 0.8728935 -0.78016585 -0.86071575 0.7949067 -0.8258869 0.5090184 0.7434662 0.39575624 -0.5083776 -0.20896882 -0.33279514 -0.01658336 -0.4711623 -0.78228843 0.59583735 -0.826645 0.83943677 -0.47837 -0.8292093 -0.20001116 -0.12125307 -0.39711753 0.3939712 -0.25319684 0.25139493 0.7674946 0.64096534 0.85534585 0.33842176 -0.30327484 0.37697417 0.65817034 0.22170185 -0.81564057 0.7274581 0.572195 0.15676154 -0.16930175 0.77606857 -0.9683645 -0.3551922 -0.6048348 0.068360895 0.83602905 0.7519074 -0.3831902 0.20670944 0.8259934 -0.12275776 0.67086387 -0.631141 -0.5342949 0.11482248 -0.7117996 -0.8128624 0.5279933 -0.48595557 -0.5659064 0.21949002 -0.045382425 0.196161 -0.11055519 0.39108765 -0.7419485 0.069615036 0.7447407 0.46823195 -0.774361 -0.2027858 -0.06688291 -0.50876206 0.78239405 0.607089 -0.5272474 -0.9045118 0.5551058 0.6383246 0.25650346 0.25745314 0.120374344 0.72968477 -0.3263778 0.6563381 -0.52264345 -0.28001773 -0.7180291 0.4405635 -0.6773228 0.66983354 0.08135034 -0.43483347 -0.36811808 -0.13040745 0.2863503 -0.4011537 0.27398455 -0.53829336 -0.030224629 -0.62624204 -0.4980969 -0.10225777 -0.12438673 -0.31552356 0.70268613 0.05277148 -0.15844528 -0.892657 0.29728818 0.7304581 0.18601786 0.35341498 0.78716236 0.332583 -0.5565529 0.33882314 0.43261126 -0.6151285 0.5699494 -0.8844583 0.077074096 0.17479447 0.4340864 -0.91132355 0.49870718 0.79241115 0.6035872 0.47301084 0.356698 -0.61736417 -0.5645549 -0.2670314 -0.0809512 -0.1637753 -0.37056005 0.27811646 -0.60910803 0.09332068 0.30897012 -0.84384954 0.6870648 -0.22581121 -0.4394027 -0.5139694 -0.106291965 0.1417019 -0.5268667 0.5449796 0.36697713 0.32017457 -0.36147857 -0.16537602 0.31362912 0.9354991 -0.64605165 0.83426356 -0.8679613 0.5281363 -0.056980543 0.5670949 -0.2090849 -0.6582376 0.21166113 0.29457346 0.41954994 0.2251341 0.74034315 0.18149689 0.35262305 0.58504826 0.8032667 0.8208178 0.83225626 -0.7846035 0.1191574 -0.43997335 -0.5129447 0.35565537 -0.5424168 0.46884587 0.23681529 -0.04764564 -0.8226464 0.9623622 -0.86939144 -0.09614594 0.4821593 -0.17333123 -0.5194443 -0.04974381 -0.82300746 0.21215321 0.6312436 -0.07365102 0.7269601 -0.65328825 -0.2627662 -0.14404659 0.4157225 -0.71271896 0.1567961 -0.1423 0.12669985 0.36894688 -0.8089594 0.50190705 -0.63829374 -0.1805403 0.7402696 0.30785266 0.01230862 -0.73936427 -0.4325669 0.2887584 -0.2994994 -0.019212663 0.8274229 0.52996874 -0.5306473 -0.64727145 0.5614358 -0.5475792 0.2777161 -0.027653128 -0.03036353 -0.44250786 0.58678997 -0.5764661 0.29896736 0.04596156 -0.5512364 0.099348485 -0.2511571 0.6406772 0.29957867 0.29608822 -0.13320577 0.89463985 0.5673659 0.92794305 -0.7158911 -0.16681693 0.1568796 -0.09755722 -0.27896518 0.84113276 0.037045807 0.85098594 0.2773162 -0.6249542 -0.34803385 -0.8269924 -0.7760577 0.7773466 -0.2677145 -0.28047264 0.32612762 -0.76640177 -0.70492005 0.62063307 -0.5636809 -0.19805461 -0.5474621 0.43802133 0.7483806 -0.28053668 -0.47520113 -0.54279536 0.6771903 -0.6018528 0.6651371 -0.86481553 0.793893 -0.7941829 0.4358484 0.33748478 0.23205917 -0.38954282 0.63692045 0.88618875 0.61059636 -0.91398704 -0.37307814 -0.8401906
0.53047943 -0.83617353 -0.055646166 -0.53839123 0.10904038 0.12243235 -0.37789214 -0.1271203 0.33435345 0.61320925 -0.48125383 -0.17721638 0.1071629 -0.074624404 0.28209427 -0.4256788 -0.52860844 -0.089435115 -0.26033804 0.8181312 0.06066487 -0.38149482 -0.276247 -0.5143029 -0.71691215 -0.7026829 -0.6694135 -0.07087385 0.13346462 -0.5858915 -0.13192904 0.5123779 0.7192385 0.52499247 0.14648196 0.79229283 0.54616064 0.6634617 0.14497033 0.57938546 0.013370629 -0.08889502 -0.65007603 0.3589993 -0.10759106 0.44604412 -0.50671625 0.33098468 -0.4965986 0.6693645 -0.021507472 0.3716717 -0.6307126 0.87266606 0.612363 0.19223744 -0.7004841 0.40190774 0.93548584 -0.2737129 -0.42347354 0.92633337 0.74641275 0.041991867 0.3180014 -0.21383844 0.06558349 0.5296272 -0.16609544 -0.10927846 0.37052876 0.028407656 -0.16981652 0.8932353 0.14594646 0.6879204 -0.30480146 -0.072766334 0.63890266 0.7449242 0.7606652 0.24958143 0.59975016 0.7108313 -0.24700572 -0.111558706 0.7529636 -0.64458895 0.56926066 -0.11510229 0.104443625 -0.32124674 0.76502573 -0.25604635 -0.013066694 -0.437281 0.1606971 0.87474126 0.726838 0.5148095 -0.51701766 0.7723307 -0.23951457 -0.39365557 0.066046774 0.097038664 0.1509192 -0.40647635 0.7111431 0.8902687 0.7004593 0.66145027 -0.37920028 0.6879185 0.30971783 -0.06433457 0.1518966 0.1363113 -0.48962426 0.61838984 -0.7074537 0.7616615 0.18674275 -0.34305328 0.31191617 0.1903285 -0.7506504 -0.43151692 -0.5342106 -0.72429514 -0.038834147 -0.052474372 -0.2561608 0.74828786 -0.4007852 0.05278334 -0.41386545 0.007947706 0.1793344 0.4990259 0.41855097 0.0071892515 0.07276959 -0.79212666 -0.82172436 0.36751792 0.40575466 -0.2822219 -0.3511612 0.6023714 -0.08093947 -0.15173478 0.55636966 -0.28919733 -0.17675382 -0.112079374 -0.26301977 -0.48188674 0.30224216 -0.061578162 0.023369163 0.34643298 -0.6256626 -0.056510694 0.054009326 -0.084934294 -0.23483506 0.5613154 -0.639205 -0.88149595 0.23130915 -0.4351678 0.52811134 0.13708498 0.14364256 -0.8655744 -0.600838 0.7373913 0.4055984 -0.5033847 0.08525726 -0.48403096 -0.30981433 -0.1671475 0.2848736 -0.28485477 0.2796865 -0.58835655 0.46708894 -0.54346645 0.11304049 0.2825651 0.12655798 -0.42756334 0.3082353 0.8669597 0.25283676 0.795046 -0.058296323 -0.5557393 -0.7414706 0.7436308 0.56181324 0.2513304 -0.26437503 -0.2189565 0.24691516 -0.8644014 0.38750717 0.7497947 -0.863689 -0.2545228 0.20045504 -0.09042081 0.5341135 -0.05850002 0.78961265 -0.08620654 -0.08438259 -0.6815291 -0.29923916 -0.023437753 0.7711824 0.21569659 -0.35970515 0.5807888 -0.44205678 0.38681167 0.6354368 0.8216507 -0.3099001 0.06369276 0.058674604 0.36693174 0.44335222 0.6126316 -0.39858568 -0.59086406 -0.49329832 -0.16372195 0.89219666 0.35977626 -0.7729972 -0.044345655 0.16051148 0.23659618 -0.52109665 -0.09582665 0.08321016 -0.22520395 0.0714668 -0.12198524 0.17456174 0.14441043 0.41226906 -0.6555418 -0.09934658 0.16045357 -0.31018078 0.23654017 -0.29634315 -0.60218775 0.2956655 0.20492667 0.42763436 -0.42564008 -0.12003315 0.82844913 0.2858308 0.40523407 0.09568606 -0.4081502 0.6342937 0.40910682 0.6642386 -0.49497557 0.107055075 -0.08276366 -0.2668872 0.038341437 0.07015995 0.5622899 0.80789655 0.901321 -0.08783828 -0.703688 0.71809745 -0.13343778 0.24730459 -0.36791515 0.5470176 -0.1716175 0.27313578 -0.7031739 -0.028113866 -0.6238767 -0.007648468 0.46890065 -0.56211394 0.055396862 0.8171408 0.68700564 0.4241559 -0.42104003 0.32330117 -0.06812039 -0.51785386 -0.591089 -0.490898 0.32905257 -0.52096474 -0.2994231 -0.38153878 -0.60449535 -0.014116392 0.4994818 0.28507793 -0.067787305 -0.3528472 -0.4880427 0.40228 0.25716984 -0.23928979 0.106469415 0.42234427 -0.24112867 0.5455531 0.57436174 0.434958 -0.3072514 -0.29463738 0.7105794 0.46075922 -0.102167346 0.07606362 0.49765763 0.18874426 0.91561633 0.104139894 0.7313405 0.056667224 -0.7184904 0.057734013 -0.18815175 0.5072388 -0.5301672 -0.36062318 0.85416657 -0.59797406 0.37379873 0.20637237 0.5187828 0.6922552 0.9742337 -0.26241988 -0.36829394 0.30125433 -0.31605345 -0.1871679 -0.5489725 -0.5596584 0.6631574 0.050146006 -0.2408014 0.5371277 -0.73939735 0.43016076 -0.2994642 -0.1143461 -0.39936286 -0.2883055 -0.48030758 -0.7379013 -0.3774102 -0.4455826 -0.19574904 -0.48563623 -0.08686392 0.43002564 -0.30482915 0.27321458 0.33045682 0.10643336 0.21347146
0.45420447 -0.98053396 -0.7054327 -0.86485237 -0.071706586 0.5485217 0.075783186 0.40816027 -0.23496504 -0.02718885 0.8364318 -0.48922297 0.43371746 0.077522546 0.30621642 -0.6787611 -0.8808089 -0.8041965 0.25462252 -0.11767703 -0.8578446 0.67459863 -0.15732948 0.11441751 -0.8233984 0.80864197 -0.78837544 -0.42969692 -0.1541674 0.05780798 0.94095135 -0.88110095 0.5450844 -0.08208086 -0.4926918 0.84574765 0.26815307 0.6288966 0.59036684 -0.72038716 0.6002624 0.7893193 0.21905476 -0.7656522 0.8678559 -0.71078414 0.022085804 0.73645854 0.2866586 -0.21035784 -0.59828615 0.61372155 -0.6556596 0.0960798 0.21827567 0.78056335 0.36596116 -0.49354747 0.81532276 0.19076875 -0.2028031 0.72743946 0.536703 -0.6378679 -0.44308302 0.8758222 0.52997446 -0.46547487 0.5714141 0.8185586 -0.2755082 0.7186351 0.1810246 0.7152062 -0.20068935 -0.59557533 -0.7894261 -0.35861346 0.99150974 0.32192388 0.6190384 0.26159948 0.4063099 -0.30988243 -0.89167726 -0.1586971 0.57776964 0.4076143 0.21151821 -0.8182476 0.6823569 -0.6021644 -0.19367494 -0.8381945 -0.123017006 -0.49914303 -0.27508116 0.62978137 0.7948835 -0.5206868 -0.75857216 0.3149982 0.16889468 -0.14635648 -0.86912996 0.049285177 -0.759281 -0.87977254 0.5095035 0.31763232 0.79932225 -0.4067353 -0.57618815 0.012996893 0.81766564 0.3001736 -0.50041 -0.59561306 -0.8919137 0.79168123 -0.9778618 -0.14642774 -0.3938159 0.4973203 0.34860322 0.78643256 -0.6729795 -0.1358454 -0.45075223 -0.43011537 0.47058433 -0.73877776 -0.27628925 0.6877616 0.9004488 -0.9072188 -0.1969141 -0.47671384 0.5368714 -0.9219317 0.43491083 0.20071258 -0.5421564 -0.56331426 -0.7976034 -0.55945724 0.85297394 0.35849756 0.8780123 0.9238004 -0.815463 -0.5048292 0.024510661 -0.28723478 0.08929015 0.5999895 0.45275688 0.49582434 -0.41841346 0.19259147 0.06093331 -0.47500873 -0.2824611 0.26691818 0.68130565 0.5290025 -0.52634734 0.5085902 -0.7326248 -0.83037573 -0.8835543 -0.6829326 0.27729693 0.18774094 -0.37241504 -0.7721527 -0.22472142 0.12080223 0.71768475 -0.7735835 -0.7946091 0.14547767 -0.62442815 0.69823456 0.86118144 -0.23648903 -0.60920024 -0.8875259 0.26561925 -0.56941473 0.311251 0.83401424 -0.6449368 0.021596614 -0.54872555 0.7128174 -0.11559143 0.8309441 0.56886804 -0.47255513 -0.8892857 -0.39158627 -0.0044734925 -0.549544 -0.1640477 -0.087590635 0.93945646 -0.85254735 -0.2536989 0.46155542 -0.8110125 -0.0052122017 0.49186555 -0.5745435 -0.8377673 0.6474909 0.052772418 -0.28159136 -0.9165296 -0.29372063 -0.28344172 -0.8675828 0.87763923 -0.6679668 -0.47618464 -0.6795724 0.75952566 -0.005871555 0.55494386 0.7482844 -0.8682899 -0.9806698 0.2688557 -0.4936477 -0.0030612373 -0.34919992 -0.33412105 0.46764427 -0.06741679 0.36153713 0.4265819 0.28922635 -0.1459082 -0.1504742 0.69622797 -0.30140167 -0.14585136 0.7472912 0.45469207 0.44293416 -0.94784194 -0.34066865 0.746529 -0.18708552 0.059108254 -0.55837905 0.023210974 0.10984844 0.49680135 -0.38417566 -0.106579676 -0.6213643 -0.8528944 -0.5183855 0.55749756 0.22649607 -0.13545911 0.8748061 -0.4751356 -0.89847267 0.20941395 0.22738743 0.8715116 -0.557737 -0.8143436 0.7586745 -0.3657441 0.8492428 -0.86105543 0.8833703 0.87197644 -0.15751554 0.33467433 0.8461235 -0.23458172 -0.74899346 0.14324547 -0.77508503 0.7217832 -0.15403403 0.48559794 0.6909435 -0.6094008 0.16388428 0.72199714 0.0025676824 -0.3194977 0.6900697 -0.62699366 -0.5436203 0.9403818 0.5750889 -0.95046353 -0.5686555 -0.6884257 0.048101395 0.35471442 -0.8238772 0.17980404 -0.33795902 0.250928 -0.845156 -0.8345859 0.58771604 -0.7577807 -0.08497393 -0.80860484 0.8584476 -0.55504495 0.818318 -0.75379276 0.08766092 -0.22855827 -0.27084786 -0.53270364 -0.7962146 -0.29667827 -0.2277696 0.86605734 -0.42760035 0.44922295 0.7257627 0.96990114 -0.30101794 0.8433253 0.82631683 0.8913379 0.4255177 -0.16376294 0.73493075 -0.73510146 -0.7707707 0.5711584 0.69134134 0.65307844 0.1589573 -0.8409777 0.7775821 0.7564003 -0.44984922 0.9113755 0.26065376 0.3071561 0.8623335 -0.35708198 -0.7230527 -0.29194796 0.66080153 0.8125496 -0.63195765 -0.6403464 -0.68755907 -0.40788102 -0.21413408 0.8241972 0.7077381 -0.06164842 0.13985606 0.1834051 -0.1607747 0.3625173 0.194582 -0.3971328 -0.83241504 -0.05372473 0.30325365 -0.3486799 -0.6810891 -0.033059802 0.05819947 -0.79735094 -0.49881914 -0.9152136 -0.8535109
0.45279905 -0.9945843 -0.73489684 -0.96063095 -0.8752319 -0.507328 0.7547586 0.30274957 -0.770456 0.08583656 -0.19026674 0.4489649 0.7686197 0.6745217 0.28351003 -0.05096369 -0.50172436 0.0299209 -0.40256903 0.6007538 -0.52663493 0.36196017 0.55369604 0.85916084 -0.2149514 -0.6288377 -0.81757694 -0.19988985 0.2540541 -0.44184884 0.9811052 -0.5290458 0.9719605 0.060035385 -0.9119945 0.71742237 0.7610329 0.84825087 -0.05997589 -0.3972581 0.23947279 -0.43365258 0.37795997 -0.48744088 0.07685332 -0.32725748 0.3697049 0.4707047 0.38697177 0.5130888 -0.78729993 0.79482746 0.11661941 0.9079497 -0.16579244 0.9261806 -0.1259007 0.084004134 0.7865959 -0.09044608 -0.10836153 0.9311368 -0.3894957 -0.25924078 0.4556116 0.34245303 -0.7097709 -0.38811028 -0.06354403 0.82156533 -0.7326508 0.5969073 0.4214177 0.6054225 0.74164206 -0.27868068 0.24705584 -0.016683828 0.847066 0.26717934 0.26105395 0.15307856 0.66703683 -0.25510174 -0.79691356 -0.8017917 0.9752444 -0.83701295 0.6782805 -0.94136614 0.025872795 0.39145017 0.64860505 0.18163797 0.84528303 0.4357273 0.4593907 0.7364387 -0.18923114 -0.7098141 -0.8298167 0.5879111 0.29887673 -0.7148707 -0.84920406 -0.29034317 0.28263953 -0.8044306 -0.364619 0.86826587 0.8239024 0.63124907 0.72247416 -0.08473179 0.73791325 0.77647734 -0.87434703 0.638733 -0.7685393 -0.07030993 -0.98716044 0.62632036 0.0808948 0.65283746 0.8705041 0.73629373 -0.7586392 0.92737603 -0.7333375 -0.50033987 0.24971433 -0.39381468 0.28479043 0.86725485 0.46513793 -0.14850289 0.28455293 0.4050783 -0.66103655 -0.84164524 -0.6527117 0.3291377 -0.44147062 -0.86317325 -0.5321551 -0.49561495 -0.047380734 0.29742938 -0.33858132 -0.49353185 -0.017949319 -0.37937137 0.21253 -0.78474 -0.1274504 -0.752467 -0.55059516 0.8096834 -0.039206933 -0.25962454 0.9457341 -0.16875854 0.49267763 -0.22181745 -0.47487912 0.20889713 0.2710596 -0.22253917 -0.7814389 -0.7833598 -0.6854893 0.7027095 0.3269231 0.3430876 -0.47357607 -0.7926293 -0.6078842 0.6705632 0.8820292 -0.67245203 -0.34041962 -0.8399348 -0.549188 -0.5564068 0.8363371 0.47065175 -0.9631849 0.09608179 -0.44924918 -0.83644456 -0.08666782 0.131703 0.425891 -0.3853976 0.3453408 0.73295486 0.28166163 0.614491 0.25610858 0.7070295 -0.8568476 0.36074284 0.68832684 -0.76641977 -0.3021136 0.033763453 0.23709752 -0.89270514 -0.44021267 0.4711588 -0.9360304 -0.5775446 0.28490573 -0.59440815 -0.5682991 0.7988198 0.73836595 0.45072433 -0.54665655 -0.59752053 0.6239314 -0.3297872 0.74051535 0.21983829 -0.6621359 0.09023082 -0.24740596 0.85201305 0.7440713 0.9129751 -0.7940177 -0.97724 0.47375354 0.8864512 0.1560948 -0.25057408 -0.06394452 0.6751911 -0.49274436 0.21239564 0.64237946 -0.17503303 -0.25976932 0.47656655 0.7096908 -0.057547607 -0.3686518 0.33268332 0.63356423 0.72632766 0.09172097 -0.24530545 0.47745895 0.5943945 -0.4434291 0.34180763 0.037706338 -0.46269107 -0.53430456 -0.6403758 -0.009513295 -0.0056554917 -0.75952995 0.6381696 0.85043603 -0.08871041 -0.16338867 0.7759344 0.22485016 -0.95936763 0.38576543 0.65363157 0.8131007 -0.7296495 0.53040415 0.07160723 -0.5348202 -0.13512437 -0.573261 0.82201666 0.6389742 0.61267394 0.22757912 0.95312375 -0.71935415 -0.84565604 0.12502618 -0.6095871 0.4566283 0.60753256 0.54458565 -0.32499576 -0.45258197 -0.75587684 -0.68850285 -0.346231 0.61059356 0.4002204 -0.9631619 -0.8077933 0.977362 0.1724765 -0.9590803 -0.6716603 -0.28451425 -0.041409906 0.56655556 -0.7587069 -0.53985125 0.12921138 -0.7290819 -0.34465823 -0.73409355 0.33319426 -0.9083714 -0.3361894 -0.7773459 0.88583094 -0.91826 -0.096621215 -0.036521133 -0.37330118 -0.9371523 0.8314198 -0.28359118 -0.7382379 -0.5820187 0.15167934 0.5824364 -0.4278697 0.3099144 0.70176244 0.96482676 0.68947184 -0.7161901 0.9274711 0.5155274 0.937737 -0.2807596 0.13969299 -0.6513679 0.59899336 0.44464642 -0.55442804 0.8302272 0.04304123 -0.8821232 0.6090545 -0.2232112 -0.3876206 0.93635434 0.42473766 0.59976274 0.94601095 -0.1632006 -0.8447752 -0.9507789 0.68050176 -0.20750064 -0.71918666 -0.53430814 0.11692332 -0.33872545 -0.4618637 0.8676817 -0.26319286 -0.38888273 -0.8471435 -0.324262 0.12671392 -0.8834926 -0.47079948 -0.4001806 -0.8796649 -0.5555629 -0.16914302 0.6045567 -0.55470365 0.23092566 -0.13200915 -0.41968718 0.21688958 -0.2564073 -0.9302824
-0.22802141 -0.46301383 0.5759201 -0.53928334 -0.39195976 -0.4918284 0.6245255 -0.05488814 0.28513572 0.30601037 -0.26755792 0.40230668 0.15104717 0.51282495 -0.39771548 0.46104747 -0.34798503 -0.026966032 -0.11262864 0.337178 -0.56515825 -0.6916861 0.23227018 0.4277066 0.50372905 -0.12807485 0.081963375 0.04591325 0.4960105 0.47192213 -0.21795002 0.35764104 0.90534794 0.33813447 -0.20069866 -0.19058433 0.33529657 -0.28048715 -0.0015530884 0.5352032 0.5070933 0.15310016 0.0811187 -0.0033827722 0.8270179 0.16499951 -0.39262906 0.22148818 0.37889153 -0.19890656 0.3061062 -0.40659398 -0.18041337 0.6598652 0.23081987 0.5519542 -0.09220825 -0.12975061 0.31972334 0.36774644 0.036767147 0.78160566 0.5346136 0.3319497 -0.49410293 0.109364234 -0.15795663 0.7123452 0.16906102 0.37936112 -0.022061363 -0.60870355 0.21913679 -0.3373545 0.3223191 0.21569856 -0.104526795 0.5446415 0.7202932 0.28515357 -0.19113308 -0.90992767 0.7821919 -0.04468229 0.17486028 -0.088406794 0.34646603 -0.25616026 0.13110173 -0.2265893 0.2936734 -0.24946864 -0.14573717 0.051484957 -0.5654427 0.5715476 0.2208301 0.32093614 0.2133638 -0.23362857 0.006666217 0.086125664 0.3833667 0.054547764 0.10854658 -0.24390934 -0.67100865 -0.0065849833 0.20766239 0.32967606 -0.47864756 -0.08806911 -0.22626571 0.10283351 -0.39597338 -0.83290136 -0.7128198 -0.1674233 -0.5093567 -0.025778254 -0.9030417 0.050110575 -0.39281362 -0.7638686 0.017291185 -0.042537645 0.55316716 0.23024358 -0.19794503 -0.0019138828 0.14057644 -0.03902836 0.323343 0.16113421 0.17218728 -0.055907518 0.014662586 -0.2555836 0.5994455 0.32007226 -0.055100694 -0.4442783 -0.41980547 -0.5248341 -0.4885797 -0.22557116 0.6451229 -0.05771354 0.7095837 0.556399 0.07690014 0.2897852 -0.44261277 -0.8577731 -0.4087326 -0.2822418 0.7032792 -0.05983525 -0.40745056 0.13998961 0.3007593 0.36141828 0.30894837 -0.29289654 -0.5140675 0.110883206 0.24585703 0.315573 -0.6951665 -0.08978384 -0.24191001 -0.32477728 0.61695623 0.21197027 0.05839759 -0.41518417 0.57578856 0.51352495 0.21651033 0.14068478 -0.2991471 0.19516377 -0.029582309 -0.5406385 0.39753646 -0.6274248 -0.6215848 -0.28818077 0.25025997 0.5056947 -0.6366671 0.098145604 0.042555053 -0.37196302 0.067612566 0.4385772 -0.22091764 -0.30443463 -0.011919133 -0.37575454 -0.52386534 0.37874427 0.5990187 0.5229103 0.35356566 0.14610726 0.51672107 0.09784086 -0.12089883 -0.45845076 -0.8112179 -0.15572892 0.11278439 -0.7207717 -0.17430854 -0.029118184 0.57461673 -0.26123387 -0.35171837 -0.7174511 -0.012422936 -0.13622016 -0.15987825 -0.30211708 -0.45802525 0.16528702 0.5740622 -0.61637366 0.42733505 0.25157037 -0.08743438 -0.04353111 -0.7590566 0.3803697 0.13406299 0.24371746 -0.62161726 -0.34224737 -0.5299571 -0.05771294 0.3245099 0.052498333 -0.40011862 0.025082428 0.0869839 -0.44549304 0.16667394 0.3360478 0.13880022 0.08898869 0.61610085 0.30662042 0.17426248 0.14624791 -0.34632576 0.06979979 -0.5960497 0.21589404 0.36280736 -0.0079680495 0.058739543 0.06836802 -0.14290437 0.6350163 -0.1865361 0.07725911 -0.077722445 0.020365875 -0.105519846 0.32526088 -0.16805705 -0.014549565 0.23795818 -0.1265161 0.106100135 0.5271896 0.09623113 -0.19135442 -0.5490955 0.8357274 0.10765591 -0.014538426 0.054811724 0.6175415 0.26662952 0.07242714 0.01331795 -0.026943088 -0.54998624 -0.2745513 -0.2543068 0.12173334 0.46364057 -0.18621309 -0.25051436 -0.31052515 -0.40975773 -0.29687503 0.19850053 -0.1637684 0.17579946 -0.6255832 0.102471635 0.062664725 -0.45560732 0.27328897 -0.16758215 -0.15608278 -0.080981046 -0.22814171 0.05887314 0.09686613 0.3550111 -0.4594705 -0.14927822 0.23950341 0.21454671 0.50309145 0.21993588 0.08918263 -0.5603964 -0.4308628 0.25161594 0.03973316 0.11578241 0.38326448 0.36993897 0.23213033 -0.65912837 0.41477925 0.013245899 0.27644446 0.25614074 -0.4187677 -0.1542049 0.15835209 -0.1403459 0.35669965 -0.34053698 0.4742954 -0.5902268 -0.0332776 -0.18455848 0.35920653 -0.88419235 -0.17684437 -0.07596393 0.034322128 0.06703412 0.5908262 -0.30882758 -0.13426095 -0.4390416 0.9059453 0.4871112 0.002407223 -0.07815258 -0.5028866 0.38997325 0.79453015 -0.05441199 0.3693321 -0.050268564 0.5727367 -0.25277293 -0.8989277 0.8216172 -0.12809265 -0.4156692 -0.43387905 -0.15611117 -0.25073975 0.29159424 -0.3868497 -0.814305 0.42452025 -0.081473015 -0.0071170116 -0.07254043 0.12553039 0.07492512 -0.5475111 0.13767137 -0.041843414
