-0.7184354 -0.6531564 -0.6318227 -0.25807905 0.7907969 -0.22369242 -0.5175749 -0.10498843 -0.58426917 0.37574136 -0.807449 0.5088057 0.49269885 -0.09676884 -0.32666326 0.060474634 0.4289137 0.5179425 0.35555792 -0.11384171 0.20147547 0.081522465 -0.46992174 0.79329836 0.009513602 0.36523926 -0.11856173 0.30559304 -0.61669743 -0.94720757 -0.6544347 -0.31828126 -0.3416249 -0.49137768 -0.6855483 -0.33567846 0.8849843 0.73311204 0.13547397 0.17311591 0.25353357 0.17306533 -0.17863765 0.58769244 -0.6378628 -0.037285533 -0.071470246 0.088403985 0.2748182 -0.4689862 -0.0054028705 0.60478705 0.46608037 -0.70412517 -0.2955936 0.378052 0.3536312 0.25351256 0.2573667 0.98065615 -0.061755814 0.51407087 -0.3335588 -0.02036117 0.59967446 -0.1530335 0.10163458 0.32787874 -0.31185004 -0.54193634 -0.47001928 0.7905381 -0.13998786 -0.19218493 0.4382772 0.107561514 -0.24271591 -0.39819738 0.24619739 0.3270835 -0.6998961 -0.3919825 0.4081691 0.08439195 0.027277566 0.4308353 0.7978685 0.2675766 -0.18657774 0.20354936 -0.28110245 0.60385704 0.6563383 0.7410852 0.048160892 -0.23929764 -0.06312668 -0.5228568 -0.14850919 0.14590046 -0.28474286 -0.14862324 0.14099525 0.43254182 -0.2813264 0.33068538 0.37146136 -0.3003782 0.050120935 0.29047328 -0.117015585 -0.62005985 0.17565203 0.11790283 -0.7300607 -0.22344789 -0.48863685 0.3357374 -0.050769493 -0.35363048 -0.052948996 0.013506718 0.16497767 -0.11474616 0.29012337 0.07631636 0.34999645 0.4763824 -0.042474844 0.11529386 -0.15111567 0.04062487 -0.36326247 0.026005201 0.11815836 0.4117632 -0.17496489 0.03839036 -0.29770386 -0.7102532 -0.78223443 0.5523265 0.034287192 -0.025401749 0.47033262 0.4643419 -0.110209 0.7532006 0.63579845 0.19987562 -0.69132054 -0.17211401 -0.86152804 0.48625073 -0.84617394 0.31012604 -0.014853507 -0.5271414 0.30807045 -0.89738035 0.33837602 0.31300652 -0.5762812 0.2546696 -0.032064203 0.63914907 -0.7967195 0.081932046 0.5300936 0.54874045 -0.14748499 -0.69606215 -0.16652516 -0.18276991 -0.061134487 -0.9242482 0.8301176 -0.43204618 -0.09887776 0.38011402 0.42565614 -0.4672244 -0.09904019 0.6224476 -0.103415996 -0.73005444 0.6687742 0.3452464 -0.036691383 0.6158575 0.44773343 0.9503226 0.6222987 0.32973742 -0.10116304 -0.40302852 0.37688395 0.059259117 -0.49020424 -0.6090523 -0.53102064 -0.15244243 -0.09744693 0.12278055 -0.220272 0.62863487 -0.21957015 0.63804215 0.4948116 -0.21654648 0.45719275 0.28128612 -0.21677652 0.2559683 0.33798593 -0.5449054 -0.8687444 -0.3128445 0.3370626 0.7147053 0.1153792 0.28184897 -0.30396777 -0.8774277 0.7527244 0.4698053 0.0030244738 0.82198364 0.124680534 0.01264194 0.5562625 0.3074253 -0.4035626 -0.79121 -0.16717471 -0.51014966 0.33133468 -0.1671772 0.09914631 -0.5899127 -0.13060239 0.35863426 -0.22717041 -0.48697618 -0.4365937 0.25229788 -0.34565133 -0.09031439 0.36565205 0.5570958 0.48788363 0.03996306 -0.62754226 -0.62214315 0.28847826 0.9179795 0.5502813 -0.31687617 0.30050343 -0.00018282235 0.78211874 0.20197822 -0.39880434 -0.5058618 -0.2274465 -0.059350047 -0.6947059 0.30226183 -0.099516995 0.015595682 -0.09938934 0.077809565 0.10729909 -0.21970186 -0.27511007 -0.19987112 -0.8400729 0.6116153 -0.16760503 -0.277922 -0.6362225 -0.2795096 0.1490739 -0.8417795 0.5461116 -0.57490426 -0.10021411 0.10407616 -0.10775709 -0.40124884 -0.15776384 -0.55581534 0.23851918 -0.027603354 -0.53935987 0.266805 0.55900717 -0.8665736 -0.061450467 0.23405957 0.12571086 -0.19456583 -0.68618727 -0.20926929 -0.28720155 0.35493034 -0.859015 0.034605537 -0.6103368 -0.5166905 0.5507047 0.06734479 -0.003692015 0.39286673 -0.5642663 0.6443459 -0.020287663 -0.7724309 0.39568526 -0.3982699 -0.59881616 0.06066174 -0.52669364 0.35525057 -0.17209497 -0.07874266 -0.21183278 0.1252217 0.073403016 0.61442006 -0.20868851 -0.7243762 0.3225921 0.8712814 0.2916203 -0.46019173 -0.20798653 -0.8395424 0.49469265 0.10847643 0.64057297 0.34905046 -0.7700243 0.24301973 0.22456658 0.012884155 0.6956636 -0.25983378 -0.4402575 0.82775724 0.5141723 -0.47623742 -0.7826699 0.6905614 -0.16005042 -0.33898798 -0.9138333 -0.82210314 0.47228134 -0.69345874 0.9477874 -0.2830251 0.40924135 -0.9059353 0.24617794 0.29430965 -0.16604583 -0.12733757 -0.31376868 -0.026443377 0.018804267 -0.034028035 -0.1105396 -0.49249902 0.65712976 -0.33556268 -0.614504 0.589206 -0.94309455 0.43461692 0.32388642 -0.17289832 0.59830177 -0.19214572
0.43696925 0.059742182 -0.10362436 -0.8795531 0.14710103 -0.24835609 0.6794764 0.3621202 -0.50563717 0.792685 0.32567543 0.9796288 0.4967115 0.6357693 -0.75825906 -0.47646892 0.33729583 -0.64286613 0.46208566 -0.21361247 0.4196319 0.7114558 -0.055820882 0.7465986 0.12087324 -0.46673313 -0.52111036 -0.009765867 0.6044668 -0.50590914 0.063418895 0.26466167 -0.41922444 0.5746116 -0.38331062 -0.022948213 -0.12785378 0.48612502 -0.10661557 0.120204695 0.608859 -0.54464674 0.13130462 0.72616184 0.0815364 0.46969637 -0.38577777 0.4856392 -0.0888751 -0.43725672 0.49849492 0.464358 -0.5789153 0.4163153 -0.32076892 0.8457395 0.3685705 0.3554445 0.3444458 0.35790914 -0.33072144 0.051466107 -0.38193625 -0.5675885 -0.15866755 -0.51328194 -0.77004886 0.20988518 0.6353182 -0.06564657 0.5791933 -0.57382965 -0.71375537 -0.6740264 -0.35936272 -0.7435987 -0.53553283 0.44697425 0.7548827 -0.50546575 -0.3681438 -0.35179216 0.7249332 -0.38360518 0.038032815 -0.3403243 0.93192625 0.49117047 0.29701382 -0.16476402 0.6648201 -0.34986636 0.06640278 -0.47010422 -0.18228139 0.26154315 -0.073352695 0.51406235 0.7136951 -0.701813 -0.56043893 -0.34517112 0.8047945 -0.21654718 0.30970222 -0.40984225 -0.58419037 0.46050578 -0.24732493 -0.085965306 0.49263477 -0.29210314 -0.58190954 -0.040570453 0.37795973 -0.7269801 0.19214362 -0.3100754 -0.57123905 0.57536626 -0.94174314 -0.5119204 -0.34135428 -0.6791769 -0.14082171 0.6535018 0.6597782 0.6800113 0.62756145 -0.5320121 0.53282404 0.2843151 0.624755 0.8463254 0.5038048 0.22118796 0.53880566 -0.48476878 -0.4368105 -0.31148753 0.51485384 0.33779588 0.48998868 -0.874658 -0.5105504 -0.05276405 0.71013314 0.108434334 0.83367443 0.05928257 0.13687986 -0.34652182 -0.82794976 0.3790443 0.188216 0.5134863 -0.25235406 -0.46943498 -0.56156945 -0.5815573 0.9650856 -0.12863928 -0.021252133 -0.6015501 -0.7392599 0.54811597 -0.25650734 0.7398293 -0.64454377 0.042110264 0.4628217 0.56918395 0.2967563 0.7941283 0.755486 -0.7187333 0.17288628 -0.1301507 -0.46594232 0.44208145 -0.5585416 0.69357353 -0.16466925 -0.48072195 0.7513269 -0.089699194 -0.9757702 0.21400139 -0.41661674 0.695523 0.500497 0.39495337 0.5216208 -0.5042466 -0.6192589 0.286679 0.51322377 0.50022167 -0.46840388 0.21542911 -0.69619644 0.56627834 -0.076492 0.36929017 0.55216455 0.6303514 0.9036684 -0.21765025 0.3342811 0.31193873 -0.714214 0.30050227 -0.5436921 -0.6604046 -0.7965662 -0.4363969 -0.07311508 0.39907026 -0.8087132 -0.86807036 -0.51333547 0.33727697 -0.028222682 0.19340527 -0.5747388 0.36732697 0.66787845 0.29090816 0.42771035 0.6976404 -0.57742953 -0.8144133 0.15525863 -0.45164707 0.86870754 0.50168127 -0.6742471 0.68772143 -0.44091627 0.54204375 0.40304056 0.18183643 0.3843447 0.06134604 0.23074871 -0.6708962 -0.31669438 0.8129742 0.45949304 0.8875993 0.17173356 -0.6132362 -0.66076386 -0.79057384 0.38579488 -0.27262366 0.34161425 0.28729594 0.72017 -0.5704216 0.53263557 -0.34978822 0.36146188 -0.53367734 -0.46750438 -0.3069348 0.6947873 0.65531904 -0.109827384 0.36905771 0.50866073 0.52645415 0.20156635 -0.5388686 -0.72584057 0.75056744 0.66970336 -0.19807008 -0.82435185 0.75737137 0.1587879 0.45295835 -0.5821677 0.6384076 -0.6280277 -0.58469564 0.7367699 -0.07959749 0.3090014 -0.07499069 0.6465345 0.30982843 0.9234613 -0.55993843 -0.12988879 -0.60418904 0.9083284 -0.86257493 0.41928554 -0.4772549 0.15958284 0.43273032 -0.844416 -0.4991352 -0.35534638 0.14497787 0.4762858 -0.31273362 -0.57103455 -0.57185185 0.62202585 -0.028478444 -0.35286814 0.437635 -0.4263519 0.6707076 -0.60023856 0.5922003 -0.0032676011 -0.4585786 -0.97979176 -0.16697079 0.27577993 -0.58197325 -0.52366877 -0.5969218 0.42441353 0.6100874 -0.22924832 -0.45353222 0.093807735 0.07476769 -0.28081197 -0.6510462 -0.19009525 0.8100046 0.55039966 0.3993699 -0.7445314 0.4507234 0.17393355 -0.62865645 0.60194135 0.92498624 0.4874768 -0.5005676 0.02575875 0.30227518 0.5509138 -0.4288774 0.50972325 0.49068263 -0.27974397 0.9269495 0.14384529 0.4665058 -0.9236113 0.36058453 0.5646853 0.45977715 0.55421805 -0.64759153 0.38632023 0.01857765 0.5737515 0.54666567 0.18283573 0.6237854 -0.7555318 0.26165822 0.3037899 -0.2968406 -0.35586607 0.47460848 -0.8023221 -0.5002724 -0.52739716 0.11313081 -0.7216576 -0.06411141 -0.21800283 0.32381475 0.13853528 -0.74661034
-0.6704945 -0.4014219 0.44335192 -0.12386236 0.46128905 0.074265346 -0.1968053 0.51372975 0.3156616 0.43230647 0.9485219 0.99745286 0.61518514 0.9775572 -0.059510484 0.6300851 0.9412269 0.7661791 -0.30099303 -0.84475195 0.57625586 0.99560493 0.8462105 0.9844653 0.20642598 0.94031626 0.08259989 -0.11866702 -0.09619786 -0.8286475 -0.42027655 0.45898324 -0.8990286 -0.71469647 0.20282885 0.56481135 0.93168306 0.20249973 0.20111324 -0.6266198 0.69151235 -0.7855669 -0.32026643 0.49193582 -0.29641563 0.77194107 0.6655553 -0.73006725 0.8760935 -0.63031745 -0.2932142 0.82981044 0.990782 0.9012451 -0.435485 0.9108766 0.40666857 -0.6145864 0.20092478 0.96717846 -0.9012666 -0.29721972 -0.21908224 -0.25388303 0.42776328 -0.25024348 -0.95782495 -0.3725088 0.50133747 0.95757407 0.77337265 -0.44769675 -0.1891213 -0.11006964 0.84095144 0.6269887 -0.28950426 -0.6890158 -0.2836172 -0.08767395 -0.70605654 0.15364051 0.47828537 -0.7801667 -0.60894185 0.71923256 0.99139416 -0.48530632 -0.12864377 0.17949285 0.25733864 0.4187916 0.5153031 0.36336187 -0.42042178 -0.36700732 -0.19031374 0.80345994 -0.5259475 -0.0011501908 -0.37368095 -0.08905612 0.15971753 0.6858319 0.7752793 0.14225082 -0.6503973 0.27255586 -0.7010856 0.44132337 0.06969708 -0.8798027 0.67479295 -0.4767016 0.3374551 0.2005527 -0.20354588 0.29340118 -0.7109282 -0.8939433 -0.09886612 -0.28574082 0.96767956 0.8900238 -0.53524804 0.6404314 0.959744 0.53449523 0.5637339 -0.9344658 0.033194184 0.71364725 -0.007654801 -0.4406089 0.5703798 0.84465075 -0.15213612 -0.7392806 0.26435605 -0.39111596 -0.39732468 0.37171775 0.12009315 -0.39082617 0.9446739 0.6273383 0.6983619 0.4235406 -0.79729515 -0.19572759 0.27013645 -0.62893903 0.64886665 -0.7338802 -0.68284225 0.31846964 0.7150175 -0.6660452 0.58012855 -0.9515242 0.93294805 0.5139668 -0.77373385 0.59673387 -0.5653381 0.24310613 0.45213675 0.6163341 -0.5810816 0.7821849 0.29880968 -0.18561983 -0.49228188 0.62647873 0.61222696 -0.7131834 -0.5772419 0.68867314 -0.040028274 -0.06965011 0.35281146 -0.06510313 0.7003951 -0.6291677 -0.3053347 0.94334626 -0.5005566 0.21937233 -0.02576816 -0.048009038 -0.6378931 -0.30048794 -0.3045213 0.14693534 0.8157412 -0.77966344 -0.3286305 0.11368501 -0.14777303 0.9172319 -0.8494021 0.84822285 -0.2783481 0.36418796 0.9656238 0.10792267 -0.33955735 -0.38149318 -0.08412652 0.7691275 0.22687195 0.40962946 0.22027177 -0.12338669 -0.96344316 -0.72930884 -0.63837385 0.8235712 0.27629983 0.2142192 0.43334615 -0.53191316 0.4687851 -0.98741853 -0.078718886 0.86731005 0.41782042 0.9935972 0.82726157 -0.33408365 0.91846263 -0.24692665 0.72535515 0.14421457 -0.41321164 -0.9125596 -0.35802266 -0.6067531 0.06364112 -0.8841319 0.19222267 -0.5779073 0.9443885 0.5301548 0.62834686 0.55069757 -0.5220819 -0.13101476 -0.3645532 -0.36686808 -0.9316082 0.4570538 0.032789573 -0.5513277 0.44793004 0.45546836 -0.8564117 -0.3231637 0.10585495 0.80362076 -0.028945804 0.7453692 -0.5631756 0.008113623 0.135817 -0.588266 0.90061927 0.48035556 -0.42012322 -0.66846144 0.9925102 -0.3680063 -0.5647697 -0.46322894 -0.5083734 -0.8610549 0.07928556 0.09024313 -0.46996382 0.15779032 -0.55016327 -0.9143193 -0.7963493 0.5858203 -0.898195 -0.8359996 0.22082648 -0.89326537 -0.4794719 -0.44478106 0.48052233 -0.50788677 0.0037724376 0.32182992 -0.71326405 -0.5508825 0.99399143 -0.48096174 -0.59722817 0.2452042 -0.28414688 -0.828793 0.0774206 -0.4401993 0.23981723 -0.551889 0.8143434 -0.8870165 0.45829022 -0.14852025 -0.4836712 0.32663414 -0.58502275 -0.7638065 -0.88114107 0.8680483 -0.8436227 -0.9736396 -0.6587965 -0.9484236 -0.3952172 0.92600965 -0.19135246 -0.1803726 0.78028643 0.109853595 -0.43116727 -0.32270345 -0.277175 0.017488476 -0.62864196 -0.7260309 -0.7563359 0.9791849 0.9130908 -0.07610617 -0.1227299 -0.65084714 0.541296 -0.20207036 0.60515225 -0.69945407 -0.19870164 -0.73372746 0.26660442 0.8492365 0.58228225 -0.79992104 0.15396246 0.68331623 0.951479 0.23158976 -0.40852678 0.59768677 -0.011139885 0.40136546 0.5217407 0.14784402 0.40004623 -0.7421466 0.45788085 -0.8276389 0.36759585 0.71926236 0.14970085 0.85537493 -0.48112136 0.43709004 0.15470193 -0.051584356 -0.46352962 -0.23086952 0.27547246 -0.07654023 0.03185305 0.3548156 0.12689929 0.1599609 -0.589777 -0.32870752 -0.62999636 0.7820871 -0.44234157 -0.12505642
-0.08874759 -0.9513408 -0.17167516 -0.036268383 -0.21548666 0.072516024 -0.31604567 0.7962796 -0.27578643 0.24103773 -0.4605472 -0.2335596 0.45952827 -0.8965782 0.019510116 0.100139424 0.124241024 0.5163363 -0.84837055 0.08912221 0.9403186 -0.22282252 -0.29911113 0.36757565 -0.09937477 0.6072209 0.3869765 -0.42333752 0.5294534 -0.8894688 0.8173142 0.94656837 -0.30875352 -0.11405772 0.0566502 0.7076181 0.70441437 0.9201319 -0.06956334 0.06286584 0.24592122 -0.5990354 -0.91258854 0.15583014 -0.9017304 0.8453668 0.20817289 -0.7264478 0.8698171 0.076405324 0.089993894 -0.47939286 0.30448285 0.9404952 -0.7997642 0.95547485 -0.45364654 -0.45098478 0.8054845 -0.41479048 0.27678952 0.9148332 -0.13125809 -0.055402197 0.9146257 -0.07799402 -0.33854514 0.9631054 0.54282266 0.7881258 -0.024786398 0.7674321 -0.6446299 0.83848834 0.6663347 -0.5888337 -0.67072785 0.8740321 0.01744264 0.5503845 -0.11226809 -0.079278775 -0.3961086 -0.6869705 -0.41899556 -0.73794657 -0.14151722 -0.3271705 -0.7200249 -0.7084879 -0.6059078 0.79034925 0.66213715 0.60168266 0.9387095 -0.37411866 0.052063078 0.86594 -0.20469856 0.093926 -0.9346279 0.6453046 -0.9850638 -0.88550353 -0.71257716 -0.9084345 0.4781793 -0.25882587 0.06612068 0.36402404 -0.021071661 0.8545662 0.5369297 0.7614925 -0.8135318 0.90755826 -0.7923871 0.51729846 -0.32324043 -0.7229593 -0.38946554 -0.5962472 0.22203809 -0.93895185 0.3207809 0.60304785 -0.70501804 -0.019999025 0.49020436 0.7102169 0.8448679 0.4611946 -0.3094041 -0.75815636 0.6638943 0.6555371 0.3824391 0.32997802 0.32729536 -0.79166514 -0.9018091 -0.33575895 0.175274 -0.98912925 0.23272318 0.90341735 -0.5857008 0.12551022 -0.40769687 -0.24078915 0.90786874 -0.18115608 0.6297295 -0.33327094 -0.5900527 -0.5911606 0.1590034 0.39782575 -0.03252766 -0.59942317 -0.5707111 0.9198812 0.39575064 0.53216714 -0.72678655 0.08118498 0.0024776123 0.3747959 0.75136214 -0.96263117 -0.4401151 0.34992188 -0.82491803 0.6564075 0.34611636 -0.7077955 -0.8917741 0.088865794 0.11149606 0.8965041 -0.3091981 0.63339746 -0.7454112 -0.8191518 0.23804788 -0.06219598 0.7403452 0.9033699 -0.69481593 0.17162803 -0.5690538 -0.96622175 0.20796505 0.4345719 0.58176 0.5043699 -0.85977757 -0.58812505 -0.39306885 0.3480816 0.44978958 0.94034797 0.47089982 0.054621212 -0.5853158 -0.71279776 -0.040960077 0.26051277 0.15666918 0.59288454 -0.0033962391 0.4850914 -0.2754591 0.5858769 -0.75523925 -0.5596524 0.80307215 -0.05076123 0.7372384 -0.93022346 0.7470255 0.9263457 -0.30771345 0.36536115 0.024735877 0.59772456 -0.29451114 0.7251867 0.88184816 0.24351145 -0.8324357 -0.26551473 0.85916454 -0.5666884 0.48591828 -0.005700389 -0.7761554 0.4059105 -0.5722729 0.113157555 -0.7447083 -0.28846475 0.5200542 0.13049468 -0.25581315 0.9384939 -0.22966607 0.77058566 0.5364724 -0.8921141 -0.8198688 -0.13295062 0.5831751 0.77745044 0.690346 0.13844979 -0.041235723 0.13524927 0.71656907 -0.6981158 0.46571675 0.82102156 0.936872 -0.009854864 0.49100903 0.30112842 -0.32261384 -0.049615238 0.86938596 0.6691769 0.822185 0.43818575 -0.76986164 0.17887396 -0.26378056 0.01949139 -0.5141929 0.78317016 0.14955981 -0.7170836 -0.0037964806 -0.6875267 -0.34986845 0.9409945 -0.8728093 -0.23351337 0.111570925 0.2020306 -0.6217616 0.54038894 0.26259622 -0.8230599 0.22127226 -0.4231546 0.16268595 0.8354774 -0.74876195 -0.486308 -0.7973914 0.40532553 0.4564764 0.319916 -0.47579286 0.71364546 -0.11154914 0.28601605 -0.8385837 -0.023791388 -0.646815 0.026061203 0.69561094 0.34853858 0.28883272 -0.4784737 0.061361518 0.7695963 -0.7737544 0.5090356 -0.77823293 -0.4660218 -0.029408075 -0.18486276 -0.2983234 0.015286408 0.62360543 0.12913735 0.40311453 0.9618246 0.28232455 -0.108257174 -0.581116 0.70358896 0.27711785 0.91694003 0.048013963 -0.3691818 0.9097539 0.9432573 0.28488913 0.81764615 0.36115316 0.58232605 0.26494738 -0.23891337 -0.43347692 0.54903424 0.31417847 -0.46157905 -0.13013403 0.8129784 -0.42164427 0.7553124 0.7419267 0.91956776 -0.27519006 -0.8561952 -0.38571984 -0.039641473 0.18971908 0.7645225 0.33141145 0.9703242 -0.9009041 -0.7800387 0.39550313 0.5009798 0.022706185 -0.069425926 -0.53843427 0.6748832 -0.35316208 0.3671689 -0.8217649 0.013128575 0.819403 0.5025524 0.30302665 -0.36519375 0.4649027 0.1044067 -0.07673419 0.8276555 0.79502463 0.70095795
0.1770741 -0.27465335 -0.31237876 0.07228471 -0.040366575 -0.29728198 0.5282353 0.4268557 -0.72480917 0.054306798 0.4455171 -0.026615977 0.7090937 -0.6170875 -0.20979749 0.63998216 -0.079983406 0.66678476 -0.61170757 0.023682944 0.41271523 0.13327114 0.11072272 0.34833205 -0.3372926 0.5888573 0.06834571 0.101806656 -0.11281906 -0.46410176 -0.24580316 0.33906955 0.12834227 -0.0463427 0.32579583 0.41524804 0.47741035 0.75918907 -0.11208917 -0.09654138 -0.09033356 -0.45988062 0.09170562 0.22121632 -0.49805886 0.21989974 0.35960263 -0.52003956 0.77106535 -0.7036853 -0.055105597 -0.53197557 0.25219885 0.4827227 -0.27030984 0.8173176 -0.1645649 -0.14294496 -0.4935849 0.5272583 0.17126733 -0.027897708 -0.33145535 -0.3375977 0.31964046 -0.3350352 -0.8275145 0.63800085 -0.6365365 0.5690045 -0.028199412 0.62500644 -0.56229186 0.016181093 0.32591987 -0.23930539 -0.27398327 0.46557164 -0.39065227 0.83539766 -0.71645653 0.17673007 -0.017023638 -0.0061864667 0.12962653 -0.23707071 0.4321159 -0.013678841 -0.31364554 0.15683194 0.39898118 0.07082493 0.14583112 -0.4576121 0.37034827 -0.44113207 0.31869107 0.66479135 -0.12899311 0.3334017 -0.720455 0.7722331 -0.5816112 -0.35281074 -0.3413002 -0.85425335 -0.05346936 0.023585483 0.14426497 -0.62951 0.17953117 0.16923714 0.084782995 -0.3981127 -0.57563174 0.19302773 -0.72008246 -0.15546355 -0.27271366 -0.20483574 -0.3329027 0.022078173 0.24945813 0.40095317 0.52237624 -0.42460918 0.021089062 0.6033351 0.19632305 -0.31420094 0.76794803 0.1572577 -0.10282506 -0.36169142 0.40989524 0.42183286 0.5298768 0.54361546 -0.18816584 0.020325422 -0.5788524 0.21470603 -0.5879079 -0.90256786 0.026930466 0.43494484 0.44621366 -0.7590599 0.30326766 0.49364516 0.3067189 -0.14476433 -0.13350758 -0.23960537 0.35277405 -0.28544766 0.45756406 -0.065483555 -0.19756311 -0.71185935 0.1933153 0.27730498 -0.6125983 0.6152462 0.061199322 -0.05793479 0.3980965 0.42597586 0.37179443 -0.49301112 -0.4722162 0.37949687 -0.45655653 0.8313428 0.632318 -0.74480164 0.30286682 0.21457717 -0.14678569 0.13248044 -0.18883976 0.042516116 0.50575393 -0.5818352 0.41765004 -0.39208043 -0.04261235 0.5400856 -0.3206217 0.2025304 0.7117784 0.17383707 -0.05627411 0.3348571 0.3784952 0.14616805 -0.14310378 0.07924771 -0.7652805 0.005586818 0.0023771971 0.5186662 0.09122348 0.44631526 0.24852997 0.12786628 -0.2514991 0.26042372 -0.17544621 0.38314942 -0.04865838 -0.34437472 0.6484027 -0.16266854 -0.37586448 -0.38011208 0.10488381 -0.3183431 -0.15177198 -0.42613012 0.42301914 0.2665991 -0.025127172 0.00084753707 0.14932932 0.07895973 0.31772918 0.79898083 0.5096988 0.5204035 0.16321935 -0.38232464 0.6878804 -0.2187129 0.22620654 0.222644 -0.11263545 0.43100858 -0.77016723 -0.01954851 -0.26682445 -0.17605747 0.3833952 0.42755717 0.14620253 0.50151294 -0.6739809 0.22751662 -0.03141074 -0.48991778 -0.36944386 0.4371289 0.21687484 0.6500526 0.62245125 0.2949578 0.32964915 -0.10232252 -0.24569553 0.6210102 0.071746744 0.23937106 0.37272355 0.10214782 -0.028270487 0.4989222 -0.26459157 0.17213856 -0.10235128 -0.1888336 0.8544369 0.5796611 0.06188537 -0.058762103 -0.6354226 -0.025449112 -0.5132767 -0.27115202 0.18406877 -0.291485 0.40906915 -0.5473527 -0.06364621 0.6849294 -0.5110625 -0.28375274 -0.4259128 0.3829031 0.124997064 0.0003908947 -0.31613746 -0.39996713 -0.16294737 0.12613016 -0.28590542 0.39924517 0.16502692 0.26166886 -0.27026424 -0.25878087 0.13830438 -0.5046653 -0.17679372 -0.32347262 -0.6242901 0.16412064 0.3766635 -0.121636495 0.10110956 0.009910092 0.21467921 -0.047941934 0.2299154 -0.04775353 -0.6725589 0.0898148 -0.7208878 -0.40489286 -0.6944486 -0.59521985 -0.45415378 -0.15330124 -0.15243995 0.043519445 0.32835156 -0.15639889 0.17578581 0.049687684 0.4469645 -0.0091497 -0.41614795 0.3625471 -0.17635109 0.8344546 0.65576786 -0.39311105 -0.3703987 0.31568182 0.18887515 0.5351125 0.13821067 0.45921913 -0.38255078 -0.3312853 -0.18671334 0.23182675 0.047274053 -0.56237173 -0.33302206 -0.30217755 -0.17068711 0.39346638 -0.15524942 0.608392 0.23058659 -0.57102025 -0.1798122 0.24200743 -0.0655351 0.23150864 0.692744 0.5259009 0.27912802 0.36658177 0.105137154 0.6107081 -0.014292955 -0.10925324 0.027481128 -0.41467774 -0.086288966 -0.1572249 0.29808527 -0.5424409 0.6249726 -0.46979648 0.76215017 0.5245945 0.28435984 0.5014272 -0.24594617 0.15978676 0.34323236 -0.063623466
0.3572295 -0.025480293 0.5164568 0.43210793 0.46901682 0.50056773 -0.13407172 0.5344125 0.5083434 0.7405291 0.9048339 0.72930986 0.5279176 0.7524873 -0.35616574 -0.17208914 -0.36927745 0.0034328168 -0.61296153 0.18036628 0.17657241 0.6969858 0.5935257 -0.08057141 -0.8069083 0.74947214 0.6484882 -0.02865784 -0.34653583 -0.6991178 -0.4193752 -0.17379564 -0.27535927 -0.5017847 0.35982996 0.2755284 0.7827203 0.052338157 0.6689512 0.25359723 -0.034498382 -0.011620393 0.9129608 -0.66047424 -0.022165269 -0.7760098 0.23856747 -0.2181994 0.737329 -0.8205762 -0.10560538 0.1767786 0.6627877 0.13814184 0.24236861 0.46512353 -0.4394788 0.3351768 0.15203238 0.41592106 -0.3479885 0.35151052 -0.45776182 -0.40323594 0.26023978 -0.4650318 -0.5706733 0.7404252 0.36519608 0.07574656 0.5002286 0.6849083 -0.48124307 0.43478718 0.26226792 0.34700692 0.29378083 0.29826176 0.94292897 0.8918788 -0.15151948 -0.76753956 0.45011294 0.14211684 0.28001136 0.5611931 0.5738003 -0.544908 -0.20948905 0.08829876 0.49266008 0.034058798 -0.3772041 -0.80198646 -0.26037118 -0.75952214 0.405219 0.3942229 0.402076 -0.38482496 -0.47908303 0.6511225 -0.6937697 0.2834506 0.3988189 -0.29700968 -0.1395754 -0.6841359 -0.4285547 0.04734074 -0.22975233 -0.37851587 -0.6915904 0.19048217 0.5786667 0.75452226 0.19540097 -0.8145266 0.40867582 0.015445706 -0.90454626 0.60347605 0.8957689 0.6277799 0.51159173 -0.5062126 0.7774468 -0.2853544 0.17986992 -0.3792647 0.067995265 -0.40961513 -0.614646 -0.58595663 -0.10089634 0.42765686 -0.40801743 0.0081914915 0.63722223 0.75099975 -0.7016901 -0.19563836 -0.16183601 -0.79575986 0.19598588 -0.19785732 0.6345231 -0.6346104 0.46209288 0.6695449 -0.5596478 -0.25035018 -0.47671914 0.41101858 0.5849614 -0.52449846 0.32604268 -0.12230253 -0.04693273 -0.5944473 -0.21443939 0.26439238 -0.873921 0.48917344 0.49491653 -0.39492735 0.43964943 0.5311521 -0.5561467 -0.80478066 -0.5997014 0.12330304 0.38107556 0.5819332 -0.5943265 -0.8710711 0.48605666 0.36030847 0.33537945 -0.030604267 -0.10779079 -0.5896995 0.13201587 -0.16403627 -0.402556 -0.08736903 -0.7773636 -0.056888383 0.28909346 0.36846703 0.30245793 0.09095455 0.83032537 -0.57651126 -0.7519451 -0.08029683 0.84767383 0.7175206 -0.13342597 -0.57708335 -0.58323115 -0.050689377 -0.43847677 0.23136643 0.64108413 -0.34776637 0.58560634 -0.8757982 -0.07213977 0.6984546 -0.5842747 -0.32069224 0.8356763 0.014103735 -0.53556025 -0.5061989 -0.014747424 -0.1304982 -0.021319063 0.11697261 0.71885425 -0.6905869 -0.634327 -0.84945434 -0.61691296 0.1744098 -0.8072182 0.8091248 -0.105717115 -0.12925509 0.6847609 0.59855515 0.5995528 -0.77884513 0.95009685 -0.69998497 0.46304268 -0.071221486 -0.47693017 0.23480771 0.0431132 0.7074155 0.01174939 -0.060383007 0.3710733 0.62826973 -0.43522516 0.42464238 -0.87833875 -0.2800768 -0.9009472 0.17316258 0.16268905 0.6647534 0.77053714 0.8628141 -0.4570522 0.68318886 -0.6332455 0.57266706 -0.58325213 -0.10808377 0.07415865 0.1326737 -0.27571058 0.2254368 0.5322542 0.37174577 -0.8127292 -0.7927088 0.7047513 0.6679038 0.9065532 -0.6376658 -0.83259565 -0.6737729 -0.58074087 -0.62802917 -0.28223607 0.4723713 -0.64195675 -0.6070912 -0.24691872 0.77067655 -0.80686957 -0.59256774 -0.0718872 -0.27605146 -0.09641066 -0.21169843 -0.8109983 -0.42164752 -0.47077817 0.23102582 0.639247 0.17429407 0.8324094 0.20416683 0.09200447 0.032378245 0.7411753 -0.54753006 -0.44681072 0.7894275 -0.03732443 -0.0006851164 -0.465945 0.11867066 -0.8127432 -0.15260218 -0.8027419 -0.036843073 -0.48608544 -0.37307128 -0.295297 -0.041223984 -0.409094 -0.6858656 -0.47356245 -0.37592837 -0.086871244 0.37373933 0.10775097 -0.40367067 0.17151684 0.63259786 0.68159604 -0.30035618 0.23114644 0.2649863 0.41218495 0.034735717 -0.01875779 0.7890421 0.8247806 -0.7213321 0.33492798 -0.2896311 -0.4058976 0.8099281 0.00726815 -0.62155807 0.38619477 0.8540039 -0.8075955 0.8813181 -0.37321237 -0.15978304 -0.46938273 -0.52796257 0.3367343 -0.49614558 -0.30928665 0.5644817 0.33741763 0.8616693 -0.80345726 -0.15556279 0.8803134 -0.5000434 0.43344903 0.5167313 -0.47787204 0.6577247 0.18387638 0.25898194 0.014609585 0.066336416 0.12622704 -0.43560082 -0.08816615 -0.7152649 0.81279045 -0.78182894 0.5861421 -0.077379495 0.2193979 0.770095 -0.688166 0.2189106 0.8031443 -0.4709229 -0.59402937 -0.15643606
-0.18953131 -0.4611233 -0.15740944 0.21617195 0.16115378 0.038360484 0.08871512 0.42621666 -0.6793895 -0.06167862 0.4131608 0.3184105 0.40457916 -0.314739 0.2132459 0.6581992 0.24650308 0.1395442 -0.8615322 0.24367023 0.6157261 -0.5283795 -0.33413017 0.7728925 0.5065732 0.24750878 -0.44963515 0.22687522 0.29038477 -0.42901498 0.093909495 0.27331915 0.32437122 -0.21054593 0.35821033 0.43156952 0.27098423 0.39278567 -0.50923854 0.5245825 0.06183627 -0.81951547 -0.57627344 0.42386267 -0.5601695 0.36745563 0.20021892 -0.3731257 0.49704218 -0.5254929 -0.3494925 -0.43464267 0.39692444 0.85794675 -0.7010472 0.60121393 -0.37191188 0.05543469 0.04335621 0.47877398 0.46544755 0.73885936 0.1947129 -0.08146574 -0.30332652 0.2594482 -0.61974585 0.8217348 0.5876018 0.8060266 -0.5090114 0.41978377 -0.33842227 0.3105442 -0.01497066 -0.2654795 -0.11211726 0.3949496 -0.17283124 0.43566507 0.1646916 0.5637991 -0.101991504 -0.44447446 0.5686322 -0.5678234 -0.09057347 0.35121092 -0.4789815 -0.628248 -0.2698829 -0.08485215 0.39257646 0.30570585 0.22462042 -0.042882707 0.3547622 0.7796264 -0.17436756 -0.34645408 -0.752509 0.6720754 -0.41231245 -0.60702074 -0.26625046 -0.5909798 -0.1719219 0.09092784 0.11149301 -0.17597526 0.4369966 0.4997531 0.054632694 -0.3955664 -0.4069217 0.7273063 -0.08172114 0.11305647 0.038758896 -0.3683501 0.32045886 -0.19596316 -0.0012499988 -0.40560174 0.4733687 0.5904909 -0.3775195 0.40032756 -0.08806069 0.40255815 0.5610621 -0.11446181 -0.06745637 -0.35688588 0.19849125 0.24264544 0.7743417 0.71161604 -0.20962852 -0.3136198 -0.51162887 -0.042117596 -0.20449515 -0.8099805 -0.021613553 0.16161293 -0.30451304 -0.2692874 0.08887641 -0.2910844 0.5646776 -0.41099992 -0.22944835 -0.40794444 -0.43198523 -0.53143823 -0.15154134 0.43072796 -0.6279774 -0.416616 -0.2895171 0.3316479 0.5870296 0.372859 -0.7636876 -0.20721668 0.44240743 0.28706864 0.10341745 -0.44541693 0.066141315 -0.10093929 0.14453457 0.58422464 -0.046310097 -0.724972 -0.45548108 0.24808505 -0.31903648 0.47773436 -0.13106598 0.579072 -0.20840257 -0.49155417 0.16711655 -0.18245916 0.37327242 0.5410733 -0.23526257 0.056351632 0.3185407 -0.34533098 -0.3242424 0.55303234 0.39475793 0.14477503 -0.40701914 -0.4406445 -0.616715 -0.21826133 0.15605637 -0.035905227 0.20664272 0.14530444 -0.45091668 -0.56944436 -0.36707634 0.22378951 0.18109518 0.5289502 0.3427646 0.15289459 0.3367612 -0.2774557 -0.3752986 -0.49200425 0.49957183 0.23126704 0.3945661 -0.65284467 0.42595834 0.58229864 0.1799789 0.27770865 0.57581216 0.47495538 -0.19241111 0.60165495 0.7613406 0.18476574 -0.64983916 -0.012351961 0.39272398 -0.3664202 -0.016023949 -0.1971839 -0.47058558 0.69915015 -0.15928994 -0.292541 -0.3759998 -0.57041526 -0.08584893 0.43848333 -0.10371444 0.73119557 -0.5188691 0.45683286 0.4243696 -0.2638901 -0.41674507 0.19819869 0.42442644 0.80026555 0.3103452 0.5638611 -0.26201764 -0.40193814 0.43184388 -0.6659039 0.10335694 0.42480195 0.795702 -0.106072925 0.5205281 0.25481492 -0.12076349 0.1558556 0.43158954 0.52836597 0.4419795 0.7235786 -0.1725237 -0.024156205 -0.33165777 -0.09867879 -0.19356501 0.11790403 -0.046236902 -0.48369312 0.124227196 -0.52454746 -0.4519574 0.8979665 0.09028755 0.43712187 -0.2282134 0.52801466 -0.28000328 -0.046256255 -0.20065813 -0.6250912 0.19742996 0.026955016 -0.16736113 0.34925202 -0.3763516 -0.25856698 -0.6908032 0.5076301 -0.01253196 -0.0183032 0.24627993 0.06843762 -0.6675154 0.22913507 -0.35730487 -0.40447193 0.026856106 0.42119175 0.38194424 -0.3121077 0.55722296 0.022340253 -0.5262058 0.5416156 -0.37638584 0.308164 -0.44979018 0.0016481876 0.094371855 -0.21843125 -0.33954132 0.17814565 0.41157222 -0.05861541 0.47961035 0.75245774 -0.062133305 -0.21743101 -0.47371712 0.48047382 -0.086789414 0.8786997 -0.31910017 -0.42542812 0.674966 0.6334251 -0.04249855 0.18179731 0.28031197 0.44003776 -0.23002644 -0.23076454 -0.4488 0.42510965 0.509765 -0.063161924 -0.21573158 0.3541482 -0.22994527 0.48682418 -0.013044648 0.5529833 0.40776122 -0.5858805 -0.29879466 0.18762235 -0.25939 0.24287474 0.37015188 0.69371676 -0.62094027 -0.10322022 0.38591105 0.42348978 0.005477518 -0.31213173 -0.2783439 0.46029735 0.047565922 0.0865015 -0.1957934 -0.08457643 0.6106423 0.20712471 0.60117257 -0.26614723 0.23872662 0.21194538 -0.033017665 0.22947598 0.810024 0.19832839
0.48140165 -0.55791867 0.46620482 0.14414547 0.47305754 -0.19761366 -0.33400542 0.4262338 -0.5847917 -0.28368267 0.46943337 0.47413412 0.55030656 -0.3456669 -0.5518375 0.86746645 0.027684659 -0.56581557 -0.8177863 -0.5130904 0.79413414 0.26700884 -0.15913972 -0.08872035 -0.6224325 0.63700885 -0.20439765 -0.17005998 0.3414535 -0.117213964 -0.18924277 0.6248074 0.13501507 -0.33844218 0.27575785 0.20057108 0.2949871 0.82482994 0.1558055 0.03170054 -0.30689624 -0.48870388 -0.64023 -0.7488699 -0.580051 0.38514978 0.8605031 -0.31132087 0.87055063 -0.50451744 0.009670973 -0.49092174 -0.17563535 0.62416244 -0.76491416 0.7542393 -0.07850757 0.19851476 0.08839328 0.42086908 0.20095098 0.53452873 0.56253564 -0.09243566 -0.57275605 0.59836555 -0.07011373 0.84255236 0.2009542 0.8976117 -0.5993049 0.54285103 -0.119799584 0.56712466 -0.27779123 -0.09349644 -0.2867765 0.7730018 -0.07623893 0.6337092 -0.63258386 0.18279245 -0.04923295 -0.14543533 -0.12521142 -0.35930437 0.037366197 0.09763824 -0.6018548 -0.15582225 -0.10140164 -0.42113197 0.44665268 0.40552408 0.3177947 -0.08110796 0.5614588 0.718064 -0.036398534 -0.3729998 -0.86985475 0.8661004 -0.83608866 -0.7345842 -0.6644871 -0.92930067 -0.37229955 0.09950071 0.23101392 0.004535824 0.46011814 0.29478237 0.3385832 -0.5169641 -0.5833026 0.5183716 -0.8049149 0.0007317364 -0.51892823 -0.15669549 -0.013060331 -0.41714832 -0.39475965 -0.13753195 0.31784135 0.053458534 -0.37362126 0.5373896 -0.2618163 0.3827724 0.82301795 0.015704326 0.42300883 -0.5460208 -0.050184928 0.11470753 0.65751827 0.021829506 -0.18261236 -0.31944302 -0.54180866 -0.4036989 -0.07423565 -0.60259295 0.043485 0.67292666 0.23139225 -0.2535848 -0.042972893 0.48113334 0.7491084 -0.579064 0.02656047 0.4170712 -0.46462983 -0.70216393 0.33183014 0.5137236 -0.48584673 -0.665077 -0.29265285 0.15282938 -0.48079023 0.8354317 -0.6005327 0.44690865 0.6682751 0.6397855 -0.3980568 -0.51300883 -0.32973593 0.5108466 -0.75084186 0.9210636 0.2155818 -0.6436175 -0.5464585 0.4379461 0.084384605 -0.19922829 -0.09252722 0.2894043 -0.15945925 -0.14151226 0.6112221 -0.4656791 -0.07721769 0.88124436 -0.34448826 -0.14000815 0.6680564 -0.1432531 -0.11994668 0.27750275 0.53113896 0.50775343 -0.13684702 -0.310939 -0.64516187 0.28177404 -0.30647588 0.45768785 0.60108346 0.0662522 -0.63521963 -0.37714896 -0.5324149 -0.020340648 -0.058561973 0.4632 0.48487204 -0.5283414 0.7990642 -0.41901475 -0.044374585 -0.4043823 0.5004081 -0.5488596 -0.48342103 -0.63955927 0.6911999 0.21659188 0.1979374 -0.46954006 -0.21668029 0.25777322 0.14397827 0.84927285 0.79432225 0.29118016 -0.26810443 -0.04826154 0.45770007 -0.33241957 0.37872338 0.37144768 -0.2767914 0.593866 -0.32732278 -0.39666232 -0.2851164 -0.5640752 -0.25072563 0.0614295 -0.19503583 0.6367731 -0.5173434 0.5308212 0.32945544 -0.6723295 -0.18863694 0.7337334 0.6338132 0.8270006 0.18084162 0.12610066 -0.37258178 -0.25302434 0.26844582 0.38680476 -0.10195672 0.20876588 0.42938206 0.13583842 -0.26629138 -0.032068778 0.21245034 0.58249104 0.51769465 0.5596123 0.584568 0.31382167 -0.1270813 0.1936625 0.07544176 0.10291503 -0.5435184 0.720327 -0.28203526 -0.5567156 0.06858883 -0.32020947 -0.41980726 0.54638654 -0.7515471 -0.47401458 0.24757215 -0.3357658 -0.6077884 -0.28321043 -0.6239537 -0.7454945 -0.104680255 -0.19736284 -0.3608079 0.05228792 -0.5424768 0.114917815 -0.6144547 0.21854337 0.13933676 -0.3644845 -0.6159947 -0.10046266 -0.7812857 0.69907916 -0.48525435 -0.5108906 0.29348505 0.044613242 0.36895406 0.33808702 0.46262795 0.27871957 -0.63145256 0.021424577 -0.37620503 0.37440717 -0.6150161 -0.41053405 0.17296222 -0.4745222 -0.3304058 0.095157035 0.2387787 -0.44674012 0.24539235 0.122777134 0.06416339 0.4345243 -0.38073912 0.5998329 -0.17128119 0.63701606 0.18398288 -0.001003027 -0.47003883 0.58003145 0.35175186 0.69206893 -0.37379932 0.6474352 0.050103523 -0.6038414 0.059197295 0.2649696 -0.25986356 -0.13246211 -0.14531873 -0.24385124 -0.50411445 0.42388028 -0.0074929 0.76679575 0.28360245 -0.791382 -0.05402887 0.1184127 -0.5229629 0.07281451 0.36302444 0.54277265 -0.6502001 0.024662161 -0.15516758 0.50592583 -0.15909623 -0.78730464 -0.26380396 -0.64155126 0.05543104 -0.08563186 0.2316312 -0.65116346 0.3228253 -0.3468148 0.4970644 -0.21004796 0.40426594 -0.028498545 -0.0690322 0.40260506 0.6223793 0.09349415
-0.67484814 0.34961715 0.33550057 0.5178757 -0.5032418 0.27696007 0.5907972 -0.308048 -0.7904784 0.5145509 0.8491328 0.42281386 0.9060087 -0.6201993 -0.27198225 0.85080886 -0.32259542 0.75736123 -0.5451546 -0.32996765 0.6312436 0.0044154525 0.6506229 0.66895574 0.21713883 0.63703805 -0.208733 -0.5773315 -0.6726266 0.4393796 -0.6973266 0.06995772 0.50114095 -0.70128596 0.41602704 -0.44051355 0.78419733 0.6589705 0.2991685 -0.3660091 0.21126565 -0.057128094 -0.24276978 0.42284942 0.22306336 -0.4286079 0.17439702 -0.721317 0.71576124 -0.95393366 -0.4997451 -0.5890531 0.26043773 -0.39748782 0.6949966 0.8738212 -0.30051523 -0.073907346 -0.32914162 0.8773695 0.050734267 0.4613487 -0.55494213 0.59409904 0.6397077 -0.45164692 -0.9048023 0.43602794 -0.19275892 0.72963256 0.090753555 0.12711272 0.43231863 -0.100794256 0.58907616 0.13890605 0.4615019 0.561669 0.074350685 0.743631 -0.039089583 0.37627608 0.3052004 0.7559753 0.46286812 -0.068419375 0.7995603 0.3088258 -0.36559907 -0.561905 0.55226743 -0.28782353 -0.40425837 -0.7705996 -0.5870253 -0.5105147 0.561844 0.9212016 -0.40176883 -0.20960261 0.39226508 0.82086074 -0.5356149 -0.122012645 0.5851763 -0.82286704 0.16253608 0.57030255 0.49073437 -0.8352014 0.26612234 0.027007662 -0.3563227 -0.89744735 -0.5503627 -0.010877684 -0.77703714 -0.06528671 0.07305467 -0.5418667 -0.68802905 0.34473112 0.03240703 0.9039557 0.34814054 -0.27086836 0.83131707 0.830782 0.77552176 -0.50362134 0.46484184 0.618024 0.49652356 -0.75381577 -0.0051623583 0.6815144 0.18088102 0.6477117 0.6913158 0.85510385 -0.8957261 0.87033993 -0.5625963 0.038537994 0.26535034 -0.009655029 0.09465565 0.14469892 0.65712696 -0.07338707 0.5222011 -0.6838452 -0.40724558 -0.10390678 0.14923467 -0.44398877 0.7541088 -0.34831557 -0.9265382 -0.4963318 0.64858776 -0.34166533 -0.305993 0.7765797 -0.7516399 -0.031351477 0.86828077 0.6451861 0.019367173 0.26193142 0.29075354 0.015580341 0.5915939 0.5883866 0.10175015 -0.8059471 0.7858994 0.6002381 -0.331225 0.3662749 0.49591544 0.2650641 0.469328 0.07343748 -0.090393975 -0.5650624 -0.046290364 0.23632929 -0.5835842 -0.0049879327 0.68708116 0.7315953 0.38639754 0.24480079 -0.24244192 0.6829697 0.51857007 -0.31577787 0.3332349 -0.5724691 -0.77556163 -0.056345683 -0.7626165 0.6948275 0.89556324 -0.06128961 -0.20912065 -0.6023176 -0.29035327 0.38461453 -0.07711393 -0.55307806 0.7601763 -0.5093762 -0.5882661 0.26839727 0.15559591 -0.23263255 0.4642111 -0.3811295 -0.13159153 0.38914493 0.26763222 -0.60764134 0.47238714 -0.01491496 0.26335406 0.88257706 0.4957283 -0.3026887 -0.1311203 -0.4496228 0.061991565 0.0008010715 0.0041898936 0.16023824 -0.21714789 -0.2939928 -0.19446334 -0.5434271 -0.11641671 -0.101329185 0.122045875 0.28427005 -0.0849928 0.3942003 -0.5928874 -0.3591403 -0.4727047 -0.35562417 -0.5530965 0.78700817 0.024880186 0.88678086 0.1295388 0.76026416 0.0136324465 -0.1388095 0.028596565 0.49228692 0.22336777 -0.048258834 0.26775932 0.36077502 -0.20463619 0.5391229 0.6864369 0.39440474 -0.28105602 0.1707744 0.8954377 0.90471804 0.79660857 -0.7960561 -0.3484444 -0.6165148 -0.8516818 -0.6869237 -0.63848877 0.4400255 0.18473105 -0.7314961 -0.665127 0.9095139 -0.6772107 -0.55890477 -0.6923423 0.65724564 0.15423602 -0.013875094 -0.7331699 -0.19294111 -0.18945499 0.52358925 0.12729676 -0.58444065 0.15126354 0.059847493 0.545908 -0.5533191 -0.13628522 -0.42045665 0.55383414 -0.023991302 -0.7461682 0.36074167 0.10964081 -0.34923512 0.42248726 0.7334759 0.17337245 -0.4108442 -0.38766995 0.6632224 -0.5625914 0.1411311 0.10835974 -0.11995751 -0.8124502 -0.6894989 -0.16356844 -0.4616925 0.07499036 0.38053194 0.69572604 -0.4453138 -0.015334219 -0.5664091 0.10549141 0.2473149 -0.57636905 -0.42412704 0.3149826 0.36883962 -0.23982856 -0.13865462 -0.6308272 0.79014164 0.14084966 0.8836648 -0.70130783 -0.5616162 0.73356354 0.18608114 0.33772618 0.7143888 0.35335124 0.12876695 -0.32830834 -0.866639 0.6021818 -0.8343649 -0.8661362 -0.0006621182 -0.45165697 -0.40395892 -0.02020961 -0.45346957 -0.36177158 0.62784684 0.0829979 -0.1433164 -0.3104185 0.76466113 0.58578765 0.51034653 -0.434631 -0.29740438 0.44104946 -0.44199055 0.3537932 -0.86195016 0.85326195 -0.95315933 0.7123817 -0.24697867 0.69289565 -0.32237816 0.24074444 0.79737854 0.016958747 -0.85255206 -0.14459705 -0.91664946
0.8530407 -0.9911645 -0.71902055 -0.9600872 0.16028014 0.10532689 -0.8203018 0.6239195 0.8694284 0.90239704 -0.8336664 -0.54886776 0.27130067 -0.6178975 -0.53281987 0.74395573 -0.92802656 -0.83443415 -0.344885 0.9373946 -0.72701335 0.58391964 0.034699135 0.22805926 -0.83999723 -0.76005924 -0.8620887 -0.6771311 -0.5909951 -0.8481608 0.97465825 0.22387025 0.9529283 0.5377451 -0.76351726 -0.027992636 0.18671346 0.8223599 -0.038440198 0.9115755 -0.70946705 -0.5257168 -0.8193894 -0.25501314 -0.8119809 0.41814458 -0.93486273 -0.6550603 -0.5280578 0.9432188 -0.8766794 -0.6486131 -0.8538712 0.98910844 0.8716623 0.95878726 -0.4778861 0.50094426 0.86556566 -0.6262687 0.22158374 0.19102854 0.9273569 0.77331555 0.15649807 -0.047216773 0.63878167 0.99368507 -0.7950121 -0.50737786 -0.63292474 0.84774476 -0.42785597 0.8220384 0.94176894 0.849936 -0.3608077 0.12180604 0.9513273 0.26454714 0.7609098 0.8088907 0.97703767 0.9454117 0.24921954 -0.4630683 0.96792865 -0.41254705 0.6709353 0.6803123 -0.33278072 -0.6427647 0.8091155 -0.8335625 -0.0664691 0.90848166 0.14987966 0.75022596 0.94856346 -0.7714602 -0.4873218 0.8539138 -0.48915896 -0.7129104 -0.39127758 0.7761402 0.60202956 -0.124024615 0.92790467 0.96531653 0.8302038 0.9718957 0.5177431 -0.1054007 0.21913698 -0.9099012 0.27361417 0.7874666 -0.9360325 0.16637756 -0.9848231 0.8855169 0.085376084 -0.87806606 0.8502199 0.52776015 -0.42738202 0.722349 -0.83396864 -0.8000673 0.62853813 -0.7910522 -0.55129373 0.8888913 -0.15837902 -0.70752096 0.6019317 0.23619242 -0.37276196 0.8103061 0.73683524 0.5839126 -0.7345762 -0.98447764 -0.8312819 0.86550945 0.6968372 -0.8568278 0.7699176 0.85985494 -0.6948572 0.08071098 0.78900516 0.60272646 -0.67518497 0.7246705 -0.5257549 -0.83999634 -0.41918033 0.52426374 -0.04717356 0.9496722 -0.72436893 -0.9290335 -0.7135106 0.68984675 0.3112431 0.8985577 -0.8015528 -0.805544 -0.5262221 -0.7876419 0.7713842 0.79836655 -0.015925705 -0.6771481 -0.15135276 0.20141324 0.8431102 -0.792443 0.64586806 -0.10774213 0.37577784 -0.828733 0.96183217 -0.71210074 0.045950845 -0.701002 0.8470912 0.24630056 0.5834782 0.6672118 -0.4209364 0.08158311 0.3541189 0.6896962 0.4124012 0.8349868 0.06700796 -0.17821005 -0.9367774 0.9725155 0.7368062 -0.8206419 -0.79575473 0.7068283 0.541115 -0.85916674 0.7122631 0.16029845 -0.9546361 -0.9014982 0.83783287 -0.15167992 0.65004027 -0.76844096 0.84272504 0.7107349 -0.4735965 -0.8873616 0.08880553 -0.5955107 0.7815473 0.4386589 -0.23439254 0.84950364 -0.19558221 0.8348204 0.9235014 0.9305488 -0.20242557 -0.97229236 -0.6212042 0.7547381 0.96901166 0.7478816 -0.9398172 -0.92207146 -0.22682878 -0.44857526 0.8478173 -0.48584822 -0.90043783 0.1005929 -0.6617682 0.67742884 -0.8154869 -0.3384643 0.8305007 -0.41426417 0.6344068 0.84295344 0.6425523 -0.07349551 -0.7327219 -0.8298656 -0.8903462 -0.63484967 -0.77030694 -0.908576 0.18112203 -0.7272876 0.5936791 0.056257486 0.21246561 0.40318143 -0.24373683 0.9233262 -0.04857105 0.6767374 -0.62027377 -0.6671793 -0.06613812 0.1282654 0.80942816 -0.40283674 -0.85008794 0.5186454 -0.07951599 -0.30995846 0.8549154 0.8469356 -0.7817208 0.9321034 0.18352282 -0.85545516 0.888167 -0.1392608 0.33502495 -0.6282779 0.78599656 -0.78864396 0.19662735 -0.81778085 -0.9468342 -0.9142 0.20830142 0.8258251 -0.42028555 -0.7078663 0.5314862 0.8242388 -0.8842833 0.13618702 -0.14830163 0.059861094 -0.7600534 -0.58879703 -0.22703901 0.8949177 -0.23951703 0.14152473 -0.28082186 -0.6184982 -0.5220715 -0.5776823 -0.8454189 0.7363416 -0.9192857 0.5575554 0.07975578 -0.8236259 -0.94907 0.16955486 0.68946743 -0.64353096 0.16908523 0.94658196 0.8198105 0.3943035 -0.71034783 0.78219986 0.9428921 0.65118337 -0.6043861 0.9041283 -0.72797346 0.930598 -0.81938183 -0.7114049 0.86839294 0.6784301 0.7935233 -0.80680096 0.8154253 -0.28587988 -0.7019111 0.66283345 -0.7837056 -0.56136775 -0.2324532 0.9090421 0.6623316 0.9740696 0.46916002 -0.7866775 0.7962862 0.6202555 -0.6293125 -0.091314554 -0.64988995 0.702967 -0.06500825 -0.85988724 0.8199698 -0.9689103 0.1332664 -0.8304695 -0.9339359 -0.6467423 -0.20607407 -0.80448437 -0.84767604 -0.926661 -0.30157283 -0.5756198 0.14379762 -0.07200953 0.79878634 -0.5917983 -0.51836073 0.22220749 0.82602704 -0.26557797
-0.6701394 -0.694176 0.39392635 0.16659078 -0.738542 -0.528672 0.45944646 0.48659393 -0.42000264 -0.58111495 0.5829619 -0.267095 -0.30870053 -0.15473655 0.686501 -0.2764873 -0.5618158 -0.40649295 -0.8277979 0.34379572 -0.1602645 0.24791476 0.79465723 0.3917998 0.21911505 0.028386476 0.5847049 0.15960938 0.34286577 0.46397847 -0.4183772 -0.57048225 0.56731915 -0.24413447 -0.49820846 0.5838186 0.23486474 0.13145246 0.6336857 0.14535996 0.4214326 -0.4538167 -0.5292245 0.645043 0.07243958 -0.2468646 0.6975155 0.74033415 -0.05368992 0.24196164 -0.38741362 0.79736173 -0.13882683 0.5182785 0.11464728 0.43429968 -0.14834076 0.48745558 -0.6625738 0.62376136 0.4569355 -0.2879807 0.52028143 -0.5049899 -0.7487354 -0.4884408 -0.48990074 0.63129145 0.5496808 0.7481467 -0.8561747 0.52166736 -0.3706026 0.11655043 0.26157415 -0.6598209 0.3071305 0.2465854 0.36995608 -0.3045801 -0.674994 0.08449713 0.70666665 -0.0075829364 0.56498367 -0.8571301 0.86664987 0.45135063 0.6671679 -0.5113141 -0.68525356 -0.71141404 0.20941454 -0.59426737 -0.5595475 0.7068983 -0.16446437 0.57383114 0.37996644 -0.24176347 0.10753608 0.3164683 -0.3136171 0.17255837 0.2719043 -0.8529562 -0.47959772 0.6349836 0.018900396 0.6071925 0.47490367 -0.69114023 0.28325754 -0.79388726 0.21954402 0.034798585 -0.692593 -0.23793678 -0.48256126 0.59559953 -0.027363483 0.16217427 -0.69186115 -0.4061092 0.59085095 0.12291439 -0.38339877 0.84530586 -0.24027458 -0.55001765 0.73414797 0.64010274 0.6398949 -0.6195027 0.1267842 -0.80869865 0.8624949 0.71241736 0.06455621 -0.30338198 0.20141292 0.009195663 -0.27425152 -0.7350649 -0.4391132 0.68184507 0.8329272 -0.04715789 0.059742764 0.27009803 -0.261254 -0.61543864 -0.28348368 0.68031096 -0.67223287 -0.45582607 -0.37281924 0.8214294 0.2528844 -0.1829953 -0.049262863 0.45337301 0.105776705 0.2284518 -0.07259603 0.27122116 -0.18697439 -0.48191768 -0.44377223 -0.6352426 -0.5941514 0.7685216 -0.78529835 0.6509567 0.8747749 -0.34853315 0.21148022 0.7181612 -0.6768862 0.62214947 0.0047571175 0.6363588 0.10079917 -0.6884376 0.8531725 -0.45810434 -0.17560197 0.34857482 -0.66336685 0.11032061 0.43328202 0.41714433 0.44513622 0.25002214 0.2730782 -0.41888425 0.46357766 0.018266497 -0.7198753 -0.077666774 0.6308599 -0.5798369 0.674657 -0.7124457 -0.47760218 0.46411115 0.6193111 -0.43060443 0.7724725 0.6780623 0.41928047 0.26273882 0.8863531 -0.7493325 0.68625045 0.05456497 0.5146829 0.6340658 -0.7734536 -0.781634 -0.36723116 0.2517159 0.4331063 0.3907868 -0.7001895 0.120892614 0.049267977 0.88130635 0.5787781 -0.32491216 -0.7204002 -0.6882137 -0.20170735 0.7593186 -0.6591375 0.5181045 -0.5725438 0.6360332 -0.4514855 -0.61108613 0.019842759 0.57470447 0.70908606 0.37615043 -0.50331825 0.64007986 0.061594523 -0.2996478 0.1960533 0.48027703 -0.39114016 -0.31382036 -0.56810254 -0.120533176 -0.24883376 -0.8219482 -0.59041244 -0.6299982 0.07310423 0.2933447 0.5745828 -0.5379661 -0.2839445 -0.088713214 -0.6034933 0.52345276 -0.6898672 0.67650354 0.708069 0.27511778 0.055135425 -0.21625796 0.5844241 -0.35293484 -0.93630874 -0.5434007 -0.53262496 0.57191885 0.62430716 0.37459344 -0.13983463 0.5557832 0.7438875 0.43249008 -0.013955496 -0.60781753 0.6998876 -0.008410934 -0.7068753 -0.5509581 0.56855476 0.08202988 -0.5504867 0.5097023 0.537349 -0.5403607 -0.097146824 0.5340925 -0.8955319 -0.27201396 0.4217375 -0.5484701 -0.41198874 -0.62520325 -0.85219353 -0.50359815 0.39738104 -0.13840508 0.557664 -0.44833747 -0.5053164 0.49595252 0.57817864 0.4503808 -0.6526079 -0.45762873 0.1522385 0.6841613 0.027949758 -0.67152804 -0.07141799 -0.016787332 -0.4367802 -0.49072993 -0.81939924 -0.68467486 -0.74364406 0.113200486 -0.30272016 0.8405593 -0.7103172 0.46330366 0.5151785 0.5551994 0.34070605 -0.58746916 0.44252852 -0.05007039 -0.5674351 0.2633867 0.41612205 0.60103315 0.6764084 -0.39470583 0.62402964 -0.76236916 -0.4459092 0.2041627 -0.44230893 0.7254858 -0.64390934 0.17141713 -0.46059734 0.43050444 -0.5258068 0.5110051 0.33262092 0.68489826 -0.36830506 -0.64018863 0.5523071 -0.24166211 0.29174188 -0.5136226 -0.37659946 0.750559 -0.10411048 0.7055633 -0.6757755 -0.62042546 -0.049285263 -0.2820321 0.17492723 0.6277108 -0.47315425 -0.64134014 -0.2116636 -0.06593678 0.4884643 -0.54251224 0.2792802 0.24225341 0.56565416 -0.6341608
-0.07242263 -0.6110472 -0.041294977 0.08008821 0.15664454 -0.28072196 0.16634291 0.57242846 0.6712884 0.37268394 0.72632915 0.17940995 0.1691615 0.6829617 -0.25424168 0.10504034 -0.7086709 -0.27183762 -0.2462842 0.57669425 0.44136584 -0.39950514 -0.2613539 0.026329547 0.55851316 0.24308677 0.27955484 -0.39858547 0.720891 -0.068839744 0.32257283 0.21246833 0.022719659 -0.116208486 -0.044826996 0.18918511 -0.3286849 0.03866615 -0.4156168 -0.31320345 -0.12375871 -0.4022623 0.07584471 0.39885503 -0.47701576 0.25476003 0.778365 0.3133772 0.94605064 -0.43819386 -0.1299754 0.37674403 0.36617267 0.67948407 -0.75245774 -0.06351022 -0.37010163 -0.13130265 -0.037268423 -0.34536165 -0.26476845 0.10358233 0.226446 0.2584597 -0.48552173 -0.009341687 -0.066148624 0.77353084 0.6866622 0.57250327 0.12931412 -0.09358302 0.13910106 0.7249453 -0.027144056 -0.061462626 -0.21177363 0.4324117 0.5600404 -0.10697314 0.34886235 -0.19160062 -0.026936457 0.44860905 0.016407248 -0.34337884 0.102908745 0.05156131 -0.5414764 -0.22737414 -0.23478623 0.26933384 0.21840668 0.12664299 0.36907333 0.66699123 -0.3085394 0.07318112 -0.054768816 0.26447082 -0.4365853 0.18296248 -0.70072275 -0.038918577 -0.50260234 -0.3073965 -0.05057033 0.2154011 -0.33666003 0.4112581 0.48592556 -0.22252023 0.30072895 0.07460247 0.15371504 0.43608063 -0.32701516 0.8011565 0.048235226 0.18703912 -0.27990335 0.12452581 -0.54882014 -0.589305 -0.124862105 -0.6208679 -0.45137423 0.13824499 0.16881782 -0.22679076 0.74815947 0.40399092 0.15675595 -0.73547506 0.39282867 -0.43051982 0.5561311 0.020459339 0.36244988 0.47378635 0.6475688 -0.5914855 0.70222753 -0.6257001 -0.51246023 0.10570567 0.30478713 0.27220824 0.62889135 0.30985343 0.097675085 -0.34179753 0.0631638 0.10222023 -0.28635466 0.020929478 0.3006544 0.37843814 0.30991027 -0.38414583 -0.19287951 -0.42419195 -0.59428453 0.73026 -0.5532037 0.536355 -0.26873052 -0.13654235 -0.15182824 0.14420992 -0.7763069 0.06249802 -0.8881862 0.08776653 0.43560144 0.044942703 -0.57643926 0.04523772 0.09286704 0.15458982 -0.22506003 0.3345574 -0.5189228 -0.34227294 -0.084917665 -0.45481253 0.7641751 -0.18471377 0.39200115 0.2954129 -0.13779183 -0.36562353 0.08244267 -0.1664939 0.06569277 0.36773497 0.29916757 0.19064745 -0.6047242 -0.13327049 0.5527101 0.1218238 0.836365 -0.29958975 0.13199769 -0.80141497 -0.21576285 0.27945974 0.56265056 0.9319005 -0.6836299 -0.40597248 0.18558913 0.51155746 0.26623628 -0.28134972 0.61685055 -0.17416468 -0.17827126 -0.5626576 0.4435759 -0.18080194 -0.07466798 -0.010314301 0.116668105 0.122041486 -0.3840434 0.28210223 -0.32319808 0.25385854 -0.64933056 -0.5870746 -0.05893971 0.15761468 -0.076355845 0.29549688 0.33651912 0.43266296 0.25463 -0.45228568 0.11245862 0.22594057 0.5524378 0.17567396 0.62573326 0.70736724 -0.034073718 0.0997531 -0.36758804 -0.06785403 -0.25844964 0.10456729 0.45208272 0.6244365 0.21389483 -0.4807416 0.12769315 -0.34369797 -0.20847261 -0.20312622 0.3478233 0.3215328 -0.2041493 0.4903079 -0.19130439 -0.1470366 0.1794345 -0.037173823 0.6233013 0.44098562 0.36732453 -0.09030846 0.5892211 -0.23575968 -0.0028134733 -0.033013396 0.2656926 0.5089865 0.06622116 -0.6251979 -0.60169995 -0.2273571 0.6149092 0.79831576 -0.29823476 0.006634906 0.49959335 0.12332626 0.22355726 0.4208634 0.030579 -0.40086445 -0.05828314 -0.045817092 0.6046566 -0.42253047 -0.34959215 -0.61265624 -0.6259877 0.64459264 0.19080076 0.067060694 -0.29775488 -0.23031524 -0.447318 -0.3475996 -0.41854957 0.28259766 -0.040168285 0.15176135 0.3456805 0.4010247 0.41665727 0.06494356 0.048382405 0.41673735 -0.36314398 -0.2881131 -0.11446276 0.118314 0.27230123 0.84426105 0.40170088 -0.1846487 -0.53154606 -0.06678866 0.29197586 -0.19562139 0.23714668 -0.4644731 0.062798485 0.36557078 -0.078402825 0.6998923 0.5325554 -0.19232975 0.27081925 0.81893444 0.15080847 0.1178623 -0.0941721 0.62529784 0.28303498 -0.35413066 -0.30032718 0.05179349 0.51419353 -4.2170286e-06 0.14980713 0.36066937 -0.030479908 0.0004189983 0.43261653 -0.12315363 -0.19656545 -0.18631203 -0.19357304 0.4094911 0.71165574 0.117691636 -0.29615927 0.8257309 0.092434675 -0.46285826 0.3619485 0.5563848 0.22691259 -0.40379113 0.06779183 0.24736974 -0.58862895 0.14294292 -0.186252 0.11492026 -0.22221002 -0.15432762 -0.77956766 -0.36982545 0.023576185 -0.17311488 -0.53285384 0.10262642 -0.09520827 0.057554185
0.57978666 -0.37096265 0.47894025 -0.5611048 0.50839007 -0.6726414 -0.41196188 0.54224294 0.2853122 -0.15522213 -0.07563019 0.4378296 0.05592169 0.48294133 0.6899392 0.8244835 -0.82648945 -0.5858394 -0.8686682 -0.34180492 0.56734854 0.7909547 0.6881877 0.445382 -0.115107775 0.976266 0.24361473 -0.47792506 0.2560163 -0.7890858 0.6169621 0.5130271 -0.5030712 0.5641982 -0.58669764 0.5516599 -0.29047966 0.57364124 0.5309851 -0.27985835 -0.013586871 -0.03917 -0.1810766 -0.8206489 -0.7823235 0.7615536 0.7581237 -0.2346975 0.9349191 -0.3506654 -0.15590626 0.1909084 0.24227896 0.5527605 -0.86090636 0.57760394 -0.56437355 -0.5910449 0.59177846 0.43029583 0.12983072 0.5270599 -0.53183705 0.14547819 -0.5650503 0.31854945 -0.6665728 0.7441777 0.8454152 0.7823224 -0.19085333 0.34873188 0.12090442 0.40340045 0.47723734 0.07720703 -0.6319804 0.81913203 0.38355207 -0.60143775 -0.019221507 -0.25953323 -0.17281617 -0.7643813 -0.099996045 0.29639912 0.5012412 0.03179194 -0.26784578 0.008701742 -0.66132385 0.10369971 0.29214972 0.09198431 -0.27242935 -0.018630028 -0.22781122 -0.48834747 -0.2699166 -0.6966378 -0.49467048 0.4937612 -0.48621878 -0.8772714 -0.17925604 -0.1582483 -0.16760065 0.21093509 0.022723213 -0.07012913 0.7634391 0.01680161 -0.12706783 -0.7052417 0.06278912 0.38065735 -0.7896075 0.43096226 -0.26296932 -0.495206 -0.32558984 -0.29579675 -0.8696561 0.18425234 -0.16070712 -0.45551375 -0.62074125 0.67193186 -0.567626 -0.5669987 0.5955168 0.64535475 0.2594915 -0.37612826 0.85446894 0.035898063 0.72711945 -0.47448128 0.05989191 -0.36425388 -0.40846044 0.075555444 0.065838374 -0.6714619 -0.5795902 0.865901 0.4522868 0.46972507 0.00862962 0.13201886 0.5458225 -0.48473796 0.009961493 -0.19974135 -0.1670395 0.095138974 0.037629724 0.40316516 0.7755333 -0.86284506 -0.29544652 0.07325951 -0.3646415 0.5695294 -0.771247 0.68141997 0.18947697 0.34615934 -0.5066061 -0.12643763 -0.540134 0.0077823102 -0.5821489 0.75030756 -0.14618626 -0.37607256 -0.7530281 0.12920494 0.34191176 -0.2301033 -0.83338606 0.52444893 -0.4194401 0.37172627 -0.03511107 -0.3265423 0.027331725 0.78800786 -0.103431985 -0.37927556 0.9202123 -0.021159954 0.10968581 -0.3272111 0.56362903 0.68896276 0.042384654 -0.4964399 -0.24862356 0.19009396 0.23667902 0.55613494 0.594426 0.084866256 -0.46584266 0.6083784 0.25312555 0.10572165 0.1581103 0.88691425 0.68997055 -0.3349482 -0.40809387 -0.16284446 0.706028 -0.5310343 0.17758983 0.65104914 -0.51097035 -0.65330863 0.37783635 0.07679175 0.7951267 0.31689084 -0.23566684 0.19511059 0.03482151 0.3238308 0.6085735 0.37317175 -0.80173165 -0.49006304 -0.24794908 -0.20446344 0.29981232 0.89355373 0.56623083 0.7297632 -0.018722527 -0.27560484 0.10935864 -0.5484811 0.45303273 -0.13319984 -0.39818287 0.753192 0.60564804 0.25642124 0.9341681 0.17632288 -0.46239507 0.1026079 0.5054556 0.79378194 -0.24144194 0.13783327 -0.30655316 0.12804666 0.03883339 -0.15267186 0.47525185 0.057228107 0.9429742 -0.04648403 -0.11000928 -0.3992392 0.41224945 0.31822705 0.84610057 0.90733737 0.8111841 -0.57275283 -0.0452651 -0.37044632 -0.14238982 -0.21721904 -0.40134835 0.8002691 0.20680219 -0.3579489 -0.50361824 -0.45048612 -0.15868115 0.7137134 -0.77100885 -0.85670006 0.21003887 -0.8306339 -0.84471786 -0.5818384 0.032001764 -0.7804732 -0.89081633 0.7561869 -0.43669826 -0.35730803 0.08349615 -0.21211264 0.11374573 0.62933433 0.3235561 -0.14935523 -0.7382817 -0.08965577 -0.27477503 0.4018933 -0.39779583 -0.40966904 0.24540514 0.016462844 0.31279883 0.014775455 -0.39571685 -0.7084777 0.20038918 -0.3807848 -0.23232707 0.32104862 -0.49240434 -0.63779193 0.4944388 -0.00036244094 0.24228552 -0.3709874 0.3751419 -0.20843078 -0.46850953 0.10998705 0.22055203 0.09041993 -0.23687026 0.1043632 -0.30340403 0.85602623 0.37178606 0.09979819 0.52332723 0.08620739 0.15770607 0.5294675 0.1820955 0.17363253 0.16338971 0.053650856 -0.23935024 0.48296046 -0.33210397 0.61871433 0.09593131 -0.49538073 -0.49389905 0.8454242 0.115315974 0.119698405 -0.42607445 -0.7548809 -0.12854579 0.02062285 0.32875884 -0.28646314 -0.12349433 0.3045101 -0.27029157 0.17102455 0.45754865 0.5593917 -0.40428615 -0.5317707 -0.034099728 -0.63036895 0.54051965 -0.18664488 -0.2712955 -0.57813394 0.040700376 0.0570396 -0.18860427 -0.77114 -0.101202026 -0.04926331 -0.48797607 0.2029586 0.016431568 -0.18690066
0.3065694 0.09097816 0.5761967 -0.1546544 -0.6321002 0.037988275 0.6052438 0.28530657 -0.24851894 -0.14184013 0.5160379 -0.04283068 0.26199296 -0.24111402 -0.43110335 0.47117177 -0.037737906 0.06610817 -0.69158775 -0.5524247 -0.5614991 -0.3295885 0.022685729 0.37089503 0.18488865 -0.026394509 -0.1407302 0.17994665 -0.2198151 -0.5038255 0.646434 0.8383995 0.75735235 -0.20721215 0.13127863 0.098244525 0.6085266 -0.14477664 -0.03056658 -0.10807546 0.56540054 0.20158249 0.027434431 -0.18034369 0.554643 0.26141384 -0.15291853 0.079416394 0.6223777 0.39310905 -0.26291898 0.44843513 0.271093 0.13087231 0.33533368 0.1483934 -0.41618007 0.34836033 0.2850436 -0.32206827 0.16300797 0.57193315 -0.4983948 -0.4297359 -0.6503117 0.67331046 0.50292367 0.055481 -0.5617899 0.106864646 -0.28591025 0.16856724 -0.17637561 -0.1840355 -0.19858204 -0.015234105 0.42964125 0.41594905 0.2832473 0.81711584 0.10098865 -0.7290774 0.13003477 -0.6106667 0.27483618 0.30220735 -0.2548082 0.17025398 -0.03425867 -0.51736116 0.09026706 -0.52774656 -0.3516977 -0.3859067 0.3611105 0.17239845 -0.13636895 0.25824386 -0.61123276 -0.68333787 -0.35831186 0.12761079 0.14252517 -0.7622904 0.3262057 -0.18640892 -0.7350208 0.17584452 -0.35209894 0.11663147 -0.14286765 -0.22807099 0.6567413 0.5796701 -0.17456132 -0.19153358 -0.46676826 0.21042079 -0.22413999 0.06000263 0.121919446 0.44616985 -0.10881933 0.5656092 -0.256286 0.095032364 0.2381172 -0.4243959 0.24173738 -0.18767348 0.3842703 0.26174772 -0.24660538 -0.5514736 0.42851603 -0.7953348 -0.04271449 0.8226546 0.19702715 -0.65325034 -0.19267322 0.31409365 -0.6628604 -0.13833842 -0.53041935 -0.44184685 0.30733395 0.28751636 0.6090778 -0.45649582 -0.06416473 -0.3596185 -0.13779101 -0.16907996 -0.043615527 -0.5263293 -0.20813896 0.5833425 -0.43509564 -0.23168814 -0.60528904 -0.07170457 0.19570827 0.23635408 -0.03379889 0.14882183 0.64502424 0.31510413 -0.37113366 0.0065342113 -0.5469879 0.11179364 -0.17269889 0.56548065 -0.78483737 -0.46579793 -0.3661676 -0.6478228 0.3756867 -0.14388207 -0.30285066 -0.4430683 0.4527592 0.0974723 -0.7259693 0.18438244 0.014233388 0.14783746 0.3168928 0.25666276 0.560372 0.28013188 -0.33409652 -0.022359518 0.088117495 0.20494393 0.20908995 -0.276672 -0.6094949 -0.42810625 0.07596081 0.4647446 0.61105424 0.25431123 0.00943464 0.23845102 -0.05758012 -0.63025874 0.6031045 0.5729295 0.11065444 -0.3820669 -0.2869299 -0.20137532 -0.24450801 0.28551823 0.474659 -0.0756604 0.53229105 -0.24555606 0.47135848 -0.24273816 0.34655312 0.6181961 -0.35783 0.2972946 -0.07063164 -0.5544486 0.60353434 -0.016677603 0.13964023 -0.26193514 0.49527228 -0.21194008 -0.21471205 -0.4208606 -0.2519258 -0.32434094 -0.64730465 0.0823483 -0.48482653 0.17994565 -0.34317154 -0.16593769 0.7597723 -0.08604215 0.5349849 0.10402582 -0.08411296 -0.4235761 0.35800627 0.22806442 -0.13502611 0.05295457 0.6312992 0.17520002 -0.32959878 0.07169518 0.06543618 0.7776736 -0.5727678 -0.48119813 0.11053005 0.71087825 -0.019410081 -0.16738877 -0.09529931 -0.5236984 0.27927554 -0.29745287 0.008528862 0.27548808 0.3542503 0.15926853 -0.1920389 0.012866773 0.058149688 0.6617633 -0.7807792 0.39833447 0.5603279 -0.6726148 -0.4810005 0.84024656 -0.66202044 0.16734661 0.1160581 -0.30708867 -0.041212156 -0.25528175 -0.24897304 0.056875817 -0.7530946 0.104412206 -0.2963129 -0.08230755 -0.50865436 0.29348034 0.34051025 -0.4559091 0.08762134 -0.35269377 0.28710008 0.5373558 -0.65849066 0.08370427 -0.6386056 -0.018664539 0.21308723 -0.6585422 -0.405376 0.3927245 0.6722789 0.51029867 -0.41832024 -0.4246051 0.4615231 0.29605296 0.39817566 0.17789659 -0.46894416 -0.6566527 0.3165983 0.4180453 0.006478492 0.62836766 0.62962025 -0.5212536 0.44994876 0.20433947 0.11064844 0.7488394 0.56273246 0.66499984 -0.32881457 -0.31243983 0.5753169 -0.3462901 -0.6153412 0.78842175 -0.7891221 0.13386573 -0.47415155 0.33566648 -0.8437239 -0.8303983 -0.18410617 -0.16600902 0.112633675 -0.35745454 0.22390293 -0.5303213 -0.011293203 0.27925694 -0.062806174 -0.4243149 -0.22968301 -0.37580064 0.58979625 -0.026978832 0.07839839 0.20893776 -0.005695859 0.56917346 0.05031304 -0.034212425 0.5108584 0.3776355 0.57457906 -0.13515061 -0.8930605 -0.73299384 0.22368713 -0.24170397 0.6160279 0.63036984 0.26979938 0.30353892 -0.70246464 0.61805975 0.61894196 -0.11488874 -0.35010886 -0.18703061
0.04503539 -0.97231275 -0.63347447 -0.9667043 0.747754 -0.49928007 0.6579074 0.931537 -0.47331685 -0.4514893 0.5537483 -0.93052006 0.86204886 -0.8151298 0.9178992 0.38058716 -0.9695686 -0.953422 -0.35053554 0.0751213 -0.90381867 0.5403903 0.81226575 -0.94297147 -0.9823671 0.9379793 -0.7410113 0.45600158 -0.9654175 -0.72001135 0.6181579 -0.9371527 0.5999355 -0.80685574 -0.7546597 0.9810457 -0.60896206 0.09941797 0.8403512 0.604491 0.15272112 -0.28954944 0.6818474 -0.8510768 -0.54906553 -0.85461986 0.06460835 0.53543526 0.8621144 0.08922544 -0.093835965 0.85596305 0.35443273 0.42077526 0.12136976 0.770256 -0.60696346 0.034853242 0.91162354 -0.84979665 -0.14614613 -0.00141168 -0.48863903 -0.26336813 -0.97153 0.20046963 -0.18296081 0.89235383 0.7478254 0.844643 -0.79293996 0.20537224 0.23212323 0.9628148 0.73260754 -0.9731552 -0.94685286 -0.92297125 0.9632085 0.95227736 0.20044208 0.6575524 0.32473224 -0.94709325 -0.39430964 0.7218897 0.24440053 -0.15831223 0.950175 -0.19897616 0.33886302 -0.8245769 -0.9596564 -0.969894 -0.7939845 -0.88558966 -0.98293465 -0.1307924 0.25634325 -0.4268819 0.8433308 0.965567 -0.42871043 -0.6977889 -0.6143519 -0.484896 -0.4251914 -0.7069666 0.18791983 0.575061 -0.23768024 0.6088998 -0.93066597 -0.8342419 0.250742 0.8330237 0.81602013 -0.9400361 0.52379227 -0.21728873 -0.3043485 0.912819 0.23479635 -0.06895647 0.68617386 0.676687 -0.9062148 0.5147244 -0.7031606 -0.9681607 0.9426681 -0.6108099 -0.98295444 -0.610022 0.9847177 0.36200774 0.96803457 0.66251105 -0.69952476 -0.6880271 -0.76521593 0.7953126 -0.31075877 -0.9546533 -0.9770875 -0.31182384 0.7907401 0.8471641 0.0104651395 0.9551896 -0.48110542 -0.9357828 -0.055751175 -0.6825508 0.72133905 0.80072236 0.70698154 0.72230744 0.65614337 0.3427862 -0.8946982 -0.60488176 -0.58855605 0.849703 0.98219943 0.9750777 -0.8220209 0.8493678 -0.63769954 -0.9507179 -0.9608552 -0.83177274 0.78413 0.68084955 0.5561015 0.30168873 -0.39140207 0.06900527 0.5829387 -0.92365855 -0.4710804 0.6634985 -0.9055359 -0.6986139 0.9588409 -0.5675078 -0.95230216 0.19204995 -0.64973974 -0.17686073 0.9608621 0.99181676 0.14447597 0.8037924 0.9648253 -0.717976 0.88455373 0.92713135 0.9287069 -0.6767218 -0.9162392 -0.7602183 0.9090501 -0.19374968 0.8788927 0.9097585 0.49421975 -0.98185307 0.7339857 0.7707501 0.744183 0.8298398 0.38525924 -0.16483139 0.8174322 -0.3946109 0.5820034 0.76840955 -0.09032673 0.6840947 -0.86964035 0.15259203 0.9671953 0.880542 -0.3380293 -0.92583936 -0.8188564 0.83054763 0.8948806 -0.82328445 -0.9746102 0.5705715 -0.18441708 -0.30698258 0.76957864 -0.9604191 -0.95023686 -0.6757564 0.22033398 0.53824466 0.124029055 0.92690116 -0.6662313 0.6211097 -0.819513 0.4891664 0.6112175 0.8646521 0.9508057 0.65477926 0.8589963 0.19486687 0.28721553 0.38987988 0.44026956 -0.4817597 -0.89932567 -0.86883754 -0.5717737 -0.5829752 -0.7308211 -0.7397091 0.82465607 -0.93251646 0.6924151 0.8419617 -0.46122274 0.9868296 -0.7934959 -0.12966599 -0.122644566 -0.9210807 0.7407575 0.8007137 -0.94615453 -0.54017174 -0.77906364 -0.83986264 -0.91295314 -0.68747133 -0.33994773 -0.7823557 0.77761674 0.9673331 -0.95101637 -0.8989098 -0.29645357 -0.9703421 -0.703692 -0.7755065 -0.14807445 -0.9665243 -0.98194164 0.7897747 -0.14235288 -0.91177213 0.29139006 0.19347873 0.48908678 0.56592613 0.29322252 -0.3999647 -0.8067496 -0.27282172 -0.36637405 -0.8647736 0.68887913 -0.8855986 -0.4535634 -0.6218559 -0.5066687 0.77090895 -0.9259924 -0.24380223 -0.9061615 -0.7325352 0.9333406 -0.42607385 -0.9732322 -0.7039344 -0.2799033 0.6900835 -0.84540015 -0.5080398 0.92162067 -0.9439451 -0.5915508 0.72564983 0.9615845 0.9217894 -0.57649714 0.6094451 0.8041773 0.7308518 0.41853946 0.54663557 -0.013384396 0.26043037 -0.95103407 -0.72547203 0.82509434 0.94424576 0.9657065 0.9754969 -0.3693663 -0.42498705 -0.31951553 0.70637685 -0.7436741 0.18985581 -0.301546 0.27277356 0.7090896 0.90723556 0.015957372 -0.311013 0.07026168 0.42233267 0.6311607 -0.83933496 -0.09541334 0.8946669 0.7434347 0.44755846 0.8674219 -0.8115279 0.24769777 -0.07820951 -0.8123116 -0.6377959 0.7898399 -0.78805834 -0.9576313 -0.85181445 0.3205846 0.9702887 0.664932 -0.044040687 0.09876872 0.5531677 -0.9019197 0.07957453 0.30455056 0.55128807
-0.4342565 -0.85987717 0.11739911 -0.76818156 0.07265458 -0.38922864 0.65648 0.85020834 -0.083306104 -0.70880944 0.43833548 -0.40773338 0.5027776 -0.71301484 0.68194413 0.4330845 0.0022478057 -0.5052707 -0.3023724 -0.20581312 -0.7202143 0.16778663 0.5993675 0.45733368 -0.56123227 0.44922456 -0.7187184 0.20148823 -0.46792004 -0.42818394 0.8585496 -0.48872435 0.76363903 -0.7921224 -0.7622516 0.7579632 0.15637004 -0.011015341 0.5363971 0.14753962 0.22521138 -0.36223763 -0.05444561 -0.761795 0.4438181 -0.31266052 0.6831515 0.2868456 0.8611376 0.07966967 -0.32958207 0.85530585 0.67434615 0.66245484 -0.3249303 0.71178263 -0.12561321 0.5853026 0.33692208 -0.46583745 -0.37367263 0.34024858 -0.37005192 -0.4436688 -0.39156598 0.36623964 -0.15719873 0.25439563 0.21107551 0.9472459 -0.79635596 0.2847532 -0.4838229 0.8781983 0.6249829 -0.74104816 -0.37580302 -0.5055628 0.39668685 0.59452415 -0.43423083 0.11901639 0.15784857 -0.7163001 0.10112527 0.051158592 -0.26277345 -0.7338391 0.96520674 -0.7877071 0.32203352 -0.4808437 0.037209805 -0.36645555 -0.36774415 -0.18385923 -0.39118093 0.41694796 -0.783703 -0.83270746 0.29948527 0.43511263 0.262912 -0.7649363 -0.7517239 -0.25765276 -0.66289914 -0.08754124 0.24222462 0.741206 0.20557874 0.22978437 0.107793495 -0.5457143 0.3090098 0.8150943 -0.05629539 0.5208604 0.15184996 -0.46167392 -0.0025740936 0.536239 0.2844878 -0.16381666 0.42710546 0.79503304 -0.67199403 0.6497861 -0.3719812 -0.4288272 0.75839174 0.359171 -0.118131235 -0.10951498 0.41721737 -0.15072574 0.65559185 0.53535974 -0.49378732 -0.6686374 -0.2913933 0.614596 -0.5725642 -0.22068629 -0.92676675 -0.4611776 0.05473265 0.6655771 0.33497626 0.36377466 -0.33215183 -0.5173253 0.19257934 -0.72530854 -0.1506044 -0.19187988 0.15800601 0.7562953 0.029305227 0.11941306 -0.5315063 0.07918886 0.737398 0.093404144 -0.07172095 0.42668542 -0.32802767 0.6292906 -0.8153829 -0.6643119 -0.28584063 -0.49415463 0.34085503 -0.0137116015 -0.5073238 -0.7970797 -0.45753807 5.7443976e-06 0.6467544 -0.7065501 -0.05961951 0.26497853 -0.6614645 -0.106306076 0.45879427 -0.3293872 -0.4603606 -0.098701596 -0.13340323 0.22775277 0.73835665 0.7152722 -0.03340538 0.40710896 0.91945237 -0.39914504 0.48982078 0.40660936 0.4190898 0.29701775 -0.8481198 -0.2827184 0.751948 0.052598923 -0.30673105 0.3887649 -0.65849626 -0.7831073 0.16605905 0.44327432 0.51192766 0.08045551 -0.24455267 -0.30690333 -0.042159263 0.38241515 0.73645425 0.69456273 -0.7884596 -0.38152102 0.74372655 -0.3484478 0.8473184 0.59612936 -0.5714805 -0.58657813 -0.1540694 0.39556804 0.6297647 -0.5179012 -0.6528436 0.37132135 -0.18274954 0.47823605 0.0028048586 -0.6518393 -0.5564884 -0.46518072 0.087531514 0.2233057 -0.38974553 0.6041088 -0.7918583 0.54534984 -0.44370583 0.2916288 0.43371308 0.60332763 0.8897551 0.46757403 0.5410645 0.5585297 0.38216484 0.6794976 0.03324951 0.014636524 -0.5437697 -0.26421547 -0.45418864 -0.14711273 0.1457675 -0.5352117 -0.021247316 -0.11875264 0.6355225 0.62476444 -0.26023418 0.47210845 -0.47358534 -0.42639053 0.1022246 0.30188745 0.04544446 0.44777825 -0.28750464 0.4013262 -0.6925963 0.2971464 -0.7170941 -0.16220357 -0.26587325 0.06219381 0.43660253 0.8041669 -0.622041 -0.26556897 -0.4433285 -0.7538115 0.11799173 -0.71766126 0.015320512 -0.67863077 -0.7381133 0.6316762 -0.6900967 -0.67374325 -0.043103665 0.16589084 -0.01757916 -0.3625136 0.31830928 -0.4265826 -0.2865828 -0.1504881 -0.75327146 0.10861158 -0.21072449 -0.7433782 0.6557507 -0.5835291 -0.48686495 0.43098497 0.28625867 0.48949516 -0.80146456 -0.39148876 0.4858005 -0.09568112 -0.8252832 -0.42949992 -0.49177477 -0.35851508 -0.6193377 0.029972078 0.7367686 -0.016482286 -0.5408568 -0.3004091 0.26062143 0.6372606 0.13472117 0.8213102 0.28097862 0.67507553 -0.80193764 -0.021264395 -0.36374334 -0.2833798 -0.5497001 0.1181961 -0.42236742 0.9131622 0.5945455 0.46790618 -0.3449362 0.10260948 -0.6519625 -0.19183943 -0.6370308 0.067990646 -0.0385287 -0.13156535 0.5333785 0.949185 -0.21315262 -0.86845046 -0.13165243 -0.06879104 0.50737625 -0.69898784 -0.45767802 0.41534227 0.30420062 0.074779004 0.751808 -0.62087864 0.20757784 -0.74901175 -0.66181785 -0.21018425 -0.14156725 -0.5672058 -0.84493655 -0.21789871 0.36156538 0.39289534 0.55340314 -0.3507568 -0.1891249 0.29391396 -0.69014335 0.57629734 0.54877937 -0.20574778
-0.8076093 -0.24480307 0.2341704 -0.7127698 -0.0073170774 0.12157951 0.8573459 -0.16539414 0.04280212 -0.22378325 0.056876354 -0.6056109 0.8966967 -0.87486756 -0.28574285 0.7763126 -0.064613804 -0.18062802 -0.013724461 -0.631052 -0.6665151 0.36435091 0.68312263 0.083727926 -0.7887409 0.87686193 -0.5997268 0.4873274 -0.77439106 0.4557682 0.03999622 -0.07143272 0.57762164 -0.84371245 0.043630764 -0.45322898 -0.017934702 0.44100088 0.48670113 0.5083893 0.7955769 -0.58766836 -0.00094361976 -0.7360454 0.7440074 -0.56164294 0.57659453 0.14633521 0.9133759 -0.576623 -0.29625505 -0.010465663 0.30280244 -0.063015394 -0.31232485 0.8762986 -0.46994102 0.85432255 -0.19370544 -0.09456837 -0.28021184 0.25796834 -0.18474673 -0.19557984 -0.5115559 -0.4846529 -0.47864816 0.42010984 0.36236465 0.35655218 -0.5021915 -0.3626236 0.26218572 0.8553307 0.80189204 -0.7878281 -0.69075525 -0.7708158 -0.23518401 0.5496422 -0.15302001 -0.1634073 0.20007417 -0.81532204 0.5932659 -0.26282287 -0.83562505 0.2970554 0.29902866 -0.90184796 0.5251252 -0.53672177 -0.35731816 -0.19171776 -0.29538468 -0.7143452 -0.310427 0.6688883 -0.8280985 -0.7559405 0.5243286 0.78125995 -0.10224858 -0.7946809 -0.34012595 -0.77023387 -0.28464994 0.7998194 0.6850666 0.4356594 -0.18850721 0.47226614 -0.07945859 -0.7407427 -0.5775604 0.9470885 0.053124696 0.5126622 0.6374917 -0.8272399 0.6278802 0.8769285 0.15520589 0.04104151 -0.1399279 0.8536599 -0.6639573 0.75197625 0.3091652 -0.25267792 0.7785528 0.65100056 -0.50126815 0.01956594 0.73407966 -0.10086487 0.71244574 0.6206956 -0.43503553 0.3449752 -0.20435663 0.6847069 -0.17269914 0.08190173 -0.8927073 -0.43178263 -0.6151523 0.7927889 0.45413944 0.77168113 -0.20428911 -0.51416427 0.060165193 -0.39900306 -0.45132858 -0.48005188 0.8447347 0.84762573 -0.051884793 -0.1337184 -0.8290512 0.19051144 0.22117102 0.21740416 -0.13959077 0.8156216 0.1915977 0.30715105 -0.8868167 -0.84221053 0.6570987 -0.301119 0.42014426 -0.3534139 -0.20865968 -0.6991304 0.23395212 0.79905915 0.49032417 -0.6973617 0.39219818 0.75397533 -0.9121825 0.73960626 0.17003646 -0.8328922 -0.49521422 0.50244206 -0.5134646 0.89861387 0.58906466 0.7864993 -0.5844213 0.7054472 0.7462829 -0.36539122 0.4211144 -0.12251812 0.44137055 -0.21388018 -0.90230525 -0.67343366 0.164171 0.8533602 -0.11451137 -0.14205499 -0.8856586 -0.7122903 0.3456915 0.18850103 0.7902044 0.7517258 -0.42456642 0.5874857 0.001694724 0.11261681 0.79885703 -0.064257756 -0.2816127 -0.8403666 0.18355173 0.4731171 0.8230411 -0.23652917 -0.09070975 -0.8767744 0.1497284 0.7353459 0.75219786 -0.87939584 -0.839151 0.82173216 -0.20106572 0.35334358 0.07649994 -0.8081056 -0.9109559 -0.1481503 0.58055866 -0.69787973 -0.24463151 0.56082886 -0.82243943 0.78343344 -0.7026111 0.3291787 0.44414172 0.85771817 0.78585804 0.750602 -0.17314455 0.33245325 0.4910796 0.8810229 -0.5761596 0.15141974 -0.9293681 -0.108003594 -0.25138733 -0.1340876 0.6232993 -0.2437272 0.6746214 -0.28735197 0.6536906 0.77049816 0.021501085 0.63175166 -0.083561055 -0.006484838 -0.12879224 0.62686574 0.2727821 0.68990433 -0.6874669 0.49190065 -0.50947213 0.0494701 -0.57081217 -0.60708034 -0.47055057 0.29808572 -0.09148136 0.97763103 -0.6894132 -0.53023106 -0.41587067 -0.3037528 -0.45797846 -0.8373867 -0.13175416 -0.7951329 0.05353767 0.83235824 -0.34397668 -0.74524677 -0.59481215 -0.14227742 0.22545959 0.45936576 -0.08913781 -0.81780785 -0.3448821 0.098637 -0.82462466 -0.15054078 -0.25371706 -0.725686 0.85751766 -0.107727095 0.46246246 0.01875218 0.6299755 0.31823558 -0.14440703 -0.09705229 0.89663315 -0.74878436 -0.88952047 -0.4848007 -0.5534205 -0.5422081 -0.717656 0.088046774 0.79851496 -0.62747616 -0.73039544 -0.7952889 0.47937474 0.44883052 -0.09695421 -0.14450556 0.6234694 0.24411984 -0.8126477 -0.08092114 -0.81096476 -0.08589533 0.4339356 0.42824408 -0.32053944 0.77536595 0.787453 0.6572882 -0.24353299 0.43672496 -0.30327037 0.21083957 -0.3139158 -0.36238807 -0.052634206 -0.38919476 0.15082672 0.44271207 -0.76332015 -0.2675952 0.09073259 -0.5881369 -0.3380886 -0.8279782 -0.59672076 0.68071604 0.39973062 0.14919686 0.7929428 -0.8275246 -0.2710254 -0.72863024 -0.53611743 -0.5154709 0.034462787 -0.8536521 -0.3672661 -0.18969896 0.7355548 0.69165224 0.80679095 -0.52830845 0.27849475 0.80535835 -0.6751153 -0.10509981 0.83018965 -0.6864306
0.45286793 -0.08274388 0.7115928 -0.03679896 -0.30522823 0.13591507 -0.10547098 -0.52057254 0.31818974 0.0857926 -0.6776825 -0.18825573 -0.15580592 0.5570726 0.15197979 0.69207484 -0.01889133 0.603286 -0.59304357 0.31548542 0.35869417 -0.44728202 -0.2676366 0.4425765 0.051261604 0.2926255 0.31154016 -0.07368252 0.08430235 -0.17371792 -0.48215073 0.07025629 -0.08972216 -0.11763625 -0.54840195 0.23419948 -0.53132933 -0.39644694 -0.3004171 -0.0056868084 0.5828433 0.72190744 0.65734553 -0.44060084 -0.41045713 -0.011107199 0.50843704 -0.12702364 -0.23943187 -0.43479797 -0.039452266 -0.6980431 0.24930233 -0.10207571 0.30060837 0.56298536 -0.21890616 -0.06256728 0.06219159 0.2275768 -0.6762496 0.2859364 -0.07070623 0.31697088 -0.9046238 0.28039744 -0.048143297 0.36712283 0.16587302 -0.3380523 -0.5185604 -0.108729556 0.5154703 0.12522751 0.3653683 0.1932876 -0.02350451 0.45169988 0.45742857 -0.0030836202 0.43384308 -0.319688 0.5113895 0.4606252 -0.12247584 0.17162907 -0.2803111 -0.009202121 0.009560067 0.34578073 0.6545724 -0.4187294 -0.17336641 0.22247842 -0.3831801 0.2929015 0.1641242 -0.7777774 -0.60029763 -0.33897078 0.41300595 0.316123 -0.42987484 0.43710127 0.27805156 0.3559167 0.052294713 -0.55717665 -0.090792984 -0.742676 -0.050644293 -0.12939583 0.46361595 -0.6194791 0.35401613 -0.40166965 -0.12731424 -0.24921826 0.11599645 -0.017570307 -0.010110799 -0.5001597 -0.56217486 0.5706121 -0.28567258 -0.7782288 0.0042775124 -0.15040569 -0.80927986 0.7479304 -0.0006610863 -0.43321344 -0.6636292 -0.27154648 -0.17771795 0.35644275 0.5573953 0.37337342 -0.06592309 -0.103848875 0.44018906 -0.23788479 -0.31134003 -0.36031488 -0.5097617 -0.25440153 0.25401443 0.11826777 0.3505223 0.27928114 0.4085409 -0.06665904 -0.854893 -0.13082275 0.038078878 -0.0023818351 0.15397151 0.62934065 -0.5021159 -0.25787818 0.12482312 -0.3762922 0.23122013 0.34319714 -0.067837775 -0.009390645 -0.3960947 0.43377674 0.35940173 0.076297164 -0.277851 0.26845363 0.36280835 -0.32324278 -0.5337222 -0.42781216 0.32954168 -0.3070048 0.48410708 -0.60096467 -0.2875217 -0.4905601 0.3418622 0.03009469 -0.06191548 0.060104623 -0.14243573 -0.09064116 0.29325897 -0.20610091 -0.17280184 -0.48759487 0.11577365 -0.06969187 -0.38454014 0.3707372 0.1622903 -0.09766884 0.3309537 -0.5018031 0.61360335 -0.54255754 -0.16262658 -0.316699 0.48261338 0.5747133 0.47508547 0.46751344 -0.39706266 -0.8421594 -0.10745554 -0.7235284 0.70904815 -0.7306931 0.06895697 0.52458566 -0.4752327 -0.7927262 -0.2822351 -0.100108206 0.098805875 -0.053165454 0.46995494 -0.21955152 -0.5480024 0.6167517 -0.1675725 -0.5152567 0.18065874 0.15285616 -0.25586122 0.121381715 -0.6726181 -0.1800858 0.16680986 -0.024855228 0.6771736 0.4520285 0.13214642 0.29840317 -0.39681292 -0.2854296 -0.26491722 -0.51114964 0.43106565 0.29881218 0.13475291 -0.4522678 0.050074317 -0.24872524 0.6022569 -0.2650374 0.5149567 0.79350317 -0.31342298 0.72003025 -0.2057253 0.26055175 0.29105103 -0.5783044 -0.64108443 -0.2480118 -0.36240655 0.5591602 0.32837406 -0.31021306 -0.10987881 -0.40579006 0.45166394 0.27330816 0.5294211 -0.47437364 -0.27094185 0.51413 0.2357514 0.32471898 0.2755039 0.7087438 -0.67371094 0.5219189 -0.14161368 -0.5965089 0.59793913 0.6373245 0.7072001 0.46376473 -0.009635091 0.7384422 0.40598285 0.5484857 -0.4452531 0.37070853 -0.26880476 -0.64861274 -0.0062309764 0.30725944 -0.8128335 0.14283049 0.41082838 0.018800672 0.6991954 -0.10229659 -0.27960405 0.49638665 -0.102330565 0.07829347 -0.21249172 0.21750566 -0.5604504 0.4387211 -0.4708939 0.33406454 0.3819046 0.381311 0.11019569 -0.24011262 0.35950184 0.688742 0.71875703 0.524468 0.44236615 -0.7277635 0.5710156 -0.28236473 -0.4421175 0.48266697 0.4045809 -0.25303283 -0.22483097 -0.044068806 0.4826743 0.64596975 0.7592107 -0.4079396 0.44657874 0.46042177 0.18224646 0.19963245 -0.047872692 0.0086941095 -0.87061626 -0.6643723 0.38610426 0.073434345 -0.53065914 -0.24180543 -0.27651647 -0.50503904 0.6893887 0.28706276 0.30543122 -0.07365938 -0.45055717 -0.15208778 0.81648314 -0.27228898 -0.7392479 0.44864368 0.4786141 -0.06518158 -0.022299545 -0.106287256 -0.48686442 0.6083678 0.293179 -0.736375 0.67089105 -0.24104702 0.003509568 -0.6150711 0.19226302 0.3935067 -0.24419452 -0.70276994 0.22166477 0.33738792 0.6224218 -0.3102851 -0.52849466 0.71652025 -0.1721802 -0.6949424 -0.6556162 0.09878421
-0.3139041 -0.49050775 -0.76437396 0.18980493 -0.5759165 -0.47367042 0.48070404 -0.12324397 0.5320411 -0.24912679 -0.18913949 0.27262312 -0.03081214 0.68688047 0.74232954 -0.5481587 0.592696 0.87785995 -0.5106319 -0.085763246 -0.40189862 0.36669868 -0.02956909 -0.2949111 -0.06505698 0.17294817 0.9482963 -0.7120578 -0.09146827 -0.7759761 0.19919871 0.907518 -0.646437 0.19399983 0.25592008 -0.173468 0.42993692 -0.37834027 0.1386202 0.56003773 -0.40279543 0.86599004 0.9391019 0.19759592 -0.055293992 0.07625629 -0.33457136 -0.5018537 0.3838837 0.37225103 -0.48042244 0.18990918 -0.061735835 -0.9755846 0.16555238 -0.025083952 -0.0076927543 0.11613426 -0.37752473 -0.83343434 -0.86826956 -0.39872068 -0.8674108 -0.74423957 0.82589793 0.6428808 -0.5616674 0.9209768 -0.24672604 -0.89290273 0.37320116 0.69578624 0.07234661 0.5186205 0.41938928 0.26754606 0.17260587 -0.015320692 -0.15149024 0.3180098 -0.40623492 -0.5731554 0.8589326 0.14455956 -0.04332088 -0.20681068 0.22072417 -0.40659893 -0.8993747 -0.5286063 -0.19578104 -0.6447394 -0.071234375 0.53214335 0.6697021 -0.2829097 -0.6167532 -0.018843703 0.15305136 -0.12140068 0.7948068 0.76556414 0.15535712 0.2249267 -0.4807545 -0.16325766 0.35502756 0.11864295 0.16528861 -0.83074075 0.23255569 0.39439803 0.13797 -0.2619324 0.6042234 0.7111948 -0.23515698 0.20817257 0.69957733 -0.38229424 -0.34358817 0.2528521 0.58897203 -0.20329103 0.5567564 -0.3699119 0.7666706 0.62141967 0.7195903 0.74619436 -0.038983814 -0.27805668 -0.75636286 -0.27845195 0.47488752 0.15308239 0.12926671 -0.35126132 0.0207194 0.62909836 -0.15895769 0.43852276 0.68633175 0.23752412 -0.4706932 -0.16305438 -0.16256745 -0.5796523 0.1836308 -0.57436025 0.32610708 0.057813376 -0.78596425 0.7782917 -0.012930732 -0.59047925 -0.92024827 -0.28334564 0.66502213 0.38370442 -0.20448059 -0.4621771 0.26483268 0.32959288 0.20608346 -0.055802654 0.28935942 -0.018571068 -0.3894792 -0.08455464 -0.18723875 0.50943017 0.19329104 0.8493682 -0.39018643 -0.5300499 0.5588868 0.20452744 0.51807773 -0.08970769 -0.38820252 -0.61521155 -0.9036541 0.23341502 0.44825894 0.025727984 0.008347884 -0.16437195 0.04434909 0.17854035 -0.58000106 -0.36227584 0.53692234 -0.33746305 -0.78001046 -0.1190813 0.02773784 0.9177312 -0.12926796 0.34062117 0.33823526 0.28905526 0.29889622 0.4262015 0.044265613 0.39585176 0.33794665 0.65516007 0.19127326 0.47925347 -0.27147925 -0.80807555 -0.47173667 -0.027723357 -0.040008344 -0.043691307 0.0881705 -0.4542954 -0.7937572 -0.22477102 0.74426186 0.36443996 -0.097807474 0.12949774 -0.6106111 0.24404834 -0.44291568 0.45440555 0.2070983 0.39646637 -0.48368034 0.7974106 0.49240938 0.011456192 0.5987153 0.2786953 -0.7489258 0.047195576 -0.34681094 0.76304173 -0.75170994 0.022860218 0.2875903 0.23166144 -0.02097377 0.32971203 -0.17583357 0.113423504 -0.30024529 0.9861108 0.29694337 -0.030556217 -0.37848395 0.50761795 0.8031572 0.26746684 0.26999682 0.6273062 0.7646049 -0.6771153 -0.12038611 0.70929456 0.16535038 0.6631521 -0.3577069 -0.42591134 0.02046509 0.16634147 0.6467891 0.095035814 0.9035255 -0.29394644 -0.24015842 0.5707067 -0.052981965 0.16021305 -0.35427147 -0.14673804 -0.3231001 -0.6351906 -0.18269944 -0.6662913 -0.76117164 0.64654946 0.11148748 -0.25644636 -0.77235055 0.20036867 -0.72943926 0.26366472 0.026923448 -0.29650286 0.41063643 0.75278527 0.16637008 0.23173048 0.28825825 0.17229025 0.42311606 0.16046587 -0.18941659 0.097500406 0.41990542 0.3971856 0.061752282 0.54487455 -0.39526224 0.13498998 -0.2109985 -0.331842 -0.92648935 0.35574806 0.08630324 0.5028658 -0.25298214 0.20150355 -0.55434096 -0.49425647 -0.58032197 0.6361909 0.08820169 0.47353196 0.7012971 0.2973067 0.047863275 0.4933513 -0.31310984 -0.3946191 0.86208695 0.30206552 0.7478318 -0.42856422 0.7645427 0.6858151 0.34170803 0.44680336 0.6568545 -0.34498876 -0.044593584 0.1699251 0.52768564 -0.73653674 0.58200645 0.6940437 -0.11644825 0.63107127 -0.3698182 -0.037695333 -0.60909796 0.7717152 -0.14734603 -0.73023593 0.36539325 -0.40578297 -0.051211115 0.012739342 -0.35242778 0.21877006 0.95322734 -0.7875596 -0.25306803 0.40627772 -0.6502435 0.6626617 -0.42645526 0.22223035 0.07794428 -0.59440964 -0.91169286 0.33267206 0.04551492 0.77002007 0.142447 -0.75900346 -0.80877566 0.39846125 -0.21769345 0.89319134 -0.8915911 0.12941097 0.23175149 0.12473106 0.17676395 -0.47322452
0.40981504 0.11580251 -0.6813004 -0.25511363 -0.17429313 -0.175552 0.14486998 -0.5664941 0.6052738 -0.7755387 -0.26830822 0.01949963 -0.02668938 -0.1165646 0.78501856 -0.32631335 0.6399132 0.9122095 -0.34900293 -0.45540982 -0.2244769 0.41274565 -0.16609064 -0.46167403 0.10207671 0.40816373 0.8091397 -0.5571743 0.33244994 -0.49997967 0.20493183 0.62308854 -0.31859744 0.37615955 0.015438572 -0.6671296 -0.16667438 -0.5191383 -0.0922422 -0.18663402 -0.29059562 0.6132426 0.87891436 0.592118 -0.38972443 -0.24634622 0.12068376 -0.4130905 0.5050862 -0.048492264 -0.5169965 0.098401405 -0.151945 -0.9353738 0.33716875 0.15275785 -0.5280837 -0.0087466985 -0.5609442 -0.45861888 -0.707589 -0.6576251 -0.42410463 -0.24158463 0.8792918 0.28565288 -0.84260285 0.5369717 -0.25746247 -0.38886905 0.34891677 0.42690128 -0.15737057 0.24104694 0.52999854 0.39533955 0.3495435 0.0023152605 -0.6796057 0.10628624 0.20409572 -0.1834179 -0.042045515 -0.19307263 0.26742312 0.16421333 -0.6312339 0.37133682 -0.85870546 -0.6588094 -0.25903228 -0.7276928 -0.6575508 0.6852999 0.80192006 -0.030308153 0.2452882 -0.17745948 0.16189706 -0.33023214 0.5924738 0.31823784 0.05403693 -0.24000442 -0.28069073 0.33282122 0.2411963 -0.06402011 -0.2763058 -0.24447325 0.2684917 0.16964501 0.14888668 -0.6282083 0.05846136 0.18646343 -0.23781325 -0.22088209 0.5627695 -0.4495778 0.38318324 0.21610284 0.27262926 -0.040632874 -0.41749758 -0.32637653 0.65517724 0.54507893 0.7683499 -0.08655715 0.48922268 -0.23011176 -0.35859957 0.06165617 0.6349014 0.5768641 0.32020664 -0.48490804 -0.4809551 0.4790039 -0.36055288 0.53289855 0.6777192 0.31458145 0.3703534 -0.3700881 0.08032728 -0.0017014518 -0.053051136 -0.70398927 0.24848263 -0.3520216 -0.2327229 0.5258394 -0.3577146 -0.57705945 -0.9536446 0.18494232 -0.17224199 -0.08114655 -0.089788824 -0.5853697 0.3769158 0.3976381 0.09277786 0.37689942 -0.3081723 -0.27562323 -0.22969474 0.16723588 0.071480624 0.35044378 -0.25066268 0.47057068 -0.45344377 -0.03646461 0.17315325 -0.43507978 0.23290512 0.01113639 -0.17408606 0.031417977 -0.6976789 0.4151345 0.35741124 -0.2320468 -0.22654858 0.2656541 -0.2058648 -0.044801727 -0.57957244 -0.058857433 -0.04965146 0.33108917 -0.14508644 -0.21605079 -0.27738696 0.24611361 0.21592551 0.12299113 -0.078238085 0.602084 0.21166989 0.6391449 -0.24431427 0.6088544 -0.13222748 0.6693684 -0.12796852 0.13684905 0.1478863 -0.68696666 -0.6579432 0.596914 0.28684276 -0.5293846 -0.07961777 -0.4549501 -0.5660601 -0.29791057 0.48084176 0.3592861 -0.55635464 -0.066165216 -0.07279055 0.15311816 0.1404604 -0.1635298 0.15189934 0.34572172 0.2478676 0.26421142 0.5017271 0.11236468 0.45418826 0.48905268 -0.33225247 0.56102014 0.3516795 0.7538547 -0.5129665 0.100092374 0.45572984 0.27603233 -0.024591964 0.120217785 0.19231057 0.30569223 -0.45335686 0.7049102 0.38413185 -0.30871034 0.24486108 -0.020954723 0.25970888 0.18594569 0.18095705 0.15918529 0.42952758 -0.7813963 0.17862013 -0.058238223 -0.4954263 0.31691378 -0.053983837 -0.77286756 -0.15740374 -0.052662626 0.74497354 -0.20922904 0.71493226 0.08082816 -0.34783852 -0.10288563 -0.5830296 0.42877042 -0.3103056 -0.018789336 -0.46355885 -0.46226752 -0.5307021 -0.28720343 -0.56256855 -0.023923568 -0.6089194 0.04116468 -0.6784883 0.18058795 -0.5256542 -0.26198727 -0.27788645 -0.0014535785 0.45177767 0.94832647 -0.10989953 0.112341054 0.21346995 -0.48589757 0.10823107 0.079779856 0.40686226 0.1507622 0.34904313 0.41626847 -0.30829716 0.5748225 -0.11453934 0.33858615 0.4808445 -0.58799684 -0.6318338 0.31993458 -0.019380841 0.06885952 -0.4671961 -0.049393885 -0.41073617 -0.39343363 -0.35899678 0.6017535 0.10989363 0.42688707 0.8470374 0.14294815 -0.28754264 0.13496879 -0.17754501 -0.37479943 0.07814044 0.0064862967 0.710602 -0.36580956 0.027093187 0.24160519 0.44354963 -0.17861217 0.09789653 0.07847585 0.46077773 0.04642301 0.17506431 -0.52431345 0.26394084 0.8722502 -0.5589446 0.24840409 -0.54331774 -0.033684187 0.3259269 -0.30590475 -0.20000218 -0.2968256 0.08237328 -0.3823133 -0.41977406 -0.0940635 -0.23930745 0.44068563 0.33269697 -0.66853833 -0.4509376 0.35837948 -0.59560376 -0.144977 -0.3299127 0.5508975 -0.53609335 -0.39307576 -0.8015237 0.004519485 -0.43433005 0.5239062 0.40821624 -0.7015827 -0.5335553 0.32771447 -0.2109114 0.27342904 -0.8308239 -0.5917475 -0.21677548 0.06984027 0.16943802 -0.45320517
0.7257596 0.32414848 0.7051598 -0.43034497 -0.46526277 -0.6002697 0.41540894 0.83160436 0.5563021 -0.12283394 -0.26081604 -0.2793945 0.8637265 0.6683167 0.77473825 0.83596253 -0.25269637 -0.0376734 -0.5186301 0.09368463 -0.8259767 0.055717338 -0.7439937 0.19483216 0.97717506 0.23991674 -0.6544845 0.53575397 0.8161965 0.8634301 -0.8829076 -0.13070048 0.76020855 0.07933331 -0.7918087 -0.094066344 -0.1405457 -0.68256366 0.22070213 -0.63113934 -0.094509564 -0.9358504 -0.8787568 -0.8169017 0.82607126 -0.020767283 0.9087759 0.7504109 0.90192187 -0.9825404 0.8196108 0.91629034 0.4714588 0.2720622 0.43651718 0.29428798 -0.1690098 -0.9531114 0.8496207 0.31816366 -0.7656264 0.83850753 0.26498616 0.9383022 -0.38014275 -0.12872383 -0.67863435 0.49262407 0.8723173 -0.4213692 0.036698963 -0.8469353 0.9895557 0.57826436 -0.33335775 -0.025574952 -0.36861938 0.8591951 0.8908293 -0.86898726 -0.34057966 -0.8881363 0.50794125 0.6248177 0.20064501 -0.94099426 -0.79201484 0.5776325 0.1457052 -0.53993547 0.38776568 -0.7890854 0.27172232 0.5232201 -0.715541 0.6731266 0.33521777 0.8003725 0.27132326 -0.9222163 0.116928786 0.8383111 0.7155108 0.2879636 -0.11359291 0.4530451 -0.45538348 -0.18914348 -0.7066454 0.51434064 -0.31299558 -0.71514463 -0.27881357 0.15518284 0.79731524 -0.7039339 -0.971302 0.9088859 0.014047921 0.3166911 0.788019 0.42886078 -0.38057756 -0.095746495 -0.7039529 -0.15113556 -0.08013199 0.58236116 0.18243508 -0.45006114 0.8740132 0.88143706 0.7644193 -0.1168633 -0.7840989 0.7223319 0.8185479 -0.9097713 0.5720221 0.21024477 0.9012572 0.45411095 0.9026216 -0.6012662 -0.8816926 -0.66896206 0.9458444 -0.5386618 -0.4735425 -0.5780343 0.91506946 -0.7848147 0.79880816 0.17451023 -0.650639 0.49528858 -0.35908008 -0.1752172 -0.79627925 -0.8815369 -0.7301978 -0.738539 0.7013118 -0.10887973 -0.8905823 0.7542237 -0.59455454 0.7278335 -0.9019147 -0.61991894 0.13166294 -0.2390261 -0.62504476 0.1004512 -0.8065072 0.6562939 0.5931695 -0.5031771 0.79524595 -0.49235952 -0.33915615 0.43363065 0.16140462 -0.74551713 -0.42709422 0.1906602 0.7854881 0.2948895 0.64377844 0.6571537 -0.13884214 0.81419015 0.78674275 0.4035144 0.3839335 0.47896114 0.9747475 0.8901417 -0.3402263 0.81258667 -0.7642938 -0.25991708 0.64118046 -0.07680452 0.24456695 -0.69267356 -0.46537745 -0.705919 0.64054817 -0.44500726 -0.30126846 -0.9374961 0.105174914 -0.7944426 0.8565003 -0.8969209 0.9769105 0.20757446 -0.70073915 -0.5573126 0.5721137 0.15273988 0.56870645 -0.69404423 -0.8917334 0.7272943 0.7416028 -0.962311 0.74946046 -0.59046376 -0.09009531 0.43248874 -0.6502171 0.86881673 0.1578037 0.32724443 0.17317286 0.52227545 0.30463165 0.6923953 0.8162677 0.3649843 -0.8661349 0.22502445 0.33871597 -0.8137448 0.764039 0.020588947 -0.4337771 -0.025753558 0.51258403 -0.91135997 0.9220721 -0.01647016 -0.7562008 -0.17579705 0.7132534 0.45902997 -0.16587079 -0.6438742 0.41849077 -0.75837386 0.45606083 0.08678292 -0.6056248 0.23584402 -0.260953 0.24567801 0.68952775 0.3854985 0.5747414 0.80770385 0.14006776 -0.053172663 0.66613287 0.35313487 0.69917524 -0.7109532 -0.3657712 0.01152356 0.68597937 0.2911772 -0.09718719 -0.36933628 -0.766902 0.74014294 0.06357138 -0.46525323 -0.93825 -0.70941925 -0.7298068 -0.46109688 0.23877797 0.55777717 0.89799035 -0.98774683 -0.93636 -0.9298446 0.8782395 0.10850868 -0.76073873 0.7408575 -0.77519846 -0.42951864 -0.19955927 0.69994414 -0.29573938 -0.03983608 -0.26809832 -0.45874023 -0.8079754 0.8988566 0.9308261 0.5555893 -0.12312618 -0.0870406 0.83212304 0.49225888 0.058580242 -0.055638045 -0.6850029 0.11599968 0.27787787 -0.49884662 0.39935684 0.53555965 0.33600354 0.50404745 -0.5624848 0.6948719 -0.47603917 0.68881845 -0.23319784 -0.181233 0.7129943 0.023350757 -0.63508314 0.16548753 0.17290057 0.6609965 -0.5867456 0.6513351 0.90994054 0.5689985 -0.9853901 -0.7166771 0.7291874 0.705995 -0.8143286 0.50221235 -0.55268466 0.32577753 0.79932296 0.30645728 -0.007069164 0.0016761348 -0.71863616 0.086513065 0.52472985 -0.663721 -0.83862936 -0.5836943 0.6417464 0.18264873 0.7154213 -0.88359535 0.85460806 0.15409277 -0.6679947 -0.9731556 -0.49791333 -0.2660486 0.59842515 -0.99520016 -0.93709666 -0.024233293 -0.6783122 -0.86798596 0.05074031 -0.6672769 0.0069356877 0.7156791 0.74867976 -0.23983735
