-0.41747624 0.36622998 0.8024553 0.07062963 -0.90962195 0.057031274 -0.50875014 -0.6268351 0.5097374 -0.31287524 0.70457387 0.75244 0.08414238 -0.31440297 0.7885152 -0.22976571 0.53030026 0.47946608 0.21505354 -0.12995473 0.6061816 0.34139034 -0.5834695 0.8978944 -0.43330222 -0.28481644 0.30510014 0.17533432 0.24057628 0.45064375 0.6922332 0.38929117 0.7007949 0.4262611 -0.8645428 -0.6455597 -0.5611695 -0.19412975 -0.6374631 -0.26189756 0.17601052 0.08664197 -0.40894827 0.58329564 -0.11863591 -0.75224614 0.073752195 0.7731461 -0.5432138 0.48839855 -0.5392976 -0.53146505 -0.42081854 0.37347138 0.506567 -0.20339184 -0.3141576 0.4847947 -0.7755879 0.84399486 0.65096086 -0.3098275 -0.08046989 0.46963954 0.28558287 0.5733851 0.36995697 -0.38782924 0.07640098 0.64441514 -0.6708165 0.48183477 -0.51156944 -0.63369423 -0.52257586 -0.62845993 -0.19909275 0.27884904 -0.031875774 0.5426881 -0.809409 0.47918952 -0.44778913 -0.024503887 0.41774753 -0.84228617 0.9481411 0.381528 -0.26529276 0.06620027 0.03205213 0.16011512 0.4402841 0.5231488 -0.044376038 0.9599856 0.35130215 -0.077874124 0.069916435 -0.2549653 -0.48511353 -0.5218878 0.765319 -0.10012129 0.28419733 -0.61039734 -0.038133442 0.4707979 -0.21817791 -0.30154774 0.51138014 0.09737131 0.21199167 -0.71906656 -0.19080861 0.5091965 0.33173227 0.4350366 -0.35509044 0.6793257 -0.97009546 -0.6879221 -0.5668719 0.4281662 0.6306153 -0.58190346 0.86523974 0.8129319 0.47524178 0.460802 -0.5596102 -0.56435716 0.35975337 0.43872714 0.40686926 -0.7210088 0.49694014 0.8440484 -0.5803437 -0.8991169 -0.5484139 -0.07230082 0.24608274 -0.8810296 0.7079155 0.60548115 0.69631493 0.6062156 0.6029222 0.29930294 -0.6430355 0.8061643 -0.8103913 0.4538728 -0.6242185 -0.7119997 -0.42933428 0.3838524 -0.75608253 0.60489535 0.974211 -0.6664064 0.47391996 -0.5246067 -0.81495094 0.5201381 0.50831985 -0.46645296 0.4241503 -0.52930665 0.38753393 0.22894481 0.0603219 0.6753913 0.8538316 -0.046947375 0.91055393 -0.54729354 -0.5108523 -0.6294788 0.6429372 0.5319723 0.07373189 -0.5170263 0.9302855 0.5956254 -0.99281573 0.2227476 -0.48861653 0.6134619 0.18115497 -0.4165576 -0.3386803 -0.8077017 0.37940422 0.20925593 -0.53073454 -0.5623076 -0.5472592 -0.4766164 0.10297927 -0.28491345 0.5165926 0.87475216 -0.37488964 -0.6005996 0.8821624 0.54927856 0.5536076 0.28751 -0.53951496 -0.55941975 0.22150916 -0.77507585 -0.47692063 0.5904302 -0.5577806 -0.86202264 -0.9415222 0.33181605 -0.14990363 0.50849503 -0.5836875 0.25012842 0.3129779 0.19985157 -0.17351188 0.27950507 -0.4008237 0.7099611 -0.5335014 -0.95668817 -0.04650505 0.9312456 0.77800465 0.47203708 0.56057954 0.33920264 -0.88344336 0.72351575 -0.83846176 0.64933205 0.5861023 0.14816558 -0.8249682 0.6684301 -0.6700269 -0.6726385 0.41236892 0.9246874 -0.34336004 -0.16283317 -0.25864813 -0.59792775 0.252696 -0.7817479 -0.7094222 -0.34603012 0.8576947 0.37001494 0.76316845 0.13235052 0.4120597 0.93399715 -0.20653106 -0.6096364 0.6117163 0.6002183 0.48714834 0.2859456 0.13437851 0.09898272 -0.32016605 -0.61299706 -0.82141745 -0.16221696 -0.5772703 0.5740247 -0.007832766 0.7506591 -0.44702825 0.5740635 -0.5255857 0.4647665 -0.45219314 -0.678057 0.5791446 0.21678971 -0.68188477 -0.5637212 0.36556596 -0.013218157 0.6598256 -0.55240655 -0.944323 -0.4105404 0.47729176 0.29791436 -0.7171658 0.22523391 0.8168696 -0.6945201 -0.74454916 -0.34141123 0.35991862 0.5524504 0.5376104 -0.4073968 0.61022466 -0.25135332 0.41757274 -0.41973862 -0.47016948 -0.5435158 -0.3149012 0.18591832 -0.69313467 0.6048464 0.28626564 0.7300998 -0.032779187 -0.6466096 -0.83369124 -0.5655918 -0.68347955 -0.8164538 -0.81008935 -0.7409965 -0.8003187 -0.4209006 0.6925858 -0.5282948 -0.2939099 -0.71091056 -0.032501027 0.5058067 0.46380448 0.7703473 -0.7305581 0.3934095 -0.6510881 0.45025128 -0.31635273 -0.09144643 0.680511 0.15082113 -0.6498927 0.44251412 0.6865406 0.64704376 -0.096920386 -0.5683819 -0.8409068 -0.46824124 -0.6025592 -0.58736366 0.2584057 -0.011457466 -0.6273898 0.67838997 -0.20531479 -0.42767185 -0.38845485 -0.7393926 -0.7377566 0.368743 -0.43913472 -0.120690644 0.45923766 -0.8303638 -0.5312902 0.89905494 0.8418596 0.6258679 0.14729153 -0.6861291 0.54024994 -0.38515446 0.498406 0.3343104 -0.62187755 -0.61069095 0.37437016 0.37799206
-0.02638322 0.36680514 -0.553655 0.77159435 0.5246599 0.246283 0.8346548 -0.2132741 -0.9084744 0.037884377 -0.9534083 -0.7656422 0.1633851 -0.92591614 -0.5134836 -0.27987975 0.7230771 0.9752717 0.5407785 0.8403237 0.9587785 0.8199161 -0.8738701 0.42850214 -0.27211392 -0.8241839 -0.847672 -0.09774676 -0.9620068 0.68642825 0.66785014 0.70641494 -0.7920624 -0.9416022 0.6531619 -0.88354534 0.9709244 0.869188 0.5377495 0.79622626 -0.719095 0.7263735 -0.96335816 0.78328013 0.71835005 0.8110807 -0.8121952 -0.005290067 -0.7207029 0.9196145 -0.926139 -0.8171175 -0.5698573 -0.31774318 -0.1494165 0.11288241 -0.51546377 0.87842125 -0.32479867 0.8463056 0.7592981 0.59771395 0.33668828 0.97606945 -0.056129973 -0.6018768 -0.9108674 0.81183785 0.30422294 -0.6673759 -0.9749757 0.6638765 0.8474004 -0.58380044 -0.7408377 -0.70773107 0.32034424 0.84603214 0.9328236 -0.014154064 -0.08821568 0.93603045 -0.73811656 -0.8515359 -0.93678784 -0.06492325 -0.62894434 -0.7038682 0.8464476 0.985613 -0.5456734 0.4756809 0.981024 0.9544144 0.8412914 -0.4679763 0.07643833 0.80065066 0.7111398 -0.8650282 -0.8550543 0.79538846 0.9223614 -0.14386864 -0.39291978 -0.037698127 0.9118901 0.70230436 0.72865796 -0.81553036 -0.37629217 -0.64511776 -0.7664817 0.48784897 -0.66310984 0.9879459 -0.9459708 -0.59808856 -0.8060919 -0.73741657 -0.55241936 -0.88983154 0.8701608 -0.8627502 0.7489999 0.10153192 -0.372388 0.91210794 0.95870477 0.4758343 -0.984695 0.4945479 0.9824329 0.3645744 -0.9067176 -0.60526544 -0.6285763 -0.61908376 -0.009922557 0.31793353 -0.9330491 -0.8822471 -0.8105059 0.9710399 0.14840269 0.8819032 -0.9399358 0.92205054 0.88928044 0.68447113 -0.32960021 -0.77114743 -0.80493116 -0.96476144 -0.8407146 -0.81693935 0.92551917 -0.67026615 -0.7603577 0.96912277 -0.9461616 -0.3479356 -0.49678957 -0.32928213 -0.1786779 0.40599006 0.26210645 -0.6517916 -0.0022732057 0.7995598 0.81858945 -0.13325028 0.84536123 0.74168444 -0.82447284 0.9449031 -0.9694707 0.6873745 -0.59028137 0.6953936 0.6155293 0.94848585 0.85504 -0.4672791 0.672391 0.59061164 -0.12630354 0.8951777 -0.5548642 -0.913847 0.7812027 0.80932164 0.96896255 0.040536076 0.6490598 0.733717 0.92768055 0.91596615 0.95131785 0.9476673 -0.968777 -0.90868914 -0.9502231 -0.9487718 0.49110967 0.7805844 -0.97336996 0.8562516 -0.65085363 0.13497427 0.84090996 0.73788977 -0.43154413 -0.28572413 -0.63824654 -0.3460301 0.8071517 -0.78756285 0.96644545 -0.7628093 0.7331282 -0.43845016 0.9825786 -0.9554496 0.82125074 -0.9799169 -0.71644896 0.9471948 -0.6534589 -0.8983682 -0.6985517 0.88822246 -0.8880859 -0.73015726 -0.32464367 -0.908905 -0.9365681 0.77585983 0.050346695 -0.4167059 -0.7598541 -0.7887165 -0.77317846 -0.6949601 0.6118316 0.93848443 -0.11289265 -0.92490804 0.84641945 0.003816152 0.97284734 -0.88511413 0.81464726 -0.54735357 -0.9315941 0.4231472 -0.9924986 -0.9568405 0.662202 -0.9571792 -0.14860761 0.87053114 0.42998153 -0.7427713 -0.32344458 0.68432605 0.9613696 0.9210779 0.8782434 0.89547783 -0.2765322 0.63778543 0.20343766 -0.17836896 0.9824444 -0.9162286 0.94613975 -0.8949456 -0.5431734 0.51298416 -0.3557776 -0.14867052 0.86669445 -0.72182506 -0.61736006 -0.8144845 0.0077738 0.96301115 -0.41601855 -0.12311524 0.9081755 0.64587766 0.8077891 0.6273103 -0.6362326 -0.22117864 0.5770365 -0.9643194 -0.78727 0.73340124 0.49248 0.9453737 0.9132874 -0.4715328 -0.06122288 -0.4937806 -0.97047687 -0.7140073 0.8427709 -0.7507535 0.6280491 0.48769057 -0.49368098 -0.85532105 0.60665095 0.7545073 0.4954583 0.536912 -0.8384418 -0.61535007 0.9276236 -0.4159566 0.69313097 0.5820995 -0.14344823 -0.563176 -0.791552 0.4794016 0.30217975 0.6777766 -0.7790323 -0.25159466 0.94971603 0.9291253 -0.4423345 0.7839425 0.9028512 0.90563744 -0.8929221 -0.93755716 0.27130482 -0.8475581 0.8304626 -0.9495062 0.8923822 0.1060306 -0.6482695 0.8990257 -0.19603309 -0.69480366 -0.9227254 0.9400798 -0.8683963 0.9793429 -0.8978586 0.8839009 -0.7181755 -0.9310202 -0.69516695 0.6246039 -0.9851079 -0.22378081 -0.71945393 0.65233266 0.9381743 0.95868564 -0.53723335 0.9415919 -0.7968763 0.73060423 0.80732787 0.41731313 -0.88991576 -0.5836644 0.8127894 -0.1370943 0.9574323 0.9374563 0.9018903 0.82017136 -0.6706556 -0.44996282 0.85670996 -0.9335736
0.23095506 -0.42220366 -0.821486 -0.07200815 -0.1593667 -0.44962057 0.5275836 -0.6346451 0.7970954 0.8807161 0.7617256 -0.82690835 -0.46338788 -0.28158727 -0.4256447 -0.14266786 -0.48888004 0.9389296 -0.7165083 0.041550636 -0.8456806 -0.36187133 -0.14758024 -0.6884597 -0.2524752 0.5548258 -0.802668 -0.7100314 -0.5965728 -0.4917217 0.4937775 -0.34513628 -0.73352623 -0.50602615 0.5104507 0.49406755 0.63691276 -0.06431183 0.19561869 -0.61968476 0.7536067 0.21637589 0.8285099 -0.8689665 0.7304931 -0.9157314 0.3056873 -0.8171857 -0.44927517 0.3375889 0.45429674 -0.023842007 0.8365831 -0.1402962 -0.9340757 -0.1413978 0.69740903 -0.8946091 0.62362605 -0.5459003 -0.25874165 0.198357 -0.67925036 -0.46142092 0.20405567 -0.1376742 -0.013572734 -0.93478686 0.69469935 0.1977371 0.8965876 -0.07983013 -0.48089376 0.4818024 -0.22825259 0.69112164 0.9367488 0.058985192 0.7240427 0.53387964 0.83575404 -0.3384188 -0.5383777 -0.89760923 -0.7276519 0.008835332 -0.7983215 0.28823838 -0.20643257 0.4833063 0.45906878 0.43917978 0.8733224 0.710697 0.8715973 -0.42543447 0.5098849 0.06506216 -0.8229942 -0.39338028 -0.59980416 0.1051285 0.3364271 0.6539944 -0.66822505 0.69806 -0.76459587 -0.91207206 -0.28339705 0.46267757 -0.86409014 -0.92645234 -0.9239734 0.7567744 0.20809366 0.92370754 -0.94269276 -0.81125975 0.35781026 0.28445643 -0.18218175 0.86626595 0.8953634 0.18188274 -0.023111291 -0.15204355 -0.14856441 0.105693266 0.869697 -0.14555198 -0.8557593 0.42302406 0.10413417 0.81987333 0.4108337 0.6407221 -0.5978783 0.011679269 0.05749206 0.061264925 -0.06806195 -0.77381223 -0.8855965 0.6136833 0.45987326 -0.44650164 -0.5652145 0.30020952 0.92486703 -0.51805514 -0.39170292 -0.17522432 -0.9234303 -0.91881484 -0.9703986 -0.16606128 0.95177907 0.33623272 0.4173136 0.54840124 -0.6490733 0.42140245 0.83427066 -0.1621342 0.7511646 -0.4490019 -0.93052524 -0.081738494 0.06846179 -0.1481381 -0.43707561 -0.9323663 0.7403933 -0.36904687 -0.8003648 -0.8490668 0.28368616 0.6637639 -0.63956136 0.59548503 0.2659813 -0.31392026 0.87962025 -0.0070034247 -0.72509986 -0.76342255 -0.3074777 -0.04984328 0.8189054 -0.6521942 0.4651874 0.45030388 0.35102847 0.84095216 -0.78089714 0.10368839 0.058812737 -0.23084262 0.73032 -0.31933254 -0.81561565 -0.4388986 -0.92614335 0.018171988 0.57017654 -0.7122326 -0.32906434 -0.5847282 0.6394166 -0.39244127 -0.9624944 0.21910667 0.85091734 -0.012449615 -0.72237885 -0.30289328 0.50577646 -0.94909966 0.018043682 0.4095688 -0.3538983 0.39648247 0.0321913 -0.9180831 -0.32454166 -0.61321574 -0.7366805 0.6754717 -0.5312889 -0.8092263 -0.17633638 0.86195105 0.28472945 -0.32704383 -0.14003676 -0.67985547 -0.7082485 0.44717652 0.8798895 0.9157834 -0.81552315 0.57905275 0.6711763 0.2643873 0.18714023 0.18583898 -0.601059 0.4691369 -0.7153704 -0.7493603 -0.35770375 0.6508019 0.9661373 0.32902238 0.57577604 0.13137756 -0.30168813 0.7148853 0.5954278 -0.80207217 -0.75023 -0.14665039 -0.21781933 -0.41117638 0.37219757 0.1967034 0.79040086 0.24876454 -0.13038097 0.14554113 -0.8576526 0.5297759 0.78033704 -0.08316585 -0.37860695 -0.8317386 0.0187532 -0.6544128 0.8224639 0.18030563 -0.3231911 -0.96735954 0.83882535 0.12148643 -0.47198796 0.047517955 0.025618475 -0.8404757 0.5148231 0.62146974 0.57026464 0.43175778 0.48532194 -0.04295311 0.6139694 0.6038126 -0.6247319 0.55122757 -0.82985795 -0.4523216 -0.29651368 0.23293829 -0.18819717 0.9220754 0.33257878 -0.8144002 -0.8689548 -0.35686666 -0.23302677 0.28271502 0.79417175 -0.8141598 -0.33630097 -0.12461795 0.20472345 0.8953217 -0.82145673 -0.22872427 -0.11678428 -0.56150955 0.10946357 -0.3233665 0.4530096 0.6868025 0.80803174 0.8671561 0.047400825 -0.6052294 -0.7461097 -0.45539528 -0.57272124 -0.35267296 0.81734824 -0.17910148 -0.39015767 -0.063096166 0.784655 0.5349353 -0.47434637 0.83240914 0.42895004 -0.5051181 0.07820615 0.21388006 -0.5457386 0.2222347 -0.4909594 0.33389318 -0.61265755 -0.009951517 0.085952446 -0.68246114 0.8245276 0.95772123 -0.5122001 0.744527 -0.39148784 -0.821691 0.608052 -0.26504058 0.443835 -0.8184673 -0.85636425 0.42014292 0.18242316 0.8947815 0.4224636 0.29334348 -0.21891624 -0.38072532 0.4933544 0.11610876 -0.15066104 -0.55904007 -0.55322486 0.81205404 -0.7628031 -0.055574894 -0.40262473 0.26384795 -0.5866627 -0.3056485 -0.8136707 -0.84428835
0.06526937 -0.6080165 0.20746392 -0.8180561 -0.10220526 -0.60111815 0.87621444 -0.5709294 0.4504159 0.7140063 0.48748744 0.95832574 -0.055128887 0.3207081 -0.15393917 -0.22445248 -0.16473775 0.17377178 0.274471 0.4405275 -0.12868892 0.5538932 -0.5019463 0.59023404 0.5467408 0.38416764 -0.29182655 0.15110487 0.05335504 -0.13782272 0.71233726 0.19908144 0.58178353 0.27955124 0.0015305132 -0.041833222 0.24876316 -0.32699 -0.04904017 0.0156030655 0.39238358 -0.012561515 0.43859637 0.5109577 0.18157259 -0.2518322 -0.31975287 0.2507894 -0.016899683 -0.56961095 0.17791282 0.17375465 -0.03383299 0.14473224 0.48175836 0.04824695 -0.30750766 -0.0713501 -0.016315341 0.6748811 0.6638501 0.49202985 -0.002138868 0.012945801 -0.54936254 -0.27965295 0.07880418 -0.14059362 0.18567853 -0.24903245 0.3051891 -0.34325337 -0.22363271 -0.46268988 0.36465776 0.0048506632 -0.21827501 0.31364158 0.558934 0.24797635 -0.29259273 -0.8293279 0.5633608 -0.29388344 0.17321472 -0.39175537 0.89503217 0.33669084 -0.5769412 0.006163392 0.90859777 0.32861763 -0.19795525 -0.048495725 -0.3793906 0.35424045 -0.0647505 -0.46935314 -0.12917556 -0.51482064 0.19846019 -0.58645767 0.32061648 -0.1733353 -0.08968084 -0.023326129 -0.4118119 0.18668705 0.4962188 0.082476154 0.25740087 0.29539096 -0.25927487 -0.24572676 -0.11499328 -0.48519307 -0.19379146 -0.46012017 -0.5661456 -0.047821544 -0.9105073 -0.04051778 0.09490484 -0.035481617 -0.35977805 -0.3126914 0.71510166 0.53144175 0.08844629 0.262491 0.31316835 0.254738 -0.31872806 0.75091624 0.2677744 -0.099890426 0.15273808 -0.23206055 0.2942056 0.11863853 0.24716406 -0.50404084 -0.35211647 -0.71503454 -0.2899169 0.17039603 0.5809074 -0.0024005622 0.66202706 0.1740391 -0.36980155 0.4185731 -0.06366868 -0.6002287 0.21459016 0.2788286 0.68135226 0.21043319 0.0707171 -0.14363463 0.9484857 0.07853864 0.061475933 -0.77369255 -0.094552025 -0.18014549 -0.062475607 0.30829167 -0.0034710858 0.40635014 -0.07538426 -0.08943518 -0.33872476 0.5225041 0.73083395 -0.68661785 0.66787386 0.028795257 -0.00570713 -0.083938524 -0.4435098 0.5332347 -0.05989913 0.15860759 0.36216316 0.27887782 -0.9559729 -0.34412396 0.1164287 0.5489116 0.15087596 0.23615974 -0.35837156 -0.38290784 -0.3211453 0.32787776 0.052300915 -0.25212964 -0.14689381 -0.25197095 -0.47433713 0.32610375 0.56173503 0.58358955 0.6091648 0.05893784 0.78408957 -0.03284836 0.45155773 -0.4048868 -0.8263481 -0.5326897 0.17740002 0.25867394 -0.7500832 0.44344532 0.39807332 -0.60578144 -0.24952047 -0.1860807 -0.17720233 -0.04858042 0.35700136 -0.0904289 0.049458332 -0.06504721 0.40938163 0.36810654 -0.2482354 0.5553459 -0.108121395 -0.73460466 -0.6426082 0.16146329 0.34894696 0.2227418 -0.0383925 0.4847952 -0.3428023 -0.05402378 0.03493899 0.19834001 0.13178189 -0.10312876 -0.56275845 -0.4867883 -0.26298434 0.8145525 -0.13178469 0.81980354 -0.384731 -0.31185657 -0.14883378 -0.621258 -0.14235568 -0.058455497 0.024675429 -0.19130827 -0.07334135 0.19661343 -0.32771158 0.1330164 -0.09683108 0.005742417 -0.50732493 -0.279727 -0.13109696 0.45179465 -0.11024743 -0.1558738 0.25693536 -0.5229721 0.116565704 -0.37666804 -0.40525272 0.23777138 0.49774826 -0.23086466 -0.6639149 0.5832031 -0.006104678 -0.3882959 0.421618 0.07360701 0.0056084134 -0.38159412 0.38414267 0.03922826 -0.093039244 -0.113101915 0.23368013 0.22343442 0.6963882 -0.100320406 0.15691811 -0.106757835 0.8546158 -0.71544135 -0.07509537 0.56513417 0.7234392 0.053228073 -0.6199996 -0.24561763 -0.081008695 0.54147947 0.2393207 0.014509339 -0.36610052 0.02970761 0.49024707 0.22448885 -0.19949196 0.07220166 -0.065119624 -0.0029941946 -0.42569217 0.40529764 0.4082238 0.2637907 -0.9169012 0.4406941 -0.8140249 -0.42278707 -0.31398606 -0.4143561 -0.27003217 -0.33497486 -0.7438278 -0.2894736 0.15098667 0.0866508 0.743271 -0.31580764 0.4626175 0.7151872 0.10483575 -0.16070107 -0.0817806 0.105701014 -0.2817702 -0.29056436 -0.14858054 0.9530498 0.25486812 -0.24383786 0.2246075 0.2182773 0.35782266 -0.07240561 0.21689013 -0.47626436 -0.076628916 0.8635997 0.334911 -0.06929926 -0.6455283 0.059902117 0.34471363 0.52668655 0.25688773 0.1205191 0.040852156 0.14821538 0.27944228 -0.13826367 0.01774007 0.32371902 0.009058386 -0.2490406 0.23367742 0.14480941 0.3332894 0.21776652 -0.79136866 -0.2412944 0.10765064 0.08195017 -0.70243084 -0.020546466 -0.35203505 -0.65618575 -0.18334228 -0.68309104
-0.76757723 -0.8111039 -0.6560271 0.6941147 0.9498856 -0.056950524 0.98558915 -0.6024681 0.6526714 -0.7441993 -0.8058057 -0.8660316 -0.62361974 -0.57207185 0.8932304 -0.95987093 0.7969927 0.7850107 0.86286396 -0.8730537 0.51685375 0.80189925 -0.6380779 -0.43190435 -0.62910104 -0.94583654 0.5343902 0.20328203 -0.6921448 -0.19788705 0.8962209 0.92774194 -0.85962063 -0.9015347 -0.14598183 -0.64735186 -0.69573736 0.00557221 0.49373454 0.43389702 0.5830188 0.8675816 -0.698264 0.5760813 -0.5117235 0.83858013 -0.9002024 0.60148686 -0.52881664 0.68905604 0.5162415 -0.84769815 0.77259624 0.22199842 0.7253454 0.92352736 0.7513131 0.6124521 0.6857885 0.07456832 -0.9199606 -0.956756 0.18365255 0.53910285 0.5872618 0.8464613 -0.73358095 -0.9543864 -0.8078229 -0.43700993 0.71346456 0.86407155 0.77478254 0.69019014 0.9317746 0.94164264 0.4296593 0.8367918 0.7503802 -0.614013 -0.6315647 0.89021426 -0.700323 -0.96085364 0.0327201 -0.0044925064 -0.80534565 -0.6523145 -0.8459156 -0.7734871 0.8888327 -0.17904052 -0.54111964 0.6828479 0.61843705 0.8737058 0.9374307 0.7210838 0.48037818 0.84651166 0.9576318 0.8407732 0.7352128 -0.44128028 -0.92626184 0.29005536 -0.85275465 -0.80864644 0.57846856 0.7665767 -0.17799272 0.8763101 -0.056132205 0.63550705 0.8788848 0.23694003 -0.92537105 0.595958 -0.045377497 0.7444593 -0.52912796 -0.8795877 0.9337749 -0.11881239 0.7709369 0.40253812 -0.49566084 0.89181525 -0.12792304 0.7603046 0.58315104 0.9476416 0.66571283 0.82952076 0.9545675 -0.68785363 0.85601425 -0.6340428 -0.87521154 0.84732634 -0.6785082 0.52018243 -0.06949366 0.9023174 0.3669355 0.6847961 -0.9253229 0.7281707 -0.63436544 -0.8798851 -0.9116755 -0.55974275 0.5624403 0.9248416 -0.7898488 0.9375401 -0.5962019 -0.86732507 -0.9531856 0.93837285 -0.54889804 0.04216186 -0.7069972 -0.76526344 -0.72485995 -0.35997814 0.18751843 -0.055397253 0.25154608 -0.69657177 -0.5614569 -0.9655774 -0.97552896 0.98186594 0.94525754 -0.58372843 -0.94604474 -0.6893029 -0.6803217 0.78700656 -0.9383605 0.901411 0.34200332 0.92084444 0.84619576 -0.62975276 0.7623232 -0.9743021 -0.61072606 -0.4104074 -0.60195917 0.9321544 -0.014045573 0.8781314 -0.96804035 0.42900625 -0.7473255 0.7822904 0.8259547 0.9311236 -0.8120006 -0.11405353 -0.6015781 -0.45819476 -0.56963634 0.6082102 -0.34256113 0.5966725 -0.82373446 -0.8200468 -0.90525776 -0.32912314 -0.77518815 -0.63734055 -0.8402255 -0.9497967 -0.34398746 -0.6947694 -0.8121204 0.92955494 0.73422045 -0.79908234 -0.7267805 -0.63589394 -0.016697325 -0.8432915 -0.9328935 0.92552125 -0.9770029 -0.6941214 0.58352786 0.8694162 0.58366 -0.5453382 0.6185297 0.79737145 0.09479364 -0.68785137 0.96306086 -0.6922833 -0.92093647 0.8337753 0.3953224 0.9220548 -0.72107315 0.8634351 0.41996098 0.7597353 -0.9314168 -0.6730868 0.7238181 0.65521747 -0.74035585 -0.65347177 -0.8657989 -0.16201949 0.54493654 -0.21146284 0.85268146 -0.95887023 0.74766946 -0.5750611 -0.23535724 -0.75069463 0.6394845 0.73033375 0.89637 0.84807897 0.9278635 -0.9808594 -0.87185186 0.9007621 -0.6732177 -0.8906872 0.47802684 -0.26016006 0.054065753 0.7843419 -0.60977584 -0.68686056 -0.87068826 0.7748115 0.7262126 -0.70995176 -0.7807042 -0.67057633 0.55900455 -0.5518333 0.82009166 -0.30061415 0.7611187 -0.16716267 0.9865802 -0.110731706 0.56611866 -0.18051153 -0.45678535 -0.04613536 -0.79328567 0.56718534 0.883183 0.8635804 0.38401666 0.93807477 -0.7466321 -0.80965203 0.16939822 -0.8262688 -0.16300999 -0.65570635 0.5421964 0.81410664 0.27787793 0.886581 -0.3325732 0.9657486 -0.88163096 0.27240813 0.72843647 -0.15751751 0.30250302 -0.52897495 0.42961273 -0.15761316 -0.9242684 0.34350395 -0.7918326 -0.92214525 0.1631107 0.56765455 -0.7917088 -0.90123534 0.60520464 -0.8685505 -0.0057357578 0.66420066 0.5780148 0.73044574 0.7892705 0.026909957 0.8523895 -0.7665835 0.8070206 -0.66062075 0.8126657 -0.6207105 -0.60861397 -0.5870292 0.3215051 0.95624405 -0.9472972 -0.8660232 0.69275254 0.87374306 -0.709843 -0.8246832 0.5210755 0.85674727 0.8878369 0.62188226 -0.8160359 -0.16437492 -0.7089506 -0.75184894 0.9279766 -0.8550207 0.59919894 -0.7367493 -0.84071136 0.57355547 0.49065164 0.8791969 -0.07309711 -0.6196248 -0.9220443 0.8885381 0.4855348 0.62093836 0.7172131 -0.9306911 -0.7080515 0.9136821 0.9592735 -0.88511264
