-0.64476645 -0.22617762 0.60572076 -0.7209575 -0.98697793 -0.62021846 0.4875539 -0.48248833 0.61845684 0.826764 -0.33823004 0.8948631 -0.19616273 0.7983391 -0.104335524 0.006901413 -0.47191295 0.01793605 -0.21200873 0.5723479 -0.64130294 0.11467697 -0.17748299 0.014309645 0.77832615 0.19313364 0.68994826 -0.40051454 0.7288867 0.7381696 0.28412396 -0.25179502 0.94482446 0.37191203 0.05220884 -0.02463089 0.08989738 -0.7877595 -0.42911816 0.09361873 0.6312101 -0.1667486 0.66597366 0.06292041 0.95950365 -0.6984031 -0.6087386 -0.114731446 0.2114596 0.42697316 0.31557316 0.6236002 0.61081296 0.71737236 0.6335483 0.68855375 -0.07632798 -0.7238579 -0.26763105 -0.10389835 0.21226843 0.86786866 0.056019567 -0.43488938 -0.46669272 -0.53734803 0.1545327 0.72226554 0.6646833 0.34018478 0.47753865 -0.50234467 0.14678694 0.09639765 0.07526724 -0.10042195 0.0061377734 0.53646505 0.9299005 0.19257331 0.038967952 -0.9164785 0.13896021 0.32883853 0.4409399 -0.60912627 0.052609026 -0.038048565 -0.17719544 -0.5630986 0.26292473 0.4605091 -0.3157554 0.38728997 -0.41872722 0.83540034 0.26888734 0.16865323 -0.06696446 0.0037103444 0.015515804 -0.5115548 0.7469599 0.48237273 -0.052330837 0.11834948 -0.57611346 0.3133197 0.36792743 0.56201446 -0.69609046 0.5110414 -0.58735 0.45918176 -0.046887316 -0.73568946 -0.66339296 0.28203332 -0.6420846 -0.5972501 -0.9074298 0.5315171 0.6033187 -0.15873414 -0.43248355 0.17579204 0.73454356 -0.14505209 0.42010167 -0.26753232 -0.45474035 0.6187251 0.027488738 0.5737838 -0.100297205 -0.52589756 -0.5945132 0.05412987 0.54347825 -0.035707653 -0.20808344 -0.6784387 0.5901666 -0.70946455 0.06252031 0.20718572 0.12782091 0.28186363 0.33104733 0.09466695 -0.15040673 0.63501036 -0.37464723 -0.8058323 -0.7170394 -0.5897386 0.66335344 0.028925627 0.3319006 -0.4612198 0.10993396 0.4916482 0.77341515 -0.6728822 -0.3198442 0.5090227 0.6929251 -0.1624597 -0.7092842 -0.59549296 0.40993315 -0.38894296 0.4396052 -0.38607404 -0.17835021 -0.5161444 0.32605445 0.52147305 0.13107656 0.12456331 -0.23905547 -0.082594156 0.6811352 0.19376613 0.064104125 -0.6118665 -0.84783477 -0.47194082 0.22578041 0.2942136 -0.54467946 -0.21608946 -0.16551557 -0.37543398 0.1990654 0.3822303 -0.4031183 -0.023712173 0.15311937 0.12869397 -0.82552683 0.43570387 0.76711154 0.11160028 -0.072817 0.01316084 0.03231983 -0.730338 0.1386141 -0.79498804 -0.68412054 0.1688258 0.3120064 0.06600922 0.23152429 -0.5929767 0.79239607 -0.71634436 -0.7750945 -0.73832476 0.30260634 0.5108196 -0.38304985 -0.6497456 -0.2831633 -0.63790566 0.2627666 -0.78251785 -0.111949384 -0.08790603 -0.20418477 -0.13812816 -0.82545865 0.7519394 0.106334925 -0.09716904 -0.5855616 -0.353662 -0.37224433 -0.020290315 -0.40277827 0.40917766 -0.5421211 0.20835766 0.20131323 -0.3651057 -0.086679205 -0.06537652 -0.6674778 0.10683961 -0.35992134 -0.4397745 0.6132045 0.5622884 -0.12829597 -0.5630053 -0.62054193 -0.030361399 0.10962784 0.09402092 0.48734796 0.7586508 0.06544201 0.8615171 -0.09394735 0.17999847 0.5377362 -0.30836368 -0.11840143 -0.50926495 -0.5366533 -0.03536223 -0.29910535 -0.59363514 0.2152526 0.54223764 0.76011217 -0.18543589 -0.08811961 0.89937794 -0.050651997 0.015216619 0.22375786 0.7902696 -0.11839046 0.64846337 -0.27963433 -0.43849874 -0.87678295 -0.10771592 0.4528448 0.12657782 0.29691532 0.2174964 -0.17100954 -0.3515672 0.43717074 -0.059874803 -0.50809276 0.60745174 0.6759168 -0.6489711 -0.07366356 0.83553946 -0.009334013 0.5400847 -0.7555915 0.110557504 -0.5402874 -0.24163523 0.14464392 -0.16797231 0.64997953 -0.777895 0.042032704 0.5578743 0.22294977 -0.39645508 0.03263299 -0.012435697 -0.8133629 -0.041850552 -0.08908178 -0.35980982 0.5318575 0.07416682 0.033671953 -0.16169225 -0.8683963 -0.17400223 0.6139139 0.18517317 0.0822313 -0.76250947 -0.61499506 0.13847062 0.23969157 0.6506206 -0.17138006 0.0033025295 -0.4158851 0.027254075 -0.25631386 0.65735245 -0.8919189 0.52630866 0.36218047 0.5612701 -0.38712537 0.5054072 -0.039660797 -0.28770864 0.17448501 0.8543182 0.5299135 0.48800048 -0.289411 -0.58369935 -0.19265251 0.6392472 -0.78024805 -0.0467263 -0.5341515 0.528469 -0.47126642 -0.89852244 0.57305396 0.063549586 0.04339263 -0.5640727 0.35948372 0.45931628 0.5026693 0.08548069 -0.70185614 0.73168135 -0.52051425 -0.55251575 -0.024375796 0.6306577 -0.12108323 -0.4624765 -0.36470515 -0.017901406
-0.04848752 0.8013135 -0.54807985 -0.73405015 -0.2035679 -0.17390662 -0.4326107 -0.66409904 0.05114003 -0.35178423 0.6205049 0.76855457 -0.31721693 0.06614272 -0.30536282 0.045339115 0.26522195 -0.42263994 0.6398574 0.38247824 -0.9091032 0.40820462 0.47187957 -0.38814098 0.17805399 0.16670935 0.89669603 0.118852064 0.2538297 0.59102315 0.36202347 -0.31855527 0.7739541 -0.14404003 -0.52656776 0.23437187 -0.32935566 0.71083516 -0.6806402 0.62091386 -0.74190855 -0.45706683 0.13735068 -0.441039 0.39366037 0.101137236 -0.7465111 0.41882598 0.19949701 0.017876387 0.44097674 0.550393 -0.7548901 0.1365 0.5741707 -0.39235455 0.4870503 -0.25614226 -0.42971548 -0.32485342 0.37694067 -0.046059586 0.089590445 -0.4175061 -0.7591305 -0.5806445 0.2253292 0.400128 -0.685051 -0.22727345 0.53899217 0.3914066 -0.39967346 0.7458347 -0.41285717 -0.23270857 -0.3879263 0.25363082 -0.4552072 -0.495017 -0.90722716 -0.3414253 -0.43791276 0.13156974 0.12963356 -0.44530565 -0.4892454 -0.58400464 -0.90867126 -0.4825716 0.660021 -0.3613557 0.45120195 0.6661676 0.78575784 0.39456406 -0.2708143 0.3827668 0.20676306 -0.5850379 -0.27317274 0.084068194 0.8163371 -0.012587346 -0.47281015 0.4034592 -0.7526922 0.80325687 -0.110578164 0.76304054 -0.4142895 -0.19177055 0.33491397 0.18151808 -0.64345795 -0.32777655 -0.083739705 -0.2024983 -0.5978639 -0.2706219 0.6928047 0.7233708 0.57275313 0.28239062 -0.29298082 0.1090162 0.011458634 0.85944915 0.49997196 -0.16773747 0.07216082 0.15592358 -0.12510844 0.64972556 -0.47887218 0.3533242 -0.2626372 -0.8343288 -0.48392045 -0.1898941 0.8372328 0.50960726 -0.21150173 0.34249377 0.5782789 0.09061898 0.2361283 -0.29870355 -0.7585154 0.423213 -0.07265729 -0.48802686 -0.42707634 0.9039464 -0.7117201 -0.24961382 -0.602507 -0.61607313 0.12717211 0.32586843 0.33060092 -0.4194235 -0.69543135 -0.6072631 -0.11903028 0.6793592 0.6024605 0.36516732 -0.77224445 0.1274209 -0.21447247 0.68861216 0.41430044 0.21210596 -0.5557047 0.56403005 0.2719376 -0.19512783 -0.013478264 0.2096138 0.33620125 -0.5315107 0.52242655 0.19375947 -0.7184323 0.682075 0.09141047 -0.4279585 0.19687505 0.9575871 0.15903199 0.93277466 0.62805843 0.3583107 0.24077643 0.21060851 0.7733423 -0.42798913 -0.45911375 0.75003666 0.2837373 -0.28891584 0.08622142 -0.5804939 -0.77203107 0.40516073 -0.76162153 0.60046184 0.3562324 -0.38321042 -0.5969306 0.17037535 -0.40950987 0.09485571 -0.014457509 -0.8617557 0.7444408 0.2120844 0.3471967 -0.4001219 -0.030058142 0.083825946 -0.8255981 -0.5370151 -0.54973185 -0.2571535 -0.023064904 0.29791015 -0.91669077 0.29790282 0.112611204 -0.1410797 -0.24091563 -0.42851406 0.44988477 0.6442673 -0.8082541 0.8408783 0.041946113 -0.40682402 -0.42890432 0.37222853 -0.8225632 -0.17073023 -0.32614598 -0.10079431 -0.42022264 -0.6485037 -0.52567685 -0.30479932 -0.2447533 0.5395999 -0.30944613 -0.55691147 -0.57654685 -0.5432456 -0.37440833 0.36037326 0.21379088 0.4869368 0.08520289 0.14875382 0.5006472 -0.67183864 0.08943211 0.8276271 0.041380644 0.46148765 0.47362554 -0.7343324 -0.5204303 -0.061202753 -0.6747912 -0.16823913 0.6722128 0.7804669 -0.81397045 -0.37864944 -0.15951926 -0.6645253 -0.4189089 -0.50823754 -0.6628975 -0.7437426 -0.26759988 0.82762975 0.29609793 -0.16208945 -0.8888408 -0.09306216 -0.79659045 -0.7939072 0.31255728 0.71668607 -0.6198504 0.35762298 0.16329792 0.027129617 0.8384944 0.4992169 -0.6937755 -0.5476371 -0.10595724 0.83433914 -0.032818273 0.4945293 -0.09145139 0.2284172 -0.702247 0.29331347 0.71250993 -0.46295854 0.77948785 -0.311556 0.5242014 0.31778115 -0.8167704 -0.11283064 0.7304335 0.8099836 -0.74085397 -0.46387088 -0.3029148 0.11171308 0.9078522 -0.5083403 0.6678649 0.23815514 0.7018261 -0.29632357 0.3282693 -0.2972391 -0.46724433 -0.24719132 -0.28586346 0.03098854 0.031126399 0.037712507 0.030965425 0.6293847 -0.5881759 0.105623335 0.23008478 0.8285986 0.07228789 -0.5061443 0.8404021 -0.14982203 0.18844959 0.354735 0.5467708 -0.84656614 0.43180835 0.54438424 -0.6217959 -0.5493267 0.07137107 -0.09723987 -0.52302206 0.36895144 0.65357405 -0.6356877 0.20414922 0.70904374 -0.8729091 -0.6133683 -0.51489544 -0.5143813 -0.79420537 -0.8337368 -0.7284275 0.42062366 -0.2691924 -0.4692126 -0.55029714 0.01024732 0.32621756 0.5104186 -0.6732762 -0.14454363 0.18116982 -0.021859735 0.49681643 -0.5390483
0.13343957 -0.7888049 -0.4952701 0.49230772 0.04804477 0.38720247 -0.6047902 0.64705193 0.24318963 0.11772407 -0.30826986 0.042136118 -0.42626405 0.09214255 -0.123192355 -0.44698453 0.08930755 0.6036474 -0.051971197 -0.18184182 -0.2298292 0.68421346 -0.5307797 0.1640647 0.44321173 0.36386076 0.74926996 0.1669777 -0.5953568 -0.22940913 0.27141154 0.58367693 -0.57955533 0.36261123 -0.84496045 0.016226716 -0.4480635 -0.4237489 -0.17148101 0.1373751 0.6262579 0.1699875 0.8848353 0.47708458 -0.51248825 0.14381495 -0.31010923 0.3501847 0.4514411 -0.0867622 -0.14259745 0.88772714 0.27575326 0.45277977 0.48815507 0.3344228 0.27561647 -0.28804708 -0.17523511 0.21528094 -0.67292297 -0.0070700794 -0.3907797 -0.5947928 0.521113 0.17917982 -0.05326049 -0.21291785 -0.3467523 -0.011784591 -0.1204904 0.019210152 0.20129482 0.4864021 0.62328005 -0.29933655 -0.115282804 0.6279352 -0.4647385 -0.22216743 0.546409 -0.57249165 0.84822345 -0.009465519 0.30177313 0.48642054 0.62173367 -0.228699 -0.31129828 -0.27329195 0.44311666 0.40006435 -0.028715411 -0.11164349 0.7199548 -0.30959344 -0.21557467 -0.47880715 -0.21461514 -0.13794836 0.43249613 0.20683172 -0.008701488 -0.13935019 -0.18813904 -0.44333178 -0.7412698 -0.92179596 -0.0179772 0.7506648 0.2530584 -0.5840403 0.9174216 -0.19068012 -0.14531055 0.17312612 0.19018118 0.7847582 0.2669152 -0.12532118 -0.17879468 0.18184592 -0.08296788 0.22529958 0.2553017 0.31913257 -0.06926611 -0.05108975 0.28947514 0.66175866 -0.47354835 0.4349594 -0.2554661 0.63502914 -0.5717739 0.5254538 0.34622696 -0.59154403 0.27816844 0.2672067 -0.21525663 0.21881561 0.30138674 -0.17800634 0.46685827 -0.37060162 -0.54560786 0.6720618 0.17053215 -0.8195497 0.30060437 -0.3359294 0.22725493 0.34281123 -0.48415285 -0.124228224 -0.5352969 0.1982174 0.059400886 -0.41672364 0.5041458 -0.026806846 0.46967548 0.64338434 -0.24430631 -0.2833035 -0.2422472 -0.23620193 -0.2660218 0.26304543 -0.2245394 0.059027255 0.15854037 -0.19127277 -0.5940794 -0.46597695 -0.38926643 -0.79926515 0.18754159 0.3204174 -0.37776846 -0.7196286 -0.87884295 0.26159692 0.3100198 0.12391545 -0.17299345 -0.17658292 0.09042875 0.1824443 -0.28902498 -0.16292956 0.6234637 -0.08432305 -0.31391272 -0.6698632 -0.46260738 0.44552758 -0.50061685 -0.5841381 0.28313187 0.12640753 0.355047 0.022788018 -0.89195144 0.130433 0.122737125 -0.7858331 -0.08939397 -0.5956688 0.5341226 -0.12502922 -0.19405372 -0.2942206 0.3051021 -0.31463522 -0.093511425 0.31845292 -0.91525453 -0.504943 0.9477866 0.029178664 0.094501756 0.3865103 -0.48566628 0.14773548 0.48241514 0.0713251 0.92259765 0.02849944 0.04002406 0.2496693 0.17879829 0.37159067 -0.71812516 -0.09289314 0.05125943 0.071560934 0.30148172 0.42815498 -0.08536191 0.33751693 0.6198487 -0.64659905 -0.40626773 0.58681464 0.08134926 -0.17617953 -0.4062338 0.22351715 0.075353846 0.39403623 0.097489536 0.32670504 0.27990946 0.72042304 0.1961248 0.68291473 0.6352577 -0.31779185 0.35594478 -0.04627306 -0.25260803 0.82178617 -0.039152384 -0.70349574 -0.37460217 -0.267193 0.45243305 -0.61405236 0.637221 -0.31867802 0.16807303 0.11498717 -0.042615518 -0.3791522 -0.74969274 0.62288356 -0.83913743 -0.24641311 -0.89565873 -0.50539255 -0.20766784 0.15487403 0.18570185 -0.31429535 -0.76697046 -0.1891653 -0.01662127 0.1539013 -0.035004728 -0.1517868 -0.5812048 0.5676842 -0.12743296 0.39568186 -0.11986005 0.5313525 -0.32436737 -0.19457631 0.58168733 0.64342105 -0.2606147 0.2927884 0.36092138 -0.4464903 -0.21092616 0.31595206 -0.25523132 -0.65077513 -0.6529908 -0.09187105 0.30328578 0.12765092 -0.42375898 0.4990982 0.24284457 -0.18044561 -0.10135649 0.035692327 -0.7370223 0.59759897 -0.1782369 -0.48313117 -0.15338221 0.3623066 -0.1488066 -0.39415246 -0.3495661 0.07892299 0.060985833 0.012117699 -0.41006663 0.27782142 0.1386774 -0.2777032 0.08057171 0.6790344 0.57763106 -0.41166854 -0.60862255 0.21586403 0.7120553 0.84219784 -0.5572226 -0.21733658 -0.23574437 -0.14324303 -0.10773885 0.9063829 0.67638195 -0.15710402 0.41449115 0.7932129 -0.3834222 0.082178146 0.1328322 -0.4096362 0.7604047 -0.20676541 0.15325817 -0.42910972 -0.19614805 -0.1847397 -0.057255402 -0.2308093 -0.18058665 -0.6521913 0.1277467 -0.446109 -0.49564916 0.81645155 0.46209604 0.043029457 0.5443627 0.58955765 0.44104838 -0.27880117 -0.7557636 0.37765902 -0.109174654 0.47631067 0.4706792 -0.29078734
-0.07961584 -0.53916293 0.5985312 -0.9113631 -0.814633 0.11091849 0.52692294 0.6533075 0.7189401 0.38214344 -0.9450237 -0.7579284 -0.97052884 -0.8821975 0.90930796 0.98391634 0.7588886 -0.715772 -0.95169437 0.95472157 -0.202835 -0.9228541 0.9164154 0.3173946 -0.8470957 0.66800934 -0.80292 -0.8128035 -0.47248197 0.6930116 -0.1512561 -0.18350057 0.94525504 -0.9212395 -0.94944626 0.5770399 0.5265422 0.83280045 0.2954542 0.8458702 0.9802631 -0.087635905 -0.3856925 0.977311 -0.49860623 0.14711402 0.68056566 0.95294255 0.60295933 0.4824354 -0.64390963 0.3244701 0.7286508 0.40288398 0.03776371 0.9658953 -0.31264892 -0.18026297 -0.68440014 0.97248864 0.7833546 0.057500117 0.8739019 0.86712015 0.50385517 -0.48812371 -0.89003825 0.069289975 -0.8188253 0.85259336 0.8950707 -0.14797656 -0.9677044 0.9312399 0.90409875 0.06098114 -0.6815657 -0.20954056 0.58633834 0.04347353 -0.3991823 0.906004 0.13536353 0.42380846 -0.8101907 -0.89361376 0.14925987 -0.93272126 0.79944605 -0.3716869 -0.17447725 -0.49611917 0.7186786 0.7406681 0.90811867 0.42811078 0.79818714 0.63205 -0.29982823 -0.70006627 0.6456781 0.7476722 -0.26522392 0.97880006 -0.3726241 -0.7941136 -0.5215159 -0.5420265 0.9902756 -0.020450149 -0.06761036 0.659804 -0.80076337 -0.1989843 0.369817 -0.4064236 -0.87533355 0.42540255 0.7270576 0.9074062 -0.800021 -0.096499845 0.07177723 0.14994797 0.97338206 -0.9402994 0.07633691 0.6975475 -0.64900124 -0.13105717 -0.50704443 0.6758568 -0.24019429 -0.07229559 -0.5714323 -0.9581744 0.68757 -0.69035256 -0.72300917 0.7584001 -0.10209448 0.6334951 0.9295757 -0.96696484 -0.29352462 -0.3910706 -0.9326757 -0.40570182 -0.90976757 0.67819816 -0.6872838 -0.14866547 0.44788927 -0.9300342 0.9431217 0.76038647 0.598741 -0.28489634 0.048025887 -0.28769284 -0.33325908 0.638921 -0.07662641 -0.9666547 -0.65285754 -0.3471067 0.37904197 0.8649721 -0.97189474 -0.85039186 0.46752927 0.91038084 0.66157323 -0.74911094 0.6643646 0.11154744 -0.5157772 0.17688403 -0.44031796 -0.879913 -0.12821749 0.12386479 -0.012088298 -0.16223359 0.33030978 -0.24048615 0.0860249 0.8945021 -0.6266962 -0.3989228 -0.7515013 -0.86753553 0.040263932 -0.6165912 -0.36859947 -0.69821817 0.18867302 -0.58208084 0.9092983 0.6049511 -0.92771375 0.6534906 -0.27877778 -0.013030247 -0.6678269 0.23099804 -0.87394255 0.88588035 -0.9273684 -0.755611 0.07736023 0.62287146 -0.5438074 -0.84029907 0.47451818 0.8158756 -0.3688816 0.2179038 -0.8629454 -0.51074475 -0.2679852 0.06522881 0.59999794 0.699031 -0.69539726 0.116864406 0.6144993 -0.060784783 -0.23440295 -0.25025764 -0.007410365 0.50855094 -0.5509168 0.9821383 0.6657636 -0.6697869 0.8702778 -0.85160035 0.18101431 -0.37862802 0.9293301 0.6951684 -0.758071 0.43489128 0.0017003426 0.9533109 0.52704084 -0.8941051 0.59880763 -0.41015887 -0.37572423 -0.9045363 0.33220422 0.86667347 -0.9664507 0.7476242 -0.17828824 0.049117394 0.10035679 -0.9305635 0.93194634 0.61173564 0.56382096 -0.50530607 0.90807706 0.0023627442 -0.8966361 0.7456475 0.63146156 -0.9389241 -0.15509617 0.9039449 -0.95986444 -0.8326496 0.9054276 -0.4613024 0.66050094 0.6779055 0.34126353 -0.9120852 -0.7272651 0.5433873 0.8936168 0.76173687 -0.012996802 -0.69223976 -0.5855011 0.63889503 -0.6440413 0.58374184 0.8888741 -0.84690905 0.6365151 0.7129408 -0.9827538 -0.4450106 0.8063575 0.36752397 -0.94402903 0.9390601 0.39656532 -0.90285724 0.5267338 0.513229 0.91408086 -0.51951224 0.6572504 -0.9218458 -0.9009173 0.93848336 -0.6285712 0.71013725 0.5341425 -0.94762397 0.65924716 0.38828936 -0.13322532 -0.91247195 -0.18406014 0.32818142 0.6832933 -0.33890945 0.35722816 -0.7967228 0.8067677 0.3209835 -0.80380267 0.8793523 0.7911666 -0.29985258 -0.8229182 -0.75538814 -0.48222142 -0.9211269 -0.92187583 0.9504348 -0.42726156 0.75149834 -0.22561187 -0.8258076 -0.21417561 0.8849408 0.9121312 -0.8775835 0.9685615 -0.24792238 -0.53937155 -0.8057984 -0.45527703 -0.848352 0.8159382 0.74351335 0.39126965 0.8748524 -0.9144497 -0.12165284 0.5151752 0.9449503 -0.3905053 -0.5623584 -0.9357708 0.5274025 0.4716106 0.2012654 0.7268163 -0.9540585 -0.3578286 0.26203555 -0.7240121 -0.9291316 0.36206055 -0.43947816 -0.8404565 0.43644872 -0.08161334 -0.21978039 0.8830437 -0.663604 0.7840247 0.7423454 -0.6807269 0.55990964 0.90440965 0.84212977
