0.49716824 -0.60978365 0.037225075 -0.5284752 -0.7294023 -0.9170425 0.19792788 0.69659495 0.70628726 0.39556476 0.36605954 -0.17100912 -0.09168115 0.9435494 0.22604643 -0.23142022 -0.28187245 -0.81510353 -0.28071958 -0.16519083 -0.18574943 -0.7625061 -0.5660013 0.8198097 0.6280302 -0.13221686 0.81414866 -0.081709296 -0.5091273 0.13930002 0.5471363 -0.6084534 0.76879364 -0.86435294 -0.9256786 0.7388295 -0.47009546 -0.8171817 0.65095127 -0.13226281 0.4844626 0.42952856 0.7456623 -0.6138568 -0.6079283 0.15634625 0.47558123 0.49250656 0.5934203 -0.08542135 -0.023080155 -0.30338743 0.13668877 -0.676454 -0.100907356 0.28599653 -0.020798627 0.042461373 -0.7824235 0.40526247 -0.4885824 -0.103906214 -0.62632 0.22138445 -0.1977483 -0.42883992 -0.59421945 0.62269926 0.5580145 0.79008967 -0.83068216 -0.24418615 0.51668143 0.19109754 -0.65471053 -0.27635896 -0.03513243 0.12573825 0.8651427 0.27450752 -0.8542437 -0.46750742 0.43719137 -0.101382524 -0.8331185 -0.38124484 0.9045347 0.55139166 -0.20717299 -0.44816262 0.05603434 0.4271195 -0.41214916 -0.04792924 -0.25796026 0.7398549 -0.21452379 -0.020526886 -0.46004167 0.5870255 -0.5406221 0.11232495 -0.51101106 0.6369766 -0.47910827 -0.44923133 0.6737604 0.311754 -0.5021179 0.24952966 0.121047765 -0.6989291 -0.5194656 -0.81562483 0.36890763 0.26487786 -0.88550204 0.41535133 -0.18992594 0.15557466 -0.8133987 -0.43084925 -0.6760535 -0.38830233 0.7904358 -0.2397556 -0.46337786 0.89132094 0.27461523 -0.03739667 0.16233552 0.5323794 -0.016442135 -0.8419034 0.12752685 -0.47691876 0.6972936 0.4580323 0.25706306 0.001989752 0.5198815 -0.36109546 0.8850813 -0.1428822 -0.7012656 -0.18280607 0.81897026 0.20526081 0.8072996 -0.65063494 0.68151355 -0.40484488 0.08517079 0.406492 -0.28179133 0.42864454 0.43858933 0.80876696 -0.30945754 0.6469184 0.23969638 -0.6767444 -0.40729153 -0.4940388 -0.75707006 -0.38305217 -0.6196531 0.85961246 -0.37718242 0.11106172 -0.8434217 -0.034740746 -0.56806266 -0.36308745 0.9003098 0.48220313 0.877776 -0.37473822 -0.3083968 0.24747546 0.57330716 0.47818345 -0.2413598 -0.4430811 0.95939195 -0.024106868 -0.20054209 -0.37615022 0.28586182 0.21677577 -0.54206955 -0.269532 -0.5034902 -0.20615599 -0.47660697 0.8049834 -0.045657985 -0.3712663 -0.06382117 0.4693456 0.6578191 0.2817182 -0.38719067 -0.5320794 0.42531228 -0.33252838 0.88254786 0.20099692 0.12917334 0.05252713 -0.53749347 -0.3963174 0.5957841 -0.37877405 -0.2552446 0.07052219 -0.5711576 -0.043549374 -0.91880417 -0.90972114 0.10205778 -0.4832684 0.12371567 -0.33412942 -0.49090618 -0.01706358 -0.34590226 0.84065086 0.66320586 -0.2781649 -0.35115817 -0.85000026 0.124875076 0.93089134 0.6569291 -0.7171033 0.8045819 0.8034214 -0.85266805 -0.00062309206 -0.76521146 0.5366428 0.76365936 0.05945584 0.079826325 0.797714 0.31315535 -0.3922119 -0.44746545 0.89866173 0.39149004 0.16010648 0.50680435 0.17488858 0.4718784 -0.87631136 0.61387724 -0.41031176 -0.164679 -0.8918276 0.5436285 -0.44802958 -0.43649414 0.9141122 -0.5376851 -0.63271666 -0.21926054 -0.09568098 0.1424186 0.2537372 -0.51247823 -0.62466073 0.85538065 -0.45897585 -0.8988954 -0.5378583 -0.48235935 0.4330964 0.12941302 -0.23035489 -0.15027086 0.09634584 0.8279749 -0.4992391 -0.3177374 -0.8398386 0.11602178 -0.10657918 -0.5398688 -0.28972661 0.22107749 0.080827944 0.04747118 -0.20827347 0.57368135 -0.02909239 -0.17502297 0.18662483 -0.7796385 -0.38739055 0.20373014 0.24556004 0.20140626 -0.5919417 -0.49505916 -0.19150648 0.510415 -0.793553 0.3526513 0.41207772 -0.00199309 0.18408778 -0.1893306 0.16629085 -0.66296697 -0.7973995 -0.5769583 0.6248918 -0.92302287 -0.3140397 -0.06869212 0.73243785 -0.8239728 -0.70552063 -0.8501469 -0.8661982 -0.6280102 -0.8133582 -0.1980085 0.5345225 0.7126157 -0.32866874 0.59248495 0.14636469 0.08241475 0.056853384 0.7066177 0.86929655 -0.5496463 -0.74607193 0.3296236 0.21528676 0.15548095 -0.69353735 0.23765111 0.44512522 -0.22446415 -0.4400521 -0.069058046 0.09067565 -0.05137393 0.2978779 -0.09734957 0.4790432 -0.49702108 0.09934744 0.055567503 0.3600412 0.27879342 -0.51725125 -0.33255965 0.7789606 -0.4501399 -0.087266654 0.6931465 0.73500896 0.7211786 0.5597472 -0.41419965 -0.82362986 -0.27828237 -0.50952786 -0.16388363 0.24969667 -0.6358 -0.81829536 -0.05505804 -0.33796132 -0.5128001 -0.6324373 -0.52710825 -0.3518486 0.23099643 -0.6952609
-0.31661585 -0.572965 0.4084376 0.034729112 0.16932318 0.29495293 0.16400026 0.34360343 0.23146667 0.3031475 0.14588776 0.18956527 0.64036787 0.5338056 0.81448334 0.24831022 0.52173835 0.5256868 -0.41244453 -0.027877847 0.35409164 -0.20890376 -0.12715313 0.3142098 0.28090248 -0.08470189 -0.4889803 -0.2096903 -0.11748895 -0.23274186 0.20587072 0.033370342 -0.016457034 -0.4452593 -0.7218071 0.5303496 0.07666785 0.060899876 -0.078165285 0.31913486 -0.13199663 -0.6112853 0.089506604 0.08367544 -0.37800092 0.005304924 0.35492042 -0.002612872 0.22890276 0.10455239 0.45551303 0.6329587 0.2632879 0.65629363 -0.3221396 -0.10703748 0.66287476 0.21326596 0.27927887 0.48779887 0.12640537 0.52504164 0.21359283 -0.025859712 -0.29584602 0.5876265 -0.4009001 0.4411272 0.44016322 0.6997454 -0.42589408 0.3385949 0.581636 0.085125566 0.51351136 0.26791915 -0.25405866 -0.062452834 -0.053782456 -0.47962502 0.40313104 0.21161462 0.3783846 -0.25729448 0.041677546 -0.2504472 0.026457114 -0.2476626 0.14231955 -0.5534499 -0.13592929 -0.10980541 0.41500738 -0.027744867 0.20304456 0.25796077 0.01978602 0.3059999 0.0017271584 -0.02245312 -0.4954329 0.62221485 0.13435437 -0.34302938 0.20053962 0.19733125 0.25169024 -0.35187164 -0.18884504 0.47042826 -0.14050692 0.10196963 -0.5271547 -0.619063 0.3440181 0.6191177 0.11617865 0.254402 0.25379276 -0.4592011 0.38316625 0.4125418 -0.35783678 0.452482 0.22143416 0.36115727 -0.30623236 -0.02594377 -0.47144905 0.2549924 -0.06908272 -0.08220234 0.50097597 -0.14780596 -0.3272579 0.31705055 0.5347076 0.24834253 -0.37616903 0.27313158 0.062186766 0.40294072 0.118023224 -0.32223064 -0.55839044 -0.09789549 -0.15950726 0.06920385 -0.016780248 -0.55402684 -0.26525757 -0.248364 0.36911005 -0.4271473 -0.7763026 -0.43743584 -0.29450354 -0.122263074 -0.2926782 0.015045083 -0.54361516 -0.38537383 0.4875726 0.49046376 -0.6549921 -0.06271419 -0.38125846 -0.42508274 -0.063223846 -0.24259534 0.4330048 0.44377446 0.5072093 -0.1064378 -0.60317165 -0.82773215 -0.37760594 -0.058764353 0.35389507 -0.29301554 -0.24152693 -0.44132262 -0.022821177 -0.5153006 -0.41144365 0.26292044 0.37137124 0.14106071 0.6693327 -0.117735095 0.04027164 0.3688309 -0.19912189 0.23021388 0.37782574 -0.00047737116 -0.5423604 0.7244512 -0.5002703 -0.41283318 0.12883998 0.044349976 -0.5346476 -0.25221786 -0.25863534 -0.5371826 0.2708137 0.0068898285 0.5759292 0.09273487 -0.48010027 -0.48374355 0.48664606 -0.87758183 0.16359155 -0.5702955 0.2717845 0.07627908 -0.6821276 0.3417496 0.65581656 -0.51528805 0.3763511 -0.14110352 0.23628214 0.37199327 -0.30578667 0.0062392224 0.36567172 0.26140007 0.20098306 0.72167355 -0.00960763 0.0960423 -0.16977862 -0.4447549 -0.21053772 0.1530368 0.28195667 -0.4054318 0.28216302 0.11408141 -0.37571153 0.4905019 0.685714 -0.049963627 -0.4774781 -0.26593137 -0.25059706 0.20975955 -0.12838493 -0.16144703 0.20998253 0.38979745 -0.39522898 0.6785901 -0.676934 -0.2630749 0.074498646 -0.3555985 0.3172559 0.3110139 0.16728385 0.053575464 0.3290525 0.20489365 -0.18652147 0.093364686 -0.011984056 -0.26253837 0.013651724 0.4578556 0.110424995 -0.27744743 0.031676233 -0.31589526 0.078069925 0.29504287 -0.3407892 -0.058167174 0.13505846 -0.54641753 0.17603551 0.15948097 0.6442731 0.5307108 0.27637264 0.38849056 0.12788947 0.28013512 0.06916426 -0.28968275 0.33870053 -0.16582416 -0.5729751 -0.09308255 0.36884487 -0.18622428 -0.3532459 0.26736575 0.90784407 0.26990232 0.021070966 0.058124833 0.027978243 0.2875292 0.16290522 -0.2955751 0.053213727 0.41808933 -0.016476762 -0.3112358 0.61434054 -0.10688628 -0.25322366 0.52215576 -0.1724702 -0.08713591 -0.19105393 0.18024468 -0.47035688 -0.28340253 0.2851994 0.28597993 0.018011939 0.6849942 0.66160643 0.49915847 -0.13911353 0.2644507 0.09858265 -0.45342818 -0.2530375 0.5232628 0.07491589 -0.17719641 0.011111855 0.32520986 -0.021981968 0.095564574 -0.4377728 -0.09006543 -0.082245484 -0.14945027 -0.7628999 -0.047502518 -0.1590134 0.36825085 -0.1863291 0.3117168 0.1112028 -0.30816245 0.3098438 0.3743667 0.22121319 -0.6362039 0.24123883 -0.40150702 0.37965238 0.033620022 0.13898149 -0.042157 -0.7634794 0.06383509 0.4923025 -0.39457458 -0.16767779 -0.35745743 -0.28800184 0.2129205 -0.37250087 0.49435136 -0.033020776 -0.17793609 0.4243595 0.40305614 0.15221262 -0.7688613 -0.4451882 0.6026324 -0.3517892 0.13170175 0.5960429 -0.07040268
-0.6675226 0.3409357 0.7468183 -0.101576604 0.24709348 0.33560988 0.12886241 0.40836588 -0.6664839 -0.14564876 0.19926618 0.0947832 0.9065429 -0.030168328 -0.16739199 0.088074796 0.24675503 0.28135228 0.26217937 -0.5016592 -0.06296865 -0.12413772 0.5458247 0.8733449 -0.27386963 0.6751944 0.14807314 -0.3346972 0.047376 0.15413658 0.19471349 0.5940603 0.10695722 -0.51014477 0.053222977 0.2620839 0.19704688 -0.28432062 0.24508429 -0.20878693 0.48609874 -0.7870397 -0.110647395 -0.18844868 -0.40714762 -0.46557245 -0.13216889 0.015603619 0.47179398 -0.40460116 -0.3381131 -0.40413713 0.57705814 0.65912825 0.4654556 0.09517176 -0.0010670203 0.5253585 0.21316418 0.35705307 0.08389429 0.25213262 -0.4497819 -0.026250873 0.55109125 -0.015399431 -0.1350888 0.4858502 0.36574167 0.6833405 -0.39429477 0.86918145 0.7289627 -0.57216847 0.7295341 0.5299088 0.41866645 0.0017413786 -0.3776334 -0.13050303 0.13295038 -0.29667982 -0.19455162 0.09021085 -0.17843306 0.25136137 0.051189054 0.26782545 0.12209973 -0.73314047 0.08128128 -0.37454465 -0.15018108 -0.039875288 0.64286095 -0.3110206 0.5373591 0.106397435 0.3080927 -0.04462612 -0.7441967 0.9171711 -0.17541045 -0.64973545 0.394765 -0.04784315 0.52341497 0.26827496 0.30949757 -0.6654921 0.10800544 -0.32232806 0.2690779 -0.30361536 0.15486087 0.035463616 -0.095225275 0.36150405 0.3458961 -0.8218461 -0.034214973 0.09201397 -0.10353406 0.5495401 -0.035312843 0.22585987 -0.052348413 0.18980624 0.57153165 0.14963996 0.53651625 -0.09740032 0.6957087 -0.47176918 -0.09779606 0.264105 0.39215702 0.45887473 0.3787379 0.35359833 0.012847315 -0.052023467 0.19348697 -0.02674986 0.020716956 -0.0146157965 0.03966308 0.45474106 -0.020213563 -0.07144535 -0.37699446 -0.4037358 -0.33076102 -0.10757416 -0.001686182 0.15964268 0.22261028 0.0076328726 -0.16450217 -0.42544362 -0.43886843 -0.45302743 0.14890946 0.83377415 -0.84798104 0.15100889 0.2016002 0.24339055 0.025315776 -0.14781174 0.03193729 -0.14751841 0.47177088 0.55714923 -0.21605222 -0.67477924 -0.4661674 -0.23122615 0.19665612 -0.4797722 0.36744705 0.19805244 -0.27908012 0.20514904 -0.2269479 -0.23690905 -0.3591438 -0.34946722 0.25377417 0.055334423 -0.24393745 -0.043149907 0.24289368 0.16830468 0.14477412 0.2813906 -0.47671652 -0.07356211 -0.14884485 -0.42946807 -0.26714358 0.5615507 -0.15754315 -0.49899516 0.13369137 -0.38631544 0.15533932 -0.59852695 0.35403872 0.49159116 0.37742093 -0.526376 0.26373217 -0.23230839 -0.43103638 0.19547307 0.20606422 -0.017261356 -0.01811162 0.16397758 0.6417188 0.21273577 0.2876336 -0.23036972 -0.23005234 0.5630544 0.21764296 0.3815798 -0.05947825 -0.15977223 0.17341328 0.023145847 0.2593081 -0.2785163 -0.18482058 -0.12956767 0.48635834 0.106428795 -0.2898505 -0.07364152 0.36457103 -0.1588977 -0.064002596 0.14143108 0.38777468 -0.15387526 -0.22478265 0.17396373 -0.4489494 0.042572413 -0.45277053 -0.01549925 -0.031154493 0.57988375 0.38267183 0.68904704 -0.49753487 -0.16948175 0.23915686 -0.24363363 0.33299997 -0.55714524 0.04449086 0.0082489895 -0.27752042 -0.05172417 0.25257477 0.021879168 0.7139593 -0.22996202 0.4892894 -0.05329468 -0.2876997 0.13975349 -0.29084748 -0.19148907 -0.31118423 0.64055985 -0.48263103 0.45934787 0.5764413 0.17739186 -0.35710916 0.74170727 -0.38486555 -0.118298344 0.40614936 0.2683273 0.13549812 -0.23409022 -0.36938924 -0.2731619 0.17825015 0.21427876 -0.21872184 0.087196946 0.354644 -0.2582356 0.008023144 0.02467689 0.35469678 0.2469289 0.41525343 -0.38895035 -0.22060934 0.45363843 -0.3188339 0.022482898 0.6028999 -0.1881518 -0.37703028 -0.23290193 0.15997624 -0.082761884 -0.37098595 0.2108769 0.3762279 -0.15631028 -0.52976054 0.07577489 -0.3068677 -0.4439902 0.0039633717 0.69185275 -0.37796926 -0.12607348 0.39156434 -0.008060903 0.107949875 0.39701337 0.20673735 -0.6354434 -0.22242536 0.3505395 0.21420439 0.10949658 -0.684356 0.023351911 0.03256785 0.8980456 -0.38559064 0.024664324 -0.041339096 0.14092323 -0.5604071 -0.046251345 -0.14681317 0.2727705 -0.470374 -0.36549336 0.022682145 -0.6728107 -0.19410035 -0.107577644 -0.23367019 -0.62454534 0.2556508 -0.4506778 -0.16457339 -0.078204535 0.5018139 -0.09510594 -0.16386226 0.28447014 0.7389503 -0.21719462 0.21270366 -0.107735485 0.5766203 0.21111462 -0.16777168 -0.601295 0.7714499 -0.5767041 0.49781126 0.09707174 0.47741622 -0.5933363 -0.43715003 0.54017675 -0.13674676 0.0808472 0.48930272 0.18662885
-0.55051124 0.11424434 0.6020313 -0.6434461 -0.13254142 -0.33480296 0.4209978 0.33016732 -0.62331784 0.3653249 -0.122482955 0.63112605 0.9821571 0.21997589 0.14832991 0.37281367 -0.14740047 0.26813564 -0.11096904 0.035637684 -0.34451002 -0.6389217 0.31341386 0.45202503 0.2357685 0.356959 -0.58014345 -0.2930727 -0.4759053 0.071685806 0.113277525 0.44832778 0.70970094 -0.8066739 -0.11349459 0.00918512 0.16549197 0.7790353 0.45896855 -0.05237156 0.22415097 -0.85670465 -0.6908156 -0.3717181 -0.07587893 -0.3636321 0.6667377 0.13141048 0.3831774 -0.14534229 0.23824243 0.13951455 0.3852625 0.063282505 -0.015119433 -0.32682648 0.14918873 0.81932366 0.35423186 0.9050619 -0.045947462 0.78036934 -0.6243163 -0.05944398 0.561664 -0.15662307 -0.4237645 0.25396332 0.22444688 0.59533286 -0.8500389 0.62271917 0.57161534 0.004835639 0.007835709 0.36179355 0.49319628 0.3779076 0.21170026 -0.17479877 -0.29275206 0.037303373 -0.0031125396 -0.06567998 -0.5333766 -0.67769784 0.6138496 -0.0447706 0.29949045 -0.63237494 -0.1857425 -0.042541925 0.33138412 0.005684279 -0.16409062 0.5292483 0.38418862 0.6334759 -0.65945816 -0.02611661 -0.5544564 0.7207337 -0.21160471 -0.6538081 0.009862512 0.13700904 0.5365053 0.54931676 -0.121209234 0.24931425 0.73515403 -0.62416327 -0.054672293 -0.59177774 -0.44906425 0.63826936 -0.23765273 0.524474 -0.14608946 -0.84648305 -0.55031496 0.48027962 0.08286795 0.85354006 0.16658801 -0.107674435 -0.5515185 0.7467645 0.18242496 -0.40131307 -0.074686915 0.21315676 -0.028164152 -0.09128174 0.14312962 0.41825622 0.4473257 -0.19881618 -0.52196425 -0.2315458 -0.4732179 0.5236247 -0.28433874 -0.24911511 -0.44252542 -0.008212332 -0.29205802 0.70749044 -0.3042851 -0.7838316 0.44023386 -0.5122002 0.2567999 0.23277862 -0.4105003 -0.06763963 -0.1933827 -0.26468328 -0.028765688 0.03530947 -0.20676059 -0.3741783 0.60828006 -0.3723142 -0.61309314 -0.44958496 -0.3359317 0.17903544 -0.39208555 -0.30521125 0.44047797 -0.30220473 0.25957566 0.560215 -0.37242565 -0.36096513 -0.32958582 0.6731945 0.5146713 0.57968915 0.2955612 -0.530825 -0.23836051 0.31912348 -0.2836726 -0.59182876 -0.3826216 -0.16841438 0.49095312 0.7666273 0.35156038 0.56817627 -0.26096302 -0.24306534 0.3708614 0.5014651 0.4010796 -0.39830372 -0.13093677 -0.430301 -0.38603914 -0.053582102 -0.1028062 -0.19634992 0.11506437 -0.6059575 -0.37666354 -0.47955707 -0.029647239 0.5474714 0.22223121 -0.6359665 0.58807105 0.154253 -0.26840317 0.01225676 0.8504896 0.07404596 0.41711178 -0.8139483 0.64729 0.099612996 0.3817249 0.17808853 0.29129508 0.48496118 -0.17769822 0.49722636 0.16886127 -0.79699093 0.22686078 -0.077155255 0.48906574 0.493658 -0.34021893 0.21270399 0.052881513 0.27278477 0.04071643 -0.79099715 0.4560095 0.24117118 -0.15037537 -0.07523796 0.4274004 -0.3160012 -0.51248574 -0.019001208 -0.071871564 -0.21339366 -0.1772669 -0.060347073 -0.12278785 0.6423353 -0.5343688 0.22055277 -0.92617023 0.49655876 0.050386716 -0.6335753 0.51843 -0.7291722 -0.16175126 0.5829744 0.66560376 0.6328194 -0.48699537 0.49502367 0.0075618736 -0.36796683 0.063988686 0.9206931 0.22107212 -0.5771259 0.5525337 -0.42714164 -0.15513943 -0.051373884 0.2334246 -0.319413 0.0068385154 -0.2380566 0.20615938 0.29459935 0.34643304 -0.45215094 -0.5259267 -0.61803514 -0.27594793 -0.7465309 -0.007716492 0.14942059 0.701928 -0.18080172 -0.08712513 -0.38015854 0.25442588 -0.45958638 -0.5445712 0.048587445 0.63873386 -0.26477218 -0.27840006 -0.3879705 0.1587169 0.26891175 0.19746622 -0.23827037 0.25183252 0.46124238 -0.063139096 -0.64797556 -0.12604074 -0.026518099 -0.5921039 -0.14400125 -0.40737465 0.14639354 -0.20289788 -0.44426745 -0.15885559 -0.96450365 -0.06286322 0.40412825 -0.14102937 0.1627857 0.2713538 -0.26197758 -0.08721101 0.17600384 -0.17908812 -0.3303915 -0.23051715 0.8393256 -0.70093215 0.630377 -0.07638854 0.33490235 -0.08302489 0.21372761 -0.3383495 -0.0028828867 -0.18584532 -0.22868599 0.17467512 -0.36303443 -0.14803554 0.57235897 -0.33091557 -0.5076672 -0.27807704 -0.035870075 0.2481851 0.22189695 -0.16451739 -0.64979273 0.1369224 0.1369864 0.32894555 0.6025769 -0.38714272 0.6955364 -0.27803543 0.31711775 0.41509426 -0.6447617 -0.56760836 -0.5471032 0.5143049 0.24176796 -0.5502883 -0.22466289 0.7610295 -0.52832514 0.12794521 -0.014914233 0.028112184 -0.61801046 0.0189558 -0.44924623 0.20798421 0.07092941 0.15899369 -0.5587144
-0.30729982 0.067635626 -0.14742653 -0.567331 0.009994873 0.27738053 0.6313212 -0.76210475 -0.89841664 0.021576982 0.414164 0.2699451 0.16527082 0.15401076 -0.45918772 0.64404124 -0.3701897 0.35861906 -0.41159987 0.28337163 0.23208523 -0.53867584 0.008389769 0.31855333 -0.29701284 -0.6344864 0.012474876 -0.04461526 0.2738266 0.22778024 0.18418542 0.42904314 0.22847116 0.3068317 0.32735732 -0.71838593 0.33918512 0.17152028 -0.57784176 0.42637706 -0.5835072 0.09410124 -0.68373185 -0.6731947 0.20664002 0.21883403 -0.5849287 -0.21120664 -0.15999076 -0.62115353 -0.45363423 0.10559588 -0.11116657 -0.16794541 -0.16066757 0.48722702 -0.15345173 0.16800852 0.5142462 -0.12125254 -0.47064656 0.7938474 0.56933814 0.16699466 -0.29603526 0.34759715 0.42154667 0.0014494299 0.007045379 -0.062198147 -0.6673725 0.6082783 -0.22077999 0.008550826 -0.4684033 0.08269472 -0.43439734 0.58251035 0.40338853 0.37311164 -0.1912708 0.4286283 -0.15812206 0.6237908 0.7130709 0.25643575 -0.4605799 -0.30135885 0.26993403 0.02419103 0.26657006 -0.46028972 0.7759561 -0.43715212 -0.37810495 -0.123706415 0.8363976 0.41482362 0.659942 -0.15073611 -0.7025537 0.7919132 -0.14993313 -0.3828957 -0.53847605 0.78822696 -0.5494268 -0.035409216 0.34154755 0.15540914 0.74884146 -0.10081159 -0.3657709 0.09836141 0.0752245 0.003372179 -0.3525464 -0.166901 -0.56109655 0.31593642 0.49341482 -0.20116602 -0.05501382 0.2661944 -0.00826864 0.43241173 -0.78597593 0.105372645 -0.21379183 0.07767849 -0.3582993 0.70705354 -0.022719186 0.43937498 -0.3655158 -0.27025923 -0.042989746 0.4707455 0.36715454 0.34745204 0.6105898 -0.4108229 0.34337917 -0.73563033 0.49428895 0.5306442 -0.4584613 -0.28239232 0.12976834 0.38201594 0.24770282 -0.65806985 -0.47187117 0.3804355 -0.6803079 -0.44353914 0.6937813 -0.38648668 0.34089977 -0.10886899 -0.41869676 -0.42571738 -0.3989866 0.005101787 -0.19842745 0.32717553 0.23930743 0.43924114 -0.41497445 -0.3385452 0.28308353 -0.3194091 -0.65337557 0.13551304 -0.65250236 -0.7264517 0.052103538 -0.17103468 0.66947865 -0.544872 -0.15913491 -0.6333478 -0.6056883 0.3172813 -0.3849441 -0.8736197 0.643052 0.0557671 -0.600858 -0.31900674 0.58468467 0.7785009 0.0016373197 0.5787433 -0.088542305 0.6854023 -0.19008958 0.26295432 -0.12364112 -0.38534862 -0.23104258 -0.23600987 -0.44874248 -0.37611395 -0.2535035 0.236132 -0.6696369 -0.748186 0.48065323 0.11575512 0.31948453 0.26050958 -0.28492528 -0.6401592 0.44468665 -0.06268472 0.7528572 0.28252256 -0.26777473 0.104581 -0.42003518 -0.6060983 0.49949428 -0.04850397 -0.41475767 -0.3371077 -0.2101711 0.85619974 0.15507092 -0.44548625 -0.44053957 0.48282436 -0.6015682 -0.28564063 -0.44060057 0.4250118 -0.04411213 0.86550736 0.5160111 0.1947535 0.19225232 -0.072938025 -0.6907347 -0.5561083 0.49686897 -0.6387325 -0.73880917 0.06022731 0.2853713 -0.20449822 -0.1515131 0.6562641 -0.34893003 0.26348034 -0.18859875 0.26537457 0.07945537 0.4289375 -0.24331377 0.51702327 -0.013392387 -0.36894533 -0.70569915 -0.04712883 0.10709643 0.010047256 0.28231123 0.4635535 0.42563236 0.67030364 0.063720696 0.3772376 0.30135915 -0.21510741 0.6014062 -0.30216998 -0.22923765 0.5625333 -0.67319274 -0.52495456 0.5422462 0.34367934 -0.17122999 0.36828917 -0.50241643 -0.15218288 0.5310969 0.35737315 -0.37677184 -0.35966676 -0.6314598 -0.8708935 0.504442 0.31458676 0.36977243 0.15360604 -0.0684309 -0.45136252 -0.30616918 -0.44076705 -0.34344396 0.4519011 0.16421872 -0.42786306 -0.5937282 0.61684173 -0.38906583 -0.20698486 0.47285354 0.5784522 -0.13876612 -0.48620114 0.42024127 -0.30182123 -0.7637336 0.27214777 0.69588923 0.5590281 -0.7017093 0.15874057 -0.3727751 0.23386826 -0.21465206 -0.46287906 -0.2260474 -0.5534692 0.6333728 -0.6437372 0.36469465 -0.068495445 -0.30815554 0.5625939 -0.5240495 -0.21817894 0.11161704 -0.26993406 0.24730635 -0.3782906 -0.46964586 0.897583 0.07380944 -0.33104405 0.2734607 -0.12544508 0.1550066 -0.2162937 -0.2478163 0.81224746 -0.41977847 -0.26972774 0.31182733 0.25955188 -0.27679798 0.29277897 0.070459425 -0.20743346 -0.18179572 -0.068638265 -0.57399565 -0.54095554 0.5554341 -0.29629838 0.052387517 0.3474529 0.20037124 -0.7230027 0.30896953 0.016260503 -0.57733417 -0.8509866 0.44330788 0.19586806 0.5917803 -0.057562303 -0.55015516 0.002822684 -0.64776284 -0.5735695 -0.20720436 0.10196299 0.75031626 -0.32941854 0.21412642 -0.81312406
0.49337485 0.640831 0.39893198 -0.85040176 0.19002157 -0.6275077 0.6365548 -0.5847926 0.35502452 0.15215689 0.48599184 0.6480493 0.8743029 -0.21982849 0.5112521 -0.339485 -0.2514076 -0.61201483 0.08556256 0.3548899 -0.6864862 -0.21705617 0.26320517 0.12367339 -0.0043402724 0.07853743 -0.5540541 -0.41445014 0.47067246 -0.35402107 0.2122056 0.23652181 0.8556729 0.4949823 0.48859626 0.6492725 0.14097375 0.56527066 0.2698257 -0.21145788 -0.6247682 -0.44544205 -0.78520995 -0.047339566 0.37624097 0.74838763 0.43276283 0.3900771 -0.25284463 0.36896712 -0.14280176 -0.2533333 0.3087153 0.59678435 0.508282 -0.5916263 -0.46511447 0.50085104 0.61070013 0.29077992 0.1285002 0.86719173 -0.23039494 0.05200754 -0.2515921 -0.5550229 -0.606436 0.15248244 -0.31146312 0.57745826 0.2920487 -0.1779496 -0.22306496 0.6806035 -0.28075534 -0.09985689 -0.22485584 0.06798968 0.5584425 -0.03749227 0.052458383 0.10834396 0.5321125 0.1149132 -0.6348111 -0.71419466 0.6564621 -0.7393386 0.30085653 0.14752439 -0.72917604 -0.5917838 0.7263286 0.67791337 0.38260135 -0.036919773 0.84216136 0.87789106 0.5086244 0.26349783 -0.8832525 0.9003643 0.4249815 0.48310506 -0.13964011 0.13043024 0.1601345 -0.16055469 -0.15584461 0.53408694 0.84067327 -0.032658584 -0.4706722 0.48046687 -0.040219467 -0.41518164 0.14577918 0.35697442 -0.38927022 0.64366746 -0.5898055 0.7701058 -0.28633228 -0.027962837 0.33559915 0.015072917 -0.730898 0.85420424 -0.6755891 -0.2306688 0.11073629 0.5762537 0.54249954 0.43704677 0.48201808 0.12373127 -0.013876953 -0.46019092 -0.35638055 0.5933924 0.7768757 -0.57422245 -0.5418706 -0.7739042 -0.88847 -0.31789866 0.75484365 -0.3954301 -0.61232543 0.4244704 0.38728568 -0.38995865 -0.3770908 0.3214954 -0.5304462 0.23583667 -0.60111564 -0.37196 -0.20733851 0.47802746 0.3700196 -0.08467865 -0.07849769 -0.55591387 -0.44928598 0.33128092 -0.25372636 0.381477 -0.41119355 -0.4123803 0.24688427 -0.72473127 -0.11330201 -0.091723844 -0.24420406 -0.20366244 -0.5558431 0.7198772 0.56192327 0.06710459 0.20875022 0.16036335 0.20728947 -0.044561975 0.042684276 -0.6291693 0.49230212 0.55450326 -0.013142838 0.57645774 0.3742232 0.80223995 0.49379066 -0.24184842 -0.28992563 0.7795867 0.7618929 0.60033435 -0.038890228 -0.3754357 -0.30235687 -0.2013396 -0.14895712 -0.7504067 -0.16192445 -0.5608403 -0.4545819 0.18121418 -0.33145675 0.7305341 -0.43247017 -0.71423143 0.40062553 0.50230247 0.7318934 0.47893766 0.7158111 0.250689 0.2720714 -0.76931405 -0.40540358 -0.15238261 0.29868442 0.2459296 -0.12934054 0.7250843 -0.6688995 0.78179663 -0.34910747 0.22698899 0.15938544 0.2768238 -0.76886237 0.17683469 -0.101178095 -0.14179131 -0.41650492 0.44232473 0.048130203 0.19646473 0.7206967 0.08597606 -0.1424331 -0.040765952 0.8651597 0.17523785 -0.179363 -0.081448205 -0.6345644 -0.09552646 -0.46125942 0.1942692 -0.20327893 0.34313837 -0.21676272 -0.2003964 0.21938884 0.74573743 -0.26903462 0.025662914 0.19658914 -0.5974806 -0.28700036 0.08298454 0.47467023 0.034591325 -0.79721856 0.79488313 0.08082882 0.18895143 -0.46748394 -0.60934126 0.4859609 0.39756575 0.41387802 -0.6592413 -0.62626094 -0.33080593 0.22154623 -0.80359507 0.5896201 0.39329788 0.7900299 0.22057341 0.611983 -0.74446934 0.7685522 -0.91967326 -0.4797967 -0.7180026 0.67776316 -0.22318846 0.5971908 -0.53837323 0.5964074 -0.60378015 -0.33658305 0.13435891 -0.5822121 0.65377605 0.4285568 0.61299086 -0.051489137 -0.4328531 0.114641026 0.5023104 0.2666853 6.427057e-06 -0.3398587 -0.17305595 0.11634043 -0.6420762 -0.37989333 -0.36229694 -0.4056415 0.4099017 -0.6933787 -0.071983464 0.43905914 0.24177426 -0.16484682 -0.64543295 -0.28268045 0.6461 -0.52613896 -0.135366 0.7144593 0.10728885 -0.42246687 -0.12410185 -0.6857654 0.28146368 0.31648076 -0.05326568 -0.31990972 0.0851418 0.20565087 0.554058 0.118862875 0.61011475 0.4832405 -0.7555314 -0.024713345 0.21488607 0.3310802 -0.57568395 0.45027003 0.78488797 0.05450114 -0.2576213 -0.17565611 -0.1058186 0.6105416 0.117667735 -0.22113927 0.12721978 0.36732814 0.3524941 0.7435157 -0.035645287 -0.44371322 0.5500343 0.16895664 0.26900098 0.41366816 -0.6094697 0.10467774 0.18195532 0.20679073 -0.5283781 -0.6456792 -0.44206578 0.37182185 -0.038371094 -0.7160221 -0.32036412 -0.05083624 0.32883212 0.29074255 -0.7867663 0.47968075 0.52710956 0.3663695 -0.76056504
-0.019916916 0.29111254 0.21984215 0.07790149 0.2585611 -0.30164042 0.7022442 0.014518756 -0.36867595 -0.080869965 0.1432469 -0.34683412 0.34712547 0.6642559 0.05571869 -0.4141928 0.38325328 0.717462 0.15051146 0.32798624 0.43846565 -0.38435632 0.48372817 0.82108265 -0.06662224 0.48442492 -0.26468873 0.22922337 0.0989741 0.17483605 0.2661274 0.2826666 0.2958651 -0.58823127 -0.10451274 0.3292655 -0.12854432 0.7554287 0.5971686 -0.30583948 0.2790786 -0.31715178 -0.48291498 -0.48790836 -0.23518333 0.53142995 0.0019637127 0.8680478 0.47437936 -0.50270903 0.07801585 -0.15521453 0.15596183 0.7520014 0.30102032 0.25611418 -0.30416176 0.27587867 -0.24261253 0.7546105 -0.21200259 0.9515831 0.18599616 0.10609671 -0.084658846 -0.42224762 -0.5528312 -0.11744484 -0.42181888 0.38253528 -0.5924888 0.1239035 -0.23748201 0.77598834 0.27250594 -0.00015701735 -0.0019196761 0.8387599 0.07979857 0.307789 0.31732774 -0.38012838 0.16560338 -0.16648054 -0.2838573 -0.6157288 0.67023194 -0.78626466 -0.43419662 0.22009055 -0.4199647 -0.15946251 0.7656235 -0.32189438 0.57332265 -0.058469325 0.8947258 0.5569011 -0.64337015 0.28580037 -0.22577019 0.95590377 0.5732352 -0.33822164 -0.44431892 -0.8054073 -0.12333094 -0.58915246 -0.31001318 0.5897996 0.4273655 0.25262368 0.04073538 0.46985728 -0.39910606 0.4444206 -0.426918 0.27101916 -0.14911278 0.50240856 -0.28151265 -0.29818878 -0.67165315 -0.111776195 -0.035408054 -0.6367935 -0.013060792 0.19701923 -0.03901237 0.030834807 0.32077122 0.6401623 0.64703256 0.06804677 0.22628175 -0.40866303 -0.046102133 0.3272109 -0.01041317 0.22277562 0.17643882 -0.5839993 -0.34766284 -0.87246865 -0.15015128 0.12444328 -0.094901316 -0.3213362 -0.61597663 0.51805997 -0.32317713 -0.34588814 0.34070325 -0.12361767 -0.3102445 -0.25035122 -0.40376794 -0.577734 0.44297627 0.39204252 -0.64443016 0.389816 0.22135055 -0.2829304 0.046140015 -0.12090514 -0.6482528 -0.4339004 -0.34422544 -0.42813736 0.09190345 -0.39593124 -0.44945142 0.4250828 0.19011945 -0.57745 -0.57603717 0.45201865 0.21203853 0.7223544 -0.2947892 -0.049943127 -0.43021157 -0.12002331 -0.05205966 -0.50007844 0.35963708 0.73621786 -0.35228005 0.34896508 -0.33529738 -0.20622261 0.40665475 0.6332255 -0.69783914 0.08542897 0.16757944 0.095256075 -0.06978216 -0.41253844 -0.3397829 -0.06470268 -0.3281096 -0.6414901 0.39737076 -0.5893884 -0.35672626 -0.46348974 0.2773624 0.42304474 -0.29104912 -0.047341134 0.044523 0.008701859 -0.58353776 0.28811803 -0.4249029 -0.4473486 0.29966205 -0.6833524 0.14192586 -0.32570288 0.22622776 -0.3947793 -0.74171567 0.25378782 -0.1806757 0.73745626 0.526715 -0.2936408 0.09920683 0.4138493 0.1914814 0.4141255 -0.42592075 0.6353159 0.08126496 0.59567696 0.25513747 -0.50831676 0.5889201 0.021223603 -0.41721675 0.12922317 0.6968701 -0.50165194 -0.019645661 0.15790889 0.22355159 -0.37834746 -0.40095302 -0.021876168 -0.48905507 0.72440416 0.2425933 0.4943586 -0.6218508 0.5855783 -0.38214895 0.048664924 0.17089726 -0.040936753 -0.13139457 0.5102082 0.6241454 -0.09283593 -0.5800366 0.50255483 0.4358585 0.2373995 -0.011397166 -0.12538977 0.081702545 -0.2723845 0.30345243 -0.79629314 -0.360028 0.90277505 0.27004093 -0.45549497 0.0381698 0.6742738 0.31946367 0.60730404 -0.1388538 -0.854057 0.5640679 -0.23562253 -0.57458115 -0.5552473 0.22353268 0.39430636 0.7848934 -0.38151538 0.47773787 0.3141809 -0.46076474 -0.37934703 -0.81931657 -0.34575534 0.29622036 -0.33313853 -0.5585508 -0.2869473 -0.731509 -0.3013638 0.26470435 0.001430008 -0.53947216 0.1034394 0.075754255 -0.6525921 0.020366427 -0.048237845 -0.5806121 0.68265885 -0.26575273 0.15020609 -0.35904 0.075033054 -0.24747407 0.22061718 -0.5409139 0.022632943 -0.08283046 -0.10096 0.40521544 -0.500905 -0.09226455 -0.1945793 -0.70453894 0.09476992 -0.14867745 0.35979512 0.47225866 -0.06939854 -0.7267158 0.3356595 0.72703105 0.38490784 -0.5125263 -0.4524049 -0.08929942 -0.31804782 0.51490086 -0.3044746 -0.17742378 0.43302137 -0.39529583 0.50926656 -0.06330209 -0.33126327 0.026277682 0.6910994 -0.0731273 -0.15163526 0.042575564 0.17723842 0.5133651 0.6381821 0.6796958 0.041901782 0.66504735 -0.51305187 0.5484004 -0.43434054 -0.43665326 -0.34273928 -0.3708273 -0.049199 -0.08111434 -0.19985391 0.08591773 0.38967863 0.2354555 -0.29682657 -0.090237156 0.04367785 0.3508193 0.14392662 0.044077776 0.18954971 0.20057164 -0.6755333
0.24445805 -0.3930911 -0.41239128 -0.8941266 -0.11699034 -0.34521937 -0.5949536 -0.30557212 0.31174278 0.9475425 -0.72970563 -0.008980244 0.51919675 0.8619443 0.4540363 0.031545013 0.14564444 -0.11250938 -0.5817513 0.82188165 0.56336117 -0.87030405 -0.64567006 -0.5056715 -0.6881651 0.020788692 -0.72253287 -0.44344208 0.09176351 -0.4960112 0.7138976 0.5240885 0.9629821 0.74283487 -0.65779346 -0.0035383776 -0.4471129 0.3861634 0.22426865 0.85964495 0.42703015 0.5381026 -0.4250721 0.6786461 -0.48016405 0.68766624 -0.90010303 -0.350688 0.054443203 0.87067455 0.46094918 -0.2032766 0.38875353 0.79515654 0.68598187 0.7457006 0.26431516 0.50666386 0.7275234 0.3737867 0.04652731 0.80322284 0.83422226 0.557473 0.38782412 0.65413547 0.6251836 0.9786516 -0.5848757 -0.4891439 0.48142204 0.7153726 -0.8446249 0.63914615 0.46238467 0.46031904 -0.69426167 0.42415738 0.68703926 0.6555245 0.69403577 0.47204053 0.87591 0.07925577 -0.6617661 -0.67277986 0.9285891 -0.6518743 0.23877439 0.27730554 0.8301132 0.32064304 0.6152707 -0.55218285 0.011045344 0.9277052 -0.21329378 0.7314011 0.8908852 -0.42389223 -0.8171678 0.7100608 -0.3205746 0.18868932 -0.79640245 -0.42389807 0.12248055 -0.690588 0.8698647 0.8912608 0.6517168 0.8122245 -0.881828 -0.48196906 0.3169019 -0.68037367 -0.18791157 0.4932924 -0.47081524 -0.034313194 -0.9689318 0.579904 0.5927022 -0.18597548 0.71185684 -0.22703335 0.28012532 0.72712034 -0.7365562 0.3838607 -0.6503344 -0.6189708 -0.36576697 0.85518014 0.77901584 -0.5868257 0.22354728 0.26913077 -0.040132433 0.55915874 -0.47298068 0.22066262 -0.56868166 -0.9634025 -0.655314 0.85223526 -0.16582376 0.042570896 0.4869616 0.7985726 0.64925766 -0.010475107 0.42631155 0.61001307 0.16559069 0.6702701 0.07884635 -0.678425 0.24897206 0.09250678 0.20729983 0.20240414 -0.68034357 -0.67025816 -0.06771481 -0.12116285 -0.091515586 0.79410475 -0.6896318 -0.099112816 0.89286965 -0.80702573 0.781122 0.23861548 0.4179499 -0.83835256 -0.2577139 -0.2698837 0.68574095 -0.3868239 0.1405406 -0.4451236 0.47615713 -0.42057985 0.8924059 -0.8673544 0.070472404 -0.35548204 0.6264751 0.5736763 0.054397866 0.7783645 -0.16986883 -0.7955469 -0.56158036 0.2959611 0.3442333 0.6896372 0.6608435 -0.85392547 0.41571414 0.890739 0.40255234 -0.39943436 0.23596719 0.6577748 0.8067223 0.51005304 -0.5849921 0.3750075 -0.92323965 -0.65767723 0.5292063 -0.7348769 0.09565577 -0.64511925 0.7090166 -0.744554 0.10213941 0.40928903 -0.36542657 -0.5395763 0.5841823 -0.17559692 -0.21737365 0.61632043 -0.2874436 0.44542432 0.65235096 0.7542996 0.22870152 0.2309671 -0.70644104 0.4234507 0.75939137 0.42078683 -0.8575488 -0.8262712 -0.71911156 -0.3404184 0.71777886 0.6031375 -0.7973844 -0.31918833 -0.37296867 0.6136741 -0.5405905 -0.6132505 -0.3181308 -0.51160973 0.19764683 0.65132856 -0.12878616 -0.1266734 0.5508269 -0.46951342 -0.7233983 0.6581543 0.08027901 0.3738256 -0.48160335 -0.5191017 0.31873688 0.9023318 0.6477568 0.28861788 -0.25376242 0.8455384 0.6735584 0.6238058 0.552947 -0.90477574 -0.42375278 0.52724767 0.6027009 -0.46274328 -0.29082716 0.7989636 -0.4213398 -0.6293134 0.42961025 0.17148943 0.35692453 0.5609243 0.6566144 -0.72253716 0.037151277 0.5022878 0.4804487 0.11039016 0.88616514 -0.38364536 0.57488847 -0.79730815 -0.81377864 -0.8380379 0.3678221 0.5679362 -0.029974774 0.32708013 0.94670784 0.5771851 0.11667489 0.8192261 0.7000089 0.8901788 -0.7640631 -0.59297365 -0.5638999 0.7704811 -0.23064291 -0.694491 -0.2914095 -0.8954009 -0.073439464 0.44187388 0.2661083 -0.4729262 -0.4403754 -0.46027124 0.32809728 -0.708109 0.12860201 -0.10880568 0.26527646 0.57992756 0.58223844 0.83667547 0.5819672 0.25557673 -0.49558496 -0.29768026 -0.12466015 0.2667345 0.22174866 0.80771345 0.6306042 0.8364721 -0.8573313 0.47871846 0.69765025 -0.47065628 0.15426506 -0.6221528 0.64094895 -0.76274276 -0.38890836 0.124410674 -0.14453326 0.75922966 0.89197254 -0.2661263 0.47542405 0.94749624 0.60517406 0.33665386 0.57027376 0.42559308 -0.53490067 0.91044796 -0.8054321 0.7456996 -0.47025305 -0.73664725 0.66230106 -0.9553244 0.20190403 0.37855947 0.1818394 -0.78934634 -0.50950474 0.724819 -0.44687775 -0.36061522 0.21907742 -0.3154025 -0.69400054 0.45306167 0.6203998 0.7475113 -0.0063413605 -0.45748046 -0.32259738 0.4575696
0.7715359 -0.74574226 -0.058168467 -0.73977685 0.32185057 0.54970354 -0.2255142 0.4573546 -0.5289633 -0.3549304 0.8536332 -0.5478416 0.48152784 0.17054221 0.8586767 0.71025705 -0.9638051 -0.59839094 -0.81905615 0.23546278 -0.3440282 0.18899918 0.80848026 -0.5760284 -0.8384779 0.38409188 -0.61694163 0.113423586 -0.77210355 -0.7577438 0.8052077 -0.45149162 0.6219903 0.7261219 -0.58512646 0.8467372 0.0664739 0.44988576 0.7342582 -0.52996176 -0.37569875 -0.23914102 0.88722336 0.45524627 -0.16799968 0.16924495 -0.3541558 -0.8448537 0.05902581 -0.49730107 -0.7470253 0.63890874 -0.8132056 0.61632174 0.7760434 0.6572342 -0.8337756 -0.7626797 0.87521327 -0.65991646 0.684081 -0.30728108 -0.6772927 -0.71476614 -0.8057787 0.5841832 -0.69495875 -0.046819825 0.7894089 0.49628124 -0.6987279 -0.1488661 -0.04604846 0.69097596 0.69200236 -0.7772682 -0.5234363 -0.24550392 0.9719322 0.8642473 0.7972906 -0.5377482 0.4946331 -0.47277433 -0.7889084 0.44998527 0.4975374 0.8124805 0.51357734 0.44505277 0.974179 -0.4956429 -0.77199084 -0.886737 0.44273895 -0.75838625 -0.84138775 -0.3192001 -0.6640883 -0.84403825 -0.079407685 0.780138 0.29064488 -0.6077507 -0.24785575 -0.17357126 -0.52438504 -0.8752489 -0.5250048 -0.5285401 0.82319236 -0.57556236 -0.8885115 0.3663825 0.8804056 0.58726287 0.53923887 -0.89503044 -0.5757698 0.71699214 -0.9702786 0.7663085 -0.42552158 0.25227553 0.67423576 -0.5396575 -0.59458095 -0.69218075 -0.8501608 -0.7402702 0.53853995 -0.70883256 -0.83455896 0.006680728 0.84839237 -0.8439195 0.69305336 0.40937534 0.8702134 -0.6573431 0.5861498 0.5174212 -0.7651317 -0.86430717 -0.8423253 -0.6045464 0.93575275 0.6122176 0.43012744 0.61052305 0.21862745 -0.6684292 -0.71679634 -0.40627652 0.7192117 0.3072823 0.13277315 0.59875673 -0.019423913 0.07459365 -0.513091 -0.25284693 -0.15732153 0.6689558 0.84652466 0.7542433 0.30713302 -0.09420535 0.074204415 -0.53949493 -0.87657595 0.51849353 0.7366264 0.47801575 -0.79283714 0.100731954 -0.69719136 -0.7340751 0.45106438 -0.2513467 0.033841103 -0.6321035 -0.4640427 -0.8355249 0.6012615 0.6949752 -0.7431211 -0.9198534 -0.46547687 -0.55610263 0.7631218 0.9199472 0.7214236 0.6258003 0.65104496 0.326818 0.77447134 0.6015977 0.30993024 -0.9056321 -0.85904485 0.667098 0.63924646 0.5073529 0.9012504 0.6764874 0.955323 -0.8485225 0.7558036 0.6833176 -0.8746611 -0.31945178 0.56431335 -0.7917792 0.064921334 0.79785043 0.8050753 0.4775604 -0.10149852 0.55622333 -0.7863731 -0.5002062 0.86446184 0.42629153 -0.7411635 -0.2866912 0.3515169 -0.120032504 0.57402396 0.74329627 -0.74706846 -0.8791995 0.43593454 0.1900388 -0.27850157 -0.6323227 -0.50414103 0.37247968 -0.5580543 0.8721076 0.7650641 0.27886373 0.66078067 -0.81304955 0.69120157 -0.565957 0.29643106 0.95230234 0.5272936 0.6332298 0.24819174 -0.75303483 0.2730457 -0.25031343 0.28048378 -0.17163916 -0.20044428 -0.78191024 0.3749929 -0.635567 -0.7930103 -0.62628055 -0.5497646 -0.77954227 0.46959716 -0.54994667 -0.6689923 0.8715871 -0.03296142 -0.4757291 0.7660265 -0.43035614 0.8613161 -0.08089376 -0.47494584 -0.12692825 -0.11558262 0.5355419 -0.875931 0.8551663 0.74496824 -0.7829473 -0.4752559 0.8375694 -0.77014697 -0.49108198 -0.5134663 -0.7720213 -0.7236847 0.08671272 -0.8203784 -0.66955274 -0.824447 -0.6753694 -0.06735384 -0.15347417 -0.69870764 0.76269907 0.19158618 -0.5753423 0.91148776 -0.072156176 -0.69236624 -0.4187826 -0.702232 -0.6050518 0.07413283 -0.14709829 -0.8401168 -0.34897935 -0.7393911 0.56001383 -0.8290577 -0.29563296 -0.6989617 0.036166277 0.3470052 0.66175395 -0.75885504 -0.59344363 -0.5069455 0.62074983 0.53253 0.3138209 0.22970085 -0.7053257 0.63975936 0.87962514 0.8426936 0.42912957 -0.44733825 0.7328287 0.9640416 0.5113284 0.36184567 0.7378963 0.84929645 -0.06780266 -0.77986884 -0.11378558 -0.444489 0.4466013 0.74903613 0.9628989 -0.7288676 -0.6683501 -0.76694375 0.8249032 -0.5451441 -0.7771355 0.89571166 0.687495 0.44599292 0.10514339 0.17949376 -0.121639095 -0.7316193 0.70898974 0.75972676 0.59868246 0.5465661 0.4265559 -0.7147108 0.801309 0.75896335 0.5636273 0.22606899 -0.10285741 0.67830867 -0.14175999 -0.23599443 -0.64745796 -0.5852476 -0.9449372 0.11209751 0.83767045 0.19926831 0.3957317 -0.43250602 -0.5716592 -0.039263703 -0.21523166 -0.9208072 -0.4091048
-0.2873549 -0.79059273 0.7888722 -0.08912152 -0.51942265 0.18064374 0.24673809 0.34304732 -0.71739537 0.82588214 0.5047884 -0.75740856 0.5492477 0.1434353 0.8333044 0.032206424 0.2657034 0.12618913 0.18018605 0.13840717 -0.492878 -0.13243018 0.8612169 -0.15501563 -0.84875655 0.29467115 -0.294817 0.11859545 -0.22638823 -0.1683228 0.92291343 0.23832741 0.37424305 -0.8248782 0.1846054 0.43899223 -0.16489738 0.7238498 -0.4255807 -0.39101613 0.50415444 -0.169164 -0.71638346 -0.6659597 0.55285907 -0.77457076 0.20144203 0.21951072 -0.56232667 0.06726032 0.22919421 0.92955095 0.38001585 0.68890333 0.08800927 0.9655772 0.35311314 -0.21475433 -0.12266171 0.025920061 -0.14592049 0.20098694 -0.22593465 -0.743615 -0.66184837 -0.038088467 0.41211605 -0.064607665 -0.09185291 0.58462703 -0.7358687 -0.29785472 0.4661358 0.8656712 0.68930054 -0.92545056 -0.25412828 -0.595916 -0.057382435 0.25867334 -0.03822726 0.39743894 0.7903153 -0.11137053 -0.93441474 -0.3445445 -0.3074223 -0.77912027 0.8634047 -0.07474528 0.7077552 -0.29939938 -0.730785 -0.72201395 0.6372739 -0.4684779 0.77471113 0.922032 -0.19538677 0.14122327 -0.8002355 0.43281686 0.43748158 0.3884943 -0.036725476 0.33926067 -0.3053839 0.239597 -0.08778968 0.7515628 0.68445534 0.58830726 0.16569667 -0.49559817 0.0290512 0.11883118 0.51508677 0.025301773 -0.39183345 -0.20627524 -0.020021014 0.7071703 0.17954041 0.85934305 0.32443428 0.4593166 -0.9245282 0.9628307 0.09188571 -0.96333313 0.81813747 0.5724072 -0.12292541 0.48110348 0.7106182 -0.34052047 0.5004382 0.37542105 -0.18237917 -0.8528574 -0.43416116 0.9308899 -0.7701838 0.1426703 -0.75949574 0.33834484 -0.4247223 0.6330203 -0.07436205 0.035979632 -0.70577896 -0.5062439 0.103705116 0.004970167 0.3627177 -0.71538097 0.35302085 0.19295275 -0.32163075 0.7351043 -0.64040875 -0.038820527 -0.3877547 0.7295038 0.5154818 0.60265625 -0.15138374 0.79920137 -0.53316873 -0.7332358 0.16880004 0.48018327 0.29044402 0.46886203 -0.52349246 -0.9029946 -0.6588071 0.26633486 0.44595408 -0.7624306 -0.6548145 0.34596398 0.3778321 -0.7360704 -0.59093785 -0.07508974 -0.6398208 0.20343003 0.37613273 -0.17421342 0.90084213 0.5042906 -0.24097563 0.7857109 0.66509056 -0.69275546 0.3015005 0.41294843 -0.04430735 0.3269787 -0.8273088 -0.45656028 0.34150004 -0.9265919 0.38251907 0.58604234 -0.73134804 -0.8720762 0.3320069 0.8483911 0.28197217 0.32142153 -0.044289798 -0.8349526 0.65914017 0.62739265 0.31391045 0.16481216 -0.63726246 -0.6898052 0.16771221 -0.8025143 0.9430265 0.65444523 -0.49689952 -0.0602907 0.264412 0.8766893 0.94870275 -0.47568107 -0.09649265 -0.0375783 0.43269464 0.43726954 -0.7832708 -0.55805546 -0.71426654 -0.683666 -0.8246416 -0.7873859 0.004113392 0.5418363 -0.6108161 0.3089346 0.42850015 0.2964772 -0.30349183 -0.06795457 0.37811676 -0.17445968 0.05035644 0.57056934 -0.48212245 0.9206537 -0.5666031 0.20930447 -0.22929145 -0.8671916 -0.5665193 0.053692177 -0.59581685 -0.9091038 -0.42445356 0.012697093 0.489811 0.90760636 0.06384201 0.3550574 -0.24490026 0.2590735 -0.7314055 0.065720536 -0.42689827 -0.24261118 0.041625984 -0.2934117 -0.8223072 0.39557496 -0.08286605 0.26268053 0.7288706 -0.36412534 -0.77670807 0.9475701 -0.4548923 -0.047124915 0.35786122 -0.34713623 0.14647876 -0.7075109 -0.5192486 0.09963918 -0.04751535 0.50725406 -0.8606995 -0.802695 0.036706597 0.24646872 -0.6114975 -0.32507592 -0.43359256 0.23221019 -0.8503202 0.031053986 -0.79261315 0.36831057 0.3040478 -0.3331169 -0.32423878 0.16596286 -0.07934209 0.40835088 0.1618579 0.7366552 -0.9594329 -0.8101959 -0.2970067 0.1699411 -0.8867681 0.14237423 -0.75078213 -0.66855013 -0.94425094 0.06282907 0.46577147 -0.5646835 -0.2261006 -0.06132569 0.63467705 -0.042956717 -0.69240165 0.87717956 -0.40532666 0.9539932 -0.94427913 0.110390656 -0.16411392 -0.43943378 -0.93209255 -0.33249176 -0.507394 0.85993654 0.6084219 -0.16655383 -0.0102851605 -0.8542884 0.11114814 0.43847007 -0.9071084 0.42757434 -0.10765954 -0.06731655 -0.46087185 0.9005202 -0.8816346 -0.15601294 -0.43663755 -0.3787819 -0.35249478 -0.72784615 0.37775496 0.20702583 -0.34950206 0.71066093 0.104859814 0.4389053 -0.61159235 -0.82138026 -0.34188813 0.33627465 -0.536631 -0.8290452 -0.5543097 -0.025779342 0.814042 0.30343175 0.6733226 0.49621394 -0.46648788 0.58618295 0.10156701 0.121546745 -0.74320745 -0.87812877
-0.16781864 -0.93976176 -0.017093033 -0.24132968 -0.0008536875 -0.037197936 -0.7997113 -0.6983142 -0.83333725 0.6073055 0.87239695 0.73779935 0.76318944 -0.8181323 -0.9168972 0.96323127 -0.104047656 -0.6911307 -0.4511121 -0.08167608 -0.1360007 0.55337304 0.33116058 0.9272146 -0.2732153 -0.89307725 0.56955147 0.25191677 -0.5945642 0.8909517 -0.08655756 0.8724897 0.6589979 0.12720531 0.2397937 -0.8539591 0.07365732 -0.09446442 -0.7714844 0.56192666 -0.17781559 -0.8473844 -0.8729881 -0.874426 0.0026101172 -0.26633 -0.94252235 -0.85757387 0.3944415 -0.9199107 0.9208973 -0.90042347 -0.905632 0.9193101 0.87444293 0.8480927 0.8517045 0.3452857 0.81131136 -0.2528165 0.47207016 0.9025203 0.32166553 -0.086720765 0.45821458 0.76755977 -0.7462255 0.9016851 0.4567694 0.89524496 -0.72185546 0.77971816 0.6676633 0.55665356 -0.60938525 0.33973733 0.7844484 0.8064305 0.7846106 0.8702781 -0.9594744 -0.5607245 0.8532603 0.8640568 0.6692505 0.31109014 -0.1733864 0.5625878 -0.15644711 -0.09381428 0.5717564 -0.24885437 0.79919076 0.328694 -0.92826176 -0.7299658 0.8755896 0.90596604 0.95103735 -0.64695203 -0.82972753 -0.15515496 0.8077839 -0.8961788 -0.66837513 -0.4687189 -0.940398 0.1536331 0.83788395 0.9389058 -0.41998753 -0.3868741 0.49814552 -0.11576787 -0.9073299 -0.9759083 -0.7317528 0.70052636 -0.9124305 0.5106799 -0.9070727 0.367144 -0.13608436 0.63760763 0.24466942 0.67801 -0.6112299 0.39980966 0.8489169 -0.42681563 0.54415774 -0.28011906 0.550321 -0.05324445 -0.3397528 0.38222814 0.21554391 -0.7522847 0.3018005 0.20850395 0.6649362 -0.3160592 -0.8947257 -0.06086108 0.8281217 0.37665623 0.39620173 0.48548445 0.89378667 0.97133243 -0.7529588 -0.2798006 0.58420426 0.64208305 -0.92104673 -0.084715575 0.9423066 -0.5469437 -0.9367957 0.87008953 -0.22569218 -0.7936381 -0.36607733 -0.53300005 -0.58275706 0.92556095 0.71626556 0.9178301 0.26722264 -0.49115372 0.015163923 -0.9098462 -0.20714556 0.86342084 -0.29709888 0.20517465 0.98652494 0.87273765 0.8491121 -0.65625644 0.8398776 0.31592417 0.38172135 -0.6425291 0.52973795 -0.9186767 -0.29635483 -0.6091138 -0.7854313 0.32708412 0.06526983 0.9226434 0.49975234 0.79955226 0.7870934 0.9095522 -0.72213644 -0.8492198 0.79989284 -0.41202217 -0.983122 -0.25649983 -0.43426836 0.9619214 -0.8193294 0.54010046 -0.369246 -0.8772217 -0.43558213 0.7786531 -0.90528154 0.1886312 0.2748306 -0.66275483 -0.33094755 -0.3843939 -0.5102068 0.43261075 0.75670385 -0.9617081 -0.8123741 0.74437416 0.44702554 -0.3506737 0.7101191 -0.32650346 0.94372606 -0.069137275 -0.012818422 -0.74554217 0.044706523 0.060443014 0.036227435 0.8861079 0.797296 0.3556707 -0.9494481 -0.44838643 -0.91241574 -0.8992452 0.19877744 0.00087442994 -0.94878054 0.3524472 -0.4200245 0.2311812 -0.76604486 0.67456424 0.6065403 -0.69683385 -0.38804185 0.88294137 -0.25931752 0.27018267 -0.9405077 -0.83689547 -0.9359171 0.7253981 0.20928347 0.85811114 -0.22193491 -0.50092435 0.80103976 -0.18065816 -0.26478618 0.003977984 0.8022404 0.88944936 -0.6631588 0.87726116 -0.59521115 0.7903535 0.86303985 -0.16588917 0.018440872 0.67876005 -0.8725687 -0.8573115 -0.043104082 0.87011254 0.2572046 0.88578534 -0.72690034 0.8766103 -0.24190179 0.31930873 0.8809527 -0.7566378 -0.91753423 -0.9106171 -0.9154836 -0.88511527 0.76841795 -0.8693708 -0.92369664 0.12828848 -0.8928324 0.34446806 -0.3304464 -0.5928956 0.5335899 0.24523914 -0.78867024 -0.5322642 -0.8547343 0.9328717 0.2899809 -0.3510558 0.86477506 -0.25276536 -0.55323064 -0.8526381 -0.07331149 0.6638886 0.07551035 -0.28902504 0.5074846 0.79504913 -0.41913408 0.0008938685 -0.51233757 -0.84973246 -0.87526774 0.37686473 0.75464046 -0.8443854 0.6847454 0.40510827 0.07856047 0.41740197 0.50581205 -0.8521501 0.28843057 0.47227478 -0.09947012 -0.7059879 0.47197357 0.8892901 0.6167202 0.23052703 -0.9294127 0.75900996 0.7963632 0.3598829 -0.8743652 -0.020429835 -0.89655745 0.6966543 0.7207179 -0.7569103 0.5578871 -0.8751385 -0.036809713 0.9563584 0.56674933 -0.8571502 0.7492089 -0.40162355 -0.82856077 -0.59892637 0.81951576 0.1854404 0.33323845 0.82869697 -0.8828378 -0.97332007 0.9576998 -0.89004374 -0.40652642 -0.8955321 0.07973777 -0.87577474 0.47966218 -0.95508456 -0.29020578 0.7866768 0.40768164 -0.87255585 0.0028190017 -0.41608763 0.8359232 -0.8507407 0.88935626 -0.87143815
0.6417343 0.5946614 0.58291274 -0.8688329 0.45597947 -0.10805326 0.5450483 -0.2979471 -0.6309708 -0.07925008 0.16912694 0.09766372 0.90201896 -0.61213857 0.58301014 0.7655418 0.16779085 0.550061 -0.75374097 -0.6835533 -0.73994595 -0.70310813 -0.54783076 0.6107475 0.77934045 -0.40269372 -0.5045018 0.18453275 -0.34475625 0.5931578 -0.7456674 0.5739859 0.87332773 -0.6391879 0.42695346 0.6423524 -0.20780125 0.593133 0.7285218 -0.77015847 0.49174726 -0.16920677 -0.61775327 -0.8472163 0.721526 0.30114037 0.75056 0.5512203 0.9023346 -0.8380783 -0.29940167 -0.5166229 0.7064361 -0.3867951 0.35936433 -0.7153087 -0.5415309 -0.7496075 0.1911564 0.75317013 -0.74976754 0.14112861 0.41677043 0.59136945 -0.6998121 -0.59904695 0.62889314 0.069154836 0.7381329 -0.31419066 -0.2692765 -0.5781951 0.92563486 -0.20240992 -0.27422324 0.40243697 0.7088798 -0.4517709 0.8730222 -0.66560966 -0.6881867 0.27351823 -0.27673134 -0.3023648 -0.44385436 -0.25985742 -0.62283254 0.51177955 -0.34961697 -0.24233711 0.14789024 -0.8810909 0.14261793 0.43856898 -0.49652267 -0.080969594 0.60097504 0.24440612 -0.4925315 0.10337169 0.50668234 0.82481015 0.50670516 0.550904 -0.69051844 -0.24465133 0.6748171 0.74368554 -0.5006729 -0.5508814 0.65795326 0.39631623 -0.6684975 -0.80169934 -0.506948 -0.44250733 -0.8540925 -0.5446456 0.48230055 0.5707981 0.27969518 -0.42299023 0.2878282 0.8966433 -0.7854258 0.3013209 0.38797465 0.59097975 -0.8490718 0.54394734 0.67565095 0.82678956 0.51540715 -0.7242198 -0.8170237 0.71983063 0.700613 -0.36192304 0.6226801 -0.08695384 0.7944987 -0.49330944 0.6937308 -0.5451851 -0.90605944 -0.5502204 0.877254 0.48703197 -0.698428 0.05090459 0.57505673 -0.4977324 -0.45468318 0.33561355 -0.55938995 0.27685103 0.8013966 0.15969639 -0.88755137 0.42526332 -0.6361054 0.3729692 0.9531927 -0.55632055 -0.19185863 0.34607646 -0.52856714 0.22356462 -0.72341114 -0.17578466 0.49976304 -0.790994 -0.40375894 0.48043555 -0.8004694 0.46618953 0.029852346 0.81607336 0.6882554 -0.069281265 0.39787278 0.48071244 0.31169835 0.53965515 0.23578244 -0.5158351 0.57966566 0.5735932 0.5041479 0.12135695 -0.5379466 0.7345811 0.5620639 0.3936857 0.4572221 0.79191893 0.7095999 0.5434437 0.4128282 -0.42490965 -0.7684146 0.40734425 0.064199924 0.4771378 0.6179935 0.46283248 -0.63365835 -0.8413686 -0.60354865 0.20166773 0.5374395 -0.4581431 0.8540139 -0.6738871 0.46621957 -0.64616275 0.7958422 -0.8465625 0.41090113 -0.814782 -0.42421362 -0.4059464 0.7453939 0.33097413 -0.87173754 0.38163155 -0.120794974 0.17142382 0.43055895 -0.6460473 -0.67062336 0.45342752 -0.49697462 0.8895009 -0.29929388 0.17383127 -0.47857842 0.64417475 0.7029033 0.6793282 0.7949056 0.76617974 -0.6789848 0.7135245 0.65659356 0.2333492 0.49891147 -0.38335064 -0.70558083 0.07624078 -0.11869575 -0.6296379 0.883523 0.9449738 -0.70861226 -0.4657008 -0.27654034 0.64086145 0.38752982 -0.8205536 0.4108116 -0.681657 0.41611284 0.28935304 -0.62179655 -0.23516496 -0.59848315 0.19233677 0.5137707 0.8093233 0.37887177 -0.54249096 0.6981464 0.6011421 0.7063322 -0.32325557 0.5973886 -0.63266855 -0.4629804 -0.472192 -0.44071612 0.4064426 0.8433988 0.19070911 0.11428222 -0.20911478 -0.3968762 -0.16654766 -0.77695847 -0.80134326 -0.062083945 0.28650782 0.046191145 -0.3373437 0.7345987 -0.68461204 -0.75127566 -0.8593163 0.81341964 -0.3864857 -0.5737454 0.22737028 0.0054867296 0.5718137 -0.7950717 0.44607028 -0.40739033 -0.4097744 0.32888532 -0.4012705 0.26636934 -0.5250762 0.19292882 0.58079547 -0.13400438 0.22226681 -0.3937151 0.79486835 -0.7150407 -0.21376252 -0.76517683 -0.6275218 -0.26980865 0.2654513 0.566461 0.10773334 -0.35110795 -0.5300709 -0.7924519 0.7607856 -0.22049247 0.5120365 0.51572657 -0.4015617 0.5478611 -0.40067706 0.4135759 0.43863308 0.26543358 0.8052643 -0.9253815 -0.61068255 0.87361497 0.18348816 -0.9090406 0.68624914 -0.82462645 0.68681604 -0.47952682 0.28154626 -0.5735164 0.4390615 0.66152436 0.4919672 0.55558443 0.45871475 -0.4728661 0.5159313 0.8155046 -0.45614117 -0.23726803 -0.5407656 -0.5544815 0.685959 -0.625332 -0.95353955 0.89669204 0.091243185 -0.6528127 0.110114485 -0.36927152 -0.03267893 0.906503 -0.9035081 -0.7472765 0.6999263 -0.6012438 -0.78229225 0.5824702 -0.71456236 -0.5797986 -0.7350695 -0.40577623 -0.54225963
-0.62695175 0.23632458 0.7576252 0.11375684 -0.37128782 -0.019937124 0.15075213 0.6576235 -0.30014324 -0.42262462 0.07127084 -0.6276586 0.72179884 -0.58507216 -0.2562206 0.70539814 0.2775822 -0.65352017 -0.26708457 -0.23544587 0.17446308 -0.7279444 0.49020752 -0.28034386 -0.120975964 0.5012861 -0.18734309 -0.5641649 -0.3958367 -0.1764378 0.122369796 0.5664056 0.8535877 -0.7770325 0.12884511 -0.28085446 0.64641714 0.06373261 0.5650477 -0.55191 0.7234508 0.02789905 -0.45262387 -0.9133487 0.19449839 0.07505926 0.87189794 -0.2606741 0.7904273 -0.56226283 -0.38232157 -0.06132389 0.24396527 0.22562438 -0.6853611 0.5955219 -0.31923792 0.52370375 0.54395515 0.8896298 -0.07710544 -0.15502961 0.4071572 -0.49219874 -0.5214337 0.36644712 -0.16721119 -0.436122 -0.37728724 0.6078343 -0.35003206 0.25433055 0.6845661 0.4086403 -0.40839225 0.15424535 -0.5200125 -0.09588264 -0.13052103 0.36107773 -0.6846546 -0.3281454 0.475079 -0.4907254 0.11780592 -0.50815713 0.4097308 -0.5420747 0.63782996 0.038565055 0.4249698 -0.16041063 0.45898145 0.5363308 -0.5433261 0.060612217 0.5350583 -0.43241102 -0.60671145 -0.22206277 -0.3172305 0.47701412 0.2134456 -0.7987992 0.39545488 -0.35751072 0.37196314 0.38200384 0.698185 0.5667401 -0.35032028 0.1794861 0.33250767 0.34985358 -0.12417607 0.087058425 -0.3306436 0.7620347 0.29553357 -0.7888588 -0.38967362 0.67192477 -0.15192497 0.82743615 0.84283507 0.30332416 -0.45188153 0.7391362 0.10822694 -0.39921927 0.14953807 0.49478775 -0.7230173 -0.23683679 0.19481832 -0.7506807 -0.17042625 0.3318218 0.1411096 -0.36488405 -0.65202975 -0.4075578 0.43930966 -0.38990808 -0.71253616 -0.013754221 -0.15319388 0.2776395 -0.3203907 0.1898158 -0.28524688 -0.7851757 0.18489951 -0.37387547 0.24081968 0.16089644 -0.5674011 -0.26319745 0.41091308 0.19910794 -0.7746009 -0.73768985 0.054414615 -0.43198243 -0.5875454 0.5674621 0.35793796 0.55435234 -0.23311304 -0.2932347 -0.20686302 -0.83245564 -0.4263546 0.72420025 0.025168717 -0.04230011 0.13830069 0.58361435 0.86077905 -0.7314851 0.33333826 0.5658888 -0.13201363 0.23039977 0.39655685 0.057957258 -0.40750304 0.47465968 0.07022054 -0.20365097 0.7262124 0.16605379 0.75261456 -0.38326156 0.13440602 -0.8688007 0.4769259 0.68179566 -0.53214496 0.53139484 -0.51062465 -0.3487465 -0.15176037 -0.81062466 0.22852893 0.19156232 -0.6987941 -0.43997633 -0.28559002 -0.6635704 -0.07380817 0.28570554 -0.40924847 0.15704423 -0.029164717 0.7110801 0.8636715 -0.14487915 -0.4927932 -0.00319238 0.66018325 -0.46021637 0.71628773 -0.29116836 0.35393658 -0.5334578 -0.45088196 0.20282012 0.3780291 -0.7125015 -0.29866868 -0.10739788 0.27440223 0.854981 -0.7584164 -0.055494726 -0.04478154 0.4663142 -0.0709042 -0.7339153 0.1928014 -0.25516427 -0.7106999 -0.51380247 0.22732823 -0.10952146 0.068865746 0.4458346 -0.35372972 0.46806768 0.20769481 0.046956345 -0.3755269 0.74760866 -0.86317766 0.7809926 -0.35813197 -0.5374268 0.3554272 0.21664403 0.5078565 -0.56145936 -0.5914927 0.53344727 0.5037051 -0.005273397 -0.60870034 0.67700386 0.028036993 -0.566408 0.6192373 0.6901057 0.64865863 0.6369285 0.81923735 -0.50495493 -0.71369755 -0.19614795 -0.5404133 -0.3641227 0.3144039 0.35845593 -0.5032177 0.69609493 0.41685534 -0.5678682 -0.62314135 -0.5585244 -0.36931217 -0.8188119 -0.31276304 -0.52287227 -0.30107826 -0.12217788 -0.5043274 -0.7999797 0.10390359 -0.5525535 -0.67957866 0.68523467 0.07208513 -0.53388023 0.33551145 -0.31088644 -0.6138082 0.6325553 -0.6171796 -0.46777123 0.4897266 0.33842793 -0.6761361 -0.16086942 -0.17015365 0.38793215 -0.61421156 -0.13074467 0.447445 -0.34037313 -0.531364 -0.6053003 0.63504887 -0.72340345 -0.534578 -0.6568638 -0.48628134 -0.4082773 -0.4687342 -0.7093611 0.24723442 0.14791615 -0.7469362 -0.24506587 0.5989821 0.91092724 -0.58086437 0.5263417 0.491944 -0.35017446 0.5090985 0.6458222 -0.5288546 0.054115362 -0.46173462 -0.8753286 0.2462096 -0.024721295 0.25082397 0.20827322 -0.58865 -0.444835 -0.78937674 -0.48223144 0.49500075 0.07866372 -0.6827508 -0.27584383 -0.50195944 -0.4310034 -0.532287 -0.47518682 -0.8030303 0.6265588 -0.48798805 -0.3897734 0.7677186 -0.81186146 -0.16239819 -0.7275646 -0.2871656 -0.7493748 -0.81466526 -0.786495 0.6461715 0.12222534 0.5606303 -0.28470498 0.32501468 0.62794507 0.14259902 0.6865059 0.1253378 0.65422857 0.62297297 0.11613247
-0.25092912 -0.6151009 0.71238214 -0.41787803 -0.14367387 -0.614017 0.026425662 0.39952153 -0.42296544 -0.5021902 -0.2283629 0.5168896 0.8070859 0.15672222 0.41726106 0.74029076 0.40584153 -0.30434033 -0.8948928 -0.12890527 -0.0077964645 0.096858405 -0.17042644 0.44035032 0.103989415 0.42700627 -0.6884967 0.28819177 -0.25893664 0.57605046 0.5095581 0.15144326 0.4843143 -0.30343023 -0.4864096 -0.33318913 0.24331772 0.27668637 0.11461682 -0.56915146 -0.053665053 -0.31938264 -0.20740834 -0.91013557 0.038752366 -0.3159366 0.8702962 0.4569326 0.37301856 0.139115 0.59127176 -0.21317638 0.037684277 0.25989956 -0.035478547 0.104384474 0.021875232 0.1878088 0.68211675 0.6470502 -0.68561 0.592746 -0.35074028 -0.27291095 -0.0023539688 0.2589939 -0.086498395 0.49599487 0.37703103 0.95177704 -0.30069578 0.14078853 0.72775346 0.5688677 -0.039640084 0.17115678 0.12751244 0.17023028 0.11473119 -0.2957219 -0.4597404 0.016181534 0.20247222 0.29636762 -0.219817 -0.3580838 -0.21220082 -0.37416118 -0.18760642 -0.5866372 -0.19510028 -0.4632048 0.674169 0.41098446 0.28489763 0.41280812 0.5720102 0.6056762 -0.68603396 -0.4086961 -0.62099606 0.04232094 0.36298364 -0.22877757 -0.4516274 -0.1677113 0.14197922 0.43676695 0.020629931 -0.20944667 0.22484662 -0.2441543 0.3841212 -0.1395663 0.24250682 0.19311298 -0.81646866 0.19619773 -0.06074925 -0.32615197 -0.1861349 -0.1398723 -0.41563672 0.84260947 0.28530958 0.3445002 -0.5196997 0.80632937 -0.19919299 0.052681137 0.75879616 -0.6867867 -0.35033345 -0.61517364 -0.4495472 0.5745789 -0.15324548 -0.256952 -0.3235805 -0.62622255 -0.55645746 0.8380134 -0.06784535 -0.36489806 -0.70950603 -0.24607244 -0.054460112 0.7209302 -0.9086134 -0.35745767 -0.21294977 -0.084083125 0.66424763 -0.39149275 -0.75556386 -0.60641724 0.34264597 0.72865754 -0.07016455 0.14853774 -0.2823897 -0.5578814 0.97492045 0.06239977 -0.6518636 -0.4416343 -0.073051125 0.048038013 -0.046862945 -0.7234809 -0.41962224 -0.124212466 -0.6164033 0.23815481 -0.612082 0.40211496 0.10186639 0.62133044 0.46299005 0.16049701 0.5947747 -0.7600148 -0.33433086 -0.5026663 0.25442934 -0.42092237 -0.21049312 0.27066997 0.07612947 -0.5966233 0.60066384 0.7009231 0.20027876 -0.116771445 0.14926553 0.28338304 0.51471114 0.31799233 0.22555766 0.45068198 -0.67337567 -0.3674492 0.09314048 -0.9043727 -0.06497577 -0.36481497 -0.56676185 -0.4207947 -0.3419689 0.04426647 0.38637656 -0.44867563 0.42664742 -0.37773517 -0.1444849 0.31858 0.56825656 -0.1709656 -0.31424034 -0.84733033 0.74894464 -0.45939115 0.31578818 -0.49938476 -0.2048356 -0.4698112 -0.20524321 -0.67456377 0.1305943 -0.6564217 0.0399903 0.12774943 -0.13226525 0.61349887 0.47089756 -0.82720506 0.5220247 -0.17034388 -0.32881033 -0.7206744 0.024772264 -0.1199029 -0.74960786 0.118966416 0.29494628 -0.95814604 0.24809137 0.05066116 0.09936589 0.07338323 -0.16322489 -0.02242397 0.7846384 0.81712854 -0.62302625 -0.021743024 -0.32147083 -0.14194769 0.37628186 -0.673383 0.17787457 -0.5653754 -0.64332455 0.44777885 -0.109747276 -0.6173984 0.06592952 0.4202508 -0.35100332 -0.2668741 0.5479486 0.35857671 0.3116774 0.18943943 0.059201762 0.3485315 0.18505548 -0.40225998 -0.52199304 0.039526615 -0.3065913 0.12353473 0.36247817 0.21266192 0.12551948 -0.072752655 -0.41689706 -0.79985374 -0.2762831 -0.41706938 -0.14437376 -0.0843381 0.36771017 -0.6558618 -0.45699778 0.07268479 -0.08892923 -0.22239994 -0.56111646 0.01925228 0.42705145 -0.2385616 -0.81540436 -0.5448381 -0.04877804 0.18202415 0.28791526 -0.10288377 -0.102178074 0.2729198 -0.15071754 -0.019508414 -0.13841078 0.30870742 -0.088450104 0.19370697 -0.58962554 0.5454053 -0.32046726 -0.56436247 -0.010826373 -0.35989806 -0.6107364 0.1565121 -0.48197675 0.03297614 -0.08170843 -0.19608337 -0.64039433 0.63846207 0.37690482 0.4081397 0.22857362 0.90633774 -0.06873802 0.26360542 -0.39404953 0.01040687 -0.099144004 0.23072647 -0.36911303 -0.005291241 0.14472932 -0.29438102 -0.4228087 0.34357828 -0.6024557 0.2637436 0.17658336 -0.62755126 -0.34287187 0.46838778 0.23246136 0.20332605 -0.6594859 -0.7886033 -0.3498346 0.37612626 0.5569392 -0.57940394 -0.57203954 0.0041344403 0.18994026 -0.5632509 0.57319844 -0.45694914 0.45343766 -0.7816607 -0.38853675 -0.031129058 -0.32516104 -0.2020839 0.4489515 -0.79984033 -0.07872612 -0.42415783 0.27001175 -0.28751057 -0.08672024 -0.7309227 -0.07921687 0.5252804 0.4793554 -0.15245071
