-0.51461464 -0.76582813 -0.038799472 -0.20631637 0.771924 -0.3395705 0.39748967 0.26544353 -0.3091281 0.8592156 0.4050777 -0.14918706 0.48708758 -0.40234578 -0.7154217 -0.8154088 0.06437758 -0.09662711 -0.22280614 0.24547216 -0.27586603 0.859989 0.03461249 0.5618437 0.2388545 0.21972904 -0.11908735 0.17800523 -0.20786937 -0.62864685 -0.42094395 0.2801846 -0.24889061 -0.6458187 -0.21767354 -0.05479037 0.49955887 0.5043494 -0.6441131 0.37699282 0.47397313 -0.6098265 0.075918935 -0.2107636 0.025073597 -0.24413991 0.24149007 0.12896325 -0.6275755 -0.12434834 -0.3713502 0.48331708 0.7123313 0.08442056 0.089566916 0.16199112 0.34443384 0.7546656 -0.38675344 -0.33420444 0.31924656 0.25356302 -0.023978429 -0.84577614 0.36536956 -0.3632779 0.34616536 -0.79437673 -0.15741949 0.16254434 0.7053461 0.22858903 0.26211748 -0.19329944 0.31082073 -0.050244935 -0.22892992 0.4860834 0.29000384 -0.28365433 0.4737617 -0.100393035 0.3559361 -0.24589801 -0.2798778 0.2751559 0.75261444 -0.17486455 0.04615301 -0.6846037 -0.24395135 0.12445372 0.83054554 0.5780141 0.39782017 -0.15873468 0.39551437 0.17536767 0.3025458 0.51338667 0.19303958 -0.308965 0.13633835 -0.48261225 0.27716738 -0.24311386 0.25796837 0.1751364 -0.25891235 0.87511814 -0.11295815 -0.12487992 0.3909144 0.9151155 -0.6935636 -0.051595796 0.21042168 0.6766738 0.25152978 -0.6867723 0.04076555 0.08648321 -0.02330323 0.32588208 0.054425966 0.48259893 0.5100125 0.1735898 0.585398 0.01320344 -0.25749308 0.12883852 -0.318908 0.85739857 0.063044265 0.6671232 -0.5678846 0.71279633 -0.7653982 -0.30022997 -0.10412999 -0.55303514 -0.15134557 -0.29706523 0.68734586 0.3527327 -0.64525914 0.3765529 0.9165127 0.3783769 -0.6475208 0.309112 -0.22952752 0.12468946 -0.5551499 -0.5601852 0.4400404 -0.16235144 -0.025176764 -0.53744304 -0.043294616 -0.17993903 0.46733388 -0.6170204 0.0029535196 -0.18441276 -0.021751668 -0.13846296 -0.4030182 -0.15895492 0.031104175 -0.23726276 -0.26599908 0.2888201 -0.43717596 -0.9595135 0.39851815 0.25379854 -0.2673638 -0.5242213 -0.81598914 0.65623546 -0.4082784 0.8636889 -0.7490094 -0.025498955 -0.024476457 0.5240724 0.69736165 0.5025849 0.7683822 0.09196625 0.033054166 0.6472468 0.21129265 -0.546665 -0.5856687 -0.2525822 -0.8480936 -0.41075796 -0.098840445 -0.57241386 0.27656713 0.72127074 -0.8353016 0.10015546 -0.27638015 -0.8969384 0.65504533 0.47331116 0.10459867 -0.036939625 0.69033664 -0.2235806 -0.30695757 0.08766756 -0.24957074 -0.22548342 -0.84368825 -0.0452169 0.3893615 -0.34811395 0.26062456 -0.19545436 0.029347137 -0.26568598 -0.59188807 0.5267515 -0.4866352 -0.26610443 -0.11070682 0.61204207 0.49070516 -0.010990694 0.10076459 -0.35918292 0.45302194 0.26180336 0.69320655 -0.33692583 0.16957289 0.32348502 0.6164016 0.48840064 0.7183645 0.26914302 -0.6744352 0.29082945 -0.11659412 0.2726134 -0.26325703 -0.3159133 0.1405842 0.72742265 0.17307796 0.4771444 -0.038540497 0.6762895 0.16733694 0.74967474 0.23527023 -0.09655662 -0.65392214 -0.6102321 0.06585317 0.018708289 -0.30476546 0.11563951 0.23547864 0.40548044 0.89253116 0.58765036 -0.012725061 0.5647114 -0.48993412 -0.7336755 0.54837507 0.4399556 -0.15965231 0.46243033 -0.51577395 -0.4900743 0.6905773 0.3907987 -0.3923515 -0.40008587 0.658768 -0.8613233 0.09135784 -0.4006037 0.2967969 -0.22815222 0.064596504 0.40660378 0.49907258 -0.22517844 0.40052548 -0.4973482 -0.21836244 0.19744836 0.76064783 -0.6246469 -0.6485875 -0.60324955 0.082569055 0.5353452 -0.751722 0.5293436 0.33555743 -0.5901204 -0.14990406 -0.580298 -0.41321608 0.52033156 -0.30488756 0.45886356 0.57118905 0.046463095 0.26765245 -0.8478403 -0.25978133 -0.09930762 -0.5724655 -0.6220944 -0.53118765 -0.26922226 -0.16857964 -0.6455939 0.118215494 -0.02457652 -0.19922622 -0.9417483 -0.15200809 0.8711027 -0.3388692 -0.021979347 0.4627125 0.40978497 0.85227275 0.10376831 -0.8972829 0.39070487 0.1043385 -0.14705108 0.1407182 0.4159295 -0.20609204 -0.3533591 -0.51926285 0.12223559 -0.65450114 -0.90231454 0.14171687 0.23314932 0.34980798 -0.8100729 0.10428718 -0.6239345 0.8345419 -0.047867004 0.75521344 -0.44510415 0.554046 -0.28119212 0.292736 0.45091167 0.7997322 -0.55711466 -0.19553459 -0.48631075 -0.042771116 0.026453147 0.711758 0.19031413 0.42541757 0.23856314 0.30634105 -0.21755861 -0.5906425 0.75347966 0.42046428 0.656777 -0.42324585 -0.010788464
-0.96436465 -0.29318646 -0.7558361 -0.7195488 -0.27579895 -0.5965418 0.7518021 0.19418141 0.24092588 0.9561163 0.4051785 0.70300114 0.9980022 0.9916919 -0.39485112 -0.7702764 0.010812201 -0.3710154 -0.404908 -0.52773714 -0.074026406 0.6089922 -0.9689464 0.13516292 0.4774268 0.90431064 -0.28275293 -0.20695564 0.7539793 0.6947249 0.5012804 0.24187516 0.80648714 0.11382756 -0.044206794 -0.23574445 -0.0143423155 -0.18026626 0.005333118 0.4626798 -0.86942875 -0.121723294 -0.36614123 0.013010338 0.08468397 0.58970815 -0.43852678 -0.9480624 0.715701 -0.6352738 0.03815902 0.092004895 0.5794383 0.79862165 0.8997032 0.99474716 -0.5473249 -0.25360546 -0.96603936 -0.74943167 0.0067701936 -0.17494401 -0.40052447 -0.4689333 0.07480895 -0.6439922 -0.24047954 0.49941832 -0.44068426 -0.30708748 0.7398356 0.86578727 0.5190591 0.26798004 0.05062981 -0.92418176 -0.7013052 0.785941 0.48585418 0.1975083 -0.36438072 -0.7886944 0.17939582 0.41284293 -0.11764713 0.13585751 0.8095361 0.36533353 -0.020528205 -0.65165645 -0.30794996 0.9416562 -0.69047195 0.5474637 0.983497 0.58466065 -0.18100873 0.42573836 -0.010186799 -0.26438957 -0.55995965 0.23614512 -0.7852335 -0.6981707 -0.98189986 -0.5110654 -0.49563223 -0.2525253 -0.58216 0.7467587 -0.14929605 0.45226878 0.5321791 0.5972193 0.15368117 -0.2636905 -0.19567889 0.0930403 -0.68713975 0.5208013 -0.98401856 -0.29027623 -0.6139178 -0.513954 -0.8529969 0.5098768 0.122558594 0.60029423 -0.24496359 -0.23717436 -0.58169234 0.29206556 -0.35559598 0.16883565 -0.2540543 -0.73871285 -0.53147936 0.96263224 0.47040817 0.034478262 -0.9653107 0.823646 -0.35670787 -0.3688033 -0.9187853 0.43863994 0.40563688 0.67986023 -0.11526718 0.46445116 0.52318454 -0.41636336 -0.5190172 0.4504156 -0.33539262 -0.4487641 -0.76133686 0.09514988 0.40158513 -0.88740456 0.85679793 0.203372 0.70098007 -0.08172256 0.15298083 0.4880614 0.60899425 0.32448435 -0.7614687 0.091593444 0.29362828 -0.33175772 -0.4694941 0.46317422 0.9965188 -0.7350302 0.19472788 -0.33190796 0.26842386 0.9079545 -0.25501436 -0.75089663 -0.8561426 0.8470299 0.5612433 0.16687794 -0.9935419 -0.6005221 -0.82259923 -0.7089308 -0.6668684 0.86348236 0.75443846 -0.752277 -0.4098676 0.14202015 -0.22979951 0.6488997 0.3316128 -0.9121481 -0.58935463 0.6336079 0.9075363 -0.023561656 0.4754112 0.4982659 0.18455401 -0.90622354 -0.6085076 -0.24103427 0.47950882 -0.50552756 -0.22261491 0.72246855 -0.7958788 0.6848848 0.74490166 0.1547065 0.7028143 0.78789663 0.061452847 -0.36409998 0.20015249 -0.72696924 -0.4431104 -0.77145326 -0.96583146 0.9787997 0.26644215 0.76966316 -0.9125669 -0.70949274 -0.13330962 0.6220548 -0.57459205 -0.18327713 0.9106874 -0.28940064 -0.5095875 -0.0006939396 -0.8171235 0.21707407 0.3268376 0.5276142 -0.27948934 0.7228823 -0.2158513 0.27918524 0.43601426 -0.014134347 -0.34667358 0.12991333 -0.6781596 -0.7508357 0.80644834 -0.43451056 0.40405223 -0.01930524 -0.3435099 -0.2360648 -0.4062364 0.88461804 -0.4042772 0.95513964 -0.17773855 0.22587693 0.41908342 0.76509154 -0.04181477 0.1356836 0.4371457 -0.687515 0.91341984 -0.19721434 0.004436709 0.836918 -0.26592112 -0.034316532 -0.79944676 -0.4805027 0.088572524 -0.3580546 0.5135046 0.73918086 -0.39041644 -0.82394564 -0.41684186 -0.37890983 -0.61893964 -0.04967036 -0.46471387 0.14470485 -0.36495006 0.51587695 0.52778316 -0.8312574 0.44160396 -0.20494024 0.15365162 -0.08336025 0.16572689 -0.7191505 -0.10985627 -0.9150295 0.2491625 -0.15243077 -0.36202094 0.20170136 -0.47325477 -0.9565951 0.37663704 0.5581733 -0.6902809 0.15337616 -0.33711356 0.14440233 -0.19330265 -0.49331325 -0.21394289 -0.21235202 -0.84651554 0.6756638 -0.41580105 0.60590345 -0.65933883 -0.4892202 -0.7111635 -0.7401517 0.48491114 0.32504165 0.562357 0.8286996 0.74120104 0.22050464 0.50171906 0.5301726 -0.31465614 0.3830674 0.3589851 0.8680278 -0.59898424 0.8833992 0.087819695 -0.2218965 0.81078386 -0.35823008 -0.4945716 -0.3316587 0.3210494 0.23485075 -0.0051717907 -0.8741435 -0.25525475 0.7787165 -0.35212302 -0.32068384 -0.85757273 -0.042161897 0.8543445 0.90563625 -0.48068267 0.13807048 0.06390183 0.105321206 0.7642954 0.5329043 -0.29244256 -0.2652099 0.37697378 -0.43363398 0.06787993 0.61880624 -0.37904224 -0.7697445 0.13654828 0.15327221 -0.8005983 0.87696946 0.85089374 0.284838 -0.4901935 0.18871562 0.49939084 -0.6987365
0.73485005 -0.6009561 -0.10853657 -0.53642744 0.7928263 -0.57646 0.9209228 -0.5796926 -0.94771445 0.73963827 -0.42272836 0.72564346 0.46466655 0.49383402 -0.064289644 -0.82739455 -0.057362117 0.9447453 -0.020500086 -0.38293004 -0.69171596 0.35292897 0.4559628 -0.3653761 0.5570032 -0.89923674 0.46143517 0.787532 0.10996118 -0.6762076 -0.84908926 0.13840383 -0.19657685 -0.46903938 -0.6402687 0.15035231 0.8191431 0.8766018 0.17106856 0.52819574 0.83356816 -0.056977943 -0.004177679 0.7218437 -0.5583615 0.38123822 0.29841936 -0.48323235 0.50338745 0.5376092 0.16417682 -0.9239156 -0.603399 0.18579546 0.8615744 0.43209103 -0.5222829 0.92503875 -0.50098175 0.8132793 -0.8925819 0.13429277 0.28644454 0.76407486 -0.54191196 -0.58942544 0.7339034 0.7454503 -0.4460035 0.57248205 -0.7579489 0.23063175 -0.56624514 -0.8148044 0.3406219 -0.8356518 -0.4875895 0.86463547 -0.095304675 -0.16644694 0.7109935 -0.7322124 0.573169 0.52297544 0.5353932 0.66668206 0.9581523 0.09803301 -0.78827053 -0.4481734 -0.532794 0.2716183 -0.30464292 0.34056768 -0.80871713 0.5543914 -0.33719653 -0.25896364 0.2640315 -0.24686109 0.6557706 0.16542709 -0.10302929 0.63298756 -0.42733663 -0.6863439 -0.07900626 0.6040122 -0.33086553 0.76534164 -0.29958403 -0.7720982 0.85148823 0.5588004 -0.41618016 -0.6737545 0.44499576 0.5114637 0.023119435 0.7145324 -0.66419375 -0.72385925 -0.48192877 -0.6799811 0.16514444 -0.84476286 0.8008599 -0.46383 -0.46514824 -0.576962 0.7981696 -0.7388083 -0.3293001 -0.5390702 0.7840977 0.7898374 -0.03301805 0.71808624 0.5328492 -0.7141713 0.22700386 0.66928995 -0.5972228 -0.62277275 -0.74113905 0.14423387 0.7128435 0.6034924 -0.30392805 -0.8008692 -0.2984481 0.13059306 -0.8192163 0.77470654 -0.28045422 0.11050121 -0.07868745 -0.36102232 -0.10744276 0.62750024 0.5140742 -0.69682217 -0.75205386 -0.2784428 -0.68191165 0.40920237 -0.819422 0.2153017 -0.6444431 -0.18908007 0.19085604 0.7813091 -0.7083445 -0.15613605 0.70265305 -0.7373313 0.5258384 -0.28255793 -0.2679728 0.25079122 0.16306221 0.1927662 -0.65822375 -0.67865807 -0.17062184 0.5043242 -0.8368592 0.64485157 0.55390024 0.886567 -0.35680938 0.6137627 0.8290713 0.112221524 0.63231283 0.7727603 0.80626553 0.56715345 -0.6227279 -0.4751942 -0.55308115 -0.6985565 0.7716326 -0.58192146 -0.15463889 0.07664674 -0.29948577 0.14532831 0.8388533 0.58939236 0.42883214 -0.5683061 0.86904347 0.6104096 -0.7202665 -0.05941185 -0.68157065 -0.69502145 0.71539634 -0.31385753 0.6073988 -0.78362006 -0.5882839 -0.86528695 0.4604252 0.2618245 0.5774236 0.49586746 0.61906224 0.8845779 -0.5164154 0.043980744 0.6169714 0.4791992 -0.55901253 0.3074134 -0.72901684 0.30364126 -0.49728486 -0.3828947 0.33919135 0.6234577 0.61768186 0.42010486 0.7503427 0.48977104 -0.00523071 -0.73228145 0.6082353 0.7301474 -0.4110939 -0.7066475 -0.63412577 -0.11963873 0.8392814 -0.2762359 -0.81056315 -0.70359385 -0.53602266 0.7237134 0.52466196 -0.6260917 -0.6581903 0.7224173 -0.67687035 0.16339459 -0.30834112 -0.39283806 -0.5070683 0.81406796 0.27102897 0.32536286 -0.7315166 0.74801874 -0.5567329 -0.28714353 -0.0021536208 0.2622772 -0.8599672 0.7067948 -0.7647716 -0.91729146 0.8701224 -0.57911104 -0.40256602 -0.73647684 -0.43891537 0.5566034 0.77909166 -0.8710218 0.5970372 0.8463679 -0.73781484 0.4431901 0.53457373 0.28145576 -0.21007214 -0.870202 0.6125542 -0.9361441 0.6334213 0.5827896 -0.67615575 -0.9647453 -0.37572002 0.5199358 0.09905806 0.21391399 0.64582443 0.43521106 0.46341747 -0.75574774 0.60179496 0.26112112 -0.69010794 0.71526664 -0.40907094 0.72682214 0.5435761 0.35533884 -0.53059345 -0.13454841 -0.48248047 0.08693971 -0.86325467 0.48349398 -0.35323966 0.09197046 -0.72541815 0.3829198 0.6777775 0.94577974 0.72674763 0.79084444 0.95347494 0.16688013 -0.4239183 0.48490945 -0.8319819 0.7984938 -0.65174323 -0.9481955 -0.78401744 -0.49152023 0.078343056 -0.046369832 -0.5414259 -0.8697491 -0.29737297 0.018138096 0.07936684 0.65805894 -0.5706469 -0.40062258 -0.3842141 -0.72224456 -0.42116597 0.32309148 0.36587268 0.6153063 -0.44544545 0.5591722 0.7517212 -0.50860685 -0.5834353 0.84456605 -0.4885474 0.6924117 0.7982792 -0.22093666 -0.30484876 -0.5478612 0.036910046 -0.1683023 -0.57249945 -0.23540099 -0.15157738 -0.013187748 0.64599514 -0.6078478 -0.41447988 -0.9009055 -0.55196345 0.35109648
-0.7583886 -0.4168943 -0.01792027 0.45882946 0.3665377 0.6188515 0.5173883 -0.7191693 -0.2698541 -0.43842736 0.13285644 0.5847038 0.85975033 -0.13943405 -0.2538457 0.83391196 -0.035124764 -0.67731804 -0.05492579 -0.35362783 0.22757864 0.8301331 -0.47326794 0.0125225 -0.06890452 0.346811 0.112459175 0.57060814 0.57412755 -0.2376894 -0.6574535 0.4793966 -0.5015252 0.01844487 0.18042892 -0.81580436 0.7328945 -0.75037533 -0.2177854 0.63058156 0.5048599 -0.8174165 -0.3879208 -0.27956247 0.15266594 -0.5188558 -0.042760786 0.23866144 0.93907046 -0.90467954 0.08954098 -0.120024666 0.65307623 -0.11604857 -0.55009377 0.8722218 0.76035404 0.048903074 0.4762928 0.8686033 -0.21184894 -0.3939493 -0.22297883 0.68056357 0.13102019 0.6026071 -0.10149772 0.103477255 -0.73931235 0.43523484 -0.1260253 0.98544693 0.79437816 -0.64011145 -0.6309282 0.7878848 -0.33715814 0.4093989 -0.39843455 0.45802444 -0.81117004 -0.4271592 0.08656253 0.6302035 0.82606494 0.3114496 -0.7336827 0.7405067 0.37264156 -0.09351681 -0.83680004 0.13326743 0.99000454 -0.17540638 -0.2551522 -0.90635854 0.9518665 0.7681284 0.24382916 -0.36149803 -0.04829958 0.37672305 -0.70425063 -0.24440223 -0.063952245 -0.10210967 0.81209624 0.057183255 0.10927862 -0.25992227 -0.6860507 0.26655403 -0.15036379 -0.4466436 0.31559226 0.15340047 -0.7173056 -0.1943557 0.38870388 0.48339093 0.5360543 -0.024901822 0.5101937 0.113915026 0.31312937 0.6894333 0.524087 0.89213365 0.34546596 -0.79750717 -0.15298285 -0.5886759 -0.40318695 0.31071442 0.103024215 -0.90195984 0.5602863 0.64575773 -0.5748358 -0.57294995 -0.018194102 0.809248 0.0468978 -0.47537264 0.83381915 0.40488324 -0.37778506 0.2700833 -0.041858867 0.6581578 -0.59466594 -0.6343029 0.35805637 -0.43083918 -0.3481392 -0.5246931 -0.32901725 0.19522634 -0.6315442 -0.8498143 -0.20052275 -0.5274462 -0.51019955 0.22263789 0.113943584 0.7075638 0.8461718 -0.73773146 0.0077840574 -0.9473242 0.60910714 -0.09387955 0.011091892 0.27918735 -0.71383417 0.0065233484 -0.50489175 -0.25181216 0.79197866 -0.59626764 -0.61059827 0.61658907 -0.8092836 0.84955627 -0.6995212 0.87080973 0.7104718 0.95922315 0.16703106 -0.66084915 0.3097848 0.74373275 0.14108883 0.8822575 0.19546492 -0.069535784 -0.15705341 0.15790698 0.10123439 -0.7857082 -0.6454308 0.67929715 -0.11755139 0.8036543 0.010116562 0.4485299 -0.8609145 -0.9071818 -0.08970103 0.589188 0.38335127 0.6416703 -0.054449696 -0.419604 0.11808117 -0.73576236 -0.15565605 -0.3872416 0.33285978 0.3427483 0.30082485 0.38359404 0.013657065 -0.9434521 -0.6597038 -0.8295169 -0.24400023 0.07830925 -0.53188974 -0.060182035 -0.9488684 0.3133221 0.4995926 0.03720577 -0.3708132 -0.5775058 0.47507507 0.69201076 0.8094201 -0.5589703 0.037778594 -0.8024242 -0.76875836 0.4930323 -0.6099649 -0.7631309 -0.46042663 0.50229335 -0.122549474 -0.6430826 -0.6257097 -0.61191016 0.41315606 -0.42694035 -0.558264 0.56844205 0.2843527 -0.21891055 0.5912118 0.9697664 -0.030823683 0.24069092 -0.79092515 -0.46293524 -0.40749535 -0.49644542 0.8664603 0.6534362 0.041587383 -0.105505295 0.57111025 0.80747145 0.71226805 0.1648373 0.17291585 0.33103067 0.0049771816 0.2999641 -0.53372216 0.14574404 -0.61515826 0.47334903 -0.27033332 0.73564744 -0.91628194 0.6107079 0.970328 -0.23683083 -0.3793514 0.63498163 -0.5039246 -0.7993449 -0.55900025 0.9062639 0.098501965 -0.7479019 0.8537086 -0.37497285 -0.18487446 0.07104809 0.38889968 -0.38580188 -0.74469143 -0.78074175 0.003344506 0.008803079 -0.7160138 -0.32906696 0.46224076 0.47394043 -0.88223064 -0.09819171 0.8549381 0.36408153 -0.006892219 0.30291256 0.8933459 0.53960884 0.23865616 -0.056408394 -0.4013993 0.5550473 0.09086625 -0.17290163 0.58043504 -0.7913349 -0.58522 -0.5540695 -0.7688879 0.37534934 0.8802513 0.026020184 0.24343975 0.28655377 0.92105025 -0.75309736 -0.2900899 0.2065964 0.97443646 0.27539507 -0.21875928 0.04767201 -0.7143465 -0.01224453 -0.55744094 0.6061274 -0.72918284 0.594555 -0.764639 0.13245638 -0.1458299 -0.92370933 -0.2992914 0.3372271 -0.36254203 -0.63760376 0.27392334 -0.22525516 0.16473223 -0.94454956 0.09719876 -0.6523216 0.35301173 -0.78668433 0.8357986 0.17900318 0.6285035 -0.20623371 -0.13888271 -0.50158244 -0.625197 -0.40290472 0.38419354 -0.6109196 0.34477234 -0.025485963 -0.5836881 -0.40303606 0.40589538 -0.4895673 -0.33746108 0.35269317 0.97967434 -0.91952837
0.46885863 -0.9516984 -0.5670437 -0.84080815 0.6789441 -0.52636087 -0.8208059 -0.23287651 -0.83172476 0.9146193 0.82947105 -0.56793225 0.9757173 0.16010287 -0.11128976 -0.9562202 -0.9625073 -0.3456888 -0.9696092 0.7276467 -0.78115565 0.60563505 -0.9234004 -0.8039554 0.5809364 0.61253047 0.20349427 0.69908 0.75533754 -0.6549464 -0.56929046 -0.6402481 -0.30737 0.06018129 0.25741655 0.8244692 0.9623171 0.9130099 0.24706511 0.90327376 0.7465722 0.37386823 -0.913679 -0.8239074 0.28505144 -0.7087465 -0.53335446 -0.74875295 -0.59475744 -0.67052597 0.028794032 -0.28231886 0.93054676 -0.63080716 0.83825284 0.6719322 0.5309295 0.46214083 0.8327625 -0.9374741 -0.83593017 0.30296347 0.7779454 -0.6688 0.75989616 -0.5115296 0.3714886 0.14858398 0.75672525 -0.8613749 0.85409933 -0.40349245 0.6312638 0.9141827 0.83331156 0.5023997 -0.8662732 0.50396246 0.9919186 -0.1557025 0.86392605 -0.25261286 -0.72528857 -0.93962336 -0.6361749 0.7686864 -0.37954593 -0.56775165 0.5807428 -0.9740911 0.8140796 0.85006976 0.7907726 -0.8949596 0.8443372 -0.11711887 -0.42500412 0.93918836 0.91192997 0.29720706 0.6307236 0.7901027 -0.7405513 -0.8092215 -0.8790341 0.7049237 0.6364678 -0.79448056 -0.0013037864 0.95612067 0.6663755 -0.14403795 -0.8190931 0.7695044 0.86536545 -0.6872689 0.61657363 0.17420787 -0.691028 0.63529396 0.7119372 -0.6561808 -0.5916488 -0.006499268 -0.77726966 0.70193475 -0.5623578 -0.5848236 0.7980439 -0.87779546 0.8366535 -0.74467677 -0.6656178 0.4962236 0.40051094 0.8049297 -0.4996082 -0.3259771 0.05638068 0.8018838 -0.99061084 0.3005204 0.3289873 -0.7406367 0.47486922 0.7846377 0.28540537 -0.27084678 0.7382051 0.5561962 -0.31044334 -0.6100745 -0.0014131144 0.90005356 -0.6984958 -0.94816095 0.22084227 -0.8385992 -0.7308639 -0.98327756 -0.78928226 -0.5861093 0.47395152 -0.6200355 0.78899074 -0.9729996 -0.3294886 0.77381456 -0.9394086 -0.677889 0.0065036807 -0.7625464 0.6457387 -0.559023 -0.810922 -0.97893375 -0.2599494 -0.39226076 0.62491757 -0.6611191 -0.98261905 0.7865844 -0.98495114 -0.49006468 -0.89011973 -0.32710996 0.43654665 0.9023945 0.9739515 0.70239663 0.41393042 0.7042208 0.35592395 0.60051036 -0.09726618 -0.5475083 -0.78731245 0.96135813 0.60191435 -0.9713065 -0.43977636 0.30904806 0.92967707 0.642188 -0.66563857 -0.3913452 -0.66483545 -0.97130305 0.59658426 0.62454706 0.04968503 -0.8720596 0.9913328 -0.81527793 -0.6594547 -0.7535455 0.42318878 -0.15077922 -0.2962714 0.5737998 -0.13319063 -0.8523023 0.81342125 -0.5336986 0.75644857 -0.48527578 -0.968081 0.7848623 -0.02606263 -0.6600025 0.21244003 0.42833054 0.7674532 0.61808366 0.82770205 0.7617601 0.94799304 -0.94649726 0.63604635 -0.542521 0.91226596 0.82927775 -0.610489 0.9053915 0.9654443 -0.4546216 -0.7687083 0.26044825 0.47392225 -0.26548406 -0.18278179 -0.8588791 0.9514652 0.81096953 0.918335 0.18765962 0.63234323 0.81449884 0.59646386 0.5825882 0.31536853 0.6045143 -0.845894 -0.56320214 -0.10772846 -0.3244759 0.73332936 0.6015556 0.79405963 0.7805807 0.76714766 0.62839234 0.9079688 0.7254112 -0.6471658 -0.80595845 0.46727222 0.26947278 0.009836495 -0.4083778 -0.43268865 -0.8968577 0.9841379 0.9699372 -0.89980376 -0.5092868 0.97124285 -0.9347315 0.75292015 -0.865974 0.44191548 0.7863829 -0.9434756 0.8636847 0.9311094 -0.74367577 0.5010492 0.019022401 0.84289086 -0.2460091 0.9702203 -0.45149878 -0.9744874 -0.089083925 0.1569039 0.72332865 -0.95114416 -0.6757941 -0.37238514 -0.93394536 -0.8991205 -0.60200465 -0.19405669 0.20004413 -0.4117285 0.16268833 0.6710015 0.47081873 -0.7395173 -0.8570272 -0.080950916 -0.3849807 -0.70632166 -0.19296041 -0.6998595 0.85983825 0.8435106 0.59782207 0.9804947 0.32163557 -0.7745217 0.5378315 -0.46932065 0.99272525 0.87635195 -0.46629745 0.91647166 0.5910275 -0.22951595 0.5962724 0.8542079 0.62062603 0.4944275 -0.70342195 -0.9669397 0.89092755 -0.7054396 -0.7188227 -0.6819608 0.9653319 -0.7674769 -0.7678268 0.39572144 0.11417302 -0.82512766 -0.9327227 0.621885 -0.04248087 0.9442702 -0.7355468 0.58026814 -0.5175398 0.54922104 0.030120632 0.7026799 0.65542984 0.9946352 -0.84004456 0.17691216 -0.69081056 0.68523383 0.6420003 0.4373098 -0.9614159 -0.7499807 0.9438716 0.09505747 -0.37705088 -0.1690416 0.94452024 -0.5663478 0.71204704 -0.89285725 0.43305287
-0.26062074 0.30169743 0.96056974 -0.8561763 -0.5096647 -0.8273995 0.1445496 -0.65161926 -0.42942968 -0.4660868 0.48774928 -0.32151675 0.94915956 0.361175 -0.41658318 0.6740914 0.27813432 -0.41860268 -0.5535418 -0.0892767 -0.54254216 0.25815886 0.40891275 0.7027806 0.95479614 -0.57754076 -0.97012866 0.6954359 -0.4953813 -0.40264532 -0.13231187 0.47276735 0.9500578 -0.45878047 -0.3488275 -0.1535151 0.2853799 0.48492295 0.2549235 -0.73146296 -0.33239105 -0.92877114 0.30515414 -0.53432107 0.81407094 -0.7321372 0.648542 -0.42675585 0.20644051 0.4338916 0.39657468 0.4124247 -0.4707147 -0.60509807 0.52835953 0.66788125 -0.9236516 0.8824745 -0.04394166 -0.5809284 0.9056126 0.9490398 -0.9341543 0.7567898 -0.0690507 -0.9135747 -0.3018148 0.7515736 -0.31568587 0.13701236 -0.7645724 -0.84936976 0.14660564 -0.23710299 0.8285484 0.85725576 0.93135524 0.06583942 0.87478286 -0.20617273 -0.6623826 -0.3656424 -0.75679266 0.04253746 0.36705098 -0.14232029 -0.14887527 -0.016985592 0.28747886 -0.021625824 -0.5944319 0.6399408 -0.24227503 0.51853144 0.49044874 -0.37496078 0.8760739 0.9927804 0.24508433 0.3530084 -0.85736316 -0.13818616 -0.56601393 -0.46115163 0.7548319 0.04542833 -0.4106439 0.5708022 -0.6246074 0.10976415 0.73668814 0.15949877 -0.7146673 -0.21811773 0.09986443 0.81679446 -0.26719537 0.8829125 -0.095643714 -0.7658847 0.269389 0.58894837 0.5011089 0.17616813 0.6897142 -0.038470842 0.14193203 0.8667871 0.44228327 -0.784634 0.8344696 0.0070504984 0.47502226 -0.4525031 0.8148959 0.40418044 0.20525724 -0.72065806 -0.26989377 0.764924 -0.99574536 -0.61380416 -0.81745493 -0.52357495 0.6030123 -0.46183702 0.49910268 -0.66560537 -0.04764452 -0.9720411 0.79099464 -0.77676934 0.35187 0.5488423 0.3700601 -0.48342943 -0.8590838 -0.62543035 -0.929603 0.751498 -0.27623683 -0.80343497 -0.3031614 -0.6393968 0.5182419 0.7018593 0.6411471 -0.71439785 0.1695019 -0.688477 -0.09525419 -0.062110633 0.856436 -0.67510736 -0.8463987 -0.43275034 0.48304197 0.052300155 0.086270675 0.6370591 0.558753 -0.44075263 -0.88714594 -0.3810722 -0.59470826 -0.86011314 -0.79753 0.6975493 -0.71784997 0.4322476 0.81294423 -0.26065138 -0.89379066 0.55255616 -0.37025174 -0.533359 -0.61371994 -0.73625904 0.6280718 -0.3331222 0.28295395 0.8882342 -0.27745742 -0.808996 0.8539571 -0.8831057 -0.7244871 -0.01148602 -0.06294129 0.3246139 -0.29550776 -0.63421637 0.8909837 0.22716218 -0.8607528 0.35985875 -0.3525967 0.4914209 0.42445803 -0.94183224 -0.19578195 0.86713463 0.12583268 0.7815863 0.26185268 0.81913614 -0.6810115 0.82410777 0.26686525 -0.03678456 -0.3918587 0.16861852 0.80733305 0.28920573 0.29039145 0.059121046 -0.6915881 -0.8473582 -0.891242 -0.47123894 0.85040355 0.04885121 0.11710867 0.07065103 0.13845506 0.7748943 -0.2551108 0.96855605 0.84503084 0.85425246 -0.18673368 0.8082566 -0.65144396 0.9938737 -0.45433825 0.8931763 -0.70411175 0.81780946 -0.94154924 -0.6713222 0.67937344 -0.8302656 0.2670049 0.22333643 0.39467043 0.43103033 0.44671646 0.74165857 -0.40178177 0.8431746 -0.3443886 0.7756486 0.41112602 -0.8247632 -0.036619365 -0.6404613 -0.75277054 -0.67700946 -0.7385678 0.8610498 0.61662084 0.5572005 0.36942768 -0.20718369 -0.8895097 -0.62698984 -0.70009184 -0.68070406 -0.83917046 -0.4205861 -0.47555867 -0.7846283 0.28608525 -0.017557077 -0.27744105 0.6259822 -0.76502544 0.66797626 -0.59813577 -0.87006307 0.66003627 0.79420936 0.49128282 0.75194323 -0.6523774 0.18294981 0.5928841 -0.38844553 0.8652351 0.80779177 -0.71127015 0.6106137 -0.39906496 0.6379573 -0.85499847 -0.7293049 -0.52036214 0.47805864 -0.87657344 -0.90038097 0.75117654 -0.75676477 -0.8811519 0.7943701 -0.77485204 -0.7568088 -0.1834928 0.82335526 -0.7355653 0.08332335 -0.86991566 0.7000105 0.66612554 0.8226007 -0.8871319 -0.24884874 -0.8119056 0.27800736 -0.3873342 0.8117552 0.2493041 0.8823982 0.6744954 -0.8473243 -0.106783025 -0.67321116 -0.8753852 0.7325655 -0.17337716 -0.9418444 0.6735012 -0.10045663 -0.89717567 -0.6408824 0.48537225 0.58616644 -0.092467055 -0.6798326 -0.8457343 -0.22788477 -0.8567078 0.45442745 0.73632914 0.7200219 0.9801942 0.36067775 -0.7298198 -0.8755239 0.78545105 0.14078566 0.007946992 -0.90927166 0.8958261 -0.8786618 -0.46426266 -0.7549364 0.7385282 -0.2641826 -0.56318855 -0.6663693 0.78530204 -0.9131331 0.5941651 -0.1887494
-0.26029083 -0.27573678 0.0062237014 -0.6805158 -0.06418414 -0.3027202 -0.3608013 0.0246921 0.4538347 0.1685861 0.48329595 0.66369474 0.52745974 0.21167801 -0.25986442 -0.3711372 0.29575956 -0.79431874 -0.60115385 0.5560584 0.27120766 0.79461485 -0.055347614 -0.113830455 0.44610536 -0.50215703 -0.63995045 0.17097963 0.10001797 -0.020382045 0.5439091 0.07902046 0.68767905 0.06873947 -0.42304072 0.044612695 0.9323664 0.85630566 -0.57897294 -0.08484788 -0.70163655 -0.8398298 -0.026203444 0.6759586 -0.28495038 0.3018555 0.44567546 -0.47295564 0.96137416 -0.0010220037 0.76582754 0.17117412 0.14562689 -0.28015652 -0.13107774 0.4246673 0.046449855 0.44833478 -0.34945077 0.8675453 -0.3502594 0.5748773 -0.45240828 -0.31124052 -0.18966159 -0.91264534 0.077299826 0.39623642 -0.24224976 0.15077105 -0.28760022 -0.003037321 0.4545625 0.36220443 0.8760203 0.20288514 -0.5494442 0.56103575 0.46351722 -0.45605448 0.54247475 0.022069411 0.8051935 -0.21549007 0.20972036 0.34545872 0.054409873 0.3559722 0.19408737 -0.12087532 -0.5069625 0.43060485 0.073928304 0.40397972 0.5261141 -0.7261883 0.41847295 0.89707065 0.2815708 -0.33406857 -0.2929662 -0.06679894 -0.43646574 -0.6693696 0.045834873 0.20408419 0.42620605 0.7715178 0.42599124 0.7549921 0.74072725 0.55671364 -0.20936644 -0.30213028 0.08672807 0.48799554 -0.33391446 -0.19759196 -0.7865717 -0.66579735 0.6931474 0.55302 -0.25600255 0.8490004 -0.3630192 0.36977828 0.29037634 0.24920745 -0.726384 -0.5894286 -0.14922409 -0.5240654 0.11459328 0.28279325 0.6583192 0.6398314 -0.05854654 0.35020486 -0.59309536 -0.6120874 -0.3142719 -0.057044607 -0.07785277 -0.45925167 0.18817745 0.55273604 -0.088764004 0.36389306 0.54959756 0.30756453 -0.33613157 -0.4780909 -0.47612017 0.6411454 -0.26537144 -0.7546053 -0.27620292 -0.07542472 0.34058693 -0.67524576 -0.44422084 -0.4029352 0.47274145 0.08992856 0.24531658 0.51635236 0.05927761 -0.09969369 -0.15761937 -0.6632825 0.11793151 -0.38238144 0.5741073 0.1622445 -0.7223427 0.1811487 -0.542484 -0.066977195 0.084786035 0.5051143 -0.90133405 0.54979616 0.6296463 0.020302031 -0.4980331 -0.29771307 0.32271713 0.44541642 -0.14864272 -0.29067558 0.16878621 -0.02993238 0.19498871 0.27529788 0.53840744 0.42125735 0.4460816 0.44175747 -0.11395033 -0.1676949 -0.14501983 0.3563595 -0.09849814 0.06529053 -0.1182837 0.25979766 -0.19916795 -0.930164 0.201188 0.54442346 0.2600417 -0.3099405 0.3121049 -0.43817416 -0.30757108 0.33542413 0.33704495 0.104991645 -0.4923382 -0.68608797 0.66203934 0.19182664 0.33920994 -0.019206246 -0.11275959 -0.84922105 0.20277275 -0.29305083 -0.22460742 0.2810435 -0.68938535 -0.053098824 0.598681 0.170579 0.15143397 -0.020520242 -0.28144404 0.3366586 -0.11055938 -0.45050094 0.6144139 -0.2699022 -0.44303715 0.20009746 0.38732994 0.67250663 -0.12589507 0.34386605 0.14336579 0.46618912 -0.38047424 -0.20959447 0.33208168 0.8366723 -0.3517924 -0.4273266 -0.22723918 0.22523937 -0.66426396 0.23481311 -0.10045059 0.009646347 -0.3289026 0.4546585 0.15511182 0.045001127 0.017969647 0.25659814 -0.5465763 0.28979707 0.28957286 0.7799322 0.33063933 -0.7992666 -0.1788782 0.30545992 0.81713665 0.68572265 -0.012872542 -0.26257643 0.2092636 -0.34976494 -0.09572344 0.95406705 -0.7024324 0.3279324 0.48029974 0.20704599 -0.26576212 -0.22413461 -0.6855803 0.29573336 -0.27417663 0.50134426 0.81227815 -0.21833618 0.5516131 -0.16696571 0.072419286 0.5510386 0.011983785 -0.3193522 -0.3751138 0.0010823455 -0.11767065 0.2650632 -0.114127874 0.40938383 -0.22372511 0.32927927 0.33775055 0.53194046 -0.058544707 -0.11262305 -0.2784381 0.12082835 0.3404341 -0.18887094 -0.5722118 -0.6385707 -0.57845557 -0.06418148 0.39676964 -0.49484015 0.14672677 -0.55284184 0.61530733 -0.41239688 0.30761766 -0.11229242 0.07106468 -0.67746687 0.03741688 0.27249882 0.50881773 -0.2997826 -0.1543934 -0.52224016 0.2244763 0.064596295 0.7355459 0.040793158 0.49713802 -0.1453753 -0.5315165 0.4135521 -0.54753304 0.3627872 0.3631087 -0.62691647 -0.43449268 -0.014884223 -0.10872724 -0.28761297 0.30476272 0.28027198 -0.04484803 0.5784101 -0.21679336 0.5155485 -0.50446683 -0.13602555 0.57338226 -0.044026636 -0.013397719 -0.27608907 -0.5632441 -0.9171748 -0.40506643 -0.61436737 0.1629083 -0.2549891 0.19633465 0.18964443 0.041715547 0.38075694 -0.7195877 -0.25743413 -0.43556586 0.21920274 0.0383229 -0.2585975 0.22501267 -0.39732203
0.23561086 0.59019715 -0.49438384 0.26045626 0.00059629604 -0.4352169 0.3816254 -0.6928966 -0.8771859 0.5988911 0.60471326 0.7097542 0.43144518 0.4508128 -0.87945765 0.6074704 -0.4417613 -0.7751282 0.057617106 0.84701484 0.72407544 0.7408335 -0.6625223 -0.91234696 0.69714195 -0.05431515 -0.39479697 0.086200655 0.4065381 -0.27223286 -0.61083806 -0.7246687 0.060571946 0.032303575 0.59477663 -0.75638944 0.5892483 0.8221826 -0.78962046 0.6583309 -0.0030623712 -0.8331057 0.3288943 0.70957005 -0.14710715 -0.5266496 0.8684223 -0.58335704 0.82694906 -0.2843722 -0.1328336 -0.71995294 0.06679693 -0.8885466 0.5856593 0.8983201 -0.23762797 0.11013912 -0.6258473 0.9740849 -0.94533867 0.67925054 0.2981134 0.8087433 -0.8177657 -0.9664188 -0.4850429 0.74038774 0.34620768 0.08101182 -0.7725026 0.6026846 0.3623177 0.70241815 0.8103916 0.4886127 -0.9453742 0.09510423 0.89265156 -0.7991818 0.74133587 0.13509434 0.9731109 0.7428602 0.6763744 0.300458 -0.024940886 0.5610458 -0.8850879 -0.9472238 -0.5816926 0.850837 -0.52846205 -0.5949396 -0.87538975 -0.62040937 0.2078054 0.86532015 0.77479076 0.28843135 -0.52718824 -0.6980309 -0.92207843 0.10410526 0.6706896 0.16940336 0.6314729 0.9406347 -0.6094453 0.27195928 0.8011037 -0.6297317 0.77792484 -0.1502074 0.30337903 0.47411713 0.5444802 0.4490836 -0.84100187 0.82078576 0.5164313 0.84154946 0.06635071 0.5790531 -0.59668744 -0.68776494 -0.07578248 -0.045561925 0.78660375 -0.8294863 -0.6066849 -0.81886935 -0.1929845 -0.08976003 0.3796075 0.60910404 -0.27170822 0.97979605 0.6991185 0.17652608 -0.72617114 0.5506768 0.7864377 -0.670676 0.24230714 0.3526129 -0.6129471 0.6945328 0.8002556 -0.9128302 -0.15719578 -0.38814062 -0.5437464 0.9060989 -0.7806835 -0.46789175 0.56467736 -0.41234344 0.8937729 0.7595729 -0.6836297 -0.7356515 -0.35487202 0.61298084 -0.31831628 0.8037997 0.6368176 -0.7438921 -0.036018252 -0.5902073 0.93323314 -0.5777489 -0.21359587 -0.85947466 0.5729983 -0.8689736 0.6563396 0.7840983 -0.6766171 0.6372251 -0.77429986 -0.7594619 -0.70681226 -0.26267517 -0.7592379 0.53418374 0.76670355 -0.7984009 -0.75796837 0.9053993 0.25774017 0.70028645 0.8537075 0.54228497 -0.17646351 0.72467095 0.844297 0.7536056 0.38912636 -0.8324842 -0.57026553 -0.7405251 0.79863024 -0.7511865 -0.49369994 0.5878894 -0.6992231 -0.8122078 0.68319297 0.4836903 0.52063 0.5586264 0.30370018 0.02184052 -0.15854338 0.70685244 0.771823 -0.82136315 0.7732493 -0.92693675 0.68630445 0.6341027 0.5201589 -0.18613741 0.68300754 -0.63724303 0.9126101 0.33896166 0.1802774 0.24994445 -0.79520524 -0.028723143 0.15578029 -0.6860046 0.65983313 0.50525993 -0.53934586 -0.6845802 0.26213798 -0.8453962 0.72353643 0.48005098 -0.15207916 -0.72291493 0.002801665 0.8011098 0.11221682 -0.9605089 -0.7860353 -0.57780796 -0.6360083 0.77506256 0.6652411 0.9145045 0.5377131 -0.47615328 -0.8977589 -0.9624092 -0.37880397 0.9484387 0.44594643 -0.6187627 -0.64094883 0.34786692 0.39718214 -0.43002728 0.739883 0.083548024 -0.64695585 0.8262258 0.05918583 0.87937784 -0.17214268 0.064714104 0.5430953 -0.5647958 0.33798403 0.17924029 -0.64220774 0.39530146 0.18694311 -0.7656554 0.80111784 0.5888443 -0.42433742 -0.3615554 0.7849353 0.9382536 -0.509309 0.6408883 -0.3027426 0.7672441 -0.11040455 0.68142307 0.40469557 -0.55320525 -0.018142948 -0.7955418 0.6112321 -0.13995247 0.31120178 0.1564024 0.27089757 0.59156376 -0.8436933 0.8102156 -0.89013237 -0.31763902 -0.114915416 0.8367017 0.6804474 0.7731864 -0.020323195 -0.26399857 0.58233607 0.15492503 0.7291377 0.57623804 -0.41830093 0.81884515 0.24956839 -0.606418 0.15261297 0.1242966 -0.11988737 -0.8238921 -0.70342857 0.3328425 0.62215954 0.28137884 0.698056 0.64358157 0.8498606 0.8420181 0.69943124 -0.6445036 -0.77626556 -0.03490348 -0.11354337 0.9574755 -0.8160167 0.668623 0.26839346 -0.95095515 0.15067269 0.7580675 -0.9562728 -0.2198349 0.6452851 -0.1301804 0.36730385 -0.619068 -0.25782007 -0.019777182 0.087002605 0.10529849 0.4161457 0.6038967 -0.77919436 0.5343763 -0.83548766 0.67131746 0.3048535 -0.20300485 0.73766077 0.58650833 -0.7536353 -0.09087583 -0.035291627 -0.94489205 0.6656965 -0.816595 0.8811985 -0.70165724 0.7247213 0.5811899 -0.8069479 0.75041515 0.63872653 -0.059687454 -0.07639085 -0.86267835 -0.85876495 0.12514433
-0.8063777 0.045850065 0.78088045 0.2939827 -0.55961204 -0.26023144 0.73927015 -0.45213488 -0.65361077 -0.15552881 0.808652 0.027996693 0.97693926 0.22215778 -0.59035623 0.8221092 -0.75464064 -0.30147445 -0.8377963 -0.3096533 0.897058 0.728249 0.63600653 0.22635853 -0.09242573 0.5185757 0.018957168 0.28155175 0.03285723 -0.39884818 -0.2488605 0.8712246 -0.032058317 -0.3377558 0.26813358 -0.5966866 0.95005685 0.4696931 -0.047108896 0.62821615 0.11041681 -0.5184426 -0.79796624 -0.8785152 -0.39912 0.37528247 0.57421356 -0.27485302 0.73805034 -0.8431788 0.42313194 0.73459136 0.51971316 -0.17027737 -0.75425464 0.7210561 0.33477214 0.5611523 0.7822171 0.798561 -0.11361321 -0.17857978 -0.5790978 0.73639065 0.592718 0.33510447 0.22858652 -0.12844609 0.3694253 0.33742493 -0.6408358 0.6757735 0.49088615 -0.09842228 -0.09581461 0.6938604 -0.5987411 0.22654022 -0.35847175 -0.49713537 -0.44684404 -0.8637411 0.70400065 0.65087986 0.11503325 0.73203707 0.11673642 0.09931028 0.2725168 0.32061353 -0.3002768 -0.18923627 0.79823023 0.31125352 0.34387773 -0.24771531 0.7462226 0.880579 -0.3511003 -0.6724348 -0.55571264 -0.12523133 -0.7380882 -0.77699226 -0.44715464 -0.85525554 0.735206 0.30188298 -0.44726458 -0.028480083 -0.78737086 0.5426004 0.16646878 0.55133116 0.30744797 0.37486777 -0.95965743 -0.31896156 -0.14398196 -0.5781068 0.50513315 0.34325784 0.5738482 -0.3264672 0.79284555 0.45507565 0.25402996 0.35163692 -0.5250262 -0.2964222 -0.5031731 -0.48714358 -0.6562163 -0.43405172 -0.30228683 -0.7737734 0.8580394 0.8969514 -0.6109012 0.22233285 -0.49071392 0.33972844 -0.7332208 -0.90938175 0.479699 0.4328492 -0.48503232 0.049833182 0.6844916 0.22902134 -0.2851191 -0.5129955 0.531945 0.26269025 -0.48266432 -0.7664315 -0.29059908 0.3697452 -0.6836618 -0.21110202 -0.56611896 -0.05847474 0.6952407 -0.035076857 -0.048780028 -0.77269024 0.78165036 -0.6148038 0.2909318 -0.70904607 0.7279561 -0.50377554 0.5252027 0.60309184 -0.72292244 -0.49063691 -0.64559287 -0.55315346 0.8509494 -0.46319395 -0.59932476 0.67282677 -0.38811117 0.74588406 -0.6657424 0.09615704 -0.02117806 0.7549642 0.6590986 -0.009070834 0.72974885 0.5340688 -0.61653876 0.45529482 0.7119031 -0.7268771 -0.6445664 -0.44238797 -0.41279846 -0.23627189 0.61120087 -0.30962023 -0.31049198 0.66206086 -0.31311712 -0.45373055 -0.5047991 -0.1325391 0.5450986 0.5735795 0.37312046 -0.18579206 0.43737802 -0.32206705 -0.61709374 -0.47746652 0.8226819 0.26578042 -0.18481298 0.45602238 0.74062985 0.5813404 0.70160234 -0.84570104 -0.19748656 -0.42252412 -0.13984758 0.27934054 -0.35989156 -0.30515385 -0.7937951 0.002615248 0.780296 0.35934696 -0.75731254 -0.35519856 0.27728584 0.61221015 0.65017796 -0.863266 -0.3052781 0.2993485 0.015746012 0.6171315 0.8375349 -0.48587963 -0.807869 0.8967626 0.5473401 -0.4584787 0.61245835 -0.5690587 0.79795957 0.8389146 -0.33223346 0.08286446 -0.73204744 0.7622722 -0.122526035 0.6713759 -0.69477224 0.02359238 -0.56147784 -0.049409263 -0.009078066 0.23350364 -0.32331073 0.6455752 0.5954694 0.5624434 0.8960409 0.57439435 0.89012796 0.64281166 0.5332483 -0.04480804 0.5177833 0.8123449 0.4422544 -0.1772439 -0.14715998 -0.77917343 -0.13399169 0.9622661 -0.71402866 0.6020792 0.5818235 -0.811321 -0.57887995 0.31171015 -0.8752458 -0.8550816 -0.10356897 0.38595548 0.5845018 0.74384856 0.73103297 0.24303438 -0.7368747 -0.66275674 0.6162446 -0.021319987 -0.81124854 -0.53950644 -0.49371463 0.23966548 -0.8575208 -0.28945917 0.7241394 -0.5630878 0.0074234195 -0.6136714 0.6670343 -0.5159222 -0.76181 -0.3743614 0.48069116 0.5299085 -0.039536927 -0.6738951 0.6346871 -0.6639414 0.8324292 0.53638786 0.5350405 -0.3787565 -0.18363054 -0.0070450557 -0.7490635 0.4927431 0.585649 -0.55361485 0.00642971 0.79295045 0.6402265 -0.40871873 0.229126 -0.60188586 0.6262537 -0.2651984 -0.05149462 0.2366425 -0.6773487 -0.75669146 -0.54289424 0.6198336 -0.532703 0.5003856 -0.39189163 -0.8368065 -0.700226 -0.06009381 -0.8422495 0.8063111 0.6410499 -0.72462547 0.69019234 -0.076615766 0.56143045 -0.6878301 0.5427109 0.24819686 0.33554167 -0.38794962 0.8782854 0.7651221 0.8354843 -0.67735934 -0.4059631 0.02029258 -0.8228886 0.500502 0.7131056 -0.6317477 -0.011066904 -0.7280626 0.09153427 0.17381905 0.024712449 0.110876486 -0.7725116 -0.060669728 0.84036374 -0.874241
-0.63183063 -0.013086847 0.21613592 0.51420224 -0.3110211 0.14000423 0.21114385 -0.19531336 -0.4666731 0.031265087 0.6884107 0.03882245 0.9335148 0.39954087 -0.17597078 0.8326731 -0.6175734 -0.014848866 -0.87253994 -0.110860474 0.57177484 0.6842556 0.45797372 0.25342184 -0.27176774 0.46032023 0.101108335 0.13964117 -0.23548242 0.00012316757 -0.17233042 0.43992203 -0.21033984 -0.49726653 0.06913352 -0.46625173 0.870314 0.06281202 -0.30366445 0.59778154 -0.1089582 -0.77688646 -0.8101623 -0.7264022 -0.36570105 -0.2773905 0.17867203 -0.12680812 0.5597762 -0.3839611 0.3640462 0.6939479 0.60336834 0.22295678 -0.31445932 0.7469951 0.11835832 0.2607847 0.7364684 0.505279 -0.2480722 0.13369061 -0.24306977 0.28209907 0.27897784 0.3689024 0.12579517 0.16069831 0.72672755 0.35779372 -0.65367645 0.61166424 0.15192679 -0.27394065 0.080278374 0.29567534 -0.18331291 0.3372132 -0.009827694 -0.52976745 -0.49323308 -0.2753058 0.25715122 0.5543959 0.16992508 0.4841439 -0.034096494 0.21480738 0.23968999 0.051411174 -0.23883465 -0.2650409 0.687774 0.22762452 0.11462421 -0.37395847 0.3869301 0.9151555 0.04725766 -0.4163227 -0.792773 -0.2511782 -0.6276899 -0.47660658 0.066413485 -0.23224866 0.5650427 0.57750463 -0.6192994 0.019070286 -0.32867384 0.24019082 0.031275578 0.16749917 0.36634538 0.4511874 -0.5030842 0.10932592 -0.42003268 -0.48871803 0.6461163 0.61988103 0.6358526 -0.17376556 0.32959974 0.532887 -0.06436762 0.47999483 -0.16529734 0.082437344 -0.4719295 -0.20023182 -0.59739065 0.03250182 -0.06451331 -0.47843125 0.7693492 0.5493971 -0.54321253 -0.07073935 -0.8536498 0.14508073 -0.29567647 -0.95150626 0.5327223 0.6843681 -0.6172627 0.4473763 0.36441043 0.21342225 -0.33962882 -0.40454003 0.22435556 -0.041407492 -0.05042674 -0.713522 -0.1462269 0.40444446 -0.41556558 -0.41607857 -0.5826054 0.31343013 0.7131604 0.08374473 -0.42824608 -0.6764915 0.40161952 -0.45200485 0.18176115 -0.6480838 0.56038 -0.27439117 0.111068934 0.52045375 -0.54057235 -0.4143343 -0.3470286 -0.32407796 0.7043332 -0.29347 -0.18593667 0.35204476 -0.64550525 0.71416324 -0.23264493 -0.19439982 0.23594178 0.75358576 0.18378729 -0.19394141 0.291513 0.3320825 -0.7186204 0.58970976 0.79622954 -0.27655017 -0.56875604 -0.44623116 -0.24579658 0.07603918 0.06708065 -0.42778537 -0.20359112 0.09240373 -0.5568879 -0.71023935 -0.47959787 0.008791907 0.40278688 0.30463904 0.4152304 -0.08420091 0.1335878 -0.47586754 -0.3893498 -0.7243293 0.7310065 0.43067172 -0.40458414 -0.013543834 0.59381384 0.6916026 0.478187 -0.38749507 -0.2125547 -0.48828405 -0.1563109 0.16240254 -0.058495305 -0.119794354 -0.6829207 0.25367972 0.4482187 0.45592162 -0.22214119 -0.6076917 0.27784824 0.32556942 0.23776276 -0.66988444 -0.06874287 0.23456489 0.23893295 0.736841 0.785318 -0.1766442 -0.78296953 0.55476266 0.2074249 -0.095667526 0.28128326 -0.6645442 0.73493254 0.84277576 -0.5165221 0.12234842 -0.52520037 0.40212408 -0.14369799 0.2927252 -0.29580498 0.08337465 -0.53805554 0.12151487 -0.22062883 0.41002232 0.22204137 0.3288288 0.4626294 0.5513398 0.7585729 0.7524147 0.39848587 0.28425896 0.71778744 0.23854089 0.60097057 0.6777217 0.44347838 -0.07702356 0.07561406 -0.45984492 0.07507189 0.9891017 -0.4016608 0.77231246 0.23349842 -0.78922224 -0.3470995 0.22850691 -0.71534353 -0.77112675 0.09216417 0.119178265 0.29845655 0.093936644 0.6427885 0.055455122 -0.7456847 -0.23136395 0.69425017 -0.029674942 -0.5654146 -0.6759776 -0.41824985 0.3078183 -0.58221895 -0.45206016 0.13073719 -0.063068025 -0.38261425 -0.4050605 0.7781245 -0.3424901 -0.45654702 0.0064299437 0.68474036 0.36104915 -0.21865207 -0.2917843 0.3476622 -0.48705697 0.3991664 0.28207803 0.6291388 -0.20979783 -0.068050936 0.11884124 -0.32289228 0.047335617 0.6237612 -0.59260803 0.03425792 0.6980978 0.5939655 -0.63298434 0.29284152 -0.5928435 0.6289729 -0.27779692 0.13929202 0.5716468 -0.7200755 -0.40726554 -0.34803313 0.40612486 -0.1675204 0.6338975 -0.5086966 -0.6981021 -0.40317023 0.21453702 -0.73876935 0.8610857 0.5714177 -0.21114404 0.37890652 0.17037863 0.11271659 -0.74619484 0.017604256 0.058645476 -0.020842796 -0.08893891 0.43975353 0.51441985 0.8350082 -0.28946546 -0.47532994 0.19917051 -0.80038375 0.3826179 0.59473807 -0.41766432 -0.09185777 -0.38462713 -0.26536405 -0.0740761 0.49768734 -0.016043853 -0.52230245 -0.44316307 0.7572739 -0.82139117
-0.8039538 0.27643102 0.87507707 -0.0973959 -0.17869478 0.43562987 -0.44921216 0.1409959 -0.79151744 0.45666003 0.29438967 -0.0922406 0.056549795 -0.4088589 -0.86333454 0.77456605 -0.2238543 0.21879384 -0.7414715 0.13151774 0.822987 -0.0093595255 -0.38005367 0.7183505 0.65634674 0.20233105 -0.77154565 -0.40040475 -0.5123388 0.49217013 -0.77567774 0.16732985 0.79528224 -0.27514812 0.69814175 -0.6525703 0.84892833 0.81128603 -0.1272634 -0.5863 0.5876385 -0.37791905 -0.77677715 0.19041274 0.55998605 0.264366 0.2234044 -0.54223436 0.9466701 -0.7604638 -0.7353616 -0.7390033 0.4033164 -0.5130103 0.28183326 0.004687164 -0.31822854 0.524838 -0.061219834 0.88064486 0.49326 0.74716866 0.16696256 0.8772706 0.5112736 -0.64203036 -0.92956865 0.9294512 0.2844061 0.83827424 -0.40783715 -0.6569658 0.75568783 -0.5128415 -0.18836206 0.7852688 0.72205764 0.50342673 0.75551414 -0.051921465 0.6554143 0.4787767 -0.07193873 -0.205399 0.74152684 -0.16187018 0.370603 0.18372175 -0.5584492 -0.84061635 0.25613043 -0.58525026 0.06511926 -0.85249555 -0.74170876 -0.342924 0.89863575 0.9547643 -0.28711963 -0.25949883 0.2474629 0.8728935 -0.7801658 -0.8607156 0.7949067 -0.8258869 0.50901866 0.74346614 0.39575627 -0.5083777 -0.20896883 -0.3327951 -0.016583424 -0.4711624 -0.7822883 0.59583735 -0.82664496 0.83943665 -0.47837004 -0.82920915 -0.20001122 -0.121253125 -0.39711756 0.39397115 -0.2531968 0.2513948 0.76749456 0.6409653 0.85534567 0.33842185 -0.3032746 0.37697414 0.6581703 0.22170185 -0.81564057 0.72745806 0.5721948 0.15676162 -0.16930161 0.77606845 -0.9683646 -0.35519215 -0.6048347 0.06836093 0.836029 0.75190747 -0.38319036 0.2067096 0.8259934 -0.12275778 0.67086387 -0.63114107 -0.53429496 0.11482257 -0.7117997 -0.8128624 0.52799314 -0.48595566 -0.56590664 0.21949004 -0.04538227 0.19616121 -0.11055517 0.3910875 -0.7419485 0.069614984 0.74474084 0.46823198 -0.77436095 -0.20278604 -0.06688288 -0.508762 0.78239405 0.60708916 -0.5272474 -0.9045119 0.5551056 0.6383247 0.25650352 0.25745305 0.12037435 0.7296846 -0.3263777 0.6563381 -0.5226434 -0.28001767 -0.71802914 0.44056356 -0.67732275 0.6698334 0.081350535 -0.43483344 -0.36811787 -0.13040751 0.28635022 -0.40115356 0.27398455 -0.5382932 -0.030224621 -0.6262421 -0.4980969 -0.102257706 -0.12438682 -0.31552348 0.70268625 0.0527714 -0.15844518 -0.89265674 0.2972882 0.7304582 0.18601774 0.3534149 0.7871626 0.33258292 -0.5565528 0.3388231 0.4326112 -0.61512864 0.5699494 -0.88445824 0.07707416 0.17479455 0.43408638 -0.9113237 0.4987072 0.79241097 0.60358727 0.47301078 0.35669792 -0.6173641 -0.56455487 -0.2670315 -0.08095108 -0.16377535 -0.37055996 0.27811655 -0.6091081 0.093320586 0.30897006 -0.84384954 0.6870648 -0.22581123 -0.43940258 -0.51396936 -0.10629185 0.14170185 -0.52686656 0.54497945 0.3669771 0.3201746 -0.36147863 -0.16537605 0.31362906 0.9354991 -0.6460516 0.8342634 -0.8679612 0.52813625 -0.056980684 0.5670948 -0.20908493 -0.6582376 0.21166132 0.2945735 0.41955 0.22513416 0.7403433 0.18149683 0.352623 0.5850481 0.8032667 0.8208179 0.8322561 -0.7846035 0.119157396 -0.4399732 -0.51294464 0.35565543 -0.5424168 0.468846 0.23681524 -0.04764552 -0.82264626 0.9623621 -0.8693916 -0.09614593 0.48215917 -0.17333116 -0.5194443 -0.049743824 -0.8230076 0.21215324 0.63124377 -0.07365118 0.72696006 -0.6532881 -0.26276627 -0.14404671 0.41572264 -0.71271896 0.15679598 -0.14230007 0.12669982 0.36894694 -0.8089592 0.50190705 -0.6382936 -0.1805402 0.74026954 0.30785254 0.012308549 -0.7393643 -0.4325669 0.28875852 -0.29949945 -0.019212589 0.82742274 0.5299688 -0.53064716 -0.64727134 0.56143576 -0.5475794 0.277716 -0.027653005 -0.030363405 -0.44250774 0.5867901 -0.5764662 0.2989673 0.045961674 -0.55123633 0.099348426 -0.251157 0.6406772 0.29957852 0.29608822 -0.13320577 0.89463985 0.5673658 0.92794305 -0.71589124 -0.16681679 0.15687963 -0.09755716 -0.27896523 0.8411326 0.037045684 0.85098594 0.27731624 -0.624954 -0.3480337 -0.8269924 -0.7760578 0.77734655 -0.2677145 -0.28047255 0.32612753 -0.7664016 -0.70492 0.6206329 -0.5636809 -0.19805454 -0.54746205 0.43802148 0.7483804 -0.28053662 -0.47520107 -0.54279536 0.6771903 -0.60185266 0.665137 -0.86481565 0.793893 -0.7941826 0.43584853 0.3374848 0.23205915 -0.3895427 0.6369202 0.8861887 0.6105964 -0.9139869 -0.37307805 -0.8401904
0.53047967 -0.83617353 -0.055646196 -0.5383912 0.109040655 0.122432366 -0.37789217 -0.12712023 0.3343535 0.6132093 -0.48125386 -0.17721634 0.10716282 -0.07462423 0.28209418 -0.42567882 -0.5286084 -0.08943494 -0.26033834 0.81813115 0.06066489 -0.38149506 -0.276247 -0.51430297 -0.716912 -0.70268303 -0.66941345 -0.070873596 0.13346457 -0.5858913 -0.13192907 0.51237786 0.71923864 0.52499247 0.1464821 0.7922931 0.54616094 0.6634614 0.1449703 0.57938546 0.013370647 -0.088895105 -0.65007603 0.35899937 -0.107591435 0.446044 -0.50671625 0.33098453 -0.4965986 0.66936445 -0.021507414 0.3716715 -0.6307128 0.8726664 0.6123628 0.1922374 -0.70048404 0.40190765 0.9354864 -0.27371317 -0.42347383 0.92633325 0.7464129 0.041991863 0.31800154 -0.2138385 0.065583445 0.5296277 -0.16609532 -0.10927842 0.370529 0.0284077 -0.16981642 0.8932354 0.1459467 0.6879202 -0.3048011 -0.07276626 0.63890237 0.744924 0.7606653 0.24958143 0.59975016 0.7108312 -0.24700563 -0.11155871 0.7529638 -0.6445891 0.56926113 -0.11510217 0.1044436 -0.32124686 0.76502585 -0.25604665 -0.013066638 -0.437281 0.16069715 0.8747408 0.7268379 0.5148094 -0.51701784 0.7723307 -0.23951462 -0.39365548 0.066046864 0.097038865 0.15091956 -0.40647617 0.71114266 0.8902684 0.70045936 0.6614498 -0.37920052 0.6879181 0.30971804 -0.06433454 0.15189672 0.13631137 -0.48962405 0.61838996 -0.7074533 0.7616618 0.18674271 -0.34305328 0.31191635 0.19032846 -0.75065064 -0.43151698 -0.5342104 -0.72429496 -0.038834114 -0.052474413 -0.25616086 0.748288 -0.40078494 0.052783396 -0.41386536 0.007947685 0.17933448 0.49902603 0.41855085 0.007189265 0.07276958 -0.792127 -0.8217241 0.36751795 0.4057544 -0.28222212 -0.35116133 0.60237116 -0.08093951 -0.15173495 0.5563696 -0.28919774 -0.17675368 -0.11207955 -0.2630201 -0.48188657 0.30224228 -0.061578356 0.023369228 0.3464327 -0.62566316 -0.056510773 0.054009374 -0.08493449 -0.23483498 0.56131506 -0.6392049 -0.88149506 0.23130912 -0.43516773 0.5281113 0.13708521 0.14364244 -0.8655743 -0.60083824 0.73739135 0.40559834 -0.5033847 0.08525739 -0.4840308 -0.3098144 -0.16714755 0.28487372 -0.28485462 0.27968633 -0.58835644 0.46708885 -0.54346603 0.11304047 0.2825652 0.12655814 -0.42756328 0.30823544 0.86696 0.25283688 0.7950457 -0.058296308 -0.5557396 -0.7414706 0.743631 0.561813 0.25133032 -0.26437488 -0.21895632 0.24691512 -0.8644017 0.38750726 0.74979484 -0.8636892 -0.25452292 0.20045511 -0.09042093 0.5341136 -0.058500115 0.7896128 -0.08620658 -0.08438267 -0.68152875 -0.29923898 -0.023437807 0.7711821 0.21569659 -0.35970536 0.5807885 -0.44205678 0.38681167 0.6354367 0.82165104 -0.30989984 0.06369275 0.05867468 0.36693168 0.4433522 0.6126319 -0.39858544 -0.59086406 -0.4932985 -0.16372198 0.892197 0.359776 -0.7729971 -0.044345643 0.1605116 0.23659618 -0.5210968 -0.09582665 0.08321004 -0.22520386 0.071467 -0.121985406 0.1745618 0.14441031 0.41226912 -0.65554184 -0.099346526 0.16045365 -0.3101807 0.2365402 -0.29634288 -0.6021876 0.29566553 0.20492691 0.42763433 -0.42564002 -0.12003306 0.828449 0.28583077 0.40523404 0.09568602 -0.40815 0.63429356 0.40910673 0.6642386 -0.4949756 0.10705508 -0.08276388 -0.26688704 0.03834154 0.070159875 0.56228995 0.8078963 0.90132123 -0.08783825 -0.7036884 0.71809727 -0.13343775 0.24730475 -0.367915 0.54701775 -0.17161737 0.27313584 -0.703174 -0.028113868 -0.6238768 -0.0076482785 0.46890083 -0.562114 0.055396833 0.817141 0.68700546 0.42415577 -0.42104015 0.32330143 -0.0681205 -0.5178538 -0.5910888 -0.4908978 0.32905227 -0.5209649 -0.299423 -0.3815385 -0.6044953 -0.014116328 0.4994818 0.28507793 -0.06778747 -0.35284743 -0.48804277 0.40227962 0.25717 -0.23928963 0.10646938 0.4223441 -0.24112876 0.545553 0.5743619 0.4349578 -0.30725133 -0.29463744 0.7105794 0.4607594 -0.1021674 0.0760635 0.49765754 0.18874423 0.91561687 0.10413988 0.73134065 0.056667328 -0.7184903 0.057733897 -0.1881518 0.50723886 -0.5301675 -0.36062327 0.8541662 -0.5979741 0.37379864 0.2063723 0.5187828 0.6922557 0.97423416 -0.2624196 -0.3682937 0.3012543 -0.3160534 -0.18716794 -0.54897267 -0.5596585 0.66315746 0.05014596 -0.2408012 0.5371278 -0.7393971 0.43016046 -0.29946414 -0.11434616 -0.39936274 -0.28830507 -0.4803076 -0.7379013 -0.3774102 -0.4455826 -0.19574913 -0.48563582 -0.08686402 0.43002552 -0.30482927 0.2732146 0.33045673 0.106433585 0.21347179
0.45420456 -0.9805339 -0.7054326 -0.86485237 -0.071706496 0.5485216 0.07578321 0.40816033 -0.23496515 -0.027188733 0.8364317 -0.48922294 0.43371743 0.07752274 0.3062164 -0.678761 -0.88080883 -0.8041964 0.25462243 -0.11767702 -0.85784453 0.6745986 -0.15732947 0.11441708 -0.8233985 0.80864197 -0.7883754 -0.42969698 -0.15416719 0.05780783 0.94095135 -0.88110095 0.5450844 -0.082080685 -0.49269176 0.84574753 0.26815295 0.6288965 0.59036684 -0.7203871 0.6002624 0.7893193 0.21905482 -0.7656521 0.8678558 -0.71078414 0.02208584 0.7364584 0.28665844 -0.21035784 -0.59828615 0.6137213 -0.65565944 0.09607998 0.21827568 0.78056335 0.36596128 -0.49354756 0.8153227 0.1907687 -0.20280294 0.7274396 0.53670305 -0.637868 -0.44308305 0.8758221 0.5299744 -0.46547478 0.5714141 0.8185586 -0.27550814 0.718635 0.1810245 0.71520615 -0.20068923 -0.59557545 -0.789426 -0.35861343 0.9915097 0.32192385 0.6190384 0.26159954 0.40630987 -0.30988246 -0.8916772 -0.15869707 0.57776994 0.4076143 0.211518 -0.8182474 0.682357 -0.60216427 -0.19367503 -0.83819455 -0.123016916 -0.49914297 -0.27508128 0.6297813 0.79488343 -0.5206868 -0.75857204 0.3149981 0.16889466 -0.14635627 -0.86913 0.049285203 -0.7592808 -0.8797725 0.5095035 0.3176322 0.7993221 -0.40673542 -0.5761881 0.0129968785 0.8176655 0.30017352 -0.50040996 -0.59561294 -0.89191365 0.79168123 -0.9778618 -0.14642765 -0.39381602 0.49732047 0.34860322 0.78643245 -0.6729795 -0.13584518 -0.45075217 -0.43011543 0.4705843 -0.73877776 -0.27628925 0.68776166 0.9004489 -0.90721893 -0.1969141 -0.47671384 0.5368713 -0.9219316 0.43491083 0.20071252 -0.54215616 -0.5633144 -0.7976034 -0.55945706 0.85297406 0.35849747 0.8780122 0.92380047 -0.81546295 -0.50482917 0.024510622 -0.2872347 0.08929012 0.5999894 0.45275688 0.49582434 -0.41841346 0.19259138 0.060933445 -0.4750088 -0.28246105 0.26691812 0.6813057 0.5290024 -0.52634734 0.5085901 -0.7326247 -0.8303756 -0.8835543 -0.68293256 0.2772971 0.18774094 -0.3724149 -0.77215266 -0.2247212 0.120802246 0.71768457 -0.77358335 -0.7946091 0.14547771 -0.6244282 0.6982346 0.8611815 -0.23648901 -0.6092002 -0.88752574 0.26561937 -0.5694146 0.311251 0.83401436 -0.6449367 0.021596525 -0.54872555 0.7128174 -0.11559143 0.8309441 0.56886804 -0.4725551 -0.8892856 -0.39158612 -0.004473462 -0.54954416 -0.16404776 -0.08759068 0.9394565 -0.8525473 -0.25369886 0.46155542 -0.8110126 -0.005212292 0.49186572 -0.5745435 -0.83776724 0.6474908 0.052772485 -0.2815914 -0.91652954 -0.29372054 -0.28344172 -0.8675828 0.87763923 -0.66796684 -0.47618467 -0.67957246 0.75952566 -0.005871572 0.55494386 0.7482844 -0.86828977 -0.98066986 0.26885572 -0.49364772 -0.0030615646 -0.34919974 -0.3341208 0.46764418 -0.06741669 0.36153707 0.42658174 0.28922626 -0.14590824 -0.15047425 0.69622797 -0.3014016 -0.14585136 0.74729115 0.45469216 0.44293433 -0.9478419 -0.34066865 0.74652904 -0.18708573 0.05910824 -0.55837893 0.023210803 0.109848514 0.4968015 -0.3841757 -0.10657977 -0.62136424 -0.8528944 -0.51838547 0.55749744 0.22649609 -0.13545907 0.87480605 -0.4751356 -0.8984726 0.2094138 0.22738747 0.8715116 -0.5577367 -0.8143437 0.75867456 -0.365744 0.84924275 -0.8610554 0.8833703 0.87197644 -0.15751538 0.33467427 0.84612334 -0.23458168 -0.74899346 0.14324556 -0.775085 0.7217831 -0.15403394 0.48559803 0.6909434 -0.6094008 0.16388422 0.72199714 0.0025679655 -0.31949747 0.6900696 -0.6269935 -0.5436205 0.9403818 0.57508904 -0.95046353 -0.56865543 -0.6884256 0.04810154 0.3547142 -0.8238772 0.17980394 -0.33795884 0.25092804 -0.8451559 -0.8345858 0.58771574 -0.7577807 -0.08497386 -0.8086047 0.85844755 -0.5550449 0.818318 -0.7537929 0.08766091 -0.22855823 -0.27084786 -0.5327037 -0.7962145 -0.2966781 -0.22776961 0.86605716 -0.42760012 0.44922298 0.7257627 0.969901 -0.30101794 0.84332526 0.8263166 0.8913379 0.42551777 -0.16376299 0.73493075 -0.7351014 -0.7707708 0.5711583 0.6913415 0.6530784 0.15895727 -0.8409777 0.77758205 0.75640017 -0.44984916 0.9113755 0.2606537 0.3071561 0.8623334 -0.35708195 -0.7230527 -0.29194826 0.6608015 0.81254953 -0.63195777 -0.64034647 -0.68755895 -0.407881 -0.21413396 0.82419723 0.707738 -0.061648503 0.13985601 0.18340519 -0.1607746 0.36251718 0.1945821 -0.39713278 -0.83241504 -0.053724796 0.30325374 -0.3486799 -0.68108904 -0.033060007 0.058199443 -0.7973508 -0.4988192 -0.9152135 -0.8535109
0.45279938 -0.9945844 -0.73489684 -0.960631 -0.87523186 -0.50732803 0.75475854 0.30274966 -0.770456 0.085836425 -0.19026709 0.448965 0.7686198 0.6745218 0.28351027 -0.050963752 -0.5017243 0.02992114 -0.40256903 0.6007539 -0.5266349 0.3619603 0.553696 0.85916084 -0.21495119 -0.62883776 -0.81757694 -0.19988985 0.25405434 -0.4418488 0.9811053 -0.5290458 0.9719604 0.060035333 -0.9119945 0.7174222 0.76103306 0.84825087 -0.059976038 -0.39725792 0.23947312 -0.4336527 0.37795973 -0.48744097 0.07685301 -0.32725772 0.36970496 0.47070476 0.3869718 0.5130887 -0.78729993 0.79482734 0.116619624 0.90794975 -0.16579291 0.92618054 -0.1259009 0.084004 0.7865959 -0.090446055 -0.10836202 0.9311368 -0.3894957 -0.2592407 0.45561177 0.3424527 -0.709771 -0.38811004 -0.06354419 0.8215652 -0.732651 0.5969073 0.42141756 0.6054225 0.74164224 -0.27868074 0.24705602 -0.016683532 0.8470659 0.26717913 0.26105398 0.15307859 0.66703695 -0.25510168 -0.7969135 -0.8017918 0.9752444 -0.837013 0.6782805 -0.94136614 0.025872892 0.39145032 0.6486052 0.18163815 0.8452831 0.43572742 0.45939097 0.7364388 -0.18923116 -0.70981437 -0.82981676 0.58791107 0.29887694 -0.7148707 -0.84920394 -0.29034275 0.28263986 -0.80443054 -0.36461902 0.86826575 0.8239025 0.6312491 0.7224741 -0.084732145 0.73791325 0.77647746 -0.874347 0.63873315 -0.76853925 -0.07030976 -0.9871604 0.62632036 0.080895 0.65283734 0.87050414 0.73629373 -0.7586392 0.9273761 -0.7333376 -0.5003399 0.24971434 -0.39381465 0.28479007 0.86725485 0.46513778 -0.14850256 0.284553 0.40507814 -0.66103673 -0.8416452 -0.6527117 0.3291378 -0.44147068 -0.86317325 -0.53215504 -0.495615 -0.0473809 0.29742944 -0.3385817 -0.493532 -0.017949218 -0.37937143 0.21253006 -0.7847401 -0.12745053 -0.7524671 -0.5505953 0.8096834 -0.03920668 -0.2596246 0.9457341 -0.16875905 0.49267772 -0.2218173 -0.47487918 0.20889688 0.27105945 -0.22253914 -0.7814389 -0.7833597 -0.68548924 0.7027098 0.32692322 0.34308773 -0.47357613 -0.79262936 -0.60788435 0.6705631 0.8820292 -0.6724522 -0.3404195 -0.83993477 -0.549188 -0.5564069 0.83633715 0.4706519 -0.96318495 0.09608197 -0.44924912 -0.8364446 -0.086667985 0.13170296 0.4258912 -0.38539737 0.34534082 0.73295504 0.28166172 0.6144907 0.25610876 0.7070295 -0.8568474 0.3607431 0.6883266 -0.7664198 -0.30211353 0.033763386 0.23709737 -0.89270496 -0.4402129 0.47115877 -0.9360304 -0.57754475 0.28490618 -0.5944082 -0.5682991 0.79881996 0.738366 0.45072436 -0.54665655 -0.59752065 0.6239315 -0.32978696 0.74051523 0.21983829 -0.6621361 0.09023087 -0.24740614 0.852013 0.7440715 0.91297513 -0.79401773 -0.97724 0.4737538 0.8864513 0.15609482 -0.25057435 -0.06394432 0.6751911 -0.49274462 0.21239561 0.6423795 -0.1750333 -0.25976935 0.47656658 0.70969075 -0.05754728 -0.36865187 0.33268335 0.6335642 0.7263276 0.091721356 -0.24530564 0.47745907 0.5943946 -0.44342935 0.34180778 0.037706558 -0.46269116 -0.53430456 -0.640376 -0.009513088 -0.0056555374 -0.7595299 0.63816977 0.8504361 -0.08871059 -0.16338882 0.7759343 0.22485037 -0.95936763 0.38576558 0.6536316 0.81310064 -0.72964936 0.53040427 0.07160696 -0.5348204 -0.13512465 -0.5732609 0.82201654 0.638974 0.6126738 0.22757909 0.9531237 -0.7193541 -0.8456559 0.12502635 -0.6095871 0.45662847 0.60753256 0.5445855 -0.32499588 -0.4525819 -0.7558769 -0.6885029 -0.346231 0.6105936 0.4002203 -0.96316195 -0.8077933 0.977362 0.17247602 -0.9590803 -0.6716604 -0.28451398 -0.04140993 0.56655556 -0.75870687 -0.53985125 0.12921132 -0.7290821 -0.34465823 -0.7340934 0.33319435 -0.9083714 -0.33618948 -0.77734596 0.8858309 -0.9182599 -0.09662141 -0.0365209 -0.37330133 -0.9371523 0.8314199 -0.2835913 -0.73823786 -0.5820187 0.1516794 0.58243644 -0.4278697 0.3099143 0.70176244 0.96482664 0.68947184 -0.7161902 0.9274711 0.5155276 0.93773705 -0.28075948 0.13969284 -0.6513678 0.5989935 0.4446465 -0.5544282 0.83022714 0.043041416 -0.88212323 0.6090544 -0.22321129 -0.3876206 0.9363542 0.42473787 0.59976274 0.94601095 -0.16320089 -0.84477526 -0.95077884 0.6805017 -0.20750077 -0.7191868 -0.5343083 0.116923414 -0.33872545 -0.46186388 0.8676817 -0.26319304 -0.3888828 -0.8471436 -0.3242623 0.12671405 -0.8834926 -0.47079957 -0.40018073 -0.87966484 -0.55556285 -0.16914327 0.60455674 -0.5547038 0.2309255 -0.13200894 -0.41968718 0.21688975 -0.25640687 -0.9302824
-0.22802141 -0.46301395 0.57592005 -0.5392833 -0.39195985 -0.4918283 0.6245254 -0.05488802 0.2851357 0.30601043 -0.26755792 0.4023067 0.15104699 0.51282495 -0.39771542 0.46104762 -0.34798503 -0.026966128 -0.11262878 0.33717805 -0.5651582 -0.69168615 0.23227009 0.42770654 0.503729 -0.12807488 0.08196351 0.045913152 0.49601054 0.47192213 -0.21794999 0.357641 0.9053478 0.3381345 -0.20069851 -0.19058433 0.33529657 -0.28048712 -0.0015532449 0.5352031 0.5070932 0.15310018 0.08111873 -0.0033826698 0.82701784 0.16499929 -0.39262912 0.22148827 0.37889162 -0.19890663 0.3061062 -0.40659392 -0.18041329 0.65986514 0.23081991 0.5519541 -0.09220824 -0.12975083 0.31972337 0.36774635 0.036767244 0.7816055 0.5346135 0.33194965 -0.49410284 0.10936419 -0.15795662 0.7123451 0.16906106 0.37936112 -0.022061408 -0.60870343 0.21913679 -0.33735424 0.3223191 0.21569864 -0.1045267 0.5446415 0.7202932 0.28515357 -0.19113316 -0.9099276 0.78219193 -0.044682253 0.17486034 -0.08840689 0.34646606 -0.2561602 0.1311016 -0.22658937 0.2936735 -0.24946877 -0.14573707 0.051484957 -0.5654426 0.5715475 0.22083008 0.32093602 0.2133638 -0.23362847 0.0066662617 0.08612548 0.38336682 0.05454774 0.108546495 -0.24390933 -0.6710086 -0.006584946 0.20766246 0.32967597 -0.4786476 -0.08806883 -0.22626567 0.102833405 -0.39597335 -0.8329014 -0.7128197 -0.1674232 -0.5093566 -0.025778268 -0.90304154 0.050110694 -0.39281362 -0.76386863 0.01729121 -0.042537518 0.5531671 0.2302435 -0.19794492 -0.0019139238 0.14057639 -0.039028324 0.32334298 0.16113426 0.17218721 -0.055907562 0.014662474 -0.25558358 0.5994454 0.3200722 -0.05510076 -0.4442783 -0.41980523 -0.524834 -0.48857972 -0.22557107 0.64512277 -0.057713475 0.70958346 0.556399 0.07690017 0.2897853 -0.44261265 -0.8577732 -0.4087327 -0.2822419 0.70327914 -0.059835315 -0.40745062 0.13998955 0.3007592 0.36141828 0.3089484 -0.29289672 -0.5140675 0.110883266 0.24585716 0.31557295 -0.6951666 -0.08978392 -0.24191014 -0.3247773 0.61695606 0.2119702 0.058397584 -0.4151843 0.5757887 0.5135249 0.21651034 0.14068484 -0.29914698 0.19516373 -0.029582381 -0.54063845 0.39753652 -0.6274246 -0.62158465 -0.28818074 0.25025997 0.5056945 -0.6366671 0.09814572 0.042555094 -0.37196302 0.067612566 0.4385773 -0.22091767 -0.30443454 -0.011919115 -0.37575442 -0.52386534 0.37874424 0.5990188 0.52291024 0.3535656 0.14610718 0.516721 0.09784065 -0.120898895 -0.45845073 -0.81121784 -0.15572895 0.112784356 -0.7207718 -0.17430848 -0.02911811 0.57461685 -0.26123393 -0.3517185 -0.717451 -0.0124229165 -0.13622013 -0.1598782 -0.3021172 -0.45802522 0.16528685 0.5740622 -0.6163738 0.427335 0.25157046 -0.087434456 -0.043531153 -0.75905657 0.38036966 0.134063 0.2437174 -0.6216172 -0.34224737 -0.5299572 -0.05771295 0.32450983 0.05249822 -0.40011874 0.025082406 0.086983874 -0.44549292 0.16667391 0.33604783 0.1388001 0.08898879 0.6161007 0.30662042 0.17426246 0.14624785 -0.34632587 0.06979971 -0.5960496 0.21589407 0.3628074 -0.007968031 0.0587396 0.06836786 -0.14290436 0.63501626 -0.18653616 0.077259034 -0.07772227 0.020365916 -0.105520025 0.32526094 -0.16805714 -0.014549557 0.23795825 -0.12651613 0.10610002 0.5271898 0.09623127 -0.19135445 -0.54909545 0.8357272 0.10765585 -0.014538452 0.054811776 0.6175415 0.26662952 0.0724272 0.013317943 -0.026943114 -0.54998624 -0.27455133 -0.25430685 0.12173323 0.46364066 -0.18621296 -0.2505144 -0.31052506 -0.40975764 -0.29687506 0.19850048 -0.16376841 0.17579946 -0.6255832 0.10247136 0.06266484 -0.45560738 0.27328902 -0.16758215 -0.15608272 -0.08098102 -0.22814152 0.058873095 0.09686603 0.3550112 -0.4594705 -0.14927824 0.23950334 0.21454659 0.5030915 0.21993575 0.089182615 -0.56039643 -0.43086275 0.2516159 0.039733134 0.1157825 0.38326436 0.36993888 0.23213013 -0.6591284 0.41477922 0.013245974 0.27644446 0.25614068 -0.4187677 -0.1542049 0.15835196 -0.14034584 0.3566997 -0.34053695 0.47429538 -0.5902268 -0.033277508 -0.18455859 0.35920647 -0.8841924 -0.17684424 -0.075964 0.034322232 0.067034185 0.5908263 -0.30882746 -0.13426098 -0.4390417 0.90594524 0.48711103 0.0024071895 -0.07815261 -0.5028867 0.3899732 0.79453015 -0.054412186 0.36933213 -0.050268624 0.5727367 -0.2527729 -0.8989275 0.8216171 -0.12809265 -0.4156692 -0.43387905 -0.1561111 -0.25073963 0.29159427 -0.38684985 -0.81430495 0.42452022 -0.08147309 -0.007117007 -0.07254043 0.12553029 0.07492514 -0.54751104 0.13767146 -0.04184354
