-0.93092 -0.9708862 0.79316217 0.43772572 0.7473245 0.36080173 -0.77625495 -0.18616956 -0.13511504 0.9286384 -0.502733 0.27241725 0.96284986 -0.93917143 -0.15452334 0.7432737 0.55590075 0.93018585 -0.043479178 -0.48231414 0.8882268 0.96173036 -0.58786565 0.60278493 0.2837438 0.42360997 -0.28641725 -0.56869423 -0.55338216 -0.93849236 -0.7903441 0.97004306 -0.8197814 -0.9699342 0.8556984 -0.5031616 -0.13736099 0.9087271 -0.7233043 0.67728806 -0.08449589 0.4966389 -0.12102654 0.48996758 -0.9629349 -0.51144946 -0.95600617 -0.40213948 -0.94189197 0.6711677 -0.39355555 -0.88344175 -0.8426667 0.8934125 -0.7497562 0.27137947 0.636435 0.69626516 -0.7307467 0.69912106 0.9829898 -0.8301666 0.14867014 0.57618326 0.8406576 0.9298145 0.30457672 0.3774447 -0.7121882 0.95778084 0.5198549 -0.5316022 -0.1759711 -0.988038 -0.5299427 -0.9658198 -0.07150781 0.8840621 0.34586775 0.19843334 0.93713737 0.41634294 0.46097428 0.8340957 0.2949272 0.1871175 0.8006193 0.88796335 -0.94367886 0.81565356 0.9882709 0.0022081514 0.8902435 0.8658705 0.97163963 0.2730561 -0.09230475 -0.49370247 -0.52863157 -0.92377746 -0.36736885 0.7046611 0.8997891 0.6576454 -0.5922595 -0.9146922 0.058694724 -0.30234396 0.51723313 -0.49831375 -0.6283967 -0.9441698 -0.69649774 0.9800557 0.033509053 -0.90648705 -0.7160361 0.5217085 0.9625567 0.0109117 -0.6024824 -0.8044371 0.5463581 0.2720979 -0.07882319 -0.49897256 0.99733573 -0.08011724 -0.699085 0.7701668 0.13008866 0.7630246 -0.82574874 -0.4960638 0.33682993 0.7671595 0.31857637 0.9555892 -0.36340743 -0.86314297 0.7486859 0.05320041 -0.4970438 -0.12405211 -0.6152135 0.300104 -0.3473321 0.6951603 -0.27170733 -0.9901096 -0.3459265 -0.37570223 -0.48445883 0.35529706 0.9303274 0.08413077 -0.7053191 -0.2735733 -0.8857416 -0.8676425 0.981571 -0.9087406 0.84002924 -0.54173326 -0.95374954 -0.7830876 -0.9240285 -0.050737448 -0.94451743 -0.8842846 -0.80693644 -0.55519307 -0.91273445 0.8740646 0.364741 -0.70690084 0.6862653 0.8156615 0.0057764966 0.5659979 -0.98078567 0.03575215 0.5952785 0.9939723 0.25508857 -0.9156448 -0.98810816 -0.03380938 0.47622728 -0.48468772 -0.5134187 -0.96515757 -0.8744027 0.58222944 -0.9209829 0.39221007 -0.11977024 0.5071212 -0.12822768 0.025546037 -0.30795485 0.072128855 -0.2527095 0.896253 -0.9821028 -0.97400886 0.96826875 -0.9443112 -0.58470356 0.7536562 0.1557176 -0.9691098 -0.14919163 0.29103765 -0.49846402 -0.5719543 -0.36270392 0.7969379 0.16701281 -0.6753987 -0.3867382 0.8357667 0.4079325 0.46965432 -0.40782446 0.97919476 -0.96135545 0.9333236 -0.5693122 -0.82168853 -0.67951506 0.96285975 -0.2906047 -0.76453125 -0.2716077 0.008765296 -0.9565888 0.4025916 0.33273032 -0.9161003 -0.60161173 -0.405868 0.18513791 0.9526607 0.9800812 -0.9017505 -0.45479345 0.70321083 -0.5026806 0.9975339 -0.8459909 -0.41320786 0.14959203 -0.9416085 0.74835724 0.9858565 -0.9811581 0.9177906 0.9272536 -0.27288836 -0.52761436 -0.323475 0.5532901 -0.014868085 -0.5793983 -0.57061774 0.05267539 0.7952796 0.61710995 -0.9538827 -0.26050928 0.1129252 0.95906717 0.4885868 -0.55105907 -0.5394393 -0.20818032 -0.9100492 -0.17759295 -0.5289335 -0.9500522 0.5001614 -0.61330575 -0.4715661 0.2865219 -0.0029741323 -0.92118895 -0.98888797 -0.9156697 0.1939193 -0.7422961 -0.97583985 0.55395657 0.6045162 0.56663436 0.4737484 -0.9359752 0.9672962 0.15262459 0.057742015 -0.5110971 0.66158575 0.6745823 0.31115106 0.900564 0.17165895 0.8344285 -0.052533686 -0.04647372 0.72306424 0.14584583 -0.668061 0.024874547 -0.092436224 -0.40339822 0.9629079 -0.60096294 -0.89822906 0.5977053 -0.94703144 -0.37534103 -0.98202515 0.5666545 -0.19437328 -0.96155566 0.1072813 -0.86275285 -0.82826006 -0.6333696 -0.08330557 0.18173224 -0.23484288 0.36823955 -0.4854033 -0.4426177 0.31360057 0.5527872 0.9799379 -0.8514667 0.68538976 -0.94160545 -0.97536564 0.6311476 0.950901 0.4258958 0.9570889 0.9233388 0.30775616 -0.8713583 0.9379152 0.5914717 -0.71074533 -0.19683808 0.8077414 0.9537396 -0.7883986 0.22562149 -0.991669 0.033345833 -0.36955833 0.36422014 -0.45454988 0.16344127 -0.8845293 -0.9031918 -0.054394737 -0.7573288 -0.08566397 0.57911855 -0.6363295 0.4029697 0.9374934 0.07281618 0.38102078 -0.08735865 0.4843738 0.98954177 -0.74973875 -0.037365638 0.40783313 0.091066025 -0.7279694 0.6790295 -0.50130767
