-0.6197942 -0.09249966 0.89535224 0.22658516 0.52872354 -0.39123246 -0.11612817 -0.49543816 -0.11028781 -0.6208119 -0.3443528 0.76370114 -0.60193336 -0.41053972 -0.19027416 -0.685931 0.49016276 -0.7948712 -0.80658525 -0.6493766 0.36225525 0.81157917 -0.87095404 0.70826894 -0.3506327 -0.06308333 -0.43557802 -0.7841926 -0.15104337 0.43369624 0.14478803 0.8443699 -0.6444449 0.6118247 -0.12912384 0.2934497 0.87856674 0.65898776 0.22180893 0.14070827 -0.7319086 0.55674154 -0.7389876 0.78324825 0.71665555 0.61788005 -0.346388 0.5745551 -0.37629914 0.702684 -0.78907555 -0.6878194 -0.341648 0.63094354 0.8610442 0.55519503 -0.8518516 0.3485223 -0.62526786 -0.8069562 0.7207296 0.50671786 0.9015921 0.46842298 -0.5638492 0.21511509 0.80431145 -0.3001446 -0.49554873 0.78992414 0.5565656 0.2703753 -0.71855867 0.86157423 0.5316207 0.2809159 0.7096843 -0.48411515 0.0021407197 -0.56976503 -0.63815814 0.44161555 -0.40402362 -0.6080708 -0.39210913 0.07248592 -0.40899277 -0.9000329 -0.6502712 -0.03309595 -0.33747748 0.44118428 0.4505207 0.81504077 0.5656256 0.18945564 0.46200013 0.7026261 0.067976385 -0.591094 0.73054963 -0.5807726 -0.5541758 -0.730095 -0.80876493 0.3017138 -0.8009503 0.65286577 0.17653163 0.28073913 -0.48897722 0.5430577 -0.5061671 0.26846805 0.1980835 -0.51205164 -0.4284747 0.27731305 0.3494856 0.72745657 -0.45047882 -0.86532086 0.4160174 0.3746314 0.78985596 0.4500014 0.6860963 0.40098724 0.6001637 0.5915691 -0.7241019 0.24903409 0.037445217 0.7348462 0.5550362 -0.58396864 -0.56138605 0.81683904 0.5420013 0.33703995 -0.9362915 -0.72531176 -0.8784591 -0.8351876 0.30397642 0.9042507 -0.7492794 -0.47566557 -0.76671416 0.19322366 -0.4647547 -0.3003755 -0.58428055 0.55223995 -0.49055162 -0.47413632 -0.72766274 -0.31831312 -0.39548233 0.8327084 -0.6569391 0.38551006 -0.64835066 -0.5625816 -0.055094846 -0.4426707 0.75791746 -0.57551974 -0.026026966 -0.015472237 -0.68307865 -0.8950868 0.41565022 0.6597686 -0.15747656 0.7964187 0.57280993 -0.37017328 0.69107306 0.61054325 0.3080078 0.4346257 -0.6977702 0.173705 0.31416327 -0.60682964 -0.7019598 -0.49909538 0.6751627 0.43197605 0.65263456 -0.54949546 0.7979482 0.33175126 -0.05407813 -0.8456008 0.5868231 0.34439394 0.47621906 0.67893684 -0.33357283 -0.36121586 -0.27774575 -0.32815132 -0.7534039 -0.7729487 -0.63154364 0.48713967 -0.57189816 0.44879863 -0.48581308 -0.34135312 -0.11259652 0.49959463 -0.71000314 0.4749509 0.52145565 -0.6177858 0.40757304 0.6682101 0.75828004 -0.55984515 0.6955671 0.9321949 0.5107792 -0.7446934 -0.6114479 0.43989643 -0.46570617 0.22718334 0.38366604 0.80860806 -0.33887467 -0.27561384 0.27937317 0.45117196 -0.061686613 0.5009431 -0.5957314 0.7179654 -0.48940596 0.48554903 0.3776793 0.008802641 -0.05632553 -0.0719033 -0.41870794 0.6786927 -0.4060179 -0.22639519 -0.44346842 0.37434456 0.43017277 0.7418263 -0.53737307 0.56698215 -0.9006711 -0.120261036 0.37752014 -0.32360172 -0.7867246 -0.6717251 -0.64807355 -0.20546666 0.06468114 0.32549566 0.8200919 0.7071032 0.7924039 -0.5546789 0.27561155 -0.46495023 -0.7470849 -0.78973174 0.93753314 -0.35052815 -0.69494545 0.88172156 -0.3585649 0.33531514 -0.32336253 -0.63083863 -0.6114526 0.1337136 -0.665706 -0.2984149 -0.70917565 -0.7666476 -0.7007348 -0.7093085 -0.45756143 0.73058754 0.8079632 -0.32691866 0.4930389 -0.5179703 -0.7683554 0.77775794 -0.5204326 -0.23756047 0.2317892 -0.8755935 -0.68536127 -0.24627434 -0.7018719 0.43402845 -0.51812285 -0.21261084 0.6802298 -0.80129766 -0.002762325 -0.0042844936 -0.30635017 -0.4988619 -0.5076937 0.31617567 -0.28426105 0.5251916 0.8421185 -0.68323624 -0.35562295 -0.82265013 0.33275682 0.50354683 -0.70370305 0.69958484 -0.7053495 -0.10470543 -0.7115825 0.36240232 0.027001904 -0.23940016 0.6746406 -0.57069707 0.7588407 0.35987762 0.6201393 0.58502156 -0.5351317 0.8087027 0.26704797 0.536013 0.78514993 -0.5561049 0.5095697 0.5383468 -0.6309268 -0.49802226 -0.68983537 0.698512 -0.74909 -0.107242964 -0.86200565 0.68564266 -0.59959567 -0.649261 -0.49299425 -0.009986868 -0.4844226 0.650089 -0.70871246 -0.50173646 0.51574856 -0.27606705 0.46451798 0.47508472 -0.57989836 -0.78590024 -0.43973047 0.1797535 0.6360819 0.152905 -0.3348412 0.60610056 -0.653359 0.7509686 -0.76655895 0.7236023 0.6558032 0.6220758 -0.35218742 0.61861336 0.49459743 -0.14658876
-0.90601736 0.5341984 0.78105325 0.662458 -0.7440408 -0.6675872 0.9641987 -0.6984009 0.81667304 -0.4892452 0.0137992455 0.8284952 -0.8849627 0.28017062 0.24462457 -0.9677907 0.8444098 -0.83247346 -0.89725536 -0.8017356 -0.26758626 0.75811267 -0.87975633 0.97684616 -0.37526482 -0.4051282 0.08966046 -0.9153981 0.041093733 0.77578413 0.24813807 0.83986264 -0.3623128 0.7749409 0.038185872 0.84910285 0.94421506 0.74300605 0.14899816 0.81134367 -0.65263325 0.7731221 -0.8984086 0.8880492 -0.21969768 0.40292752 0.6962755 0.8781819 0.3256445 0.84804314 -0.939382 -0.7220541 0.8206757 0.871518 0.9384292 0.33846226 -0.94181246 -0.17537771 -0.8166413 -0.3867631 0.93498325 0.91409326 0.8567111 -0.5680229 -0.15290675 -0.7526604 0.83241594 -0.5557887 -0.17906627 0.90118545 0.12561674 0.66378665 -0.8697793 0.66351426 -0.21311915 0.187192 0.898215 0.031835783 0.7414084 -0.34059227 -0.37466285 0.59163207 -0.07595227 -0.9294052 -0.72275656 0.5143628 -0.024331424 -0.9606656 -0.89420813 0.38897774 -0.27209276 -0.08839661 0.6305793 0.8407356 0.79716074 0.89654267 0.39203367 0.7553233 0.17337514 -0.94834703 0.80010295 -0.68327487 0.656125 -0.5738844 -0.97458327 0.56447625 -0.9374363 0.7670863 0.5736138 0.84255934 -0.8335202 -0.44615012 -0.61228687 -0.23226337 0.89104086 -0.666373 -0.6610495 -0.89896923 0.5914898 0.80011034 -0.4146184 -0.87417626 0.6591404 -0.64042336 0.9455621 0.57346565 0.89491534 0.46552822 0.7775894 0.68641007 -0.96661866 0.28421715 -0.65912765 0.140648 0.52042836 -0.45432103 -0.37911913 0.9231724 0.8645143 0.9710366 -0.95094657 -0.79383725 -0.959456 -0.8475969 0.65357363 0.91431516 -0.90403223 -0.8440553 -0.7850319 0.52269864 -0.80072695 -0.32377836 -0.88847184 0.25895163 -0.78404397 -0.62022716 -0.9559051 0.2675376 -0.46771002 0.845083 -0.69097203 0.86540097 0.26743466 -0.7617058 -0.8926467 -0.5245928 0.8218536 -0.7240035 -0.5365918 0.8295762 -0.75085735 -0.95162547 0.76904744 0.5168947 -0.3366547 0.8542995 0.47536206 0.4536451 -0.6811896 0.79620284 0.46461868 0.8247017 -0.798915 0.35605127 0.40420046 -0.79611856 -0.92608875 -0.91044915 0.6483225 0.9291813 0.5515667 -0.78517276 0.70871794 0.50405514 -0.8429647 -0.76506484 0.11462331 0.707706 0.7622218 0.81423885 -0.31825334 -0.57287407 -0.36110765 -0.64860314 -0.791597 -0.9168492 -0.53677684 0.35304272 -0.7556405 0.7417994 -0.719106 0.1148554 0.14193441 0.84721 -0.9687611 0.2042015 0.96317893 -0.6902587 0.72653306 0.8766741 0.14463842 0.10226528 0.9268875 0.8956343 0.41089725 -0.83446985 -0.89076746 0.8992937 0.3795246 -0.024094472 0.34362495 0.818072 0.5305613 -0.77318203 0.6655817 -0.054016344 0.642987 0.92811906 -0.7785109 0.8963364 -0.8646872 0.92899245 0.69884646 -0.3502615 -0.30729693 -0.029439854 -0.6859567 0.730167 0.6358819 0.9367454 -0.7398529 -0.10882287 0.13533762 0.76085716 -0.5299373 0.7515494 -0.96121407 0.5746854 0.7586874 -0.6701603 -0.706709 -0.8099142 -0.898651 0.93354934 -0.68506384 0.657579 0.8921849 0.80741125 0.87990046 -0.9262701 -0.33286303 -0.33096653 -0.80408645 -0.957792 0.9113956 -0.7509581 -0.5565521 0.9840074 0.20553985 0.74184597 -0.78267956 -0.6528937 -0.28811622 0.44682798 -0.8495301 -0.3613401 -0.8792959 -0.3408606 -0.111466184 -0.41757846 -0.08916439 0.75853235 0.8904569 -0.17078269 0.854682 -0.2147105 -0.47615755 0.8277589 -0.74556863 -0.06842149 -0.07152325 -0.9448745 -0.2629261 0.30400842 -0.77180886 -0.8057706 0.35372204 -0.28099945 0.627632 -0.8805911 0.40270784 -0.67412573 -0.37272513 -0.8959489 -0.3689617 0.72493047 -0.4083772 0.6876966 0.674176 0.18170913 0.2417483 -0.741711 -0.12017446 0.8925433 -0.537504 0.74143785 -0.57808214 0.75761896 0.1340135 0.542509 -0.31322858 -0.69574076 0.8231035 -0.87057906 0.9163514 0.28918412 0.92752814 0.63846314 -0.8626187 0.9716499 0.90099996 -0.26288792 0.77887195 -0.6908385 0.81406283 -0.07803708 -0.82669455 -0.57863516 -0.29596764 0.8578138 -0.6624149 -0.6380747 -0.88214964 0.90462476 -0.745398 -0.8488439 -0.23638016 0.74789107 -0.659958 0.8550793 -0.8947406 -0.021278976 0.72962636 0.94961077 0.2417109 0.44820556 -0.75416696 0.13371325 -0.6289356 0.52789974 0.23579809 0.12429964 0.32206163 0.8674157 -0.18010047 0.6539639 -0.012814465 0.627637 0.8539559 0.9119419 -0.5870104 0.80351347 0.88989145 0.36619735
-0.92158055 -0.007218217 -0.6409558 0.81296146 0.47225454 -0.8077291 0.8440632 -0.6362199 0.82582206 -0.3634253 0.37663996 0.124931015 -0.98696077 -0.22803247 0.8668803 -0.98477113 0.586129 0.046245217 0.15166791 -0.8380739 0.47631788 0.7494217 -0.84344965 0.46957362 -0.29611906 -0.81428313 0.8607888 0.4376194 -0.25029996 0.5683034 -0.5337923 0.23751634 -0.33956695 0.7541104 0.5737722 0.7506265 0.8150382 0.27828744 -0.29230815 0.52553755 -0.7442738 0.8895039 -0.77317965 0.9698611 0.109292135 0.70754534 0.07106834 0.34663954 -0.2601358 0.94072026 -0.9796196 -0.8808963 -0.12866715 0.8240481 0.98232526 0.7360785 -0.94190395 0.61936295 -0.48618847 -0.8727579 0.57600766 0.09112811 0.5542309 -0.8571569 0.56655157 -0.65892774 0.19220865 -0.67116076 -0.50676227 0.7263865 0.38925695 -0.2662729 -0.6398613 0.54227906 -0.27559364 0.52804947 0.47589403 -0.059318602 0.8716412 -0.6492554 -0.7165316 0.9266049 -0.0006563491 -0.37438655 0.4342386 0.47669914 -0.41122484 -0.9581927 -0.56098896 -0.1348378 -0.07306662 0.38004357 0.6862088 0.5936154 0.26345736 0.5225705 0.4848556 0.62260467 -0.75966114 0.20894718 0.91167766 0.09738482 0.5491222 -0.6227091 -0.6953247 -0.3912682 -0.8409833 0.7601847 0.88564134 0.6281473 -0.14457361 0.39962897 0.32220456 -0.60432917 0.5764191 -0.47801152 0.6388339 0.6109391 0.6914085 0.53570914 -0.7610614 -0.93423057 0.20832399 0.23242086 0.9771823 -0.065295905 0.23134165 0.8396577 0.8557725 0.64568406 -0.99646264 0.68969107 0.45864585 -0.6290854 0.03311381 -0.15626882 -0.43638232 0.9939374 0.64424515 0.81208795 -0.773661 0.09477235 -0.89138347 -0.7129064 0.2545194 -0.1840223 -0.89295954 0.0894033 -0.77557737 -0.52970135 -0.60045916 -0.6455414 0.33316734 0.45566052 -0.4426811 -0.18783166 -0.9584991 -0.31442744 -0.31197232 0.9758658 -0.4128618 0.40818506 -0.40738595 -0.7824289 -0.914214 0.5892316 0.80751604 -0.4944333 0.15795802 0.6931356 -0.87791306 -0.6445452 0.43213382 -0.6033067 0.8912671 0.9347107 0.89967126 -0.15402973 -0.47804597 0.82720023 0.22017828 -0.54653656 -0.24530591 -0.10433358 0.3916252 -0.11114662 -0.9158694 -0.9659254 -0.54765874 -0.55528563 0.13421638 -0.8320273 0.89946735 0.4896482 -0.5083933 -0.38993087 0.24660721 0.72648877 0.7262533 0.72342384 -0.16382836 -0.85474145 0.009573197 -0.22834864 -0.71426165 -0.9679751 -0.5021081 0.69184715 -0.3847396 0.61097807 -0.7911216 -0.09765114 0.56441855 0.45096198 -0.4695671 0.4526033 0.7634518 -0.6160444 0.33901325 0.73742527 -0.030741327 -0.51083875 0.10029887 0.7173351 0.7510479 -0.7415516 -0.8707541 0.9509551 0.06932242 0.85485363 0.6310937 0.70812327 -0.29962766 0.24605687 0.54068214 -0.449293 -0.71112543 0.489105 -0.7591636 0.81388015 -0.92937267 0.72417504 0.74480677 -0.63886505 -0.44486865 0.79605615 -0.6378487 0.27069518 -0.80425054 0.7065913 -0.23096842 -0.26797447 -0.22684579 -0.27265123 0.07840897 -0.7282544 -0.33169293 -0.7957966 0.8011897 -0.2999627 -0.7145501 -0.36339676 -0.9533899 0.38063928 0.14480302 0.27612555 0.9233637 0.82537115 0.34528276 -0.8574966 -0.42089334 0.3523836 0.023737103 -0.92939997 0.38037136 -0.3377571 -0.7763542 0.07375214 0.4664809 0.62050265 -0.6768474 -0.26480746 -0.59714264 0.51028234 -0.95469797 -0.50638914 -0.9034903 0.5660753 0.23696467 0.43656242 -0.4914356 0.887432 0.75394195 -0.7024365 0.6975203 0.50270665 -0.79038423 0.79077226 -0.75111467 -0.6500883 0.43955413 -0.9836418 0.23588754 0.81790704 -0.5402108 -0.3351163 0.5078304 -0.14030361 0.81588525 -0.60654044 0.13324563 0.00019620406 -0.712098 -0.7562652 -0.21480949 -0.3999568 -0.7898847 -0.09138798 0.28918192 -0.620928 0.65445155 -0.33766517 0.74820536 0.09895938 -0.81454074 -0.07355063 -0.4111464 0.27004272 0.06570916 0.39612144 -0.0640492 -0.70693725 0.5075803 -0.563233 0.46837613 0.37536725 0.21416442 0.87442875 0.048298486 0.8052204 0.22527172 -0.4340567 0.6142367 -0.72889686 0.87450856 0.784796 -0.49641454 -0.8578332 0.14248723 0.657121 0.39877772 0.050133348 -0.34003186 0.17020743 -0.37054843 -0.5405151 -0.33445972 0.61915696 -0.5333639 0.7610567 -0.962763 -0.18068852 -0.20578124 0.6366161 0.3422726 0.81681114 -0.64785725 0.41404995 -0.4019584 -0.4217356 0.34797668 0.45898026 0.17791207 0.9429166 -0.7327122 0.39076987 -0.81945336 0.43516773 0.10162562 0.7186678 0.78989 0.93460125 0.6888868 -0.34952465
-0.7050464 -0.20679969 -0.9123871 -0.8709919 0.23005673 -0.69490844 -0.5919923 0.21458891 0.1470678 -0.3008184 0.71203744 0.8837093 -0.63406485 0.72638655 0.50714946 -0.9094142 -0.75872713 -0.7855279 -0.19931734 -0.14665198 -0.82575655 0.54031044 -0.64225423 -0.085112564 0.6751866 -0.83577687 -0.28061962 -0.30167124 0.5560586 0.6315115 0.15998687 -0.5120794 0.9043581 0.7088716 0.7988451 0.42189217 0.37932888 -0.96177983 0.60325336 0.13288422 -0.63868713 0.50466114 -0.31382143 0.48569438 0.92971236 0.8695916 0.11469053 0.4573319 0.17937838 0.66475487 -0.28899303 -0.14443707 -0.3818079 -0.3453759 0.88749063 -0.20570156 -0.01726413 0.35563126 0.22314692 -0.50847495 0.48701862 0.14225714 0.44279534 0.09839374 -0.8720256 -0.3262371 0.4295993 0.56333953 0.68851006 0.75680923 0.84168035 -0.001708407 -0.042631943 0.6274863 -0.21450011 -0.9370066 -0.4323614 0.69371986 0.57706124 -0.26690367 0.9020736 0.6271412 0.8098187 0.04974691 -0.34591156 0.48486707 0.93063515 -0.47999662 -0.57945013 -0.7314749 -0.73641765 -0.92453504 0.13792929 0.43755442 -0.8822039 0.2789471 0.21503396 0.4778914 -0.74338335 -0.25618267 0.102097794 0.3753844 0.6577454 -0.79990494 -0.84677577 -0.8879349 -0.8383349 0.7830852 0.7435736 0.9588196 0.7347032 0.30742142 -0.44190973 0.54933393 -0.51914936 -0.07980597 0.61337894 0.6010021 -0.9492002 -0.25135842 -0.94379705 -0.12656221 0.24227972 0.31303173 0.8628008 0.7967305 0.053826105 0.907534 0.28356883 0.50420845 -0.82196 0.4394803 0.42121452 0.7149323 -0.46047977 -0.92735004 -0.43062946 0.2397997 0.7648411 0.7543578 -0.43506083 0.1347171 -0.74615663 0.3908419 -0.88760746 -0.023944162 0.066957116 0.37660012 0.93814063 0.84141964 -0.6636645 -0.5452934 -0.54225755 -0.20038034 0.110636786 -0.40539154 -0.82763076 -0.8275087 -0.31497842 0.8014129 0.4012518 -0.27480754 -0.5860331 -0.66738176 -0.091615245 0.016722567 0.7430111 0.88448364 -0.82327086 0.89245516 -0.2841356 -0.8180685 -0.6769152 0.880422 0.78496736 0.25493366 0.4644309 -0.36126956 0.0012628017 0.7779419 -0.8332978 0.82355094 -0.7637246 0.14068656 0.7652696 0.524077 -0.47973412 -0.5018076 -0.00024011871 -0.10749803 0.21629602 -0.24819168 0.7947013 -0.8474896 -0.79735404 -0.6155788 -0.8590795 0.80863076 0.5501063 -0.5297868 -0.544758 -0.30496606 0.57333875 -0.44867295 -0.4148924 -0.4218802 0.35325462 0.08344208 -0.6427446 0.36923254 0.5675566 0.051447563 -0.6762095 0.20619161 -0.94783187 0.4057826 0.51311946 0.16223606 -0.57704943 0.87029046 -0.12242893 -0.921425 0.2987172 0.42042035 -0.37926584 -0.29725137 0.13298118 0.85650826 -0.4907942 0.34490865 -0.5407173 -0.83929366 -0.779821 0.2647066 -0.7088552 -0.22583044 -0.8983375 -0.013364105 -0.65148914 -0.7471911 -0.2714957 0.41889757 0.64211154 0.70424074 -0.41267002 0.7682769 -0.037825022 -0.33718905 -0.83370584 0.28548238 0.1739603 -0.5936157 -0.8101718 0.053864382 -0.23525482 -0.51368564 0.63509494 -0.013580489 -0.39218083 0.65574 -0.80464 -0.25963366 0.1876622 -0.21292138 0.02352896 0.68211067 0.27227536 0.739374 -0.397815 -0.7860299 0.5221899 -0.7441797 0.850832 -0.2083272 0.34003615 0.23077895 -0.64325476 0.75953054 -0.9782967 0.3833196 0.12295535 -0.53650314 0.5267806 0.8845162 -0.47798896 -0.8868551 -0.8745963 -0.61008817 0.16644916 -0.42446178 0.8030054 0.90118647 0.24306454 -0.4065697 0.82962745 -0.5948782 0.6800395 -0.8987815 0.544406 0.64080864 0.94060516 -0.4364871 0.007297421 -0.728725 -0.36806035 0.5246381 -0.3870412 -0.25379303 0.21462871 -0.74874216 0.39898422 -0.82404095 -0.78248817 0.42675835 0.46104106 -0.4082206 -0.43209162 0.7771729 0.61127967 0.94299704 0.46755874 0.6462976 0.8025719 -0.31598848 -0.4622197 -0.76354736 0.27525565 -0.6140081 0.2663689 0.7165132 -0.19344944 -0.802343 -0.11965466 0.725254 0.6204142 0.7840978 0.85466677 0.25100446 0.11810115 -0.6572179 -0.38196906 -0.2661477 0.7689518 0.8575179 0.83199275 0.82268035 0.80681086 -0.57126975 -0.002308201 0.23757444 -0.12693356 -0.9015964 -0.47823232 0.9856389 -0.6250344 0.39956895 0.23278442 -0.9086814 -0.18516777 0.9518965 -0.8050812 0.29107612 -0.59220237 0.10449323 0.824342 -0.4515874 0.5496005 -0.7283704 0.35076436 0.8366146 0.80875987 -0.3403468 0.9131811 0.59383166 -0.94006264 -0.8269988 -0.7766002 0.8655135 -0.73389065 -0.36321223 0.45833796 0.5034474 -0.40778458 -0.7847987
0.80801857 -0.43155012 -0.9686358 0.5122398 0.32785192 -0.047585502 -0.20867792 0.6347411 -0.7019984 -0.7116998 -0.29178768 0.5831017 -0.96340895 0.97201455 0.9265324 0.45758626 0.51345015 0.22491834 0.63142747 0.50343984 -0.4607133 -0.043124825 -0.95808804 0.7289978 0.0556872 -0.727104 0.27870542 0.7033936 -0.406583 0.64479357 -0.26792082 -0.30450362 -0.21064344 0.8892296 -0.3185751 -0.8262202 -0.13407631 -0.99621964 0.23860751 -0.21580651 0.14212947 -0.41948625 0.23064826 -0.43614727 -0.17194685 -0.26348776 0.47964686 0.96019983 0.8147926 -0.06921215 -0.0114843305 0.22394684 -0.71954775 -0.9427761 0.48685429 -0.49342427 0.94060737 -0.5226833 -0.95595545 -0.71901107 -0.7679149 -0.50486916 0.97468495 0.6182877 0.011690185 -0.064254574 -0.21572153 0.6206308 0.8552511 0.70235723 -0.17506595 -0.027894076 -0.23699144 0.77251387 -0.7388783 -0.7004282 -0.02895657 0.46157777 -0.66722775 0.34677848 0.7097173 0.8840044 0.76473975 -0.24723855 0.64358777 -0.09161175 -0.6851197 0.2769595 -0.9473273 -0.41690373 -0.39779586 -0.96474385 -0.54954886 -0.11176603 -0.96546733 0.5542179 0.98054266 -0.84920394 -0.7305673 0.23900725 0.23183489 0.8482465 0.89570427 0.25273573 0.30113304 -0.41421986 -0.9576014 -0.5651897 0.81059235 0.96917677 -0.286677 -0.25333598 -0.09035426 -0.94511884 0.69006497 0.25347385 0.55160093 0.7096726 -0.86364025 -0.982488 0.74545866 -0.5085405 0.57565063 -0.16202138 -0.17304412 -0.27092853 0.43432915 0.9839496 0.69664854 0.119135775 -0.44115812 -0.4618903 0.39128095 0.41099173 0.11220335 0.28269246 0.5425108 -0.60148937 0.45610455 0.43719962 0.60432774 0.86463124 -0.06216113 0.9744526 -0.7448872 -0.5078174 -0.7535954 0.9157522 0.7938732 0.39380386 -0.9357295 -0.5125773 -0.9892816 -0.12464087 -0.1581189 0.32978842 -0.35993776 -0.3491577 0.13015588 0.23403668 0.4139755 0.09922716 -0.52472115 0.6631273 -0.8854542 0.35038245 -0.35082433 -0.24680638 0.2478009 0.97746086 -0.27044305 0.3520791 -0.92326105 -0.17403495 0.36024252 0.55948937 -0.70624685 -0.9107648 0.8649689 -0.08237259 0.0086017605 0.60722446 -0.5892241 0.043808408 0.701128 0.01604185 0.62151235 0.6754829 0.7021719 -0.7118152 0.29499385 0.54308593 0.66906077 0.8108557 -0.33942258 -0.4229588 -0.8781611 0.112063766 -0.38373634 0.2348876 -0.64271295 -0.671518 -0.7673417 0.3129748 0.10001431 -0.21492897 -0.6297518 -0.53124994 -0.8057166 -0.36844733 0.9277098 -0.4720365 0.1824576 -0.15391447 0.24640349 -0.8925515 -0.3994438 -0.13499726 -0.9925165 -0.07073403 0.89455193 -0.9851585 -0.68044615 -0.34560934 -0.7115308 0.7358557 0.76767564 0.30780816 -0.528995 0.23463005 -0.92343724 0.29284012 -0.32445684 -0.66114205 0.21335076 0.41571882 -0.048608348 0.8865104 0.5929916 0.45778257 -0.5759113 0.022852521 0.11763021 0.97255087 -0.758982 -0.3475389 -0.22060369 -0.81412613 -0.36626747 -0.13514821 0.8604268 -0.9783653 0.54599637 -0.42768952 -0.4196877 -0.25451553 0.2879991 -0.43353108 0.46738502 0.27904505 0.43403554 0.08091371 0.5567339 -0.36265233 -0.95001745 -0.47576553 -0.24999228 0.36003435 0.1552405 -0.7569155 0.8225766 -0.5034679 -0.47455698 0.8565625 -0.16899294 0.7108213 -0.8107727 0.74810207 -0.8927746 -0.876155 -0.9591432 0.30843833 -0.19311416 0.90863115 -0.8625543 0.24324109 -0.6322022 0.36324123 -0.66172695 -0.92342126 0.63056016 0.98460555 0.3785652 0.6511224 -0.13091415 -0.9134942 0.65392214 -0.98780495 0.7176683 0.20704554 -0.036058553 -0.5443196 -0.9542089 -0.5551067 -0.94741404 -0.10930059 0.61450446 0.6914327 -0.5916722 -0.3633047 0.5851469 -0.92004025 0.98024166 0.83109766 -0.27583706 0.44456652 0.9809975 0.98430514 0.6515697 0.9691056 -0.60505736 0.6526445 -0.42866328 -0.68440026 -0.013931729 -0.3349283 -0.4121981 -0.92396814 0.016187679 0.6834685 0.99123555 -0.94609904 -0.8012391 0.94320333 0.45948905 -0.6017722 -0.60484433 0.7031318 0.8237325 -0.9886488 -0.058196533 0.038741853 0.621206 0.9933959 -0.9761168 -0.06780817 0.7421777 0.42561716 0.42802948 0.97166264 0.22418416 -0.6924246 0.4142769 0.992513 -0.2247637 0.3922209 0.1374925 -0.9711944 0.422097 -0.7014455 0.21508235 -0.4077889 0.43769395 -0.7791568 -0.39288127 -0.95770746 0.45477358 -0.09106816 -0.5051758 0.7065329 0.6808362 0.08490051 0.9461782 0.6523965 0.2075124 -0.34520674 0.39395446 -0.4013437 -0.9565266 -0.3766199 -0.004479027 0.9459762 -0.46752667 -0.72000134
-0.2314794 -0.9297323 0.44195095 0.14309694 -0.35819048 -0.55478096 -0.2986758 -0.94578016 -0.66303146 -0.88778377 0.95396024 0.37565732 0.46483082 0.044753753 -0.6894176 -0.4099283 -0.6855821 -0.32952836 -0.8352102 0.09040345 0.5644281 -0.058527563 0.596332 0.79706943 -0.56739587 0.64930254 0.9099288 -0.6738604 0.90990233 0.805666 -0.8817503 -0.28469634 -0.035671584 -0.47835824 0.6461729 -0.64652395 -0.69172287 -0.8840906 -0.2655308 0.5823969 -0.46820924 -0.69041145 -0.75276357 -0.85411185 -0.081977315 0.5622767 -0.22497493 0.8396758 -0.5947665 -0.04455719 -0.017024677 0.49707133 -0.83864576 0.86330265 0.44750187 -0.84654605 -0.5722225 -0.32130882 0.3145281 -0.8408559 -0.6535001 0.40234897 0.9441789 0.6101444 0.21183735 0.83837366 0.6251981 -0.65749466 0.35557526 0.805596 -0.6258745 0.74633485 -0.62249553 0.79122967 0.1743628 0.70796376 0.8429529 0.931581 -0.70794725 -0.95841354 0.8803032 -0.24075359 -0.5909183 0.98615825 0.6626886 0.31616378 -0.8667692 -0.87479585 0.39509243 -0.045072723 0.0061873123 -0.94931835 0.6083734 -0.7421928 -0.35719916 -0.6103284 0.9047913 0.3098571 0.4408161 0.12720238 0.9131668 -0.2571185 -0.7882392 -0.9217413 0.27629307 0.73525685 -0.50583863 -0.7577749 -0.49014872 0.9703053 0.21083876 0.91985595 0.20687383 -0.15283857 0.86197066 -0.63830525 0.72446895 0.43013617 -0.6855953 0.7855888 0.91480273 0.5650857 -0.038234502 -0.23714721 -0.803746 0.19138287 -0.5111502 -0.79078853 -0.80002266 0.5026933 -0.7684479 -0.7683363 -0.5492486 0.35847437 -0.71314895 -0.5164959 -0.43188858 -0.13666491 0.3499571 -0.1086094 0.6637563 -0.13544407 -0.81745166 -0.63514787 -0.1605657 0.3482676 -0.53535163 0.094198674 -0.63138354 0.9295095 -0.5802113 -0.31755206 0.6208519 0.7830779 -0.86717254 -0.94791913 -0.79809326 0.009702906 0.5361941 0.8946428 -0.38852656 -0.18930426 0.10519956 -0.6869741 -0.08954458 -0.75254214 0.8571127 -0.7954187 -0.29522806 0.72965825 -0.25309783 -0.89540166 -0.8127267 0.8264845 -0.87287825 -0.65207505 0.9530888 0.67447054 0.85740876 0.82483506 -0.9533344 -0.20266616 -0.9085439 -0.28708595 0.8572618 -0.2912557 0.7776483 0.4528427 0.8190512 0.593495 0.6204572 0.7593345 -0.54697686 0.75345856 0.66753715 -0.10746656 -0.89814043 0.77233875 0.81791294 0.64207536 -0.7053443 -0.43913254 -0.67421895 -0.83683175 -0.9627645 0.5526219 -0.11004068 -0.7653186 0.16940555 -0.8196375 -0.13768043 -0.45557877 -0.53970516 -0.8543975 0.19164135 -0.1425402 -0.18007725 0.51913536 -0.991148 0.9451818 0.48111236 -0.9060044 -0.08104844 0.18744805 -0.72095025 -0.22935724 0.19618347 -0.8851989 0.17663223 0.5028801 -0.15873703 0.3783515 0.7396542 0.49653468 0.59879446 -0.57020605 0.6157567 0.9576153 0.5470713 0.695282 0.5813763 -0.045530178 -0.9096659 0.8285793 0.7786777 -0.6356546 -0.71656466 0.6333564 -0.57936263 -0.6802729 -0.8908421 -0.9201619 0.90269214 0.8391821 -0.9931176 -0.09470708 -0.654906 0.40526497 -0.507214 -0.7377249 0.20316692 0.68839264 -0.07425019 -0.33799446 -0.9293866 0.7002845 0.8335132 0.8598801 -0.32968375 0.6089425 0.32791027 0.8480639 0.12447022 -0.9366311 0.644321 0.8128426 -0.7750885 0.37821728 0.67038155 0.39580742 -0.9389378 0.43333912 -0.4072787 0.9908145 -0.55874246 0.96638966 -0.956258 0.56217563 -0.42087188 -0.7931279 -0.6541171 0.92 0.8576499 0.7690801 0.71000135 0.722862 -0.30991793 -0.67769897 0.5315862 -0.7758137 0.119825184 0.22043703 -0.99191767 0.41668406 -0.98962575 0.90941024 0.47987488 -0.45432687 -0.64347273 -0.83975303 0.86005455 -0.9653546 0.19981748 -0.5902759 -0.041054953 -0.008473955 -0.39915 0.97152853 -0.47771907 0.8688043 0.34823266 0.5620752 0.7636129 -0.6782047 0.7807456 -0.29926765 0.26558456 -0.80441445 0.23607971 -0.3553828 0.96859306 -0.7324657 -0.28437668 -0.7330045 0.6830692 -0.95694983 0.57734823 -0.5640203 0.94806373 -0.95281845 -0.97140276 -0.2544883 0.79267734 0.49967286 -0.78623426 0.958914 -0.5631565 0.7131917 0.7329258 0.053200305 -0.4338793 0.31817576 -0.7454256 0.9907534 0.93206376 -0.79423845 0.9062677 0.22457394 -0.85828674 0.4618485 -0.65867954 0.7550766 -0.8590678 0.8219991 -0.48805293 0.37006924 -0.56109196 -0.966241 -0.6928973 0.82828605 0.65812767 0.91023 0.20411365 -0.6074145 -0.91962117 -0.21017233 -0.66979355 -0.8913383 0.7787174 -0.44913387 0.43268335 0.8040244 0.73232 0.24482921
