-0.63374597 0.16347402 -0.44884574 0.5661966 0.9322566 0.54372144 0.9429096 -0.1256198 0.63035846 -0.81958526 -0.30953667 0.63038415 -0.9946554 0.37835798 0.8308539 -0.9791111 0.9394435 0.7922169 0.07983503 -0.7351511 -0.7977549 0.65302867 -0.9402248 -0.09924836 -0.8846087 -0.6993473 -0.6721115 -0.78232324 -0.10097861 -0.50587213 0.3889051 0.7734151 -0.9274003 -0.45671308 0.7690022 -0.7078766 0.05655807 -0.7066807 0.12321164 0.19679049 -0.9658387 0.9744653 -0.61726075 -0.2233127 -0.75463736 0.26100776 -0.52176535 0.35185364 -0.9519386 0.9502517 -0.33087805 -0.27818906 -0.25227967 -0.4721766 0.8716274 0.6488343 -0.20318247 0.7868962 0.086762086 -0.87965757 0.92376214 -0.8576607 0.23208681 -0.1859564 0.26598138 -0.29878405 0.9415475 0.20285071 -0.84709996 -0.39892772 -0.08609225 0.73191005 -0.95603615 -0.019542003 0.81511086 0.339024 0.9085675 -0.70195097 0.7508389 -0.2528843 0.39225268 0.93050146 -0.18414086 -0.7237916 -0.17846134 0.6922067 -0.88950044 -0.7300505 0.7824967 0.041399725 -0.17327787 0.658207 0.47475526 0.50806534 0.77996856 -0.5267689 0.107529186 -0.53906804 0.5460995 -0.026562577 0.92761004 0.1305438 -0.6086943 -0.7637293 -0.9336934 0.27368397 -0.90388054 0.6658621 0.28762135 0.07359833 0.44551554 -0.76586163 0.115959 0.60915583 -0.17779963 0.8040658 0.34978485 0.2791793 0.5023145 0.9369794 0.68901974 -0.9822248 0.7766611 -0.87954515 0.5231883 0.830509 0.19530916 0.8720641 0.79375535 0.26624516 -0.98473036 -0.6436424 -0.16315167 0.5374617 0.5051213 -0.33471006 -0.7972794 -0.66150653 0.32427678 0.90857166 -0.6127202 0.007988931 -0.95678264 0.84137815 0.73041326 -0.2401048 -0.92639095 0.8898319 0.72983706 0.5081462 -0.5250858 -0.14678653 0.14212304 0.4435372 -0.60288846 -0.012484348 0.65035737 -0.7262173 -0.21646728 0.74956393 -0.8876513 0.7416646 -0.6310747 -0.5559499 0.7925536 0.816696 0.78500265 0.7901015 0.84952104 0.9746889 -0.70258486 -0.91704077 -0.27422866 0.84399796 0.74855334 0.84484357 -0.8396221 -0.9427156 -0.46066925 -0.19510093 0.2294378 -0.14877273 -0.7089795 -0.6037419 0.47862273 -0.21102513 0.7053267 -0.95443326 -0.48663574 -0.6785398 0.93249637 0.47203156 0.985745 0.7080491 -0.9727211 -0.98015094 -0.9424383 -0.38789836 0.90740997 0.9555576 -0.9001332 0.5475741 -0.36526603 0.18352762 -0.9055396 -0.80120826 -0.9591658 -0.4944914 -0.34385544 -0.48661003 0.5645206 0.022527082 -0.6991127 0.9221766 0.48345253 0.33136144 0.09957677 -0.90102947 0.98979825 0.86311316 -0.36340362 -0.057322565 0.51724 0.22764106 0.46615523 -0.6817305 -0.16415153 0.13311762 -0.2541363 -0.76132655 0.7270702 0.93002677 -0.19054803 -0.41118738 0.6194303 0.22759587 0.73572534 0.49070388 0.7724434 0.31642717 0.7197561 0.37744978 -0.20456676 0.17592956 -0.75663716 0.003553859 0.7293042 0.9411109 0.7521922 -0.50602853 0.5242386 -0.062457107 -0.5413143 0.8726195 -0.08334239 0.8062546 0.75764346 0.38519502 0.18733072 -0.6131768 -0.9724295 -0.9615819 -0.87186545 -0.87772876 0.5097828 0.14300211 0.9709812 0.33481398 0.9469026 0.3692776 -0.4839595 -0.68317866 -0.27991655 -0.23966236 0.9707585 -0.30764863 -0.40066808 0.75364447 0.41492766 0.5924598 -0.75910616 -0.76483274 -0.654752 -0.71998125 -0.86160123 -0.6030552 -0.96921295 0.8432424 0.49206147 0.62271905 0.18500642 -0.046629973 0.29241258 0.8638737 -0.26267245 -0.41969275 -0.92760414 0.91782695 0.27249858 -0.7361235 0.3265413 -0.9103515 0.38872513 0.38427392 0.58162856 0.18378043 -0.514616 0.119764864 0.76540405 -0.036100976 0.5284477 -0.33523762 -0.8689506 -0.540244 0.77747774 0.87055063 0.2655382 0.8436198 0.7324386 -0.45598474 0.63272285 0.91230816 -0.41781327 -0.6488748 -0.6559766 -0.4635271 -0.22730152 0.86872447 0.4075083 0.41414818 -0.74073845 0.8007487 -0.92399335 -0.63989305 -0.23278795 0.88807005 -0.091884576 -0.534624 -0.5476003 0.9387705 0.8004512 0.23243377 0.843466 0.07094549 0.95219755 -0.6508508 -0.99082035 0.2961186 -0.5251017 0.98430014 -0.74578655 -0.7983564 -0.110910244 0.5428098 -0.7040459 0.47597024 -0.4110015 -0.71189076 -0.18979603 0.46865088 -0.64612776 -0.9040997 0.048442736 -0.65854156 -0.16590674 0.70454746 -0.37810606 -0.1487222 -0.7769932 0.14817788 0.9680579 0.5975052 -0.6578836 -0.37849405 0.2299482 0.94249463 0.7008538 -0.9368337 0.18409751 0.82567936 0.94042516 -0.09352747 0.8804635 0.36223203
-0.81852883 -0.5544704 -0.8222329 -0.15509972 0.42686266 -0.32386625 0.78568643 0.117746614 -0.009441399 0.0364998 0.20060676 0.4486718 -0.88934857 -0.06584992 -0.45084494 -0.9749643 0.7556828 0.8858401 0.5235919 -0.82014585 -0.94574237 0.95283204 -0.64566636 0.5233867 -0.09460529 -0.94278395 0.11629845 -0.83344513 -0.14587423 0.058084495 0.19922817 0.83093464 -0.3605946 0.5220585 0.86003274 -0.31357273 0.25844845 -0.9804537 -0.13940123 0.32411537 -0.60688376 0.5569662 -0.5975141 -0.35689163 0.8667849 0.12843196 -0.68298554 -0.15904826 -0.5303463 0.529637 -0.0066316635 -0.10396678 -0.76169735 -0.7272523 0.99620795 0.94601876 0.9044856 0.96462667 0.45438066 -0.6421153 -0.69816685 -0.5342709 0.07915196 -0.9858226 0.078314394 -0.08424982 0.4569353 -0.43920243 -0.46176884 -0.072371975 -0.0583972 0.49148047 -0.6980241 0.45514995 0.4613798 -0.97406435 0.93476605 0.10834724 -0.088914126 0.8239187 0.041091632 0.5028257 0.27565387 -0.91730714 0.614536 0.3074069 0.13850532 -0.15815718 -0.052680366 -0.9839312 -0.8449578 0.29746395 0.08573368 0.9401771 -0.7041884 -0.6142807 0.19314389 -0.45089224 0.2693859 -0.19356719 0.9710536 -0.5801005 -0.13215064 -0.6615505 0.022635598 -0.12662116 -0.9344147 0.3765891 0.2915531 0.77651817 0.8524191 -0.9343221 0.93393 0.14227812 -0.06750609 0.070446834 0.8590556 0.88220435 -0.0477006 -0.761359 -0.19571857 -0.9151365 0.67809343 0.47306743 0.8894183 0.9303023 -0.22826111 0.97356784 0.9703962 0.35607243 -0.93843967 -0.8329866 -0.9496218 0.7056103 0.81811947 -0.6028046 -0.7460768 0.34582603 0.5855819 -0.55298173 -0.61398745 0.7739605 -0.6863985 0.598401 0.71503156 0.11699863 -0.8376759 0.888324 0.10700282 0.26982665 -0.23448811 -0.72919554 -0.5968792 0.8006136 0.5999488 0.046872422 -0.015612484 -0.43112898 0.23132369 0.6339113 -0.6628345 0.07036399 0.03925791 -0.8084937 -0.23481333 -0.16551012 0.46938643 0.8518761 -0.339908 0.8849156 -0.11256768 -0.43304586 -0.2816676 0.6005756 0.009285225 0.7194395 -0.6500528 -0.78455657 0.055460416 -0.39547163 -0.97838295 0.2247684 -0.5180721 0.02175763 0.1055113 0.25465664 0.30803826 -0.5081068 -0.9062767 -0.56414 0.80373544 -0.45576915 0.6331227 0.7348113 -0.98434275 -0.8379586 -0.9934613 -0.08565384 0.4260843 0.18889718 -0.7317953 -0.042570252 0.2108899 0.005285805 -0.746867 -0.92403996 -0.69422305 -0.88038313 0.46260193 0.049555086 0.50111777 -0.1124964 -0.4148414 0.49897248 0.6361542 0.3596312 0.33442596 -0.09227878 0.8490007 0.5613095 0.9221701 -0.014832036 0.35312885 0.31587374 0.44228762 -0.5693118 0.5889268 0.25304013 0.09054086 -0.9471255 0.66780216 0.54377216 -0.513585 -0.7676477 0.6961413 0.26227507 0.12750408 0.84273595 0.3623907 0.6938083 0.65478384 0.5207994 0.5819356 0.3542908 -0.6991928 0.34134665 0.24155301 0.3689289 -0.81120753 0.12476029 -0.42419514 -0.902263 -0.9823143 0.40625983 0.83285207 0.605008 0.88363355 -0.43052557 0.90491253 0.6738419 -0.17545927 -0.3571742 -0.9732505 -0.7941361 0.76262903 -0.46182033 0.6901185 0.8927117 0.86137754 0.82681006 0.7787857 0.83423054 -0.88592476 0.014687173 0.8116789 0.08470551 -0.71832466 0.89566207 -0.5831564 0.8481267 -0.07026281 -0.34368443 -0.83989096 -0.010838738 0.5203843 -0.2974159 -0.8551541 -0.034326844 0.40283448 0.1251797 0.38974667 0.8220178 0.096401736 0.81716686 0.43117797 -0.78445077 -0.70758265 0.18004826 -0.06029903 -0.8477853 0.19684169 -0.6894466 0.7629292 -0.5579853 0.5873653 0.8282764 -0.095355816 -0.12695296 -0.043972433 -0.8467773 -0.15381426 -0.60952395 -0.71530557 0.4309064 -0.1978351 0.81457686 -0.007891992 0.97150373 0.8035311 -0.22386225 0.51207453 0.61204433 -0.12828867 -0.29274207 -0.94367015 -0.5121756 -0.2587149 -0.99062335 0.20553349 0.6433108 -0.10789012 -0.067129575 -0.66442955 0.18821526 -0.1512512 0.69277906 0.41863465 -0.6042629 0.27890363 0.8170158 0.7990519 -0.5748324 0.3453491 0.8504436 0.4708367 0.03467753 -0.5770644 -0.15996794 -0.82953805 0.87157124 -0.7918096 -0.9492846 -0.14078864 0.83700854 -0.8815017 -0.06454105 -0.71436155 -0.9681624 0.053890064 0.63642335 0.766528 -0.98525304 -0.43952087 -0.35897774 0.21878691 -0.28467888 -0.31430286 -0.38139772 0.21050948 0.25176612 0.7944054 0.6296977 0.62133914 0.896665 0.09835001 0.6750385 -0.11940681 -0.72280204 -0.6514883 0.83371973 0.8227952 0.93942726 0.3429825 0.1725052
-0.5497265 -0.49559182 -0.7738368 0.34465888 0.5028054 -0.65901905 0.28527606 0.116258696 -0.09258982 -0.31044543 0.49158716 0.18963557 -0.9152271 -0.7669988 0.6055531 -0.9850757 0.8234344 0.9313792 0.8750952 -0.82528645 0.015894609 0.8269407 -0.48148516 0.7985459 -0.5186433 -0.9715517 0.9511136 -0.027808782 -0.5786505 0.60009897 0.34915692 0.23685879 -0.61125255 0.48023883 0.44047582 -0.07454399 -0.5007678 -0.39444146 -0.46619722 0.79521936 -0.5421798 0.82925355 0.15237403 0.51968855 0.3685396 0.28980216 -0.7380852 -0.4870125 -0.9816975 0.30382642 -0.23169951 -0.558222 -0.41633162 0.5871709 0.9680757 0.97356135 0.36537644 0.9385473 -0.32949716 -0.9607777 0.54515487 -0.9211547 0.047509816 -0.86926514 0.52468723 -0.19532149 0.76544696 -0.30711028 -0.68715316 -0.9070676 -0.13835107 0.25628814 -0.5774269 0.7322556 -0.4394087 -0.6937054 0.33190146 0.09431 -0.28419948 0.7598412 -0.34782866 0.5817422 0.6030134 -0.7481042 0.54291594 0.58944446 -0.6442014 -0.20157315 -0.4950096 -0.52858055 -0.5953327 0.6377522 0.6468976 0.4688908 0.17703873 0.32167023 0.25056496 -0.8040357 -0.6193336 0.45742202 0.9960644 -0.16770051 0.76607066 -0.9054756 -0.8841602 -0.41653347 -0.88873845 0.74708945 0.13659938 0.4849674 0.92625266 -0.38794997 0.61652964 -0.14763543 -0.27539057 0.16581638 0.80499494 0.64787453 0.36556098 0.4282458 0.18699479 -0.9291578 -0.2422936 -0.20331457 0.22820893 -0.1869491 -0.79048175 0.9023089 0.867901 0.16251135 -0.8018817 -0.24735767 -0.38599786 -0.06130617 0.1968001 -0.07197935 -0.79134303 0.57093006 0.867283 0.54938745 -0.09074554 0.8340184 -0.39387968 0.37723443 0.47037524 0.043598555 -0.57542014 0.91706467 -0.62349945 -0.52903044 -0.53771144 -0.517854 0.33525473 0.48774326 0.5084555 0.29070312 -0.80609787 -0.56233096 -0.6336913 0.97536033 -0.67568225 -0.39789417 -0.2128095 -0.52135533 -0.8015255 0.566115 0.92612433 0.9377744 -0.06715623 0.06039377 -0.79533315 0.13243459 -0.45624033 0.3153817 0.8067701 0.8351463 0.5959094 -0.8769327 -0.23616122 0.26492038 -0.41463488 -0.4730712 0.43764645 -0.6933755 0.6466312 0.7310443 -0.6086653 -0.939508 -0.78113693 0.046601832 0.27621263 -0.069026455 0.86834174 0.6433377 -0.87814486 -0.7133032 -0.725966 -0.35934374 0.66960144 0.49983087 -0.31961936 -0.666719 0.28489724 0.41242465 -0.66236985 -0.85532534 -0.76692796 -0.027853003 0.4783608 0.3096507 -0.5770594 0.09510676 0.4500658 0.1276136 0.050986778 0.4746358 0.504259 -0.010641663 0.7540084 0.18760489 -0.02222435 -0.2845206 -0.62571234 0.5786594 0.753893 -0.41046658 0.43114692 0.4840563 0.3870712 0.51484984 0.7229875 -0.07113253 -0.6178579 -0.39720222 0.47944283 -0.32271188 -0.32953084 0.39457884 -0.588539 0.93834996 -0.7157104 0.18080948 0.746178 0.01015721 -0.7436643 0.76464504 0.22028045 -0.39405015 -0.73860794 0.3599812 0.122959286 -0.014362723 -0.7054698 -0.17442083 0.7002193 -0.55946374 0.39475718 -0.751081 0.60669416 0.35476983 -0.07217269 -0.33096185 -0.060132403 -0.48582026 0.6417895 -0.15451059 0.92868954 0.4290825 0.732992 0.43936586 0.109904245 0.3319015 -0.44564393 -0.25494236 0.028392915 -0.09548954 -0.7914059 -0.08412587 0.07938221 0.8771307 0.52716887 0.10283388 -0.7712711 -0.5661839 -0.61332095 -0.37043348 -0.64863276 0.85680324 0.19007489 0.27302527 -0.26401365 -0.06462748 -0.23421857 -0.44136754 0.36110178 0.026837992 -0.9315774 0.950169 -0.0425705 -0.95493335 0.86648506 -0.87417024 0.5424125 -0.26051486 0.1376602 0.6119639 0.08918928 0.021067219 0.67748326 -0.45112482 -0.1779641 -0.055172477 -0.64217174 0.5073886 0.5354626 0.08613996 -0.7443567 0.48901445 0.91302484 0.25158656 0.73219305 0.38698483 -0.13880773 -0.5841154 -0.8623611 -0.35865012 0.06701178 -0.030873384 -0.31641153 0.23459972 -0.35948882 -0.019289795 0.41454634 -0.4202287 0.1767537 0.3082798 0.28097674 0.40610763 0.267921 0.8356785 0.20868117 0.27530798 0.7724913 0.43669632 0.59941125 0.3106686 -0.3828677 -0.63317966 0.43818346 0.55801225 -0.36308065 -0.43701035 0.09278665 -0.39040563 -0.846583 0.29476383 -0.459914 0.1955321 0.2995158 0.7409624 0.05394172 -0.23208612 -0.7988481 -0.42668858 -0.15712027 0.62739336 -0.11609115 0.53519595 0.14606042 -0.41413346 0.8526902 0.80201054 -0.3509282 0.89520335 -0.5334123 0.13011594 -0.015822718 -0.54075605 -0.34530792 0.40939495 0.89138746 0.77142847 0.53837585 -0.34673938
0.07750596 -0.8421489 0.5074493 -0.09875713 -0.7153169 -0.05825747 0.037371427 -0.6039733 -0.055504784 0.6656054 0.19046883 0.16742317 -0.08041561 0.78901887 0.09221129 0.2722352 -0.53587115 0.14680888 -0.3641569 0.52701706 -0.11879483 -0.108999506 0.05904776 0.0056759864 -0.0015534312 0.7179637 -0.1911301 0.48178354 -0.005386919 0.17429121 0.34241384 -0.5316706 0.22653988 0.07902744 -0.015490279 0.010318436 0.35631627 -0.14820665 -0.29530877 -0.071773306 0.7040963 0.08450854 0.43326446 0.018176839 0.24221064 -0.7385462 -0.16267894 -0.14479168 0.08642371 -0.16329603 -0.094574004 0.1432518 0.031863406 0.16307887 0.047793284 0.41435158 0.02636087 -0.29694036 -0.057545006 0.30417913 0.5507989 0.25934052 0.37383386 -0.7297607 -0.49265888 0.0607837 -0.20122644 0.4890731 -0.043346934 -0.021140873 -0.0054795444 0.037153468 0.13593137 0.021323383 0.13297865 -0.13287172 -0.02867432 0.29682523 0.23467223 0.08952962 0.42055538 -0.1794207 0.16841733 -0.2158055 -0.02781256 -0.4029898 0.38242096 0.89676845 -0.28566223 0.16231832 0.70728326 0.3003133 -0.2488916 -0.4592656 0.019062012 0.13877724 0.10020897 -0.4220721 -0.033950016 -0.8953486 0.31353575 -0.059418894 -0.014248401 0.6107881 -0.41590655 -0.031651452 -0.018031389 -0.09895359 0.20971449 0.28176618 0.0288556 0.31052864 -0.75626636 0.014439538 -0.06269697 -0.2160217 -0.5083194 -0.23201002 -0.37865365 -0.01278311 -0.81453955 0.07777271 0.041324005 0.16585328 0.039192885 -0.3211392 0.6862003 -0.058594495 -0.18992701 -0.23019977 0.30365342 0.09324455 -0.3655419 0.40088654 0.6667348 -0.32148543 0.051955268 0.35221046 0.19065706 -0.20485452 -0.09653643 -0.17548138 -0.38396615 -0.31723595 -0.30604255 0.15149578 0.72658175 0.07618902 0.7124497 0.7638673 -0.33055168 0.27880678 -0.18065591 -0.0153309405 -0.22105694 -0.06568049 0.18622014 0.28613734 -0.10661963 -0.04351251 0.34015846 -0.15501848 -0.18393409 -0.46207157 0.2423713 -0.38112903 -0.14521214 0.28179803 -0.5362581 -0.8077128 -0.18057418 -0.2921543 0.38406458 0.18064219 0.15479335 -0.69776446 -0.06838401 -0.074190736 -0.15692982 -0.2049735 0.053311735 0.53840625 0.5047511 0.17662534 0.3078096 -0.36342168 -0.97528124 -0.13367541 0.59071106 0.034035444 -0.0942937 0.22948892 0.012951497 0.06711318 -0.18078436 0.18214744 0.3860011 0.017230839 -0.10067509 -0.7690652 -0.032401904 -0.1541167 0.1415777 -0.09737539 0.6824748 0.07686387 0.7940114 -0.1539481 0.27807987 -0.67502695 -0.55179673 -0.2927084 0.4717835 0.09457941 -0.29702842 0.20255822 -0.3006018 -0.43650687 -0.5121651 -0.07862605 -0.2231777 -0.0051818937 0.38675174 -0.45016593 -0.0821577 -0.39496654 0.13384643 -0.15677303 0.15211432 0.21930245 -0.18671083 -0.90846574 -0.16244496 -0.118089065 0.06854938 0.20221208 0.04860297 0.41341555 -0.52747476 -0.14845686 0.04765603 0.13862953 -0.22519621 -0.17469586 0.023303464 0.13255583 -0.24062178 0.8255981 0.068285465 0.31601912 -0.7401118 0.02207467 0.5421846 0.17377682 -0.21541525 0.21869725 -0.48176193 -0.26342994 0.23464233 -0.20663401 -0.19387724 0.003863752 -0.06338761 -0.10465316 -0.09461896 -0.13718314 -0.2247289 0.07803781 -0.21955188 -0.3001274 0.09874651 -0.40008786 0.37504134 -0.19023556 -0.94325256 0.15577231 -0.055949718 -0.042128995 0.074322656 0.4617536 0.45580697 -0.68699 0.046455264 0.39309472 0.027406454 0.122089766 0.3479213 0.098675884 -0.031815026 -0.14331605 -0.3101309 0.40078047 0.016672269 -0.13882114 0.08625054 0.22084203 0.036165133 -0.1799627 -0.13216881 0.420998 0.7298349 -0.13642018 -0.8446684 0.5949688 -0.3305384 0.0575881 -0.2650746 0.1428824 -0.310971 0.1597257 0.26581132 -0.15440513 -0.39410594 0.055167288 0.013578057 -0.24349642 -0.16008408 0.32480156 0.25126594 0.495265 -0.13671553 -0.2340559 0.010486193 -0.22366513 -0.2861361 -0.052945763 0.09495288 0.3905754 0.002896905 -0.1722892 0.022687316 -0.04424892 0.6305705 -0.22699752 0.19463931 0.25365338 0.29575187 0.23528342 -0.03542064 0.1254366 0.05413127 -0.23040274 -0.0011083484 0.93503183 -0.5307165 -0.22813788 0.21576327 0.26736754 -0.022030327 0.02833967 0.58201236 -0.3093612 -0.29089543 0.008935563 0.14564684 0.24430338 -0.108036384 0.2084278 0.38245183 0.6536723 0.00972943 0.45363277 0.073376596 0.17320219 -0.051587984 0.06513959 -0.08570136 0.056195617 0.040423486 -0.27381563 0.1289646 -0.09117384 -0.09649789 -0.020128042 0.25462344 0.042134546 0.06740132 -0.020606965 -0.19122654 0.2530245 -0.08022575 -0.54966813 -0.753526 -0.54697454
-0.7575229 -0.55500716 -0.16439709 -0.49616358 0.3826495 -0.72342896 -0.4096233 0.45110953 0.30443916 -0.8628644 -0.6110666 0.33243266 -0.93655443 -0.28002125 0.49534816 -0.958853 0.19092563 0.6851249 0.4452095 -0.65463465 -0.049998075 0.4770739 -0.4108474 0.114064276 0.2511761 -0.9629949 0.57674414 0.4903548 -0.55795944 0.2241438 -0.51855284 0.114559494 0.44678527 0.82682425 0.67421424 -0.817232 -0.78887516 -0.77252036 -0.15184814 0.32278728 0.73770446 0.7122168 -0.08453491 0.9366233 0.7923655 -0.41171315 -0.44170764 0.34353343 -0.9648444 0.91368735 -0.11030963 -0.71248925 0.40132833 0.65902853 0.66285616 0.8525929 -0.60046434 0.25155675 -0.7002013 -0.61521244 0.7151118 -0.687907 -0.82501054 0.19012526 0.99956965 0.7752698 0.41208205 0.32733303 -0.3297562 0.2110012 0.27980334 -0.32119247 0.42036438 0.84249043 -0.71385264 -0.2290926 0.484301 0.32475463 0.88680583 0.18914479 -0.84124506 0.9343969 -0.6821609 -0.27717257 0.8855426 -0.073502444 -0.20712599 0.2896997 -0.9279263 -0.234085 -0.6226089 0.38239634 0.90108323 0.5117402 0.1132366 0.92041737 0.56497514 0.35859364 -0.021948257 0.6720414 0.9970121 0.45978534 0.9026134 0.077832244 0.18568501 -0.95899737 -0.9825947 0.6486864 0.26276436 -0.6518192 0.8452228 0.33707765 0.73952895 -0.64647853 -0.78463733 -0.9234772 0.51886904 0.92873484 0.2891275 0.79334676 -0.82153404 -0.09185505 -0.6706084 0.84088963 0.83352476 -0.69366944 0.33446974 0.93871456 0.9979949 0.22720744 -0.62585866 -0.2546636 -0.11571908 -0.62435144 0.39013174 0.33122334 -0.28894228 0.982729 -0.13532318 0.57918864 0.2372174 0.2702507 0.80806315 -0.6912479 0.97431856 -0.8606993 0.752044 0.9616155 -0.5191876 -0.8720004 -0.91636515 -0.49643275 -0.24630392 0.7536229 0.8326223 0.62364155 -0.8302852 -0.88006705 -0.93120927 0.95343506 0.30222708 -0.962443 0.5157797 -0.29157418 -0.9136014 0.9040646 0.6152345 0.98879075 -0.22524847 -0.97305423 -0.49565074 -0.75229824 -0.81131625 -0.7154786 0.8704837 0.8151416 0.8228351 -0.028162122 -0.3190463 -0.28589767 0.6689996 -0.28258818 0.16514555 -0.3501653 0.87647504 0.6936768 -0.88170314 -0.49642783 -0.89897984 -0.5842856 -0.6418091 -0.8503463 0.7076902 -0.75662464 0.19179678 -0.8285175 -0.18065974 -0.7339636 0.6604494 -0.7134782 -0.74486345 -0.95972073 0.993511 0.27987513 -0.8986374 -0.9760853 -0.4469662 0.22006959 0.8217158 0.66378564 -0.6061648 -0.39211375 0.68761104 0.59807885 0.7661365 0.84357154 -0.38167602 -0.00590353 -0.18752623 0.047150653 -0.19546402 0.859805 -0.31507012 -0.07753148 0.93643755 0.24779485 0.18366286 0.97401285 -0.9181062 0.07527788 0.42037803 -0.5558963 -0.45189962 0.8038456 -0.2150648 0.120510064 -0.4832904 -0.79238564 -0.84032345 0.9778785 -0.87821305 0.70625806 0.8974414 -0.007963892 -0.82832813 0.76075107 -0.16489206 -0.6507126 -0.86282814 0.8432328 -0.49950275 -0.43763068 -0.5249947 -0.67946017 0.7338987 -0.85563564 0.16001227 -0.7776985 0.53345746 0.695234 -0.046424385 0.3898821 -0.2595584 0.08305549 0.9306928 -0.45424503 0.84534925 0.3123263 0.81931794 0.16683169 -0.9546019 0.738142 0.39551574 -0.13073368 -0.9989463 0.08906248 -0.9269389 -0.84164524 0.31195125 0.9414444 -0.22285287 0.633151 -0.91859627 0.57295895 -0.7454161 -0.7329661 -0.5744508 0.28440428 -0.34330463 -0.13810925 -0.34868598 0.20125543 0.35174477 -0.32812092 0.31074718 -0.007837637 -0.9776018 0.6172054 -0.6760205 -0.12167411 0.39639768 -0.8813377 0.7658502 -0.42089927 0.9187649 0.7248303 0.44636846 -0.9078235 0.9265939 -0.92021066 -0.076800026 -0.0056389896 -0.37520766 -0.3775019 0.50356776 -0.60493726 -0.7512236 -0.6456138 0.95971656 0.48027506 -0.112851 -0.77521276 0.97404003 -0.769157 -0.88850594 -0.6278622 -0.49857596 -0.28122076 -0.7217475 -0.22352754 0.4675942 -0.49483916 0.28851765 0.5520507 -0.3663045 0.8387887 0.42442667 0.9742823 0.8830513 0.76675034 -0.6961477 -0.42393535 0.904639 0.17011583 0.77048105 0.41534224 0.58067995 -0.5751571 0.22986847 0.23203851 0.8830469 -0.94684505 0.5481417 -0.8737325 -0.9176079 -0.41329822 0.58438367 0.010645037 0.70522106 -0.24777932 -0.7561161 -0.31617 -0.52895564 -0.8238685 -0.024950322 0.7195839 0.035912868 0.5457324 0.9048146 -0.956431 0.35931948 -0.2339872 0.6814299 0.7258131 -0.845612 0.6732235 -0.7882484 -0.034308925 -0.31955057 0.7673984 0.5770929 0.46106878 0.8571229 -0.28935093
-0.34582797 0.033203363 0.56247264 -0.55553675 0.9935503 -0.19016501 -0.85788536 0.5308215 0.6340207 0.48404106 0.7636138 0.5664351 -0.15124038 -0.48645055 0.060180515 -0.7376577 0.0619604 0.64521277 0.78751624 0.02301526 -0.012211442 0.9967229 -0.4353636 0.99030113 -0.13210073 -0.41844696 0.5188472 -0.027951717 0.34673434 -0.86886984 -0.3059178 0.95398617 -0.048016407 0.80100465 0.5153571 -0.29424098 -0.7857187 -0.9290298 -0.47358692 -0.028086782 0.5465726 -0.58638746 0.35620636 0.5654739 -0.01927489 0.009025395 -0.9320861 0.6266612 -0.35989314 0.5674573 -0.65543246 -0.9630343 0.8804594 -0.044985324 0.986339 0.3656111 0.74868244 -0.7960979 -0.8824917 0.70053744 0.20904389 -0.9779539 -0.40167117 -0.922402 0.76659214 0.56372607 0.4331879 -0.70512116 0.093803406 0.99770015 0.54922974 -0.343767 -0.5802603 -0.5274992 0.42848107 -0.85955906 0.021213055 0.8685721 -0.24380161 -0.44281185 -0.04795131 0.7313246 -0.11750721 -0.5670316 0.56448627 -0.36230084 0.98314345 0.5542345 -0.51406664 -0.76434934 -0.8421265 -0.8190606 0.43704614 0.99742466 -0.42111218 0.6889626 0.2553059 -0.60828024 -0.002618581 -0.61058736 -0.5255611 0.31394213 0.7910433 0.028716087 0.5577807 -0.86054116 -0.62022734 0.25109303 -0.56136537 -0.4180611 0.21887636 -0.7615756 0.23540156 -0.0123770535 -0.087863 -0.64398247 0.7741382 0.9519092 0.5002989 0.5634752 -0.9709841 -0.9135953 -0.6107406 -0.4185933 0.017922416 0.034270793 0.9943901 0.90598017 0.5629077 0.961033 -0.7369961 -0.45456734 0.028340831 0.049921393 -0.20426324 0.31013578 0.8385236 0.6522323 -0.6037401 -0.16605273 -0.8413799 -0.57197744 0.53281695 -0.58212084 0.723769 -0.38217416 0.5912346 0.70523906 0.59450316 0.028457776 -0.5473193 -0.5307574 -0.98253953 0.89331686 -0.9521562 0.05570653 -0.9914772 -0.76769245 -0.98901 0.38189602 0.88003856 -0.323942 0.5546935 -0.05924818 -0.07785322 0.54683554 -0.68018794 0.58698124 -0.18431322 -0.11737615 0.9051137 -0.45648676 0.030389614 0.31708956 0.9078765 -0.60382587 -0.6370736 0.007348925 -0.57829696 0.45210534 0.41869056 0.9447225 0.32990524 -0.345347 0.08265132 0.78606176 -0.5731808 0.5953394 -0.7831788 0.8335774 0.12864545 -0.5701541 0.3622422 -0.40324095 0.564724 -0.15984404 -0.88791 -0.55875075 -0.570961 -0.9048946 -0.5194518 0.06852549 0.28077453 0.79917526 -0.8227043 -0.96582425 0.6031372 -0.8373288 0.50586355 0.56419176 0.910124 0.06806353 -0.08788994 0.046377577 -0.34415507 -0.8140056 -0.8238918 -0.17870867 -0.7593613 0.8774525 0.9021377 0.5723834 -0.5453665 0.71510375 0.47060025 0.97480804 -0.37538737 0.9857583 -0.57319057 -0.68632126 0.06121525 -0.8473997 -0.17915475 0.53736347 0.6336492 0.5420155 -0.18230411 0.5281328 -0.66168916 0.75063276 -0.68347406 0.9849837 0.63916403 0.9895431 -0.97820735 0.71299565 -0.5907898 0.642248 0.15452868 -0.064215556 -0.5707605 -0.5238242 -0.7738923 -0.5616957 0.58571786 -0.023528904 -0.48599258 0.57681984 0.6140556 0.5627584 0.62462354 0.42339307 0.51519257 -0.059174746 0.7478138 -0.09401618 0.3733762 0.71089876 0.93237484 0.828071 -0.50392294 0.07237632 -0.6223515 0.08815047 -0.56109667 0.78302276 -0.5032267 0.008421987 -0.8988254 0.57347995 -0.6594411 0.71663034 -0.5634339 0.23016429 -0.42641163 -0.83453363 0.5758234 -0.8000994 -0.5595608 -0.7691332 0.6240382 0.5153313 0.2592423 0.6106688 0.5609273 -0.98254144 0.61639804 0.54952 -0.66500664 0.9936701 0.07468013 -0.4826612 0.4735605 -0.88804233 0.81584805 0.2442282 0.998801 -0.37359637 0.18780524 -0.62801087 0.33341712 -0.9411714 -0.61298937 -0.5872201 -0.06860644 0.122929215 -0.8740797 -0.20527716 0.5741278 0.82974184 -0.6975641 -0.8266385 -0.15424994 -0.36510494 -0.5128569 -0.05642277 0.3142981 -0.97013843 -0.9771738 -0.4426505 0.9538996 -0.9730221 -0.61328375 0.7421231 0.28066266 0.80877817 0.17431924 0.6606188 0.06904793 -0.4482607 -0.57071745 0.59835094 0.72112465 0.9760772 0.98643947 0.9516891 -0.44868484 0.1765473 -0.49225897 0.9552014 0.08939499 -0.97998315 0.41596562 0.85548675 -0.11979598 -0.78123605 0.5789393 -0.20819782 0.9078722 0.4948002 0.56295097 -0.9007317 0.6566182 -0.3691454 -0.57621616 -0.2975507 -0.6449669 -0.88227355 0.60299027 -0.6019139 0.39905483 0.22806805 0.95666647 0.56233925 -0.3986202 0.5857657 0.16501606 -0.581697 -0.7956979 0.47456953 -0.564397 -0.6695179 -0.411775 0.14742853
0.38963532 0.49653193 -0.9802545 -0.5365833 0.98556334 -0.85409385 0.7403079 -0.45368654 0.6714019 -0.754306 -0.7639426 -0.73561937 -0.94747955 -0.84473586 -0.076399654 -0.866467 0.9804021 -0.7909993 0.9536993 -0.96815366 0.60668254 0.99396664 -0.9978555 -0.9841013 -0.92280215 -0.99387366 -0.9077452 -0.90280265 -0.71435434 -0.98510563 0.98858035 0.9046336 -0.9299713 -0.99196154 0.50029075 -0.96670884 -0.99967176 -0.5743112 -0.53745574 0.9950963 0.8658725 0.6809508 0.6860392 -0.42442134 -0.7308239 0.26802915 0.3450965 0.39988795 -0.98629576 -0.9754526 0.6653986 0.5590333 0.75564814 -0.46728182 -0.98877287 0.9731941 0.99820155 -0.328312 0.96316355 -0.6197028 -0.99642676 -0.98797977 -0.5941509 -0.96604395 0.7328954 -0.45709142 -0.989826 -0.9999838 -0.7364886 -0.9999294 0.64880854 0.99764335 -0.5043909 -0.5640637 0.9483542 0.9483061 0.30145538 0.81105715 -0.6831155 -0.5587009 -0.99656004 0.86388505 0.6967461 -0.97904027 0.23229194 -0.82047683 -0.083948255 0.52522886 -0.9542985 -0.9797108 0.057082083 0.92814827 0.95037717 0.99932694 0.9441328 0.968281 0.9635182 -0.012127593 -0.95584273 0.85445714 -0.42404306 -0.09125924 0.06768595 0.22393396 -0.9769909 0.0027861241 -0.8699183 0.1373722 -0.80969524 0.984591 0.83696234 0.8581008 -0.6745619 -0.06475273 0.88659763 -0.9057184 -0.9803279 0.9330446 0.59715664 -0.054805502 -0.91729724 0.46775103 0.9901202 -0.594783 0.17492105 0.786786 -0.55844015 0.59717077 0.5747623 0.5415039 0.10381622 0.92991006 0.17766681 0.9931973 0.8274741 -0.5359246 0.6567466 -0.99585646 -0.95960903 0.69918436 -0.9941746 -0.41947943 0.8117046 0.9264125 -0.65244645 -0.15464455 -0.9094107 0.6456927 -0.6747261 -0.9892292 0.66320807 -0.59946287 0.13726604 0.99932474 -0.57417184 0.9902336 0.9235038 0.017219976 -0.23464201 0.9197778 0.99751407 -0.20064868 0.8864068 -0.9999315 0.9678923 0.65443367 -0.9998547 0.9590668 0.862311 -0.57214266 -0.97341955 -0.96844065 -0.99824625 0.88461226 0.99983424 -0.6416134 -0.9454539 0.031271383 -0.2781921 0.5824267 -0.29584548 0.9816602 -0.825363 0.10882598 -0.5580709 -0.59362036 -0.4902769 -0.9156135 -0.99241734 0.7982427 0.8413521 -0.41202956 0.23764934 0.3596341 -0.3785624 -0.8502794 -0.56954414 0.73350126 0.9697285 0.9943223 0.43880683 0.63028526 -0.71408206 -0.99419725 0.8330433 0.54261804 -0.04243572 0.02362229 -0.56153345 -0.9901193 -0.994772 -0.63499844 0.24134518 0.8513055 0.595416 -0.9522162 0.7529843 0.51264656 -0.72245896 0.94371444 0.8719236 0.84014446 -0.71837187 -0.9215278 -0.4449011 -0.31948325 -0.9775277 0.9992381 -0.9892227 -0.6774143 0.02691086 -0.61287314 0.24094567 0.9628685 -0.58823574 0.2534856 0.7278668 -0.9003134 0.9851594 0.58966565 -0.8603529 -0.6505855 0.56692284 0.9974202 -0.9988185 0.96335846 -0.1766778 0.9977907 -0.9499737 -0.9699572 -0.45237482 0.9988345 -0.9487711 0.02958535 0.58457386 -0.59777147 0.5890126 0.54827034 0.8560678 -0.9564499 0.9742822 -0.96077824 0.5908106 -0.06402363 0.91330004 0.27029654 0.7662642 0.98028797 0.6828371 -0.9862007 -0.9819888 -0.60749555 -0.6014062 -0.03336073 -0.23930508 0.70212144 -0.97279143 -0.88116646 0.35712865 0.051314533 -0.80447555 0.9494144 0.5659257 -0.99997395 -0.5626023 -0.79200447 -0.9561775 0.94145936 0.7306733 0.9879483 0.56464714 -0.99226284 0.9974111 -0.24301898 -0.4289417 0.06509907 0.30098206 0.58445704 -0.6861216 0.5624571 0.29513866 0.9993723 0.838155 0.5602116 0.8130006 -0.4581311 0.72249997 -0.92252785 0.80893666 -0.74524605 -0.9212953 0.07932166 -0.93721795 0.9767861 0.50005335 0.9777479 -0.99999946 -0.98078096 0.9583771 0.31116986 0.095930725 0.92647344 -0.80719465 0.083678186 -0.80153084 -0.90054834 -0.57857317 -0.99951035 -0.7132648 -0.4841994 -0.53207123 -0.89600444 -0.57929647 -0.6198951 -0.8532952 0.9997224 0.58107734 -0.14898866 0.7842108 -0.803145 0.9977478 0.28550214 0.8573387 -0.6879936 0.99995446 -0.5701605 -0.9748908 -0.62086874 -0.905666 0.9998934 -0.95752025 -0.6333463 0.5788411 0.9994118 -0.9969389 0.5801623 0.7750707 0.9834252 0.44525328 -0.8809782 -0.73079926 0.9546702 -0.6416302 -0.7529484 0.6990222 -0.92315805 -0.6373631 -0.99872386 -0.9868682 -0.39299014 0.5639896 0.99286735 -0.9413531 0.5651754 -0.54723155 0.112811126 -0.8062966 -0.497038 0.9862685 -0.86309075 -0.56716853 0.78018194 0.08406654 0.26448837
0.6511748 -0.9707086 -0.44781986 -0.056933515 0.45201406 -0.38105658 0.5694513 0.14915255 0.39354005 0.47930676 0.4283195 -0.65773505 -0.87223274 -0.53877383 0.1211261 -0.33463255 -0.19408093 0.533764 0.09556201 -0.2060906 -0.45013365 0.017890835 -0.561481 -0.4837282 -0.27409047 -0.2816044 -0.47650036 -0.55769926 -0.25781772 -0.8221342 0.5594366 0.5589211 -0.6348713 -0.41536558 0.488422 0.3217753 -0.7388426 -0.69042236 0.4124276 0.19279985 0.953556 0.56277764 0.7753729 -0.70081455 -0.053818062 -0.39930853 0.24317275 0.4566723 -0.62732166 -0.15451455 0.18918768 0.5512588 0.64281124 -0.07283135 -0.6894583 0.25513375 0.95809484 -0.43668348 0.60691506 -0.15055174 -0.8715007 -0.82552606 -0.84485894 -0.8560349 0.016652727 0.48711663 -0.40733203 -0.92644495 -0.57358944 -0.26424697 0.9407147 -0.26435503 -0.33255714 0.45728412 0.85174006 0.30771464 0.7061992 0.45124778 -0.2648737 0.2781784 -0.43938944 0.24029715 0.8275016 -0.93444717 0.4781714 -0.8442026 -0.2812139 -0.14589952 -0.4450928 -0.56271356 -0.4042233 0.15041587 0.46958125 0.61352783 0.7203707 -0.70514125 0.20571443 -0.0902016 -0.8877537 0.036051333 0.5812668 0.5800365 0.57852435 0.42023456 -0.5407645 -0.44931835 -0.8892582 -0.7203704 -0.66021526 0.33870366 -0.16689919 0.135452 -0.92695355 0.7472198 -0.035805307 0.030391565 -0.19223137 0.5998932 0.68465066 -0.4996079 0.5566156 0.29248402 0.60034794 0.38556093 0.020464476 0.42174116 -0.54822654 -0.577504 0.06561433 0.85421914 -0.16998237 0.9043224 0.72250944 0.59569454 0.7680651 0.28716594 -0.26524597 -0.26983824 -0.529665 0.3513973 -0.093562126 -0.5906219 0.100975476 0.6331922 -0.18345961 -0.64732015 -0.13449393 0.31160927 0.7167009 -0.8616307 0.07620288 -0.47094885 -0.8232535 0.38546336 -0.5348658 0.21123469 0.4415288 -0.17401262 0.28186917 0.039860446 -0.53368837 -0.13234974 0.6238244 -0.44414532 0.89731365 0.15839095 -0.98651594 0.6481094 -0.16412278 -0.48892042 -0.65095747 -0.74606085 -0.76883614 0.2250093 -0.20172869 -0.6233807 -0.24191403 0.29592085 0.112861484 0.5548448 0.005146149 0.49780318 -0.02317696 0.19465864 -0.8719105 -0.2534793 0.8854895 0.49066132 0.009638667 -0.028707558 0.2818987 -0.15975468 -0.30202624 0.7134676 -0.16795681 -0.5251221 -0.67841893 -0.23271549 0.18134157 0.30562115 0.31444064 -0.6016666 -0.10453684 -0.73446083 -0.117467016 -0.7248976 0.046358526 -0.7715267 0.5778419 0.31317157 -0.43476838 0.2920702 0.48353186 -0.005439119 0.63345486 -0.36939868 0.4478554 -0.6165393 -0.32059038 0.3471546 0.3633726 0.5481975 -0.33237574 -0.53175217 -0.772172 0.6806745 -0.3423252 0.9559138 -0.7283085 -0.72185504 0.022685638 0.7058219 -0.13779595 0.22727405 -0.69313323 -0.6826464 -0.029936912 0.32362917 0.7484351 -0.048724797 -0.8555805 0.8140081 0.7433013 0.90975386 -0.6461141 0.42733815 -0.14824861 0.72008884 -0.85727406 -0.8748981 -0.26662308 0.7700016 0.13389811 -0.35577157 0.68022066 -0.118130974 0.19943526 0.8089027 -0.40766212 -0.12900318 0.7832907 0.16717905 0.10952053 -0.671784 0.7353394 0.48918232 0.37999716 -0.09768646 0.44749203 -0.72283244 -0.85984 -0.17721963 0.45320228 0.93274397 -0.7796536 -0.6601022 -0.26634565 -0.7510303 0.5008644 -0.38076454 -0.8549633 0.24826033 0.54219925 -0.6219741 0.12835743 -0.21314475 -0.14087932 0.46548373 0.8063338 0.463769 0.8654954 -0.5522497 0.29468924 -0.2642325 0.6851203 0.5311709 -0.8499278 0.10415138 -0.754355 -0.44205406 -0.08223941 0.82136935 -0.034048393 0.8412954 -0.7366457 -0.5512673 -0.7036287 -0.22606452 0.22343104 -0.414424 -0.61253226 -0.43294808 -0.070775576 0.44888714 0.6237524 0.6100114 -0.95399714 -0.39534128 0.42293873 0.24900593 -0.62377274 0.5754758 -0.4741664 0.35988286 -0.17627965 0.27595398 0.24752316 -0.9188973 -0.7407865 0.06094421 -0.5741152 -0.515987 -0.28751403 0.09682998 -0.13845378 0.080585144 0.7953622 -0.030926978 0.033971343 -0.2709805 0.11838368 -0.53966534 0.15233347 0.47285393 -0.107495025 0.64966184 -0.30793017 -0.1236912 -0.8167618 0.8772159 -0.8618419 -0.6067318 0.5900394 0.47995204 -0.65589625 0.81888974 0.44165388 0.31509328 0.83855623 -0.85109955 0.75857824 0.42219356 -0.80133903 -0.33664814 -0.31186354 0.21866275 -0.046466682 -0.31813228 -0.37425178 -0.04374532 0.009790554 0.6383055 -0.33036238 0.7600957 -0.61840117 0.8653624 -0.5531908 -0.21632537 -0.08643351 -0.4107839 0.25480875 -0.17517713 0.28017244 -0.4649432
-0.5891362 0.15264143 -0.27258104 0.24714395 0.8493643 0.28793448 0.87251085 -0.10259416 0.67764056 -0.74868196 -0.5796056 0.70029473 -0.9958386 0.7167775 0.6565764 -0.95381576 0.9167397 0.5789925 -0.020635203 -0.6682318 -0.783563 0.74739236 -0.9147212 0.1287013 -0.8662476 -0.670771 -0.48273733 -0.6633842 -0.08823799 -0.119631395 0.16624074 0.601617 -0.83890736 -0.35623607 0.67780703 -0.43415216 0.28331268 -0.48834613 0.3437375 0.093741596 -0.9055128 0.9636531 -0.5887713 0.32262367 -0.6148412 0.27056396 -0.2645871 0.4628923 -0.9272383 0.9227392 -0.39184853 -0.3679187 0.0057677105 -0.23021136 0.88406074 0.63789994 -0.44042712 0.6207283 -0.24011934 -0.7515841 0.868976 -0.73270977 0.35145542 -0.1796695 0.3745559 -0.40361473 0.8549088 0.14254318 -0.8039569 -0.029252674 0.022155538 0.49730158 -0.8968313 0.16559583 0.8433215 0.26020002 0.8766383 -0.5230569 0.75737214 -0.31806216 0.12395118 0.9132187 -0.05955887 -0.64484024 -0.2137204 0.35906112 -0.82307565 -0.73522866 0.725564 0.36803362 -0.11448021 0.7409604 0.70297873 0.57717454 0.71146023 -0.3100429 0.17474577 -0.19451082 0.38662902 -0.4696906 0.95730424 0.06912511 -0.3507344 -0.7002253 -0.89843565 0.0068665305 -0.8619598 0.604206 0.4367414 0.2934864 0.23612648 -0.64807945 0.030514684 0.4780078 0.16833696 0.5083507 0.2649509 0.35780618 0.43255338 0.8553176 0.48813376 -0.9775918 0.68835145 -0.8234675 0.6001293 0.70114934 0.271396 0.8823436 0.85534966 0.20689133 -0.9795294 -0.59156823 -0.052814007 0.4200514 0.4127232 -0.4501658 -0.68138677 -0.44551015 0.3754366 0.84166443 -0.5577199 0.09998733 -0.889817 0.74368805 0.70516455 -0.2711421 -0.86002487 0.7611892 0.3690679 0.5851504 -0.36791572 -0.23515818 0.09035228 0.55281574 -0.3772872 -0.14914477 0.36601183 -0.59123474 -0.24972562 0.6938354 -0.8088623 0.6337116 -0.6655991 -0.76904017 0.5189086 0.61939144 0.7797722 0.56852233 0.6987447 0.9492953 -0.72621274 -0.8040005 0.025453394 0.6732216 0.6990893 0.8160244 -0.59087116 -0.86958826 -0.12757714 0.05946504 0.17037168 0.01962436 -0.62378186 -0.5680497 0.36323398 -0.31986424 0.4641804 -0.9227483 -0.33646044 -0.4164597 0.8211596 0.20792004 0.9402722 0.7268342 -0.92694557 -0.96722776 -0.8948024 -0.5283913 0.92138207 0.849397 -0.8739546 0.3393791 -0.14568745 -0.03393912 -0.8560336 -0.7734184 -0.92575294 -0.118480444 -0.5358802 -0.23994714 0.40364575 -0.21227624 -0.42994353 0.79525477 0.149194 0.6204506 0.11184619 -0.893749 0.95544994 0.7867468 -0.2745846 -0.108217806 0.56556076 0.24453187 0.44474554 -0.70323706 -0.15606044 0.16620965 -0.27010944 -0.6862926 0.7232262 0.853953 -0.04128313 -0.2565408 0.7457238 0.24771851 0.702296 0.65124565 0.5213996 0.71753156 0.56898 0.36260527 -0.039537627 0.023072222 -0.6871421 -0.15518373 0.59440494 0.79892737 0.6142145 -0.39185825 0.19315721 -0.035496633 -0.525814 0.76029515 -0.026446756 0.5521135 0.50185704 0.392012 0.12653045 -0.5031259 -0.94149494 -0.9040054 -0.9079282 -0.7951589 0.5824049 0.033156734 0.93363607 0.28606245 0.86138296 0.17466412 -0.47742644 -0.5257835 -0.4075541 -0.34881878 0.92787814 0.07548229 -0.61290985 0.80944234 0.32016352 0.5235519 -0.7968558 -0.5519255 -0.6780958 -0.5844053 -0.84045595 -0.7418254 -0.9428286 0.720169 0.3037786 0.43172017 0.1520179 0.0793548 0.37328595 0.652817 -0.1812616 -0.38802418 -0.91361654 0.91066676 0.055446286 -0.6576441 0.23795922 -0.9040197 0.0023683668 0.29248428 0.2850291 0.010491534 -0.19945869 0.03949992 0.6273271 -0.25483087 0.46504527 -0.3697642 -0.796119 -0.2825514 0.74706775 0.6541445 0.278292 0.76348513 0.74741215 -0.3073732 0.5706434 0.83543825 -0.3919301 -0.5433888 -0.8156331 -0.34637144 -0.31108263 0.7890496 0.24567066 0.39455464 -0.61461306 0.782473 -0.80015206 -0.63596606 0.18361685 0.8262182 0.049545355 -0.19926879 -0.016999317 0.9054101 0.6183025 0.2735676 0.6555755 -0.05369679 0.91507465 -0.53126687 -0.93147355 0.1817917 -0.6412637 0.90831774 -0.60164833 -0.6667742 -0.33883527 0.43996084 -0.7553244 0.261105 -0.32756683 -0.47467276 -0.13667679 0.52868176 -0.62706494 -0.9257126 0.2484254 -0.5547751 0.101109065 0.4877203 -0.44424322 -0.35574704 -0.69218904 0.18524276 0.9428914 0.46163964 -0.5629647 -0.07905726 0.2075099 0.8432417 0.5783721 -0.85184205 0.25486088 0.87654495 0.90303785 0.0035845258 0.88471425 0.029777158
-0.56128746 -0.4984005 -0.6978864 -0.21803112 0.07964635 0.008348413 0.652204 -0.1659562 0.21779352 0.4198608 0.6458583 0.72424304 -0.9822123 -0.68410784 -0.19512871 -0.959449 0.76896757 0.7666366 0.6090377 -0.5939917 -0.8587587 0.97259724 -0.54206246 0.44788504 0.30612788 -0.7988822 0.9722246 -0.81166565 0.26239178 0.24619119 0.9662016 0.60398823 0.08811319 -0.15432557 0.88642293 0.19214788 -0.382534 -0.9927697 -0.4808942 0.8231701 -0.48966286 0.3936925 0.3327019 -0.52650946 0.76592386 0.41630685 -0.7314403 -0.95043874 -0.9049926 0.30793813 0.25022975 0.0030129682 -0.596613 -0.96146387 0.9057581 0.97060084 0.5326017 0.92287254 -0.36186966 -0.87385225 0.22644038 -0.805421 0.4597594 -0.96959704 -0.09752195 -0.5753945 0.4232182 -0.73191077 -0.42332193 -0.33556497 -0.19927429 0.82036823 -0.39889073 -0.17727664 0.45061138 -0.9684938 0.7876233 0.501604 0.006097257 0.79590565 0.5872022 0.33948007 0.5952617 -0.95187056 0.92507595 -0.29801866 0.05346195 -0.46831244 0.2805148 -0.9575716 -0.80843294 0.5281595 -0.36320642 0.8779748 -0.8933263 -0.35773346 0.45409295 -0.9715148 0.36914948 0.022779906 0.97887206 -0.5023809 -0.83140737 -0.6683118 -0.6259751 0.41845614 -0.5202236 0.42743054 0.7338325 0.5688764 0.6585314 -0.52976906 0.84800565 -0.6019205 -0.6119903 0.39000487 0.7644878 0.5953139 0.5777981 -0.75401855 -0.011220856 -0.66760355 0.8220554 -0.08320751 0.8899116 0.8742296 -0.716315 0.95723355 0.9564963 -0.6589461 -0.9481326 -0.896869 -0.9090629 0.4963847 0.5210392 -0.7586354 -0.91842014 0.5756653 0.6617453 -0.21428122 -0.5416397 0.48444453 -0.6599223 0.5555384 0.594964 0.2424399 -0.9149918 0.7436994 -0.4486152 0.80970275 -0.82787883 0.008612087 -0.5073452 0.5389284 0.28148377 -0.15122451 0.39500993 0.6656969 0.8623433 0.5023475 0.11246942 0.0445335 -0.15599635 -0.65848804 -0.013846092 -0.47762764 0.7174057 0.34546497 0.24598868 0.9820676 -0.3882164 -0.6754137 0.383381 0.70207566 0.13459645 0.35632664 -0.5987863 -0.34151605 0.1274724 -0.9404232 -0.9121327 -0.057856187 -0.37464505 -0.31714368 -0.13162589 -0.015196908 -0.038006954 -0.60023904 -0.88842106 -0.6775714 0.55310124 -0.4383064 0.5395484 0.6356653 -0.94466877 -0.66729456 -0.96986145 0.22965957 0.8781356 -0.08357615 -0.2509158 -0.6383115 0.38520265 -0.47839892 -0.35384634 -0.83374655 -0.83267945 -0.9665586 0.75903493 -0.46912155 0.5827298 -0.59852177 0.42799386 0.11680785 0.46592674 0.37355465 -0.118197665 -0.23651385 0.74210334 0.8440801 0.96932554 -0.781795 0.67756677 0.8761494 0.43714097 -0.5766225 0.48784912 0.5021568 0.32292074 -0.9078909 0.85528976 -0.29980773 -0.2197369 -0.741999 0.68601596 -0.34816194 0.05570168 0.87966555 0.7640088 0.90865475 0.11834557 0.5861372 0.7865234 0.70891666 -0.21849643 0.5307581 0.14400984 0.24359342 -0.94197935 0.027149588 -0.78196836 -0.90970343 -0.95954794 0.609033 0.8093967 0.18784058 0.4438716 -0.57715976 0.77422124 0.15672146 -0.815403 -0.42036048 -0.9457151 -0.5916736 0.8868453 -0.45328954 0.31324384 0.6785163 0.41741994 0.7942492 0.4293045 0.8052207 -0.5691711 -0.5283471 0.5224758 -0.36573464 -0.81304747 0.8511505 0.15736088 0.9427424 0.10536955 -0.08675519 -0.4194073 0.62478215 0.4823404 0.055258334 -0.8387415 0.33673978 -0.07945206 0.06105522 -0.17042078 0.5760554 -0.40191442 0.8912233 -0.16263957 0.14836898 -0.030010179 0.9180695 -0.29559815 -0.95512086 0.93813324 -0.902699 0.41112247 -0.14295101 0.275813 0.3740989 0.6061995 0.27818596 -0.21689016 -0.8495285 -0.26661658 -0.945929 -0.90601885 0.54698235 0.39711925 0.8071358 -0.13298586 0.82386637 0.73105043 -0.43865365 0.48357326 0.7138196 -0.9183376 -0.81179863 -0.724748 -0.26388142 -0.5343117 -0.97352165 -0.9237604 0.15507358 0.655352 0.059418112 -0.43505198 -0.093384214 -0.74938875 0.058563948 0.41777086 -0.38815776 0.93596375 0.33577776 0.60710037 -0.07377643 -0.799989 0.97331554 0.16033499 -0.18701817 -0.8639638 -0.18189724 -0.44237024 0.80261934 -0.82605743 -0.91360956 -0.82954276 0.87820727 -0.52717954 -0.46428075 -0.99673235 -0.8702709 -0.061564043 0.51505744 0.4821426 -0.6684639 -0.6822544 -0.3039792 -0.12532572 0.07925644 0.17820649 -0.63169414 -0.38549688 -0.35558057 0.84091455 0.9187133 0.7460483 0.83854866 0.4125499 0.8827779 0.31188425 -0.92867965 -0.6963882 0.8529525 0.96294576 0.79377043 0.3381401 -0.1240671
-0.43748266 -0.7038467 -0.67925763 0.56553227 0.24007717 -0.5787036 0.28915825 0.14248842 -0.19345307 -0.003032926 -0.008311715 -0.3523163 -0.9098001 -0.65066296 0.53362614 -0.93451947 0.78162646 0.9183769 0.9758639 -0.8858453 -0.19516484 0.7894681 -0.45069155 0.79420304 -0.5288142 -0.93307877 0.8885693 0.21113223 -0.42896146 0.2480931 0.17782027 0.27971467 -0.51180255 0.20523757 0.27126715 0.2128138 -0.16435991 -0.6552972 -0.1476508 0.4672138 0.2092468 0.83771765 0.2668801 0.04178866 0.08725592 0.46387053 -0.7157307 0.034666352 -0.9346095 0.6277172 0.4092661 -0.3501531 -0.35941616 0.42092475 0.9637271 0.96422726 -0.23953865 0.80312514 -0.33771226 -0.9682254 0.5321502 -0.709028 0.22075671 -0.6832058 0.33827442 0.13985372 0.4046642 -0.17379867 -0.5362165 -0.7673354 -0.28856847 0.5071152 -0.07398227 0.644471 -0.09599987 -0.44932947 0.80216455 0.349355 0.3626887 0.44782764 -0.30314168 0.73802614 0.22548683 -0.68813163 0.9433863 0.32253096 -0.33327302 -0.5442708 -0.37565693 -0.33035636 -0.05058307 0.36414403 0.6124552 0.41982383 -0.187379 0.21335636 0.39828998 -0.23860432 -0.18878049 0.47748992 0.988872 0.2451714 0.44880292 -0.72351646 -0.464032 -0.5556471 -0.4937708 0.51089656 0.67592746 -0.2545188 0.63746613 -0.10297144 0.77934957 -0.5442728 -0.35757637 -0.4521035 0.7537602 0.9865825 0.5976775 -0.080526344 -0.53840375 -0.97341305 0.028958704 0.50881946 0.8288331 -0.30407315 -0.7294665 0.6934731 0.9910191 0.15459576 -0.61948544 -0.19746119 -0.073947445 -0.30682737 0.099853724 0.018261 -0.5846968 0.91710734 0.6902454 0.58349276 0.38774917 0.87047076 -0.54706156 -0.22956914 0.66427696 -0.35868633 -0.5993988 0.81439257 -0.25276285 -0.35343078 -0.67617327 -0.4516449 -0.0021684228 0.54751706 0.69760793 0.43837315 -0.4041077 -0.34881037 -0.59335744 0.84107894 -0.44790667 -0.52749276 -0.34300953 -0.04336575 -0.659751 0.08682061 0.6563377 0.70333856 0.54320467 -0.08586211 -0.7610871 -0.48369476 0.118165314 -0.008896102 0.8436948 0.8926656 0.31922194 -0.6513476 0.2917359 -0.24645917 0.2210023 -0.56845814 0.013732627 -0.7178289 0.1688903 0.63013375 -0.4084913 -0.9628906 -0.76186067 -0.6505531 0.021165857 -0.6474882 0.93666923 0.40821654 -0.63443166 -0.7138161 -0.40983468 -0.08046587 0.8194533 -0.06408229 -0.13107213 -0.8198906 -0.103616536 -0.08711747 -0.25783294 -0.9598021 -0.36534575 0.008369951 0.916415 -0.094146475 -0.49845135 0.043250244 0.61221784 -0.47780678 0.045578294 0.25981143 -0.51553 -0.18850629 0.39024734 0.48497805 0.5277613 -0.4472298 -0.2867677 -0.008587209 0.7116677 -0.16310194 0.019750101 0.64427805 -0.06695951 0.28906843 0.88508785 0.47098565 -0.6349759 0.107263945 0.46475127 -0.4524896 -0.5076058 0.1497978 -0.4084071 0.9720666 -0.35922343 0.8511793 0.90934765 -0.20659164 -0.1825409 0.59346986 0.051478054 -0.5235635 -0.86526245 -0.10968287 0.3065426 -0.5677999 -0.20287162 -0.22950552 0.44868228 -0.24478659 -0.11242979 -0.7516505 0.76939803 -0.02863933 -0.4889617 -0.3183687 -0.7004627 -0.33671868 0.8759418 -0.4552144 0.9578307 0.102498524 0.7776683 0.43602547 -0.31418952 0.95300144 0.16542916 -0.4297817 0.109745726 -0.4640057 -0.6834185 -0.011895135 -0.1596382 0.8960815 0.5501204 0.21755709 -0.5704793 0.43992808 -0.179117 -0.39750332 -0.7242207 0.8451296 0.3594122 0.06373133 -0.75085735 0.50692594 0.2473226 -0.5119109 -0.282994 0.20415634 -0.86694133 0.7655146 -0.2603905 -0.8561427 0.943588 -0.77484804 0.57027465 0.11712362 0.13682441 0.024835862 0.29351813 0.016302155 0.2817447 -0.24570215 -0.26681876 0.120610945 -0.6995248 0.6268884 0.20716666 -0.09085313 -0.38433278 0.3682002 0.91574275 -0.29561967 0.6867266 -0.038825564 0.25318742 -0.42151198 -0.93834114 -0.18301131 -0.2730762 -0.13598186 -0.62456733 -0.020858407 0.23063111 -0.054087523 0.5597908 -0.2102645 -0.28520054 0.4325234 0.029354362 0.42570755 0.79715323 0.75670886 -0.41017902 -0.36136124 0.61490875 0.22176738 0.5675267 0.29052952 -0.08015569 -0.36224484 0.14790934 0.0366591 0.40470213 -0.7715108 -0.2725845 -0.32138503 -0.43112853 -0.27164865 -0.45791885 -0.22570513 0.3660437 0.65721077 0.14235197 -0.93437815 -0.9294088 -0.43068498 0.08867463 0.5824391 0.21789509 0.27896944 -0.12989374 -0.6595929 0.79353863 0.57683486 0.30717573 0.9349219 -0.13486205 0.74480104 0.15991099 -0.3663482 -0.88589257 0.92648464 0.96512854 0.6824786 0.3717891 -0.41252184
0.07750596 -0.8421489 0.5074493 -0.09875713 -0.7153169 -0.05825747 0.037371427 -0.6039733 -0.055504784 0.6656054 0.19046883 0.16742317 -0.08041561 0.78901887 0.09221129 0.2722352 -0.53587115 0.14680888 -0.3641569 0.52701706 -0.11879483 -0.108999506 0.05904776 0.0056759864 -0.0015534312 0.7179637 -0.1911301 0.48178354 -0.005386919 0.17429121 0.34241384 -0.5316706 0.22653988 0.07902744 -0.015490279 0.010318436 0.35631627 -0.14820665 -0.29530877 -0.071773306 0.7040963 0.08450854 0.43326446 0.018176839 0.24221064 -0.7385462 -0.16267894 -0.14479168 0.08642371 -0.16329603 -0.094574004 0.1432518 0.031863406 0.16307887 0.047793284 0.41435158 0.02636087 -0.29694036 -0.057545006 0.30417913 0.5507989 0.25934052 0.37383386 -0.7297607 -0.49265888 0.0607837 -0.20122644 0.4890731 -0.043346934 -0.021140873 -0.0054795444 0.037153468 0.13593137 0.021323383 0.13297865 -0.13287172 -0.02867432 0.29682523 0.23467223 0.08952962 0.42055538 -0.1794207 0.16841733 -0.2158055 -0.02781256 -0.4029898 0.38242096 0.89676845 -0.28566223 0.16231832 0.70728326 0.3003133 -0.2488916 -0.4592656 0.019062012 0.13877724 0.10020897 -0.4220721 -0.033950016 -0.8953486 0.31353575 -0.059418894 -0.014248401 0.6107881 -0.41590655 -0.031651452 -0.018031389 -0.09895359 0.20971449 0.28176618 0.0288556 0.31052864 -0.75626636 0.014439538 -0.06269697 -0.2160217 -0.5083194 -0.23201002 -0.37865365 -0.01278311 -0.81453955 0.07777271 0.041324005 0.16585328 0.039192885 -0.3211392 0.6862003 -0.058594495 -0.18992701 -0.23019977 0.30365342 0.09324455 -0.3655419 0.40088654 0.6667348 -0.32148543 0.051955268 0.35221046 0.19065706 -0.20485452 -0.09653643 -0.17548138 -0.38396615 -0.31723595 -0.30604255 0.15149578 0.72658175 0.07618902 0.7124497 0.7638673 -0.33055168 0.27880678 -0.18065591 -0.0153309405 -0.22105694 -0.06568049 0.18622014 0.28613734 -0.10661963 -0.04351251 0.34015846 -0.15501848 -0.18393409 -0.46207157 0.2423713 -0.38112903 -0.14521214 0.28179803 -0.5362581 -0.8077128 -0.18057418 -0.2921543 0.38406458 0.18064219 0.15479335 -0.69776446 -0.06838401 -0.074190736 -0.15692982 -0.2049735 0.053311735 0.53840625 0.5047511 0.17662534 0.3078096 -0.36342168 -0.97528124 -0.13367541 0.59071106 0.034035444 -0.0942937 0.22948892 0.012951497 0.06711318 -0.18078436 0.18214744 0.3860011 0.017230839 -0.10067509 -0.7690652 -0.032401904 -0.1541167 0.1415777 -0.09737539 0.6824748 0.07686387 0.7940114 -0.1539481 0.27807987 -0.67502695 -0.55179673 -0.2927084 0.4717835 0.09457941 -0.29702842 0.20255822 -0.3006018 -0.43650687 -0.5121651 -0.07862605 -0.2231777 -0.0051818937 0.38675174 -0.45016593 -0.0821577 -0.39496654 0.13384643 -0.15677303 0.15211432 0.21930245 -0.18671083 -0.90846574 -0.16244496 -0.118089065 0.06854938 0.20221208 0.04860297 0.41341555 -0.52747476 -0.14845686 0.04765603 0.13862953 -0.22519621 -0.17469586 0.023303464 0.13255583 -0.24062178 0.8255981 0.068285465 0.31601912 -0.7401118 0.02207467 0.5421846 0.17377682 -0.21541525 0.21869725 -0.48176193 -0.26342994 0.23464233 -0.20663401 -0.19387724 0.003863752 -0.06338761 -0.10465316 -0.09461896 -0.13718314 -0.2247289 0.07803781 -0.21955188 -0.3001274 0.09874651 -0.40008786 0.37504134 -0.19023556 -0.94325256 0.15577231 -0.055949718 -0.042128995 0.074322656 0.4617536 0.45580697 -0.68699 0.046455264 0.39309472 0.027406454 0.122089766 0.3479213 0.098675884 -0.031815026 -0.14331605 -0.3101309 0.40078047 0.016672269 -0.13882114 0.08625054 0.22084203 0.036165133 -0.1799627 -0.13216881 0.420998 0.7298349 -0.13642018 -0.8446684 0.5949688 -0.3305384 0.0575881 -0.2650746 0.1428824 -0.310971 0.1597257 0.26581132 -0.15440513 -0.39410594 0.055167288 0.013578057 -0.24349642 -0.16008408 0.32480156 0.25126594 0.495265 -0.13671553 -0.2340559 0.010486193 -0.22366513 -0.2861361 -0.052945763 0.09495288 0.3905754 0.002896905 -0.1722892 0.022687316 -0.04424892 0.6305705 -0.22699752 0.19463931 0.25365338 0.29575187 0.23528342 -0.03542064 0.1254366 0.05413127 -0.23040274 -0.0011083484 0.93503183 -0.5307165 -0.22813788 0.21576327 0.26736754 -0.022030327 0.02833967 0.58201236 -0.3093612 -0.29089543 0.008935563 0.14564684 0.24430338 -0.108036384 0.2084278 0.38245183 0.6536723 0.00972943 0.45363277 0.073376596 0.17320219 -0.051587984 0.06513959 -0.08570136 0.056195617 0.040423486 -0.27381563 0.1289646 -0.09117384 -0.09649789 -0.020128042 0.25462344 0.042134546 0.06740132 -0.020606965 -0.19122654 0.2530245 -0.08022575 -0.54966813 -0.753526 -0.54697454
0.60634065 -0.86546695 -0.7383047 0.21194072 0.73086846 -0.2904275 0.3410638 -0.5706067 0.7163955 0.38466296 0.81013 -0.9216579 -0.82734704 -0.3227773 -0.3010031 -0.20885548 -0.27670527 0.4669739 -0.27826232 -0.76991975 -0.28697926 0.7052521 -0.75151783 -0.92893434 -0.8959507 0.24441324 -0.7987406 -0.8795646 0.39072415 -0.6612693 0.8059851 0.038867667 -0.8425274 -0.7981199 0.30359435 -0.033850178 -0.48597777 -0.2960542 0.16923907 0.8478342 0.7742842 0.8162457 0.5464096 -0.9084418 0.19995445 -0.9067152 0.0013206452 0.16709378 -0.81627095 -0.48381966 -0.3481847 0.87875545 0.92158264 0.68076664 -0.93056226 0.8642087 0.94091064 0.20667738 0.9222047 -0.28564548 -0.95094013 -0.8882182 -0.428878 -0.9366789 0.26950312 0.7705318 -0.87332183 -0.9037191 -0.1772264 -0.79107344 0.94948 0.7676161 0.0046874285 0.20025441 0.8664936 0.57442486 0.765011 0.53995055 0.0984712 0.07014501 0.35069257 -0.044849467 0.6740333 -0.9451854 0.021385506 -0.75053865 -0.8280641 0.7620039 -0.80000275 -0.8050831 0.44499236 0.4755658 0.6066785 0.852472 0.7160041 -0.48485786 0.83819497 -0.1064922 -0.39234453 -0.11506909 -0.013082489 -0.1289418 0.15873969 0.56292224 -0.6829178 0.7345772 -0.94749135 -0.9527678 -0.9114778 0.9421829 -0.65291476 -0.5904045 -0.962435 0.87121785 0.46766496 -0.043967217 -0.7746585 -0.025381245 0.613979 0.19454165 0.0488887 0.82426775 0.9464569 -0.2416029 -0.11445828 0.4457084 -0.22522373 -0.32239974 0.2756985 0.5930842 -0.49852282 0.95520824 -0.07760242 0.8829684 0.64193547 -0.22157797 -0.08257798 -0.8448858 0.053850487 0.9245168 -0.86339635 -0.2799166 0.63368946 0.781497 0.4122461 -0.063521594 -0.67323965 -0.20246375 0.6518127 -0.55611956 0.20376231 0.0627604 -0.81530184 0.51056457 -0.917037 0.5395553 0.9129642 -0.14006326 0.08949181 0.89311385 -0.6415779 0.24642253 0.7467946 -0.6845898 0.8896359 0.17938392 -0.93958104 0.19545086 -0.6898881 -0.85786736 -0.54253376 -0.90186274 -0.894104 0.6695092 -0.2576229 -0.61283135 -0.00089648366 0.6094084 -0.38560212 0.16947918 -0.41709924 0.629561 -0.3855201 0.107464164 -0.8898983 -0.39896742 0.735706 -0.09510426 0.1663128 0.20281038 -0.2889515 -0.107714966 0.26427197 0.92748034 -0.7133271 -0.88052094 -0.85980177 0.79894984 0.66183496 -0.19098477 -0.06439195 -0.57575274 -0.8013726 -0.8692598 0.042195812 -0.80115414 0.56807774 -0.90773964 0.5832664 -0.35274944 -0.9791465 0.039139003 0.64825636 -0.37769613 0.49034277 -0.75225836 0.7191793 -0.2675354 -0.5049833 0.94283587 0.3734437 0.8694792 -0.6474228 -0.9619595 -0.7279956 -0.01360108 -0.55132306 0.9228771 -0.9366114 -0.28634536 0.030278742 0.72287303 -0.6546994 -0.54446113 -0.26625675 -0.7253971 -0.09123012 -0.50354624 0.8949055 0.35873342 -0.8605312 0.78513306 0.43786147 0.8576865 -0.5411195 0.7156354 -0.66322154 0.33489233 -0.92707336 -0.8348718 -0.6095744 0.66102725 -0.021737121 -0.11452502 0.7377647 0.5776015 0.3601808 0.7049409 0.022829195 -0.598456 0.72226083 0.35106617 0.48753166 -0.64711547 -0.08977634 0.79387087 0.76500875 0.646963 0.9129243 -0.9400669 -0.80607325 -0.30342376 0.5817572 0.39326414 -0.7279777 -0.748276 -0.41722926 -0.3263685 0.7033201 -0.050778374 -0.6151939 -0.7313942 0.833677 -0.8133901 -0.022564843 -0.15294054 -0.2520787 0.4169628 0.7564117 0.8250812 0.7683794 -0.87190425 0.7543414 -0.24773765 0.26947445 0.6356028 -0.78000224 0.043935124 -0.7673406 -0.48149034 0.5498988 0.80268973 -0.6746062 0.86123914 -0.4357316 0.5286526 -0.76534486 -0.7701705 0.019116417 -0.47103155 -0.4234388 -0.12107234 0.09876384 0.7306714 0.38965428 0.8937626 -0.9000206 -0.62771523 0.94753337 0.32349408 0.4182422 0.529191 -0.56969345 0.6283213 -0.5702096 0.7286159 0.1990328 -0.7076669 -0.8176676 0.44546518 -0.7274005 -0.7557855 0.24850518 -0.5588949 0.4616517 -0.6110629 0.5670705 0.14684807 -0.36907554 0.7695439 0.7129383 -0.55528075 0.51745045 0.18537307 -0.818786 0.3129114 -0.3719551 -0.4424685 -0.7509726 0.75283706 -0.82761157 -0.93813187 0.8643222 0.96106666 -0.8529166 0.7649794 -0.017485797 0.0033093942 0.4007897 -0.86205196 0.8405441 0.61637765 -0.9068661 0.34706682 -0.18820035 0.6190986 -0.08240731 -0.91756374 -0.9210524 -0.052829634 0.20685443 0.87265265 -0.6276196 0.060039073 -0.64009315 0.1783983 -0.82707036 0.5349919 0.25870258 -0.7200048 -0.037344065 -0.00010728836 0.034039855 0.11293188
